45 128
13 -0.023994893 0.050218094 -0.013844633 -0.079634905 -0.007256498 0.012638671 0.09434521 -0.027445432 0.07277621 -0.056532282 -0.03899055 0.19129023 0.04144623 0.040863823 -0.0679059 -0.15178655 0.101314776 0.061074156 0.10176558 -0.022394385 -0.10564696 -0.03174469 0.018150924 -0.19747715 -0.062542066 -0.013775909 -0.11510925 -0.21882522 0.09478717 0.17180575 -0.066230945 0.010056754 0.017573602 -0.065195754 -0.09390697 -0.037546262 0.08357925 0.027855037 0.29072985 0.026678722 -0.1209764 0.14309731 -0.09366414 0.07518023 0.019053465 0.122354805 -0.07525662 0.025153441 -0.036864214 -0.1281464 -0.017278168 -0.04549512 -0.067623384 -0.15162075 0.08878703 -0.10365891 0.10023727 0.00096313364 -0.14234678 -0.027335105 -0.031185621 0.033114467 -0.1168033 -0.20687403 -0.24268906 0.0017611682 -0.14435877 -0.00892735 -0.010561349 0.03807586 -0.01449947 -0.004578089 -0.1433931 -0.015941259 0.12288511 0.0006620925 -0.024073537 0.023563229 0.12035293 0.1290114 -0.30801865 -0.017311877 0.04947107 -0.01945879 0.08049232 0.07550886 0.026890682 -0.02812832 -0.13756861 0.11755504 -0.083450906 -0.039672416 0.027582947 0.16983882 0.0972204 -0.04386464 0.033078372 0.0943893 0.22324261 0.025241211 0.21867986 0.06526164 0.062375773 -0.045919757 -0.033889372 -0.029756954 -0.05622877 0.0526615 0.015646536 -0.01943218 0.005432148 0.065263204 -0.07668263 0.07631524 -0.011981893 0.12589419 0.03568242 0.04160613 0.14512737 -0.18460497 -0.05234067 0.030497462 -0.20848069 0.061205897 0.0198967 0.11533181 -0.0065767416 -0.0048134904
22 -0.020435618 0.051032525 -0.012265396 -0.08302868 -0.010957947 0.012333145 0.0880493 -0.026899893 0.07496671 -0.053384423 -0.04439535 0.19959395 0.041978378 0.04289343 -0.0668512 -0.1465045 0.10704398 0.06061026 0.09810563 -0.023008738 -0.10103556 -0.03687567 0.019673761 -0.1957808 -0.063690424 -0.012815039 -0.115341514 -0.2169607 0.09902604 0.17305765 -0.07142331 0.0020748735 0.020976137 -0.068352126 -0.10079331 -0.034777924 0.09337382 0.022297896 0.29544932 0.032178715 -0.128475 0.15087505 -0.101998135 0.08188591 0.021030523 0.11793115 -0.07480673 0.023098795 -0.032779448 -0.13096815 -0.015304875 -0.047888096 -0.07413666 -0.15247358 0.08351119 -0.10648628 0.10503682 0.0058973003 -0.14475593 -0.02929022 -0.02652444 0.039118268 -0.11853274 -0.20638762 -0.2505681 0.004497529 -0.14498869 -0.006699039 -0.011672355 0.040813748 -0.011044629 -0.009395143 -0.15434839 -0.019120662 0.1226709 -0.0021428145 -0.016113345 0.027913714 0.12636717 0.12975477 -0.3109687 -0.008869267 0.047571346 -0.028130252 0.088508144 0.080719955 0.026980247 -0.025760762 -0.13759625 0.12260474 -0.08492598 -0.037939347 0.027255412 0.17014095 0.10094553 -0.048195846 0.028824436 0.094568096 0.23215409 0.029354239 0.21964529 0.06653442 0.058420036 -0.048279427 -0.035195403 -0.02885144 -0.060321122 0.05918665 0.00998002 -0.017849877 -0.00092496607 0.06559486 -0.08088446 0.07758586 -0.016473085 0.12837029 0.043084726 0.037518695 0.15741228 -0.19182885 -0.06401584 0.03411192 -0.221715 0.06168494 0.027867267 0.11899378 -0.0099049155 -0.008105229
28 -0.026703391 0.053960867 -0.013183225 -0.084944256 -0.008969805 0.011883756 0.087597415 -0.022849794 0.06761606 -0.054006435 -0.044872176 0.19037746 0.035569087 0.05235214 -0.07450546 -0.15407248 0.11224828 0.063230105 0.1017056 -0.023912078 -0.103828706 -0.030817918 0.01985079 -0.19044928 -0.06769504 -0.017044472 -0.11913092 -0.21866725 0.09704575 0.16806261 -0.062102444 0.0028011214 0.015128274 -0.06787001 -0.10055235 -0.045534797 0.092188776 0.03253339 0.29859266 0.03238285 -0.12683605 0.14368147 -0.09975336 0.08208183 0.025550514 0.12067124 -0.070985384 0.026927797 -0.03436926 -0.13373932 -0.015294669 -0.044452414 -0.068178914 -0.1535148 0.089486636 -0.10818918 0.09633001 -0.0014996084 -0.14844106 -0.026874283 -0.035639443 0.030865205 -0.12098083 -0.19957982 -0.25152013 0.005135053 -0.1468725 -0.013054283 -0.00924497 0.03862574 -0.008509105 -0.0066240462 -0.15244114 -0.015964944 0.11557589 0.0021508934 -0.01717514 0.026085686 0.12419932 0.1256911 -0.30185723 -0.016050402 0.04797052 -0.0319441 0.083121054 0.07493551 0.021871766 -0.02412667 -0.13729894 0.1184545 -0.08963054 -0.034672935 0.026960038 0.17408328 0.094569325 -0.047649078 0.03146546 0.09041666 0.22988443 0.02095918 0.22295894 0.06673246 0.060426656 -0.04026256 -0.031802732 -0.03117564 -0.04785891 0.04773519 0.014237186 -0.02113133 -0.0017138484 0.060173057 -0.07867315 0.0736169 -0.016120436 0.11901308 0.04140768 0.040992297 0.143895 -0.18326682 -0.052959178 0.032362536 -0.19772258 0.06833303 0.028598253 0.11900936 -0.0046532685 -0.0009656654
26 -0.017217068 0.057707198 -0.013529112 -0.089684896 -0.011156725 0.010223072 0.09644213 -0.035824984 0.08097138 -0.060926918 -0.04399753 0.21044654 0.050782725 0.037824288 -0.07337168 -0.15868232 0.10384679 0.0616646 0.109032296 -0.03042771 -0.115035795 -0.038357716 0.024776386 -0.210079 -0.06424782 -0.015071559 -0.11677595 -0.22738984 0.10331143 0.1806298 -0.076760106 0.0057615726 0.021695742 -0.064816296 -0.108579494 -0.04159739 0.09426246 0.030651191 0.31002742 0.03018508 -0.1279967 0.15737599 -0.098745786 0.08195579 0.021652859 0.13538417 -0.07993492 0.030161321 -0.036529794 -0.13757956 -0.022365715 -0.046195105 -0.08022008 -0.1550594 0.0910551 -0.11566467 0.114999935 0.0027570182 -0.15210246 -0.03499154 -0.027977189 0.035632104 -0.12263698 -0.22353011 -0.2577591 0.003288495 -0.1551691 -0.0038392495 -0.015491284 0.038663056 -0.011682055 -0.010716728 -0.16323753 -0.023727695 0.13155699 0.0005903148 -0.022628907 0.03238094 0.12710507 0.13078886 -0.32791367 -0.01264576 0.05119239 -0.023876298 0.08226797 0.078902826 0.028792093 -0.030491196 -0.14942767 0.12804921 -0.08899979 -0.038877875 0.034534376 0.17502946 0.10863458 -0.042020928 0.023694986 0.09986828 0.23947397 0.031546243 0.23054197 0.07340976 0.063182354 -0.05214397 -0.038073864 -0.03124584 -0.06617408 0.055999935 0.0105893295 -0.024020217 0.0065971385 0.06924502 -0.077823736 0.08052298 -0.012414045 0.1347734 0.04631832 0.038384408 0.15808536 -0.19722167 -0.06673485 0.030501127 -0.23071702 0.062659346 0.02622289 0.12192161 -0.0070658196 -0.0044564363
4 -0.024728555 0.053308733 -0.020815775 -0.07954576 -0.003429712 0.008915545 0.09019252 -0.03308263 0.07272348 -0.05532924 -0.036099352 0.18967614 0.040445402 0.052769117 -0.07672987 -0.15375978 0.10675895 0.0657967 0.097194776 -0.019187411 -0.10561475 -0.028754553 0.018571468 -0.19144495 -0.061103567 -0.009152102 -0.11648223 -0.21591443 0.090829514 0.16119803 -0.06050042 0.003908232 0.016136428 -0.057511542 -0.09542319 -0.044996914 0.09047801 0.022894971 0.29289365 0.028556742 -0.1330596 0.14805673 -0.10462667 0.08685001 0.017149089 0.12483929 -0.07227201 0.03470447 -0.03870037 -0.13699989 -0.009959896 -0.05110464 -0.07427419 -0.15661578 0.09352404 -0.109189585 0.10128683 0.0020405555 -0.1535847 -0.027909432 -0.033254243 0.03806786 -0.123409346 -0.21053979 -0.2623792 0.0018190892 -0.14583124 -0.013456434 -0.010885189 0.041385464 -0.00759064 -0.0063391672 -0.15478751 -0.020133235 0.120802715 -0.00022549099 -0.018479066 0.028414031 0.1301441 0.13481785 -0.30908906 -0.016271178 0.057359263 -0.02935119 0.083152495 0.07259739 0.027945448 -0.023237891 -0.14139065 0.120537885 -0.08833956 -0.038310647 0.032218352 0.17668644 0.10172952 -0.05101693 0.03652904 0.096500225 0.23292638 0.030536998 0.2266581 0.06546397 0.06389213 -0.046440475 -0.035575904 -0.03263799 -0.052582074 0.054414246 0.0119793555 -0.017625581 -0.0029482124 0.06439631 -0.08460383 0.07181777 -0.016066134 0.13152169 0.04426779 0.045056928 0.1501975 -0.19561173 -0.055967115 0.032727215 -0.21432692 0.07088185 0.027045978 0.122701526 -0.010059408 0.0005306165
40 -0.011457164 0.0536726 -0.016127024 -0.07776226 -0.015178489 0.016088512 0.08900997 -0.034216333 0.07285055 -0.054919183 -0.045813195 0.20038246 0.04379551 0.027750537 -0.05355207 -0.14021194 0.090342045 0.052844636 0.10209826 -0.026141874 -0.11164633 -0.033318285 0.023717903 -0.19204159 -0.05789031 -0.016572082 -0.10646822 -0.20922062 0.09143939 0.16563462 -0.070535414 0.00556818 0.020113533 -0.06427146 -0.09639141 -0.030530237 0.08734656 0.028110867 0.28392106 0.029808423 -0.12552005 0.1504563 -0.0978874 0.08527783 0.026996741 0.1296687 -0.07864225 0.02297139 -0.031351004 -0.13532284 -0.02426267 -0.04755603 -0.07399714 -0.15056308 0.08817287 -0.11341188 0.11286509 0.0011939857 -0.13716984 -0.02910283 -0.020210898 0.04016301 -0.11882998 -0.21139246 -0.23718025 0.009112097 -0.14482652 0.00010630249 -0.012636752 0.034776717 -0.019287348 -0.009476897 -0.15410893 -0.017750995 0.12127414 0.002504458 -0.021063076 0.030661149 0.12114846 0.1262893 -0.31409955 -0.007813997 0.044667434 -0.025524264 0.08055257 0.08214771 0.031385653 -0.026709383 -0.1414615 0.11903695 -0.07486968 -0.03235625 0.034199014 0.16899231 0.10648721 -0.040112495 0.024564087 0.08740196 0.22957373 0.03156401 0.22575672 0.06948354 0.058860134 -0.048326503 -0.04277462 -0.031447478 -0.06180261 0.061812945 0.011225338 -0.021726709 0.012255823 0.06400196 -0.074743755 0.075216934 -0.0109727895 0.12913279 0.04231339 0.042864673 0.15525378 -0.18462156 -0.0641095 0.027900927 -0.22746398 0.048403777 0.026910385 0.11231676 -0.010347553 -0.0011571542
24 -0.022496417 0.05317191 -0.01631404 -0.08073421 -0.009195222 0.012223125 0.092930295 -0.030350376 0.0700225 -0.059571814 -0.046090744 0.19834301 0.044318672 0.041260928 -0.06760461 -0.15113817 0.10277251 0.060207646 0.09952555 -0.019335516 -0.10401331 -0.032655936 0.02225798 -0.19857201 -0.06406094 -0.0130927935 -0.1154353 -0.21894911 0.10244447 0.17125155 -0.069832966 0.008954479 0.012464345 -0.06496941 -0.10298677 -0.037613947 0.09330294 0.025624394 0.29361022 0.030163143 -0.13164574 0.15051909 -0.10692781 0.0865102 0.024059527 0.1322077 -0.07204194 0.02809395 -0.03741377 -0.13380429 -0.021594 -0.044043712 -0.06972135 -0.15761761 0.08906373 -0.11240541 0.10387791 0.0020040171 -0.14616962 -0.030663665 -0.031828746 0.039525554 -0.12069661 -0.21872807 -0.26074523 0.004114584 -0.1538 -0.012358611 -0.011091978 0.038252585 -0.010449691 -0.010649015 -0.15763512 -0.020094376 0.12962967 0.006256637 -0.01641544 0.027720628 0.12528084 0.129984 -0.32262465 -0.0115680685 0.053243354 -0.02696946 0.086088784 0.07984382 0.031754196 -0.029229514 -0.1436003 0.12247575 -0.08712642 -0.033160787 0.02535328 0.17704573 0.10485971 -0.03977687 0.026350932 0.09332524 0.23219095 0.023252426 0.22649184 0.06485218 0.060276084 -0.04243523 -0.037399832 -0.030230405 -0.061229896 0.054653082 0.009965759 -0.024008142 0.005616157 0.069539376 -0.07806284 0.076339684 -0.017428052 0.12758686 0.042290855 0.045711666 0.15850501 -0.19637436 -0.062377505 0.035292253 -0.22408995 0.0627576 0.032345325 0.118728675 -0.004687716 -0.0051673306
20 -0.027458455 0.05184554 -0.017652432 -0.0857054 -0.009193724 0.008298788 0.08974861 -0.029070832 0.063584276 -0.056705225 -0.041841615 0.18711874 0.04114047 0.048824824 -0.07623984 -0.15330766 0.111531496 0.058872137 0.09540598 -0.022258414 -0.101312585 -0.031124495 0.019528223 -0.19089012 -0.06285306 -0.014404646 -0.11676618 -0.21728542 0.09494462 0.1682413 -0.06392256 0.011075439 0.014246807 -0.062991895 -0.093880065 -0.038195822 0.08857202 0.028839443 0.2865123 0.03511387 -0.12445064 0.13949075 -0.09696716 0.07567427 0.023044255 0.12361903 -0.06944416 0.031485423 -0.035175696 -0.1251097 -0.013479793 -0.03969367 -0.0664017 -0.1526666 0.090934366 -0.107846685 0.09194321 0.004936931 -0.14705478 -0.02336523 -0.033317704 0.03245191 -0.11230094 -0.1993895 -0.24364398 0.001462633 -0.140905 -0.010511552 -0.005888384 0.036278147 -0.0060880925 -0.008384977 -0.14727953 -0.01878028 0.11519228 0.003986324 -0.015319546 0.02049781 0.12219314 0.12508358 -0.30042884 -0.014059166 0.05007921 -0.029651891 0.085961826 0.074704 0.025546338 -0.019973775 -0.13362768 0.11782187 -0.083427265 -0.03310659 0.02446222 0.17164825 0.092615806 -0.040559728 0.030348776 0.08993562 0.2191051 0.025713548 0.2181796 0.06483922 0.06112178 -0.03589308 -0.027000166 -0.027517766 -0.051753245 0.052450046 0.014569955 -0.01640508 -0.0018952135 0.05651096 -0.083488114 0.06972114 -0.02202878 0.122519895 0.04196165 0.04267242 0.14506052 -0.18124145 -0.05650234 0.027522804 -0.20594557 0.067181446 0.030648934 0.120703794 -0.009552249 -0.0032502809
38 -0.034261465 0.055945646 -0.017713405 -0.08212704 -0.0057015647 0.0023861043 0.08466933 -0.02742564 0.06321586 -0.05443688 -0.03792505 0.18188895 0.03624996 0.05499877 -0.08184839 -0.15256192 0.1107823 0.06815126 0.096645735 -0.019583406 -0.09065365 -0.028618548 0.01480197 -0.18313546 -0.06434177 -0.004892457 -0.11964753 -0.2168938 0.09397994 0.16920191 -0.06437616 0.0024093974 0.01763439 -0.06121458 -0.09794825 -0.04157046 0.09734356 0.02508341 0.29050905 0.03593253 -0.13064112 0.14732768 -0.104662664 0.08645776 0.02585866 0.118522495 -0.07186253 0.026886845 -0.03604101 -0.12808736 -0.007975572 -0.04484484 -0.06881395 -0.15626888 0.088228844 -0.110224396 0.10071875 0.0025343988 -0.15448332 -0.028291024 -0.04217506 0.0323799 -0.12064514 -0.20939346 -0.26449898 0.00280402 -0.14330827 -0.02394459 -0.005960066 0.042578813 -0.0064837392 -0.008179585 -0.14818846 -0.023235152 0.11607852 0.004843095 -0.021074034 0.020494927 0.1253668 0.12613612 -0.3074718 -0.017026855 0.06062326 -0.036800396 0.088782854 0.06739084 0.022644477 -0.024939636 -0.13257408 0.12116496 -0.09759025 -0.02973459 0.028700588 0.18181492 0.09842092 -0.04762865 0.026986862 0.099954255 0.22501835 0.022430291 0.22288823 0.063242085 0.06096389 -0.045449942 -0.027778592 -0.0363546 -0.04642713 0.048628964 0.0130687915 -0.022851944 -0.0061741318 0.05771004 -0.08403741 0.073244 -0.024786483 0.12545995 0.044624455 0.03674786 0.1405407 -0.18959364 -0.05245208 0.033790886 -0.2024121 0.07408769 0.032165825 0.12050132 -0.0056225443 -0.00027151598
14 -0.02959868 0.0566886 -0.018081957 -0.08842273 -0.010300132 0.0137881115 0.091166295 -0.028223917 0.06834045 -0.05889496 -0.03844181 0.19309658 0.035318807 0.050915126 -0.07822202 -0.15351824 0.11334532 0.066971175 0.10320133 -0.015150277 -0.09997142 -0.03216755 0.017001616 -0.19689256 -0.070300065 -0.012905305 -0.124772646 -0.22572519 0.09625728 0.17679894 -0.066321455 0.008084969 0.013455148 -0.06338165 -0.10076267 -0.042014666 0.09347313 0.03347719 0.29524574 0.03339837 -0.13470869 0.1504093 -0.10759038 0.09043798 0.02433339 0.12879539 -0.07493776 0.03306725 -0.03262773 -0.13574788 -0.017703667 -0.049449947 -0.06765678 -0.1598762 0.091409415 -0.11209093 0.10129143 0.0053733597 -0.15414752 -0.027527617 -0.03573775 0.038502272 -0.124829836 -0.2191774 -0.2709748 0.002671523 -0.15669331 -0.017677646 -0.009170533 0.0422332 -0.0046888795 -0.0049986523 -0.15734456 -0.021686366 0.12989153 0.002794582 -0.022594737 0.026590107 0.13021648 0.13621016 -0.33043292 -0.014892668 0.057906445 -0.03266209 0.09146911 0.08047275 0.028670821 -0.029280107 -0.14853938 0.12475962 -0.09268281 -0.038612004 0.031052055 0.18763241 0.10385339 -0.047128193 0.03213597 0.10052537 0.23871063 0.023613604 0.23556535 0.07199936 0.06276947 -0.037946135 -0.03435966 -0.038131654 -0.054321256 0.054452736 0.01660971 -0.021612627 -0.0010245459 0.065644145 -0.093511686 0.080135025 -0.0150778545 0.1351734 0.04146284 0.043221664 0.16308832 -0.20136368 -0.061161615 0.034832552 -0.2286396 0.07087072 0.037727218 0.12973577 -0.010414244 0.00068760745
15 -0.0144662615 0.05064417 -0.013635076 -0.09549324 -0.01570977 0.013535885 0.08485481 -0.045652963 0.0710683 -0.055339776 -0.042124815 0.21027946 0.048532497 0.029388838 -0.04994301 -0.14263576 0.093823336 0.056559596 0.1143248 -0.018947465 -0.12777787 -0.04216649 0.025330793 -0.21071607 -0.06687657 -0.030145546 -0.11791304 -0.21708316 0.103616185 0.18405198 -0.0768515 0.018974876 0.019621447 -0.06864064 -0.10897518 -0.02766167 0.09787208 0.033943653 0.290522 0.034247342 -0.13361755 0.16610584 -0.09621327 0.090089776 0.028179187 0.14785686 -0.07683202 0.027328523 -0.04294234 -0.15108337 -0.038219307 -0.03920147 -0.08188622 -0.16073266 0.091250174 -0.12665507 0.12346683 0.0025514245 -0.14276409 -0.03517689 -0.024463283 0.04935558 -0.119859375 -0.22537433 -0.24238695 0.026078073 -0.16289751 -0.0008158831 -0.019797811 0.027352689 -0.022760462 -0.020986732 -0.17544012 -0.016607543 0.13221622 0.0017584458 -0.010554712 0.04035726 0.13204549 0.13544378 -0.34068868 -0.004059859 0.044470135 -0.024926018 0.091646105 0.08650296 0.03427937 -0.024686998 -0.14857309 0.12397853 -0.078895725 -0.04168009 0.039421674 0.1837007 0.11294907 -0.030964108 0.027031146 0.083702825 0.23297392 0.03133418 0.24618563 0.07709196 0.066481754 -0.038357586 -0.047966383 -0.02802797 -0.073810436 0.06704579 0.008092229 -0.02588202 0.017989058 0.075639576 -0.07692044 0.0740196 0.0030354455 0.13513806 0.039350085 0.04210895 0.16646287 -0.19120598 -0.08053597 0.032409552 -0.25221357 0.041360512 0.038217112 0.11735752 -0.007528309 -0.015975108
8 -0.03969975 0.061041817 -0.01598143 -0.09302894 -0.010744789 0.0053816745 0.09659643 -0.025018813 0.06824082 -0.05597088 -0.048388246 0.20514093 0.042411726 0.06007082 -0.08655172 -0.17116842 0.12637913 0.0728645 0.11486249 -0.01891096 -0.1029831 -0.03905497 0.019184448 -0.20982648 -0.07600029 -0.011388358 -0.13453044 -0.24424732 0.108209774 0.19522862 -0.070805095 0.0070297006 0.012675571 -0.07318158 -0.107757635 -0.04972598 0.1085382 0.02881481 0.3309304 0.0384239 -0.14543012 0.16869241 -0.1173194 0.09746293 0.02938127 0.13508067 -0.07415548 0.030665107 -0.04036443 -0.1398219 -0.018594377 -0.051542938 -0.07824371 -0.172407 0.09728566 -0.12113429 0.110304005 0.0069606244 -0.16721141 -0.024485424 -0.04251657 0.03783888 -0.13326429 -0.22611673 -0.28845602 0.000114206385 -0.16385591 -0.023346737 -0.00881254 0.04058622 -0.004568413 -0.012660415 -0.17159007 -0.023464425 0.13273837 0.0067765824 -0.020945946 0.025899315 0.13817614 0.14076756 -0.33592483 -0.018923074 0.057412997 -0.037613366 0.09703863 0.07509249 0.024782991 -0.02575513 -0.15143858 0.12972604 -0.10411401 -0.03608126 0.03046788 0.19872187 0.10910758 -0.04986682 0.03268797 0.10735699 0.24909362 0.026867883 0.248215 0.068616286 0.06593251 -0.04844372 -0.030016752 -0.039263666 -0.05148116 0.061369073 0.014487265 -0.022687575 -0.002755641 0.06801359 -0.09803372 0.08070339 -0.02503235 0.1387121 0.047512755 0.04680553 0.15767203 -0.20842709 -0.061170377 0.039318603 -0.22723326 0.07967303 0.04029298 0.1413221 -0.0032549375 0.0024246238
43 -0.030886479 0.04990282 -0.011546065 -0.08088094 -0.008061823 0.006852724 0.09169037 -0.02321781 0.062389623 -0.05638748 -0.041053735 0.1869064 0.03716719 0.052274223 -0.07117927 -0.14693272 0.10591231 0.059527297 0.09598945 -0.019967815 -0.09521711 -0.03379484 0.022194725 -0.18538387 -0.06683841 -0.015024812 -0.11503217 -0.21749052 0.09845532 0.1695322 -0.068167016 0.010877625 0.015236085 -0.06202613 -0.09661292 -0.03932838 0.09441244 0.028813342 0.2879765 0.037575997 -0.12758106 0.14547168 -0.101717815 0.07925898 0.019107983 0.12041906 -0.06945021 0.034103274 -0.029866196 -0.12596038 -0.017204037 -0.038882926 -0.065481596 -0.14882162 0.08580328 -0.10909463 0.09572766 0.0023808933 -0.14156117 -0.026073035 -0.03246259 0.036910255 -0.11530729 -0.20631854 -0.2516489 0.0017473098 -0.14326613 -0.012959294 -0.007886039 0.036500532 -0.006465322 -0.0067034843 -0.1475482 -0.018255128 0.119568296 0.006084356 -0.020424964 0.026027208 0.118576184 0.12399614 -0.3031121 -0.011557486 0.050335955 -0.028868247 0.0853034 0.07297417 0.027801411 -0.027462168 -0.13216576 0.112704046 -0.09059775 -0.033526987 0.02740723 0.16966933 0.099033706 -0.038221087 0.027998747 0.09479126 0.22197953 0.023424016 0.21337174 0.059816808 0.05823386 -0.039926015 -0.029447047 -0.034189824 -0.05183859 0.054156527 0.011671115 -0.020493032 0.0043563447 0.05854514 -0.07695557 0.07272157 -0.014551071 0.119517766 0.04341568 0.03947779 0.14082178 -0.18118446 -0.056283824 0.030431466 -0.20651649 0.06552965 0.03788375 0.122776136 -0.009155314 0.0020745075
19 -0.047524396 0.059119612 -0.01647638 -0.08997745 -0.0020772547 -0.0004187881 0.09798418 -0.02367702 0.06250105 -0.05488056 -0.045475468 0.18888889 0.035031863 0.07298523 -0.09563129 -0.17240645 0.13700552 0.07854836 0.09569571 -0.010300072 -0.08910927 -0.033032708 0.014160207 -0.19607687 -0.06967475 -0.011257705 -0.1258241 -0.23647551 0.101327285 0.17776558 -0.057544395 0.011648658 0.017313717 -0.064718604 -0.0974574 -0.04598394 0.103778705 0.022680527 0.31611398 0.036963556 -0.14421178 0.1532425 -0.11804455 0.089548394 0.021983502 0.11560238 -0.061035115 0.033187743 -0.039081242 -0.1332978 -0.009973155 -0.047949012 -0.07216833 -0.16258769 0.10205946 -0.10789344 0.09229319 0.0019095271 -0.16667306 -0.018786028 -0.053690698 0.036091518 -0.13120416 -0.21111923 -0.27805656 -0.0045128223 -0.1442695 -0.033577263 0.0007860591 0.048078045 0.005122177 -0.006714469 -0.15391631 -0.02359814 0.11326147 0.0068914453 -0.016700467 0.018236855 0.12626591 0.12648956 -0.31036425 -0.016743314 0.061556417 -0.04500127 0.08959574 0.070606604 0.017453574 -0.023112155 -0.13295968 0.12072619 -0.10303139 -0.030849379 0.029521156 0.18704872 0.096493095 -0.049872626 0.03714146 0.10542425 0.23314968 0.019146293 0.2241811 0.066764414 0.06205169 -0.036760375 -0.019931693 -0.034499817 -0.035226867 0.052696664 0.024304103 -0.019696841 -0.009635015 0.06183979 -0.100086324 0.07525047 -0.030021084 0.12396673 0.044392277 0.04491446 0.14228387 -0.19483893 -0.0495181 0.03935432 -0.19350873 0.08845424 0.039471146 0.13514736 -0.004074972 0.0029471777
27 -0.0368984 0.055989623 -0.013750066 -0.0856401 -0.002968084 0.0101285055 0.08944442 -0.01936875 0.06012135 -0.058711234 -0.041969392 0.18096593 0.032246385 0.0649081 -0.08069171 -0.1619831 0.11951844 0.06837961 0.092030585 -0.014308965 -0.093672864 -0.02810768 0.013208639 -0.18508247 -0.06226866 -0.0075728046 -0.1244402 -0.22179413 0.094292894 0.16684781 -0.06222472 0.0051733945 0.013749762 -0.06128992 -0.09384026 -0.045472946 0.09226802 0.02557403 0.29648265 0.03923146 -0.13438149 0.14512599 -0.10434185 0.083837934 0.024690945 0.11630395 -0.06241509 0.029393675 -0.03112189 -0.12771183 -0.011900521 -0.04393487 -0.06460806 -0.15562278 0.09137685 -0.10779361 0.09220533 0.0020225605 -0.15498987 -0.023096092 -0.04351781 0.034020245 -0.11534546 -0.2016559 -0.26208797 -0.0041418816 -0.14225253 -0.02481719 -0.0034603477 0.038475923 0.0039061322 -0.00837528 -0.15012662 -0.023709355 0.11366991 0.0045073545 -0.019196957 0.024518536 0.127635 0.12480042 -0.3003278 -0.022373322 0.054515686 -0.035493374 0.08235729 0.068703994 0.021947976 -0.0201982 -0.1296827 0.11443218 -0.09587911 -0.033218034 0.02911815 0.17991503 0.090943195 -0.047092017 0.036552437 0.095348254 0.21742769 0.02098194 0.21490933 0.05970479 0.056275446 -0.04234086 -0.02765429 -0.03746748 -0.038487505 0.047491685 0.0154521195 -0.02025992 -0.00594272 0.05394629 -0.0917806 0.06903328 -0.02565279 0.11676487 0.03758238 0.042574283 0.1408861 -0.1925277 -0.054732494 0.033801284 -0.19575147 0.076878116 0.039363362 0.12922077 -0.0061299666 0.00012740432
42 -0.029945051 0.051396392 -0.018675428 -0.07620375 -0.009946604 0.0064540263 0.08323154 -0.02685994 0.059816144 -0.048353497 -0.039112788 0.17570704 0.0345796 0.049178597 -0.07578534 -0.14562352 0.1031682 0.06291899 0.08878277 -0.018538587 -0.09269117 -0.027554076 0.018944165 -0.17991416 -0.06396271 -0.005892742 -0.11556671 -0.20484093 0.09490781 0.16145924 -0.064957775 0.004071542 0.009622758 -0.05762506 -0.09498513 -0.041117094 0.0904848 0.025623633 0.27843955 0.034356948 -0.12702744 0.137502 -0.10226673 0.07716936 0.023872321 0.11512523 -0.065314755 0.029022705 -0.0311055 -0.11977921 -0.007923608 -0.04102265 -0.064129554 -0.14712551 0.0836203 -0.1070059 0.0937364 0.00093133334 -0.14020348 -0.01999586 -0.038564507 0.034920648 -0.115489244 -0.19909947 -0.25045854 0.0054230113 -0.1405582 -0.016027827 -0.007245306 0.034349937 -0.007620578 -0.010708648 -0.14631578 -0.021999527 0.11336992 -2.54336e-05 -0.018701583 0.022185525 0.116491474 0.116186015 -0.28765616 -0.014229597 0.051230367 -0.035184834 0.0819852 0.06386114 0.02252065 -0.02380618 -0.1307391 0.11178719 -0.089960754 -0.031107279 0.023836002 0.16936769 0.0931712 -0.042289652 0.026223028 0.09543337 0.2173046 0.020397648 0.2089032 0.059550103 0.055928927 -0.04340144 -0.028764915 -0.03188968 -0.048286825 0.049838234 0.012993333 -0.021612994 -0.0025173852 0.053850047 -0.075578995 0.07002011 -0.01876838 0.11477013 0.040220104 0.03502283 0.1350601 -0.18223561 -0.05166623 0.035026804 -0.19445626 0.06571282 0.03133169 0.12078899 -0.0035677569 0.0030071768
30 -0.017445877 0.053192478 -0.013012478 -0.07940481 -0.015239056 0.015842285 0.08693541 -0.031115131 0.07065705 -0.04874196 -0.044946723 0.19477604 0.04311697 0.037583478 -0.06112598 -0.14901324 0.10538812 0.06452129 0.10536858 -0.019384908 -0.10568059 -0.038614895 0.01767528 -0.20106691 -0.06379529 -0.018549634 -0.11310661 -0.21756588 0.09451549 0.1727355 -0.071401335 0.0068300283 0.017701833 -0.069964156 -0.10120788 -0.03945729 0.09181944 0.031637788 0.2950828 0.030452885 -0.124389365 0.15142694 -0.104991235 0.08286877 0.025601083 0.12802526 -0.076915726 0.024874818 -0.035145026 -0.13736677 -0.025385821 -0.040869817 -0.06943033 -0.15767369 0.087754816 -0.11356775 0.103135176 0.0052110036 -0.14559105 -0.027237987 -0.03138964 0.03838445 -0.11854012 -0.20779867 -0.24941339 0.011476764 -0.14785813 -0.008267124 -0.011020286 0.032941755 -0.013110259 -0.010742422 -0.15627375 -0.017323272 0.12665537 0.0022260204 -0.021475874 0.025015747 0.12369599 0.12774669 -0.32118362 -0.014002534 0.045932475 -0.026360864 0.0870539 0.07692577 0.03128055 -0.0227128 -0.13594174 0.119101286 -0.087056346 -0.032317504 0.027981883 0.17846467 0.10504487 -0.043665335 0.025668714 0.088748716 0.22705375 0.026954703 0.22957559 0.064183086 0.057500288 -0.040594578 -0.03965332 -0.029803049 -0.059645366 0.060813434 0.01100185 -0.018438824 0.00927116 0.069035165 -0.08081034 0.07482001 -0.016443934 0.12888278 0.04047329 0.047503084 0.159738 -0.19922459 -0.06671438 0.03464244 -0.2256549 0.058561776 0.03057381 0.11826016 -0.007359898 -0.005309768
6 -0.018803587 0.0560353 -0.017794702 -0.08469708 -0.011922438 0.008627053 0.09147027 -0.0292223 0.06872399 -0.058770865 -0.046081036 0.19229998 0.042438086 0.04691188 -0.06820768 -0.15461041 0.10059086 0.05756209 0.0943722 -0.020722369 -0.10372521 -0.030780954 0.019730978 -0.19583568 -0.064246595 -0.013137744 -0.117546 -0.2238639 0.097819336 0.17000991 -0.068787985 0.008393978 0.015929436 -0.0591023 -0.099795066 -0.038190164 0.08704781 0.02825768 0.29502845 0.031116037 -0.126447 0.15119319 -0.10115701 0.07919362 0.017361527 0.13400589 -0.07475363 0.03014494 -0.03980265 -0.13732202 -0.01630595 -0.04197986 -0.07080051 -0.156379 0.08890598 -0.10980179 0.104236156 0.0026260992 -0.15111694 -0.03153846 -0.02971121 0.037333068 -0.11641299 -0.21409325 -0.25050315 -0.0015177334 -0.14695664 -0.00863899 -0.0071039097 0.03489685 -0.008385745 -0.010129792 -0.15740095 -0.012474452 0.12785976 -5.7771536e-05 -0.018894278 0.029396825 0.12908144 0.12985586 -0.3150981 -0.012378485 0.05032408 -0.025935052 0.08658052 0.079974174 0.029265653 -0.019067295 -0.14099506 0.120422535 -0.09055831 -0.040131778 0.028584313 0.17049293 0.103608206 -0.038785655 0.033293433 0.09170715 0.22665392 0.029651603 0.2233309 0.066719934 0.062498953 -0.04374046 -0.032485973 -0.028312063 -0.054582175 0.060201548 0.0092882775 -0.016728792 0.0022255597 0.06565819 -0.08044749 0.07545789 -0.020719005 0.12687068 0.03950127 0.04861762 0.15254997 -0.1925273 -0.058176827 0.03154369 -0.21511415 0.068285935 0.025958374 0.11715827 -0.011489482 -0.003665478
2 -0.016995767 0.05441966 -0.014530739 -0.08658215 -0.008431656 0.011204919 0.09064119 -0.037410423 0.07134456 -0.05411972 -0.042523194 0.19875842 0.04540631 0.035648886 -0.06488767 -0.14967464 0.10222785 0.059674636 0.10969522 -0.026053347 -0.10919614 -0.03941802 0.020273326 -0.19942564 -0.06268412 -0.015115318 -0.11720033 -0.21706642 0.09836345 0.17893516 -0.07074897 0.012708351 0.012570278 -0.06667337 -0.101297654 -0.036744952 0.09254607 0.033638053 0.2920606 0.029008372 -0.12914616 0.15665731 -0.105436236 0.08458364 0.02580302 0.13871941 -0.07710209 0.029770268 -0.034667186 -0.1332013 -0.02773983 -0.04434378 -0.0759908 -0.16146514 0.092895396 -0.1165473 0.11450986 0.0062619303 -0.14646609 -0.03074811 -0.026088329 0.039520822 -0.11794553 -0.21880102 -0.25439504 0.00711657 -0.15098175 -0.009200891 -0.011698284 0.034355782 -0.018013448 -0.014111678 -0.16311282 -0.01992118 0.1255343 -0.0020730493 -0.020904355 0.026966713 0.1301886 0.13165474 -0.32221052 -0.0086732535 0.051466454 -0.026789462 0.08375013 0.079951644 0.032782305 -0.02231154 -0.14024203 0.11967679 -0.08488174 -0.037393104 0.034932915 0.17966598 0.110029034 -0.03874031 0.024396518 0.095634595 0.22948825 0.031469934 0.23395842 0.06842334 0.060078837 -0.042153746 -0.035067122 -0.034326605 -0.061782315 0.061388787 0.013535384 -0.024137119 0.004226189 0.07249666 -0.07912578 0.076328196 -0.012283545 0.13081576 0.03951111 0.041416448 0.15425754 -0.19495629 -0.05990157 0.032905027 -0.22975908 0.056572333 0.032421846 0.122100644 -0.010678798 0.0008864657
33 -0.035437647 0.053346016 -0.01742975 -0.09096944 -0.002614132 0.010225496 0.09413295 -0.022445075 0.05880045 -0.05060633 -0.04085871 0.18389414 0.034797877 0.060849175 -0.07881191 -0.15625669 0.12358321 0.065127105 0.10392453 -0.018406115 -0.09355647 -0.037196893 0.016903456 -0.19320089 -0.06869255 -0.01601834 -0.11838873 -0.21916449 0.099998206 0.17201398 -0.05828274 0.013510299 0.011066199 -0.06709718 -0.100118 -0.043700945 0.09425484 0.033365864 0.29714382 0.038577385 -0.12508257 0.14431818 -0.10900864 0.084411055 0.023487916 0.11935433 -0.06667717 0.032104384 -0.031749196 -0.12142658 -0.014886642 -0.045681436 -0.06867611 -0.1559545 0.0891217 -0.10886481 0.097474515 0.004783692 -0.15149596 -0.0196307 -0.047305353 0.028370146 -0.11941523 -0.19654554 -0.2558608 0.00087557844 -0.14496319 -0.022930194 -0.004637522 0.04341709 -0.0027762593 -0.00786986 -0.14870761 -0.026236694 0.11285927 0.0114111295 -0.019068267 0.027782006 0.12665257 0.12555572 -0.29907197 -0.017355386 0.05046004 -0.03662129 0.09166346 0.070872635 0.020481817 -0.01945292 -0.13480362 0.10510789 -0.08507633 -0.03530856 0.025050195 0.17685367 0.09209328 -0.040663846 0.033904344 0.0910048 0.21527727 0.022181556 0.21813464 0.065158464 0.05127322 -0.033342272 -0.023694213 -0.03091009 -0.044426415 0.056540377 0.020560652 -0.021711627 0.0047229994 0.06168051 -0.08921774 0.068835914 -0.022251109 0.11994732 0.035548326 0.04380737 0.14149237 -0.18938091 -0.053789794 0.040704694 -0.20047139 0.074101165 0.042340927 0.12619898 -0.0053666295 0.0027623153
17 -0.01836818 0.051350545 -0.02129029 -0.081913374 -0.017387778 0.0027574704 0.09417612 -0.040655226 0.07379199 -0.04979612 -0.045825753 0.19932944 0.05255193 0.036585826 -0.06883052 -0.1428728 0.106732495 0.07056318 0.10688773 -0.024786804 -0.10493448 -0.035782367 0.025815459 -0.1998427 -0.06048526 -0.013784781 -0.114531405 -0.21288931 0.10582455 0.17911746 -0.07230191 0.009267444 0.017195364 -0.062577635 -0.110496245 -0.030926043 0.094155625 0.02169276 0.29563934 0.035212006 -0.12329705 0.15235749 -0.10537074 0.08357382 0.027682973 0.13542908 -0.07893475 0.03176256 -0.039374724 -0.12213444 -0.01606613 -0.041690305 -0.07624403 -0.15006047 0.08920347 -0.11692452 0.11658116 0.006026887 -0.14695041 -0.031947266 -0.027841166 0.039436784 -0.11977553 -0.21802889 -0.25928703 0.008480453 -0.14361276 -0.005000868 -0.016883368 0.03128797 -0.022419658 -0.012750261 -0.15053634 -0.026358355 0.13194185 0.0078801 -0.02620733 0.021526074 0.13290063 0.1352877 -0.31879544 -0.009614628 0.054616254 -0.027609628 0.09414945 0.07688553 0.027458128 -0.026212312 -0.13655306 0.1256387 -0.0869555 -0.030093607 0.029338025 0.17738023 0.09976482 -0.041486386 0.027352246 0.09862552 0.23853767 0.03074558 0.23325351 0.06550873 0.06031672 -0.054317623 -0.038283277 -0.037990384 -0.06372511 0.063793086 0.011853483 -0.017339518 0.005484259 0.06349763 -0.07620861 0.074093655 -0.018215038 0.13543376 0.047364146 0.034910053 0.15547359 -0.19287425 -0.06251748 0.02832059 -0.22749324 0.060249876 0.023858694 0.11672504 -0.010040028 0.0001860495
44 -0.01915793 0.057689756 -0.017393926 -0.088929676 -0.012413414 0.0121721765 0.098008595 -0.03719623 0.07042544 -0.05863687 -0.048491314 0.21065024 0.04261019 0.044710692 -0.06816814 -0.15848239 0.107469276 0.06066865 0.10943863 -0.02197023 -0.11615494 -0.03465331 0.025494378 -0.20651866 -0.07039973 -0.020963289 -0.12375824 -0.22473398 0.10647282 0.1811437 -0.070944525 0.011900904 0.014905617 -0.07131253 -0.10974319 -0.03879034 0.0963276 0.030430377 0.30755147 0.032165565 -0.13814548 0.16138816 -0.10986205 0.08965333 0.02854478 0.13850349 -0.07574196 0.032923065 -0.034459066 -0.1411918 -0.026423542 -0.049037613 -0.07709434 -0.16285183 0.09774532 -0.120871246 0.11264163 0.0067918454 -0.15740877 -0.031867445 -0.03216059 0.04290429 -0.13210756 -0.23110242 -0.26829067 0.012092832 -0.15837179 -0.0060646213 -0.010319834 0.040015034 -0.019682743 -0.010677271 -0.16980293 -0.01943601 0.13264045 0.0065865917 -0.021067139 0.029567981 0.13186726 0.13956271 -0.34019834 -0.008574176 0.05285609 -0.028878644 0.08948214 0.0877107 0.02879265 -0.026459135 -0.15032098 0.13226523 -0.08925767 -0.03461153 0.030163752 0.18345807 0.11372772 -0.046247095 0.030340664 0.094806 0.24761252 0.02897833 0.24674614 0.071898445 0.06171506 -0.04620873 -0.036948748 -0.028936023 -0.065376446 0.058729995 0.0110842185 -0.022083892 0.010943294 0.07078942 -0.08046958 0.080322534 -0.009571372 0.13220026 0.04019419 0.044575837 0.1671223 -0.20422505 -0.070230685 0.034516647 -0.23786004 0.06349166 0.03560434 0.12510271 -0.009681933 -0.005371104
41 -0.022947222 0.060152456 -0.017758247 -0.081832305 -0.013894542 0.008270881 0.09450976 -0.029951876 0.07858163 -0.054042563 -0.043710954 0.20090304 0.04570956 0.04728646 -0.07626054 -0.1577715 0.109596826 0.06540984 0.10717552 -0.032421254 -0.11674727 -0.033180676 0.022992695 -0.20300743 -0.06998269 -0.019105623 -0.12440775 -0.23029058 0.09947992 0.17601436 -0.06671793 0.0080018295 0.017298222 -0.06705567 -0.10693036 -0.041858166 0.09602296 0.023585087 0.30100784 0.031083582 -0.1363303 0.16125071 -0.10751013 0.09107079 0.01918504 0.13959292 -0.08573334 0.027499104 -0.037713602 -0.14338176 -0.013211047 -0.05278419 -0.07675554 -0.16740137 0.090331055 -0.12338239 0.10551225 0.005028875 -0.1597166 -0.03420923 -0.027226934 0.036231317 -0.1268579 -0.22590461 -0.2681614 0.005202431 -0.15305722 -0.011298735 -0.01590792 0.042895813 -0.01572885 -0.00722547 -0.16734877 -0.015791792 0.13508178 -0.0016220452 -0.019791236 0.032635733 0.13583222 0.13711976 -0.33643827 -0.016055988 0.049472682 -0.025037115 0.09375989 0.080159105 0.03389224 -0.026741069 -0.14957958 0.12784861 -0.08681422 -0.04351619 0.026689487 0.1834331 0.11310838 -0.049598485 0.0331601 0.09772023 0.24948792 0.024998937 0.23782209 0.07380857 0.07031846 -0.055164926 -0.041507453 -0.031210268 -0.05900927 0.059136406 0.0128655415 -0.0246175 0.0010010875 0.063676104 -0.08011834 0.08293142 -0.010542903 0.1337738 0.04597246 0.042186953 0.16376951 -0.2071264 -0.06912743 0.035566017 -0.23660716 0.067927994 0.023748957 0.12149212 -0.007443921 -0.0019239126
29 -0.014391949 0.049067814 -0.017911706 -0.07633942 -0.010397547 0.012388813 0.08595299 -0.03699133 0.07245309 -0.05210347 -0.041605644 0.19535619 0.040682882 0.03735122 -0.059647 -0.13809353 0.09406849 0.053903677 0.09980506 -0.027143888 -0.10727236 -0.037772454 0.026420353 -0.1942131 -0.06028311 -0.01436573 -0.11188042 -0.20693994 0.09606358 0.16613433 -0.070301436 0.010987597 0.014968923 -0.06542107 -0.09959339 -0.034104247 0.089880094 0.022883842 0.27992648 0.0240046 -0.12414283 0.14148058 -0.098221175 0.08153548 0.02098879 0.12912726 -0.075693496 0.02297339 -0.032491487 -0.12831676 -0.021215906 -0.042969685 -0.0754657 -0.14825334 0.08751392 -0.11397164 0.10547716 0.004839893 -0.14233579 -0.030589484 -0.026793197 0.038159706 -0.11165364 -0.21007816 -0.23958583 0.0071390257 -0.14456813 -0.008119691 -0.015635578 0.036014758 -0.017614312 -0.013848205 -0.15716465 -0.017796863 0.121902995 -0.00017294945 -0.014988979 0.028597478 0.12434629 0.12628031 -0.30907992 -0.011534445 0.046371486 -0.026171118 0.08001755 0.07625903 0.03414374 -0.026252972 -0.13565412 0.11668086 -0.08296095 -0.033770528 0.028724305 0.1722661 0.10495715 -0.039738756 0.030006664 0.093475394 0.22235695 0.03230148 0.21969491 0.06559721 0.057883367 -0.045164548 -0.036242187 -0.026071599 -0.06257405 0.061209626 0.0068710577 -0.019049082 0.0042078122 0.065300025 -0.07301713 0.077896915 -0.013172825 0.1282574 0.038800098 0.04021532 0.15678182 -0.18840474 -0.06584542 0.028868493 -0.21958819 0.05676342 0.028785657 0.11222099 -0.012972953 -0.005732579
18 -0.015038303 0.05220699 -0.014910541 -0.08118274 -0.0069390554 0.012612042 0.09299026 -0.032530785 0.07254543 -0.050492458 -0.038256735 0.196697 0.048236027 0.03381864 -0.058243636 -0.1444191 0.09818356 0.059659656 0.10395749 -0.021604676 -0.10560778 -0.031989425 0.01816555 -0.19847839 -0.061314806 -0.018624447 -0.11407147 -0.21371907 0.09415728 0.16976589 -0.07072479 0.0068030953 0.020123677 -0.062472187 -0.094813555 -0.034102947 0.08249807 0.029963875 0.28710842 0.025223015 -0.12364816 0.14684369 -0.09512119 0.08349808 0.023514569 0.13134988 -0.074761204 0.025352916 -0.031521868 -0.13485622 -0.026642501 -0.04803832 -0.07427394 -0.15143622 0.088475324 -0.11254283 0.108799286 0.0034745967 -0.14245614 -0.026046237 -0.02188049 0.037999254 -0.1180294 -0.21096191 -0.24193946 0.0023948879 -0.14305314 -0.0018822938 -0.00877721 0.03772059 -0.019122131 -0.006910317 -0.15745924 -0.017676577 0.12617539 -0.00023126122 -0.017148623 0.025754804 0.1294202 0.12997772 -0.31941152 -0.011803635 0.04490755 -0.0219408 0.08196127 0.07867961 0.031591065 -0.02370748 -0.14217828 0.118608214 -0.08057268 -0.038911637 0.028782474 0.17486827 0.104902595 -0.042779103 0.032033645 0.09107746 0.22518164 0.0328966 0.22824876 0.072818786 0.06251337 -0.043800563 -0.03761518 -0.031124376 -0.0591815 0.061549064 0.0151848635 -0.017280888 0.005546249 0.063949086 -0.08239578 0.0725037 -0.012174482 0.13434927 0.038924802 0.046338677 0.16125515 -0.18810308 -0.060353383 0.02832415 -0.22639938 0.05591304 0.028606297 0.11547821 -0.0133754695 -0.0012264041
12 -0.021408759 0.056183226 -0.014057639 -0.08627871 -0.009768609 0.0091382535 0.09799078 -0.03507005 0.079743326 -0.060517926 -0.042319067 0.20806244 0.050127342 0.051057667 -0.07793913 -0.15866975 0.1141865 0.06690369 0.10718647 -0.02763729 -0.1086736 -0.03629478 0.025067937 -0.21169436 -0.0637464 -0.009093848 -0.123508334 -0.23514205 0.10399264 0.1818858 -0.070778295 0.007831575 0.0216365 -0.06298351 -0.10817061 -0.039709046 0.10055041 0.026098028 0.31429863 0.036203064 -0.13815546 0.15577507 -0.107141584 0.092380226 0.020355303 0.13844466 -0.081245854 0.035737205 -0.03669236 -0.14362091 -0.018761145 -0.055410467 -0.07537605 -0.16706738 0.09223206 -0.12173695 0.113252304 0.00026140295 -0.16466005 -0.030456195 -0.031462844 0.04216153 -0.1283702 -0.2318632 -0.28012875 0.002802787 -0.16135444 -0.011449618 -0.00808464 0.04382891 -0.011322002 -0.011599487 -0.16794552 -0.027687132 0.13271342 4.6487155e-05 -0.023821326 0.025700552 0.14133063 0.13918883 -0.34108213 -0.015342194 0.058464605 -0.0309649 0.08931619 0.07895524 0.030071186 -0.030418694 -0.15293373 0.13422847 -0.09661011 -0.039117493 0.034048364 0.18979417 0.11029304 -0.046703782 0.035463948 0.10653465 0.25072396 0.030958908 0.24110526 0.075930886 0.06773731 -0.052009113 -0.033433244 -0.035019655 -0.05768568 0.058539715 0.013217459 -0.019766776 0.003327112 0.068579905 -0.08559643 0.08099895 -0.021818336 0.14088748 0.051776245 0.0462287 0.16398731 -0.20852818 -0.060715195 0.028036632 -0.23880878 0.07528043 0.025278902 0.1295894 -0.010250311 -0.0010836731
25 -0.028295452 0.050583854 -0.013186798 -0.08337859 -0.005816648 0.008150364 0.09337369 -0.021134842 0.06352132 -0.055055797 -0.04462843 0.18661271 0.036126997 0.055799954 -0.081772 -0.14931135 0.11102195 0.0614738 0.09041223 -0.020577453 -0.09397357 -0.030102469 0.020176135 -0.18325342 -0.0588651 -0.006535181 -0.11962877 -0.21850878 0.09278684 0.16272324 -0.06199798 0.0010550248 0.012170038 -0.05708227 -0.09236526 -0.043514263 0.09084355 0.023614563 0.29396406 0.03079382 -0.12625906 0.1390708 -0.097904176 0.078429244 0.016353017 0.11985569 -0.06853328 0.033281237 -0.031232974 -0.1265395 -0.00968211 -0.043862425 -0.07106921 -0.15061198 0.08781175 -0.10111354 0.095245205 0.0015962045 -0.15069309 -0.025491502 -0.0397115 0.03462469 -0.11522474 -0.20284359 -0.2529726 -0.0024107723 -0.14163052 -0.020698119 -0.0037890964 0.037686072 -0.005469851 -0.006296115 -0.15104298 -0.015627664 0.122827746 0.0024046577 -0.015786862 0.02394999 0.1251566 0.12748326 -0.2983668 -0.018513277 0.05298793 -0.027405502 0.08533669 0.07084703 0.022511683 -0.022880131 -0.13771625 0.11556243 -0.09362705 -0.035069086 0.026754498 0.17426313 0.093148515 -0.047994293 0.03260294 0.09075273 0.21935798 0.021704672 0.2189029 0.061441593 0.06109943 -0.04623365 -0.025445016 -0.035935517 -0.0429674 0.048535667 0.015113261 -0.017654488 -0.0063598217 0.061386377 -0.08610767 0.074754804 -0.026375113 0.124496564 0.041010506 0.041148316 0.14520402 -0.18763803 -0.05478588 0.032146167 -0.19937581 0.07359998 0.028221281 0.120938644 -0.0047940607 0.001436745
1 -0.016352646 0.051275235 -0.01900137 -0.07897134 -0.009628196 0.013926359 0.084386446 -0.032449264 0.07497151 -0.04877837 -0.043564882 0.19996788 0.041057136 0.038734887 -0.060219444 -0.14809825 0.0966025 0.054212138 0.10720094 -0.023787001 -0.10947947 -0.03818437 0.021289745 -0.19793484 -0.060329262 -0.019909486 -0.110496484 -0.2134527 0.09321131 0.17004181 -0.071867414 0.0075677014 0.014889094 -0.06888375 -0.099492505 -0.031987026 0.08880386 0.028599191 0.28755602 0.025007881 -0.12513389 0.15806216 -0.10247221 0.08661388 0.025563823 0.13182893 -0.076738864 0.024364274 -0.033739857 -0.13614972 -0.024876976 -0.04859723 -0.07862228 -0.1570581 0.09008311 -0.11884827 0.11478447 0.000544771 -0.148915 -0.032383133 -0.028473755 0.03811222 -0.116326034 -0.21706405 -0.24312544 0.010979457 -0.15116403 -0.0010931557 -0.012142963 0.035297345 -0.014702168 -0.0126957875 -0.15935412 -0.021538459 0.12518354 -0.0036970512 -0.01998171 0.033087566 0.124388866 0.13063201 -0.3224236 -0.010986813 0.04479951 -0.028073622 0.08122809 0.08210093 0.03415864 -0.024442108 -0.1399339 0.122350805 -0.07841577 -0.034965083 0.028922355 0.17911205 0.11006472 -0.040984843 0.023782698 0.09111076 0.23231047 0.031324767 0.2317798 0.067909814 0.065189704 -0.04434206 -0.040747385 -0.029987937 -0.065402344 0.06312996 0.008085002 -0.022294939 0.009751009 0.067186676 -0.075486675 0.07681398 -0.013867527 0.13044089 0.037167273 0.039469246 0.1538578 -0.19454928 -0.065690465 0.032627247 -0.22957386 0.059468072 0.02881388 0.11716782 -0.0067774854 -0.0030978827
5 -0.028487394 0.057046052 -0.014625628 -0.081188045 -0.006680954 0.010215482 0.091213524 -0.025086127 0.0736582 -0.053319022 -0.041605104 0.20036153 0.04826231 0.049549516 -0.0830272 -0.1551512 0.10547797 0.06313637 0.101466365 -0.029232487 -0.105163686 -0.035677142 0.026459444 -0.20413421 -0.061090924 -0.0090883775 -0.12262913 -0.22754127 0.09776963 0.177095 -0.07266006 0.002838113 0.014298038 -0.062157582 -0.10011689 -0.039750367 0.095802344 0.029299993 0.30243465 0.035429288 -0.1301994 0.15267837 -0.10326374 0.08462822 0.024651788 0.1354902 -0.07992424 0.02728954 -0.03776475 -0.12809668 -0.009204959 -0.048989553 -0.07539262 -0.16123515 0.09068727 -0.115366735 0.10459816 -0.00055377715 -0.15891093 -0.03319605 -0.035129074 0.04013219 -0.123659976 -0.22143406 -0.27346098 -0.0022384017 -0.14918761 -0.01889226 -0.008506099 0.040309638 -0.0124256285 -0.008294562 -0.1580242 -0.019291136 0.13683294 0.003880793 -0.024461973 0.026015932 0.13343757 0.13301554 -0.32600984 -0.014464365 0.057494305 -0.024949107 0.08615689 0.0723448 0.03147524 -0.028191423 -0.14791222 0.13158594 -0.09432575 -0.0375531 0.030145308 0.18787447 0.10220509 -0.044390723 0.032900322 0.108066455 0.23660389 0.026437512 0.23566741 0.071386404 0.07038905 -0.052143507 -0.03346871 -0.03686891 -0.055274364 0.057556994 0.012566863 -0.02234208 0.0009901928 0.064273186 -0.086785704 0.08210132 -0.023033049 0.13715574 0.042580117 0.03691094 0.15541978 -0.2041431 -0.05523528 0.028443947 -0.22246242 0.07702218 0.024267377 0.12908173 -0.0072086076 0.0023558813
11 -0.023308778 0.060206994 -0.014282359 -0.087366715 -0.01157527 0.010790564 0.096664466 -0.031883616 0.074941054 -0.061580006 -0.044515297 0.21305257 0.04519488 0.043615814 -0.07699942 -0.1583588 0.1124698 0.06785016 0.10691042 -0.022186965 -0.11812277 -0.039539546 0.024679856 -0.21178605 -0.06476843 -0.017094964 -0.12646444 -0.22883481 0.101221696 0.18398437 -0.07196839 0.0050094244 0.02149308 -0.07228127 -0.10427717 -0.04145086 0.09865152 0.027304195 0.31694555 0.030731631 -0.13522215 0.16303968 -0.1044562 0.09124064 0.029152932 0.13322479 -0.08163092 0.026781417 -0.03588798 -0.1445098 -0.021032397 -0.053177282 -0.07997108 -0.16302536 0.09189286 -0.11951772 0.11514261 0.004148916 -0.15991516 -0.028375756 -0.028688135 0.041553475 -0.12810369 -0.22266787 -0.2688476 0.0054357196 -0.16109827 -0.013712235 -0.01474518 0.04151518 -0.011447966 -0.012949724 -0.16439168 -0.019030109 0.1352339 0.00079448987 -0.023587845 0.029904293 0.13414897 0.13602597 -0.34163854 -0.011312134 0.053181477 -0.026536003 0.092241235 0.08490236 0.02914511 -0.027713364 -0.15248917 0.12726675 -0.0934928 -0.03878641 0.030842248 0.18840948 0.11032108 -0.045516558 0.028942991 0.10072974 0.24645385 0.030320344 0.24605316 0.07500598 0.06760375 -0.04616009 -0.037325054 -0.035970178 -0.062178794 0.059327167 0.009970974 -0.022894584 0.0068122684 0.070660725 -0.085517615 0.08483552 -0.017914867 0.14180896 0.042436864 0.04051109 0.16834122 -0.20761423 -0.0698632 0.03386242 -0.23942688 0.071685694 0.02873038 0.12606007 -0.005385698 -0.0036958898
32 -0.020744368 0.05238958 -0.017624931 -0.0823816 -0.007759781 0.009150866 0.09188921 -0.026482029 0.06993919 -0.050113533 -0.044590067 0.18993577 0.0421473 0.047297884 -0.0734237 -0.15059492 0.106078945 0.06432488 0.10062291 -0.026924677 -0.10562643 -0.036484852 0.020721262 -0.19665383 -0.06194403 -0.012951948 -0.116373025 -0.21578436 0.09850538 0.1728195 -0.06654625 0.008619708 0.0140247205 -0.06854102 -0.09800712 -0.04335699 0.08938349 0.027650742 0.29793224 0.031987775 -0.12654443 0.15144645 -0.10187611 0.08039475 0.022860335 0.13050508 -0.074372135 0.031520948 -0.033556744 -0.1323404 -0.014911132 -0.046839144 -0.07365677 -0.15458417 0.08628561 -0.11234064 0.10530024 0.0037106771 -0.15171865 -0.030157564 -0.03525279 0.03302463 -0.11937873 -0.21065974 -0.26159972 0.001636149 -0.14831346 -0.013830776 -0.013443685 0.039222896 -0.009454902 -0.011011391 -0.1526824 -0.023905123 0.124037005 0.003936141 -0.021477427 0.028542256 0.13068727 0.13058966 -0.31552857 -0.017255055 0.05007289 -0.028891563 0.084510334 0.079137705 0.027334362 -0.02910576 -0.14153114 0.11851791 -0.085413486 -0.033627246 0.029887326 0.18127923 0.10455386 -0.040931962 0.029464284 0.094119914 0.22922231 0.027948605 0.2285294 0.06828087 0.05946376 -0.049830418 -0.03473648 -0.03482184 -0.05341912 0.05816117 0.011986075 -0.020716634 0.0065184906 0.062090408 -0.07947924 0.074753925 -0.014413128 0.133175 0.041376486 0.04425589 0.1558895 -0.19526015 -0.057157855 0.029746259 -0.22140044 0.0673809 0.026048835 0.12549008 -0.011372087 -0.0022440513
23 -0.018086527 0.05527905 -0.018883193 -0.08697525 -0.008518864 0.010460632 0.09444856 -0.03762871 0.07692881 -0.05592618 -0.04321042 0.19933547 0.0459195 0.039362866 -0.069722876 -0.15215266 0.099876486 0.060446173 0.10318755 -0.028863935 -0.11396167 -0.035022385 0.026265465 -0.20441815 -0.06319452 -0.013409386 -0.11700905 -0.21778268 0.09585854 0.17176712 -0.07404803 0.007996744 0.016140355 -0.06559006 -0.10631585 -0.039663028 0.092505775 0.029627398 0.29690236 0.032446694 -0.123517774 0.1558616 -0.097633034 0.08620567 0.019865759 0.13617651 -0.08027097 0.027974777 -0.03688462 -0.13327476 -0.018361745 -0.051061254 -0.07686146 -0.15945235 0.09065248 -0.11805207 0.11295976 -0.00076047244 -0.15016279 -0.034951106 -0.024820747 0.036604963 -0.117730774 -0.21981436 -0.25137386 0.008632062 -0.14776699 -0.005487798 -0.01676172 0.039919667 -0.013691814 -0.0064961044 -0.1572038 -0.017431768 0.13156094 -0.0033013774 -0.021424685 0.031346194 0.12951158 0.1347138 -0.32551068 -0.013385513 0.05219355 -0.024536489 0.08444877 0.07724335 0.02871233 -0.029059669 -0.14562035 0.12164507 -0.08694453 -0.040570173 0.032238696 0.1789963 0.10849756 -0.047897436 0.02873479 0.09136743 0.23608945 0.03343675 0.22990966 0.07115506 0.063364856 -0.047992073 -0.043020897 -0.030610407 -0.06491107 0.0574553 0.0074558645 -0.023050226 0.005950385 0.06858079 -0.08089512 0.07816213 -0.015249768 0.13414167 0.04129763 0.039828103 0.1581429 -0.19254078 -0.06703271 0.032495238 -0.2299328 0.059274152 0.026341923 0.12073836 -0.009407855 -0.0039085243
35 -0.048529625 0.058188386 -0.017618187 -0.099587716 -0.0045366306 0.0059273127 0.093496144 -0.01653348 0.06275502 -0.052523267 -0.040211074 0.18718569 0.027566675 0.076897435 -0.09172065 -0.1766274 0.141616 0.07796847 0.11117866 -0.017428523 -0.09228125 -0.03609331 0.007554129 -0.19690633 -0.07700011 -0.014243973 -0.13690999 -0.24082386 0.101036415 0.18345524 -0.05546381 0.0070776995 0.010919755 -0.07530569 -0.10166174 -0.052080292 0.09957497 0.035398778 0.3221407 0.045866262 -0.14063554 0.15703076 -0.11740574 0.09545067 0.03051232 0.1188728 -0.06939411 0.03211376 -0.0372856 -0.13944711 -0.013120708 -0.05029625 -0.0651015 -0.17236212 0.10069879 -0.11285547 0.09383029 0.0038479064 -0.1689592 -0.01811542 -0.05426245 0.027809177 -0.13002846 -0.21068919 -0.28112897 -0.0013369756 -0.15736073 -0.026893614 -0.005189117 0.050086744 0.0042386083 -0.008832561 -0.1586837 -0.023240285 0.117611825 0.012114259 -0.019331533 0.02749457 0.13426916 0.13538821 -0.31679797 -0.021088451 0.057251282 -0.04262236 0.09837674 0.077582695 0.018680016 -0.021690598 -0.13358565 0.11019002 -0.10036724 -0.03192507 0.025986444 0.19155535 0.09565854 -0.049407437 0.037547994 0.099813364 0.23247768 0.020347398 0.22966269 0.0687869 0.052980937 -0.028690815 -0.026742501 -0.037487008 -0.04284899 0.052871116 0.024896232 -0.016748084 0.0010310307 0.05797031 -0.10355409 0.072563626 -0.026145808 0.119452655 0.03879213 0.045181394 0.152201 -0.20032541 -0.05449355 0.047525264 -0.20130162 0.08636397 0.04539612 0.13706103 -0.0018152961 -0.0027888766
37 -0.0518793 0.059041187 -0.010073139 -0.10091993 0.0020868054 0.0061535696 0.100887716 -0.010544945 0.05198819 -0.06093532 -0.040260848 0.17611977 0.030127224 0.08825899 -0.10521373 -0.17963943 0.14933063 0.07803426 0.10407231 -0.0163051 -0.0816796 -0.036921836 0.011441062 -0.19158503 -0.077444 -0.011098778 -0.13739607 -0.24507609 0.10355693 0.18478374 -0.047543116 0.011108874 0.0132232625 -0.071934484 -0.09884046 -0.05317513 0.09521487 0.03235947 0.32321507 0.04617934 -0.13696277 0.14325552 -0.113380186 0.089945756 0.022913672 0.11020286 -0.058528904 0.041823264 -0.027486833 -0.12721555 -0.004495519 -0.04496867 -0.060773525 -0.16644455 0.09732761 -0.10268049 0.087740295 -0.0008090248 -0.17009246 -0.0149353845 -0.06305306 0.024481326 -0.1307158 -0.19811097 -0.2853008 -0.011460497 -0.14816882 -0.03885903 0.003967388 0.052980527 0.01710538 -0.008646771 -0.15245274 -0.02826137 0.11093251 0.013701478 -0.019269656 0.01784159 0.12828532 0.12842458 -0.2922269 -0.021548612 0.06327825 -0.039565288 0.099915445 0.0691105 0.016039576 -0.015530712 -0.13234635 0.10110128 -0.10501631 -0.0320932 0.020123223 0.18953416 0.08486933 -0.045003492 0.038101736 0.094344884 0.21553636 0.019129515 0.21803245 0.06703881 0.048835307 -0.024166694 -0.015111226 -0.037806183 -0.026817769 0.05117093 0.031306487 -0.01764753 -0.009299792 0.056269355 -0.10839504 0.06678513 -0.033318702 0.11175987 0.041330654 0.051109143 0.13994494 -0.19952443 -0.046535477 0.04274311 -0.18172501 0.09520919 0.048725862 0.14424783 -0.007420703 0.00012170164
34 -0.04909438 0.055900194 -0.013507552 -0.090885445 -0.0046404772 0.011110817 0.09830996 -0.019405467 0.063568324 -0.062270608 -0.03911361 0.18635936 0.027787853 0.07651491 -0.0951993 -0.17807612 0.13988979 0.07099235 0.10861647 -0.016267676 -0.09640101 -0.030702537 0.010964847 -0.19455299 -0.0775327 -0.015320235 -0.1341983 -0.24424957 0.10402771 0.18239039 -0.057382774 0.012635425 0.010469956 -0.07261074 -0.099371165 -0.055289976 0.09717253 0.03461151 0.31492344 0.046497498 -0.14570032 0.15315361 -0.117060125 0.09264999 0.025975503 0.119396105 -0.065956764 0.03920106 -0.03239927 -0.1323364 -0.00919113 -0.049895667 -0.064676344 -0.16438164 0.10337506 -0.11341612 0.09068522 0.0036859645 -0.16741036 -0.015537961 -0.056035303 0.029218683 -0.13124494 -0.20625176 -0.28303275 -0.0036241433 -0.15159947 -0.03369492 -0.0030991207 0.05001667 0.0097042015 -0.0068319393 -0.15376067 -0.02381408 0.12011962 0.010798632 -0.017346734 0.024899231 0.13134716 0.13002056 -0.31169626 -0.025503948 0.061162956 -0.04210316 0.09707406 0.0706001 0.021070017 -0.023854699 -0.14115886 0.11472279 -0.09956496 -0.035336137 0.023176674 0.18637976 0.09104182 -0.045331247 0.042912632 0.09724608 0.23075113 0.02296925 0.22692306 0.06959489 0.05640912 -0.030818904 -0.019437196 -0.035933014 -0.036376942 0.048085697 0.024220927 -0.023415215 0.0010108483 0.05723698 -0.100026034 0.077160366 -0.02905462 0.12463977 0.03607266 0.05030412 0.15198448 -0.20504649 -0.05515005 0.04551004 -0.20242447 0.089016475 0.047625054 0.14183827 -0.006387194 0.0041164844
9 -0.023823004 0.05275442 -0.00929539 -0.08348034 -0.008926057 0.008958783 0.094615094 -0.033251587 0.07088848 -0.05468922 -0.043943584 0.19827272 0.04716823 0.039746713 -0.0674092 -0.15033303 0.107241325 0.058570664 0.097509414 -0.023040209 -0.10815265 -0.028458955 0.025070088 -0.19481175 -0.06130212 -0.01829961 -0.11028663 -0.21864253 0.0920275 0.16400105 -0.061879553 0.00417957 0.02472082 -0.059546635 -0.097944245 -0.031219823 0.08485975 0.030770255 0.28874502 0.035832677 -0.13246827 0.15053627 -0.10132327 0.0860543 0.020579783 0.123206735 -0.074842945 0.036293127 -0.03273642 -0.13523352 -0.016866766 -0.05070894 -0.07090665 -0.15736866 0.08995927 -0.1067564 0.105153054 0.0037888926 -0.15372406 -0.02780454 -0.031655293 0.032133393 -0.11819295 -0.21112984 -0.24483865 -0.0013513784 -0.14479263 -0.0044949297 -0.009239144 0.04225255 -0.008060676 -0.005075467 -0.15143037 -0.024279146 0.122950815 0.0028857067 -0.016157307 0.025976134 0.12300499 0.13146043 -0.31213558 -0.015504338 0.047976773 -0.029910209 0.080940284 0.080327265 0.023391467 -0.027617803 -0.13898197 0.123030685 -0.08417065 -0.031361178 0.029523494 0.17492251 0.097472765 -0.04501957 0.031394314 0.09686228 0.22916518 0.029400824 0.22129557 0.07031786 0.06627916 -0.047093887 -0.02788139 -0.028976055 -0.05400397 0.060083725 0.019381648 -0.013695722 0.005108245 0.059710093 -0.08346486 0.07972587 -0.0128040165 0.13119516 0.044490803 0.03872773 0.15501168 -0.19472241 -0.058754623 0.024436064 -0.21232915 0.07015742 0.02991667 0.121841654 -0.010970643 -0.001558591
16 -0.01995356 0.055034038 -0.015622289 -0.08126845 -0.006276432 0.0061448663 0.09330961 -0.034701876 0.07570129 -0.052387454 -0.040860854 0.20016526 0.04877661 0.03536559 -0.06675344 -0.14968202 0.097961284 0.060394812 0.106736064 -0.025672702 -0.11346524 -0.031870604 0.019433975 -0.20145999 -0.0569379 -0.016981853 -0.11592279 -0.2116934 0.09875628 0.16806006 -0.07043328 0.009317226 0.023928303 -0.061098043 -0.10386755 -0.03216026 0.0915744 0.03160017 0.2946626 0.03000031 -0.13172628 0.15323235 -0.09613876 0.083848916 0.026869532 0.13889967 -0.07581459 0.03355989 -0.040349077 -0.1407039 -0.019538336 -0.050791834 -0.07280666 -0.1613761 0.09340903 -0.114769265 0.11777804 0.004493662 -0.15226601 -0.035250816 -0.027533498 0.035218872 -0.12116204 -0.22127223 -0.24813884 0.007814862 -0.15308088 -0.002076273 -0.0143210925 0.034603298 -0.014094559 -0.011825043 -0.1539772 -0.024896987 0.1250169 -0.0016535359 -0.018622164 0.02624325 0.13264108 0.13686682 -0.325311 -0.010877682 0.04516712 -0.022013556 0.08098188 0.079500206 0.03189234 -0.024174625 -0.14648376 0.1298007 -0.08318317 -0.032885574 0.030424565 0.181201 0.10757962 -0.040829156 0.031883646 0.09079276 0.2306552 0.03596081 0.22821613 0.07369574 0.06408411 -0.04532829 -0.038019713 -0.02786667 -0.06225433 0.059246957 0.01482723 -0.019937877 0.008229818 0.06754469 -0.08235523 0.081982166 -0.016260725 0.13603944 0.044794306 0.041096743 0.16078813 -0.19997063 -0.06581089 0.028843917 -0.22820705 0.059439998 0.029372752 0.118675396 -0.009427514 -0.00089966983
39 -0.022349516 0.05428396 -0.017051889 -0.10144077 -0.016554298 0.0010708825 0.10599394 -0.045493297 0.08396236 -0.059599902 -0.052035145 0.22103599 0.05184518 0.036829513 -0.074500784 -0.15631615 0.12134431 0.077069774 0.12056957 -0.031692166 -0.11211808 -0.042346124 0.024861908 -0.22481549 -0.06498047 -0.026691195 -0.1181562 -0.23473458 0.11816888 0.201979 -0.0820322 0.009458275 0.017455418 -0.07740721 -0.123306006 -0.035605058 0.108650774 0.027315326 0.32887447 0.035957165 -0.13459897 0.17503504 -0.11646033 0.09702017 0.031661984 0.14718123 -0.08343327 0.02960055 -0.04447054 -0.1373684 -0.026034107 -0.04446831 -0.089796275 -0.16862912 0.099877566 -0.12895216 0.1281966 0.008263692 -0.1575715 -0.035505455 -0.031157376 0.043021128 -0.13536917 -0.24537957 -0.27425146 0.007973848 -0.16582035 -0.006124265 -0.01938037 0.030543912 -0.025883988 -0.017008081 -0.16885784 -0.028725522 0.1424676 0.0057149306 -0.028955003 0.026955072 0.14009517 0.14425993 -0.3574862 -0.0036233999 0.05492818 -0.02875581 0.1048341 0.085710175 0.025859108 -0.03620268 -0.15911005 0.14021535 -0.09444751 -0.04060669 0.0307273 0.19158377 0.115875736 -0.047995698 0.022784183 0.10637984 0.26056707 0.033728365 0.25727674 0.072504774 0.06360782 -0.0557529 -0.03963809 -0.0339164 -0.0702836 0.06859955 0.0152110085 -0.020195331 0.013647714 0.078246795 -0.0828248 0.079993695 -0.0154846655 0.14452374 0.043804795 0.0450035 0.17386207 -0.20254141 -0.07225015 0.03325274 -0.2534026 0.060797386 0.027458526 0.12510325 -0.0021141137 0.00011802699
7 -0.01945291 0.05640032 -0.014443193 -0.08313125 -0.0060686227 0.013127397 0.09428282 -0.03337429 0.07368081 -0.056267522 -0.04126465 0.20089239 0.041762784 0.0416593 -0.06771429 -0.1519633 0.105738275 0.062039778 0.10717823 -0.025625756 -0.10551541 -0.037278056 0.024074888 -0.19724883 -0.063351415 -0.016689776 -0.11724651 -0.21860465 0.09853247 0.17553961 -0.06760938 0.006920994 0.018183732 -0.06286974 -0.10404886 -0.034215517 0.08839655 0.02636567 0.2940179 0.034059197 -0.12870814 0.15209597 -0.09618538 0.087081395 0.02766151 0.12831186 -0.07572085 0.02758844 -0.035850313 -0.1366451 -0.020116497 -0.043938965 -0.071651556 -0.15353128 0.08750706 -0.11356001 0.10633319 0.0054806797 -0.14832504 -0.027880264 -0.027226863 0.03715206 -0.1150995 -0.21312906 -0.24721192 0.0069928267 -0.1500556 -0.009458719 -0.009012981 0.035659663 -0.013099015 -0.00807773 -0.15485224 -0.02118741 0.1213224 0.0010162699 -0.022472706 0.025596332 0.12421335 0.12905821 -0.31570825 -0.01458426 0.04576025 -0.022738926 0.08279248 0.07347849 0.029875927 -0.027740031 -0.14119618 0.11957074 -0.086582266 -0.03152792 0.026242392 0.17704937 0.10617861 -0.03875448 0.025698164 0.08845989 0.22797601 0.029157627 0.22234005 0.0663973 0.05896337 -0.046719257 -0.039656628 -0.02807812 -0.06191661 0.055374164 0.016003458 -0.019145917 0.0035468691 0.063173465 -0.08341763 0.07310654 -0.015316758 0.1261834 0.041925393 0.038042672 0.15486103 -0.19583629 -0.06499987 0.030679323 -0.22310427 0.06522751 0.028150275 0.12292373 -0.008677965 -0.0013470349
10 -0.02314966 0.05546542 -0.020151962 -0.09604346 -0.020614209 2.450899e-05 0.099173956 -0.042859342 0.081981555 -0.052909665 -0.05512417 0.22329831 0.05797395 0.03496445 -0.08125466 -0.1509713 0.11923899 0.075096324 0.11872395 -0.0311651 -0.1141413 -0.047313504 0.028894495 -0.22453563 -0.06678524 -0.023425449 -0.116599806 -0.23451419 0.1186805 0.20131668 -0.0765257 0.012391001 0.018939663 -0.079257645 -0.12285731 -0.03373215 0.10613789 0.02615293 0.33144328 0.034340028 -0.12980719 0.17396872 -0.11954308 0.09850948 0.030914081 0.14432138 -0.09038467 0.032964062 -0.046210688 -0.13547312 -0.022134302 -0.05092257 -0.08785713 -0.16685241 0.09969481 -0.13113664 0.13031773 0.008004308 -0.16289707 -0.037318077 -0.033425868 0.038384154 -0.1273456 -0.24139756 -0.27418086 0.011068407 -0.15974101 -0.007961267 -0.01463526 0.030344706 -0.026566885 -0.013209242 -0.16546568 -0.031325772 0.14422567 0.010837899 -0.03282287 0.030566618 0.14387129 0.14447731 -0.35470104 -0.007932144 0.05151474 -0.035037663 0.10472286 0.08226673 0.022697205 -0.035730775 -0.15325096 0.13772757 -0.090931214 -0.032397605 0.032012753 0.19115062 0.11376049 -0.043819997 0.024483886 0.103100136 0.26159656 0.037038412 0.25328958 0.0734921 0.063173525 -0.057901084 -0.042823914 -0.041391898 -0.06839492 0.07172324 0.014230066 -0.021250557 0.010860027 0.07647304 -0.07904273 0.07795812 -0.011740637 0.14433673 0.051255167 0.039692257 0.16991763 -0.2046524 -0.07015572 0.028317355 -0.24552275 0.05912877 0.021778012 0.12613162 -0.0034263195 -0.004426715
3 -0.018359473 0.06043797 -0.012449848 -0.10644468 -0.010030768 0.016869249 0.095952034 -0.05143634 0.077292256 -0.065808006 -0.044504035 0.23523809 0.05073263 0.028479593 -0.054462012 -0.16574484 0.10922797 0.06035158 0.12127432 -0.023705862 -0.13648614 -0.04654746 0.020226514 -0.22841358 -0.07701894 -0.03402974 -0.12929547 -0.24575488 0.119828746 0.20646437 -0.08409266 0.024769228 0.018964073 -0.07429734 -0.116096966 -0.030869855 0.10670584 0.03393078 0.32328916 0.03736068 -0.1442758 0.17189357 -0.10752342 0.09861098 0.03251974 0.15367694 -0.08883106 0.032815125 -0.04699444 -0.1610778 -0.04495976 -0.043563537 -0.08797991 -0.17285742 0.10219334 -0.13087533 0.13681488 0.005565824 -0.15710346 -0.030137708 -0.021525387 0.052111525 -0.14012627 -0.25029367 -0.2713812 0.02545773 -0.18022399 0.0026322168 -0.019705283 0.031660575 -0.024826527 -0.021124844 -0.19020256 -0.016975308 0.14576736 0.006786809 -0.009413026 0.044857245 0.13692828 0.15066037 -0.3751593 -0.007962291 0.054827683 -0.030818054 0.09624092 0.09965047 0.038942214 -0.027996833 -0.16256465 0.1320159 -0.08658548 -0.047676723 0.046694685 0.19660382 0.1294358 -0.03512532 0.026941756 0.09593746 0.25337276 0.039603557 0.26949406 0.088265665 0.07319944 -0.043192215 -0.047178965 -0.027183063 -0.08265672 0.07747803 0.009425307 -0.027388176 0.021531735 0.08347729 -0.09236007 0.08269537 0.0030081994 0.1464487 0.044408694 0.044897452 0.19250266 -0.20738429 -0.087326795 0.029245907 -0.27493894 0.045281008 0.042875063 0.12867802 -0.00985996 -0.015277705
21 -0.017190984 0.054144517 -0.016482225 -0.080443 -0.011817543 0.010003652 0.09258139 -0.033917345 0.071243554 -0.059683666 -0.03969221 0.20173575 0.044420738 0.045915045 -0.07067117 -0.15694284 0.1019067 0.06319219 0.09985928 -0.02272778 -0.11417516 -0.03642622 0.026143553 -0.20078313 -0.06662106 -0.011356492 -0.12146508 -0.2261744 0.09889307 0.171178 -0.07340113 0.014455448 0.01171269 -0.068253815 -0.10636561 -0.041511603 0.09140312 0.023105752 0.3040725 0.027313288 -0.13376479 0.15178238 -0.106642075 0.080625124 0.023097774 0.13400267 -0.07949491 0.023634637 -0.04223638 -0.1404438 -0.020938192 -0.047778588 -0.07438264 -0.16022016 0.09770161 -0.11349511 0.103407905 0.0074607544 -0.15302487 -0.03349216 -0.0342006 0.036634974 -0.121121705 -0.22369403 -0.26463628 0.0023503331 -0.15517013 -0.008109584 -0.007166618 0.04021864 -0.009260085 -0.012241992 -0.16547193 -0.018672468 0.13219719 -0.0029695143 -0.01697219 0.029742233 0.12655228 0.12879111 -0.32627708 -0.011286787 0.053053305 -0.03186043 0.08808 0.084827475 0.030103734 -0.021603687 -0.14390898 0.12205705 -0.08617531 -0.0371338 0.03268765 0.17969438 0.106275365 -0.04166141 0.02702967 0.09696351 0.23620358 0.029741695 0.22825254 0.06967981 0.06137697 -0.049232636 -0.040245928 -0.029288577 -0.06198558 0.0554326 0.011512462 -0.018685784 0.009413308 0.067103945 -0.08171605 0.0728813 -0.014686912 0.13519016 0.03619494 0.04630935 0.15877111 -0.20165738 -0.063993186 0.030401794 -0.2233376 0.06552494 0.028616149 0.119808875 -0.012540291 0.001953784
0 -0.017789984 0.057544038 -0.016965955 -0.09963153 -0.0089194635 0.010074537 0.09798043 -0.04868054 0.080336176 -0.066518776 -0.041697968 0.2362675 0.054606546 0.034651335 -0.059271324 -0.1670707 0.109557554 0.06459761 0.12251313 -0.02127861 -0.13109158 -0.048334137 0.019351566 -0.23250996 -0.07435124 -0.026352381 -0.1278983 -0.24599299 0.118112445 0.20655978 -0.08529498 0.022163877 0.01974877 -0.07421415 -0.11407418 -0.02986326 0.108709455 0.03733919 0.32502773 0.04100455 -0.14875902 0.17736378 -0.1081458 0.10033874 0.027990945 0.15312752 -0.08800818 0.02962816 -0.04206944 -0.16031867 -0.041797787 -0.048839737 -0.086883746 -0.17685463 0.10561937 -0.13313504 0.1323583 0.007853279 -0.15493761 -0.030665137 -0.030030355 0.048105896 -0.13876641 -0.24979417 -0.2694556 0.02201042 -0.17707933 0.0035650448 -0.019624831 0.03901378 -0.02012092 -0.016412308 -0.18318737 -0.025001045 0.13695748 0.006192795 -0.0135058025 0.039361775 0.14056654 0.14353643 -0.36998755 -0.005203904 0.050880667 -0.03496796 0.09895821 0.098848924 0.03303046 -0.027402865 -0.16197832 0.1382151 -0.09056748 -0.04101403 0.046266746 0.19239274 0.12853311 -0.04215759 0.026047658 0.09767635 0.25726327 0.03547846 0.26168868 0.08262345 0.068743296 -0.04664536 -0.044505052 -0.028978873 -0.08150359 0.07026317 0.010157926 -0.028785378 0.018200992 0.0816219 -0.09208257 0.08591721 -0.004841092 0.15000296 0.044922452 0.046529006 0.18808289 -0.21240705 -0.08319706 0.037214708 -0.26913735 0.055618815 0.043301124 0.1351983 -0.008772201 -0.012819013
36 -0.025197854 0.057232186 -0.013601587 -0.088200524 -0.006233495 0.006528085 0.09316385 -0.034809064 0.06887953 -0.058595687 -0.045247644 0.19951253 0.048610922 0.044881508 -0.07294937 -0.15048265 0.10668205 0.06557415 0.1006245 -0.021088976 -0.10751145 -0.036216147 0.024091465 -0.1959017 -0.06199576 -0.017307598 -0.12235892 -0.2259993 0.09916942 0.1792413 -0.07143403 0.0018777 0.019440286 -0.06717572 -0.099077694 -0.039932128 0.09288256 0.028796757 0.30384147 0.0298092 -0.13331497 0.15290773 -0.09905846 0.08834999 0.02344765 0.12705061 -0.074292965 0.033419855 -0.0358522 -0.1314032 -0.018005833 -0.046394825 -0.07632224 -0.15517081 0.09471054 -0.11343333 0.11126902 -0.0009918058 -0.15055427 -0.028533448 -0.027153185 0.040087797 -0.12376882 -0.2125086 -0.26267326 0.00029312703 -0.1472123 -0.015175545 -0.012152909 0.036975466 -0.009918811 -0.01446308 -0.16002426 -0.024098929 0.1296068 -0.0010319075 -0.022114329 0.021286475 0.1286383 0.13213234 -0.3233683 -0.014526055 0.05556164 -0.02721946 0.08267659 0.075173564 0.032189917 -0.02360097 -0.14312276 0.12594518 -0.08733332 -0.03228522 0.033437587 0.18473357 0.10503102 -0.043424748 0.027379889 0.10175789 0.23118028 0.031125609 0.23055403 0.06740449 0.06546076 -0.0516474 -0.034321446 -0.03743049 -0.058111783 0.056689452 0.014069584 -0.01812249 0.001388336 0.06715832 -0.086418696 0.07436449 -0.01936753 0.1341091 0.041331284 0.038662214 0.15936457 -0.19683181 -0.05732395 0.028005619 -0.22638142 0.06649165 0.026461152 0.12473864 -0.005055337 -0.005121033
31 -0.023352724 0.058157798 -0.01272054 -0.082999155 -0.008167286 0.007813532 0.09393915 -0.029633887 0.07367839 -0.052172564 -0.041426186 0.20624661 0.050047748 0.04359938 -0.07087322 -0.15543215 0.1092516 0.06623808 0.10052788 -0.03340833 -0.11569971 -0.032506198 0.01974636 -0.20742793 -0.06539684 -0.017459095 -0.118911 -0.22627105 0.10317941 0.17896345 -0.06994911 0.011233721 0.015731301 -0.0699033 -0.107237235 -0.04468226 0.094660334 0.02532709 0.30572116 0.03507637 -0.12277844 0.15209295 -0.09757298 0.0817934 0.026295524 0.13683636 -0.07985686 0.024518777 -0.04146096 -0.1299101 -0.014520007 -0.046997786 -0.07146968 -0.15942273 0.0927359 -0.11489635 0.102128245 0.0038261814 -0.14870045 -0.027934909 -0.027934985 0.03448525 -0.12387659 -0.2161496 -0.25734618 0.0065044966 -0.15523022 -0.010105207 -0.01225233 0.042621285 -0.017163755 -0.011839368 -0.15740137 -0.021971816 0.13107693 0.0015537506 -0.023852076 0.028178802 0.12546416 0.12822552 -0.31975934 -0.013403024 0.046544798 -0.023742285 0.08261513 0.07546449 0.03358859 -0.029479962 -0.14528106 0.12582068 -0.08383785 -0.04069724 0.026563136 0.17383824 0.10771128 -0.04072666 0.02450827 0.09375839 0.2295734 0.028836714 0.22672543 0.07503695 0.06700336 -0.052434552 -0.040438414 -0.027532037 -0.06236432 0.057159446 0.006508039 -0.017800454 0.011007945 0.067849785 -0.08223701 0.07585844 -0.008273387 0.13306364 0.038360912 0.035472773 0.15539202 -0.19724055 -0.063319586 0.02826521 -0.22437257 0.061455432 0.023478137 0.11340866 -0.005113478 -0.007944714
