57 128
8 0.021651957 -0.081607535 0.060793646 0.088647895 0.02255189 0.05228117 0.042890195 0.14962141 0.1077107 -0.06347683 -0.1797542 0.24868497 0.0180355 -0.06276636 0.085493244 0.017112205 -0.049541187 -0.05566562 0.09395307 -0.055914912 0.07464521 -0.11310172 0.0113021955 -0.058532067 -0.0016553497 0.12956259 -0.060950488 -0.13448879 -0.08007364 0.1037739 -0.018547116 -0.14481798 0.019961713 0.040786322 0.10624328 0.119273745 0.104660705 0.026392289 0.20145477 0.105731025 -0.17320833 0.12318979 -0.03264668 0.13393953 0.047415666 -0.04515847 -0.0752502 -0.17190726 0.11347436 -0.1712815 -0.06432434 -0.1892528 -0.06589488 -0.15243772 0.00251362 -0.014211039 0.13425644 0.09383985 0.0083311 0.089874566 0.05792132 -0.065589145 -0.07640541 -0.17735077 -0.10236072 -0.069957346 -0.09695489 0.074441925 0.010456425 0.020442946 -0.0058389544 0.044003256 -0.08207631 0.006119715 0.029558016 -0.016682617 0.05684504 -0.056452114 -0.06094573 0.09885689 -0.021358155 0.0074572084 -0.034511786 -0.07851054 -0.058028508 0.102139965 -0.042213805 -0.08934449 -0.15307316 0.068345286 0.033958416 -0.015085354 0.14379516 0.13372914 0.15684794 -0.16272378 -0.02439206 0.10564362 0.27357 0.068365045 0.14880808 -0.016108157 -0.010142184 -0.21322721 0.08082718 -0.12130946 -0.0076131416 0.05241381 0.037708517 0.03289692 0.01811929 0.0046173474 -0.122539796 0.04643019 -0.051939517 0.16058479 0.16504481 0.049246334 0.18227026 -0.08525236 0.03411705 -0.09467391 -0.13927124 0.028560853 -0.11925418 0.1740103 -0.13061541 0.12079407
40 0.036918066 -0.09290163 0.07457164 0.099369064 0.008040279 0.06291537 0.041683022 0.14891495 0.09848802 -0.07936977 -0.16543336 0.2399338 0.010959552 -0.081014715 0.08405047 0.032354094 -0.05188837 -0.047451712 0.10057477 -0.076225705 0.052410528 -0.10235604 0.0119567625 -0.04402294 -0.003373788 0.12974532 -0.06606559 -0.1199956 -0.08299538 0.10284174 -0.017836295 -0.14468431 0.020117536 0.036688928 0.104244664 0.10852162 0.08976197 0.052926093 0.19364502 0.12362822 -0.17154883 0.102182984 -0.022481028 0.12499855 0.070684835 -0.037956495 -0.09765304 -0.16533759 0.1300566 -0.1645159 -0.062510446 -0.1851073 -0.0468587 -0.14468437 0.013457981 -0.023008227 0.12804107 0.10753844 0.021742117 0.09434183 0.055271056 -0.082321115 -0.08138934 -0.16829146 -0.102279946 -0.06376807 -0.09435425 0.07894048 0.0073747085 0.011655635 -0.015442537 0.04803231 -0.06696749 -0.0032697967 0.023351982 -0.007284395 0.0394816 -0.06609501 -0.06318066 0.0863474 -0.00844788 0.007894458 -0.03500671 -0.080122285 -0.046671025 0.10594852 -0.05364213 -0.0889621 -0.16433275 0.06033221 0.043968257 -0.00955456 0.15672794 0.124471016 0.13608609 -0.15700728 -0.028094701 0.09983305 0.26903445 0.06984512 0.14998749 -0.005588555 -0.031007612 -0.21971044 0.0805939 -0.14344431 -0.004491649 0.032117434 0.055712167 0.028078094 0.03533694 -0.017896049 -0.12138994 0.04030198 -0.034636017 0.16593948 0.16468221 0.049453147 0.19490494 -0.08383568 0.0386692 -0.111465275 -0.13938129 0.0053861556 -0.116953984 0.17931275 -0.14407979 0.14192928
48 0.05143 -0.14804344 0.062248144 0.098220676 0.0017268932 0.069719836 0.009275795 0.12235676 0.07855531 -0.06440967 -0.111241244 0.17798208 -0.010205347 -0.09804256 0.07708786 0.053445764 -0.047718093 -0.012496736 0.10272075 -0.0935467 0.021834863 -0.08134326 0.015203522 -0.02052509 -0.03301037 0.15393478 -0.08567948 -0.06668531 -0.061119452 0.08145106 -0.029480176 -0.16960903 -0.0020000427 0.030616868 0.10191515 0.08681795 0.045118563 0.09229434 0.16257262 0.12804177 -0.14760926 0.07425361 -0.019761162 0.09299706 0.083623424 -0.032786317 -0.11987882 -0.141723 0.1393675 -0.15407671 -0.040877163 -0.14992015 -0.037688553 -0.15199701 -0.014055359 -0.026892958 0.1500415 0.12967594 0.039881032 0.08865358 0.057125773 -0.103720866 -0.070829034 -0.13985182 -0.11397403 -0.043748878 -0.09498115 0.12530951 -0.04133011 -0.00802367 -0.03644197 0.05313572 -0.0656709 0.0128467865 0.027076958 -0.012201713 0.07320868 -0.07025695 -0.008525822 0.13245706 0.035788134 0.0076528247 -0.030649334 -0.087855875 -0.017509066 0.1146673 -0.09194594 -0.07946133 -0.17038843 0.02226868 0.037697885 -0.02772837 0.18317768 0.13090053 0.073071264 -0.20147039 -0.012124544 0.09985212 0.2621402 0.067613326 0.15854162 -0.02661624 -0.05603376 -0.2205321 0.08093502 -0.15755638 -0.038390484 0.022901926 0.044508133 0.010645581 0.01610094 -0.023313105 -0.10321551 0.035481326 -0.010077124 0.197363 0.17772874 0.030132346 0.20672943 -0.06041423 0.05406359 -0.10125091 -0.09824462 -0.04413137 -0.10397512 0.20024191 -0.17033589 0.15769818
0 0.045553494 -0.12171953 0.059847865 0.10652808 0.01828919 0.059019703 0.0221902 0.14097854 0.10502636 -0.06430175 -0.15058689 0.23466362 0.018388856 -0.09343419 0.095075846 0.02130645 -0.05670452 -0.038210128 0.095319204 -0.06660948 0.0489116 -0.10403651 0.0033090757 -0.05703922 -0.00511132 0.14678258 -0.06098053 -0.106668256 -0.05982214 0.10529919 -0.0342345 -0.15740155 0.01466596 0.031646058 0.11010381 0.12262008 0.07756521 0.05537776 0.19495963 0.11112239 -0.16864343 0.111632 -0.031240337 0.113263495 0.065041766 -0.033226147 -0.107222326 -0.17225881 0.114733234 -0.16875046 -0.06218126 -0.17149445 -0.064726785 -0.14813282 -0.000818802 -0.01880683 0.14962476 0.10412846 0.023025058 0.08413122 0.039251182 -0.08231812 -0.07978791 -0.17124616 -0.10409676 -0.055881154 -0.098313436 0.11131031 -0.019720262 0.014943249 -0.013482145 0.04299866 -0.07409809 0.0018926036 0.029353254 -0.005204145 0.07060884 -0.056999642 -0.036810935 0.098373644 -0.017238213 0.010762679 -0.039508637 -0.09387859 -0.031166717 0.13436987 -0.07543764 -0.084737904 -0.16866831 0.057433654 0.034102544 -0.017035954 0.16775176 0.12444704 0.122308806 -0.17895035 -0.02889968 0.10368466 0.27429038 0.06619144 0.15397198 -0.016155574 -0.019319963 -0.22388977 0.074368484 -0.13408482 -0.031136107 0.03852758 0.03837298 0.005797154 0.025961308 -0.008240601 -0.11927554 0.056823272 -0.03699619 0.19129497 0.16388986 0.04747145 0.19772688 -0.07704484 0.049003467 -0.08429179 -0.11997023 -0.0028873314 -0.11312749 0.18478832 -0.13731106 0.13363329
28 0.051640496 -0.13000819 0.07305563 0.11148868 0.0049607255 0.0684047 0.01674264 0.14187768 0.098117605 -0.068845324 -0.14807129 0.22543386 0.0077092233 -0.10319859 0.09452805 0.036637213 -0.05612678 -0.033246264 0.111751676 -0.08347323 0.031198334 -0.094711795 0.012643155 -0.042033024 -0.015058187 0.14299658 -0.073892504 -0.093441695 -0.06397622 0.10070594 -0.028230513 -0.16110569 0.009288036 0.028293071 0.102866895 0.10380522 0.06950768 0.07336123 0.19310659 0.120697774 -0.16854948 0.09491779 -0.022577336 0.10885671 0.08811713 -0.03096188 -0.12022316 -0.17605019 0.13113138 -0.17691605 -0.06411881 -0.17661896 -0.055816762 -0.15254797 0.004025984 -0.025423806 0.15318972 0.1194078 0.028531132 0.08980666 0.04684802 -0.10082917 -0.08636181 -0.17065287 -0.11569747 -0.054927837 -0.11022396 0.11508871 -0.026059885 0.0013077437 -0.028703071 0.047696013 -0.07481624 0.0018740867 0.030741489 -0.0042733015 0.06625095 -0.068054415 -0.036012422 0.107005194 -0.0026930242 0.0016548238 -0.039980058 -0.09330355 -0.032802165 0.13224374 -0.08540436 -0.09049512 -0.17993131 0.055859003 0.037120413 -0.015466616 0.17567143 0.13395792 0.10518989 -0.18854357 -0.027535247 0.102354065 0.2865784 0.06521652 0.17056726 -0.013195286 -0.03234383 -0.23760228 0.07832 -0.15317734 -0.025209727 0.024871452 0.048664346 0.008700275 0.027835699 -0.019775772 -0.114821255 0.0546321 -0.021933362 0.20063771 0.1752982 0.046424106 0.21506688 -0.08608704 0.053953964 -0.106261045 -0.12008437 -0.012406953 -0.1201088 0.20342015 -0.15468474 0.15807824
46 0.04333952 -0.12759162 0.056658555 0.10288095 0.014140423 0.061080284 0.017183974 0.13377498 0.09923466 -0.060531292 -0.14052619 0.21305372 0.014290309 -0.09406236 0.09360283 0.028802194 -0.055566553 -0.028551841 0.10001879 -0.07048643 0.046312205 -0.09775963 0.00597483 -0.049588695 -0.014290637 0.1470927 -0.06869348 -0.099559315 -0.06668069 0.098384716 -0.028136041 -0.15859106 0.014765546 0.037188273 0.10826511 0.11469671 0.06318746 0.060833506 0.18172242 0.11170997 -0.16158201 0.102313265 -0.03085676 0.103988476 0.06971155 -0.0351165 -0.10736664 -0.16908763 0.1255791 -0.17005385 -0.0581563 -0.1673485 -0.06345772 -0.15487191 -0.005259588 -0.019950433 0.15213646 0.116772085 0.028498122 0.09014696 0.044975396 -0.08818402 -0.07325783 -0.16314818 -0.10999245 -0.055794194 -0.10153085 0.11474397 -0.027817078 0.009318809 -0.025205342 0.043504626 -0.07666244 0.003988045 0.033134665 -0.0066843093 0.07378177 -0.06417135 -0.03450554 0.10922425 0.00042998785 0.010881817 -0.036352396 -0.08843963 -0.030593408 0.12885693 -0.08178868 -0.08247809 -0.16734369 0.042539902 0.035186633 -0.021181399 0.17321803 0.13050915 0.108712055 -0.18307301 -0.028410507 0.104440846 0.27157134 0.0664521 0.16406152 -0.02022418 -0.031206146 -0.22589558 0.080581985 -0.1410411 -0.031943947 0.04066197 0.04114151 0.009576358 0.019841034 -0.010955279 -0.116141185 0.045396134 -0.031977057 0.19631934 0.17606731 0.04787924 0.20067023 -0.07363438 0.05616487 -0.088374235 -0.109224945 -0.015589167 -0.12053975 0.19843732 -0.1514873 0.14752017
17 0.03590668 -0.099956065 0.058163468 0.101639286 0.019645168 0.05773719 0.04184632 0.14612961 0.113835216 -0.06597325 -0.17448948 0.25476784 0.02264059 -0.075159445 0.093003295 0.01697605 -0.049396947 -0.044650707 0.09718616 -0.060060512 0.061805002 -0.1111406 0.011635484 -0.06297717 7.941518e-05 0.13717562 -0.06524711 -0.12832196 -0.07013936 0.11004455 -0.024538705 -0.14956088 0.021964265 0.04315969 0.106476344 0.13224033 0.09210947 0.03273616 0.20351401 0.113990776 -0.17609799 0.119369715 -0.03355108 0.12512738 0.05790753 -0.037372258 -0.09166923 -0.17277236 0.11290451 -0.17329575 -0.06347401 -0.18249068 -0.0664197 -0.14661425 0.0032184995 -0.020107644 0.14510243 0.095526926 0.011186329 0.08767706 0.048605096 -0.070332624 -0.07849698 -0.1786997 -0.110163875 -0.062147267 -0.0942118 0.089526646 -0.002449782 0.018407239 -0.0119484905 0.042209443 -0.07505389 0.0010236234 0.032702513 -0.0084688915 0.06132056 -0.05903938 -0.05007853 0.09999323 -0.024016587 0.007221132 -0.031243319 -0.082983576 -0.043557364 0.12000579 -0.052117396 -0.086033024 -0.15498643 0.06288603 0.037781876 -0.012528757 0.15247534 0.13291793 0.13881962 -0.16087736 -0.022416757 0.106176324 0.27906367 0.0653263 0.15244639 -0.0121009415 -0.012513329 -0.22025204 0.07533203 -0.12982504 -0.019397672 0.048413362 0.043236285 0.023241144 0.024510313 -0.0062001273 -0.120422624 0.049588133 -0.048537616 0.17526005 0.16529329 0.045168903 0.19339205 -0.0895455 0.04013328 -0.09285126 -0.1385859 0.01922156 -0.122057565 0.17681141 -0.13834974 0.1264611
42 0.03828618 -0.105394505 0.05742467 0.099411316 0.01874992 0.060994096 0.03332257 0.13832454 0.106454946 -0.060972188 -0.16208263 0.23837504 0.018075133 -0.08443101 0.08816268 0.016166031 -0.05347946 -0.040637042 0.089944966 -0.061327644 0.057707414 -0.10204506 0.0075661447 -0.060635574 -0.0021814134 0.14098229 -0.061818965 -0.11728754 -0.064294085 0.103008926 -0.029286392 -0.15725048 0.018484546 0.038654346 0.1046688 0.12279705 0.083129555 0.043353297 0.20113814 0.10721717 -0.17369919 0.11694741 -0.037371866 0.11825496 0.060797796 -0.038046565 -0.0928912 -0.16858846 0.116378255 -0.17447156 -0.059086584 -0.17557783 -0.06818203 -0.15368894 -0.0021577806 -0.018635623 0.15063654 0.096141115 0.013977556 0.08958519 0.04545028 -0.07161769 -0.0788683 -0.17858057 -0.11120033 -0.060777605 -0.10075621 0.097126596 -0.0069858376 0.015046905 -0.013744302 0.039989453 -0.08160413 0.0020121362 0.032990273 -0.012468048 0.064987764 -0.057260234 -0.04448474 0.09989054 -0.01966822 0.009674637 -0.035157867 -0.086699344 -0.043144394 0.118343666 -0.0605192 -0.08673475 -0.16450046 0.057174813 0.031879358 -0.016394768 0.15394996 0.13311088 0.13455419 -0.16932888 -0.029875906 0.10636281 0.2742375 0.06587478 0.15392292 -0.015098567 -0.017829916 -0.21923637 0.074202724 -0.12797078 -0.022848366 0.047195587 0.04113659 0.014368358 0.020292833 -0.00352233 -0.117054455 0.049650975 -0.044715196 0.17711987 0.16750565 0.047262523 0.19216084 -0.08549524 0.04482322 -0.08629437 -0.12762164 0.0056427927 -0.120650664 0.18357104 -0.13531677 0.13067248
55 0.042339966 -0.11943537 0.058976445 0.09981014 0.0120520005 0.05985924 0.022726057 0.13648772 0.10027374 -0.060904626 -0.1513783 0.22430195 0.009042031 -0.09207683 0.093898095 0.029507162 -0.05197755 -0.03647464 0.096743174 -0.0744311 0.053150143 -0.09778773 0.010805079 -0.052090872 -0.0071362723 0.14400768 -0.064168125 -0.1053805 -0.06680902 0.09885697 -0.026708491 -0.16451052 0.018175757 0.03305223 0.109415635 0.120383285 0.07393557 0.058993332 0.19560973 0.115464054 -0.16659912 0.11137486 -0.027782775 0.11318673 0.06929659 -0.041698545 -0.10581089 -0.17098156 0.12240418 -0.17500968 -0.06359437 -0.17501195 -0.06522346 -0.15552987 -0.0052734828 -0.018619748 0.15223059 0.10728058 0.020756949 0.09171124 0.048243325 -0.08767926 -0.073183335 -0.16753103 -0.10852181 -0.061926514 -0.09607242 0.10661186 -0.018115323 0.010736493 -0.01899758 0.044481087 -0.07624227 0.009933702 0.033340845 -0.0075891507 0.07010496 -0.06467022 -0.03505971 0.11257328 -0.0049553514 0.009364047 -0.031846974 -0.08915853 -0.03130351 0.12605383 -0.07129339 -0.083729975 -0.16772363 0.047217615 0.030087749 -0.019611578 0.16358377 0.13244583 0.11686965 -0.18390472 -0.025598861 0.10374326 0.27948406 0.06696194 0.15837862 -0.015876368 -0.027075874 -0.22623286 0.078620076 -0.14013693 -0.02572714 0.038809344 0.042594958 0.014443558 0.017612113 -0.008349728 -0.11998228 0.046458744 -0.04050889 0.19103834 0.17349994 0.047769163 0.2052235 -0.077629894 0.050227158 -0.09721094 -0.11904683 -0.004547789 -0.122941606 0.19109403 -0.15102237 0.1378836
47 0.009113174 -0.03999805 0.06335211 0.074650966 0.028963484 0.040103212 0.07320692 0.16618773 0.1295814 -0.08451003 -0.21713151 0.28135175 0.022945916 -0.01748061 0.075996384 0.024253275 -0.03211766 -0.07279789 0.09257617 -0.055269923 0.09785383 -0.14443947 0.03174022 -0.08821951 0.013453045 0.10445901 -0.05382092 -0.17617857 -0.11143825 0.10821663 -0.0035618723 -0.121082656 0.02883507 0.071188055 0.105233945 0.13528168 0.13829088 0.006613648 0.19701526 0.12432504 -0.18659696 0.12578753 -0.02949376 0.16482547 0.025876166 -0.05196778 -0.049167458 -0.1703514 0.11133953 -0.18639022 -0.082658336 -0.21177743 -0.048399318 -0.14560252 0.016858004 -0.03970094 0.104028784 0.069807135 0.005077375 0.08369929 0.04642669 -0.055522013 -0.068388306 -0.18788214 -0.09392146 -0.06861464 -0.090457626 0.02466008 0.05265918 0.007989248 0.0065139458 0.047037337 -0.075685635 -0.019606628 0.007176913 -0.030875284 0.03251883 -0.04716331 -0.10053551 0.068070024 -0.032203104 0.0025217363 -0.024755288 -0.06729408 -0.08330133 0.06622779 -0.007750113 -0.091604866 -0.12326857 0.08777089 0.051759236 0.0013179808 0.12841253 0.13677886 0.18317024 -0.11030577 -0.007999646 0.105795056 0.27577114 0.047930576 0.11282152 -0.008250087 -0.008550411 -0.2086718 0.09430237 -0.11717837 0.0215224 0.04866054 0.061694954 0.065976605 0.02654367 0.0019399557 -0.10963581 0.023518488 -0.059946522 0.108392246 0.15799072 0.051539432 0.17601705 -0.113074645 0.020188423 -0.12309498 -0.16689523 0.07713566 -0.13381605 0.1679987 -0.12895626 0.111340925
54 0.01722311 -0.05149832 0.063973375 0.08276011 0.03277208 0.0460493 0.06971643 0.17071947 0.1314477 -0.08091799 -0.22244802 0.29681242 0.022683123 -0.024876706 0.083006 0.020300118 -0.04321594 -0.07045691 0.09591257 -0.051674593 0.09366882 -0.14759435 0.030936604 -0.088504344 0.009374456 0.117792435 -0.0594256 -0.17217468 -0.10592888 0.11607071 -0.008944884 -0.12363665 0.02887182 0.06981326 0.109944925 0.14380631 0.14151631 0.0038253681 0.20967223 0.12735233 -0.18824244 0.13228637 -0.027215801 0.16559961 0.025299389 -0.04694095 -0.055514507 -0.17632248 0.11380113 -0.18575603 -0.07851095 -0.21480909 -0.054014698 -0.14689948 0.012921628 -0.03820541 0.10319646 0.07901349 0.00073227374 0.09003174 0.051697012 -0.053665724 -0.06876301 -0.18936138 -0.102602765 -0.06852583 -0.09239514 0.028021228 0.051588036 0.012968244 0.009547118 0.048145056 -0.07616776 -0.013965347 0.013425603 -0.028654104 0.036184873 -0.054432955 -0.0980642 0.06958262 -0.030103894 0.008502813 -0.023880878 -0.07319602 -0.077012375 0.07669575 -0.012384922 -0.09444389 -0.1377139 0.08711205 0.049557228 -0.0033925222 0.13124876 0.13736261 0.18780246 -0.12093159 -0.011189904 0.10432248 0.27890915 0.05327989 0.12307798 -0.0058089937 -0.0055255997 -0.2115067 0.09471542 -0.12172454 0.0130720325 0.049943518 0.05730226 0.059891704 0.03132311 -0.0007553303 -0.1124652 0.028823154 -0.062325854 0.115859896 0.15751942 0.051400878 0.17823021 -0.11174638 0.0268237 -0.11697844 -0.170677 0.07758689 -0.13230114 0.16831851 -0.12645952 0.10627359
7 0.019740455 -0.048352275 0.065970056 0.078060605 0.027784292 0.053645797 0.070195116 0.16212809 0.12294158 -0.08840285 -0.206023 0.28066295 0.018104633 -0.033441283 0.079897866 0.024520649 -0.038635097 -0.06535063 0.10159251 -0.061599974 0.08744431 -0.13824485 0.030766876 -0.07343207 0.0054956987 0.113058075 -0.060957912 -0.161846 -0.10387449 0.112857185 -0.0031184324 -0.12217715 0.025454598 0.06591445 0.10156747 0.1339379 0.122669555 0.0140873315 0.1915025 0.12807399 -0.18350212 0.11963605 -0.021960942 0.15714656 0.037977733 -0.04667869 -0.062496275 -0.16695806 0.11671581 -0.1798659 -0.07686713 -0.20138952 -0.044987537 -0.14496219 0.014644864 -0.03765546 0.103341304 0.086032696 0.0063056895 0.09188553 0.05436728 -0.059816584 -0.065698214 -0.18155201 -0.09375371 -0.06333333 -0.09152322 0.0336456 0.047599982 0.007970759 0.000655085 0.048747957 -0.07110577 -0.014768858 0.0067390897 -0.02440644 0.026850909 -0.05779191 -0.09410518 0.068535365 -0.021079412 0.0023595977 -0.028888503 -0.06548674 -0.073577866 0.06712179 -0.016502686 -0.091138914 -0.1317587 0.07563992 0.04720686 0.00078083744 0.12896341 0.12984774 0.17316203 -0.11438549 -0.014083334 0.09661735 0.26392725 0.05386774 0.117807716 -0.010523071 -0.01692289 -0.20573832 0.0883135 -0.1191563 0.011417653 0.040740754 0.06294917 0.057312917 0.02756239 -0.008042674 -0.111596994 0.021150934 -0.05168935 0.112234935 0.15738066 0.047591075 0.17285278 -0.10547516 0.023306772 -0.11982197 -0.16024391 0.06331739 -0.12892649 0.17040733 -0.13101363 0.11576087
14 0.035814546 -0.11160724 0.07017865 0.10482162 0.005017062 0.06658067 0.023935357 0.14160118 0.097622044 -0.07501504 -0.14162135 0.2230844 0.0028962079 -0.0892861 0.0763487 0.03502551 -0.049549572 -0.033411145 0.10523324 -0.07512021 0.04334991 -0.09098554 0.00025515497 -0.043071806 -0.01419694 0.13701466 -0.07606462 -0.10893259 -0.071116365 0.10512238 -0.026394282 -0.14738141 0.010233162 0.030418612 0.09795371 0.099533774 0.08107395 0.07194952 0.1915997 0.1243254 -0.17150778 0.09896435 -0.025984662 0.11965576 0.08144624 -0.028671542 -0.110172585 -0.16507936 0.12856278 -0.16544458 -0.05392866 -0.18442982 -0.04067004 -0.15040036 0.008386467 -0.021996742 0.13486692 0.12278951 0.024806246 0.08780611 0.049634643 -0.09266737 -0.08109594 -0.17031333 -0.112672046 -0.059479177 -0.10576238 0.09072321 -0.009757794 0.008422016 -0.014079581 0.050106153 -0.061849836 -0.0040909396 0.035244185 -0.013017378 0.050131723 -0.06927668 -0.04600911 0.10202764 -0.0095795635 0.0071290364 -0.036073457 -0.08686349 -0.035926234 0.115786746 -0.06459909 -0.093001544 -0.18209946 0.063889466 0.043432985 -0.022124533 0.16467653 0.13238914 0.12032241 -0.17214417 -0.02695876 0.10193258 0.27106532 0.07354586 0.15626818 -0.003938756 -0.02977746 -0.21816693 0.080543324 -0.14735879 -0.013477065 0.02374277 0.048560772 0.017404338 0.03153982 -0.016853027 -0.12511972 0.049287632 -0.023695502 0.19125037 0.15832074 0.043559823 0.20274208 -0.08416436 0.045105446 -0.10592249 -0.13063678 -0.011857868 -0.10951977 0.18142982 -0.15156046 0.15263703
56 0.024637975 -0.057886656 0.07494984 0.077262156 0.014260088 0.051051177 0.066162035 0.16335241 0.11232854 -0.091443375 -0.1969581 0.26880014 0.018414069 -0.035954934 0.07724849 0.041744508 -0.04255439 -0.058803376 0.10267899 -0.06908122 0.07724481 -0.13431337 0.033815265 -0.066145934 -0.0034312806 0.1143652 -0.06622487 -0.15447095 -0.11190369 0.10577117 -0.005314902 -0.12290885 0.020363502 0.06277632 0.09916208 0.12481852 0.12501644 0.026746022 0.18268909 0.13216539 -0.18471189 0.10971396 -0.017504487 0.1519747 0.038878765 -0.047719114 -0.06734005 -0.16282186 0.12986813 -0.17011128 -0.08082262 -0.2054423 -0.03921414 -0.14882797 0.018011775 -0.038157374 0.100880705 0.09503514 0.017343963 0.09452874 0.054686215 -0.07155827 -0.069344744 -0.16986102 -0.10180659 -0.058105767 -0.09428533 0.037896685 0.041476928 0.0025003245 -0.0039996756 0.0469963 -0.068898804 -0.014740821 0.0098890625 -0.027187709 0.027645735 -0.06159088 -0.096117854 0.06954312 -0.0056604906 0.00466523 -0.02484261 -0.07299136 -0.06652574 0.06606563 -0.019345708 -0.089207985 -0.13199595 0.07226283 0.05148666 -0.0003853918 0.14156425 0.12850456 0.16321288 -0.12153901 -0.009227681 0.10281124 0.2671811 0.051928286 0.12599376 -0.010930209 -0.02585312 -0.20794713 0.09751485 -0.13780324 0.013433898 0.03589834 0.06528388 0.061964717 0.028315034 -0.012607424 -0.10684421 0.017919546 -0.04500227 0.12158053 0.16306686 0.046791755 0.18422763 -0.09763998 0.020388687 -0.13053969 -0.16041279 0.053556018 -0.13053548 0.17435524 -0.14219832 0.122793004
12 0.013116348 -0.038008146 0.07661469 0.07243331 0.023707798 0.049929112 0.07610916 0.16864915 0.12670758 -0.1016087 -0.21696997 0.29039416 0.019987617 -0.013008176 0.074306466 0.036575407 -0.033878434 -0.07267668 0.10547261 -0.066767685 0.09376504 -0.14644279 0.03533636 -0.07517195 0.007424707 0.107418284 -0.065408476 -0.1768651 -0.12021 0.1129622 0.004911765 -0.10933275 0.026292168 0.07433166 0.10067744 0.12914309 0.14599855 0.012681215 0.18703508 0.14244062 -0.18827216 0.11271902 -0.016925236 0.17443258 0.027083822 -0.04453848 -0.051165942 -0.15709871 0.12642546 -0.17448467 -0.082845755 -0.21775986 -0.030594235 -0.14448667 0.020147393 -0.04758788 0.08704983 0.07981443 0.0059953267 0.094989166 0.063274495 -0.054532275 -0.06716113 -0.17921366 -0.09919675 -0.06486999 -0.09348246 0.012545717 0.06237303 0.009550238 0.005721289 0.044325333 -0.071768954 -0.027053013 0.0021852455 -0.032108486 0.015294556 -0.05949307 -0.10462489 0.059172746 -0.016112626 0.0035117897 -0.018849239 -0.065119065 -0.08516674 0.048139237 0.0007936088 -0.09323133 -0.1271689 0.08231299 0.057046417 -0.0038965086 0.13061301 0.12810275 0.18278834 -0.102133006 -0.0054516117 0.10125836 0.2612308 0.05342176 0.11284062 -0.00011715921 -0.019816035 -0.19974397 0.10211737 -0.12633142 0.030138362 0.035698477 0.06411178 0.07156944 0.03829198 -0.0085078105 -0.10546505 0.009123308 -0.052926254 0.09710869 0.15662888 0.05035731 0.17023279 -0.10689935 0.016847659 -0.13805452 -0.18100855 0.074839674 -0.1288891 0.15991285 -0.13056716 0.1113615
34 0.01715591 -0.07934147 0.07119908 0.0972537 0.014987697 0.063439816 0.044477016 0.15221436 0.10596303 -0.08449615 -0.17000923 0.2490462 0.0069388323 -0.06453956 0.07518766 0.020115651 -0.042719986 -0.053598683 0.102970056 -0.06648056 0.062131856 -0.10272841 0.001045128 -0.051917784 -0.0043359185 0.121584475 -0.07020104 -0.14016525 -0.07807373 0.11216919 -0.016912544 -0.13606955 0.019636866 0.03607142 0.1012951 0.108375505 0.10713939 0.05083451 0.20604855 0.12976624 -0.18807893 0.11592993 -0.029981473 0.14036733 0.06770027 -0.03586427 -0.086214416 -0.16667652 0.121506415 -0.17017308 -0.058047928 -0.19675627 -0.04255459 -0.14686784 0.020574888 -0.025527919 0.12113849 0.104539394 0.010108406 0.09589162 0.05049125 -0.077282846 -0.08674892 -0.17347433 -0.112680584 -0.06586239 -0.10117002 0.05812719 0.017828034 0.020098306 0.00030243868 0.046100337 -0.06594533 -0.004933746 0.030004751 -0.013749845 0.042227782 -0.065772936 -0.066251434 0.086596906 -0.024434088 0.004915944 -0.03307662 -0.08220307 -0.05278923 0.096559264 -0.03843466 -0.09552484 -0.17401938 0.078478135 0.043580517 -0.018187083 0.14526947 0.12913956 0.15105233 -0.14818569 -0.019473784 0.100738324 0.27205187 0.07660377 0.14673692 0.0018990205 -0.01816781 -0.20786102 0.08936323 -0.13136125 0.0040048985 0.030362353 0.04915005 0.026829801 0.040814947 -0.008015632 -0.12804487 0.048950903 -0.045479946 0.16804917 0.15265213 0.05282441 0.19491963 -0.100750074 0.032233704 -0.105200514 -0.15243495 0.023612618 -0.11105975 0.17124754 -0.13732465 0.13545993
23 0.029291164 -0.11441194 0.051580053 0.079750106 0.034262978 0.060995962 0.034768596 0.13277756 0.11063761 -0.053255692 -0.15420187 0.22244257 0.0065373452 -0.063701466 0.07975481 0.013321193 -0.048861027 -0.04408486 0.07195245 -0.07047946 0.05815183 -0.09638464 0.0067114863 -0.053025406 -0.0027674655 0.15077114 -0.06382909 -0.114351094 -0.073157445 0.08321956 -0.032097157 -0.16786486 0.016377935 0.037442964 0.10081229 0.11693237 0.089735605 0.03743436 0.20364647 0.1181698 -0.16142502 0.12609008 -0.03250761 0.11889778 0.034296963 -0.04346554 -0.09469234 -0.15858535 0.11097888 -0.16718133 -0.034082793 -0.18026748 -0.07358205 -0.16774847 -0.0063854773 -0.0057246448 0.15456381 0.08332416 0.004932252 0.07478553 0.06175853 -0.06801106 -0.06861823 -0.17515956 -0.10532604 -0.05354054 -0.085452415 0.10601793 -0.018430872 0.032783996 -0.0080432985 0.056220993 -0.075597115 0.027844125 0.045879986 -0.027759831 0.07715586 -0.042986974 -0.02868093 0.13920312 -0.014939418 0.008983622 -0.025097832 -0.07998108 -0.039624806 0.11924495 -0.05663222 -0.09116 -0.15692873 0.047647037 0.024706181 -0.04112932 0.1591623 0.13779142 0.13910976 -0.20271602 -0.014193244 0.0985108 0.2805578 0.084574066 0.1513178 -0.021051237 -0.013364464 -0.21408913 0.05969042 -0.12233424 -0.03618398 0.056007836 0.020889793 0.023311798 0.0073260893 0.013050801 -0.13397045 0.051435664 -0.051337693 0.18246228 0.17151594 0.03367051 0.1920826 -0.06717347 0.02920779 -0.077434726 -0.13208678 -0.0034584112 -0.11888206 0.17693874 -0.14495733 0.108475946
4 0.03598324 -0.12082258 0.05524165 0.0877771 0.026024764 0.06101906 0.025019143 0.12822719 0.10528822 -0.05466861 -0.14114293 0.21449518 0.004207013 -0.06547713 0.07836385 0.022568453 -0.047088742 -0.03660116 0.081935965 -0.0730402 0.04837527 -0.09387979 0.008087237 -0.04605733 -0.006534275 0.1482174 -0.064793944 -0.10658454 -0.07407299 0.08171952 -0.026382519 -0.16714315 0.013319983 0.038378708 0.10218472 0.10483898 0.083016425 0.04387513 0.1955311 0.11715506 -0.16115236 0.11241578 -0.03126034 0.113962166 0.043229576 -0.044295542 -0.09694985 -0.15107737 0.114061676 -0.16738135 -0.03502449 -0.17344703 -0.06736225 -0.16108268 -0.003507331 -0.008122975 0.1462592 0.095332734 0.015209937 0.07936652 0.058973294 -0.070902094 -0.07263752 -0.16290429 -0.10869713 -0.05136319 -0.08776473 0.10700497 -0.019086009 0.018574037 -0.016417017 0.05386904 -0.07382065 0.021051187 0.034796927 -0.022552447 0.0717592 -0.047082275 -0.027281072 0.1342066 0.0030312731 0.009098526 -0.024662323 -0.08033582 -0.035986606 0.114069715 -0.060917463 -0.085356325 -0.15666847 0.048314817 0.028827641 -0.03382235 0.16467828 0.13113359 0.1245567 -0.19935383 -0.011639115 0.099535525 0.27793115 0.08009867 0.1559213 -0.025829159 -0.02157962 -0.21920028 0.06405393 -0.13263507 -0.032970488 0.050291784 0.02824427 0.027521145 0.0066030324 0.0053194477 -0.12632234 0.04300431 -0.03866572 0.18412933 0.17571528 0.03776331 0.19329035 -0.07189492 0.03700567 -0.086057425 -0.12762758 -0.00584539 -0.119022496 0.18622476 -0.14984566 0.12074104
25 0.037075274 -0.12285238 0.061397173 0.083398394 0.019920241 0.06394265 0.028388845 0.13331018 0.09530389 -0.056704603 -0.14302254 0.20959695 -0.0012210552 -0.07090659 0.073862255 0.031946808 -0.043187857 -0.03734501 0.08167327 -0.07895749 0.047227435 -0.091651835 0.009478055 -0.03713313 -0.008554394 0.14682506 -0.073363125 -0.10216514 -0.069501385 0.08435367 -0.024952503 -0.16597861 0.0093655335 0.037954718 0.10344321 0.1022855 0.077444375 0.0534667 0.18888439 0.12002576 -0.15711074 0.099991724 -0.024850791 0.10610755 0.048157424 -0.03990479 -0.1026376 -0.14545217 0.124043986 -0.16269396 -0.0363812 -0.16718693 -0.061284706 -0.15797518 -0.007315016 -0.009050918 0.14546824 0.10108728 0.0151740555 0.08239081 0.05492005 -0.07652563 -0.070372455 -0.16035521 -0.10499757 -0.0509124 -0.08956919 0.101254426 -0.018174509 0.01427933 -0.021571979 0.05322815 -0.07410553 0.022103839 0.038047645 -0.018669823 0.07280827 -0.05325033 -0.024413997 0.1315746 0.0039998787 0.005125276 -0.028898401 -0.07803981 -0.03020571 0.11487475 -0.066893026 -0.08569758 -0.16316926 0.0427055 0.027909726 -0.033188324 0.16328095 0.1332296 0.1163065 -0.19581017 -0.013323843 0.094426855 0.2674668 0.07275214 0.15652774 -0.021571152 -0.027028266 -0.21788383 0.07430151 -0.13608566 -0.025083615 0.04097356 0.034979172 0.023259947 0.008572506 -0.00089615135 -0.122455694 0.047537297 -0.037129417 0.1808561 0.17101519 0.033597894 0.1962849 -0.0685858 0.037605148 -0.08844039 -0.12119546 -0.01165437 -0.11449372 0.18274976 -0.14760384 0.124305256
22 0.041746125 -0.12658475 0.06740739 0.088889636 0.019933078 0.07014306 0.026522895 0.1408843 0.10693634 -0.059489388 -0.15097612 0.22589274 0.0048628096 -0.07931532 0.08544858 0.032730337 -0.047083344 -0.040154174 0.08786069 -0.081249975 0.04951701 -0.09990266 0.0094045205 -0.04313274 -0.01189564 0.1509864 -0.07106532 -0.10446008 -0.070726365 0.090822615 -0.029224785 -0.16978869 0.01566009 0.0322458 0.10317052 0.11270948 0.07895224 0.052062653 0.19335909 0.1263913 -0.16346395 0.1098409 -0.029710311 0.11168401 0.052821003 -0.04703199 -0.10564597 -0.15609267 0.124535695 -0.16328482 -0.038696792 -0.17628306 -0.06137175 -0.16021004 -0.00959795 -0.0075248815 0.15076327 0.10517146 0.016682636 0.08161002 0.064526565 -0.07755016 -0.07295784 -0.16069521 -0.10806651 -0.053505972 -0.0883346 0.111360185 -0.020091854 0.020735517 -0.019290647 0.052967127 -0.07301867 0.01738447 0.036993172 -0.021331968 0.07262241 -0.052733753 -0.02444817 0.1327917 0.004215091 0.010456049 -0.030060003 -0.08314115 -0.030662376 0.12246214 -0.0666993 -0.08656143 -0.1605367 0.04591796 0.0358801 -0.03452507 0.16581221 0.13012682 0.11767636 -0.1988332 -0.015189309 0.10078848 0.2772699 0.08030878 0.1537753 -0.018419106 -0.03174204 -0.22113852 0.070350885 -0.13421425 -0.032764066 0.046854556 0.033959605 0.025450168 0.011481679 -0.0015078591 -0.12302991 0.044674277 -0.03410916 0.18307333 0.17361367 0.031385545 0.20158203 -0.06908127 0.0367345 -0.09113903 -0.12798265 -0.014748118 -0.11630461 0.18384081 -0.15480575 0.12076911
26 0.03403287 -0.08629827 0.0680529 0.08317244 0.01603239 0.06140837 0.041387435 0.1443669 0.10383253 -0.079844885 -0.16518137 0.24565323 0.01867814 -0.079102375 0.07862345 0.022108098 -0.050173905 -0.050013185 0.101047836 -0.07160444 0.0545862 -0.11181339 0.014720942 -0.051597644 -0.0022358363 0.1279907 -0.061795533 -0.120787464 -0.072502196 0.10493764 -0.019735085 -0.14549392 0.020113103 0.037072964 0.10240934 0.11156601 0.085089624 0.04621816 0.19406864 0.11056226 -0.16188529 0.107918516 -0.022952037 0.1186111 0.059371356 -0.038623426 -0.08923093 -0.1576823 0.11926444 -0.15977351 -0.065708324 -0.17305581 -0.058545608 -0.13416833 0.0077307583 -0.020550102 0.1331419 0.09632363 0.010450722 0.08284235 0.050006952 -0.077187896 -0.07634516 -0.16652457 -0.10410422 -0.06566103 -0.09786916 0.08022555 0.0022363581 0.017433312 -0.008172356 0.0416074 -0.07725475 -0.0073191603 0.026801517 -0.00574747 0.04592212 -0.05289905 -0.05447867 0.08609631 -0.018193949 0.0060308115 -0.03120605 -0.075142145 -0.049694568 0.103438035 -0.05386204 -0.08758919 -0.1581218 0.058799867 0.039206486 -0.014444856 0.15069334 0.11697366 0.13075282 -0.15128522 -0.031146804 0.102985695 0.25791618 0.063261576 0.14150724 -0.005828088 -0.024679668 -0.20783472 0.077352546 -0.12856857 -0.016220454 0.031227212 0.04574052 0.017102497 0.031310737 -0.0050792666 -0.108669795 0.043713607 -0.032842144 0.15977846 0.15785863 0.039944716 0.18515998 -0.08863882 0.030907897 -0.09831202 -0.13795096 0.01614772 -0.11048684 0.17268269 -0.1267364 0.12044231
51 0.038301922 -0.10016447 0.07351973 0.09975782 0.011402297 0.062455066 0.04223882 0.15800747 0.10592297 -0.077627584 -0.17620535 0.25075725 0.015366109 -0.07804653 0.08668429 0.032798756 -0.0483036 -0.046732068 0.10570927 -0.07298025 0.054046106 -0.11272561 0.011411947 -0.05307125 -0.0043614917 0.13754573 -0.07311121 -0.11964472 -0.08189155 0.11072 -0.016913163 -0.14712489 0.018077575 0.038675476 0.11204809 0.11705297 0.10003869 0.05283107 0.20014438 0.12524496 -0.18222481 0.10783141 -0.026401741 0.1266641 0.06548817 -0.03968502 -0.09755845 -0.16644293 0.12762319 -0.16598433 -0.06937606 -0.19007982 -0.046858378 -0.1459616 0.0051057236 -0.027700745 0.12431494 0.112277105 0.017977146 0.09508116 0.047060966 -0.084658556 -0.075264364 -0.16945988 -0.111693405 -0.05782382 -0.092683285 0.07675929 0.0031245116 0.00705256 -0.011936756 0.042575598 -0.0709983 -0.0040161028 0.024477469 -0.010194687 0.045676813 -0.06977549 -0.064111896 0.08611263 -0.010672367 0.00398479 -0.0362101 -0.084358305 -0.047029994 0.10621397 -0.057422023 -0.0859373 -0.16234052 0.05950089 0.047816265 -0.015161791 0.15840724 0.13328402 0.14169365 -0.15910515 -0.020811763 0.105007485 0.27513218 0.07030946 0.14741597 -0.009813306 -0.025429785 -0.22667255 0.0898349 -0.14458804 -0.0068107415 0.030317375 0.05658132 0.028118106 0.037626833 -0.019057274 -0.120058715 0.042475816 -0.029636987 0.16656703 0.16366833 0.04929369 0.19549295 -0.089717045 0.045307476 -0.1084452 -0.14350526 0.007996021 -0.12166604 0.18041113 -0.14934455 0.13948925
5 0.032117438 -0.0966656 0.062404666 0.0989253 0.023087157 0.060449436 0.034903932 0.15308619 0.111011304 -0.06500609 -0.17401429 0.25475863 0.021674305 -0.076772414 0.08763864 0.017025823 -0.055822436 -0.051144242 0.09664293 -0.06611414 0.06458157 -0.11647944 0.011811167 -0.06723346 0.0025236304 0.14058046 -0.06496269 -0.13074292 -0.07650097 0.11370884 -0.027281402 -0.15672567 0.018770719 0.04173146 0.11526722 0.13211372 0.096659355 0.04352512 0.20611398 0.116842 -0.17611752 0.1232543 -0.032461543 0.12811711 0.059789658 -0.0373099 -0.09473293 -0.17866707 0.11524647 -0.17177458 -0.06334478 -0.18757837 -0.06850231 -0.15464747 0.001453348 -0.020745626 0.14226829 0.09614969 0.010346704 0.088404715 0.04626861 -0.070105255 -0.079283856 -0.1790057 -0.10876917 -0.0664393 -0.09187155 0.0832489 0.0030385593 0.015695361 -0.010848127 0.04340879 -0.077799805 0.006299928 0.033502225 -0.008835404 0.059387192 -0.058350723 -0.053743307 0.09569157 -0.022586677 0.011217653 -0.03215048 -0.08343551 -0.04772827 0.11582736 -0.05448008 -0.08705409 -0.16426009 0.06719453 0.035645097 -0.01663801 0.1591038 0.13641515 0.1443474 -0.16480209 -0.023081288 0.112673745 0.27669498 0.06756308 0.1572849 -0.011207815 -0.010083809 -0.22352166 0.08337048 -0.1328961 -0.014440683 0.048894905 0.04347387 0.020190515 0.025674712 -0.004868257 -0.12622736 0.052159976 -0.050593235 0.1758757 0.16505073 0.047242638 0.19409484 -0.089123145 0.048092794 -0.09824409 -0.13663533 0.021930376 -0.12653948 0.18630883 -0.13868706 0.1318744
38 0.026443424 -0.08533645 0.05409812 0.085882984 0.021060828 0.051841762 0.032275658 0.13810162 0.100887686 -0.064181425 -0.15955763 0.2308297 0.015177751 -0.07033738 0.08348318 0.024302687 -0.050611284 -0.045329697 0.09690219 -0.066961005 0.06731299 -0.10593756 0.009576886 -0.055487137 -0.0047582723 0.13737082 -0.06609906 -0.12636302 -0.07861087 0.10440966 -0.021222707 -0.15245411 0.022775844 0.04432108 0.10467021 0.121323146 0.09645654 0.043136667 0.1932708 0.11680186 -0.17115965 0.114156656 -0.029968249 0.12837249 0.058374446 -0.040410515 -0.09079202 -0.17033039 0.119488016 -0.17523812 -0.058085706 -0.1837262 -0.05969248 -0.15685765 -0.0003583909 -0.023639105 0.14079943 0.0986369 0.011818528 0.087504886 0.050068337 -0.07742383 -0.075389326 -0.17592685 -0.10965509 -0.06164781 -0.096666835 0.07787384 0.004719202 0.017771091 -0.015338523 0.046900727 -0.074801564 0.0010391827 0.024514154 -0.013529542 0.057319015 -0.06335653 -0.05274139 0.10088339 -0.016037527 0.0068155443 -0.028454328 -0.08466322 -0.048125546 0.10386219 -0.05134974 -0.089150235 -0.15657927 0.06363957 0.033759337 -0.01347822 0.15303686 0.13909557 0.14397402 -0.16487065 -0.026247764 0.1069593 0.27240676 0.06523862 0.15342379 -0.013572337 -0.017111376 -0.21962778 0.084742405 -0.13334048 -0.011553251 0.04421583 0.04359087 0.025348188 0.017958846 -0.0052769366 -0.1184374 0.04459878 -0.047116347 0.17270756 0.17265162 0.044716448 0.18967988 -0.08875534 0.044437714 -0.100788064 -0.13670374 0.019463649 -0.12196386 0.17918989 -0.14245111 0.1294577
36 0.021695793 -0.06010552 0.07644142 0.078635074 0.02459652 0.062973894 0.06511598 0.16354102 0.10465089 -0.09832999 -0.20406838 0.28372917 0.019947104 -0.061377533 0.08077069 0.03402871 -0.051771823 -0.06447255 0.10131019 -0.064778194 0.06793921 -0.12765117 0.024172464 -0.04803881 -0.00041561676 0.112454 -0.07345102 -0.14931275 -0.093634546 0.11414938 -0.0063187606 -0.1357297 0.023014298 0.040731587 0.111861125 0.11821162 0.109692395 0.037933882 0.20046596 0.12041639 -0.1863613 0.114287734 -0.021294836 0.14791845 0.0526109 -0.05005466 -0.07337849 -0.1557966 0.13249329 -0.16540167 -0.07286012 -0.19834705 -0.049437616 -0.14078139 0.02225349 -0.024309164 0.11646994 0.09597439 0.009583075 0.09693467 0.06717174 -0.06684455 -0.08203223 -0.16745895 -0.10544719 -0.07485844 -0.09212387 0.04506683 0.02832324 0.02028334 -0.0040386645 0.042276632 -0.07785124 -0.012611906 0.022760672 -0.013880989 0.030807357 -0.06734735 -0.08086316 0.0802872 -0.020635901 0.007497631 -0.028077073 -0.071342625 -0.07041566 0.086333245 -0.02592566 -0.08718955 -0.15691388 0.06736962 0.056953557 -0.006141902 0.14425507 0.13052745 0.16574796 -0.13879535 -0.02946123 0.10447258 0.2587303 0.069217466 0.14010236 -0.0034229655 -0.026397396 -0.21013252 0.091321036 -0.13132337 0.006334909 0.03498494 0.057266187 0.04157777 0.04069229 -0.0026243825 -0.117133334 0.027843826 -0.038435172 0.14076272 0.15077503 0.04582701 0.19298849 -0.10082291 0.026497526 -0.120135754 -0.16560464 0.03527806 -0.11509186 0.16837132 -0.12948702 0.11680064
18 0.045750402 -0.11761022 0.06971114 0.101185925 0.012135876 0.06385963 0.029905703 0.14056242 0.09823544 -0.06786096 -0.14393197 0.2264346 0.012367418 -0.09024146 0.088080816 0.037448782 -0.052440915 -0.033297416 0.10611904 -0.07859254 0.04625615 -0.09901758 0.010898833 -0.04725563 -0.0154937 0.14114974 -0.077220134 -0.10668564 -0.07227911 0.10363883 -0.028281303 -0.15509117 0.013012854 0.035408426 0.106653795 0.10620958 0.07261331 0.06336686 0.18802053 0.12050257 -0.16599192 0.09651089 -0.02075984 0.11515404 0.07311176 -0.03548186 -0.10711817 -0.1654845 0.13516772 -0.16799347 -0.0642147 -0.17913768 -0.05338008 -0.15088473 0.00087664695 -0.026670795 0.14277722 0.116152905 0.026915807 0.09560456 0.055272054 -0.089195296 -0.07748715 -0.16555117 -0.11037984 -0.059726484 -0.097578146 0.10094327 -0.011273464 0.0076938462 -0.027035706 0.048307348 -0.07330661 0.00053024385 0.029226208 -0.01102678 0.05950284 -0.06778084 -0.038122434 0.10226711 0.0011290446 0.005337288 -0.03387598 -0.082546934 -0.03492 0.1107352 -0.06796665 -0.08468409 -0.16656299 0.045835696 0.038161475 -0.018966468 0.16285576 0.13151073 0.11520341 -0.17472452 -0.022495974 0.10258767 0.26542863 0.06863405 0.15699247 -0.010030493 -0.03530024 -0.22164564 0.08072538 -0.1456089 -0.019540211 0.03182682 0.050541207 0.021733467 0.023588972 -0.02029994 -0.11400816 0.03650002 -0.026431443 0.1824032 0.16555075 0.04444373 0.20302202 -0.07493992 0.047672875 -0.10444857 -0.124731064 -0.009876506 -0.113864996 0.18897198 -0.15390216 0.14497659
44 0.02784173 -0.07150441 0.07276475 0.0863956 0.02067278 0.06672352 0.062360786 0.16220914 0.10754028 -0.09246474 -0.2028623 0.2835594 0.015512986 -0.06287922 0.08696053 0.026397558 -0.052607894 -0.067827635 0.105201095 -0.0663823 0.06869173 -0.12522967 0.024306305 -0.055067476 -0.004322203 0.12531392 -0.07381839 -0.14431836 -0.088866 0.11323886 -0.007038503 -0.14008872 0.01974588 0.044408906 0.11040966 0.12810726 0.11216839 0.03603677 0.20374632 0.12556936 -0.18919256 0.11905706 -0.029741528 0.14616539 0.055441447 -0.04558356 -0.07700909 -0.16463836 0.1337683 -0.17306063 -0.07481991 -0.20022798 -0.050240394 -0.14738415 0.013390454 -0.023643835 0.11969903 0.10247063 0.0075506666 0.09478054 0.063646555 -0.066676766 -0.08373306 -0.18208265 -0.11013613 -0.067311466 -0.096844345 0.06172914 0.026677404 0.022641426 -0.011006518 0.04855128 -0.08236623 -0.0021917908 0.023912016 -0.007427623 0.041348863 -0.0647596 -0.07735112 0.09149746 -0.022177424 0.012393737 -0.029879667 -0.07525248 -0.065869555 0.10154055 -0.036665786 -0.09291856 -0.16091998 0.07185853 0.05159583 -0.009509615 0.14712472 0.12918597 0.1672139 -0.15287909 -0.024674445 0.10284164 0.27839354 0.066139854 0.15073673 -0.007899661 -0.02559118 -0.21364205 0.0922756 -0.12898688 -0.0022025649 0.03718455 0.051261444 0.03640719 0.040263858 -0.0023626552 -0.11558377 0.03831738 -0.037298717 0.14627385 0.16207786 0.049287636 0.1970725 -0.10201757 0.025551539 -0.114674024 -0.16580023 0.0334574 -0.11601712 0.17345923 -0.13880976 0.12045562
49 0.025488103 -0.06797628 0.07614192 0.076354764 0.014510021 0.06498511 0.05692509 0.1584984 0.09855941 -0.09228002 -0.18727013 0.2662863 0.016114334 -0.075474225 0.08016319 0.039831106 -0.053125214 -0.06038956 0.11069823 -0.07194579 0.059649043 -0.11650157 0.020367285 -0.038526736 -0.009036566 0.11445486 -0.07519172 -0.1340153 -0.08728965 0.10856336 -0.0034239898 -0.13101277 0.018762356 0.03819377 0.10728696 0.11028183 0.10402174 0.049048204 0.18556336 0.12585513 -0.17675254 0.10329835 -0.019774895 0.1312317 0.060726445 -0.046450272 -0.083414674 -0.15178801 0.13787575 -0.16180108 -0.07156117 -0.18705314 -0.045215055 -0.13972148 0.019052567 -0.02159373 0.11226412 0.105246566 0.01102308 0.0990175 0.06790282 -0.07792474 -0.07631129 -0.16140796 -0.10364231 -0.069301754 -0.09454661 0.05632473 0.016748633 0.020066649 -0.016736964 0.04976901 -0.069724314 -0.0058860662 0.021475213 -0.0038799858 0.03283395 -0.07085357 -0.071657464 0.08446298 -0.0067565553 0.0049199173 -0.029463366 -0.07722302 -0.060613114 0.088663965 -0.03962442 -0.091824286 -0.15766954 0.057037923 0.052824352 -0.011438594 0.14377725 0.12590376 0.15140562 -0.15151736 -0.033581294 0.100141935 0.2612303 0.066573024 0.14937404 -0.00025988673 -0.036404718 -0.20475858 0.09130419 -0.13660446 0.0061768945 0.028358491 0.059840556 0.034362756 0.04240822 -0.009063145 -0.10732909 0.031325445 -0.026007358 0.1478929 0.15658972 0.043477785 0.19404669 -0.09289471 0.02686635 -0.12015815 -0.15806745 0.02564194 -0.1085864 0.1679442 -0.1379049 0.12386851
10 0.031994488 -0.08991613 0.07083483 0.09894461 0.015155373 0.055533424 0.041286033 0.15150127 0.10563551 -0.07417521 -0.18045554 0.26104444 0.02456645 -0.07949032 0.08056549 0.025620485 -0.053769562 -0.053085085 0.099306956 -0.06627423 0.053990934 -0.11638442 0.018460628 -0.05847016 -0.00048636968 0.123474 -0.05727628 -0.1256438 -0.070608154 0.10844188 -0.018501129 -0.13647093 0.018093238 0.030805606 0.100953266 0.11881856 0.09639814 0.03826536 0.2052434 0.10902803 -0.17239612 0.11657954 -0.03205183 0.13142969 0.062479652 -0.038811415 -0.092965305 -0.1681848 0.11349599 -0.16798286 -0.06973221 -0.18930452 -0.06022781 -0.14260912 0.013607152 -0.025130423 0.1365606 0.09765581 0.008428611 0.08371079 0.044464868 -0.079793274 -0.07765316 -0.17876828 -0.10421048 -0.063740104 -0.099133976 0.076299466 0.010841755 0.012148433 -0.009789331 0.042330567 -0.074273504 -0.009965277 0.0286343 -0.0049564335 0.04599506 -0.054137494 -0.061563976 0.08339385 -0.026760258 0.004687554 -0.038450144 -0.085952856 -0.05107125 0.10723421 -0.054153897 -0.092091314 -0.15949623 0.06912976 0.044612348 -0.0040124003 0.14989975 0.12786674 0.1444969 -0.14926599 -0.030900722 0.10195971 0.27120817 0.06716916 0.14513221 -0.0076047187 -0.016709013 -0.21878913 0.07675331 -0.13266069 -0.009685767 0.039773427 0.047805887 0.021514155 0.03674912 -0.0045403196 -0.11019067 0.0452871 -0.033725925 0.16430673 0.15993418 0.04653722 0.18915406 -0.094660066 0.03468771 -0.107426606 -0.13919713 0.020086352 -0.119245455 0.1753528 -0.1277242 0.12578359
21 0.031871498 -0.0829656 0.06467832 0.09344484 0.023353813 0.055708483 0.046656393 0.1539498 0.111280866 -0.07578958 -0.18294579 0.26925787 0.02524431 -0.069918334 0.08769658 0.014091284 -0.05440092 -0.057701156 0.09108709 -0.056413107 0.06920281 -0.12320633 0.01780231 -0.06549115 0.0045602797 0.13264905 -0.058315966 -0.14167653 -0.07656169 0.108716294 -0.02182439 -0.14485134 0.02198272 0.03905489 0.10771046 0.1332753 0.102345616 0.023948533 0.21313226 0.10438206 -0.18018411 0.12544909 -0.035745796 0.13252303 0.050998706 -0.046385467 -0.08387668 -0.17978288 0.107403144 -0.17957865 -0.07262436 -0.19001585 -0.06892198 -0.14545456 0.0081964405 -0.015890801 0.13431197 0.08987401 0.004649071 0.08390277 0.04504533 -0.06761131 -0.07679041 -0.18444112 -0.10611139 -0.071374856 -0.10063968 0.07553809 0.018206438 0.024187718 0.00041230285 0.040263623 -0.084784694 -0.0017456498 0.0279143 -0.012668653 0.05707599 -0.050444786 -0.06603517 0.08256142 -0.034219928 0.011619364 -0.03420063 -0.08583255 -0.053788166 0.11565864 -0.046926316 -0.08845798 -0.15515798 0.0678035 0.04075669 -0.009479163 0.14786011 0.1284098 0.15510339 -0.14976975 -0.03204233 0.10770107 0.2743504 0.06252221 0.13984507 -0.009568048 -0.009356756 -0.21429797 0.07690264 -0.12149388 -0.012331449 0.04514746 0.044525485 0.025555452 0.030963883 0.0021614572 -0.1179553 0.04597744 -0.04881647 0.16277488 0.15881366 0.050027106 0.18730268 -0.09584599 0.034627836 -0.09822935 -0.14391024 0.035211816 -0.12241257 0.1710222 -0.12790301 0.12049488
31 0.02914848 -0.09989038 0.07618052 0.10742855 0.013058089 0.06399377 0.03411213 0.15230697 0.09543844 -0.07729043 -0.15984188 0.24598008 0.012402355 -0.08316057 0.081220426 0.031331237 -0.050626755 -0.03724205 0.10430171 -0.07737253 0.04255748 -0.09676186 0.003992398 -0.04639687 -0.012715491 0.13312323 -0.07907433 -0.11710851 -0.070689134 0.11038986 -0.021003122 -0.14038032 0.011740288 0.03145663 0.101136155 0.09805674 0.091751985 0.061814085 0.20110753 0.1288213 -0.1763778 0.10331624 -0.022655312 0.123805664 0.08174425 -0.028110478 -0.1009949 -0.16712342 0.12782377 -0.16406594 -0.058453463 -0.18867187 -0.042429715 -0.15389296 0.013880121 -0.026598694 0.1320887 0.119959295 0.022387007 0.09917465 0.05376321 -0.08801121 -0.0884844 -0.1694367 -0.115973376 -0.058579482 -0.1064588 0.07698624 -0.0018529188 0.010803456 -0.018275844 0.042261526 -0.068519555 -0.0075902427 0.031535186 -0.009247293 0.04531142 -0.07210801 -0.054002754 0.09314912 -0.0052308026 0.0058300286 -0.036189333 -0.08083959 -0.04756088 0.10048386 -0.054183453 -0.088341504 -0.17630284 0.063715495 0.043133307 -0.01938539 0.1584169 0.13090228 0.13135539 -0.16003706 -0.02791286 0.10188368 0.26061195 0.07320514 0.154664 -0.0014742201 -0.026078727 -0.22174327 0.08451704 -0.14022663 -0.009538614 0.028265754 0.0444096 0.021505782 0.039091345 -0.012318394 -0.123126484 0.043314368 -0.024461547 0.18162672 0.15693536 0.041868966 0.19459525 -0.09252465 0.043055344 -0.10991057 -0.13513623 -0.0034779806 -0.108469725 0.1784623 -0.14247018 0.14330477
19 -0.039763615 0.017570514 -0.004443116 0.05103232 0.11615725 0.011235748 0.10857668 0.16717947 0.19214332 -0.010956234 -0.2973399 0.3535907 0.07264259 0.034671687 0.10764052 -0.11738959 -0.03303364 -0.118652485 0.004657002 0.055031244 0.22191207 -0.17820413 -0.02063215 -0.18182203 0.086003825 0.11579404 0.024678549 -0.28693002 -0.07952855 0.12978831 -0.019393953 -0.15797885 0.09005104 0.074814536 0.137114 0.2636706 0.20492059 -0.14528047 0.33095592 0.021379296 -0.21781056 0.27974063 -0.10653941 0.20687145 -0.08513259 -0.08535819 0.03545058 -0.24138029 -0.0015695165 -0.24438031 -0.07341922 -0.22605379 -0.17837614 -0.1722541 -0.0044259746 0.036420457 0.15495156 -0.051030945 -0.09780649 0.05456328 0.036553692 0.056446347 -0.07388322 -0.2759895 -0.087841295 -0.11515006 -0.07281032 0.020169528 0.096461296 0.117298126 0.08389253 0.03220939 -0.14042372 0.04917261 0.05153031 -0.046842247 0.098317936 0.008580848 -0.10269016 0.10077543 -0.18792869 0.03600226 -0.037202023 -0.07416007 -0.1316109 0.1317577 0.050436754 -0.10917634 -0.10121796 0.14279865 0.0002510609 -0.031387907 0.07358174 0.15528886 0.3373664 -0.13458963 -0.01660156 0.13048011 0.3283158 0.07455831 0.10746846 -0.018925818 0.12699144 -0.1743234 0.047090977 -0.00052863575 -0.003424294 0.1752012 -0.011095213 0.05024484 -0.018224768 0.12436267 -0.1907099 0.099734776 -0.19000551 0.119947135 0.16627699 0.08908424 0.13541496 -0.120229594 0.0069201044 -0.009027296 -0.20103538 0.17644954 -0.17742324 0.10252355 -0.05020953 -0.014978135
1 -0.020892289 -0.013556271 0.0037632673 0.062463734 0.09566357 0.028126415 0.082809724 0.1616954 0.17191173 -0.020595828 -0.26374143 0.3258258 0.059988026 0.012009808 0.105393246 -0.09148473 -0.040366653 -0.11071757 0.022802858 0.031521868 0.18273734 -0.15841916 -0.01632915 -0.14641777 0.07309049 0.11224777 0.01438234 -0.24509566 -0.06896716 0.11739967 -0.022852229 -0.15825282 0.06901434 0.051593065 0.123126864 0.2322041 0.16716783 -0.110198036 0.29463464 0.028077949 -0.19218455 0.24426268 -0.093891166 0.1847292 -0.053199805 -0.0772825 0.008071194 -0.22025892 0.021605216 -0.21597241 -0.06625162 -0.20541805 -0.15741004 -0.15964256 -0.008087794 0.024381595 0.1596164 -0.03137666 -0.07939694 0.05056977 0.0335452 0.02740551 -0.06501419 -0.2478322 -0.08600008 -0.10217254 -0.08236305 0.045927137 0.06982248 0.09811844 0.068931796 0.025968263 -0.12538564 0.030060567 0.050681487 -0.03390985 0.08892721 0.008675359 -0.08366515 0.10215225 -0.15642366 0.025259648 -0.039240014 -0.07502476 -0.10821916 0.13535282 0.033726357 -0.10096622 -0.1066075 0.12135826 0.014821392 -0.023340186 0.077126965 0.14762305 0.28602856 -0.13559261 -0.027711626 0.118197374 0.30566955 0.071602985 0.11551967 -0.024784574 0.10085214 -0.17476632 0.040563814 -0.024002977 -0.017479837 0.14935169 -0.013104654 0.035822764 -0.0037652005 0.096181415 -0.16172518 0.08778488 -0.1605191 0.1271256 0.15589276 0.07507875 0.13956991 -0.11687274 0.006693327 -0.018799832 -0.18867975 0.14152971 -0.15871 0.10757549 -0.054489546 0.0020227788
11 0.022674143 -0.06327418 0.05884575 0.07644796 0.017071228 0.051691476 0.04472564 0.14020148 0.09842404 -0.07832568 -0.16981587 0.24666628 0.016325481 -0.06453296 0.07511726 0.025800584 -0.045933366 -0.05200819 0.0923793 -0.055725463 0.06278013 -0.118429795 0.019201996 -0.05834361 0.003201783 0.119638525 -0.06362524 -0.127967 -0.08027089 0.10688823 -0.012956858 -0.1352273 0.023175409 0.038002387 0.10375422 0.11688108 0.10377667 0.027631588 0.1955679 0.1051645 -0.1661047 0.112878256 -0.024846384 0.13222687 0.052437585 -0.04453232 -0.077036195 -0.16334991 0.113766864 -0.16493352 -0.06696008 -0.18258609 -0.05719409 -0.1327102 0.0066313897 -0.02224183 0.12052539 0.088521115 0.0067108846 0.08761779 0.054716934 -0.061635774 -0.07348565 -0.16346987 -0.09644348 -0.06405751 -0.0946261 0.055779055 0.016272625 0.019305725 -0.004939687 0.0400297 -0.07260388 -0.0013303966 0.022843102 -0.0135239735 0.041192807 -0.056089714 -0.06598684 0.07764506 -0.025991017 0.011523137 -0.028539795 -0.07275331 -0.052581444 0.09594319 -0.04096622 -0.08730714 -0.14960529 0.062298167 0.037448876 -0.013160526 0.13647707 0.121292844 0.14728598 -0.1417782 -0.027460271 0.10060766 0.25823307 0.05988747 0.14033775 -0.00571074 -0.014586661 -0.1969507 0.08226915 -0.12355437 -0.0034523827 0.035684157 0.041996747 0.027917426 0.030063622 0.00033801355 -0.105849594 0.042031292 -0.043298665 0.14795026 0.1505384 0.04169663 0.17785722 -0.089467056 0.027076727 -0.10066241 -0.14524503 0.035123806 -0.11493384 0.15721153 -0.119185515 0.11314479
32 0.038555067 -0.099770196 0.061928004 0.10129902 0.024557918 0.058466148 0.04156018 0.15384422 0.11455632 -0.065615974 -0.17977954 0.25707638 0.021589613 -0.07536335 0.08907895 0.01473169 -0.053172544 -0.048374727 0.09307458 -0.064280465 0.057933472 -0.11436414 0.00997065 -0.0648481 0.002599728 0.13367034 -0.05833723 -0.124888495 -0.06822893 0.10919271 -0.024751732 -0.147368 0.019246692 0.034654677 0.10996431 0.124715686 0.09146903 0.03537981 0.20879291 0.10836984 -0.17677675 0.12330098 -0.033441577 0.12381041 0.055697236 -0.035609946 -0.08953243 -0.17063482 0.112678505 -0.17642044 -0.064665616 -0.18465114 -0.068833865 -0.14554341 0.000921885 -0.019130755 0.14131472 0.09595841 0.008531082 0.08327729 0.04283309 -0.07476288 -0.078512006 -0.17744237 -0.10838995 -0.06647692 -0.09716686 0.0858526 -0.0013012077 0.01878936 -0.0046332693 0.039818183 -0.07566069 -0.0035587193 0.027418787 -0.0090563 0.06206942 -0.051879495 -0.052010152 0.09218046 -0.025877489 0.0051451833 -0.038604163 -0.085584566 -0.05098157 0.122600436 -0.054518227 -0.09240742 -0.16121143 0.06447938 0.041840643 -0.011002145 0.15377226 0.13153824 0.14655808 -0.1566978 -0.02624601 0.1038586 0.27237266 0.06663544 0.14788939 -0.01072077 -0.012364446 -0.22232005 0.07731363 -0.12673849 -0.014722091 0.04729411 0.041527264 0.019398943 0.030615622 -0.0060300715 -0.11627625 0.050724626 -0.041561555 0.17541605 0.16104707 0.051698264 0.19404663 -0.08888379 0.04257071 -0.09631823 -0.13757613 0.020467643 -0.12225469 0.17851013 -0.13496289 0.12382016
13 0.04510028 -0.12456489 0.06513461 0.1099677 0.0102218455 0.06614999 0.02586447 0.14241041 0.10234064 -0.06849416 -0.15139608 0.23293221 0.013707139 -0.099951096 0.09438826 0.022442738 -0.05972809 -0.03687558 0.10397424 -0.06856007 0.03819393 -0.10065274 0.008152686 -0.054968055 -0.011372931 0.1471463 -0.069381185 -0.10665379 -0.06289647 0.1085556 -0.03220159 -0.15388925 0.013630628 0.026769307 0.110233314 0.11665597 0.07125383 0.05937374 0.2001 0.110523775 -0.1734813 0.108917244 -0.029908178 0.10741982 0.07213694 -0.035634957 -0.11464102 -0.1763327 0.11829691 -0.17453693 -0.06375582 -0.17627391 -0.0608461 -0.15304781 0.0034930115 -0.01833838 0.1521005 0.11132485 0.0231681 0.08724301 0.038705025 -0.0901026 -0.08158903 -0.17502627 -0.11099443 -0.057455365 -0.10406728 0.11017524 -0.01956266 0.009061874 -0.019588824 0.046143856 -0.07162036 0.004487505 0.03249368 -0.0071931314 0.06498029 -0.063901275 -0.041619167 0.1042934 -0.015048476 0.0026027383 -0.037448373 -0.08973212 -0.031418595 0.1336117 -0.07881817 -0.087504536 -0.17305116 0.055508737 0.03547757 -0.017686993 0.16991048 0.13383187 0.11684753 -0.18106428 -0.025428703 0.1080575 0.2816276 0.06645023 0.16116658 -0.016583938 -0.022496985 -0.23133555 0.07522466 -0.14095204 -0.028568378 0.034734227 0.04684508 0.00757693 0.027261322 -0.012069751 -0.116028056 0.057018813 -0.027651494 0.19489075 0.1647825 0.04911841 0.19866678 -0.08272821 0.054530967 -0.09310849 -0.11874045 -0.009204658 -0.12021558 0.19389722 -0.14572804 0.14160275
39 0.024744615 -0.080382064 0.05754366 0.078751296 0.021998895 0.051402666 0.04865983 0.13831213 0.106587164 -0.07151473 -0.17303535 0.2410664 0.015017517 -0.065332435 0.08603662 0.01885987 -0.04524165 -0.047143962 0.0930171 -0.060922068 0.06964335 -0.10958265 0.011518584 -0.05852969 0.003478593 0.12268669 -0.05758988 -0.129445 -0.07559555 0.104955114 -0.02037614 -0.14545621 0.021955378 0.037051447 0.1019557 0.12294439 0.10017011 0.029046925 0.19927002 0.107644565 -0.17141214 0.12072299 -0.03285936 0.13066521 0.050828118 -0.041878276 -0.07644068 -0.16807619 0.11329015 -0.16722447 -0.0634248 -0.17887147 -0.063018486 -0.14603491 0.0077789114 -0.018926593 0.12909757 0.091429524 0.01066561 0.08526299 0.053896226 -0.06503261 -0.07729993 -0.17613706 -0.10127669 -0.06682088 -0.09409651 0.07358303 0.007376797 0.018744942 -0.009316068 0.041556 -0.07590963 0.0014229551 0.027787445 -0.015385922 0.050677024 -0.06095827 -0.06032825 0.09394389 -0.026665628 0.013013675 -0.03127725 -0.07539384 -0.051412642 0.105380714 -0.044359546 -0.091237515 -0.15395062 0.06716026 0.03685273 -0.017110333 0.14111094 0.1284193 0.1502764 -0.159906 -0.026628667 0.10418087 0.27010602 0.06558053 0.14615256 -0.015694598 -0.015852114 -0.21099827 0.07928234 -0.12083303 -0.01194096 0.044847216 0.043492347 0.030123243 0.028891847 0.0036243706 -0.11651846 0.043285664 -0.048636694 0.15907814 0.1567105 0.05123948 0.18660897 -0.08567007 0.032934558 -0.09427389 -0.14504118 0.023943039 -0.11908551 0.16586135 -0.12730405 0.11966495
9 0.037324116 -0.10828461 0.069266796 0.09881921 0.014920439 0.0627106 0.037153065 0.14666894 0.10486411 -0.06923574 -0.16775836 0.24653184 0.01603023 -0.087898724 0.09213009 0.023355223 -0.051856503 -0.04502716 0.09547268 -0.06967241 0.048680726 -0.10124635 0.012527624 -0.052062824 -0.00709053 0.13738234 -0.064575136 -0.11939944 -0.07388304 0.101154886 -0.022733564 -0.1575373 0.021834936 0.035474792 0.108297974 0.122173265 0.082457945 0.052342888 0.2009274 0.11934147 -0.1761896 0.115746655 -0.031647976 0.12282031 0.06382125 -0.040860068 -0.10249982 -0.16757123 0.12343025 -0.17433818 -0.060755763 -0.18459465 -0.060049415 -0.15404026 0.0035409022 -0.016875684 0.14262709 0.10608789 0.012545752 0.089466445 0.049310952 -0.08404787 -0.079461925 -0.17397508 -0.105862595 -0.06374389 -0.09711734 0.09946499 -0.0071235234 0.018415313 -0.013077996 0.049489107 -0.074696906 0.003888001 0.03356112 -0.007759863 0.06261095 -0.05989142 -0.048759416 0.10422149 -0.017182805 0.0057843295 -0.037430536 -0.08879421 -0.041467417 0.12526245 -0.06747696 -0.0901939 -0.16658677 0.059573274 0.037913762 -0.015518525 0.16143535 0.13219464 0.13023713 -0.17720316 -0.024666164 0.106444865 0.28061903 0.06968113 0.15692072 -0.011509712 -0.017826006 -0.22540464 0.080755316 -0.13622074 -0.019499894 0.042925753 0.047874693 0.021518247 0.028952446 -0.01112012 -0.12324462 0.054029707 -0.03430038 0.18390508 0.16858867 0.04525828 0.20176482 -0.086822025 0.042141125 -0.09950841 -0.1302735 0.007783677 -0.116814375 0.18607405 -0.14378367 0.13442226
43 0.028715111 -0.09547257 0.06627209 0.09460214 0.020165008 0.05609329 0.046236053 0.15468663 0.10963468 -0.07619169 -0.17759335 0.25597882 0.015563212 -0.06601844 0.08933603 0.025701158 -0.0481047 -0.048987474 0.09309376 -0.065064944 0.06353528 -0.11480683 0.015907738 -0.059377056 -0.0027995678 0.12946557 -0.063426994 -0.1297209 -0.07499869 0.1093012 -0.02371883 -0.14280997 0.022700468 0.040808283 0.10769562 0.12730417 0.10044767 0.03768578 0.19957855 0.11906905 -0.1761503 0.11659179 -0.029848078 0.12660213 0.05024361 -0.03975065 -0.08876188 -0.1657488 0.118439235 -0.1696529 -0.06410455 -0.17857516 -0.054247726 -0.1448327 0.0033781864 -0.02377465 0.12661915 0.09627382 0.016461004 0.084375314 0.053001072 -0.06908048 -0.073660985 -0.17671275 -0.104486294 -0.06309846 -0.09300722 0.08085386 0.004519952 0.015369082 -0.008785091 0.046562035 -0.07230461 0.0031761532 0.028766401 -0.011687036 0.052232005 -0.058985226 -0.060117017 0.09470078 -0.024510086 0.011609484 -0.035222862 -0.07845629 -0.04732104 0.11369645 -0.046931177 -0.091867395 -0.15297207 0.06318419 0.037035417 -0.016714558 0.15114222 0.1282072 0.14612697 -0.15654999 -0.02092535 0.10763373 0.2763066 0.06473425 0.14143232 -0.01612075 -0.014755188 -0.21594265 0.08078012 -0.13153526 -0.014803564 0.043877214 0.043092754 0.028480915 0.029528847 -0.007899629 -0.11496834 0.047053732 -0.03765305 0.16248117 0.16527319 0.04551435 0.18793303 -0.08401378 0.03761055 -0.102611646 -0.14087819 0.018843438 -0.1162281 0.17470321 -0.13933972 0.1250826
2 0.02800422 -0.081756085 0.059014067 0.08096358 0.027427875 0.05619074 0.045495283 0.1432937 0.108798265 -0.06847116 -0.17632861 0.2479482 0.017007751 -0.06552624 0.08716866 0.018491164 -0.04711299 -0.053554904 0.09397556 -0.06372697 0.07032598 -0.11557292 0.011576222 -0.057858203 0.0012717345 0.13148493 -0.062082868 -0.13366619 -0.08216154 0.10496707 -0.016097745 -0.14744288 0.021102356 0.041878175 0.11016251 0.126723 0.09773928 0.03490394 0.19610609 0.11027709 -0.17313367 0.12272398 -0.035265207 0.13110562 0.047364075 -0.04310681 -0.07924506 -0.16626222 0.11949524 -0.17092915 -0.06512221 -0.18439262 -0.063133635 -0.15427977 0.004832347 -0.017305225 0.13419217 0.09285489 0.01013287 0.087326005 0.058456104 -0.06720618 -0.07005919 -0.17233616 -0.104758985 -0.06831008 -0.09056581 0.07411173 0.01050269 0.022609431 -0.008776275 0.04425937 -0.0821565 0.004889012 0.025016513 -0.019654926 0.05683368 -0.058457147 -0.056002032 0.100335024 -0.01917158 0.01306568 -0.028819831 -0.07933544 -0.056559157 0.10851053 -0.040748067 -0.085425325 -0.14890654 0.06007203 0.039333116 -0.017528214 0.1498831 0.13364507 0.15458758 -0.16063032 -0.024935598 0.106744766 0.2722533 0.068991445 0.1477947 -0.014456292 -0.016602762 -0.21026796 0.083639786 -0.12814069 -0.011707224 0.051476263 0.04503042 0.02990316 0.018899081 0.0059352815 -0.120038584 0.043177404 -0.048120774 0.16019838 0.1642328 0.046774197 0.18689005 -0.090464294 0.03909552 -0.09590289 -0.14460868 0.024361458 -0.11890258 0.17529416 -0.13907939 0.12020478
15 0.024391633 -0.08241209 0.06745954 0.08445288 0.021119064 0.061819673 0.04896856 0.1604038 0.1129994 -0.08022494 -0.19296831 0.27241102 0.018830268 -0.06317964 0.08994243 0.025961887 -0.051092293 -0.059919555 0.10249501 -0.060153287 0.07098475 -0.1256543 0.01808466 -0.06448026 0.0014985647 0.12784417 -0.06724936 -0.14476195 -0.085471906 0.113837205 -0.015662136 -0.14559305 0.02493548 0.04391713 0.109971926 0.1313261 0.112144865 0.033787366 0.20824753 0.12003918 -0.18399984 0.12637053 -0.028792461 0.14225413 0.050782084 -0.042795245 -0.07877658 -0.17568532 0.11992565 -0.18191408 -0.071682125 -0.19277407 -0.06287774 -0.15147203 0.007081472 -0.023728782 0.13182597 0.09267263 0.009095599 0.089360684 0.05447494 -0.06494609 -0.07634284 -0.18020107 -0.10396711 -0.06659425 -0.10026705 0.065049805 0.015549164 0.019418787 -0.004363263 0.042700276 -0.08450109 0.00056002213 0.026666349 -0.0123890275 0.052838102 -0.05563017 -0.0650059 0.09271303 -0.026850369 0.010957476 -0.03422228 -0.07827789 -0.055878907 0.10388616 -0.04035446 -0.09189178 -0.15959908 0.06819678 0.043956585 -0.016716601 0.15057535 0.13654764 0.15746567 -0.15288618 -0.022359481 0.10401106 0.27597815 0.0648892 0.1494419 -0.008669799 -0.015080233 -0.21169859 0.08257373 -0.12930343 -0.0044915327 0.046227906 0.046961635 0.031324748 0.03115914 0.0019504763 -0.12192606 0.041772664 -0.044746093 0.15865238 0.16463868 0.050940283 0.19077773 -0.093997635 0.029542208 -0.10375885 -0.15734878 0.029115733 -0.11958334 0.17539617 -0.13452516 0.11798122
30 0.03772299 -0.09749675 0.06836543 0.09185741 0.009285656 0.06530363 0.031384557 0.13941887 0.09551258 -0.06802887 -0.15716974 0.22642756 0.0100442 -0.080358624 0.084298916 0.03344239 -0.045632623 -0.038077023 0.09803444 -0.070176445 0.05131297 -0.104854 0.010897092 -0.0466383 -0.008266308 0.1311849 -0.06761004 -0.11156161 -0.078453265 0.09816439 -0.02114197 -0.14745547 0.017245965 0.03572705 0.10178363 0.10408223 0.085401125 0.056162205 0.18692367 0.12078034 -0.1605206 0.09938772 -0.026431678 0.11580368 0.0626292 -0.038602933 -0.09747013 -0.15541826 0.12688175 -0.16460766 -0.06046331 -0.17023684 -0.04650419 -0.1475791 0.0008770597 -0.020893756 0.12700512 0.108779095 0.018706596 0.09011385 0.054722022 -0.0781314 -0.07272772 -0.15673088 -0.104174145 -0.055244725 -0.09170948 0.08334629 -0.0029915215 0.008231967 -0.015697312 0.047351237 -0.06925866 0.0032836625 0.029286405 -0.009981061 0.05006616 -0.065899044 -0.049895763 0.09851685 -0.005878659 0.004986282 -0.032057505 -0.07742361 -0.04045173 0.10362895 -0.055255637 -0.08234085 -0.15473825 0.05019107 0.035814572 -0.01518596 0.15476805 0.12808034 0.12572818 -0.16696334 -0.026585283 0.095567755 0.25855806 0.06592782 0.15094765 -0.015231189 -0.03302674 -0.20965986 0.07967617 -0.13574933 -0.012259068 0.034083676 0.044438146 0.027010772 0.027591754 -0.009551113 -0.11315886 0.03695719 -0.033818696 0.16481644 0.16398263 0.04493975 0.19269685 -0.08358842 0.035954766 -0.103044815 -0.12892608 5.541049e-05 -0.1115114 0.17471953 -0.14278805 0.13111673
29 0.028029181 -0.08728123 0.053474337 0.0912686 0.025709627 0.057166174 0.043386105 0.14358039 0.11399779 -0.06711029 -0.1791121 0.25536358 0.015069688 -0.06303883 0.08858715 0.01718815 -0.049493175 -0.05520001 0.0902839 -0.060534928 0.06972907 -0.11797344 0.013947049 -0.06520377 0.0018863605 0.13373613 -0.06212456 -0.13528359 -0.07533457 0.10635887 -0.02170374 -0.14536297 0.021326857 0.038526416 0.10677656 0.1294638 0.10356651 0.024080358 0.20430115 0.106334016 -0.17799424 0.1215895 -0.039043084 0.13397992 0.044267133 -0.042998917 -0.0828436 -0.17310423 0.114632204 -0.17288011 -0.060946178 -0.18601452 -0.068847366 -0.15133722 0.0056065507 -0.02080896 0.13554843 0.09148918 0.00381323 0.085678525 0.050904337 -0.0635196 -0.07323617 -0.18194292 -0.102655634 -0.066004805 -0.09228309 0.07412489 0.0052805827 0.02480404 -0.006904659 0.04217172 -0.08196722 0.005555362 0.029230902 -0.01565441 0.060776852 -0.054093897 -0.05613803 0.09972728 -0.026475493 0.00897975 -0.032306645 -0.08182231 -0.054114018 0.11063888 -0.04021303 -0.09091596 -0.15141794 0.063415416 0.03532187 -0.015509697 0.14591055 0.13526808 0.15750466 -0.16215903 -0.019440487 0.10931362 0.2754377 0.071484596 0.14486653 -0.01592186 -0.013646202 -0.2136462 0.08003607 -0.119620785 -0.014895425 0.05516375 0.037541296 0.029842371 0.021612553 0.0031208459 -0.11914008 0.051125266 -0.052295055 0.16240656 0.1613285 0.047947172 0.19008167 -0.08958821 0.032187454 -0.09187815 -0.14105473 0.02568955 -0.1192629 0.16855247 -0.13555853 0.1139998
27 0.020664858 -0.074142784 0.060207542 0.08369586 0.02761379 0.05667959 0.04687819 0.15374507 0.10927827 -0.07488949 -0.18663798 0.25871104 0.016551316 -0.057532053 0.0869061 0.011470094 -0.044955958 -0.054336432 0.08711872 -0.05344676 0.07466835 -0.11596685 0.0071548265 -0.06319107 0.0069577885 0.12700301 -0.061842643 -0.14169411 -0.07884777 0.10966853 -0.018577792 -0.1415315 0.02511142 0.04276983 0.10796711 0.13042757 0.10690184 0.024036134 0.2062649 0.112719715 -0.17956428 0.1278822 -0.035356242 0.13654043 0.049072076 -0.043594614 -0.07243455 -0.17219949 0.11338328 -0.17100571 -0.06520999 -0.18552941 -0.062003136 -0.14761555 0.0078006308 -0.019593552 0.12769616 0.08877837 0.0023286 0.08562016 0.05161866 -0.06004597 -0.07211662 -0.17854181 -0.10393209 -0.06971295 -0.09270995 0.06393614 0.017356703 0.021354148 4.8748323e-05 0.042014834 -0.07873992 -0.0011250483 0.026018647 -0.014324486 0.04975812 -0.053699713 -0.06154837 0.090606436 -0.03244818 0.009001422 -0.03318088 -0.07998444 -0.059624635 0.1065161 -0.03877062 -0.08784007 -0.1491448 0.07043974 0.03722708 -0.016704515 0.14443293 0.13242698 0.15894139 -0.15283062 -0.022776155 0.10550117 0.2692062 0.06572097 0.14286256 -0.012489194 -0.011042368 -0.21166988 0.0798845 -0.123893976 -0.0038345202 0.0491528 0.041061617 0.029080136 0.024676502 0.0014484874 -0.12472859 0.04387767 -0.052031543 0.152605 0.15615535 0.048274796 0.1831193 -0.09441801 0.03033818 -0.0967947 -0.14665654 0.032880828 -0.115984574 0.16866004 -0.12775166 0.11310718
35 0.03384369 -0.106603526 0.058006886 0.08657719 0.013944171 0.054647435 0.028147243 0.13753149 0.10101858 -0.059686895 -0.14957441 0.21739557 0.0064791488 -0.07708811 0.08445842 0.02577224 -0.045249186 -0.03697338 0.099521585 -0.07727242 0.0555873 -0.10250497 0.007967919 -0.049350325 -0.0073708897 0.14226244 -0.06916307 -0.112858586 -0.0773371 0.097071536 -0.021403044 -0.16344728 0.015489485 0.034832805 0.105464324 0.11316325 0.08442733 0.054793525 0.20188336 0.12282207 -0.16838042 0.11172929 -0.028938502 0.12261726 0.06597981 -0.042365406 -0.10326112 -0.1699087 0.121219225 -0.17758942 -0.056022193 -0.18255402 -0.056341458 -0.16129306 0.0019031957 -0.018964916 0.14358413 0.10535279 0.016365945 0.08885389 0.05242839 -0.08842399 -0.07633603 -0.17495428 -0.10857899 -0.060544327 -0.101129755 0.102592506 -0.010884296 0.014703142 -0.01717366 0.050088245 -0.07410259 0.007211923 0.028927948 -0.012389561 0.06134575 -0.059763532 -0.04238558 0.114189886 -0.009948895 0.006783075 -0.034591876 -0.08758456 -0.039142236 0.12188616 -0.06715907 -0.091767244 -0.16049668 0.053372458 0.03445879 -0.015937328 0.16295649 0.13618205 0.1292134 -0.18389763 -0.023598904 0.105801575 0.28587505 0.069394216 0.15737839 -0.01721329 -0.028649116 -0.22362036 0.07597679 -0.14268218 -0.02363757 0.03911655 0.04661856 0.028256258 0.02309195 -0.0105021475 -0.12392624 0.045578603 -0.039460175 0.17970495 0.17612529 0.043448187 0.20334801 -0.07993858 0.0445301 -0.097770676 -0.12806864 0.004897074 -0.12509032 0.18909776 -0.14707088 0.1346806
3 0.023070542 -0.07817333 0.06355315 0.08813621 0.02865161 0.05724591 0.045558855 0.15104373 0.11008186 -0.07560018 -0.18425357 0.26230153 0.01870556 -0.06443619 0.087835714 0.012968374 -0.04845018 -0.059438087 0.08806738 -0.053028017 0.07476985 -0.11994083 0.008947243 -0.06271097 0.0035603656 0.1230387 -0.05661146 -0.14343983 -0.075547375 0.11025024 -0.017848184 -0.13737682 0.023335733 0.044041958 0.1093703 0.13302886 0.10641802 0.02183407 0.20287469 0.10601213 -0.17646414 0.122343704 -0.035719242 0.13752891 0.047036674 -0.045616325 -0.07692377 -0.1696332 0.1068017 -0.17570104 -0.070676856 -0.18492322 -0.06531504 -0.14528231 0.0053429618 -0.017194998 0.1337037 0.08623139 0.0030166383 0.08775577 0.051631138 -0.059543967 -0.07865136 -0.18256891 -0.10451151 -0.06677592 -0.09904402 0.06721616 0.01762955 0.020029776 0.00025569176 0.039173663 -0.08220533 0.0017473391 0.028657662 -0.011128316 0.05673709 -0.049260166 -0.06863404 0.089722276 -0.035510726 0.009804215 -0.029512465 -0.08076652 -0.058432423 0.107793316 -0.036775146 -0.08965028 -0.15267089 0.066259645 0.040459476 -0.016037112 0.14560696 0.13037571 0.16220404 -0.14509554 -0.026086653 0.10515834 0.26655236 0.06639188 0.14334317 -0.008038806 -0.0055022854 -0.20547812 0.08214985 -0.11752521 -0.008398128 0.05382392 0.04126038 0.02730776 0.029991558 0.005412982 -0.12175621 0.04545272 -0.049963973 0.15411769 0.15959762 0.05023271 0.18673737 -0.08989194 0.031270813 -0.09919799 -0.14837885 0.03169512 -0.11801852 0.16518313 -0.12585899 0.11351909
33 0.029546581 -0.087483905 0.06034117 0.08748432 0.024125617 0.0605427 0.045459017 0.15209676 0.10562649 -0.069328226 -0.1776506 0.25442332 0.017399017 -0.06528355 0.08677971 0.02343512 -0.045352053 -0.05321989 0.09549 -0.06278121 0.06742433 -0.117937356 0.014712667 -0.063463666 -0.0013392717 0.13029353 -0.061301105 -0.13036494 -0.076875836 0.10521074 -0.017949572 -0.1442838 0.019525087 0.04127704 0.10407763 0.123830244 0.10212981 0.038413826 0.20231816 0.11382268 -0.17121108 0.11560376 -0.035186462 0.13072306 0.051455773 -0.040648337 -0.08644609 -0.16911738 0.11661566 -0.16795231 -0.064862736 -0.18609382 -0.06212845 -0.1489737 0.0025089288 -0.021766216 0.13386749 0.09393847 0.009063899 0.087640926 0.04600776 -0.07207427 -0.076782055 -0.17060426 -0.10563643 -0.06274187 -0.097800754 0.07331872 0.010604684 0.021936946 -0.009062435 0.045747317 -0.078996755 -0.002856529 0.02486182 -0.009606698 0.05416364 -0.053045776 -0.055112705 0.09502863 -0.024783276 0.007680144 -0.03413665 -0.084069945 -0.047974814 0.10904164 -0.04853659 -0.08624781 -0.15840113 0.06118289 0.043382857 -0.017233344 0.14990072 0.13310383 0.14703557 -0.15709908 -0.022498969 0.10498672 0.27171245 0.062078737 0.14857411 -0.010251708 -0.017783027 -0.21220312 0.08306023 -0.12580226 -0.010656411 0.046865724 0.045272436 0.02551841 0.027565768 0.000890656 -0.119359896 0.043688573 -0.0463516 0.16367938 0.16145904 0.047216125 0.18687208 -0.09042828 0.03720902 -0.09568633 -0.14240503 0.02536689 -0.116241544 0.17347452 -0.13324833 0.12425883
50 0.03180753 -0.09774383 0.05517688 0.0907624 0.024189806 0.057832927 0.03602972 0.13663091 0.105842054 -0.057171784 -0.15844963 0.22576697 0.008730012 -0.0708303 0.085758016 0.01605435 -0.048781894 -0.044448704 0.08606887 -0.06507749 0.057123903 -0.10022244 0.00372002 -0.0545602 -0.0018895142 0.13477756 -0.05514135 -0.11759435 -0.069188766 0.093706936 -0.02319922 -0.15578312 0.023745393 0.03471224 0.1027651 0.115346886 0.084097356 0.04029689 0.1978632 0.10738312 -0.16582987 0.11958473 -0.034422755 0.119283944 0.053639654 -0.037083242 -0.085567445 -0.15883617 0.11324065 -0.16431773 -0.047451504 -0.16998906 -0.062069103 -0.14459045 -0.002190554 -0.010733357 0.13488658 0.092761695 0.005422825 0.08292101 0.04874808 -0.07144438 -0.07411229 -0.16739947 -0.09980659 -0.05761975 -0.08596817 0.09103144 -0.004120741 0.025175361 -0.011203971 0.046506222 -0.071185425 0.011208472 0.036346614 -0.01580596 0.05821234 -0.051318243 -0.03987841 0.104348145 -0.01610936 0.007877476 -0.035573393 -0.080296524 -0.043454748 0.11592054 -0.053598512 -0.08305049 -0.14956121 0.056591317 0.029393792 -0.02200943 0.14562142 0.12391317 0.13524659 -0.16949202 -0.024662456 0.1002754 0.27018386 0.07204231 0.15100446 -0.016468978 -0.016496636 -0.21406598 0.06842391 -0.12467963 -0.023327848 0.04468435 0.0380948 0.019896366 0.0193615 0.0031851141 -0.12187542 0.045848317 -0.044758126 0.172681 0.15945294 0.041614756 0.18393645 -0.07625507 0.032989956 -0.08248063 -0.1252988 0.009657753 -0.11756094 0.16605489 -0.13273136 0.11760936
37 0.028667215 -0.07439743 0.0671183 0.08020553 0.021344252 0.057521403 0.05050884 0.15369806 0.103030495 -0.082789786 -0.17947291 0.25364318 0.019292012 -0.059764083 0.07770947 0.028127437 -0.047519557 -0.054077055 0.10001731 -0.067655735 0.06909187 -0.12232449 0.020971969 -0.058581397 -0.0025149884 0.12588471 -0.067721374 -0.13786243 -0.08406918 0.11018252 -0.010449597 -0.13688956 0.0219086 0.04313457 0.10383795 0.12234635 0.10065452 0.036964513 0.19753367 0.1175894 -0.1728043 0.10999986 -0.025247782 0.13627034 0.05209503 -0.04098783 -0.07990399 -0.15992078 0.12574308 -0.16946428 -0.06655819 -0.18868431 -0.05097575 -0.14794002 0.008239187 -0.023869744 0.12482416 0.0942774 0.008330687 0.087190166 0.052102223 -0.07150767 -0.076764 -0.17217506 -0.107859924 -0.066995494 -0.09708369 0.062857434 0.019968398 0.016607257 -0.0049520624 0.042915307 -0.07603061 -0.008542495 0.021671128 -0.013907921 0.042644266 -0.06296844 -0.066828385 0.08741488 -0.012858997 0.01207935 -0.0278763 -0.073757544 -0.052774735 0.09725936 -0.040252797 -0.08484736 -0.1542754 0.061914824 0.042920504 -0.010879391 0.14432368 0.13180105 0.14886153 -0.14420472 -0.025329513 0.100005366 0.26226842 0.06463301 0.14223772 -0.0065296544 -0.023557112 -0.2061619 0.08710424 -0.13026878 -0.001428447 0.04131677 0.052807618 0.035112552 0.028151626 -0.0037212723 -0.11511599 0.0331975 -0.0418505 0.14830263 0.1619108 0.049598772 0.18510666 -0.09382972 0.035025463 -0.11109783 -0.14447129 0.030231979 -0.117552854 0.17452036 -0.13798621 0.12209656
53 0.019967867 -0.07410911 0.060151592 0.087732784 0.023197262 0.05628391 0.050484594 0.1539581 0.11203437 -0.077249296 -0.19571981 0.27039117 0.016402304 -0.053808022 0.08434476 0.020723468 -0.045288052 -0.05834571 0.09476952 -0.058725897 0.08017292 -0.12462324 0.014413463 -0.066135585 0.008537446 0.124124125 -0.058148164 -0.1455367 -0.08636029 0.113373294 -0.014807114 -0.13885275 0.023626659 0.04371967 0.10697318 0.13342272 0.11522551 0.027570073 0.21162955 0.11167611 -0.18149285 0.12323776 -0.029622281 0.14137737 0.041891508 -0.041776095 -0.07248089 -0.17264287 0.1130924 -0.17652963 -0.064570256 -0.1941683 -0.061491765 -0.15057884 0.01152574 -0.022377344 0.123846576 0.08400849 0.005881574 0.088187754 0.052433684 -0.060295716 -0.07930925 -0.18263163 -0.099346206 -0.071375705 -0.09318692 0.05992294 0.023141682 0.023169933 7.259731e-05 0.044325292 -0.0798089 -0.00041425053 0.026426606 -0.015349519 0.045726165 -0.054393005 -0.07177119 0.08687598 -0.030254701 0.0103596095 -0.03564862 -0.07775846 -0.0643784 0.09959132 -0.033088878 -0.09138044 -0.1508952 0.07057639 0.038136344 -0.01818037 0.14084929 0.130305 0.16635753 -0.14730427 -0.019007558 0.10610118 0.27823922 0.06826416 0.14042625 -0.008720212 -0.006612437 -0.21423128 0.08547349 -0.12514307 -0.0010700519 0.052148752 0.042641666 0.035913017 0.028489746 0.0010273841 -0.12519537 0.044654578 -0.054921128 0.15572177 0.16511567 0.051563513 0.18345396 -0.09744377 0.032878403 -0.105045594 -0.152169 0.040733732 -0.12671591 0.16620411 -0.12700306 0.11686166
41 0.02317411 -0.07362961 0.056301195 0.08830617 0.026260225 0.05358728 0.051713727 0.15600933 0.119075894 -0.069819495 -0.19137703 0.264082 0.023645073 -0.05873038 0.087809764 0.00973577 -0.046900928 -0.057432365 0.09191369 -0.057006124 0.073863305 -0.12146295 0.011757286 -0.068131134 0.0050776927 0.12378065 -0.057923183 -0.14797217 -0.08170964 0.10912671 -0.014704558 -0.14518368 0.02742284 0.04276428 0.110756226 0.1375439 0.10876954 0.016372357 0.20588726 0.10500554 -0.18079825 0.13247147 -0.037463903 0.14187208 0.037861582 -0.044316966 -0.07883093 -0.17565538 0.10891034 -0.1787552 -0.06517432 -0.1907859 -0.068344854 -0.14891826 0.0030224184 -0.021552073 0.12750608 0.08155815 0.0004924863 0.08268434 0.052280795 -0.061815348 -0.07556825 -0.18196492 -0.09992022 -0.068591654 -0.0880809 0.06845486 0.013672979 0.027135476 -0.00035614992 0.044549815 -0.08224325 0.0048068296 0.028559681 -0.0149406865 0.05613097 -0.049364023 -0.06523377 0.089883134 -0.039052214 0.0075152614 -0.03540284 -0.077464715 -0.054567534 0.109990455 -0.0350332 -0.08937454 -0.14866358 0.06839514 0.042708896 -0.016710589 0.13854183 0.13117304 0.16658324 -0.15482412 -0.022565478 0.10420526 0.279852 0.060840122 0.14163078 -0.011765066 -0.0011929524 -0.21412587 0.07482859 -0.11894996 -0.007266821 0.05335705 0.043095823 0.026595341 0.02376683 0.0011697486 -0.11898031 0.04893219 -0.05136873 0.15289274 0.16250332 0.051953718 0.18551901 -0.095223434 0.029171625 -0.09115778 -0.15282784 0.03781843 -0.1264661 0.16378257 -0.124114275 0.11009989
6 -0.034910258 0.0153110055 -0.011402206 0.048341636 0.11846647 0.01277716 0.10367152 0.1763366 0.19888146 -0.011859884 -0.30771935 0.35912547 0.069340676 0.04568844 0.113632016 -0.124563865 -0.039415117 -0.12864833 0.0031411776 0.056141134 0.23155214 -0.17876443 -0.02727224 -0.18645406 0.08869093 0.120573916 0.021997135 -0.2972868 -0.07601879 0.13453634 -0.022417882 -0.16810283 0.0881113 0.07724936 0.13347188 0.26749852 0.20269184 -0.14621474 0.3423123 0.02315793 -0.21171218 0.29137474 -0.10746497 0.20985831 -0.09291012 -0.07888081 0.035605095 -0.24191038 -0.0071484065 -0.24886619 -0.065527014 -0.22663252 -0.18165064 -0.17718697 -0.013342504 0.038589913 0.16471575 -0.055867568 -0.103118025 0.04796714 0.037475176 0.05725754 -0.06592826 -0.27767405 -0.08276872 -0.12164032 -0.076510906 0.025634302 0.097278014 0.11440266 0.08923678 0.028047426 -0.14322492 0.054652207 0.05881602 -0.04967405 0.09748003 0.020331984 -0.09090169 0.11159563 -0.18961824 0.035379317 -0.03981392 -0.07023421 -0.12693693 0.13830419 0.05417344 -0.102767795 -0.10465184 0.1454952 -0.006299029 -0.039412018 0.06794114 0.1529691 0.34435305 -0.13279916 -0.00985497 0.12612687 0.32967713 0.08300275 0.110043734 -0.024491377 0.12935132 -0.1765623 0.047106948 0.00250539 -0.005824406 0.18651542 -0.024012817 0.056523662 -0.020628892 0.12884547 -0.19135123 0.10078708 -0.20391999 0.11724019 0.16199437 0.09536374 0.13475767 -0.12458035 0.009256167 -0.0016817384 -0.20125656 0.18638122 -0.18610261 0.099455215 -0.050742358 -0.023708615
16 0.023654882 -0.089035764 0.07745824 0.1061954 0.022533616 0.060754314 0.045616124 0.15923421 0.1061317 -0.07776309 -0.17284301 0.25457332 0.013280624 -0.07321077 0.07603421 0.021399222 -0.055277303 -0.05094756 0.10460427 -0.07010924 0.057559315 -0.10381893 0.0007673862 -0.051028416 0.00023914331 0.12885119 -0.07169488 -0.12714642 -0.0754947 0.105410986 -0.018251883 -0.13831298 0.022643471 0.03766624 0.09926794 0.11136673 0.10540146 0.05154798 0.21368055 0.121624164 -0.18544593 0.11586599 -0.022997906 0.13373226 0.07176435 -0.029987983 -0.086192 -0.16738437 0.12260243 -0.17501462 -0.05831329 -0.20097218 -0.04790908 -0.15664947 0.016487934 -0.01845125 0.13722648 0.110987164 0.008262248 0.089609936 0.05512385 -0.08243349 -0.088118635 -0.18224445 -0.11038086 -0.06722811 -0.108160086 0.07254 0.011348307 0.016866775 -0.0032660877 0.04398984 -0.068582505 -0.007450253 0.03024595 -0.015435723 0.045875214 -0.06780353 -0.060931977 0.09789592 -0.019392397 0.009673901 -0.0418187 -0.07666293 -0.061348353 0.102912664 -0.042667452 -0.092960805 -0.18018857 0.07894542 0.044611093 -0.015842587 0.15320207 0.13603675 0.15493299 -0.15707316 -0.024655936 0.099166386 0.26928213 0.08217794 0.15094566 0.00031357774 -0.020009015 -0.21516116 0.085153714 -0.13235122 -0.00191075 0.03461493 0.04801195 0.024526104 0.038413387 -0.003113213 -0.13207611 0.051984914 -0.04333724 0.17582983 0.16261709 0.049655605 0.19509868 -0.10003652 0.032640394 -0.10871256 -0.14609869 0.01391088 -0.1137049 0.17555365 -0.1393906 0.14076784
24 -0.008301745 -0.024567192 0.021665799 0.06578396 0.075705044 0.034620512 0.08098076 0.15755059 0.15537201 -0.043757692 -0.24800862 0.30955538 0.05713603 -0.015458948 0.10368742 -0.05218935 -0.0458483 -0.09705051 0.039244443 0.00742343 0.15668274 -0.14958823 8.252435e-06 -0.12756197 0.05607853 0.12314122 -0.0053670555 -0.216912 -0.07514253 0.111904435 -0.0180549 -0.15605958 0.05717471 0.05940242 0.12076393 0.20823874 0.15700914 -0.07587572 0.26626113 0.055745736 -0.1975384 0.20846103 -0.077899344 0.18131301 -0.027241193 -0.06593851 -0.012244144 -0.20775038 0.048149895 -0.21062829 -0.07391723 -0.20646358 -0.12497363 -0.16129948 -0.007954609 0.012485647 0.14897199 0.0021714335 -0.048473224 0.06176962 0.046162862 0.0050549163 -0.06863066 -0.23681468 -0.09745262 -0.097370565 -0.08830647 0.044886865 0.055906393 0.0756363 0.049114794 0.03238614 -0.11466616 0.021017702 0.046268746 -0.025097875 0.08343936 -0.014162675 -0.08447074 0.0984124 -0.12005144 0.022756511 -0.03241421 -0.07202267 -0.10024805 0.123466484 0.016731301 -0.10575319 -0.12289989 0.107374765 0.02394478 -0.016277663 0.0977758 0.14481965 0.25455135 -0.13760011 -0.026899714 0.116420954 0.30176845 0.06397557 0.11794635 -0.02318991 0.06512767 -0.18928705 0.05421224 -0.05537487 -0.01339713 0.116960116 0.0067635383 0.03684474 0.0033539217 0.074550234 -0.14901593 0.07297001 -0.13068672 0.13244839 0.1688061 0.072854616 0.16229078 -0.11202609 0.014735554 -0.04755068 -0.18457441 0.109363236 -0.15250108 0.12550713 -0.07809179 0.033785414
52 0.02524887 -0.08537014 0.06689356 0.0886705 0.025449468 0.059026904 0.05214206 0.15545136 0.114047796 -0.072161235 -0.19336575 0.26503378 0.021592334 -0.057844628 0.08555085 0.015547636 -0.044576835 -0.060065288 0.090115264 -0.06010521 0.07723668 -0.123749845 0.012700485 -0.06793017 0.008754944 0.12846626 -0.059928384 -0.138532 -0.080816895 0.1119915 -0.014353859 -0.14997378 0.024897294 0.046578296 0.10867335 0.13200185 0.10867588 0.027929204 0.21387452 0.11768431 -0.17672564 0.12272291 -0.03526559 0.13735354 0.041304618 -0.043010633 -0.081377774 -0.17313442 0.115732454 -0.17318667 -0.06277729 -0.18988316 -0.064587764 -0.14415467 0.009184641 -0.018127693 0.13056366 0.08549626 0.0035203444 0.088371605 0.048266537 -0.068018675 -0.07948905 -0.18242289 -0.10089273 -0.07046577 -0.09241154 0.07222972 0.019594422 0.02613085 0.0006346458 0.04634754 -0.080355 -0.0008777828 0.026095234 -0.015691398 0.053278875 -0.05588212 -0.06770245 0.09145544 -0.029273173 0.007646574 -0.03491934 -0.07859676 -0.05443117 0.1112419 -0.04299309 -0.09398633 -0.156286 0.07253995 0.03771648 -0.020126823 0.14620264 0.12747806 0.15945092 -0.15813792 -0.021539593 0.10910548 0.2771484 0.06802188 0.14282598 -0.0111436285 -0.009326971 -0.21383217 0.08233023 -0.12386918 -0.005220118 0.047564853 0.043757312 0.032972816 0.026528686 0.0017384754 -0.123997174 0.04817028 -0.04794737 0.15464129 0.1637469 0.04969572 0.18618256 -0.09507929 0.03249757 -0.10231668 -0.15246317 0.035796113 -0.12553789 0.1721108 -0.13215947 0.112828314
45 0.021633595 -0.06896871 0.062139273 0.08236197 0.03382203 0.05303346 0.061131753 0.15855694 0.11935775 -0.0722543 -0.20448792 0.27433252 0.026084837 -0.05580663 0.091106035 0.0064749303 -0.045941275 -0.06903422 0.08572447 -0.048252176 0.084049046 -0.12946795 0.014132507 -0.07392515 0.010280275 0.12394081 -0.051684413 -0.15595445 -0.08355913 0.11325321 -0.013599148 -0.14151578 0.03152086 0.04230218 0.114605345 0.14716917 0.115544125 0.011422306 0.2168743 0.10382591 -0.1856839 0.13950181 -0.037864126 0.14856957 0.033532485 -0.051196005 -0.06461718 -0.17798848 0.10628063 -0.17486323 -0.065406136 -0.19065006 -0.06873882 -0.14547858 0.008287604 -0.013224402 0.12981519 0.07109804 -0.00095076364 0.08661363 0.0544488 -0.054751094 -0.078971334 -0.18993291 -0.09923383 -0.07308335 -0.08640432 0.0621744 0.029992 0.033624582 0.007055807 0.03895753 -0.08626936 0.005995252 0.031827558 -0.016495887 0.051412147 -0.0497345 -0.07326075 0.086875424 -0.047327824 0.009117481 -0.035448413 -0.0807777 -0.06665793 0.11087722 -0.026001684 -0.0942491 -0.14800508 0.07566894 0.044362847 -0.013637824 0.132944 0.13216554 0.1771849 -0.14963494 -0.022475444 0.102307916 0.27837825 0.06687819 0.14105518 -0.012774121 0.00027956226 -0.20363288 0.07619268 -0.11450246 -0.0020638513 0.057446193 0.043807898 0.03370807 0.030846957 0.009679387 -0.123158924 0.0475855 -0.057644166 0.14461471 0.15766686 0.05517733 0.18508546 -0.09657242 0.02311377 -0.0929295 -0.15551603 0.049638785 -0.12939791 0.15684874 -0.12080926 0.09705327
20 0.030740514 -0.09104103 0.055637673 0.08854209 0.021678992 0.053688776 0.041406117 0.14578277 0.10749162 -0.06766162 -0.17594172 0.25178814 0.022375166 -0.07060922 0.083783776 0.013378481 -0.046895746 -0.052822802 0.090535864 -0.064407475 0.062358703 -0.11325186 0.011247479 -0.06503646 0.002817595 0.13202296 -0.06086359 -0.13211776 -0.072742954 0.10935995 -0.022685457 -0.14860685 0.020740988 0.034932315 0.10925405 0.12841862 0.09696408 0.033197023 0.21149062 0.11038239 -0.17386216 0.122850165 -0.031242259 0.12590101 0.054082032 -0.037832376 -0.08829516 -0.17297092 0.108462416 -0.1732173 -0.059937246 -0.18290405 -0.06699894 -0.1519907 0.008405034 -0.020248815 0.1348977 0.093561195 0.0056350403 0.086407796 0.050668597 -0.07222777 -0.074592024 -0.17746344 -0.102064386 -0.06644411 -0.095252305 0.086857766 0.0076982337 0.020396782 -0.006030784 0.042744596 -0.079540916 0.0037285597 0.028660567 -0.012670211 0.05959294 -0.05828349 -0.05343284 0.098032326 -0.02950253 0.010371334 -0.037397165 -0.08367865 -0.046938 0.11856815 -0.049797595 -0.086407475 -0.16015665 0.07030415 0.040901136 -0.015516421 0.14682084 0.13314442 0.14930566 -0.1622141 -0.025877245 0.10383076 0.27986106 0.071137264 0.15164007 -0.011475032 -0.007846354 -0.2154284 0.07726388 -0.12313088 -0.018626362 0.04877631 0.040624224 0.027694028 0.023465412 -0.0023276235 -0.12471716 0.04692198 -0.050969604 0.17176868 0.16572689 0.050146 0.19110121 -0.086413644 0.037096843 -0.097802304 -0.14427228 0.02318602 -0.12433258 0.17466488 -0.13355267 0.11717096
