56 128
11 -0.0028923454 -0.050815206 0.027386298 -0.097076796 0.050861098 -0.018923763 0.10724349 -0.033259675 -0.052561738 -0.16541344 -0.21112818 0.09907275 0.055349395 -0.16446175 -0.0333207 0.06877932 0.008076642 -0.00535544 0.04838707 -0.037057523 0.04850895 -0.11514207 0.074409425 -0.08614689 0.04020633 0.052852448 -0.055382457 -0.024930095 0.056774344 0.13590486 0.013878145 -0.037307326 -0.011538124 -0.16036774 0.022911452 0.20873477 0.09686969 0.039273966 0.111973226 -0.10481785 -0.07558787 0.14527574 -0.12022687 0.10874368 0.092481084 0.07291847 0.012614834 -0.09154571 0.027579544 -0.03793377 -0.06848108 -0.039694745 -0.050802667 -0.27942425 -0.076601885 -0.0025604558 0.22591817 0.024082065 -0.045254454 -0.053734705 0.10207046 -0.012179619 -0.010677615 -0.15350376 -0.16227157 -0.061876718 -0.12298268 -0.07271839 0.005097526 0.032470625 -0.051310994 -0.12613745 -0.09132275 0.03809311 0.099856734 -0.08512323 0.08659901 -0.21416712 0.091961645 0.17914759 -0.23731698 0.18386772 0.10192121 -0.00857051 0.071900345 0.18559529 0.010585569 0.00793568 -0.14804083 0.03186453 0.07837354 -0.059689496 -0.007699502 0.27492362 0.105295606 -0.07884633 -0.1530801 0.06409555 0.12681927 -0.016272675 0.26975307 -0.03737781 0.017374722 0.06742605 0.14648193 -0.021214224 -0.054640032 0.020192094 0.015658349 -0.13511154 -0.028601816 0.28321245 0.044447213 0.019881062 -0.16315226 0.145412 0.0755015 0.08568403 0.13988279 -0.027463248 0.07478611 -0.03944261 -0.21054031 -0.06514351 -0.13709317 -0.041625094 -0.0043511186 0.002838401
27 0.0039159614 -0.046153806 0.022503138 -0.086933576 0.06725302 -0.009442894 0.111169614 -0.015503439 -0.032438572 -0.17225255 -0.20480286 0.1199948 0.05462905 -0.14268897 -0.04229079 0.04222048 0.015090708 0.0029401723 0.060936306 -0.044147536 0.057914212 -0.120314844 0.05674527 -0.10432001 0.05635983 0.071974635 -0.06323087 -0.04138044 0.054620437 0.15476094 0.0047397367 -0.037663165 -0.010390936 -0.14886217 0.034051903 0.20482634 0.10020778 0.033898026 0.13318165 -0.08933134 -0.08381762 0.15312201 -0.10777906 0.1121438 0.09957552 0.08221708 0.00883593 -0.111703396 0.03065467 -0.049821906 -0.07705557 -0.057823136 -0.05840538 -0.2733762 -0.07248758 -0.019279042 0.2148405 0.025914375 -0.05564059 -0.051448632 0.08072848 -0.010182193 -0.009052179 -0.16858466 -0.17854059 -0.072209604 -0.113048226 -0.08340629 0.019432668 0.035110306 -0.03368609 -0.114697546 -0.089878365 0.018422348 0.07771925 -0.0831719 0.07303593 -0.20446256 0.09519692 0.15402481 -0.22894931 0.172971 0.10198384 -0.0055250023 0.067685194 0.17246108 0.012397679 0.013203543 -0.15446417 0.038614135 0.07354704 -0.065413095 0.0037756462 0.2780953 0.11409699 -0.07099269 -0.14399013 0.06698071 0.12853721 -0.014915877 0.2470375 -0.017631367 0.01946055 0.03908315 0.12707996 -0.032402243 -0.040613577 0.008617735 0.026772467 -0.13677283 -0.03645702 0.24872304 0.012596884 0.008563351 -0.16139244 0.14054915 0.06439308 0.08632605 0.12521544 -0.041704625 0.0830547 -0.039840683 -0.21779877 -0.053131625 -0.12770188 -0.01726217 -0.01821961 0.017627615
0 0.07521113 -0.035373386 -0.0023242834 -0.004951902 0.06838934 0.02173497 0.11816086 0.021762462 0.063528664 -0.17354907 -0.14691027 0.16231291 0.029457238 -0.117243856 -0.05142336 -0.024677977 0.014807591 0.00016396023 0.12019082 -0.06270345 0.0028618197 -0.14185648 0.018296642 -0.12124845 0.08809245 0.13465868 -0.047981583 -0.025795603 0.045611367 0.18504207 0.037552018 -0.03557903 0.034684107 -0.1139886 0.08347921 0.14579989 0.10396275 0.012607641 0.19685857 -0.027651709 -0.13659711 0.19425255 -0.033283845 0.11941994 0.08368648 0.07015368 -0.04026671 -0.10302028 0.04721137 -0.12131681 -0.0818897 -0.14457564 -0.07378389 -0.17489937 -0.07208542 -0.052814204 0.15833545 0.08698866 -0.06587784 -0.00916207 0.023706576 -0.054008387 -0.017063918 -0.17054191 -0.21020152 -0.061326403 -0.10673377 -0.09957928 -0.009912322 0.07061395 0.06763188 -0.06802221 -0.03609753 -0.055717357 -0.020635257 -0.042491112 0.007638631 -0.16510883 0.03665256 0.056578763 -0.17913923 0.109102145 0.070641465 -0.0017386704 0.05340795 0.16108568 -0.021441374 -0.032680806 -0.24026969 0.045618523 0.1035792 -0.044074412 0.043586966 0.20532385 0.18519133 -0.04462547 -0.13476673 0.0071275695 0.19535881 0.024140568 0.14689763 0.039922103 -0.0021144163 -0.08640848 0.074523725 -0.06671867 -0.0447063 -0.086640485 0.06887178 -0.16949531 0.01466306 0.14192317 -0.0513824 0.037269928 -0.09524451 0.15965576 0.07556541 0.104247876 0.13147546 -0.12202125 0.08241514 0.0014312468 -0.31955013 -0.02040163 -0.13427468 0.07549824 -0.06840195 0.03948768
39 0.00023617546 -0.050040495 0.022820298 -0.094667554 0.056749012 -0.02254443 0.10823806 -0.033582687 -0.04111937 -0.16468544 -0.20043027 0.101520345 0.053313058 -0.14805914 -0.0370731 0.055287898 0.011180377 0.0005849496 0.057734456 -0.044286013 0.05789882 -0.11521268 0.06882294 -0.08995834 0.046145674 0.0579834 -0.052417897 -0.034767956 0.054994937 0.1410477 0.0073445174 -0.03458221 -0.015547053 -0.15557656 0.020510446 0.20648816 0.100173496 0.03172187 0.11737866 -0.102378316 -0.07775797 0.14515379 -0.117274545 0.11158829 0.093225926 0.07883804 0.013646811 -0.1027799 0.023444476 -0.04115216 -0.07092285 -0.042384814 -0.055380065 -0.2773776 -0.070012204 -0.009657641 0.21914695 0.020508556 -0.046754137 -0.058710407 0.08812325 -0.011524606 -0.0149376355 -0.16688652 -0.1685993 -0.067119494 -0.11950401 -0.075486735 0.014319381 0.03443077 -0.047314 -0.12301549 -0.09268897 0.026376082 0.0855426 -0.08763593 0.08117221 -0.2119766 0.08875909 0.16470115 -0.23119004 0.1829081 0.10671362 -0.00935958 0.072479695 0.17965126 0.013132639 0.009730654 -0.14643846 0.038518142 0.076049395 -0.057907246 -0.0051963823 0.276319 0.110341735 -0.07490336 -0.15424304 0.06865573 0.12930095 -0.019081356 0.25732136 -0.031778373 0.01871233 0.053463787 0.13773657 -0.0214063 -0.051013447 0.016146287 0.02490701 -0.13270238 -0.030556813 0.27053645 0.034462776 0.0120274965 -0.16745098 0.14306687 0.0691301 0.090890326 0.12955256 -0.031637724 0.08274192 -0.038327917 -0.2145053 -0.05533283 -0.13489917 -0.035938587 -0.0071558096 0.013941078
30 -0.013454639 -0.055976935 0.031901106 -0.11518099 0.051680125 -0.012036184 0.1078215 -0.034812484 -0.06514638 -0.16104315 -0.2340832 0.09080725 0.060888637 -0.18772857 -0.021253241 0.081838146 0.004393068 -0.008310244 0.046520576 -0.03799955 0.0628481 -0.112058714 0.06879877 -0.091646425 0.029350085 0.041213926 -0.05590722 -0.034287408 0.060125515 0.1389556 0.0028473015 -0.046193376 -0.021512864 -0.16943787 0.020892646 0.2173634 0.09579239 0.06536345 0.1040576 -0.11013483 -0.0668795 0.14722589 -0.13735874 0.11194715 0.09528381 0.0875972 0.015285852 -0.08990452 0.028840687 -0.028175093 -0.07081894 -0.017839568 -0.04248781 -0.31408688 -0.08145228 0.00024209733 0.23686405 0.023029827 -0.04162457 -0.056498375 0.12056394 -0.011755732 -0.0071656117 -0.1582739 -0.15688619 -0.06375281 -0.12102496 -0.06899686 0.006480196 0.018163852 -0.07296738 -0.12578212 -0.09843019 0.059643045 0.13108818 -0.08577285 0.096405804 -0.22783 0.10860922 0.20812045 -0.25600383 0.18312114 0.09908272 -0.0041699554 0.07191971 0.18102236 0.021415826 0.010966291 -0.14459248 0.034667663 0.073876455 -0.06866809 -0.016133847 0.29340923 0.10197658 -0.09485637 -0.15441811 0.06666312 0.11327329 -0.018779246 0.29931685 -0.054816365 0.015575087 0.087748654 0.15676323 -0.014834743 -0.05577024 0.03809532 0.007940416 -0.1332093 -0.036362074 0.31134677 0.05087431 0.012290549 -0.17539132 0.14474922 0.07843295 0.09546968 0.15633576 -0.011860492 0.07426991 -0.046562918 -0.20052676 -0.08961197 -0.14159782 -0.057723336 0.0035879205 -0.008361135
42 -0.013733824 -0.055431377 0.024809822 -0.11862722 0.05753099 -0.017957522 0.11661968 -0.038871597 -0.06279355 -0.16514581 -0.23061535 0.09680699 0.06101943 -0.1760072 -0.027066601 0.07440236 -0.00036399884 -0.010009024 0.042694822 -0.041651063 0.054458108 -0.100134864 0.07392729 -0.085693024 0.025940726 0.040770378 -0.05910443 -0.029845584 0.064745784 0.12971784 0.00081889995 -0.041155286 -0.026760945 -0.1569487 0.015034584 0.20976308 0.08807227 0.05852786 0.0971631 -0.10543392 -0.069258556 0.13566886 -0.13186842 0.10356886 0.0919793 0.084752075 0.017366294 -0.08392645 0.02599455 -0.02238583 -0.060005184 -0.019765627 -0.045650363 -0.29700083 -0.07073926 -0.004504466 0.23427728 0.0109655745 -0.038740426 -0.053739052 0.11070897 -0.010937141 -0.012115381 -0.15751338 -0.15391673 -0.06244297 -0.11938534 -0.06114513 0.006476299 0.020317968 -0.076611474 -0.12385141 -0.09959094 0.050980505 0.12003369 -0.08591464 0.09664812 -0.2132249 0.1061469 0.19636282 -0.23940152 0.17840928 0.09861333 -0.010312782 0.066305116 0.17228931 0.017414609 0.008781708 -0.1409544 0.031323746 0.07334801 -0.06516449 -0.016657073 0.28242937 0.09393547 -0.08539957 -0.14456308 0.07344562 0.11259265 -0.01908628 0.28207964 -0.04573949 0.0167912 0.08104434 0.15002304 -0.012957888 -0.05566655 0.039661583 0.013254316 -0.12989108 -0.034397203 0.2904011 0.056585997 0.014168417 -0.1651292 0.13635014 0.07234168 0.083226174 0.1431825 -0.01160868 0.07756291 -0.0421143 -0.18731777 -0.078708366 -0.13240124 -0.048233405 0.0046656094 -0.0013535916
20 -0.0053443303 -0.055532057 0.023840643 -0.111824274 0.058836777 -0.021077558 0.1104158 -0.03749913 -0.05796584 -0.16640845 -0.22156306 0.10425273 0.06270112 -0.16013251 -0.031630024 0.06552263 0.009800204 -0.008423782 0.045766618 -0.040733743 0.05711004 -0.11162738 0.07301762 -0.089011975 0.035750583 0.04438803 -0.055767883 -0.037390403 0.058151167 0.13558884 0.0061789607 -0.03225045 -0.021852242 -0.16048151 0.020269461 0.21396399 0.09178955 0.04603363 0.104741774 -0.1057714 -0.06814407 0.13736077 -0.12482801 0.103692695 0.09218156 0.08281302 0.015651872 -0.093688436 0.020191168 -0.029964648 -0.06824603 -0.027187647 -0.050239705 -0.29422134 -0.06565304 -0.004522005 0.2235787 0.016502963 -0.04604799 -0.05755105 0.103466734 -0.010438935 -0.007003218 -0.15612411 -0.15634944 -0.06609094 -0.11654864 -0.06529014 0.016568536 0.028669966 -0.06242221 -0.12489597 -0.09994582 0.043609016 0.105260625 -0.08616655 0.09611466 -0.21663941 0.10121747 0.18682152 -0.23886779 0.18527204 0.10308655 -0.011425454 0.07230386 0.18293326 0.020094782 0.018918073 -0.13510598 0.03655366 0.07839717 -0.059424747 -0.012109854 0.28247947 0.09799252 -0.07778869 -0.14956462 0.07004061 0.116207235 -0.018135866 0.2752146 -0.03891181 0.022794807 0.08003521 0.14416373 -0.01596979 -0.0562685 0.02792795 0.01934325 -0.12820412 -0.0355176 0.27937052 0.0363268 0.009883758 -0.1696385 0.14364295 0.07282757 0.08878601 0.13852312 -0.023657657 0.08104414 -0.04442786 -0.20729767 -0.06393239 -0.1345208 -0.037828017 -0.007461031 0.0004041068
45 -0.010803236 -0.05501693 0.032563653 -0.1122158 0.05564998 -0.0155861555 0.11888358 -0.034614373 -0.06189689 -0.1676862 -0.23491152 0.094906166 0.057105403 -0.1864186 -0.018233405 0.0789346 0.000460547 -0.018158488 0.04978335 -0.040616028 0.048476204 -0.108106986 0.076061524 -0.08148424 0.025570072 0.04255144 -0.055711076 -0.026384031 0.06449139 0.13407493 0.01345356 -0.03852757 -0.017900586 -0.16574381 0.024538796 0.2166015 0.0879402 0.060491037 0.10039293 -0.10569893 -0.07520137 0.14524212 -0.1265997 0.11045633 0.09182038 0.07887575 0.01611205 -0.08338299 0.029982895 -0.02589884 -0.064306535 -0.023987854 -0.043328047 -0.29395092 -0.07431855 0.0031894993 0.23788111 0.020063149 -0.038260836 -0.051030204 0.119794615 -0.021428049 -0.0131099075 -0.15955617 -0.15618217 -0.06525138 -0.11732159 -0.06354014 0.00441659 0.026241159 -0.067722276 -0.12352672 -0.094594955 0.055033725 0.121443346 -0.07965735 0.09351722 -0.21790865 0.1024396 0.20145325 -0.24368355 0.17406529 0.09678098 -0.0124665545 0.065322354 0.18573567 0.016845841 0.001285574 -0.14995518 0.03143261 0.085320756 -0.06344333 -0.015406654 0.2786587 0.09919649 -0.09053479 -0.14403732 0.05979759 0.12014495 -0.014500371 0.28488252 -0.04675524 0.012292194 0.079742394 0.1506321 -0.019297834 -0.05408742 0.030409222 0.019119836 -0.13327235 -0.02384361 0.29374328 0.054867998 0.019411108 -0.15618731 0.1409772 0.074998505 0.09101407 0.15917784 -0.017526638 0.072384015 -0.044443086 -0.20349611 -0.07848528 -0.14032254 -0.050467532 -0.0028955427 -0.0105804615
22 -0.02314745 -0.05634495 0.03207696 -0.12074877 0.053765427 -0.019462861 0.10543999 -0.03636901 -0.06849998 -0.157787 -0.22927262 0.09028059 0.06076737 -0.18110989 -0.021545926 0.08935182 0.00255621 -0.012926047 0.040538367 -0.0421769 0.066615164 -0.10741102 0.07711791 -0.084548265 0.0270665 0.039786015 -0.05821803 -0.03088056 0.06694666 0.13479061 0.0004206529 -0.043284666 -0.02504188 -0.17176148 0.012972995 0.22858551 0.09507874 0.059026703 0.0957479 -0.111942224 -0.06627444 0.14228587 -0.13952172 0.109309554 0.09626289 0.083201244 0.019876681 -0.09329104 0.024869537 -0.01644668 -0.06310957 -0.02031822 -0.0464713 -0.31629092 -0.0788365 0.0064796894 0.2487493 0.013915105 -0.039474756 -0.06490942 0.12543857 -0.008354298 -0.010079655 -0.16035779 -0.15524171 -0.06845014 -0.12113867 -0.063215934 0.008831434 0.023631347 -0.08360376 -0.1297159 -0.10118049 0.059877727 0.13127244 -0.09152528 0.10555015 -0.22460997 0.118085995 0.21816888 -0.25027683 0.19464433 0.105114326 -0.009731183 0.07429998 0.18768235 0.020694131 0.012054701 -0.13741843 0.03715912 0.07703693 -0.07210194 -0.017711163 0.29263163 0.08969541 -0.09499803 -0.14809085 0.07777214 0.11445884 -0.01943328 0.29620638 -0.050541695 0.017641174 0.09052645 0.16012843 -0.012015594 -0.058364414 0.0477244 0.007885187 -0.12898266 -0.04223599 0.31364903 0.057080243 0.014688869 -0.17699705 0.14480792 0.07549169 0.08254644 0.152004 -0.0034321782 0.07912024 -0.049639028 -0.19223808 -0.08557332 -0.13846856 -0.060780045 0.0035080113 -0.009367762
10 0.0021581347 -0.05535192 0.02538101 -0.10342434 0.06100395 -0.013390307 0.121713206 -0.028516967 -0.040573843 -0.17209712 -0.22583587 0.11181314 0.05823569 -0.17472307 -0.02917897 0.06440163 0.0017211173 -0.013128013 0.05852042 -0.0479955 0.040193167 -0.10998807 0.069501966 -0.08365649 0.035068214 0.04788745 -0.05016245 -0.026333064 0.06396698 0.13602035 0.014003953 -0.03509945 -0.0113888215 -0.15819143 0.029371483 0.20065562 0.08683755 0.04871315 0.11531473 -0.09677257 -0.076672666 0.14741719 -0.116957285 0.10808036 0.091023855 0.07758197 0.0046836846 -0.080752246 0.027695509 -0.037796207 -0.068290375 -0.041805517 -0.05161815 -0.27447706 -0.06691286 -0.010575923 0.22530659 0.029086353 -0.04668666 -0.051128343 0.10477014 -0.025095604 -0.0071539744 -0.15783574 -0.16226238 -0.06482255 -0.11523917 -0.06594294 0.003294083 0.026890447 -0.056295022 -0.112706944 -0.08543415 0.035825502 0.10018462 -0.07105016 0.08232706 -0.20602486 0.09487677 0.18188906 -0.23452514 0.16747521 0.092987254 -0.011396485 0.062281094 0.17712069 0.00822139 -0.0038469099 -0.15346897 0.03295134 0.08816933 -0.053967454 -0.0047518546 0.26736298 0.10785813 -0.0773273 -0.14207827 0.058120046 0.12710911 -0.0047332947 0.26120448 -0.03417936 0.010573862 0.058323193 0.13835365 -0.023491433 -0.056240696 0.024092576 0.023865223 -0.13001737 -0.018166339 0.26937762 0.046323046 0.01719312 -0.14574823 0.13881655 0.07526306 0.088174425 0.14802857 -0.023152363 0.07726648 -0.042184222 -0.20619002 -0.07330011 -0.13218991 -0.0319393 -0.008383003 -0.0019257946
33 -0.01496958 -0.052736133 0.027746627 -0.116482496 0.056507222 -0.016923092 0.11171207 -0.037442137 -0.067632765 -0.15944634 -0.22153042 0.093465306 0.0575276 -0.16992936 -0.022294473 0.07822692 0.0049538384 -0.012302528 0.043438375 -0.035974458 0.05825349 -0.108733006 0.078860834 -0.08325409 0.025713269 0.038969923 -0.05252637 -0.029680103 0.061600726 0.12784494 0.007437083 -0.033246312 -0.022211736 -0.16262911 0.013905109 0.21534084 0.09410705 0.055124227 0.097331315 -0.108351916 -0.0662636 0.13712183 -0.13508096 0.106663086 0.089804664 0.07755284 0.017232085 -0.08823747 0.0253939 -0.021814203 -0.06865653 -0.02350614 -0.04696363 -0.2981897 -0.07295629 0.0018209137 0.23283955 0.016034074 -0.041817855 -0.058003843 0.10961744 -0.01261761 -0.0104559 -0.15414399 -0.15623248 -0.06358042 -0.12129651 -0.06618248 0.01153198 0.029248403 -0.07083174 -0.12073529 -0.09883866 0.04977243 0.114595 -0.081654854 0.09636035 -0.21296777 0.10280267 0.19896223 -0.24259874 0.18325329 0.10175958 -0.014831742 0.07068864 0.18163389 0.017010741 0.012142478 -0.13660705 0.028984567 0.07862075 -0.06359494 -0.012709658 0.2825613 0.094472736 -0.08589023 -0.14688066 0.0717397 0.113197155 -0.022302717 0.2808961 -0.045661293 0.015549044 0.08680204 0.15204665 -0.0107666375 -0.05599436 0.040375758 0.01453107 -0.12842602 -0.03201583 0.2976209 0.05149119 0.013781697 -0.16531067 0.13841215 0.07127435 0.08413377 0.14026512 -0.012188414 0.076438606 -0.04269594 -0.19056204 -0.07310048 -0.12533334 -0.05200688 0.0013141424 -0.002494595
3 -0.0046631647 -0.051768214 0.031608783 -0.109890305 0.06466907 -0.014752538 0.11755909 -0.03709032 -0.057989784 -0.17847064 -0.23132259 0.108438976 0.05382072 -0.16770862 -0.025590327 0.06502134 0.0054724724 -0.011292555 0.043842554 -0.037009012 0.05446314 -0.11126442 0.072061725 -0.07865646 0.03259658 0.043173783 -0.052080736 -0.03442815 0.060899846 0.1327505 0.011127075 -0.031263467 -0.01897956 -0.15825476 0.023056462 0.21268608 0.090546735 0.043915138 0.106244095 -0.110165514 -0.0714593 0.13544455 -0.1267735 0.107185684 0.09272236 0.07528918 0.01622094 -0.08726439 0.021837499 -0.037081342 -0.07398418 -0.026701733 -0.049105544 -0.28679958 -0.06801925 0.0030253667 0.2311428 0.015313394 -0.04699904 -0.054912884 0.1054893 -0.010536814 -0.01604369 -0.16067217 -0.16526915 -0.06351457 -0.124316424 -0.068879604 0.015406225 0.02712253 -0.05844231 -0.12477708 -0.10105415 0.046196226 0.10611628 -0.08388226 0.09686857 -0.21290153 0.09107726 0.18810198 -0.24064411 0.18157493 0.10781089 -0.014228207 0.06418386 0.18727286 0.017234517 0.010666328 -0.13960594 0.029990006 0.07763741 -0.05835825 -0.004494328 0.27944654 0.10375731 -0.07588627 -0.15213688 0.06641401 0.11619523 -0.016742945 0.27491823 -0.03685694 0.02037855 0.07848718 0.14833768 -0.015124599 -0.05391194 0.03399207 0.019133974 -0.12973416 -0.030389167 0.290923 0.043649264 0.014127109 -0.16320011 0.13722369 0.07435058 0.08892205 0.14402862 -0.019033624 0.080187544 -0.048507396 -0.19899377 -0.069672674 -0.13134575 -0.0449486 -0.002977525 -0.0006216696
24 -0.0155370375 -0.05636389 0.030489583 -0.11861859 0.064381585 -0.019224716 0.12124586 -0.037735444 -0.06311566 -0.18028939 -0.24054813 0.10557271 0.062244035 -0.17100385 -0.023757447 0.07711487 -0.00082301645 -0.011734856 0.040478516 -0.03586196 0.06294712 -0.10353159 0.075412564 -0.08018788 0.032209992 0.0423311 -0.05430442 -0.032828655 0.061735407 0.1263102 0.0055008363 -0.037307855 -0.024923407 -0.1581965 0.016693331 0.21690127 0.089976564 0.047639187 0.092623025 -0.112585805 -0.0679843 0.13443694 -0.13082476 0.10841882 0.088844456 0.08168386 0.02364923 -0.08722291 0.022651076 -0.023570165 -0.06887799 -0.020862866 -0.044769965 -0.2962832 -0.072411686 0.0039522243 0.2310704 0.008602906 -0.03963012 -0.06208426 0.11369614 -0.0062824464 -0.0067210104 -0.15910426 -0.15732679 -0.06931546 -0.12028443 -0.067440875 0.010582583 0.026131498 -0.06920326 -0.12641253 -0.1003216 0.051245846 0.120250836 -0.08432057 0.10117372 -0.21555214 0.10362436 0.19799457 -0.24107897 0.18539236 0.10648789 -0.0071862987 0.06461531 0.18048446 0.024535771 0.00968922 -0.13387823 0.031189654 0.07531674 -0.061230596 -0.016370576 0.2834504 0.095661014 -0.08094928 -0.14910348 0.0720902 0.10963589 -0.022595301 0.27576128 -0.047607243 0.019424194 0.087283134 0.14887175 -0.015115718 -0.055955786 0.03682517 0.012029449 -0.12939666 -0.03741351 0.29855463 0.052594665 0.012714125 -0.1716394 0.13759764 0.07420681 0.087648034 0.14450276 -0.013146679 0.07977467 -0.04498583 -0.19481972 -0.07411058 -0.13201375 -0.05537393 0.003520067 -0.006116015
28 -0.0020877768 -0.05184093 0.029035347 -0.10156412 0.056440637 -0.012875546 0.11005165 -0.028845016 -0.05118161 -0.16705845 -0.22770059 0.10335972 0.053155713 -0.16280818 -0.02671535 0.06798645 0.007522413 -0.007537148 0.05150557 -0.044958033 0.050833914 -0.110816106 0.07180464 -0.086883746 0.038235817 0.047389258 -0.051780716 -0.026960004 0.059235044 0.13243014 0.01398525 -0.04131794 -0.01681822 -0.16089849 0.019791039 0.20674063 0.09479667 0.051447794 0.112041146 -0.10706437 -0.07292817 0.14114746 -0.12238375 0.10903661 0.096358225 0.08511109 0.013169527 -0.094598986 0.026051706 -0.041391432 -0.07192301 -0.033663344 -0.049858246 -0.28930923 -0.07367952 -0.0046112332 0.22715662 0.017997054 -0.04714373 -0.060000017 0.10039852 -0.017384086 -0.015126187 -0.15733752 -0.16067497 -0.060228344 -0.121541984 -0.068319574 0.007777204 0.027009504 -0.06007632 -0.12000713 -0.09757381 0.04379823 0.101445474 -0.082745634 0.09119173 -0.21112765 0.09948194 0.18339705 -0.23607476 0.17728958 0.096842766 -0.010136056 0.06621811 0.18374905 0.011724522 0.010011972 -0.14432469 0.037239272 0.07521787 -0.060325433 -0.00730194 0.27471378 0.098851554 -0.082759574 -0.1474138 0.06046294 0.1254754 -0.022436723 0.27431092 -0.037052773 0.019197773 0.06807889 0.14360178 -0.019467467 -0.05104665 0.022486242 0.017419944 -0.136192 -0.035286766 0.28810564 0.043421242 0.01930803 -0.16318613 0.14415085 0.07759639 0.09108566 0.14339367 -0.025761664 0.07987029 -0.043412 -0.2002615 -0.06776699 -0.13724674 -0.041607473 -0.0029793428 0.004069906
23 0.002655415 -0.05072139 0.018454319 -0.097018026 0.06463842 -0.015780125 0.11576913 -0.034213644 -0.0388418 -0.1714627 -0.21069744 0.10696635 0.05225336 -0.15398526 -0.036276225 0.051855095 0.0035114535 -0.007873825 0.054414894 -0.0452017 0.04556949 -0.11594521 0.07109745 -0.09068999 0.04106754 0.06285973 -0.054496847 -0.030196732 0.053722605 0.13595195 0.008928654 -0.029529521 -0.015110281 -0.15350579 0.02468791 0.20247167 0.09633513 0.03993581 0.11490752 -0.09603515 -0.0776605 0.14871736 -0.11262475 0.11045253 0.08630442 0.08139711 0.0074486514 -0.093838535 0.026356023 -0.04274296 -0.06813716 -0.05045399 -0.053829305 -0.28108507 -0.06847771 -0.012494882 0.22316143 0.021235209 -0.04909795 -0.056911275 0.093389414 -0.017811112 -0.009176748 -0.16545446 -0.16916303 -0.06076282 -0.11775479 -0.07435836 0.006593404 0.040318303 -0.04100463 -0.11473208 -0.08844049 0.030467356 0.089703426 -0.086674236 0.08351612 -0.20718497 0.088618815 0.17174158 -0.23420487 0.17512031 0.10605614 -0.010818738 0.06617405 0.18020411 0.011109043 0.004484418 -0.15328814 0.0313181 0.08010788 -0.059488237 0.00081751327 0.2761091 0.116174504 -0.07773381 -0.15029979 0.058636393 0.13119237 -0.01068943 0.25503087 -0.028276905 0.0160575 0.054798894 0.13437873 -0.021342034 -0.057800252 0.01365402 0.020749168 -0.13983625 -0.026943987 0.27179396 0.03251935 0.017446736 -0.16216022 0.14400502 0.07245585 0.08752995 0.135214 -0.03132579 0.07869175 -0.034223475 -0.216804 -0.063505955 -0.13272074 -0.026747288 -0.011932043 0.0068173255
48 -0.0017110526 -0.058594506 0.02646678 -0.10608203 0.062313497 -0.01559248 0.12041415 -0.034762494 -0.05434035 -0.17647092 -0.22379549 0.10346732 0.05223907 -0.16044821 -0.030210707 0.062372763 0.0060195387 -0.0069150804 0.051947597 -0.039510444 0.05519864 -0.11166815 0.070493385 -0.08190423 0.031158565 0.050211184 -0.055843655 -0.03227283 0.06103243 0.13345292 0.008434018 -0.03796121 -0.020998238 -0.15555486 0.025734713 0.20718214 0.08715125 0.048884828 0.109034434 -0.10627664 -0.07141834 0.13855132 -0.124903284 0.108485386 0.09230131 0.0790528 0.018321447 -0.090606324 0.025843618 -0.035754018 -0.069805905 -0.028236657 -0.04467665 -0.28162822 -0.07034329 -0.0070960345 0.22502328 0.019480787 -0.044578455 -0.05451606 0.10312774 -0.015042535 -0.012478148 -0.15932152 -0.16399075 -0.06792225 -0.11927218 -0.065755986 0.014241976 0.027886905 -0.05478557 -0.11827448 -0.09813583 0.04316143 0.09802425 -0.08474806 0.09167095 -0.21194002 0.0982032 0.18411274 -0.23279454 0.18035556 0.09903427 -0.011507269 0.06181687 0.17809755 0.015189001 0.008205657 -0.1426987 0.03121608 0.079343334 -0.05957824 -0.004833354 0.2758946 0.1035142 -0.079643354 -0.14233334 0.07055526 0.12138715 -0.016292507 0.26232377 -0.040759634 0.014866298 0.07318006 0.1465222 -0.018989364 -0.05610665 0.02788424 0.020470139 -0.13134041 -0.028608464 0.28157464 0.04478281 0.015628152 -0.16160747 0.13882619 0.07465164 0.0888583 0.13985363 -0.024683043 0.081054404 -0.041896634 -0.2016191 -0.06599991 -0.12920764 -0.0399279 -0.008380961 0.0050845323
9 0.00034689961 -0.052559458 0.028487407 -0.09914122 0.056874216 -0.009697873 0.11754966 -0.0264431 -0.04209752 -0.16250172 -0.2143287 0.107217334 0.0565229 -0.16782793 -0.023899753 0.05956366 0.005748329 -0.011918662 0.056076802 -0.044568036 0.044237915 -0.10473381 0.06786087 -0.08679303 0.03703515 0.049975045 -0.052475914 -0.03263534 0.05832658 0.13537312 0.014139734 -0.04070405 -0.009076865 -0.15347771 0.028775698 0.20615546 0.088707976 0.051138774 0.11467626 -0.0906203 -0.083707795 0.15007682 -0.1184405 0.1106535 0.09157337 0.077953465 0.006668369 -0.08567225 0.03183538 -0.04211678 -0.07025276 -0.04550278 -0.051274713 -0.28091174 -0.07052492 -0.006310773 0.22196475 0.02935164 -0.0500708 -0.049430653 0.09921854 -0.022715043 -0.010695831 -0.15989392 -0.16421711 -0.069232136 -0.11641118 -0.06662531 0.005194002 0.03476027 -0.050689194 -0.110240206 -0.08730467 0.03413681 0.09783045 -0.07330234 0.085873626 -0.20907283 0.094254784 0.18129481 -0.23524876 0.16834806 0.09440309 -0.010690794 0.065297075 0.18272772 0.007144235 -0.00052393175 -0.15826043 0.036500577 0.08501492 -0.05901826 -0.004338608 0.27383462 0.10847649 -0.08363147 -0.14229235 0.062330633 0.13099949 -0.010330234 0.2663475 -0.029696774 0.016409468 0.05325453 0.1432806 -0.022313496 -0.052033804 0.021621993 0.029307006 -0.13291436 -0.021687388 0.26923007 0.033423916 0.022160098 -0.15161708 0.14782055 0.07419563 0.090486676 0.150415 -0.032554187 0.07857155 -0.041437637 -0.2146779 -0.06587736 -0.1300418 -0.027704462 -0.014195368 0.0047985762
46 -0.012361704 -0.05878076 0.027211532 -0.11174377 0.057606854 -0.014482137 0.10928007 -0.032067697 -0.055673465 -0.16146636 -0.22713515 0.09253114 0.0609782 -0.17228658 -0.019536976 0.07321743 0.00023820026 -0.011507332 0.046870824 -0.03840145 0.052319203 -0.1047452 0.069304705 -0.08049616 0.027017752 0.037634443 -0.05296573 -0.030753355 0.05813704 0.1282447 0.01123752 -0.038714163 -0.016593972 -0.15609488 0.024151625 0.20852973 0.08330389 0.05455949 0.09547557 -0.10382573 -0.07073738 0.14097597 -0.12768304 0.10470763 0.08771604 0.079993546 0.015726801 -0.0833551 0.030060465 -0.028717615 -0.06475182 -0.025146013 -0.04756287 -0.28975722 -0.07175025 -0.0008319004 0.22474787 0.02351371 -0.039701942 -0.053215552 0.112510934 -0.015512192 -0.0056540873 -0.14914283 -0.15621783 -0.06498683 -0.11788521 -0.061901648 -0.00068061496 0.026213175 -0.06640212 -0.12165758 -0.09502031 0.04761126 0.11817665 -0.07759761 0.09619442 -0.2139526 0.09850741 0.19446425 -0.2363861 0.1767832 0.09505098 -0.007158428 0.06410568 0.18146834 0.01405484 0.00550165 -0.14337829 0.029808806 0.083593845 -0.063572384 -0.00946933 0.27364078 0.096804254 -0.083783 -0.14727645 0.06495346 0.116520025 -0.013217294 0.2826611 -0.045889214 0.014841589 0.07528793 0.15328678 -0.017142003 -0.059335858 0.0342889 0.015206527 -0.13383958 -0.027159775 0.2938007 0.049802765 0.014037861 -0.16202834 0.14574584 0.07878693 0.09377573 0.152813 -0.015506844 0.08136773 -0.040335048 -0.20047432 -0.08058468 -0.14001784 -0.04119972 -0.0029617262 -0.0034322694
13 -0.0032058926 -0.054098688 0.023970176 -0.09823622 0.05608414 -0.012019235 0.114434 -0.03202982 -0.046647105 -0.16570535 -0.20960967 0.09513445 0.050741296 -0.16426827 -0.026104832 0.058082614 -0.0005878629 -0.008593924 0.055345576 -0.03759838 0.044676546 -0.10626329 0.06763367 -0.08787143 0.030795354 0.05252492 -0.05698202 -0.03264349 0.057776894 0.13503896 0.0071327058 -0.032214597 -0.016820438 -0.15534732 0.026332688 0.2006564 0.086395375 0.047046643 0.1069128 -0.10254367 -0.077508 0.14145885 -0.11683994 0.10213562 0.08623681 0.07844512 0.012074067 -0.08910131 0.024467574 -0.03786786 -0.065482356 -0.032872926 -0.044166688 -0.27907637 -0.067262456 -0.0042086155 0.21786225 0.020357387 -0.041627795 -0.05217723 0.09657599 -0.016123677 -0.013017399 -0.15908176 -0.15958935 -0.061614435 -0.118373685 -0.06785352 0.005862906 0.028634192 -0.054997478 -0.11390134 -0.08612997 0.04203173 0.10023585 -0.083010375 0.08322912 -0.20944756 0.09057829 0.17999333 -0.23192689 0.16672435 0.09918897 -0.005295291 0.06412339 0.17559792 0.0135346325 0.0031313184 -0.14717288 0.033465054 0.07666 -0.06153209 -0.008239723 0.2723468 0.10315444 -0.0810213 -0.13941686 0.06426906 0.12331508 -0.016627412 0.2621133 -0.039347365 0.015113478 0.06144082 0.13837726 -0.018525079 -0.055000987 0.019428859 0.022778537 -0.13185519 -0.025501782 0.2737435 0.04520781 0.01901673 -0.15294304 0.13745612 0.067041874 0.09048287 0.13655962 -0.025929302 0.07928122 -0.035148047 -0.20089875 -0.06901622 -0.13384388 -0.035872243 -0.005423803 -0.0009783285
36 -0.022889396 -0.052467283 0.03360466 -0.12511922 0.058691442 -0.02247705 0.11699039 -0.044446822 -0.07511722 -0.17188063 -0.24015534 0.08976875 0.062432192 -0.18092872 -0.020534433 0.08855847 -0.0017081011 -0.013459604 0.03486887 -0.033355944 0.05686949 -0.10366105 0.08085508 -0.07322749 0.02464644 0.029210256 -0.058754202 -0.032759402 0.06376518 0.12678918 0.006705679 -0.041233916 -0.022441536 -0.16870014 0.017349713 0.22058356 0.0866867 0.06040742 0.09174623 -0.11769554 -0.06927934 0.13814627 -0.13476725 0.1087964 0.089299455 0.07808847 0.023715118 -0.07718248 0.02476217 -0.018496322 -0.06569008 -0.014689568 -0.044296253 -0.30584103 -0.06882299 0.008708709 0.24388932 0.009404403 -0.039243508 -0.06144992 0.12696812 -0.009283549 -0.009233519 -0.15163851 -0.15472649 -0.06850417 -0.11917021 -0.06652606 0.00535462 0.02062617 -0.077341765 -0.13145444 -0.10177539 0.059764832 0.13292433 -0.09075825 0.10272204 -0.22594786 0.1097357 0.2149034 -0.25046 0.18625998 0.1064998 -0.008773945 0.06550372 0.18396683 0.024126925 0.013928238 -0.13493977 0.03199227 0.07978397 -0.06309761 -0.015183142 0.29004174 0.0914156 -0.08972275 -0.14827846 0.07361907 0.10655345 -0.0174035 0.29019168 -0.054721814 0.01747644 0.09394365 0.15828568 -0.012777659 -0.05709306 0.04412158 0.011667719 -0.124269806 -0.036534075 0.3133771 0.05921717 0.012799429 -0.1706046 0.13907436 0.070635304 0.084447995 0.15477273 -0.0055709323 0.07680852 -0.049605772 -0.18759336 -0.08262112 -0.1355272 -0.060359135 0.007617105 -0.014571041
17 0.01369107 -0.047363184 0.013601761 -0.080672055 0.05850394 -0.018126165 0.108081855 -0.030763729 -0.031204227 -0.160855 -0.19379413 0.11693152 0.05724563 -0.12733194 -0.042108707 0.03737441 0.018577341 0.0077068284 0.0621436 -0.03933926 0.05499335 -0.1246364 0.06560555 -0.09938358 0.053849064 0.0745293 -0.056126036 -0.039120074 0.052752394 0.14892413 0.010407832 -0.025739804 -0.008431366 -0.14463198 0.02169632 0.20621614 0.10037963 0.018879388 0.13119972 -0.092756085 -0.0792094 0.14448714 -0.10912828 0.108319305 0.091406025 0.080671735 0.0062528835 -0.10683239 0.020951634 -0.05004946 -0.071021736 -0.057904355 -0.05916463 -0.26456136 -0.06884234 -0.016308306 0.21731456 0.023062298 -0.0562061 -0.05620189 0.07155085 -0.00914713 -0.01619128 -0.16753958 -0.18389305 -0.06310832 -0.1126656 -0.08045923 0.020406356 0.046290595 -0.028398346 -0.11986876 -0.09069474 0.010597798 0.0705392 -0.084074296 0.07532685 -0.20847893 0.08579625 0.1505195 -0.22455037 0.18037896 0.11108704 -0.01075786 0.07685016 0.18184435 0.014806925 0.020419687 -0.14435887 0.036318004 0.076594286 -0.050508186 0.004122678 0.27473846 0.11521376 -0.060898237 -0.15047064 0.063552976 0.13685115 -0.016075622 0.24207443 -0.016058758 0.022529908 0.03882355 0.12614022 -0.028662395 -0.050988875 0.012567843 0.028800728 -0.13529412 -0.03439432 0.25235602 0.013406423 0.011642041 -0.17174752 0.14875625 0.073706515 0.08571321 0.118552126 -0.051824383 0.08598422 -0.033481237 -0.22280675 -0.04325411 -0.13239045 -0.020948099 -0.021421911 0.020020222
38 0.033837277 -0.036463834 0.008538347 -0.047326844 0.06489147 -0.009777878 0.10373491 -0.012023657 0.0016996976 -0.16511956 -0.1665966 0.13113038 0.04738798 -0.11758051 -0.0550704 0.012297026 0.015902149 0.0051250444 0.082184516 -0.04941967 0.04254117 -0.12964483 0.05116846 -0.10464606 0.06819856 0.10228036 -0.05267744 -0.036962826 0.04449094 0.15849404 0.021310749 -0.028807592 0.0101474505 -0.13131535 0.041736536 0.18416849 0.10465976 0.00959869 0.15289575 -0.073835604 -0.0987316 0.15803422 -0.0815102 0.113193326 0.08988046 0.07119916 -0.009324255 -0.111432426 0.027707584 -0.079923354 -0.07442651 -0.09076726 -0.06338998 -0.23040019 -0.071375 -0.029597547 0.19057435 0.040267974 -0.06450251 -0.04599414 0.043798503 -0.025241602 -0.013467997 -0.17101243 -0.1961902 -0.062791996 -0.11087935 -0.094955735 0.022159854 0.059283506 0.0076969154 -0.10156001 -0.073415376 -0.018086076 0.026599228 -0.07314806 0.04950507 -0.1915212 0.0619144 0.10578882 -0.20409574 0.15616323 0.104100786 -0.011566868 0.06684843 0.16890682 0.0014229479 0.003652227 -0.16958421 0.041129794 0.079481624 -0.041427344 0.017497074 0.25243747 0.14044088 -0.04828502 -0.15107921 0.047513764 0.15139759 -0.007149982 0.19813067 0.006277992 0.017416216 -0.0047478583 0.1062005 -0.041461643 -0.042233694 -0.028039355 0.043918528 -0.14535554 -0.023530977 0.2050464 -0.005968659 0.016446397 -0.14317966 0.14532217 0.07346182 0.08924883 0.10630075 -0.07869732 0.0911164 -0.02416142 -0.24838991 -0.02464527 -0.13033554 0.011253246 -0.0383123 0.029682862
2 0.04122984 -0.041351315 0.013556913 -0.055593587 0.06914845 0.0031463725 0.12071849 -0.008657021 0.00976483 -0.17451778 -0.18374725 0.13735981 0.04107702 -0.12998593 -0.045281816 0.012952513 0.0150629785 -0.001488447 0.08785054 -0.054436967 0.02627921 -0.12656775 0.04507513 -0.09979629 0.066084094 0.09294138 -0.05202896 -0.029298656 0.046150446 0.15566897 0.0257708 -0.029343655 0.0073063625 -0.1305276 0.053060096 0.16885154 0.094876036 0.023560846 0.15092884 -0.06719093 -0.103266075 0.16145703 -0.077091806 0.108616 0.08713576 0.073920034 -0.010037099 -0.095451914 0.036654964 -0.07936325 -0.078068785 -0.09130157 -0.061435625 -0.22003731 -0.06666164 -0.029456323 0.18353269 0.050805315 -0.056174904 -0.033935156 0.058492225 -0.030213162 -0.0104666455 -0.15816866 -0.19046493 -0.065981574 -0.10712513 -0.090891615 0.006988349 0.051441714 0.009339777 -0.09420881 -0.06795635 -0.013341955 0.028406678 -0.06823485 0.046075776 -0.1833705 0.063082986 0.108694576 -0.19677873 0.14328797 0.091164075 -0.0046440195 0.05394884 0.16684154 0.002138495 -0.0062853554 -0.18101999 0.03424723 0.09160507 -0.047558617 0.021706972 0.2388236 0.1430998 -0.05004456 -0.13801105 0.036448408 0.15568347 0.00536519 0.1896909 0.011100431 0.0058984146 -0.014127728 0.1011365 -0.04646066 -0.04195017 -0.034363493 0.051628485 -0.14430797 -0.009382993 0.19288734 -0.008300442 0.022679636 -0.12016022 0.13994096 0.067358874 0.09180377 0.121338226 -0.0809873 0.08579202 -0.018275918 -0.2580489 -0.034877732 -0.12436095 0.025636084 -0.044590704 0.030251369
6 0.026367119 -0.03814854 0.011020688 -0.06282112 0.0603023 -0.006628831 0.10954738 -0.0124463495 -0.010020847 -0.16376893 -0.18695094 0.12026676 0.046168838 -0.13082536 -0.041850798 0.024542933 0.0089545315 -0.0016467287 0.06981424 -0.045200236 0.039117742 -0.11814468 0.05156616 -0.0983959 0.057111844 0.08299855 -0.05392147 -0.034096994 0.05189073 0.14786601 0.017589442 -0.033286843 0.00031799014 -0.13257433 0.038481344 0.18020113 0.0928534 0.02450846 0.14298213 -0.07777305 -0.08798253 0.15235698 -0.08788735 0.105430976 0.083873846 0.07852164 -0.00211299 -0.096810855 0.024926543 -0.06733651 -0.06799341 -0.070756495 -0.05744919 -0.23604035 -0.07067921 -0.018886423 0.19393896 0.036134474 -0.055503957 -0.04430124 0.065712 -0.020930704 -0.011865871 -0.15877025 -0.17818041 -0.06691813 -0.10885265 -0.083310984 0.012198327 0.04331969 -0.008239397 -0.10405522 -0.07587922 0.007566249 0.055317618 -0.0711309 0.058272768 -0.18777397 0.07616378 0.12894446 -0.2075827 0.15565489 0.09468984 -0.004903833 0.06404864 0.171369 0.0046867705 0.00317647 -0.16944471 0.036497623 0.0786509 -0.0525229 0.009261794 0.24536957 0.12815493 -0.055899967 -0.13632444 0.04449871 0.13927452 -0.0036707367 0.21529236 -0.0060186214 0.012901367 0.015105531 0.1155962 -0.034545094 -0.043867826 -0.010479853 0.035137065 -0.13734804 -0.018330878 0.2252647 0.0072501893 0.019621987 -0.14611413 0.14078203 0.06767145 0.09599674 0.12563197 -0.06143947 0.08682329 -0.024360714 -0.23398033 -0.03843695 -0.13416062 -0.0036258216 -0.029106475 0.017802672
1 0.024009915 -0.038185854 0.013585642 -0.05445263 0.0656929 -0.009620285 0.10183282 -0.0134653915 -0.0089371195 -0.15765853 -0.1707181 0.1304072 0.047957763 -0.113082446 -0.053288456 0.016443817 0.020857241 0.0026979288 0.07395343 -0.04209396 0.058636215 -0.13848433 0.059256677 -0.10613706 0.07018668 0.0889383 -0.049623813 -0.047701813 0.042677976 0.15415539 0.013544027 -0.027621878 -0.00042425975 -0.145137 0.036018576 0.2030443 0.105419695 0.009452903 0.15585776 -0.09306313 -0.08916444 0.15539658 -0.10028586 0.116033636 0.09290152 0.06651497 0.003649692 -0.121523924 0.028780727 -0.07324912 -0.08528207 -0.08576428 -0.06775031 -0.25201175 -0.06619751 -0.021771716 0.20780398 0.022216631 -0.06802334 -0.054826293 0.04794565 -0.014365293 -0.016001 -0.1790922 -0.1965149 -0.06910167 -0.118799016 -0.087582625 0.037217986 0.059380423 0.0035217619 -0.11260636 -0.0908718 -0.011381536 0.040704142 -0.0903452 0.06268454 -0.1969977 0.06648064 0.121024035 -0.21971591 0.1785397 0.10978588 -0.01728814 0.067791924 0.18523921 0.012358542 0.016738292 -0.15536565 0.039885968 0.08142551 -0.044054605 0.01237611 0.27243587 0.13477859 -0.053486947 -0.15914549 0.0597555 0.14865872 -0.013213141 0.21322307 0.0008428542 0.024086663 0.023348385 0.113104455 -0.035296787 -0.04359788 -0.0065476527 0.041625634 -0.14014086 -0.027959187 0.23206265 -0.0035110384 0.012355089 -0.16501053 0.14339903 0.065571524 0.08909998 0.10536192 -0.07348182 0.09130525 -0.030702118 -0.23812272 -0.022492163 -0.1263751 -0.00094294094 -0.030454153 0.031807266
19 0.037400234 -0.03130148 0.010359115 -0.041784693 0.070086375 -0.012396125 0.11427079 -0.014900785 0.006057475 -0.16325943 -0.16613337 0.14113428 0.048101436 -0.09677029 -0.062477928 -0.0026129875 0.029210562 0.014135902 0.07539335 -0.04049159 0.04898542 -0.14176813 0.056208238 -0.112359226 0.07553919 0.10045793 -0.046001386 -0.046170678 0.040504556 0.15542124 0.023254681 -0.017709028 0.010850892 -0.13037683 0.04096179 0.18951485 0.11094189 -0.0057190983 0.16664909 -0.08705554 -0.10255803 0.1566532 -0.09064895 0.111326784 0.08460866 0.06696299 0.0017168758 -0.12172292 0.021947782 -0.08994735 -0.084319316 -0.09509489 -0.07193423 -0.23293366 -0.060934726 -0.024611827 0.1868847 0.03032875 -0.07196746 -0.048911132 0.031204814 -0.012558314 -0.024708766 -0.17806152 -0.20703939 -0.06563388 -0.111609556 -0.10099161 0.038028333 0.07019413 0.019574026 -0.10387195 -0.08640373 -0.020247165 0.014355998 -0.086221814 0.055978786 -0.1947241 0.05303739 0.0934346 -0.20881967 0.17334057 0.10922478 -0.016608967 0.06453689 0.17979072 0.004431891 0.013327635 -0.15971054 0.04216524 0.07733745 -0.037663404 0.023632418 0.25742435 0.14607641 -0.04344674 -0.15450947 0.055087168 0.15876448 -0.015101746 0.1905509 0.013915237 0.02482103 0.0042244554 0.10620486 -0.034866292 -0.03824867 -0.022396665 0.05465969 -0.14522646 -0.02937801 0.21736678 -0.018473059 0.019323895 -0.1561739 0.14573711 0.07267676 0.093799874 0.0969414 -0.087988116 0.096929215 -0.020563856 -0.24764927 -0.009265914 -0.12843026 0.015633715 -0.03972555 0.040321857
40 0.17147748 -0.016154386 -0.032346345 0.08513511 0.090744905 0.075248465 0.15815693 0.08661468 0.19265349 -0.20707051 -0.11533912 0.24226107 0.004323418 -0.101119205 -0.07983171 -0.1186631 0.016064446 -0.0043063145 0.20453091 -0.111763574 -0.07320142 -0.16997682 -0.022710716 -0.15508556 0.15293558 0.2294377 -0.048079267 -0.009702634 0.033219453 0.23709515 0.074070536 -0.048917025 0.09415784 -0.07978762 0.16231492 0.07649578 0.11074633 -0.022397332 0.3147665 0.044814758 -0.20912808 0.2587485 0.061046254 0.13468818 0.09459126 0.072881706 -0.1029249 -0.11758423 0.07949565 -0.21733335 -0.08919809 -0.27581948 -0.11018064 -0.06705842 -0.07871455 -0.11148483 0.1113436 0.15979871 -0.09439086 0.03932841 -0.033974044 -0.10769795 -0.02658838 -0.18905208 -0.29352477 -0.075640015 -0.10201838 -0.14714919 -0.03849101 0.11372107 0.18979199 -0.019788831 0.022383142 -0.152504 -0.14338274 -2.6017573e-05 -0.076809734 -0.13693355 -0.01881813 -0.054438647 -0.14219457 0.039880928 0.050586227 0.020194998 0.031797677 0.16176431 -0.06099853 -0.09277611 -0.38781056 0.058322515 0.16529804 -0.030826572 0.09849333 0.16617627 0.287183 -0.010525891 -0.12968372 -0.05733624 0.29962227 0.07952816 0.05743333 0.13087001 -0.026949627 -0.2647513 0.0061290185 -0.13010456 -0.036411755 -0.21195483 0.1378826 -0.22613057 0.07614267 -0.0004851268 -0.13911884 0.06524017 -0.028664121 0.1905267 0.086917505 0.13856812 0.14478993 -0.22954446 0.104702525 0.040950004 -0.4823164 0.012353934 -0.15955077 0.20636229 -0.14318329 0.08717409
49 -0.04641097 -0.055450033 0.04419587 -0.14552979 0.055619527 -0.031387426 0.113745056 -0.051806074 -0.10350854 -0.1662024 -0.2526279 0.08434043 0.07204789 -0.1901528 -0.014989789 0.11255844 -0.0023828547 -0.014835524 0.021464612 -0.025899459 0.08340883 -0.0991331 0.091961935 -0.06881889 0.010567754 0.007387297 -0.06008977 -0.042874325 0.06764624 0.11812488 0.0004055077 -0.03466583 -0.035718508 -0.17762017 -0.0015207079 0.24792184 0.09331535 0.067864574 0.067961246 -0.13363755 -0.05369515 0.12636319 -0.16250879 0.104347534 0.09313666 0.07736755 0.038318515 -0.083308555 0.023410112 -0.0011373496 -0.0728228 0.0126079805 -0.04313657 -0.34111673 -0.06865056 0.02462362 0.26031968 -0.0085734455 -0.040735107 -0.07274296 0.14335234 0.0033101176 -0.005549455 -0.15703443 -0.1437307 -0.0712077 -0.12654959 -0.056997832 0.017594414 0.018828964 -0.11530634 -0.13967101 -0.1184697 0.08636574 0.16165663 -0.09641484 0.12615442 -0.23829854 0.12691635 0.24690549 -0.26334202 0.21199659 0.11616745 -0.01795299 0.07137709 0.18939866 0.033283483 0.02439676 -0.10229182 0.025943598 0.066408314 -0.07197991 -0.029719362 0.3116624 0.072732784 -0.10283272 -0.15771265 0.09487893 0.09087287 -0.033990875 0.32734326 -0.06667709 0.022541342 0.14396128 0.18019162 0.000112148264 -0.053990107 0.07895491 0.0020416803 -0.11760246 -0.051998354 0.35614577 0.08107165 0.0072723674 -0.19187038 0.14026952 0.07494904 0.078674585 0.15536404 0.019637913 0.074366465 -0.06585329 -0.15972866 -0.086060986 -0.12946054 -0.09304212 0.016273238 -0.019041337
16 -0.02619998 -0.053332146 0.033030663 -0.12099942 0.06134941 -0.026387755 0.119966194 -0.04028192 -0.07421514 -0.17146412 -0.23939748 0.09544241 0.06342984 -0.18199702 -0.026146179 0.08502169 -0.00052507705 -0.013218304 0.042909082 -0.03851643 0.06394667 -0.10830909 0.08045021 -0.08421071 0.029536692 0.035877872 -0.06064048 -0.031809587 0.06844744 0.13037291 0.0058745486 -0.034805875 -0.022530984 -0.17234129 0.011587037 0.23446786 0.09702483 0.062226888 0.10032855 -0.12017857 -0.07171462 0.14210159 -0.14061303 0.10959276 0.097749986 0.088179536 0.027066786 -0.08680807 0.023329303 -0.023993779 -0.069867745 -0.021385945 -0.043651678 -0.32298306 -0.07122834 0.007797401 0.25369564 0.01185499 -0.046245597 -0.069548935 0.121217474 -0.012861922 -0.011560234 -0.16891739 -0.15861602 -0.069430284 -0.12829195 -0.06429331 0.011831654 0.025800342 -0.07835348 -0.13249075 -0.102066495 0.057602305 0.12869588 -0.09348584 0.10774438 -0.23118751 0.11517886 0.22042172 -0.25812367 0.19935775 0.10567079 -0.009504844 0.06828065 0.19245945 0.023511868 0.015601107 -0.13867234 0.0369357 0.078650154 -0.065394245 -0.01803759 0.30149984 0.09645308 -0.09056815 -0.15096408 0.07509639 0.11186319 -0.019138008 0.29623932 -0.049095497 0.018964933 0.10210802 0.1640387 -0.00843116 -0.056774687 0.04545775 0.014580192 -0.13293469 -0.03631965 0.32302397 0.05691251 0.01920805 -0.18091644 0.1475991 0.07612958 0.08830671 0.1526778 -0.010694363 0.07801123 -0.0512088 -0.19146419 -0.08084832 -0.13307117 -0.062413648 0.0021767335 -0.003570211
12 0.027249288 -0.041159038 0.015786475 -0.0603222 0.06255686 -0.0074110003 0.109260775 -0.019701606 -0.007192582 -0.16924942 -0.18017611 0.12488265 0.050397493 -0.12434292 -0.046276174 0.025204662 0.017213691 0.0033064848 0.07539625 -0.047046967 0.047079112 -0.13159408 0.058020208 -0.10528946 0.062826656 0.091054805 -0.053293493 -0.03985109 0.04868721 0.15387735 0.018362844 -0.025479916 0.0017654728 -0.13693146 0.036550008 0.1929839 0.10306588 0.016157273 0.14336441 -0.08110173 -0.09334575 0.15171294 -0.092035286 0.11482723 0.08546777 0.07638827 -0.0007240107 -0.1046893 0.027809756 -0.072207615 -0.07954605 -0.0803977 -0.057466045 -0.24719855 -0.07290875 -0.025389642 0.19879676 0.031984035 -0.061474532 -0.046310704 0.06346255 -0.014952004 -0.012872304 -0.1715885 -0.19146113 -0.06475995 -0.11625336 -0.0875204 0.021790545 0.052031722 -0.0036175624 -0.11040274 -0.08388047 -0.00520703 0.045627862 -0.08174165 0.059902195 -0.19701529 0.07446325 0.12365925 -0.21303383 0.16443308 0.103513286 -0.010600048 0.06311345 0.1724342 0.008348696 0.0053658644 -0.16312052 0.03696048 0.08076581 -0.05133838 0.015412473 0.25789645 0.13184528 -0.054164503 -0.14471228 0.053828225 0.14565885 -0.008877906 0.21098498 -0.0019488789 0.015634088 0.01698241 0.11600721 -0.03483799 -0.043371893 -0.013437318 0.03792713 -0.13915779 -0.022220682 0.22688696 0.0051900563 0.012792539 -0.15146402 0.14056085 0.073873036 0.09319747 0.11571063 -0.063535325 0.08870843 -0.03127755 -0.24174778 -0.03520913 -0.13397692 -0.0025897312 -0.030750804 0.022839809
32 0.19675872 -0.018767223 -0.041391917 0.106595546 0.099248365 0.083971605 0.16630632 0.09764772 0.22333024 -0.21552268 -0.11029987 0.2611916 -0.0027060139 -0.092837915 -0.090411656 -0.14051843 0.02098186 0.0036815966 0.22967277 -0.118750595 -0.08969046 -0.19133142 -0.033360183 -0.1741363 0.16567776 0.2570561 -0.051542852 -0.0042584306 0.037268642 0.26168567 0.0839721 -0.0438298 0.10478381 -0.08037753 0.1793974 0.062690176 0.11711645 -0.03120212 0.34565374 0.05643894 -0.2309916 0.28035975 0.08096685 0.13621 0.090359166 0.076510146 -0.114421524 -0.11661764 0.083527334 -0.24585901 -0.09370762 -0.30381736 -0.11877094 -0.04497393 -0.08888906 -0.12508537 0.09398639 0.18607542 -0.10548943 0.04815783 -0.05594529 -0.122081675 -0.023468262 -0.19474845 -0.3161832 -0.07452953 -0.10360409 -0.16051793 -0.050340746 0.12328822 0.22801027 -0.013044216 0.037100192 -0.18000335 -0.17301568 0.006163433 -0.09343616 -0.12852113 -0.030980524 -0.08384851 -0.12965956 0.01942693 0.042612378 0.020898543 0.027474202 0.16133642 -0.06957551 -0.10728774 -0.4139852 0.057685614 0.17446128 -0.028045304 0.109477095 0.15618894 0.31321302 0.0018178057 -0.12788145 -0.07295161 0.31826463 0.090136975 0.026570376 0.1476983 -0.033182878 -0.3058759 -0.007597959 -0.14219522 -0.036557924 -0.2430456 0.14885016 -0.2362615 0.08920869 -0.035105202 -0.15661871 0.06916738 -0.004815644 0.19974135 0.0876748 0.14577077 0.14800715 -0.25896797 0.10898717 0.05096047 -0.5169017 0.026342485 -0.16634311 0.23715185 -0.1639863 0.09125739
4 0.21798666 -0.022150913 -0.04755009 0.12435751 0.11094532 0.095317714 0.17756347 0.10539506 0.25363216 -0.23653312 -0.1082611 0.2922972 -0.0039471295 -0.094227955 -0.100177296 -0.16229784 0.023513235 0.0047640516 0.2557642 -0.12683685 -0.10288303 -0.20389941 -0.039440345 -0.18871322 0.18204837 0.28172666 -0.054501854 -0.005450734 0.03513525 0.2808886 0.09233663 -0.053143643 0.11683225 -0.0769314 0.19767179 0.06049992 0.12770182 -0.04023652 0.37880695 0.06594188 -0.2535853 0.3035925 0.09097002 0.15209657 0.09670035 0.077399336 -0.1277757 -0.12834184 0.089081295 -0.27131018 -0.09949602 -0.33488673 -0.13263835 -0.03906755 -0.08937084 -0.1404613 0.09550601 0.20295827 -0.113233596 0.057924088 -0.064395264 -0.12872961 -0.02977066 -0.21103433 -0.34503624 -0.07655079 -0.111071095 -0.17118637 -0.0535751 0.13346016 0.24972235 -0.0074018375 0.03978963 -0.19871317 -0.19658916 0.009013876 -0.10719511 -0.1342265 -0.04024954 -0.097501755 -0.13376564 0.01870999 0.04814052 0.025747452 0.030394694 0.16721788 -0.07810232 -0.11553358 -0.45509186 0.06682756 0.18803018 -0.03192864 0.12260943 0.16075835 0.34141183 -0.0028855621 -0.13442813 -0.07953539 0.35537028 0.10248044 0.026411556 0.16067134 -0.033432897 -0.34075752 -0.0155093605 -0.15569961 -0.044519894 -0.26770964 0.1626105 -0.2551662 0.0964003 -0.043542534 -0.17537968 0.07392532 -0.0019226703 0.21515138 0.09632082 0.15796123 0.15515794 -0.28916907 0.11654222 0.06177177 -0.5654968 0.033390403 -0.17740145 0.26529327 -0.17599738 0.103610866
51 0.23699698 -0.02195382 -0.047601487 0.13565129 0.110062666 0.10123402 0.18989255 0.119516104 0.27228582 -0.2466062 -0.10974254 0.30119994 -0.006648728 -0.09842396 -0.106096394 -0.17892645 0.028510708 0.0032501584 0.27256513 -0.1342826 -0.11388226 -0.21140769 -0.05025184 -0.19564945 0.1945961 0.3020985 -0.058383718 0.0012623729 0.036818363 0.29706967 0.10198448 -0.05383812 0.12947242 -0.07828761 0.21343108 0.05503393 0.13306949 -0.044227865 0.39988235 0.075580455 -0.26896334 0.31590772 0.104396775 0.15043332 0.100937836 0.07556164 -0.13723621 -0.1330237 0.092019245 -0.2828607 -0.10773338 -0.3544902 -0.13348575 -0.02443968 -0.09598353 -0.14973767 0.0868491 0.21767576 -0.1219084 0.06601106 -0.07892178 -0.14278515 -0.025517832 -0.2166276 -0.3586786 -0.07543667 -0.11019063 -0.18120146 -0.059012372 0.13922013 0.2722141 -0.0070685125 0.04795002 -0.21153414 -0.2146754 0.014186985 -0.12080768 -0.13737981 -0.053059172 -0.12193211 -0.13646594 0.00742227 0.041018657 0.025925318 0.03020655 0.17097671 -0.09066335 -0.12230784 -0.47507593 0.066860795 0.19786344 -0.031488173 0.12650336 0.1592664 0.36161208 0.0056278957 -0.13592856 -0.089135736 0.3737922 0.11058523 0.0068441355 0.17517072 -0.03563831 -0.3664185 -0.01604905 -0.16639133 -0.042404395 -0.29548147 0.17998834 -0.27169695 0.1100488 -0.06379475 -0.19044179 0.08578936 0.0056147617 0.22052507 0.09838746 0.16719797 0.15980685 -0.307612 0.12474471 0.07217983 -0.6000512 0.034776278 -0.18921 0.28126815 -0.19072089 0.110496484
34 0.2084263 -0.022501837 -0.040654555 0.117849074 0.10884351 0.09565746 0.18376066 0.10803775 0.24589626 -0.24257715 -0.1189124 0.2879389 -0.0043925354 -0.10216847 -0.10034369 -0.15971956 0.026597746 -0.00026754392 0.25602472 -0.12808442 -0.09699156 -0.19782294 -0.04228284 -0.1871371 0.17605835 0.27426988 -0.058989692 -0.008886063 0.0413987 0.28378797 0.08851809 -0.051475797 0.11362 -0.08266426 0.19624065 0.06300037 0.1250846 -0.030008355 0.37056872 0.06771765 -0.25302985 0.30333066 0.086982444 0.15244982 0.10511685 0.08141864 -0.124853 -0.13058327 0.09215174 -0.26237223 -0.102796145 -0.33202308 -0.12577543 -0.04378209 -0.09036087 -0.14313515 0.09770115 0.20303757 -0.11579663 0.06011758 -0.061933294 -0.13244158 -0.028614702 -0.21094026 -0.34423992 -0.07963644 -0.11076428 -0.17633103 -0.051007565 0.13335884 0.24594879 -0.008518193 0.040488467 -0.19173068 -0.18514581 0.010536576 -0.102188 -0.13931884 -0.035185624 -0.0973914 -0.14392294 0.017296791 0.04562904 0.024722474 0.03209637 0.16451648 -0.07788055 -0.11726602 -0.45486656 0.06889121 0.18508482 -0.033903316 0.11325668 0.16305768 0.33515346 0.0011969426 -0.13088192 -0.078364775 0.34883866 0.099764585 0.029316558 0.16404289 -0.03304816 -0.32848322 -0.005450803 -0.15277536 -0.038598053 -0.27100015 0.16384013 -0.26079458 0.09966822 -0.04482466 -0.17347649 0.08083326 -0.008946544 0.21367806 0.08995235 0.1582673 0.16166122 -0.28555307 0.114882514 0.06337705 -0.56156033 0.032068074 -0.17315452 0.26193056 -0.17404465 0.105748564
26 0.21186917 -0.016480682 -0.040399414 0.11202234 0.10583346 0.090428375 0.17629021 0.105586044 0.24623342 -0.23479085 -0.10828284 0.2838271 -0.00086701685 -0.09346292 -0.10099273 -0.16126744 0.024052715 0.0027200496 0.25045732 -0.12730022 -0.09386188 -0.20218743 -0.039126378 -0.18621744 0.17738193 0.27471066 -0.05303147 -0.00846865 0.03426163 0.27707425 0.08555529 -0.049063407 0.11686648 -0.07375801 0.18846913 0.060184475 0.12110658 -0.034559254 0.36669227 0.063599735 -0.24056695 0.2963378 0.09448989 0.14313555 0.096049085 0.07803619 -0.12463443 -0.12972106 0.08921068 -0.26110423 -0.10427077 -0.32617787 -0.12799464 -0.036354735 -0.08956513 -0.13663901 0.09687599 0.19661544 -0.114474826 0.051120326 -0.06485006 -0.13052043 -0.025946397 -0.21007353 -0.3345079 -0.07985642 -0.11011294 -0.16666391 -0.04935859 0.13343833 0.24895678 -0.0085648885 0.035016377 -0.19775663 -0.18814303 0.006946106 -0.10743526 -0.12901701 -0.040747408 -0.10198792 -0.13633242 0.018034404 0.045599345 0.027136728 0.027156655 0.16320078 -0.076707564 -0.11117072 -0.44044366 0.06635122 0.178682 -0.0312323 0.12029869 0.15480866 0.33115858 0.0045840372 -0.13662522 -0.073651135 0.34156343 0.096068695 0.016691217 0.16441359 -0.033766225 -0.3301135 -0.014248574 -0.15155022 -0.041971233 -0.26647082 0.16081 -0.2515996 0.09351569 -0.047840863 -0.17455411 0.076198265 -0.003978696 0.2059074 0.09210449 0.14755584 0.14763944 -0.2830322 0.110088564 0.060213186 -0.548981 0.03621481 -0.17027974 0.2590092 -0.17101134 0.10108691
54 0.21097256 -0.026786046 -0.04074207 0.11138441 0.10989914 0.09102805 0.1824197 0.105576955 0.24173523 -0.23874107 -0.12922573 0.2895115 -0.005261928 -0.10726508 -0.095190346 -0.14743653 0.020649334 0.0032153376 0.24791718 -0.123544656 -0.096229725 -0.20152764 -0.031838477 -0.18676329 0.17327209 0.27254203 -0.058075566 -0.001829332 0.03992242 0.27672747 0.08544043 -0.05202561 0.11251268 -0.08141791 0.19317761 0.07113813 0.124609955 -0.03172195 0.3664437 0.062394258 -0.24410959 0.29930785 0.08521554 0.15074606 0.10199861 0.0817032 -0.12006503 -0.13053563 0.09477121 -0.26272112 -0.102281585 -0.32325628 -0.123755686 -0.051859234 -0.095232174 -0.13879097 0.100472555 0.20342852 -0.1121114 0.054570872 -0.053217 -0.13033488 -0.022422763 -0.21413188 -0.33903554 -0.08009461 -0.11422965 -0.1714189 -0.050246786 0.12510474 0.23909941 -0.010143658 0.037705798 -0.1886674 -0.17852898 0.0024575363 -0.09629042 -0.14740275 -0.034621295 -0.08554465 -0.14181484 0.027326899 0.048325904 0.024126483 0.03221962 0.17375657 -0.077742346 -0.11624668 -0.45007128 0.06802691 0.18593793 -0.03138787 0.11237752 0.1723763 0.3311764 -0.007642876 -0.13915177 -0.07647223 0.3470732 0.09296049 0.03731541 0.15438612 -0.036501516 -0.32405344 -0.0020189204 -0.1544453 -0.045089584 -0.26474118 0.16309904 -0.25348526 0.09591692 -0.032935373 -0.16152602 0.07479115 -0.009853615 0.20824495 0.09115271 0.15417929 0.16375965 -0.27957278 0.116402954 0.056473345 -0.55383253 0.028380785 -0.17533074 0.25395042 -0.16956991 0.09694837
7 0.21727584 -0.016671197 -0.044621002 0.12215339 0.110419035 0.10024412 0.18472286 0.10916007 0.25240317 -0.2376566 -0.11301783 0.2914971 -0.008586276 -0.10157786 -0.094763026 -0.16119687 0.022091558 0.00044874585 0.25784358 -0.1295942 -0.101096354 -0.20018102 -0.03948323 -0.18362455 0.17871176 0.27828175 -0.056385193 -0.0024495427 0.038094528 0.28350723 0.092938244 -0.053813457 0.11931668 -0.07351902 0.19617651 0.06317387 0.11950122 -0.03643619 0.37161705 0.074134395 -0.25300232 0.30453637 0.099457525 0.1521825 0.10321 0.07675146 -0.13170856 -0.12826498 0.09256234 -0.26941222 -0.10095045 -0.33444384 -0.12743245 -0.03330237 -0.093303 -0.14241779 0.09434938 0.20881346 -0.11466474 0.062279806 -0.058677353 -0.13379723 -0.02325618 -0.21150258 -0.33546177 -0.076980606 -0.10881507 -0.17123073 -0.05349858 0.13095176 0.24810879 0.00012222983 0.047072675 -0.19664972 -0.19503608 0.01456046 -0.1137527 -0.1350878 -0.042745642 -0.099528074 -0.13551357 0.009443691 0.038024828 0.030349597 0.02661486 0.16159756 -0.080994874 -0.12321423 -0.45785895 0.06522435 0.18728627 -0.028255636 0.11630892 0.15641685 0.34225166 0.001576922 -0.13260625 -0.0870022 0.35175133 0.10334586 0.01745714 0.16245992 -0.03822603 -0.3444416 -0.018589756 -0.15399085 -0.04391948 -0.27476 0.16904049 -0.25546658 0.1000511 -0.057424527 -0.17857288 0.077051096 0.0018036006 0.20768483 0.09326492 0.15165214 0.15906718 -0.28664097 0.11171258 0.060956664 -0.5635638 0.032237377 -0.17688702 0.26761702 -0.17759682 0.10453148
43 -0.0415118 -0.06431791 0.045048706 -0.14790699 0.058273997 -0.03254363 0.12210566 -0.04918441 -0.09967623 -0.1734644 -0.25340435 0.08865888 0.07187292 -0.19211833 -0.01550975 0.1101597 -0.00070944685 -0.016345954 0.024888648 -0.03510167 0.07781402 -0.10199341 0.09474004 -0.07362931 0.01110565 0.010399909 -0.05903027 -0.040309146 0.07285877 0.12442448 -0.004912532 -0.035078745 -0.03339435 -0.18095547 0.0011437173 0.24747571 0.09388467 0.06990344 0.07476353 -0.12656412 -0.057322156 0.13187781 -0.16253483 0.10615621 0.09281251 0.08261395 0.031322744 -0.080611914 0.025537817 -3.38811e-05 -0.0698602 0.0103772 -0.03921239 -0.34093383 -0.0723055 0.015395012 0.25945917 -0.0013181431 -0.035686664 -0.075049385 0.14557293 0.00112079 -0.0062474017 -0.16506451 -0.14795463 -0.073305145 -0.12620634 -0.052513618 0.013795399 0.018078296 -0.11070061 -0.13676898 -0.1138313 0.08265878 0.15954201 -0.09297898 0.12174455 -0.23679051 0.12553214 0.24623884 -0.27266762 0.21399827 0.110624194 -0.01269097 0.07540298 0.19646356 0.031851947 0.016512906 -0.112151004 0.02986998 0.06971507 -0.07111217 -0.027339954 0.30979502 0.07976298 -0.09890564 -0.15454607 0.09677281 0.09920159 -0.028780622 0.3215758 -0.07046155 0.023290427 0.13384826 0.1801933 -0.002221434 -0.06271926 0.076789804 0.0007931353 -0.121226795 -0.044447627 0.3484529 0.08107918 0.012526449 -0.18613997 0.14232804 0.07899454 0.08079173 0.15783639 0.019792661 0.07687182 -0.0656487 -0.1713265 -0.09247818 -0.12825172 -0.08346724 0.011281711 -0.014142552
44 0.0070061474 -0.04736323 0.024098996 -0.09383822 0.057252225 -0.008017264 0.12270807 -0.028595015 -0.041060966 -0.17405719 -0.22236162 0.11309724 0.04788381 -0.1610323 -0.027223669 0.055234257 0.0025505638 -0.012885947 0.059945785 -0.041058585 0.039826427 -0.11045493 0.06816782 -0.08480528 0.036898613 0.054903425 -0.055805713 -0.025355542 0.060245045 0.13727726 0.019708855 -0.0345249 -0.010468155 -0.1554911 0.028899629 0.19958854 0.09075252 0.04575722 0.11727023 -0.09585228 -0.0855007 0.15010351 -0.11223886 0.10874539 0.09073731 0.07793375 0.011244522 -0.08193517 0.033977505 -0.04600104 -0.073729314 -0.047952157 -0.048169654 -0.26772445 -0.070723444 -0.0063570063 0.2132704 0.034888826 -0.049991183 -0.049758714 0.09764822 -0.020011874 -0.013425004 -0.16069557 -0.16961549 -0.061436318 -0.11741504 -0.0708364 0.0053436332 0.035589375 -0.044440772 -0.1118609 -0.08745701 0.033614125 0.09109308 -0.07216427 0.07761741 -0.20843355 0.08647605 0.17403583 -0.23107417 0.16962726 0.09572295 -0.0065705124 0.06013036 0.18328802 0.009027409 -0.0004291483 -0.15988499 0.037189025 0.08514972 -0.05457757 -0.0040395358 0.26219755 0.117538646 -0.07889279 -0.1435847 0.05107498 0.13397925 -0.010235722 0.25814947 -0.029747399 0.00910671 0.05150244 0.13801883 -0.021941025 -0.05465851 0.0082893 0.025096899 -0.13580167 -0.017724806 0.2680327 0.03706293 0.022179063 -0.14486814 0.13932389 0.07198054 0.092094876 0.14849085 -0.03780105 0.0729771 -0.036196154 -0.22052376 -0.06459845 -0.13020787 -0.028436253 -0.015316908 0.0005563251
41 0.05102076 -0.035987303 0.0021531687 -0.033401717 0.06693278 0.009167857 0.12186605 0.0077980882 0.034306906 -0.17509487 -0.17388001 0.14186822 0.03465739 -0.1188858 -0.05185299 -0.0069434703 0.013584917 0.0008785486 0.102255 -0.062476937 0.010389771 -0.12698431 0.033018023 -0.10729617 0.07187564 0.10741023 -0.055230603 -0.029875614 0.043337308 0.16382155 0.03281279 -0.03623311 0.018863048 -0.12391127 0.06466861 0.1551536 0.09879007 0.011980989 0.1675123 -0.056088254 -0.11663573 0.17571017 -0.057215046 0.116774894 0.082812525 0.07695028 -0.025838299 -0.10391335 0.03853788 -0.098127514 -0.06902242 -0.11580677 -0.067605585 -0.2053696 -0.07488633 -0.045119435 0.17183337 0.061842885 -0.06434242 -0.027005032 0.045879677 -0.042336375 -0.017889375 -0.16420658 -0.19646597 -0.062217437 -0.10285361 -0.09712901 -0.005425414 0.059161633 0.029418463 -0.083429396 -0.056428302 -0.023536643 0.014031034 -0.060321156 0.032623224 -0.17452168 0.055018965 0.09010967 -0.19451392 0.123615146 0.080612145 0.0035868688 0.058995064 0.16140386 -0.005865346 -0.01614696 -0.2106046 0.03989157 0.099621706 -0.053357694 0.023546144 0.23009819 0.16226408 -0.054275952 -0.13274913 0.02330093 0.17649433 0.007120353 0.18346743 0.020172287 0.011421389 -0.049405143 0.08867821 -0.053476218 -0.041221954 -0.05583894 0.056322575 -0.16278087 -0.003866151 0.17282304 -0.020817973 0.031251583 -0.11505261 0.1495573 0.0745852 0.10165984 0.12752914 -0.09810546 0.08251878 -0.0062474585 -0.28883418 -0.031443924 -0.14159109 0.03845538 -0.046357803 0.03349293
31 0.016451487 -0.043433726 0.017335515 -0.06959013 0.06734033 -0.0017416306 0.11481189 -0.00836398 -0.015033714 -0.16683409 -0.19874534 0.12542911 0.051209126 -0.14575154 -0.036155425 0.03306864 0.009080475 -0.0013445844 0.071111105 -0.053383496 0.03861987 -0.11561087 0.04515925 -0.10630346 0.053016532 0.08079034 -0.05857978 -0.034983005 0.05595383 0.1566307 0.013366697 -0.038841337 -0.0047882297 -0.14151792 0.040708385 0.18116988 0.097053595 0.037481774 0.1407889 -0.074393585 -0.08712089 0.15777367 -0.08834839 0.11082891 0.09275539 0.08805726 -0.0038516035 -0.102213055 0.029031707 -0.056324303 -0.06681433 -0.06894766 -0.053331804 -0.2539862 -0.07265687 -0.023375038 0.20041852 0.037809514 -0.050789237 -0.03723799 0.07661083 -0.025159493 -0.01648582 -0.16297477 -0.17752512 -0.06330121 -0.1145784 -0.08315899 0.006102119 0.042725645 -0.023035126 -0.10397911 -0.07720878 0.010717645 0.070497945 -0.07159581 0.05915764 -0.19561227 0.08335407 0.14161992 -0.21557374 0.15030691 0.08825508 0.00030441763 0.05919977 0.1617498 0.010166597 -0.0030814453 -0.17755902 0.041471377 0.0808298 -0.065367736 0.0051541277 0.2550787 0.12873825 -0.0685545 -0.13934977 0.048413396 0.13576657 -0.004760957 0.23141654 -0.007938479 0.016706737 0.01270211 0.11622649 -0.03384018 -0.047593705 -0.009611461 0.027383536 -0.14239757 -0.018592883 0.23556443 0.0050771227 0.018575616 -0.14037973 0.1469618 0.06801665 0.088687 0.13236946 -0.05623974 0.081248984 -0.028609691 -0.2378694 -0.05647801 -0.13653627 -0.00822687 -0.020812789 0.010576569
53 0.0099861035 -0.043745015 0.012978058 -0.07337481 0.05693753 -0.0074156616 0.10693196 -0.02012242 -0.023131955 -0.16287762 -0.19343413 0.11602177 0.04484764 -0.13787328 -0.037011765 0.040908825 0.010834473 -0.002604575 0.070318654 -0.046373576 0.045363434 -0.1197059 0.054233503 -0.09733414 0.05510859 0.072352625 -0.052736435 -0.03423148 0.051149223 0.15258849 0.015476954 -0.029450957 -0.005566506 -0.14574534 0.036431495 0.19168764 0.09969644 0.03738992 0.13416281 -0.08388402 -0.09016287 0.15256731 -0.09163342 0.109457105 0.08563665 0.08188309 0.0023415743 -0.09864704 0.026630217 -0.057853226 -0.067811936 -0.06725242 -0.056011714 -0.25719476 -0.06719903 -0.020252174 0.2004492 0.03171218 -0.05001346 -0.043738853 0.077438794 -0.01909387 -0.015185582 -0.16321486 -0.1716752 -0.06884999 -0.10992759 -0.08473725 0.008175487 0.04368121 -0.020790549 -0.10494195 -0.07754067 0.01409809 0.06889723 -0.07168281 0.061247878 -0.19463329 0.08032402 0.14269666 -0.21835381 0.15832469 0.09174614 -0.0052185487 0.059663847 0.16756907 0.011317674 0.001177168 -0.16419786 0.035710376 0.07950431 -0.062151026 0.004045648 0.25590402 0.12615709 -0.06440123 -0.13633117 0.05317621 0.14310126 -0.0047918777 0.22903161 -0.01098346 0.018821163 0.019866405 0.123319395 -0.035505567 -0.045315187 -0.0012633342 0.029746834 -0.13933648 -0.021333262 0.23589632 0.0070834677 0.020389438 -0.14959154 0.14952257 0.07399869 0.09099983 0.12942237 -0.053477872 0.08337239 -0.032292828 -0.23329182 -0.04828249 -0.13650657 -0.01102602 -0.019813305 0.015456489
21 0.038487453 -0.031914216 0.01344869 -0.03958476 0.06376046 -0.022202032 0.10239722 -0.026003277 -0.01159423 -0.1677073 -0.15450926 0.13693185 0.052084416 -0.088211596 -0.06922171 0.0015578989 0.027938373 0.01778859 0.06878115 -0.034880877 0.053993654 -0.15221539 0.074509256 -0.10911564 0.07421748 0.108185746 -0.052830312 -0.05389891 0.03784832 0.15188336 0.018891191 -0.009153635 0.00076024607 -0.14336875 0.024922512 0.2021551 0.11341112 -0.020444028 0.16957133 -0.10359525 -0.10088322 0.14711791 -0.10278584 0.11032639 0.088955596 0.062061142 0.0054884404 -0.13302676 0.013928542 -0.091529794 -0.08873192 -0.0915429 -0.06789369 -0.24535275 -0.059234113 -0.01603851 0.19078863 0.024523951 -0.07415238 -0.06366538 0.02304275 -0.007302294 -0.021304779 -0.18547848 -0.21598758 -0.06686624 -0.12487984 -0.098917 0.056158047 0.07374316 0.023091713 -0.12283394 -0.10440981 -0.02473336 0.018072786 -0.10555493 0.06689444 -0.20254222 0.050002087 0.09302476 -0.21059668 0.19442804 0.12530525 -0.026455835 0.07782195 0.19668339 0.010244871 0.033920646 -0.14409962 0.037245676 0.07612408 -0.029711364 0.020377148 0.273648 0.13774464 -0.03589797 -0.17432982 0.06262803 0.15382731 -0.023773216 0.19150925 0.0070888717 0.025579313 0.018190583 0.106598996 -0.030288864 -0.043240465 -0.019557739 0.05043002 -0.13667904 -0.034946937 0.2298101 -0.009178751 0.0033025125 -0.17024241 0.1443758 0.065480486 0.092545554 0.083269045 -0.092512876 0.09840806 -0.028908301 -0.23409826 -0.0011809457 -0.12632777 0.0010370027 -0.038847156 0.045131005
14 0.055096786 -0.034590818 0.0003583366 -0.026070647 0.05700479 0.023642289 0.11058783 0.014052799 0.04342729 -0.16761833 -0.1572727 0.14385551 0.027139962 -0.1359027 -0.049784716 0.0035721697 0.011317881 0.00066268625 0.1072469 -0.0585561 0.013380882 -0.12993716 0.026556116 -0.11734161 0.074888945 0.119008034 -0.053395595 -0.02684142 0.042942327 0.17648785 0.031341296 -0.041266438 0.023925839 -0.12161115 0.06980459 0.1538275 0.09827917 0.027852751 0.17506331 -0.04166702 -0.12104584 0.18360066 -0.04829002 0.118818164 0.08878473 0.07559555 -0.03439098 -0.09768518 0.046676647 -0.1029431 -0.07507894 -0.12522992 -0.06349176 -0.19546011 -0.078460835 -0.040462773 0.16482909 0.08153993 -0.060631905 -0.018867392 0.04715831 -0.04797778 -0.0073501086 -0.16785808 -0.19956395 -0.06523211 -0.108911574 -0.098712355 -0.010332627 0.056896985 0.043850526 -0.0710272 -0.03779732 -0.03293937 0.016590634 -0.05256873 0.015595876 -0.17537087 0.050181143 0.08954866 -0.1917135 0.11750731 0.077629544 0.0030252356 0.058068823 0.16064548 -0.010711448 -0.032718785 -0.2322404 0.04333718 0.10091838 -0.05638936 0.029570883 0.22349218 0.16490048 -0.05550305 -0.13711116 0.016186228 0.18080096 0.017197238 0.17416525 0.028258229 -0.00090453227 -0.05407675 0.08152974 -0.064466074 -0.04298037 -0.07126644 0.06069529 -0.15981436 0.00017453948 0.16598296 -0.038061265 0.028668622 -0.09862608 0.15850644 0.07111717 0.099002786 0.14003487 -0.09601915 0.078963265 -0.013348072 -0.3016318 -0.04204817 -0.13757356 0.048467804 -0.061795857 0.03285861
37 0.054204334 -0.024659758 0.01014211 -0.028525166 0.06758219 -0.0096607525 0.106784195 -0.010492635 0.011154764 -0.16429515 -0.14315298 0.13861935 0.04812643 -0.08358556 -0.073654704 -0.013491971 0.031577393 0.01397933 0.08613542 -0.047137506 0.044950888 -0.1578638 0.06325454 -0.11473072 0.082893535 0.11730905 -0.048893288 -0.04868885 0.037965897 0.16479538 0.032496303 -0.013298372 0.01748235 -0.13458122 0.040740672 0.18857874 0.10831054 -0.017352564 0.18699647 -0.08566807 -0.107294366 0.15651923 -0.080303825 0.11310962 0.0850367 0.062411454 -0.0046650376 -0.11991421 0.027793989 -0.10650575 -0.08707825 -0.10983465 -0.072614096 -0.2247343 -0.063605465 -0.025493653 0.18551373 0.033901576 -0.08102383 -0.052750748 0.014622256 -0.01985234 -0.02568552 -0.18148328 -0.22459742 -0.06790368 -0.11993177 -0.10290687 0.046276543 0.07881139 0.04540927 -0.109465875 -0.089204155 -0.042950854 -0.0067676944 -0.090428606 0.046681847 -0.19565459 0.042308904 0.07877528 -0.19460875 0.17716259 0.11681656 -0.015476977 0.073460534 0.19053327 0.0018620245 0.022654125 -0.16914669 0.0357201 0.08141619 -0.02789853 0.026980313 0.25971812 0.15384041 -0.029682664 -0.16704041 0.042928495 0.16584319 -0.008381457 0.17506249 0.024818793 0.01745189 -0.008351305 0.09708283 -0.04056886 -0.038244765 -0.034216844 0.064532116 -0.14371213 -0.028674018 0.20243923 -0.027601903 0.00962503 -0.15301737 0.14205141 0.075077996 0.100077726 0.08636279 -0.10767473 0.10086163 -0.023240635 -0.25636318 0.0035273612 -0.1273398 0.031381167 -0.055017754 0.04527253
55 0.080351576 -0.034274388 -0.0025900295 0.0057988293 0.06443784 0.03431398 0.12098911 0.033930965 0.07604106 -0.17370059 -0.15342435 0.16880353 0.015534796 -0.12120567 -0.05026828 -0.02513983 0.014285446 -0.0031761855 0.12875421 -0.07247426 -0.0038802682 -0.13626064 0.014561954 -0.12271962 0.092200935 0.13869327 -0.04673744 -0.020572258 0.043590024 0.18388818 0.04694688 -0.040940687 0.044846427 -0.111866415 0.091754444 0.13287905 0.0996958 0.018664915 0.20884238 -0.017059911 -0.14060654 0.20249856 -0.01739292 0.119456254 0.088257976 0.06698091 -0.046996877 -0.09786081 0.05371904 -0.13230485 -0.083810076 -0.1595807 -0.075332396 -0.16022791 -0.07992823 -0.055551346 0.1497958 0.09725989 -0.07136001 0.0018320794 0.025030332 -0.06562034 -0.009790946 -0.16305417 -0.21563485 -0.06699476 -0.10005612 -0.109647214 -0.01615519 0.068273 0.07962908 -0.06018433 -0.02392683 -0.05552613 -0.021989021 -0.033623986 -0.004755002 -0.16125463 0.03544237 0.05507234 -0.16617925 0.09331481 0.06909169 0.0065681874 0.05120145 0.15194158 -0.020110227 -0.04081901 -0.25991485 0.038112193 0.10644971 -0.050200056 0.04032993 0.19850864 0.18731333 -0.0424786 -0.12659568 -0.00760758 0.2023477 0.032911934 0.13567066 0.054220244 -0.009191584 -0.101377614 0.06323354 -0.07545589 -0.035375856 -0.10339389 0.075360015 -0.1719854 0.018847618 0.12198328 -0.06030445 0.033472132 -0.08035102 0.15838997 0.07432316 0.108291484 0.13759279 -0.12723291 0.07993211 -0.0029537568 -0.32838935 -0.024843639 -0.1392591 0.08513601 -0.081586465 0.040242754
5 -0.0039799074 -0.046569433 0.024516793 -0.090549886 0.08753469 0.00134541 0.11195749 0.0062656947 -0.02500386 -0.16090606 -0.20204301 0.1365155 0.07036956 -0.14881858 -0.046074573 0.046576582 0.0012896626 -0.005706691 0.067166016 -0.0599843 0.07764459 -0.1167041 0.050529785 -0.12460549 0.06258049 0.06839651 -0.07206651 -0.054808233 0.053899188 0.16316697 -0.020566307 -0.055326328 -0.019635312 -0.13891761 0.042330544 0.21068329 0.09712035 0.05791815 0.13329549 -0.07891751 -0.06526382 0.14740239 -0.099675775 0.11546897 0.108710006 0.10174282 -0.0016068129 -0.12824117 0.035687912 -0.033704575 -0.076824866 -0.06473478 -0.06775001 -0.28769994 -0.07641485 -0.027632883 0.22566661 0.010376488 -0.058612097 -0.05593582 0.08781703 -0.0003453774 -0.011787693 -0.18201119 -0.17240375 -0.090382606 -0.094462335 -0.08136705 0.029677192 0.032456003 -0.056027755 -0.10243036 -0.08833207 0.033014797 0.10420416 -0.0733429 0.074493445 -0.20011233 0.119416654 0.1635903 -0.23987524 0.17708951 0.10181865 0.013114363 0.06590738 0.15644678 0.024814837 0.013182445 -0.16407469 0.0475056 0.065928236 -0.08096278 0.000296579 0.29226968 0.106463425 -0.07627967 -0.12696695 0.08533428 0.106764846 -0.012337495 0.26216403 -0.0031552787 0.03194645 0.046051096 0.12789668 -0.03668529 -0.033768266 0.02261413 0.025768073 -0.13782348 -0.041094236 0.24389479 -0.0028467318 0.007441596 -0.17675036 0.1472611 0.05219207 0.08109979 0.13586697 -0.02713874 0.09873889 -0.052799627 -0.21610011 -0.054567885 -0.12986857 -0.015218738 -0.02071812 0.026627755
18 -0.020393794 -0.052906137 0.03265128 -0.11745924 0.0904209 -0.009926699 0.12057212 -0.005697525 -0.05309804 -0.16147587 -0.21540806 0.12696598 0.0809934 -0.16047172 -0.03502822 0.069609225 0.007323281 0.00024451656 0.054618705 -0.052061714 0.10635927 -0.109153174 0.053813145 -0.12221187 0.049375985 0.050598815 -0.08044554 -0.06511196 0.059352215 0.16107564 -0.032039978 -0.05791394 -0.027301122 -0.15392777 0.02903177 0.23352376 0.09308591 0.06476519 0.1218002 -0.10486657 -0.05073312 0.13642456 -0.122335 0.11955421 0.11297784 0.10525862 0.015304497 -0.13613252 0.041016094 -0.01916202 -0.08893447 -0.044119474 -0.06339478 -0.32304823 -0.07885714 -0.019444028 0.25017828 -0.0034900163 -0.053459033 -0.06339523 0.11380442 0.009213156 -0.010689656 -0.19061853 -0.16608943 -0.10003495 -0.09954007 -0.06943724 0.044949945 0.032200977 -0.08965684 -0.113306165 -0.11323101 0.0532283 0.1320903 -0.091905676 0.098337606 -0.22220445 0.14398992 0.19836856 -0.26493 0.20174964 0.10782898 0.012436829 0.0742608 0.16624236 0.037044622 0.02803442 -0.14151056 0.040719323 0.05825989 -0.09333965 -0.015596064 0.31872037 0.0944876 -0.09184832 -0.13228577 0.10254783 0.091068365 -0.020318417 0.29305378 -0.016004657 0.03474288 0.087915935 0.14517719 -0.027467664 -0.034366343 0.05217458 0.01851034 -0.1257531 -0.0617589 0.2797347 0.010233568 -0.0073678857 -0.19737369 0.14847793 0.052094594 0.08480234 0.14356005 0.0024321582 0.09920661 -0.064767934 -0.19838598 -0.07388151 -0.124040306 -0.049350098 -0.015115018 0.020679755
25 0.047348026 -0.043420278 0.008706891 -0.042718578 0.07149897 0.014573839 0.12505189 0.01172845 0.024248999 -0.17697912 -0.18569256 0.1494201 0.03606979 -0.13853577 -0.05384949 0.009778427 0.010872584 -0.0050672735 0.09965814 -0.062992305 0.023106413 -0.1344184 0.03968472 -0.11451671 0.07751277 0.113870375 -0.06085673 -0.033385918 0.050117888 0.17294519 0.025254045 -0.046043362 0.011601885 -0.13049912 0.06904753 0.16814855 0.10266435 0.026199836 0.18060826 -0.06046909 -0.11617598 0.17818283 -0.061598714 0.11727596 0.091259636 0.0834044 -0.021636564 -0.103442065 0.044798702 -0.09554333 -0.076140516 -0.109299906 -0.070788555 -0.22280806 -0.07721822 -0.036260933 0.18827648 0.062212262 -0.06544841 -0.02732006 0.05107317 -0.039137963 -0.012369675 -0.1750678 -0.20295891 -0.06920736 -0.11460148 -0.101981066 0.0021523556 0.051825672 0.020008622 -0.08762121 -0.06120771 -0.015203324 0.033053502 -0.06275571 0.038861055 -0.18884946 0.06681349 0.109997556 -0.20588234 0.13241169 0.085793406 0.0054515824 0.059387863 0.16830619 -0.005663868 -0.019037668 -0.22225216 0.04323934 0.093568094 -0.056757268 0.022411725 0.24975732 0.15862383 -0.06107716 -0.14019124 0.02697968 0.17139116 0.006918715 0.20417647 0.013823914 0.0074552754 -0.037929323 0.100842126 -0.05779812 -0.04184535 -0.0538155 0.055712003 -0.16018257 -0.008920182 0.19551913 -0.022068355 0.02896509 -0.12817398 0.15718473 0.07209137 0.10135431 0.13943908 -0.08987898 0.08620904 -0.016218536 -0.2857148 -0.038243838 -0.14342141 0.036490206 -0.04516169 0.030043969
52 0.062449217 -0.038376868 0.0057396507 -0.019680092 0.06876546 0.025044234 0.12239034 0.021776345 0.049635705 -0.1709152 -0.16684976 0.15549317 0.033747435 -0.12717679 -0.052049983 -0.012850477 0.013557896 -0.0062786858 0.112465195 -0.06584066 0.009544307 -0.13776888 0.025632158 -0.12038535 0.08678158 0.12514381 -0.05346188 -0.021207297 0.04846009 0.17973414 0.03655267 -0.044987015 0.027274631 -0.11777669 0.077975415 0.14779963 0.09938424 0.019413989 0.19319274 -0.036060102 -0.123430945 0.1837516 -0.04450057 0.11530259 0.08702359 0.07623837 -0.03611706 -0.10449619 0.0487976 -0.108392455 -0.07645783 -0.13349748 -0.07299311 -0.18392502 -0.0748313 -0.046285875 0.16884336 0.077271156 -0.06730501 -0.013597143 0.034198064 -0.05423106 -0.016827494 -0.16943975 -0.20699748 -0.06981116 -0.10684741 -0.09980892 -0.0045288666 0.06436119 0.051509492 -0.07218457 -0.043857824 -0.04262404 -0.0014174498 -0.04816014 0.018142998 -0.17222875 0.046137717 0.07533102 -0.18572108 0.111210324 0.07350151 0.004970015 0.054534987 0.1634939 -0.018398568 -0.033470273 -0.23892844 0.04613822 0.101685554 -0.05412144 0.034167167 0.21654448 0.17146075 -0.051324118 -0.13191287 0.017344676 0.18382467 0.020711634 0.16606265 0.033399735 0.0004954242 -0.0696767 0.082327604 -0.06374537 -0.038768668 -0.07733079 0.06456845 -0.16448654 0.007935847 0.15436348 -0.03878781 0.03549627 -0.09706422 0.15254496 0.07192784 0.10308325 0.13240065 -0.11124147 0.085588194 -0.00908631 -0.30926615 -0.02812433 -0.13913086 0.06390766 -0.06269321 0.034007713
47 0.054160543 -0.03383559 0.0034731098 -0.019138977 0.06764283 0.015084141 0.117307946 0.020188525 0.045228515 -0.16735865 -0.15974094 0.14867847 0.03317407 -0.12057964 -0.054000445 -0.0050128917 0.016038205 -0.004770417 0.105566196 -0.061812256 0.013747255 -0.13397229 0.03175851 -0.11912555 0.07945862 0.11292341 -0.055583823 -0.03144465 0.042417847 0.16972941 0.028980546 -0.038883578 0.022554854 -0.115908116 0.07433728 0.14740178 0.098452695 0.022031546 0.18031661 -0.041148324 -0.1210281 0.17774662 -0.048288282 0.1154162 0.09116968 0.07166274 -0.026661372 -0.10329996 0.04417554 -0.10759757 -0.08093727 -0.12806107 -0.067505755 -0.19117112 -0.07201675 -0.04737127 0.17212142 0.068414144 -0.061105877 -0.021916952 0.036923386 -0.04647702 -0.014862957 -0.1665385 -0.20021048 -0.06752487 -0.102974504 -0.100623965 -0.0023296252 0.0548388 0.038715824 -0.0743326 -0.047504988 -0.03734857 0.0052149054 -0.05332208 0.024058148 -0.16697215 0.05126509 0.08312878 -0.18738826 0.115371354 0.0793618 0.0057199653 0.050171524 0.15507145 -0.009715761 -0.019959316 -0.21760046 0.043419726 0.10127483 -0.04768079 0.03175805 0.2256104 0.1611304 -0.0452926 -0.12810422 0.021364834 0.1770887 0.013246452 0.16585213 0.029869625 -0.00012588906 -0.059802044 0.084239736 -0.058303773 -0.03648212 -0.06653592 0.06260274 -0.15365157 0.0014334349 0.16039135 -0.032740947 0.024946108 -0.104399346 0.14846484 0.06595414 0.09667279 0.13101265 -0.10415754 0.08058575 -0.013910503 -0.2884716 -0.029014427 -0.13062982 0.05506885 -0.060544126 0.038735602
8 0.014602731 -0.041354228 0.016851068 -0.06638829 0.06080899 -0.0039466196 0.11001395 -0.0077157514 -0.016056068 -0.1635953 -0.19673692 0.12167316 0.047494363 -0.14492474 -0.039213005 0.032651022 0.0040901545 -0.007995235 0.07478086 -0.04589423 0.04224976 -0.11880697 0.052248895 -0.09733509 0.050934795 0.08106035 -0.05649866 -0.033356316 0.049226113 0.15153137 0.014105679 -0.04005864 -0.004657007 -0.14089614 0.045501493 0.180664 0.097294495 0.034310363 0.14024101 -0.08243001 -0.0918839 0.15783644 -0.089702934 0.11192574 0.092017084 0.07721121 -0.00040032234 -0.10082398 0.031274017 -0.05961247 -0.07404737 -0.07449683 -0.058151692 -0.24658634 -0.07351034 -0.018127056 0.2005692 0.040036924 -0.052851938 -0.038230754 0.075360626 -0.025185896 -0.012996473 -0.15902625 -0.1752745 -0.06785188 -0.11230846 -0.0818239 0.008058597 0.039271023 -0.01546254 -0.103019856 -0.07888606 0.012354047 0.06548304 -0.07246785 0.062442735 -0.19543321 0.07579829 0.13966048 -0.21094385 0.15068753 0.09016417 -0.004579867 0.05835069 0.16422425 0.0051019597 -0.00051601994 -0.17536402 0.04011379 0.079597116 -0.055801548 0.0074496004 0.25663814 0.12879463 -0.068965524 -0.14104015 0.050798427 0.14106275 -0.0029843175 0.22985424 -0.011480255 0.01673399 0.013726135 0.119805194 -0.03623495 -0.04382476 -0.009021646 0.03153704 -0.14079992 -0.023595478 0.23029184 0.0049406164 0.020725107 -0.14393727 0.14687851 0.071350984 0.0923628 0.12775935 -0.051677134 0.08289861 -0.02995045 -0.23162451 -0.049854144 -0.13128762 0.00024084245 -0.022772424 0.01972409
50 0.0060313693 -0.048188794 0.019675639 -0.084888436 0.061137073 -0.0077903816 0.11099528 -0.022266857 -0.03258398 -0.16246893 -0.20610017 0.10561592 0.045826424 -0.15406846 -0.03137174 0.051928032 0.004539233 -0.008459454 0.061713435 -0.045562785 0.048355773 -0.11591279 0.05751974 -0.09482857 0.04280953 0.06561445 -0.050738253 -0.035348337 0.05622412 0.14233968 0.01244579 -0.041135944 -0.008026539 -0.15034999 0.032189116 0.19642293 0.09188337 0.045927376 0.122882575 -0.092946164 -0.08430578 0.15272294 -0.11089418 0.11232202 0.093776196 0.08432955 0.008937701 -0.091807716 0.03269598 -0.046725515 -0.06559688 -0.048131328 -0.04894049 -0.26624748 -0.074953824 -0.009271121 0.20998305 0.03158026 -0.05275178 -0.047260206 0.085675485 -0.021745922 -0.012252252 -0.16132675 -0.1662582 -0.062916696 -0.11281659 -0.07513476 0.010746072 0.037536614 -0.039105065 -0.11001671 -0.0816742 0.027347421 0.089890964 -0.08075032 0.07230309 -0.20339988 0.09222855 0.16201085 -0.22286041 0.16463587 0.09286434 -0.007445419 0.064796224 0.1751169 0.011423077 0.006292015 -0.15575422 0.037503075 0.076789506 -0.061093416 -0.0049948515 0.2638398 0.114855185 -0.07352534 -0.1468546 0.057517897 0.13290879 -0.00906018 0.25405005 -0.02705962 0.013450864 0.03986674 0.13075468 -0.028410893 -0.05181144 0.005310585 0.028348569 -0.1390481 -0.027357126 0.26245633 0.024347467 0.013703802 -0.15364191 0.14513315 0.06887698 0.08922653 0.13528636 -0.036085095 0.076158546 -0.03272408 -0.21563622 -0.060801342 -0.13637787 -0.02731056 -0.01370799 0.008434598
29 0.013283466 -0.054755718 0.018517485 -0.09135737 0.06381567 -0.008593721 0.11798265 -0.029699076 -0.028395789 -0.17448649 -0.21830852 0.12108752 0.050492954 -0.15649603 -0.031259038 0.05087677 0.007398365 -0.010169301 0.06526223 -0.050389312 0.042247612 -0.12227488 0.066753626 -0.093816414 0.045215778 0.06478221 -0.0549774 -0.03107501 0.057975803 0.14589486 0.014736715 -0.031659666 -0.009136748 -0.15564404 0.03296816 0.20024437 0.0966555 0.03641938 0.12481893 -0.09553525 -0.0888041 0.15022579 -0.112538785 0.11246236 0.087763384 0.08025543 0.0025575596 -0.0951115 0.031059392 -0.04961153 -0.07077483 -0.053420946 -0.05874298 -0.26989403 -0.06807161 -0.017995194 0.21611463 0.034524713 -0.052511636 -0.048831273 0.09072375 -0.020435901 -0.008349712 -0.16470386 -0.17279537 -0.06744751 -0.115530394 -0.07959327 0.0018301668 0.04035753 -0.036868285 -0.117034756 -0.09078937 0.023954324 0.08067168 -0.076121025 0.07989281 -0.20591332 0.08858322 0.16455619 -0.2309382 0.16732131 0.09727094 -0.010425986 0.061974213 0.1810594 0.014239057 -0.0007356063 -0.15966414 0.032244224 0.085912816 -0.05453461 0.0019565362 0.2714763 0.12454127 -0.07162432 -0.14369483 0.060938865 0.1366059 -0.0033459263 0.24949117 -0.025190774 0.010609193 0.041441087 0.13618465 -0.024773026 -0.05589899 0.012743851 0.027118606 -0.13906817 -0.02362718 0.26012358 0.029024603 0.022653127 -0.15450478 0.1456336 0.075225376 0.09336278 0.14578381 -0.042564 0.08013851 -0.033862576 -0.22851208 -0.061432544 -0.13535962 -0.020672536 -0.021328622 0.0054689953
35 0.022942154 -0.04716555 0.013502284 -0.07544972 0.06269883 -0.0060018697 0.11313677 -0.012908309 -0.009562361 -0.16641216 -0.19285253 0.12321687 0.043693926 -0.1377533 -0.040430352 0.02938212 0.014782277 -4.0402978e-05 0.077887 -0.050410476 0.039258953 -0.122920804 0.05111179 -0.09520743 0.0531925 0.079002276 -0.055149622 -0.032415472 0.050143976 0.14924332 0.022248523 -0.035660096 -0.0015395817 -0.14291525 0.041901045 0.18293567 0.094398834 0.031798292 0.1421729 -0.07683568 -0.09142953 0.15565968 -0.09303871 0.111881696 0.08987154 0.07337084 -0.0056640543 -0.096351765 0.028928619 -0.06836505 -0.07244275 -0.07298069 -0.054766223 -0.24654111 -0.06880117 -0.020464338 0.19538663 0.040570043 -0.056401014 -0.041004557 0.072450235 -0.027859168 -0.0117930295 -0.16217111 -0.18209054 -0.06649672 -0.11537108 -0.0790011 0.0053449254 0.047347095 -0.012262076 -0.10305298 -0.07642593 0.0061825174 0.05652253 -0.067689516 0.060329966 -0.19220525 0.07648943 0.1392729 -0.21555494 0.15546454 0.09341131 -0.0089063365 0.062467247 0.17737156 0.00371256 -0.004788467 -0.16738032 0.032356415 0.08606543 -0.049041368 0.01038331 0.25382528 0.13029519 -0.06403705 -0.14223069 0.05016361 0.14787151 -0.004027282 0.22258672 -0.008488891 0.008549032 0.019954886 0.116413526 -0.03769212 -0.05144558 -0.011171936 0.03921116 -0.13685507 -0.0135735385 0.22661494 0.0079365 0.019040607 -0.14046378 0.1416644 0.07373335 0.09144468 0.13488075 -0.057477694 0.085342795 -0.025502486 -0.2386957 -0.044204775 -0.13312082 -0.0015100507 -0.026134305 0.01421299
15 0.04632134 -0.040053405 0.0071756854 -0.04226049 0.06395257 0.010869063 0.1150276 0.0047829463 0.024317985 -0.16931179 -0.16974676 0.14120413 0.039680813 -0.12688021 -0.048061553 0.0062168287 0.012238089 -0.0006899008 0.10057363 -0.054735284 0.017156316 -0.13385737 0.041109353 -0.114146195 0.07489642 0.10521083 -0.056016866 -0.030949214 0.045922384 0.17028585 0.027135102 -0.036201335 0.01876872 -0.12885061 0.061816413 0.16725944 0.102510095 0.021241348 0.17203741 -0.054141782 -0.116117336 0.17919679 -0.05898946 0.11639949 0.0891958 0.0779347 -0.017184034 -0.1036949 0.037644863 -0.097361624 -0.07851923 -0.107708365 -0.069505915 -0.21134518 -0.07344511 -0.04104134 0.18146494 0.057336506 -0.06077439 -0.02903516 0.046213828 -0.034656372 -0.011151852 -0.16501373 -0.19792494 -0.06261276 -0.11124591 -0.098587364 -0.0008491679 0.05443461 0.027837962 -0.09117072 -0.062276546 -0.023957452 0.021286575 -0.060016606 0.036353294 -0.17863764 0.059532303 0.097919315 -0.19965361 0.1341408 0.08454668 0.0018658721 0.060369104 0.16362034 -0.004274542 -0.01485649 -0.20927645 0.03889679 0.09733049 -0.052553963 0.026409771 0.24150924 0.1543397 -0.04847359 -0.13698213 0.026273726 0.1676536 0.007777996 0.19040526 0.01895531 0.00783019 -0.032684397 0.09018552 -0.054497782 -0.04330774 -0.049091354 0.05547608 -0.1567015 -0.0026760402 0.18525116 -0.023184454 0.02263695 -0.1171998 0.15178108 0.07119066 0.09890432 0.1267758 -0.089960136 0.080800414 -0.013217768 -0.28586236 -0.03764305 -0.13255127 0.037851833 -0.047382116 0.026665341
