52 128
16 0.076776214 0.036088273 0.1255264 0.07235364 0.029229831 0.022467727 0.18195413 0.015214969 -0.08467159 -0.093174234 -0.08589617 0.09751217 0.11026652 -0.10534484 -0.020102907 -0.062696405 0.027165575 -0.008966206 0.1103148 0.064527884 -0.051929235 -0.1442218 0.058364835 -0.18530525 -0.05455136 0.06787695 -0.14998956 -0.10814255 0.09628193 0.13415107 0.08808015 0.060590684 0.056249697 -0.061204396 -0.021760004 0.14738303 0.025034612 0.058229163 0.2403847 -0.049755037 -0.1372298 0.10251483 -0.13156784 0.1375848 0.113009036 0.1146476 0.06721397 0.06866968 0.0620901 -0.16772987 -0.12626272 -0.02631829 0.14583282 -0.21650691 -0.0720221 -0.0377271 0.14194435 0.10910008 -0.1544553 0.0076003806 -0.024462156 -0.014076886 -0.04069207 -0.24527532 -0.18864428 0.02716271 -0.14573266 -0.03199485 0.12079738 -0.0015854199 0.041482825 -0.10796248 -0.15874188 -0.0025572956 0.113918856 0.015823822 0.0059089726 -0.13547355 0.048116487 0.09765652 -0.19202669 0.08850229 -0.057003517 0.06852051 -0.02393366 0.073690616 0.05671073 0.07805492 -0.10407814 -0.020850394 0.0036368414 0.082767226 -0.07831152 0.24300691 0.18219827 0.060306378 -0.020015204 -0.09460592 0.020566734 0.0642444 0.13408598 -0.019765453 -0.07895008 0.14370893 0.094760545 0.032802504 -0.002104058 0.04303905 0.081943706 -0.020819085 0.14130619 0.17051561 0.0037760092 0.02924839 0.002480257 -0.027844043 0.0616198 0.13371061 0.15827182 -0.3094077 -0.11461676 -0.0072826506 -0.064762436 -0.0045049824 0.037699603 -0.043326896 -0.11814232 -0.0034673961
37 0.07503088 0.031465974 0.1178706 0.06514451 0.029376358 0.022753617 0.17752503 0.009642212 -0.0894084 -0.09815259 -0.08398864 0.09895581 0.10985444 -0.09600648 -0.025621159 -0.054001637 0.031155223 -0.007752629 0.103862435 0.05733652 -0.04721652 -0.14767513 0.07224483 -0.1801675 -0.053775534 0.06451681 -0.13744192 -0.10625429 0.08895191 0.12894355 0.08553301 0.05333411 0.051426597 -0.06120879 -0.024975855 0.14065051 0.020716367 0.055131342 0.23381986 -0.04646657 -0.12335063 0.09642282 -0.12807433 0.14352964 0.107860856 0.11264893 0.06105959 0.06687142 0.066763975 -0.16333494 -0.12070289 -0.022621153 0.14050758 -0.21448238 -0.07259012 -0.04054563 0.13968255 0.098676264 -0.14885192 0.0038116826 -0.025400084 -0.010921533 -0.04379084 -0.23634355 -0.18339606 0.025458349 -0.14079896 -0.03219627 0.1221259 0.0031520943 0.040099654 -0.10120449 -0.15886404 -0.0041112127 0.11081832 0.0175797 0.005911956 -0.12975246 0.04710937 0.093363166 -0.18215604 0.09233644 -0.048304405 0.066792265 -0.0117439935 0.07376294 0.05189885 0.07514368 -0.100983396 -0.02259215 -0.0030287849 0.085049376 -0.075363815 0.23402187 0.16765076 0.057607435 -0.026516065 -0.093575016 0.020971235 0.055581298 0.1354004 -0.02295298 -0.07690315 0.1424794 0.089742824 0.028855043 -0.0056063123 0.043647178 0.07546803 -0.019721081 0.12882283 0.16969395 0.0056630396 0.021525 -0.002448491 -0.026625976 0.06518112 0.12848765 0.15097304 -0.29736885 -0.111222245 -0.011610526 -0.058008105 0.003533412 0.036408458 -0.035902765 -0.11134865 -0.0057593137
30 0.08362511 0.034966182 0.13018623 0.07206133 0.02759296 0.031005112 0.18271536 0.013451051 -0.08952421 -0.09414184 -0.09343419 0.105311126 0.1140636 -0.10772322 -0.011997875 -0.06084634 0.032393213 -0.0055374894 0.10606382 0.06693137 -0.043535694 -0.15095599 0.056044728 -0.18721446 -0.057375193 0.06875774 -0.14386003 -0.1194384 0.08908843 0.14057374 0.08194026 0.055782154 0.051187616 -0.06487903 -0.018522657 0.14183016 0.02569038 0.05846443 0.24542496 -0.04728315 -0.13133138 0.10643773 -0.14029005 0.14143167 0.10749271 0.112684876 0.06036785 0.06274079 0.066009335 -0.16873978 -0.13148056 -0.019132165 0.1437386 -0.22355059 -0.075754166 -0.037082028 0.13698232 0.112405464 -0.14830385 0.014834014 -0.02150053 -0.0074547706 -0.039410535 -0.23906569 -0.18972813 0.027028266 -0.14356881 -0.03573437 0.12535751 -0.0004092357 0.039700083 -0.108365916 -0.16766973 0.0009859477 0.12144933 0.017160377 0.005916763 -0.13821784 0.04483481 0.09530862 -0.19645293 0.087196365 -0.05449465 0.06687773 -0.017536836 0.07288281 0.060455143 0.07909994 -0.10124257 -0.025613116 3.0547875e-05 0.0823521 -0.07466271 0.24131036 0.1840683 0.055575702 -0.030664679 -0.094057515 0.015057621 0.059663948 0.14113753 -0.028073216 -0.08082985 0.14163852 0.09385052 0.032949563 -0.0033139638 0.049541984 0.0738451 -0.015549567 0.13814792 0.17568752 0.0023236652 0.018954303 -0.0021596074 -0.028064298 0.059832774 0.13761345 0.15801424 -0.30371687 -0.111595586 -0.005221721 -0.064740576 -0.007775786 0.034345124 -0.04367356 -0.11385039 -0.009908571
10 0.07256529 0.03128793 0.11408876 0.06967128 0.026776515 0.021296343 0.170708 0.009135724 -0.08221693 -0.086775675 -0.08837157 0.10236119 0.11002509 -0.10168657 -0.020164857 -0.056583043 0.027396858 -0.007889139 0.10427069 0.057571176 -0.052243944 -0.14749016 0.06553168 -0.18553387 -0.054062422 0.06403566 -0.13061288 -0.10748407 0.09324399 0.13096972 0.081546076 0.05761648 0.04932782 -0.06843367 -0.026788808 0.1402268 0.022509802 0.054702513 0.24143945 -0.04846556 -0.123107456 0.108106315 -0.13803981 0.14554396 0.11003608 0.11615081 0.05835089 0.061715852 0.05950774 -0.15778673 -0.11865734 -0.028246969 0.13624172 -0.21207921 -0.06823361 -0.043296456 0.14213131 0.10451169 -0.14705022 0.004463853 -0.026047839 -0.013359754 -0.04115548 -0.23690717 -0.180379 0.029312044 -0.14143991 -0.029789627 0.121814795 0.0023280787 0.035752412 -0.10210665 -0.15670232 -0.007678055 0.11689067 0.019056162 0.0035207612 -0.122500725 0.04924723 0.0927761 -0.19182472 0.08957996 -0.05654827 0.05832383 -0.016243456 0.07543632 0.050317854 0.06866332 -0.10421892 -0.016154468 0.0055120466 0.08610535 -0.07178699 0.23032151 0.1737397 0.058861524 -0.028036846 -0.093953416 0.024755986 0.06054815 0.13845475 -0.023441067 -0.07549445 0.13304354 0.08528507 0.028151149 -0.009483236 0.047454752 0.06873048 -0.023937665 0.14053327 0.17257945 0.009378162 0.022414528 0.0003090902 -0.019113217 0.06118661 0.12919429 0.15153317 -0.29668373 -0.11182601 -0.00716944 -0.06132925 -0.0055374154 0.03169369 -0.038843196 -0.1033409 -0.004831689
11 0.06884749 0.03230558 0.111347765 0.06881469 0.028723879 0.021431867 0.1701235 0.008206602 -0.08402079 -0.095978975 -0.0806533 0.100371175 0.101547554 -0.097409636 -0.020974802 -0.053603623 0.026295263 -0.006237074 0.09525933 0.059621867 -0.052593835 -0.14093025 0.06483794 -0.17462403 -0.047986034 0.065442145 -0.13337576 -0.097673 0.0865114 0.124679014 0.078331426 0.053741958 0.05162829 -0.06289503 -0.021437176 0.1336097 0.023456987 0.048143014 0.23195113 -0.048629392 -0.12148504 0.100658044 -0.12503397 0.1404608 0.1108733 0.10977574 0.060062326 0.057112623 0.063903555 -0.15723294 -0.11923675 -0.03003682 0.13376974 -0.20320417 -0.070852384 -0.039389838 0.1400819 0.10278415 -0.14278577 0.008958666 -0.018322213 -0.006156748 -0.04335643 -0.22853175 -0.17653678 0.027362645 -0.14157625 -0.034736853 0.117078274 0.005927875 0.038593728 -0.103925765 -0.15301846 -0.0023660646 0.11216435 0.013895278 0.0049988697 -0.124836706 0.04594571 0.087297864 -0.18712571 0.0929196 -0.050258487 0.06528507 -0.016977062 0.0756265 0.050223947 0.07006534 -0.10313739 -0.020221252 -0.0018554443 0.08119107 -0.069977224 0.22397889 0.16926847 0.05833355 -0.026828324 -0.09104161 0.020008544 0.058235426 0.13663158 -0.020703737 -0.07411448 0.13751449 0.08991178 0.0283807 -0.007966635 0.039279133 0.06427401 -0.025451533 0.13581948 0.17070694 0.00839712 0.027722385 -0.0061789416 -0.018791005 0.056715727 0.12164898 0.14830402 -0.28757793 -0.113029994 -0.0059500784 -0.06047889 -0.0007311561 0.034215406 -0.041235447 -0.10133039 -0.00258602
39 0.07635284 0.03163918 0.12137342 0.07156595 0.030133508 0.021873608 0.18515226 0.0037791156 -0.08339802 -0.09993359 -0.090713434 0.10590912 0.104841806 -0.09654299 -0.016215052 -0.06037221 0.033227082 -0.004674963 0.10491634 0.053794157 -0.048153162 -0.14757253 0.07115556 -0.19005151 -0.048839513 0.06402664 -0.1289495 -0.11046561 0.091868825 0.13388354 0.0740265 0.05223162 0.049105734 -0.06796848 -0.029869338 0.14042562 0.020063983 0.052879717 0.24476245 -0.04547349 -0.12555273 0.10946763 -0.13694683 0.15160985 0.11473014 0.122677125 0.06579986 0.057068214 0.06496217 -0.15938684 -0.119524986 -0.023218278 0.13906416 -0.21513987 -0.06838801 -0.04494037 0.14435402 0.10461408 -0.13975483 0.0026224505 -0.024426302 -0.005766317 -0.05118338 -0.24341658 -0.1786713 0.022504227 -0.14760388 -0.028612377 0.124242224 0.0019446511 0.036759228 -0.10595829 -0.1603049 -0.01202327 0.113587216 0.012855381 0.0033856395 -0.12890612 0.0483692 0.09329385 -0.19556 0.09820391 -0.053521883 0.06917737 -0.014543476 0.08089449 0.0533278 0.066556595 -0.110029526 -0.0069177407 -0.00094982306 0.08825698 -0.07198984 0.22906356 0.16887508 0.05871787 -0.029673764 -0.089423284 0.024064211 0.05411732 0.13940218 -0.02975924 -0.077021815 0.12990342 0.087918125 0.034059633 -0.01207112 0.0446906 0.06739998 -0.020372564 0.13865562 0.17354411 0.007872753 0.022562677 -0.011228695 -0.019190755 0.05486904 0.1313418 0.1486763 -0.29207602 -0.11186574 -0.0068150857 -0.061548848 -0.0009801874 0.035103947 -0.034200016 -0.09689734 0.0025171477
31 0.074096106 0.037304804 0.1223318 0.07159512 0.03283333 0.022583492 0.1779856 0.012094238 -0.08596507 -0.08997068 -0.08684228 0.105758406 0.10819295 -0.09561909 -0.014026717 -0.061958235 0.031532377 -0.006248608 0.09735315 0.05522975 -0.052428827 -0.13928698 0.059240844 -0.18243791 -0.052449986 0.06419889 -0.13610633 -0.110759765 0.092622675 0.13233958 0.08185931 0.057731606 0.04975201 -0.064759925 -0.02278089 0.13527575 0.022294736 0.049635693 0.2386709 -0.044229694 -0.12330653 0.10316904 -0.12875707 0.13954276 0.10991023 0.11635718 0.062730335 0.057750974 0.060517624 -0.1535891 -0.11687189 -0.025884831 0.13629982 -0.2098565 -0.06490317 -0.03940163 0.1354546 0.103073746 -0.14237313 0.012550678 -0.019357894 -0.008518418 -0.047546897 -0.23191066 -0.18048163 0.024430908 -0.14311616 -0.03188445 0.12047742 0.008564308 0.03421536 -0.10405893 -0.15876235 -0.0065124435 0.11219663 0.016913187 0.0038650732 -0.12551267 0.04621211 0.090695344 -0.18590817 0.08800089 -0.054538243 0.06352471 -0.023247812 0.07375706 0.057026207 0.06894874 -0.10454354 -0.014353084 0.0041046296 0.07859604 -0.07090334 0.22409217 0.17396873 0.057500564 -0.02619061 -0.08933125 0.018230252 0.05817903 0.13535537 -0.01849047 -0.07053951 0.12849963 0.08677 0.0325502 -0.007698935 0.04606742 0.0647397 -0.018546555 0.13783115 0.16848138 0.0011038594 0.023621645 -0.00022784871 -0.019178905 0.05469958 0.12311525 0.14718531 -0.28985533 -0.107494675 -0.00726604 -0.0635621 -0.002681885 0.033951942 -0.040380772 -0.10161332 -0.0076128994
18 0.075681575 0.031345457 0.1078307 0.08264702 0.037286866 0.020276852 0.17937936 -0.0016960094 -0.07961205 -0.09053473 -0.07764417 0.10817647 0.10858549 -0.08459535 -0.018265082 -0.059669364 0.03296832 -0.00029338873 0.09903951 0.053288642 -0.049034096 -0.15134841 0.08222785 -0.20342693 -0.04922061 0.07082106 -0.12988734 -0.11046584 0.09198595 0.13026248 0.062324222 0.05115226 0.048050437 -0.062446076 -0.03806451 0.14107428 0.008115069 0.052265696 0.24725892 -0.04171332 -0.11452659 0.10397039 -0.13337395 0.16095492 0.11535008 0.13746426 0.06385988 0.05470527 0.0685 -0.16283666 -0.110665835 -0.030776989 0.1463549 -0.21749231 -0.06962217 -0.059509847 0.1508126 0.10124672 -0.13366728 -0.0033103665 -0.02358149 -0.0009052176 -0.05101358 -0.24776159 -0.17283118 0.02438934 -0.14592318 -0.02025163 0.13624436 0.00675727 0.0386735 -0.09814121 -0.16367386 -0.020826705 0.11609986 0.0058043334 0.008401753 -0.12353168 0.06258666 0.096587256 -0.20145842 0.10449953 -0.0605859 0.07636173 -0.010747726 0.08284339 0.058967423 0.06987724 -0.11329326 -0.0036403504 -0.004403247 0.099396124 -0.073937275 0.23110153 0.16206709 0.0666979 -0.022655701 -0.09775848 0.019890696 0.054212887 0.13357446 -0.03207074 -0.07737506 0.1331341 0.07758937 0.034785043 -0.022279061 0.047831748 0.057942133 -0.019021265 0.13145317 0.17040609 0.0063024345 0.015644351 -0.021471236 -0.015033472 0.057767935 0.12834907 0.1478803 -0.29825047 -0.1166402 -0.006753853 -0.05322874 -0.0012891097 0.04244238 -0.02679934 -0.0988341 0.009054334
44 0.07782363 0.037575964 0.11307264 0.078173734 0.028690504 0.025604844 0.18234953 0.0019106106 -0.08620969 -0.09558607 -0.09020999 0.10779951 0.09963258 -0.08891395 -0.0163109 -0.06630862 0.027442386 -0.010619294 0.10122689 0.05719411 -0.056552358 -0.14541128 0.07536929 -0.19079676 -0.054969057 0.067245424 -0.13265373 -0.107275456 0.09118662 0.12689628 0.07769544 0.055979416 0.04845359 -0.06697565 -0.03274206 0.1384624 0.013972592 0.052749045 0.24214007 -0.04616617 -0.12259144 0.1071118 -0.13788387 0.14987049 0.113911495 0.12392754 0.06667397 0.060215693 0.06795523 -0.15825284 -0.11432854 -0.030451218 0.14345624 -0.20986061 -0.06720895 -0.045287304 0.13999139 0.10768772 -0.14258708 0.00029857646 -0.025706654 -0.0044278246 -0.053465113 -0.24124159 -0.17626384 0.029072495 -0.14396925 -0.023704968 0.12853287 0.008783541 0.03540113 -0.09935408 -0.1603291 -0.010057525 0.11278761 0.015962789 0.0026854805 -0.121526875 0.048583172 0.09602456 -0.19370887 0.09852729 -0.055529304 0.06915365 -0.019715954 0.084987186 0.052483954 0.069749735 -0.10832692 -0.003764814 0.00097258494 0.0939869 -0.0710775 0.21976744 0.16891429 0.05865286 -0.023145279 -0.09557407 0.024967803 0.054241687 0.13850439 -0.029551722 -0.07859946 0.1300195 0.08536061 0.03814636 -0.016407333 0.042755757 0.05860812 -0.021248985 0.13999134 0.1702157 0.011007734 0.025353936 -0.007249695 -0.02180698 0.053596407 0.12802778 0.14690325 -0.29684874 -0.116547994 -0.0032425742 -0.05702572 0.00023117087 0.03894114 -0.03380702 -0.099446766 -0.00025834973
33 0.0714409 0.03255349 0.10850694 0.06448475 0.029868357 0.026524859 0.17520158 0.009884569 -0.08479619 -0.08929328 -0.08723961 0.100930065 0.10208638 -0.09286552 -0.01691709 -0.059628375 0.032329276 -0.009397562 0.102813564 0.05709694 -0.05145099 -0.14603017 0.06766078 -0.18583834 -0.053169202 0.06454986 -0.13066134 -0.104225844 0.09094912 0.12696585 0.08037335 0.05641133 0.048251793 -0.06545258 -0.028179668 0.13597777 0.023501903 0.055014476 0.23928075 -0.047504984 -0.120799534 0.102983326 -0.13656636 0.14188 0.10759856 0.115919575 0.060516704 0.057107583 0.0630176 -0.15346037 -0.11677343 -0.027112683 0.13302869 -0.20938416 -0.07020662 -0.0423931 0.13978171 0.10300698 -0.14406548 0.005958984 -0.02840086 -0.010872371 -0.046728063 -0.22993194 -0.17854647 0.026884448 -0.1433059 -0.031348154 0.119793326 0.0074031088 0.0363767 -0.10004293 -0.15814465 -0.008059691 0.108938456 0.018180976 0.0041825157 -0.11860824 0.04995675 0.09275123 -0.18904859 0.0892562 -0.05421565 0.060361907 -0.014401769 0.0776078 0.049700327 0.071369804 -0.1062495 -0.01707578 0.004718414 0.07910065 -0.069249675 0.22545479 0.16703162 0.055799197 -0.022604812 -0.08856777 0.023586782 0.053239144 0.13722569 -0.023423826 -0.075412 0.13142006 0.08770934 0.033390593 -0.009436357 0.04607626 0.06661573 -0.024634717 0.1357312 0.16972217 0.0059741023 0.025111347 -0.005392729 -0.019752417 0.0547951 0.12611528 0.14288707 -0.28938586 -0.108618945 -0.000647243 -0.05978856 0.00014348808 0.037475202 -0.03643147 -0.099659555 -0.00075135636
29 0.07941716 0.033104353 0.12005022 0.070532374 0.027025703 0.027830254 0.17790465 0.012722913 -0.08348809 -0.0952733 -0.09391688 0.10531171 0.103705525 -0.10354266 -0.011801596 -0.06397737 0.028902214 -0.014156278 0.10829931 0.060414165 -0.04945744 -0.14681785 0.057159293 -0.18340243 -0.056628287 0.067373835 -0.14444946 -0.11418086 0.09380205 0.13766234 0.086401075 0.059707947 0.050949246 -0.06830618 -0.01753458 0.14298134 0.024953539 0.052175015 0.24150446 -0.05334188 -0.1345525 0.10524877 -0.14014709 0.14143296 0.1097857 0.11176163 0.063121855 0.057832677 0.067653574 -0.16160628 -0.12833095 -0.02377692 0.13476157 -0.2128065 -0.06873756 -0.039739855 0.14012627 0.11072281 -0.15390089 0.013406402 -0.023370162 -0.0114375055 -0.04025492 -0.24215916 -0.18419617 0.023055188 -0.14241199 -0.034530636 0.11702106 0.0050472147 0.03508839 -0.10994998 -0.16654506 0.0020742367 0.114180245 0.020769814 0.0069939494 -0.12745333 0.04695943 0.09461471 -0.19091603 0.08536597 -0.05402105 0.059525203 -0.023899723 0.07795683 0.056886394 0.072637536 -0.09957459 -0.024621103 0.0025800068 0.07863243 -0.07254494 0.23358957 0.18317716 0.055554736 -0.02108031 -0.08562991 0.021731356 0.06456874 0.1392468 -0.021681236 -0.079263166 0.13599412 0.09534341 0.03257412 -0.0033672557 0.050326128 0.070911855 -0.019737387 0.13813506 0.16716726 0.006481507 0.029555028 0.0012310197 -0.02617348 0.05429326 0.13150585 0.15546213 -0.2912767 -0.11103766 -0.0036404075 -0.06273046 -0.0039604497 0.03484939 -0.04483473 -0.1133304 -0.010031489
6 0.07682955 0.036666278 0.11190012 0.07582644 0.03148999 0.020741826 0.17759998 0.002541433 -0.08461651 -0.09677824 -0.08945219 0.106516376 0.099611595 -0.0845413 -0.018194344 -0.064195976 0.026647052 -0.00800677 0.096297495 0.053819284 -0.052178796 -0.1457727 0.07498017 -0.19170918 -0.051461708 0.069039814 -0.12877269 -0.10984807 0.0937487 0.1301938 0.07177331 0.052122828 0.04668788 -0.06337225 -0.03672026 0.13907233 0.0134429 0.053919904 0.24929596 -0.043112356 -0.11763149 0.112339444 -0.13660583 0.15555654 0.112949155 0.13300987 0.06409372 0.057726793 0.060413025 -0.16049962 -0.107142776 -0.027751854 0.14230075 -0.21423542 -0.0706477 -0.048560366 0.15023641 0.10214436 -0.13909361 -0.0036450648 -0.025085125 -0.0045464686 -0.04999705 -0.2404722 -0.17334402 0.024753919 -0.14979447 -0.02576453 0.12902896 0.00441888 0.04048641 -0.104075395 -0.16139975 -0.011952119 0.11597911 0.01057004 0.0038947973 -0.116848655 0.05679894 0.09700556 -0.19552727 0.10155438 -0.05644111 0.06950553 -0.013005404 0.084803686 0.053725198 0.070001826 -0.1148293 -0.0039663 -0.0034786367 0.09067225 -0.069420725 0.22081481 0.16571403 0.06655724 -0.023689657 -0.09641045 0.020790417 0.055599045 0.13694577 -0.030236846 -0.0751746 0.13067397 0.08370164 0.036283564 -0.01792714 0.048811078 0.05404902 -0.02252476 0.13733207 0.17530659 0.009507752 0.024360802 -0.01736607 -0.017816838 0.054291617 0.12797727 0.14267085 -0.29571018 -0.11210119 -0.0017904494 -0.053148594 0.0029640065 0.035583295 -0.032450065 -0.09390385 0.0018130748
40 0.07298892 0.034689385 0.108446226 0.066353515 0.028909978 0.026677337 0.17881979 0.012483463 -0.08030242 -0.09546971 -0.090353854 0.10400778 0.10524576 -0.10251494 -0.011838419 -0.062340684 0.025872555 -0.012999303 0.10145685 0.05633269 -0.049373195 -0.14260454 0.062361833 -0.17986386 -0.04898969 0.066713095 -0.1324948 -0.11249626 0.08829884 0.12886064 0.08236598 0.054480154 0.053924415 -0.06419399 -0.018207535 0.14171204 0.018649723 0.05217496 0.24345148 -0.04755106 -0.12719162 0.10515808 -0.13420257 0.1446479 0.11139277 0.11301001 0.0623394 0.057567514 0.069037534 -0.16055189 -0.122091256 -0.029099653 0.13594179 -0.2080624 -0.06487437 -0.038933586 0.14214443 0.10119686 -0.14264835 0.011030645 -0.017609358 -0.00807554 -0.047076978 -0.23691499 -0.17731152 0.020843092 -0.13953334 -0.027422667 0.122829475 0.008010007 0.03514946 -0.10007528 -0.15657824 -0.003667686 0.10917831 0.019424409 0.0014229275 -0.12342468 0.044708356 0.09008812 -0.18734299 0.091803916 -0.053720687 0.0634928 -0.02316809 0.080682434 0.053907763 0.069142565 -0.10434457 -0.01967719 0.0061206566 0.08379134 -0.0676053 0.22196792 0.17520182 0.057606902 -0.026835455 -0.091449566 0.024716837 0.060967002 0.13693653 -0.019970287 -0.07890647 0.13130298 0.08568842 0.028817344 -0.005496415 0.047251076 0.07121514 -0.021882677 0.1406282 0.1674181 0.003907007 0.02351425 -0.0064172465 -0.02254779 0.05867976 0.13309902 0.15073057 -0.28768122 -0.10919992 -0.0064265816 -0.064054586 -0.006148572 0.034114815 -0.039392434 -0.10669855 -0.0002602504
13 0.07614553 0.031009791 0.11914819 0.07356854 0.028541358 0.029441992 0.18394056 0.009223014 -0.082558416 -0.09849396 -0.08770785 0.10399928 0.10061003 -0.0974814 -0.012022387 -0.06340767 0.023443826 -0.009107645 0.1042054 0.05951097 -0.0524132 -0.14127891 0.0633853 -0.18475196 -0.054105915 0.06633305 -0.1321699 -0.1114593 0.08730201 0.13185854 0.07575635 0.058476053 0.048894107 -0.06666594 -0.021208594 0.13748327 0.014916118 0.051535867 0.2356012 -0.050419576 -0.12572777 0.10551297 -0.13154262 0.13763125 0.10554044 0.11403115 0.059691317 0.053958405 0.062020954 -0.16114987 -0.120275676 -0.027108114 0.13630113 -0.2116349 -0.065681964 -0.038859088 0.1400483 0.10140384 -0.13947383 0.005650495 -0.026988257 -0.00826188 -0.0468669 -0.23847 -0.17724071 0.025542958 -0.14528446 -0.027843155 0.12015621 0.0058149034 0.03453382 -0.09906458 -0.15489739 -0.004202743 0.112003855 0.012589931 0.0032316635 -0.12445828 0.04313247 0.09389062 -0.19087152 0.0871656 -0.05150769 0.06729573 -0.018058466 0.07973069 0.051530562 0.06640771 -0.10545297 -0.01492071 0.0026484807 0.07929565 -0.06827814 0.22613975 0.16859686 0.05580827 -0.022965873 -0.08703378 0.025084326 0.05358032 0.13618562 -0.025220849 -0.07340827 0.12729925 0.08455942 0.03268646 -0.010943899 0.04368285 0.06911443 -0.023443852 0.13595644 0.16916442 0.009611461 0.025560217 -0.00050566066 -0.019376602 0.05140185 0.12952663 0.14073932 -0.28459492 -0.10333715 -0.0028044696 -0.058503766 -0.0065731173 0.029930508 -0.03366699 -0.100546226 -0.004169722
46 0.06596141 0.029157607 0.110451035 0.07069446 0.036525626 0.022541141 0.17133687 0.010616506 -0.08049013 -0.092533976 -0.086989515 0.10160246 0.10492147 -0.088871315 -0.014462026 -0.06291571 0.027996577 -0.0055751516 0.09988067 0.0567105 -0.044310573 -0.14433587 0.063158885 -0.1806519 -0.054011736 0.06434623 -0.12927711 -0.11197136 0.08413938 0.12931031 0.07562764 0.052040406 0.047766425 -0.05988786 -0.021749841 0.13897125 0.012915067 0.053521942 0.23276141 -0.043627113 -0.12046575 0.10806981 -0.1345157 0.14718106 0.109027356 0.11799327 0.06297641 0.052281123 0.065313905 -0.15747361 -0.11435929 -0.025638785 0.13536604 -0.212961 -0.067167796 -0.043627076 0.14144824 0.10531327 -0.136209 0.0046648695 -0.023195999 -0.008826151 -0.044562377 -0.2327604 -0.17656457 0.022128304 -0.14302796 -0.025673496 0.120229185 0.0071979854 0.03684154 -0.10160777 -0.1617369 -0.010147378 0.11567608 0.015397599 0.010447937 -0.12219036 0.047341917 0.09481011 -0.18837297 0.093646206 -0.054238185 0.065016754 -0.019206587 0.08017108 0.051384054 0.06900722 -0.10514214 -0.013823383 0.004289143 0.08395387 -0.06295839 0.22517893 0.16563308 0.057418685 -0.028818222 -0.08830145 0.018237693 0.05468783 0.13971804 -0.029648103 -0.07429299 0.12953538 0.08825527 0.03132772 -0.014302502 0.048930697 0.061704803 -0.02373145 0.13468213 0.17058985 0.0032074864 0.01882401 -0.008542567 -0.015726633 0.059306767 0.12704015 0.14511073 -0.28712204 -0.10498524 -0.0024647086 -0.05246472 -0.0030026545 0.03347289 -0.026697667 -0.098579735 0.0021551044
1 0.0792898 0.031569663 0.115156524 0.08466193 0.035084218 0.02658284 0.18926598 0.008169779 -0.08499623 -0.09591347 -0.0953492 0.1197031 0.11021813 -0.094297715 -0.01751544 -0.06764409 0.031273965 -0.009111153 0.10923077 0.061348964 -0.053799126 -0.1623084 0.076390155 -0.20561521 -0.05212109 0.07104892 -0.13795199 -0.120023444 0.09598431 0.14121781 0.07552476 0.05770955 0.04951401 -0.07373204 -0.030750487 0.1557668 0.018573385 0.051426243 0.25907508 -0.05076495 -0.12892586 0.11791121 -0.14681983 0.16015474 0.11949789 0.12735224 0.066847935 0.056286674 0.068340816 -0.16810854 -0.12079591 -0.031573087 0.1433687 -0.22441423 -0.07268513 -0.053424146 0.15552078 0.10606249 -0.15010172 0.00054702174 -0.031122334 -0.006248714 -0.04642854 -0.2559115 -0.18655609 0.030458242 -0.15603192 -0.023754952 0.13287187 0.0050111143 0.04413047 -0.11022921 -0.16826434 -0.018648518 0.11944293 0.009117192 0.006509917 -0.12567738 0.051242743 0.09877991 -0.20664355 0.10056807 -0.06156794 0.06590686 -0.017864577 0.08903572 0.06137579 0.07319215 -0.11086854 -0.008089792 0.007522034 0.098053135 -0.076400906 0.24582267 0.17955665 0.06626063 -0.031679954 -0.09656981 0.0278162 0.058536462 0.1442547 -0.031612772 -0.074434206 0.13559888 0.08471482 0.034441587 -0.019658357 0.053096842 0.06360459 -0.023221534 0.14565001 0.17716488 0.008719109 0.022843042 -0.014326171 -0.017462865 0.05712361 0.13033786 0.15132383 -0.31288722 -0.119410835 -0.004363984 -0.06495442 0.0012975882 0.037120163 -0.03299674 -0.103394166 0.0023539907
0 0.07527358 0.029730354 0.11185335 0.06866742 0.031089826 0.021884868 0.17520905 0.008755484 -0.08360704 -0.09543473 -0.08220142 0.104645774 0.11335644 -0.1045602 -0.014060332 -0.06012704 0.027667766 -0.008205506 0.10602851 0.06564972 -0.046642706 -0.14932364 0.05887622 -0.1876407 -0.054434672 0.06917569 -0.1396911 -0.11316006 0.09443825 0.13959944 0.07863351 0.05958723 0.04787652 -0.062495396 -0.018162245 0.14538717 0.02432423 0.05587359 0.23383011 -0.043929506 -0.13274506 0.10620166 -0.13217147 0.14382361 0.10835619 0.11571141 0.0611519 0.059547003 0.06542477 -0.16315667 -0.12835366 -0.024461152 0.13841562 -0.2151202 -0.06883413 -0.042148452 0.13968349 0.10742878 -0.140687 0.013990883 -0.024212133 -0.008278822 -0.042458244 -0.24074692 -0.18159416 0.027492387 -0.14461528 -0.029565647 0.120709084 0.00479322 0.038467947 -0.104654655 -0.15899171 -0.006974976 0.110890895 0.01843911 0.007842138 -0.13078472 0.047385372 0.087185994 -0.19074106 0.091110066 -0.054283034 0.06023154 -0.014988972 0.07715156 0.05432766 0.073857255 -0.10408859 -0.019069724 0.0021401304 0.08447328 -0.07222752 0.2300724 0.17924093 0.05882188 -0.030219955 -0.09262965 0.020650672 0.056862313 0.13643119 -0.024356633 -0.077949405 0.13779679 0.091315664 0.030957751 -0.010021802 0.04307152 0.07247441 -0.023484997 0.13723175 0.17056683 0.003950909 0.022628339 -0.004391851 -0.021144295 0.057994917 0.13187541 0.15642728 -0.29581752 -0.11067834 -0.0020467045 -0.06810005 -0.0018789385 0.0372099 -0.036468122 -0.107746 -0.006575013
7 0.07700318 0.034870595 0.113835 0.07508745 0.035120163 0.023487622 0.1801808 0.002062956 -0.080595486 -0.09658535 -0.07991783 0.10461461 0.10382236 -0.09446645 -0.020372894 -0.058974743 0.030057622 -0.005065212 0.10462888 0.056526225 -0.05058318 -0.14826788 0.07547362 -0.18755987 -0.05263024 0.06803639 -0.13701947 -0.10673654 0.09255834 0.13288166 0.07815457 0.056761302 0.047811788 -0.060098745 -0.03145024 0.14417088 0.015119952 0.050036505 0.23577362 -0.04278314 -0.12811808 0.105608 -0.12863106 0.15176252 0.11496159 0.12072658 0.062036738 0.058298573 0.06247226 -0.16379136 -0.11573055 -0.026063679 0.14158772 -0.21266636 -0.06975265 -0.048794523 0.14273366 0.10516841 -0.14180438 0.005462558 -0.02239246 -0.007236662 -0.041167486 -0.24303508 -0.17610577 0.028329605 -0.14674789 -0.03083242 0.12606074 0.003435593 0.037407205 -0.098973125 -0.15613464 -0.011740884 0.10822561 0.011026267 0.003770261 -0.12765013 0.049474772 0.09167292 -0.18992555 0.09158582 -0.056335717 0.06926156 -0.015948426 0.07306304 0.05438365 0.067204386 -0.10798791 -0.014941601 0.0004353057 0.09147424 -0.076777555 0.23157282 0.1700403 0.06451254 -0.02778871 -0.09772542 0.022404844 0.05456292 0.13096853 -0.028142244 -0.07864879 0.13342056 0.081785925 0.03495096 -0.015746806 0.039310884 0.07248676 -0.022251194 0.13267069 0.16828291 0.0057346374 0.018382475 -0.0075574694 -0.023223002 0.05801273 0.124598384 0.14946549 -0.30054846 -0.11608007 -0.00611744 -0.061701342 0.0023421382 0.035515446 -0.030670045 -0.10501031 0.0023518917
4 0.077334665 0.03074172 0.114779554 0.07502595 0.03430749 0.025000608 0.18087965 0.006211174 -0.08439495 -0.09769237 -0.085373625 0.109666005 0.11253987 -0.1001592 -0.0197465 -0.06291727 0.027300514 -0.006285301 0.107859194 0.06538126 -0.056070488 -0.1516748 0.06766038 -0.19250593 -0.05430672 0.07172736 -0.14127982 -0.112863265 0.09241536 0.13528065 0.08354689 0.055672463 0.051305745 -0.061804723 -0.021296376 0.14347798 0.023661489 0.05345317 0.25009364 -0.050124034 -0.13387643 0.10875693 -0.13897642 0.15161598 0.11206646 0.119644254 0.0655348 0.065525696 0.063000634 -0.17093752 -0.12262282 -0.02680342 0.14014703 -0.21935004 -0.070681386 -0.043917045 0.148553 0.106346145 -0.14755939 0.008910633 -0.023411252 -0.004734928 -0.04855397 -0.24689317 -0.19190356 0.030101584 -0.14783886 -0.029580772 0.12512311 0.0013990001 0.03879246 -0.10739536 -0.1669156 -0.004940098 0.116470695 0.01641595 0.0070534553 -0.12790719 0.05075491 0.09910839 -0.19375356 0.09478949 -0.05209335 0.06613214 -0.019273732 0.07676046 0.05737751 0.07577518 -0.110192664 -0.018800113 0.0034811054 0.085708514 -0.06997879 0.2399561 0.18034847 0.058151018 -0.024121916 -0.095035836 0.025761351 0.063414104 0.14677845 -0.027951207 -0.07675883 0.13998486 0.086734764 0.029113341 -0.01143953 0.04893239 0.070409656 -0.022620833 0.14040503 0.17854568 0.0051518837 0.019855859 -0.0003183055 -0.018225122 0.06463407 0.13593943 0.15594064 -0.3074897 -0.11499765 -0.0057757474 -0.06781742 -0.0030644326 0.035318304 -0.035106447 -0.11094414 -0.0020985848
24 0.075070016 0.03135898 0.11262859 0.0729025 0.03121896 0.023809852 0.1760477 0.0067988355 -0.082644366 -0.09534135 -0.08599696 0.10231164 0.11236802 -0.1007799 -0.016691873 -0.05707286 0.026120856 -0.007287863 0.099912524 0.06341993 -0.048649143 -0.14566238 0.06916434 -0.18639712 -0.050083615 0.07068164 -0.13444725 -0.10520206 0.093772076 0.12832591 0.07954978 0.056375235 0.04760324 -0.060628496 -0.026156964 0.14246811 0.021499196 0.048392 0.23542471 -0.049020287 -0.12726733 0.102210395 -0.13455388 0.14716758 0.10976748 0.120712854 0.066774175 0.06076289 0.0613118 -0.1604208 -0.12113583 -0.023503276 0.14167805 -0.2120406 -0.07321937 -0.041709006 0.13968469 0.101755 -0.14023992 0.0054982333 -0.020841701 -0.0043648886 -0.041494533 -0.23995334 -0.18469231 0.025687765 -0.14566468 -0.032972325 0.12177455 0.0039332733 0.04060729 -0.105981305 -0.15959693 -0.0072753215 0.11656307 0.01748401 0.009887914 -0.12793098 0.048011225 0.09141793 -0.18992986 0.09380865 -0.051302597 0.06827633 -0.018330889 0.07611241 0.059115928 0.06940918 -0.10490651 -0.018274102 0.0023516056 0.088530935 -0.07672186 0.23025265 0.17186864 0.06440773 -0.028597938 -0.09531132 0.019094456 0.053981878 0.1334751 -0.02820733 -0.07720867 0.14028263 0.08465848 0.031802643 -0.012934518 0.04234351 0.0663652 -0.023809392 0.1356056 0.17471829 0.009727126 0.020671798 -0.007940698 -0.02358233 0.06180586 0.13088872 0.15210955 -0.29687 -0.1128901 -0.0039939126 -0.06373952 -0.0034114718 0.035820037 -0.04128737 -0.102478184 -0.0064054197
42 0.0788636 0.03339321 0.11947971 0.06952857 0.025507754 0.025494175 0.18060687 0.00960532 -0.0873103 -0.093366966 -0.08749351 0.10166617 0.10522732 -0.101954766 -0.020156091 -0.05860809 0.029024003 -0.004043139 0.101158135 0.061882157 -0.049680687 -0.1363607 0.05806988 -0.1794977 -0.05759001 0.06692451 -0.14050081 -0.1052206 0.09402296 0.13097855 0.080163226 0.053062435 0.044484396 -0.05858917 -0.022870343 0.13458164 0.023066673 0.055408947 0.23194578 -0.045071837 -0.13227004 0.100241005 -0.13485795 0.13581266 0.109145455 0.11155989 0.061280526 0.06388038 0.06310171 -0.16206643 -0.11876389 -0.022018224 0.1373586 -0.21204479 -0.07212852 -0.042084273 0.13735576 0.10313274 -0.14400877 0.016677408 -0.026338851 -0.010377811 -0.04278234 -0.2369326 -0.1879602 0.030015526 -0.14674549 -0.031183911 0.116885215 -0.00047500935 0.03470999 -0.105869345 -0.16069083 -0.0042586746 0.11294935 0.014196181 0.007350013 -0.12784159 0.046280973 0.08851697 -0.18353562 0.0856521 -0.052109722 0.056572855 -0.014888358 0.069678605 0.050614033 0.07115542 -0.105554 -0.024948757 0.0014309002 0.07671239 -0.076751605 0.23213224 0.17296828 0.056707703 -0.027532462 -0.0876406 0.02517596 0.054728985 0.13650967 -0.021037498 -0.07684617 0.13557537 0.08969267 0.02964382 -0.006111631 0.043056995 0.075062685 -0.022701578 0.13353583 0.16377573 0.010305592 0.021135837 0.0036995814 -0.025557147 0.05837387 0.12602353 0.14941283 -0.29080632 -0.105422616 -0.0013912027 -0.062780075 -0.0047494113 0.03223719 -0.03734033 -0.10537088 -0.0041180043
9 0.07217029 0.03192462 0.11643023 0.076884754 0.030157654 0.023709817 0.18138063 0.002115285 -0.08329593 -0.095223255 -0.08871193 0.10822027 0.105489425 -0.09313038 -0.015955342 -0.061836313 0.033336997 -0.00841558 0.100394286 0.056193393 -0.054995965 -0.14766996 0.07958275 -0.19409485 -0.05230493 0.06560513 -0.12823272 -0.113657065 0.08771658 0.12717497 0.07621169 0.05155143 0.05281969 -0.06334409 -0.03196615 0.14521673 0.012331401 0.056498867 0.24270327 -0.03960613 -0.12562968 0.109187104 -0.13925666 0.15677713 0.11290988 0.123117045 0.06109552 0.061804794 0.066282935 -0.16547427 -0.1145341 -0.0317263 0.14439127 -0.21870959 -0.06907129 -0.048185885 0.1473965 0.10421007 -0.1440041 -0.0012720008 -0.029617082 -0.0092897685 -0.049065232 -0.24404898 -0.17364016 0.024428563 -0.14677228 -0.022389878 0.1276043 0.006172481 0.04203641 -0.09730014 -0.15926418 -0.016679456 0.11408661 0.013019547 0.008129928 -0.120911025 0.05055631 0.09922692 -0.19760548 0.09440968 -0.057524014 0.066458784 -0.015182417 0.0858182 0.050410245 0.06813868 -0.10827925 -0.00565398 0.0003423967 0.09655572 -0.068806045 0.23190427 0.16311303 0.060504492 -0.022958504 -0.090842314 0.026973797 0.05353175 0.13597877 -0.030012494 -0.0734993 0.1290341 0.08743129 0.03498076 -0.015462533 0.049837537 0.067260824 -0.018718977 0.13787162 0.17050321 0.0051128035 0.026631031 -0.0095353825 -0.016198097 0.059915487 0.12706006 0.15020329 -0.30453506 -0.11578722 -0.009239486 -0.054106213 0.002940709 0.040930104 -0.026479404 -0.10169635 0.0047236704
21 0.07928823 0.032404307 0.12261937 0.07311687 0.028187303 0.02429662 0.17937315 0.011732279 -0.08502822 -0.09776905 -0.08313976 0.10386307 0.106635205 -0.09996118 -0.018245386 -0.060711876 0.025503298 -0.007574137 0.10287365 0.06238287 -0.051087275 -0.14407216 0.06313416 -0.17899741 -0.056459706 0.06960914 -0.1419559 -0.111361586 0.088462904 0.12908174 0.08089368 0.059679 0.046834562 -0.0626769 -0.022435606 0.1394302 0.021939788 0.050736353 0.23532304 -0.04882755 -0.13241903 0.10180019 -0.13391906 0.13670813 0.10941603 0.11005215 0.06012018 0.05740423 0.060029443 -0.16569199 -0.12481336 -0.027632602 0.13970488 -0.21358404 -0.06941427 -0.03621006 0.1358122 0.10949024 -0.1474636 0.0079728 -0.025091901 -0.012545396 -0.039233305 -0.24263638 -0.18738192 0.023567917 -0.14606848 -0.030897388 0.12148607 0.0052710474 0.04065584 -0.104748875 -0.16094264 -0.0028746326 0.11478392 0.012640795 0.008794617 -0.1269101 0.042524643 0.089867316 -0.18733324 0.08911484 -0.05083785 0.05919221 -0.018493924 0.07808186 0.05293269 0.07380937 -0.101030946 -0.024562586 0.0059118047 0.0796723 -0.07073314 0.23264576 0.17478895 0.058489915 -0.028406814 -0.08737171 0.022786902 0.05826342 0.13145736 -0.021210376 -0.0776014 0.13496068 0.08851168 0.031195352 -0.007454957 0.04141971 0.075210996 -0.019285716 0.13952863 0.16727732 0.0057133758 0.020434396 0.0032196452 -0.021530407 0.054450307 0.12826021 0.15122065 -0.29554558 -0.10877343 -0.0072280704 -0.061528664 -0.001984907 0.033732656 -0.041029118 -0.11273609 -0.0006096687
3 0.09882658 0.042992305 0.18320686 0.0057536038 0.009107355 0.053313334 0.1939253 0.072704464 -0.11645277 -0.10228383 -0.119369484 0.08034081 0.12805374 -0.19042777 0.010434386 -0.062498193 0.018012 -0.03513555 0.13199385 0.11155179 -0.026227428 -0.10775285 -0.05519073 -0.10319238 -0.088007696 0.041354332 -0.20296466 -0.12620609 0.097451955 0.16519116 0.1608853 0.081640996 0.05722485 -0.06344811 0.066506565 0.14010476 0.06819445 0.06687102 0.20337164 -0.08201224 -0.18668947 0.09085173 -0.12931754 0.05943747 0.08835886 0.020971704 0.06441542 0.090313114 0.063583694 -0.17096831 -0.21374781 0.0016190825 0.1101241 -0.20336677 -0.082736336 0.03990854 0.093513794 0.13115217 -0.20374925 0.099854484 0.005686635 -0.04034846 -0.002674465 -0.21040194 -0.24410385 0.018542426 -0.12811568 -0.074155115 0.077551074 -0.0067392625 0.0193496 -0.13726373 -0.17598134 0.08583016 0.1292285 0.06606538 0.008296126 -0.17198941 -0.004217237 0.08087934 -0.15976524 0.023897858 -0.029591605 0.01817125 -0.05387116 0.041617997 0.050901398 0.09730466 -0.06891608 -0.12379881 0.035103858 -0.015661752 -0.08901809 0.25869736 0.2597302 0.02103394 -0.03436645 -0.073957875 0.0069988216 0.096907854 0.16779222 0.03683107 -0.07830798 0.17716116 0.15005426 0.011145426 0.071653165 0.047584437 0.14674957 -0.013560997 0.16202332 0.15861183 -0.015163236 0.027189469 0.09239278 -0.06294216 0.051148757 0.16126429 0.20178843 -0.26047033 -0.07274854 -0.005806706 -0.12317477 -0.030858034 0.006700754 -0.11165213 -0.17434597 -0.07158579
22 0.080752164 0.031894907 0.1278173 0.06415185 0.026226085 0.032241166 0.1833258 0.018509759 -0.084981084 -0.094155505 -0.094987065 0.10629563 0.11064911 -0.10979775 -0.010906639 -0.059899528 0.02967163 -0.011987151 0.10724372 0.06279018 -0.046018906 -0.14404075 0.05136089 -0.17930593 -0.057336174 0.06849446 -0.1426817 -0.110232376 0.09358339 0.13796355 0.08465591 0.05595709 0.052321766 -0.06754114 -0.01660939 0.14346834 0.026495934 0.05235336 0.23594286 -0.047601286 -0.1347652 0.10671128 -0.13672653 0.13301784 0.10644964 0.103613056 0.06076322 0.059586484 0.064187475 -0.15929116 -0.12713471 -0.027304623 0.1344799 -0.21438015 -0.0758606 -0.030388298 0.13903528 0.11052761 -0.15029672 0.015025382 -0.018653769 -0.01016529 -0.040548816 -0.23460387 -0.1899961 0.02558613 -0.1407996 -0.031548124 0.11603445 0.0060985545 0.036672365 -0.10817843 -0.16237478 0.0021351655 0.11634868 0.01678372 0.008955587 -0.13070107 0.045886707 0.09510126 -0.18609597 0.08645366 -0.052673887 0.059208985 -0.018125992 0.077496715 0.05279991 0.07415502 -0.101342715 -0.02500565 0.008410399 0.07007287 -0.07347643 0.23261715 0.18045345 0.051465295 -0.024574747 -0.08711178 0.024867736 0.06430508 0.1380644 -0.016911633 -0.07845733 0.13475052 0.09532972 0.032001905 -0.0038094083 0.0493241 0.07638113 -0.019784987 0.13718584 0.17010774 0.003045545 0.026331015 0.0051849047 -0.025015557 0.05779486 0.12909317 0.15618403 -0.29109553 -0.10592649 -0.002196998 -0.070907004 -0.009886361 0.03047952 -0.04360437 -0.11538571 -0.013505463
45 0.080034 0.033320796 0.12800935 0.07482876 0.03095138 0.02110859 0.18159041 0.009889572 -0.08876037 -0.09679063 -0.09182491 0.10204907 0.10841678 -0.104113646 -0.01707369 -0.060434256 0.029314868 -0.012692603 0.10818064 0.06065028 -0.05416537 -0.15128991 0.070567854 -0.18740442 -0.05957195 0.07049177 -0.14132237 -0.111686595 0.091078974 0.13740514 0.083674334 0.056103747 0.05022066 -0.0655971 -0.019745748 0.14773512 0.019085353 0.059006605 0.24084005 -0.046188243 -0.13248813 0.10997222 -0.13473363 0.15439235 0.11623102 0.117956005 0.06614194 0.057443522 0.06739007 -0.16131137 -0.11781841 -0.021226373 0.1446393 -0.21678647 -0.07211658 -0.04340321 0.15024583 0.10302494 -0.14371496 0.011330417 -0.021866916 -0.013313592 -0.049692016 -0.24778362 -0.18344142 0.027740931 -0.14214438 -0.030396912 0.12723032 0.0042794887 0.037498556 -0.109040394 -0.16590568 -0.00043476842 0.12033769 0.01709822 0.0070986506 -0.12903373 0.050268374 0.0939701 -0.19523802 0.08855868 -0.055355027 0.05955498 -0.017573299 0.08029654 0.05503352 0.070645146 -0.108000964 -0.016696824 0.004178625 0.0891608 -0.07555898 0.23847465 0.17243807 0.05659125 -0.025165586 -0.09817975 0.023802865 0.05639227 0.14977664 -0.028898334 -0.077855945 0.14293689 0.09015562 0.026321676 -0.0053586056 0.043845262 0.07417357 -0.02556607 0.14211161 0.17107454 0.009649674 0.024462953 -0.0019806218 -0.024030393 0.059622545 0.13150196 0.15857936 -0.30206776 -0.12019559 -0.004909576 -0.058089435 0.0030953616 0.032550093 -0.038689613 -0.1064742 -0.0067914645
48 0.07116937 0.029329527 0.11239254 0.07797423 0.031302866 0.021616919 0.17779255 0.003291321 -0.08535172 -0.09758258 -0.08203344 0.098229386 0.09946763 -0.09044955 -0.024294356 -0.058596198 0.029945957 -0.0061382893 0.10374623 0.054397814 -0.051820893 -0.14925958 0.07933763 -0.1857221 -0.054534093 0.06916506 -0.13385434 -0.10572051 0.09135033 0.12620135 0.07628112 0.048749518 0.04666963 -0.06089834 -0.026729137 0.14234859 0.013786161 0.058369394 0.23926997 -0.045154322 -0.12268328 0.10385253 -0.13340321 0.15418558 0.11536215 0.12140238 0.06606096 0.059588317 0.0641014 -0.16202223 -0.11332632 -0.02483754 0.14579494 -0.21219091 -0.07098583 -0.05171157 0.14783862 0.1015546 -0.14137965 -0.00010072865 -0.02357272 -0.010504699 -0.048301093 -0.24197842 -0.17855877 0.023942547 -0.14510487 -0.025331076 0.1268526 -7.19448e-05 0.042266686 -0.09814975 -0.1598371 -0.009185965 0.108616345 0.010351341 0.00764294 -0.124690555 0.054130085 0.098837346 -0.18891862 0.096763544 -0.055691186 0.06675658 -0.020010093 0.075429015 0.052213363 0.06842571 -0.11006977 -0.01048792 0.002313151 0.091498785 -0.06776677 0.23247662 0.16360694 0.05858464 -0.019103033 -0.08914534 0.027105428 0.053224165 0.1317856 -0.03261367 -0.0775564 0.13644202 0.088205434 0.030898837 -0.01583479 0.042965714 0.06836084 -0.025182443 0.13600154 0.17301425 0.009978577 0.024988586 -0.009504802 -0.019215873 0.06345431 0.1258901 0.14899024 -0.30222142 -0.11434372 -0.009434365 -0.055826742 0.00301404 0.03937949 -0.029032402 -0.10494769 0.0070404075
28 0.07886525 0.033571795 0.1252028 0.063334085 0.02818206 0.029266478 0.17693028 0.018287728 -0.088332534 -0.094475396 -0.09412 0.10137415 0.10465848 -0.10550543 -0.012705857 -0.056986555 0.027166564 -0.011457846 0.10629459 0.058387127 -0.050175205 -0.1366672 0.056368336 -0.1708724 -0.057914704 0.059860826 -0.13930544 -0.105460025 0.089268915 0.12772596 0.088600025 0.051766165 0.04861655 -0.06294932 -0.018062111 0.1335872 0.024041006 0.061322294 0.2353669 -0.05098328 -0.1287409 0.0993872 -0.1301113 0.13676286 0.11233147 0.110504225 0.06145842 0.061385166 0.06398905 -0.16517003 -0.13043976 -0.021640277 0.13671769 -0.2123338 -0.06986171 -0.034720577 0.13763389 0.10375429 -0.15095627 0.011590436 -0.019760842 -0.016246084 -0.04429235 -0.23385808 -0.1871639 0.026876543 -0.14431587 -0.03157072 0.11684043 0.0010702489 0.032181013 -0.10297238 -0.16553459 0.006889645 0.115096204 0.0211077 0.007646728 -0.12997346 0.046386056 0.09642242 -0.18834202 0.08278594 -0.053563274 0.059160914 -0.024744574 0.075383656 0.05024602 0.072738506 -0.10344011 -0.023337584 0.0029390766 0.07498625 -0.070928246 0.23418897 0.17686307 0.049138617 -0.024866566 -0.0926559 0.024956247 0.057879463 0.14518811 -0.018305637 -0.075175434 0.13870378 0.09265487 0.027749073 -0.00036679316 0.042593423 0.076111935 -0.022401113 0.13587722 0.17221017 0.0038709117 0.027341362 0.0081157535 -0.022924466 0.061244942 0.13192138 0.15880156 -0.29271823 -0.10606911 -0.009676011 -0.06315491 -0.0032193963 0.032213442 -0.04201928 -0.11251984 -0.0065541547
15 0.07445286 0.030567678 0.1202675 0.067392 0.026365455 0.024837181 0.17530808 0.009301481 -0.08762384 -0.09240805 -0.08770336 0.1017568 0.10848539 -0.09888269 -0.016480789 -0.056052696 0.025363784 -0.0077590235 0.108633 0.062474024 -0.05558125 -0.14632109 0.06888647 -0.18572205 -0.05610276 0.06675743 -0.1423857 -0.10841471 0.08975987 0.13461782 0.08194721 0.056487974 0.049769092 -0.06316648 -0.024592195 0.14322704 0.025774555 0.057449322 0.2407148 -0.045247745 -0.13268678 0.110593006 -0.13290581 0.14828385 0.11342677 0.123297594 0.066656 0.059762307 0.06148411 -0.16860859 -0.12421364 -0.021835865 0.14058556 -0.21938308 -0.07453995 -0.046050247 0.14389905 0.104282334 -0.14566548 0.005707297 -0.02583164 -0.006697339 -0.04031273 -0.24217933 -0.1853749 0.032787427 -0.14840534 -0.0360171 0.12229922 -0.00010478404 0.03740257 -0.109949626 -0.16937791 -0.0006774062 0.11825033 0.017388942 0.010451701 -0.12834416 0.050793525 0.095839426 -0.19476405 0.09267778 -0.055756833 0.06637103 -0.0153031135 0.07373657 0.05520257 0.07289301 -0.10869045 -0.02058226 0.0035192398 0.08380842 -0.07227635 0.2435723 0.1745833 0.062086243 -0.023954596 -0.09797084 0.02007744 0.05549328 0.14542045 -0.024878593 -0.07506826 0.142552 0.08684935 0.028718034 -0.0074953637 0.045922004 0.07257484 -0.025248809 0.14064576 0.1739973 0.0068531353 0.022177652 0.002303428 -0.021632414 0.06114831 0.13204454 0.15063784 -0.29945835 -0.11521343 -0.0033409973 -0.06691251 -0.0071048858 0.0376505 -0.037998736 -0.10764492 -0.0072283824
2 0.080620475 0.03682086 0.12750244 0.06717693 0.032195404 0.0268346 0.18197073 0.011313485 -0.088068485 -0.09415149 -0.08972461 0.10239408 0.10953527 -0.10757886 -0.016671484 -0.062156044 0.028506612 -0.013455192 0.111773 0.0591617 -0.05235222 -0.14642254 0.059312176 -0.17887722 -0.05672634 0.06590508 -0.14505407 -0.11139939 0.09009742 0.13717732 0.09062922 0.059851073 0.04751908 -0.06684984 -0.015896035 0.14189318 0.023047993 0.06064902 0.23593241 -0.052369963 -0.13374017 0.1069908 -0.13681945 0.141045 0.111583404 0.11492958 0.0638258 0.064802445 0.06806786 -0.16094247 -0.13066827 -0.024752516 0.1389233 -0.21943635 -0.06938232 -0.03718793 0.14128254 0.10949217 -0.15031567 0.013211301 -0.01983318 -0.013797258 -0.039106157 -0.23857528 -0.18904848 0.024716757 -0.14294274 -0.036915224 0.12282221 0.0049623125 0.03438666 -0.108061634 -0.16783234 0.001910418 0.114184864 0.016135484 0.006383122 -0.13336226 0.046685155 0.09474514 -0.19065477 0.088604234 -0.05217883 0.062297784 -0.023961969 0.07637379 0.05761649 0.07711635 -0.10288511 -0.026792599 0.007066225 0.07928468 -0.073169924 0.24030755 0.18507448 0.057824355 -0.02868128 -0.091660336 0.020147782 0.062186304 0.1454085 -0.020715127 -0.07699528 0.14349732 0.09688303 0.027711378 -0.002469051 0.046395775 0.08019948 -0.024668485 0.13797785 0.17575127 0.005076531 0.026241995 0.00526985 -0.024895763 0.056808054 0.13178407 0.15395784 -0.30104834 -0.10652567 -0.004352689 -0.06863674 -0.003891636 0.036497686 -0.03967034 -0.11429814 -0.00344496
38 0.072969675 0.035393775 0.11857317 0.06899127 0.029498277 0.020486899 0.16815896 0.010159609 -0.08680116 -0.09123204 -0.084272504 0.09800631 0.1041922 -0.09972134 -0.019130437 -0.057857882 0.023061855 -0.010349938 0.10536399 0.055779956 -0.045808323 -0.13720237 0.059479307 -0.1732436 -0.056036524 0.06913896 -0.13644312 -0.1063371 0.08755709 0.13156186 0.07959488 0.05140147 0.050491076 -0.06024727 -0.02178898 0.13882636 0.026043218 0.057981383 0.22932196 -0.044337217 -0.12583745 0.10376001 -0.12935342 0.14250273 0.11093269 0.11409879 0.05733198 0.057702035 0.06033897 -0.15672453 -0.11585375 -0.021644348 0.13703032 -0.21218356 -0.07284808 -0.040757686 0.14022303 0.1037549 -0.1465703 0.004900582 -0.025095737 -0.01490023 -0.041427538 -0.2363151 -0.18148544 0.02756387 -0.13845327 -0.035714857 0.12070309 0.004559743 0.033336714 -0.10075267 -0.15540186 -0.0011088661 0.11068385 0.020900998 0.0055982834 -0.12877686 0.047206152 0.09299403 -0.18810351 0.08416652 -0.048082132 0.058686323 -0.016674992 0.06920069 0.052117623 0.069341704 -0.10129555 -0.014770477 -0.0016972946 0.08420254 -0.071011 0.23331136 0.17333041 0.05464139 -0.028178923 -0.08833602 0.018139672 0.055353902 0.14080916 -0.023701156 -0.07061193 0.13302055 0.09123712 0.027431138 -0.004806017 0.042173658 0.06967128 -0.02588657 0.13076833 0.16457224 0.0064647333 0.026898308 -0.0022921762 -0.018961286 0.06191562 0.12357232 0.14507708 -0.28870878 -0.105106264 -0.007060504 -0.060802396 0.00029920807 0.03453936 -0.040224705 -0.1055559 -0.0058380966
8 0.07217548 0.03497009 0.11874924 0.07539554 0.026354134 0.023088496 0.17462549 0.011152995 -0.086648196 -0.09030195 -0.08902272 0.103050396 0.10471505 -0.097168565 -0.017631631 -0.05967936 0.023299037 -0.011754409 0.10596419 0.05983454 -0.048312727 -0.14477481 0.06768758 -0.18015349 -0.056792818 0.07090523 -0.13653657 -0.108669475 0.086115204 0.13303086 0.07688557 0.050938033 0.045590274 -0.06302575 -0.019864896 0.13598564 0.022445863 0.0524346 0.23572649 -0.047527704 -0.12727854 0.10742785 -0.13004823 0.14681141 0.11047212 0.115141004 0.063339114 0.055414535 0.062425368 -0.15571143 -0.11822786 -0.029112153 0.13548122 -0.20909517 -0.07225539 -0.04079386 0.14009193 0.10491175 -0.14078294 0.009962139 -0.021360243 -0.008306915 -0.04458468 -0.2329132 -0.17717277 0.024345012 -0.14157093 -0.031108467 0.12127071 0.0020467832 0.038590185 -0.1025453 -0.16125466 -0.0025414836 0.11376699 0.014282753 0.0076756887 -0.12603603 0.045573294 0.09156004 -0.18355246 0.08691387 -0.05474179 0.062420387 -0.01888407 0.070963934 0.05203 0.070112556 -0.10753635 -0.013038032 -0.00085065386 0.085658304 -0.07033784 0.22984394 0.17089595 0.0550385 -0.025477348 -0.08821043 0.023883618 0.05681785 0.1403022 -0.027318908 -0.07042882 0.12867664 0.08906239 0.028553313 -0.0071681766 0.04572502 0.0657562 -0.0229646 0.13040897 0.16636539 0.0034924897 0.026035098 -0.006807498 -0.017033663 0.060071778 0.12694307 0.14310516 -0.2881191 -0.10802766 -0.0048155775 -0.057883676 8.166469e-06 0.035377346 -0.030938592 -0.10070009 0.00093290606
26 0.07677857 0.035272393 0.11668839 0.07260687 0.03038096 0.024518738 0.17946766 0.004806168 -0.07890881 -0.09735865 -0.083910614 0.10478636 0.10829858 -0.095637344 -0.021386834 -0.06504477 0.029454576 -0.008614636 0.10709506 0.05124668 -0.05169793 -0.15257454 0.07561555 -0.19407566 -0.05065588 0.07021061 -0.12948206 -0.110559985 0.09057844 0.13201202 0.07146252 0.051529773 0.05389249 -0.061530706 -0.032015942 0.14019255 0.013933713 0.055651236 0.24243501 -0.04574041 -0.11862796 0.106923744 -0.12989485 0.1481036 0.11118485 0.12567303 0.061042994 0.0577911 0.0672273 -0.15962891 -0.1169031 -0.024892507 0.13846739 -0.20942111 -0.07067896 -0.04796647 0.14839925 0.10168499 -0.1436316 -0.0039991247 -0.025747156 -0.009268582 -0.049011476 -0.24514167 -0.17887457 0.02278568 -0.14566837 -0.02408534 0.124315955 0.0063343463 0.04328118 -0.09994897 -0.1624466 -0.014227279 0.115186766 0.013119218 0.0028903433 -0.120044716 0.05029677 0.09211698 -0.19607219 0.094243445 -0.054389838 0.07242376 -0.018031357 0.079550646 0.05375494 0.06742411 -0.10898186 -0.0066013397 -0.0044204686 0.09028375 -0.06738014 0.2254244 0.16547336 0.062586494 -0.027640771 -0.08898735 0.02482116 0.05426248 0.13488731 -0.026134089 -0.07645581 0.1305872 0.08456613 0.03173695 -0.01799762 0.042939804 0.06549731 -0.026732806 0.1347547 0.1723568 0.0068193423 0.027943177 -0.0117525 -0.018474331 0.062311944 0.12344398 0.14601782 -0.29889405 -0.11787256 -0.0057525844 -0.05855316 0.0022029905 0.03816222 -0.028770065 -0.09957256 0.0014179138
12 0.0793995 0.031182688 0.11739342 0.077468194 0.032446392 0.024128156 0.1809692 0.0011655982 -0.07902877 -0.0990192 -0.081647694 0.10601934 0.11314804 -0.09320315 -0.017072504 -0.06200223 0.030758705 -0.007937139 0.10536799 0.058555976 -0.051515244 -0.15442927 0.0758893 -0.19958726 -0.050020557 0.07455543 -0.13854423 -0.11482674 0.09491953 0.1348775 0.07886199 0.063098356 0.054234747 -0.06074568 -0.031742424 0.1495914 0.02064669 0.05067723 0.24431357 -0.043412995 -0.1293757 0.104664125 -0.13555565 0.15417166 0.11002553 0.12800469 0.06513263 0.06388256 0.06701594 -0.1686714 -0.124269545 -0.032387298 0.14755514 -0.21985592 -0.07363265 -0.051127404 0.14698882 0.103751235 -0.1482898 0.0035814494 -0.022167316 -0.0014160203 -0.04339365 -0.25086737 -0.18514861 0.028500514 -0.15098156 -0.028329087 0.13122447 0.006840854 0.04167734 -0.10775012 -0.164369 -0.015139891 0.112596855 0.00852181 0.0054982216 -0.13025984 0.05454035 0.092793696 -0.19712691 0.09828481 -0.054168858 0.07016735 -0.020377342 0.07799486 0.05842182 0.072260596 -0.10735197 -0.012926767 -0.00088573346 0.08892149 -0.07096576 0.23338352 0.17450826 0.06788438 -0.022135295 -0.09447359 0.021514226 0.059379034 0.13251927 -0.024599647 -0.07882807 0.13846844 0.09000271 0.036281336 -0.012265019 0.043779634 0.06642386 -0.021088341 0.14091122 0.17530653 0.009771744 0.020646108 -0.012260957 -0.022801321 0.06201643 0.13316801 0.14898545 -0.30375957 -0.11486903 -0.0096832365 -0.06479101 0.00012979246 0.035814896 -0.036307994 -0.10992637 0.00062686525
14 0.07959911 0.03521375 0.12212541 0.066777684 0.024864446 0.02963705 0.18286705 0.01155417 -0.0873936 -0.10197479 -0.088671096 0.10492208 0.103022955 -0.102976084 -0.020974662 -0.056953937 0.028353387 -0.0066734757 0.10581742 0.06281869 -0.04732517 -0.14055191 0.059256002 -0.18028204 -0.057802733 0.06797172 -0.14190823 -0.11097764 0.085957915 0.13534962 0.08152784 0.055044163 0.04488279 -0.060419645 -0.021798844 0.1386046 0.022385577 0.05817937 0.23094085 -0.048132896 -0.1287387 0.10314329 -0.13351834 0.14247876 0.10986356 0.11567265 0.059550647 0.060262185 0.064232126 -0.16189791 -0.12279378 -0.024924265 0.14117244 -0.21577008 -0.07342158 -0.03744065 0.13732167 0.10915764 -0.14539981 0.0078671705 -0.022013705 -0.010136031 -0.040236585 -0.2427475 -0.18609184 0.02475763 -0.14706393 -0.034805797 0.11906335 0.0019800707 0.039569058 -0.10245925 -0.15929066 -0.00069654523 0.118557826 0.014318814 0.003752926 -0.12951152 0.044756837 0.095372766 -0.19177127 0.08921429 -0.0490185 0.06288468 -0.015274187 0.07636805 0.054345053 0.069406144 -0.10889964 -0.019986738 0.0043837046 0.07535536 -0.071722224 0.23648593 0.17499977 0.054690193 -0.028028749 -0.08920847 0.023429196 0.05521213 0.14116636 -0.020545421 -0.07549474 0.14075513 0.08968862 0.027091188 -0.004768051 0.042445593 0.07466294 -0.021241883 0.13262744 0.16941682 0.001888702 0.02464197 0.00477763 -0.021172909 0.05548813 0.12767772 0.15345299 -0.29123178 -0.10852993 -0.006500338 -0.067425884 -0.005466951 0.033879813 -0.041113608 -0.111710034 -0.0035365948
50 0.073012 0.03425459 0.1144492 0.07214161 0.031762004 0.026273811 0.17716792 0.01184046 -0.08128939 -0.091146395 -0.08731846 0.09893226 0.10074367 -0.09617554 -0.014449099 -0.06271768 0.02696057 -0.010236771 0.10413357 0.05770278 -0.05038358 -0.14524007 0.059149615 -0.18501775 -0.055150893 0.06788979 -0.13312826 -0.1118056 0.09020707 0.13058288 0.08020557 0.052254 0.053806003 -0.06338391 -0.02201867 0.13770694 0.017366244 0.056614924 0.23834218 -0.04729477 -0.12759367 0.10839348 -0.13592917 0.1438648 0.11279684 0.11891677 0.06514991 0.061912604 0.06754973 -0.15887819 -0.116550334 -0.023365209 0.14096355 -0.20798881 -0.07252733 -0.038941767 0.13796888 0.107178636 -0.14911434 0.007886981 -0.026353383 -0.011491444 -0.045539342 -0.23765425 -0.18007231 0.027741073 -0.13979578 -0.028937679 0.12173464 0.007405354 0.03723972 -0.101793475 -0.15655054 -0.004118826 0.11795425 0.0145806335 0.0025035625 -0.12330568 0.050276108 0.09257003 -0.1878502 0.08835229 -0.056485288 0.064815484 -0.01960509 0.07887379 0.054051414 0.07458394 -0.09974706 -0.01625957 -0.0004985608 0.08165139 -0.073401734 0.22689682 0.17298591 0.05971237 -0.026321992 -0.08961006 0.023961928 0.06018716 0.14189017 -0.0251209 -0.07716558 0.1312371 0.08803508 0.029979613 -0.010752504 0.044104997 0.07070934 -0.024391204 0.13692355 0.17224425 0.003785776 0.022895664 -0.0030854738 -0.020216031 0.05532075 0.12649956 0.14750472 -0.2922274 -0.114185974 -0.0012557055 -0.057100303 -0.0027698106 0.034170464 -0.039960425 -0.105503954 -0.0031241996
43 0.07305275 0.030627053 0.11986223 0.073086694 0.030602982 0.02257031 0.18120229 0.011123567 -0.08441868 -0.0980163 -0.08604425 0.10541101 0.10434339 -0.09365407 -0.015778627 -0.056719843 0.028650733 -0.009598538 0.09979096 0.05574687 -0.048656598 -0.14590378 0.07142229 -0.18295558 -0.053466856 0.064396 -0.13259478 -0.10933125 0.0921591 0.13005228 0.074357525 0.056393366 0.05140687 -0.062511735 -0.025558058 0.14082016 0.02158366 0.05310274 0.23652072 -0.0420943 -0.124760486 0.10349733 -0.13240184 0.1423819 0.10735344 0.117453165 0.060293056 0.062221967 0.06700617 -0.15996708 -0.119489916 -0.022066204 0.14165568 -0.21100177 -0.071270674 -0.04444481 0.13875882 0.10436404 -0.14059326 0.0028826576 -0.019729793 -0.0061909016 -0.04329357 -0.24260508 -0.18069546 0.023428515 -0.1430482 -0.026738748 0.12242453 0.004059121 0.037834823 -0.09908869 -0.15728205 -0.00404704 0.11488175 0.017118135 0.0044819773 -0.12460894 0.04758928 0.09499853 -0.19414087 0.09541202 -0.054658398 0.06872078 -0.015342586 0.080863796 0.0560775 0.06732217 -0.102774 -0.016108772 -0.0025115605 0.08515122 -0.071502924 0.22719291 0.17197691 0.0612071 -0.02465492 -0.08812349 0.025093883 0.056162596 0.13306226 -0.028979434 -0.075832695 0.13518524 0.0878702 0.030284703 -0.013047158 0.04628885 0.06672513 -0.020969342 0.13728644 0.1687198 0.009125844 0.025657209 -0.0026188141 -0.022839904 0.0616391 0.12614366 0.14803454 -0.29042658 -0.112444386 -0.009147401 -0.061119184 -0.0021921024 0.04039683 -0.034064405 -0.10807332 0.0001532203
17 0.078892596 0.031006483 0.11603156 0.073267445 0.027031712 0.024467506 0.18151003 0.006097252 -0.08556756 -0.09229926 -0.08964027 0.105667844 0.11002956 -0.097376995 -0.015494755 -0.05861427 0.032266166 -0.0035913056 0.10582264 0.0597492 -0.051280066 -0.14595531 0.06819813 -0.18356124 -0.05281929 0.06755216 -0.13872178 -0.106735975 0.093454234 0.13479537 0.07868223 0.05790861 0.047413323 -0.061935253 -0.027402341 0.1435744 0.019788127 0.049008515 0.23586619 -0.042301 -0.124805816 0.10280325 -0.13274528 0.14093757 0.112750985 0.11952213 0.060891032 0.061312325 0.06058537 -0.15609476 -0.118071064 -0.022281852 0.13820113 -0.21035664 -0.07100326 -0.043411616 0.14445479 0.10498758 -0.14401157 0.0073265024 -0.022553522 -0.006500686 -0.04306048 -0.23700427 -0.18544813 0.029264132 -0.14060426 -0.028570855 0.11820483 0.0011024826 0.035466988 -0.105972126 -0.1568903 -0.0071966983 0.11596501 0.018091163 0.006686098 -0.12963796 0.050938774 0.096747465 -0.18743949 0.08959772 -0.050439924 0.06473221 -0.01231983 0.07839824 0.055258326 0.07392167 -0.09966123 -0.01818864 0.0039223568 0.0867522 -0.07203936 0.2333222 0.16644847 0.061465874 -0.023586594 -0.09113585 0.024285426 0.05683534 0.14042933 -0.025377404 -0.07491258 0.132287 0.08583809 0.028292963 -0.01208632 0.048878964 0.06985685 -0.018931152 0.13526669 0.16602056 0.0049772444 0.021449134 -0.006460468 -0.018774332 0.05981996 0.123722784 0.14993574 -0.2941005 -0.10989824 -0.0068358183 -0.06436987 -0.002221211 0.032992464 -0.036009848 -0.10861512 -0.0026910815
19 0.07059182 0.034755062 0.11597881 0.06984141 0.031493776 0.02242084 0.1852006 0.010931188 -0.08385597 -0.090139575 -0.093995415 0.10847384 0.10935263 -0.100541376 -0.018789833 -0.06634831 0.033573806 -0.0053864857 0.10381389 0.06586255 -0.048911806 -0.1500595 0.062290587 -0.19020852 -0.055330228 0.06455494 -0.13639635 -0.11407006 0.09112166 0.13431646 0.084544085 0.060931563 0.05414474 -0.06472665 -0.019136557 0.1465229 0.026235957 0.05132514 0.24448909 -0.05202821 -0.13360058 0.11091324 -0.14128986 0.1435329 0.109120764 0.11069438 0.066677116 0.057091773 0.061311774 -0.16564885 -0.12553947 -0.027384428 0.13485384 -0.2148813 -0.06723567 -0.038913958 0.13967389 0.10551647 -0.15086071 0.010907071 -0.02672499 -0.007565818 -0.047250863 -0.2427273 -0.18663238 0.027784258 -0.14140584 -0.033555858 0.124070354 0.007479902 0.038276277 -0.1029794 -0.16255075 -0.0017240566 0.112728715 0.015409582 0.0084619075 -0.12925376 0.042981125 0.09159188 -0.19640869 0.09242231 -0.05424195 0.0582184 -0.022694977 0.07882744 0.05266037 0.07121047 -0.10045158 -0.017158896 0.0039294004 0.08367017 -0.06991518 0.23564097 0.18068723 0.055729974 -0.026145142 -0.08776351 0.02778781 0.056691054 0.1396683 -0.020738134 -0.07292079 0.13837081 0.09153044 0.033672888 -0.0052910536 0.049401402 0.07589922 -0.023061741 0.13806234 0.1747427 0.0022121728 0.027656022 -0.0012862976 -0.020973325 0.060212515 0.12970077 0.15179548 -0.29681802 -0.1104805 -0.0030367912 -0.061680023 9.988711e-05 0.033648565 -0.03729694 -0.10760988 -0.0034621619
34 0.07518436 0.032502875 0.12525265 0.065381 0.024720026 0.030855475 0.18044025 0.015889043 -0.08849177 -0.09915312 -0.088984415 0.098489285 0.10484948 -0.106696524 -0.015553532 -0.061642386 0.03105468 -0.012682994 0.10703165 0.06534036 -0.048145585 -0.13351527 0.048613563 -0.16867213 -0.06097002 0.05960307 -0.14263782 -0.11104819 0.092613846 0.13243054 0.08929267 0.060550943 0.04676012 -0.064290866 -0.014697873 0.1332182 0.02499686 0.056590423 0.2253926 -0.045609668 -0.13422069 0.100338876 -0.13369794 0.13191476 0.1064994 0.10249214 0.061295386 0.06448237 0.06262832 -0.15653779 -0.12653096 -0.021672234 0.13582493 -0.20539497 -0.06749123 -0.032634497 0.12671925 0.10764191 -0.14828251 0.021299187 -0.020877669 -0.013717504 -0.039570987 -0.22485831 -0.18843532 0.0255181 -0.13873515 -0.038620066 0.11408521 0.005110413 0.036634475 -0.103538096 -0.15557002 0.007192757 0.11471941 0.023585832 0.008442694 -0.12924804 0.04158928 0.08772442 -0.18164259 0.07898196 -0.047434952 0.055159144 -0.01674328 0.069016084 0.052211963 0.07141815 -0.10107248 -0.028657738 0.005879617 0.06891426 -0.07711682 0.22461021 0.17467244 0.054364692 -0.022952378 -0.090917416 0.02099298 0.060112204 0.1382184 -0.015073891 -0.0759965 0.14236444 0.097118445 0.030479452 0.002476212 0.0400195 0.07678693 -0.02311643 0.13922152 0.16414715 0.005586417 0.025325261 0.0057898364 -0.02517275 0.05320493 0.13259752 0.15660916 -0.2876083 -0.10575661 -0.0014655866 -0.068690695 -0.0024887414 0.034561306 -0.04388814 -0.111666836 -0.009415719
27 0.06894416 0.035616893 0.1220759 0.0675793 0.03096312 0.025942203 0.18030526 0.01770139 -0.08989837 -0.10031458 -0.094499566 0.10448057 0.10388094 -0.096717715 -0.017045943 -0.06995105 0.03889365 -0.0042903433 0.10478598 0.06248296 -0.050186675 -0.14818199 0.05828907 -0.18868811 -0.05224668 0.068652794 -0.14475104 -0.1143441 0.096548 0.1382704 0.08180173 0.058203675 0.049764656 -0.06960023 -0.02483851 0.143193 0.022455735 0.05559961 0.25308976 -0.04206224 -0.13479452 0.11420468 -0.14423302 0.14940983 0.12342951 0.11876803 0.067360796 0.0577892 0.06564163 -0.16584514 -0.1287529 -0.026468573 0.1489135 -0.22555502 -0.07043541 -0.044665296 0.14684212 0.11508301 -0.15565641 0.0053375037 -0.027848301 -0.0117982635 -0.04184515 -0.2502563 -0.19288573 0.022641974 -0.15257554 -0.034124803 0.12706445 -0.0019350643 0.04254348 -0.1093429 -0.16516952 -0.0108215595 0.11496634 0.019724594 0.0024377443 -0.127022 0.055812646 0.099998854 -0.20346124 0.08996419 -0.05853232 0.06328976 -0.021002369 0.0834552 0.05135077 0.075210005 -0.10226395 -0.015029434 -0.00017621362 0.0866729 -0.06964967 0.24216111 0.17621037 0.05930606 -0.022668464 -0.09074862 0.021843065 0.05795887 0.14003783 -0.028832225 -0.08379711 0.134536 0.09200421 0.027639667 -0.0044055497 0.045518156 0.071278304 -0.023047268 0.14195803 0.17280768 0.001079203 0.023725607 -0.0033365684 -0.028474825 0.054950412 0.1308444 0.15499887 -0.30849552 -0.11649113 -0.0071467194 -0.059789952 -0.0033718597 0.043056037 -0.033775922 -0.106960416 -0.0038678343
36 0.07519572 0.03710758 0.12371097 0.059794325 0.033333182 0.02727652 0.18930684 0.015520706 -0.0940852 -0.10059188 -0.09603076 0.10426838 0.11693899 -0.112422764 -0.013658134 -0.061653804 0.026253168 -0.010839955 0.10765995 0.07150466 -0.04989502 -0.14820461 0.05409038 -0.17810291 -0.058642894 0.0621228 -0.1531269 -0.120394364 0.09277449 0.14303218 0.09176553 0.057283103 0.053870976 -0.06809072 -0.008422742 0.145238 0.023307243 0.05945335 0.24743646 -0.05739425 -0.14310339 0.11015696 -0.13575865 0.14405523 0.11035385 0.10735803 0.06639985 0.0688444 0.06759008 -0.16906676 -0.13844739 -0.025312169 0.1401353 -0.2215997 -0.070094 -0.033750203 0.14391798 0.1100435 -0.15831015 0.019903287 -0.016848214 -0.011861738 -0.041908167 -0.24358891 -0.19934465 0.02197008 -0.14488025 -0.040735204 0.12227913 0.003909283 0.040102117 -0.11440181 -0.17203991 0.0038857516 0.12521788 0.019066233 0.0054373574 -0.14286566 0.04336132 0.096990675 -0.20074993 0.084917165 -0.052486204 0.064549215 -0.02783551 0.07552587 0.060909465 0.081439145 -0.1059609 -0.030358993 0.009791556 0.07902473 -0.0753 0.25047094 0.19541933 0.057029046 -0.029438328 -0.091559865 0.017871112 0.06755302 0.14695056 -0.019653607 -0.07779506 0.14290354 0.10006616 0.027712071 -0.00086022087 0.046876412 0.08439696 -0.019825656 0.14551379 0.17937571 -0.0012634986 0.02268819 0.005531391 -0.02584333 0.056044605 0.13715515 0.16812098 -0.30610234 -0.108043194 -0.0067226975 -0.07517151 -0.0052110776 0.03036983 -0.04531674 -0.116205364 -0.015176783
47 0.0682645 0.034138493 0.119446516 0.06483974 0.03199176 0.024139121 0.1853212 0.018472224 -0.08558859 -0.09879622 -0.093495876 0.10494449 0.108854614 -0.101026155 -0.018501703 -0.059328288 0.03321912 -0.012466233 0.10638607 0.061867274 -0.04594897 -0.14732802 0.058563158 -0.18400961 -0.056243096 0.06105347 -0.14520799 -0.11732772 0.088271804 0.13486193 0.086962834 0.05852909 0.049881764 -0.06117012 -0.015693543 0.13813764 0.024598138 0.05979725 0.23682922 -0.045451563 -0.1342493 0.105318636 -0.13671453 0.1414922 0.111331925 0.1073504 0.06299942 0.06205288 0.0646401 -0.16730824 -0.13252488 -0.028929306 0.14067407 -0.21552162 -0.069725186 -0.038065255 0.14101797 0.10716473 -0.14757203 0.009708454 -0.025054228 -0.0144806495 -0.041062295 -0.2387989 -0.1855486 0.022977958 -0.14280906 -0.037566237 0.119903006 0.00079392263 0.03469383 -0.10360357 -0.16196671 -0.0036316442 0.11428287 0.018257197 0.007659646 -0.12749287 0.044434413 0.09700368 -0.19238445 0.083547704 -0.050186906 0.065882005 -0.023493052 0.07281518 0.054867197 0.07647034 -0.09910526 -0.023352237 0.007849209 0.07962465 -0.07091111 0.23944747 0.17872626 0.05927719 -0.025163712 -0.08744657 0.02181786 0.056803767 0.13684744 -0.019644883 -0.08059677 0.13596122 0.09719894 0.031850703 -0.00027595263 0.044448357 0.079843275 -0.01842267 0.13843983 0.17448133 0.0040759826 0.02153402 0.004373618 -0.026718015 0.05480002 0.12905301 0.15716529 -0.30043527 -0.10926316 -0.008733832 -0.06450313 -0.0035302108 0.036373656 -0.037790667 -0.11435607 -0.0036501945
25 0.07055637 0.030069992 0.11573204 0.063611545 0.02983705 0.02404828 0.17418319 0.014277343 -0.08517611 -0.09161692 -0.088176124 0.101675965 0.10192022 -0.09609508 -0.021514516 -0.05760176 0.02928262 -0.011511062 0.100185476 0.056824867 -0.04963308 -0.1429938 0.06390413 -0.17573582 -0.051302545 0.066885374 -0.13862626 -0.10958716 0.08944081 0.1286741 0.08248486 0.051298972 0.047040753 -0.06135063 -0.019035706 0.13672115 0.023581406 0.054376304 0.24123135 -0.048036434 -0.12721904 0.10261374 -0.1304806 0.14144747 0.10597874 0.11372205 0.059814125 0.06420328 0.066048704 -0.15991843 -0.11988723 -0.024513919 0.13467565 -0.21219471 -0.06931949 -0.037781514 0.14002174 0.10417923 -0.14932254 0.008374704 -0.025919132 -0.010191908 -0.042217605 -0.23848622 -0.18118908 0.026443372 -0.14341308 -0.034416962 0.122569695 0.00222653 0.0355541 -0.10189891 -0.16268878 0.0014846938 0.11793207 0.01867329 0.0073789554 -0.12483904 0.048911277 0.096543685 -0.19061896 0.08637328 -0.053908337 0.06501232 -0.017521447 0.07637638 0.05087622 0.071102835 -0.1068492 -0.019754702 -0.0019478095 0.08142202 -0.07078209 0.23343517 0.17485139 0.053552292 -0.02452282 -0.09357697 0.02176196 0.056523155 0.14300624 -0.025116185 -0.07422639 0.13329992 0.09303293 0.026667148 -0.004756648 0.04270369 0.0720292 -0.022940082 0.1353968 0.17285572 0.0032110503 0.028545892 -0.0035512121 -0.021682339 0.05931696 0.12694404 0.15319192 -0.29486805 -0.11248005 -0.005381917 -0.06114038 -0.00068457925 0.03450855 -0.036981035 -0.103441164 -0.004598644
5 0.07367014 0.035144683 0.122399054 0.06604275 0.03109785 0.028899536 0.17476852 0.017192312 -0.08361423 -0.092823915 -0.08697124 0.10068686 0.11145981 -0.10619843 -0.019497436 -0.062664755 0.025349095 -0.012461286 0.107882895 0.05938409 -0.047927365 -0.14580107 0.058557943 -0.1834183 -0.05238037 0.066370256 -0.14260632 -0.11221674 0.09001177 0.13608615 0.08204445 0.05368284 0.048782 -0.061664104 -0.015119974 0.14349088 0.024507286 0.060127176 0.236638 -0.04537887 -0.13062799 0.10607452 -0.13318457 0.14106181 0.11270721 0.11453471 0.06073641 0.05965362 0.06430177 -0.15979463 -0.1258468 -0.025294617 0.13727573 -0.21688443 -0.072619185 -0.03882634 0.1400192 0.10362523 -0.15271449 0.010272792 -0.022511724 -0.008451095 -0.042129956 -0.24162523 -0.18817833 0.023406308 -0.13923062 -0.03611947 0.11982451 0.0015354423 0.036359057 -0.105280355 -0.15995434 0.0032903545 0.11996044 0.021446977 0.0046609864 -0.12825635 0.046858035 0.09171351 -0.19084021 0.08818788 -0.050334133 0.06583291 -0.02202744 0.07224717 0.055044435 0.07362398 -0.10384054 -0.021767635 0.0025671127 0.076475605 -0.07175106 0.2371656 0.17763919 0.057654794 -0.023876509 -0.08647512 0.018875876 0.060012788 0.14274636 -0.018441768 -0.0745533 0.13978064 0.09416398 0.028370915 -0.0028401634 0.045980968 0.0765724 -0.02508701 0.14043759 0.17009169 0.0019813895 0.026846686 -0.0011993581 -0.026124613 0.056061924 0.12822306 0.1550248 -0.2955201 -0.10653584 -0.006649382 -0.06437655 -0.0012764962 0.03200803 -0.03893605 -0.10987024 -0.0056095505
23 0.07280446 0.03324348 0.116617545 0.06692138 0.034448534 0.023573259 0.178268 0.00767134 -0.083423786 -0.09395648 -0.085982 0.09927066 0.102749586 -0.095553614 -0.019718334 -0.061834168 0.023588145 -0.010462482 0.09979085 0.054002304 -0.051436074 -0.14070238 0.06468998 -0.17894697 -0.054311562 0.0678527 -0.13571076 -0.10473515 0.0850512 0.12544993 0.0759123 0.055871032 0.04580208 -0.061390974 -0.024101106 0.13469875 0.021850506 0.055779032 0.23027635 -0.04342014 -0.12235626 0.10521183 -0.12779386 0.14076696 0.105007775 0.116155475 0.0591662 0.06015835 0.06306166 -0.1568586 -0.11818493 -0.029530296 0.13530324 -0.21640731 -0.06822816 -0.04288573 0.14372039 0.10060211 -0.14746462 0.0037871161 -0.02330022 -0.013417636 -0.040299688 -0.24033849 -0.18045706 0.02832005 -0.14054796 -0.030475574 0.11538182 0.0075491588 0.039509848 -0.09924895 -0.15784433 -0.0022041379 0.11632928 0.012322887 0.007561078 -0.12309078 0.04619621 0.09661251 -0.18997565 0.08608819 -0.049150817 0.0630502 -0.020496445 0.07292124 0.05129515 0.06878007 -0.10420955 -0.02175942 1.1426434e-05 0.07782609 -0.06805696 0.23444666 0.17527874 0.051647335 -0.025424603 -0.09111075 0.021827582 0.06118554 0.13532698 -0.021725904 -0.07413932 0.13317624 0.08597379 0.031725638 -0.010995903 0.043854635 0.066915415 -0.025334146 0.13510981 0.16950336 0.0028755288 0.026187243 -0.0025079923 -0.020364087 0.05605084 0.12265695 0.1472833 -0.28788775 -0.110925354 -0.0037545026 -0.06028888 -0.0043936917 0.036250334 -0.033559114 -0.10692182 -0.0041538673
41 0.07374082 0.036890935 0.119766735 0.0758735 0.029907117 0.023426615 0.18883418 0.011924909 -0.084754966 -0.09993843 -0.09070051 0.10438329 0.108556084 -0.09653489 -0.023861106 -0.06552206 0.03275865 -0.0068702213 0.11213141 0.05538408 -0.054816578 -0.15084456 0.070715226 -0.19107004 -0.058406588 0.06666366 -0.14522241 -0.116589054 0.0904822 0.13464172 0.08474032 0.055084422 0.051791865 -0.064259 -0.02668112 0.14635491 0.019611083 0.054551944 0.2420408 -0.04767622 -0.13293907 0.11248324 -0.1386364 0.15654357 0.111868 0.12422608 0.060459413 0.060027514 0.06784226 -0.1715695 -0.1199973 -0.03114506 0.146135 -0.22569586 -0.07733004 -0.049955133 0.1462202 0.10857756 -0.1530454 6.000587e-05 -0.023363397 -0.012807486 -0.04557086 -0.251179 -0.18483569 0.02553383 -0.1453338 -0.031605296 0.1232891 0.004257234 0.04080502 -0.102932006 -0.16658181 -0.0040156255 0.11854587 0.012296394 0.0084590465 -0.1273185 0.05332736 0.10026762 -0.2011664 0.09221969 -0.05777846 0.07224337 -0.014127586 0.07977968 0.056987606 0.07424643 -0.10889326 -0.016485475 0.003156068 0.08564802 -0.076502554 0.24276865 0.17891729 0.05758762 -0.021905795 -0.09544985 0.028447323 0.05396858 0.14131854 -0.026700407 -0.07550396 0.13676992 0.090133816 0.032230254 -0.008192973 0.04600411 0.074573174 -0.02706431 0.13648647 0.17259476 0.008116709 0.02910788 -0.0029021902 -0.024886716 0.063404486 0.13163003 0.15686189 -0.31185272 -0.11965245 -0.0038012457 -0.06441271 0.00088091724 0.035145797 -0.03598704 -0.10872241 0.0007343503
51 0.109678544 0.04033903 0.19271986 0.005064763 -0.00037198214 0.056324497 0.20803373 0.08491208 -0.11699843 -0.103384756 -0.12794411 0.07783337 0.13746743 -0.20321305 0.009049313 -0.06311091 0.02141829 -0.035556585 0.1447685 0.12223913 -0.02744849 -0.103674494 -0.06547999 -0.10473033 -0.0916317 0.044703383 -0.21953882 -0.12346336 0.101375155 0.17027979 0.17876886 0.081757106 0.064023346 -0.06608327 0.075571254 0.14570849 0.076310314 0.07434581 0.20623524 -0.089726314 -0.20494941 0.09220582 -0.13476317 0.046564132 0.08624019 0.010050827 0.06864793 0.09746928 0.06733818 -0.17481215 -0.22758573 0.0001571686 0.11453624 -0.20575158 -0.08973929 0.04523951 0.08287202 0.13989365 -0.21810485 0.10834919 -0.0010749736 -0.050311476 0.008044576 -0.21252047 -0.25938067 0.018962258 -0.12245349 -0.079671726 0.07078216 -0.008382893 0.019456955 -0.14145042 -0.17655507 0.09462629 0.1273852 0.07047924 0.0026590044 -0.18743742 -0.0073317736 0.07671468 -0.15753032 0.016228499 -0.034458123 0.014113751 -0.057911273 0.03618083 0.044827364 0.10471036 -0.064401016 -0.13498193 0.041852746 -0.026060287 -0.10042374 0.2706852 0.27276286 0.013383838 -0.025925964 -0.07119551 0.017567616 0.101830296 0.16465262 0.041383523 -0.08270297 0.18220282 0.16225801 0.007189164 0.08494431 0.040913302 0.16785048 -0.011444044 0.16766667 0.15418416 -0.014067045 0.034963068 0.11003835 -0.06961515 0.05188431 0.1718141 0.20936416 -0.27438694 -0.065880425 0.00044607863 -0.13323317 -0.03167993 0.00049411546 -0.12221174 -0.1954811 -0.075514905
49 0.10369333 0.043153502 0.19387099 -0.008249976 0.0003477104 0.056971405 0.20091912 0.09036621 -0.11456991 -0.10229878 -0.12515682 0.0793152 0.13500988 -0.20762908 0.010265836 -0.05623412 0.013743664 -0.038277842 0.14357299 0.12182683 -0.019405339 -0.09409307 -0.07647192 -0.08362947 -0.096160635 0.031804863 -0.21779539 -0.12936342 0.09548671 0.16564226 0.18188575 0.08520344 0.06119474 -0.059559368 0.083591096 0.13717741 0.0787806 0.07417985 0.18793343 -0.085521206 -0.20272866 0.08785086 -0.12512231 0.03342756 0.07728522 -0.005887698 0.066028215 0.09921519 0.070507295 -0.1754658 -0.23051606 0.0055359537 0.10022873 -0.19985737 -0.079624325 0.058535352 0.07506595 0.13563167 -0.2166373 0.11798154 0.012415826 -0.052742295 0.0139635485 -0.19776931 -0.25340763 0.009816415 -0.12133199 -0.08242266 0.062006947 -0.0041494435 0.010251693 -0.1321909 -0.16873711 0.102277435 0.123556376 0.07615924 0.004251949 -0.18486221 -0.011000306 0.078280136 -0.13947392 0.007090009 -0.025768869 0.0054719797 -0.06374807 0.02636087 0.046995666 0.09735611 -0.05684183 -0.14491615 0.04186866 -0.03659058 -0.09741955 0.2618556 0.2723636 0.002800835 -0.035395984 -0.06458919 0.013493821 0.09926728 0.16788079 0.051067088 -0.085525244 0.1852601 0.16238517 0.0037377775 0.094562784 0.042671725 0.17050794 -0.0073364186 0.15918261 0.15191814 -0.010940671 0.028882165 0.11667148 -0.06838999 0.052516323 0.16445711 0.212085 -0.25695437 -0.06288329 -0.0073587173 -0.13627979 -0.025432106 0.0006437025 -0.12313285 -0.19462804 -0.084102884
20 0.079176046 0.0329676 0.11411406 0.068136364 0.027324198 0.023195483 0.17734168 0.0067265546 -0.08620829 -0.09628979 -0.08709038 0.1046581 0.113114566 -0.10161686 -0.019827878 -0.06257411 0.032664847 -0.010919697 0.10352271 0.05836858 -0.053535003 -0.14811848 0.06736367 -0.19123548 -0.05375078 0.06692677 -0.14124824 -0.11326716 0.093909554 0.13689062 0.081203416 0.060341537 0.04825992 -0.06647287 -0.022675155 0.14346008 0.02013274 0.05437357 0.24219672 -0.04589396 -0.12773763 0.10295874 -0.13353531 0.14137234 0.11275539 0.12217055 0.06199135 0.062200524 0.06322103 -0.16205582 -0.1214828 -0.021858767 0.14067104 -0.21778315 -0.06778528 -0.04548661 0.13638194 0.1094422 -0.14703485 0.011165129 -0.020440573 -0.009302125 -0.039519206 -0.23872025 -0.18018167 0.024898546 -0.14558096 -0.027104676 0.12517665 0.0024527663 0.037456628 -0.106570944 -0.16255498 -0.0050179786 0.11280499 0.016918141 0.007881247 -0.1320226 0.05001735 0.09332897 -0.19242029 0.09356105 -0.055478074 0.0653084 -0.013829049 0.07982257 0.05664582 0.07662593 -0.10683595 -0.016109329 0.005659085 0.08486986 -0.07740225 0.23287494 0.17411846 0.06242478 -0.027401349 -0.09431811 0.02199758 0.060363594 0.14096482 -0.023401592 -0.07598663 0.14099118 0.09084686 0.035821185 -0.012131343 0.046022836 0.06930457 -0.016810596 0.13548203 0.16751531 0.0051443097 0.018177561 -0.007405557 -0.022016432 0.059656 0.1329985 0.1536355 -0.29301214 -0.11297858 -0.009437698 -0.06728956 -0.0025238264 0.034176834 -0.037897583 -0.10957961 -0.0068625486
35 0.06870049 0.036251538 0.1231183 0.06408305 0.02801304 0.021702034 0.1836964 0.022035686 -0.09057076 -0.09573894 -0.09453474 0.10350832 0.10393746 -0.101675935 -0.020993618 -0.06885886 0.039602038 -0.0054890243 0.11442025 0.060716193 -0.04743716 -0.1507863 0.054110453 -0.18603823 -0.060665667 0.06748166 -0.15137963 -0.11820952 0.09277699 0.13812417 0.09397809 0.05536934 0.04980844 -0.072733246 -0.02087745 0.14230353 0.024672134 0.06425832 0.25685737 -0.043228857 -0.13468751 0.11365287 -0.14602046 0.15154573 0.1255479 0.11350227 0.061576474 0.06208847 0.06362371 -0.17611173 -0.13233797 -0.030793197 0.15438731 -0.23293665 -0.07306445 -0.038199775 0.14560598 0.11678618 -0.16276237 0.0111849215 -0.028074356 -0.021232616 -0.04567719 -0.25353536 -0.19720352 0.025513377 -0.15846054 -0.0321408 0.12486264 0.005584421 0.038930193 -0.110028416 -0.1670533 -0.00161262 0.12057159 0.026643485 0.0036097676 -0.13044812 0.051907126 0.10554209 -0.20652866 0.09066564 -0.05674149 0.061332323 -0.017808815 0.087836094 0.049876034 0.07464301 -0.10228542 -0.025720282 0.0024872988 0.089723304 -0.07519774 0.24786402 0.18521741 0.056895297 -0.027869942 -0.092822835 0.027250832 0.05937256 0.14855777 -0.02238586 -0.08755687 0.14950795 0.097485244 0.028986724 -0.0053860564 0.04544029 0.079796374 -0.018134965 0.15332267 0.17682227 0.0023665314 0.026296102 0.0006946578 -0.029946554 0.06020933 0.13363981 0.16541187 -0.3098777 -0.11429999 -0.0025632249 -0.059515193 0.0005527988 0.037226513 -0.04316313 -0.10885777 -0.008041785
32 0.08523058 0.032717083 0.12340233 0.07474326 0.03409641 0.027294448 0.19166003 0.014843317 -0.089363396 -0.09461556 -0.097637005 0.108750515 0.11016236 -0.10208579 -0.01649555 -0.06334581 0.028255649 -0.008286942 0.10745023 0.058513273 -0.05566204 -0.15358754 0.06421144 -0.19282223 -0.0543224 0.06960167 -0.14160965 -0.11093944 0.09701325 0.13965377 0.08405937 0.060970362 0.04883452 -0.0720859 -0.020304553 0.14314723 0.020638408 0.054642487 0.2520112 -0.051218726 -0.13269569 0.11178359 -0.13928899 0.143416 0.11339878 0.12233562 0.065610945 0.06339217 0.067351416 -0.16878164 -0.12503543 -0.028570872 0.1382642 -0.21984513 -0.076606296 -0.04215818 0.14900692 0.11006969 -0.15216404 0.007561776 -0.027865855 -0.013104339 -0.045009155 -0.24576636 -0.19316514 0.025681183 -0.15029028 -0.032303445 0.12096498 0.00506028 0.04073364 -0.11143277 -0.1640741 -0.008886868 0.11525958 0.017100949 0.008882435 -0.12719221 0.051214214 0.0963959 -0.19485141 0.0894354 -0.058582462 0.0627286 -0.022390477 0.08503967 0.055025212 0.070134535 -0.109782666 -0.022613777 0.0102424165 0.08557753 -0.071954355 0.24287842 0.18346198 0.06315105 -0.027267192 -0.095844634 0.020622453 0.06128136 0.1441844 -0.022238085 -0.07888602 0.13361505 0.09180355 0.030829854 -0.00581048 0.050545692 0.07134442 -0.023902562 0.14610954 0.1723634 0.00907034 0.023453474 0.0020566247 -0.017399115 0.057733454 0.13579272 0.15718955 -0.30050832 -0.10874606 -0.0074347346 -0.06693593 -0.0047334656 0.031618334 -0.03657764 -0.11358922 -0.0045386134
