68 128
49 -0.063433155 0.09423382 0.061978918 0.097172335 -0.009066248 -0.029715583 0.11660781 0.22015435 -0.003202993 0.107243754 -0.080456346 0.12131305 0.070906214 -0.062335458 0.053643234 -0.1319833 0.026107453 -0.02071414 0.012530657 -0.020487467 -0.026315296 -0.05789097 -0.10179042 -0.107662305 -0.08966023 -0.010732316 -0.09789831 -0.33701333 -0.055176336 0.13374363 0.02769453 0.0022182988 0.12574309 -0.087484926 0.12470066 -0.021567889 0.123402886 0.04527526 0.21151952 0.093156055 -0.09387472 0.22488113 0.047934953 0.08399496 0.009344262 -0.028204141 -0.00012166945 -0.10688252 0.0008940496 -0.14024355 -0.034985557 -0.21712412 0.041310623 -0.2812978 0.034733545 -0.011915527 -0.062967345 0.06458088 -0.13279347 0.15116231 0.11488041 -0.059802003 -0.03268743 -0.052555036 -0.02864104 -0.031686876 -0.002446397 -0.028240955 0.058254726 0.056983627 0.022061745 0.01925725 0.0039208257 0.10537 0.13962662 -0.065818414 -0.027466191 -0.115442336 0.014669197 0.08770409 -0.07397277 -0.13548483 -0.06761514 0.017273922 -0.057911724 -0.011953577 0.16499934 0.111288264 -0.018535081 0.046491195 -0.0015997312 -0.096634075 -0.14559822 0.18214142 0.29797998 -0.119571246 -0.018415116 0.05510009 0.1998357 0.11698691 0.16449058 0.12525901 0.11476618 -0.119128816 -0.040716525 -0.04381879 0.09522358 0.09351153 0.009023746 0.057782132 -0.073362 0.03240516 -0.26500717 -0.06796625 -0.04573027 0.07792808 0.040343747 0.05560365 0.1221288 -0.06549035 -0.07265256 -0.07089283 -0.08195957 0.038942132 -0.08608278 -0.072431065 -0.021599099 -0.10156195
55 -0.06283711 0.092543446 0.06170851 0.103915155 -0.00919558 -0.034192465 0.10386643 0.21139471 -0.0062382407 0.1053625 -0.08006998 0.10992178 0.065188155 -0.052632123 0.04971357 -0.12977801 0.03242103 -0.020462897 0.0069920816 -0.028691813 -0.023332143 -0.0573533 -0.09872455 -0.11066592 -0.08034016 -0.006939602 -0.09807615 -0.33228144 -0.05311607 0.12883289 0.027082656 -0.0027145236 0.1265887 -0.08904271 0.117972486 -0.022472411 0.12206698 0.045475874 0.21427584 0.09366024 -0.087086074 0.22171368 0.054524723 0.08837872 0.01440456 -0.022180378 -0.0007007315 -0.10576126 -0.0012710502 -0.13929158 -0.035580777 -0.21696441 0.046263162 -0.28202134 0.02982376 -0.015430556 -0.06476399 0.064907536 -0.1319627 0.14409344 0.10733033 -0.063379616 -0.02882101 -0.05024109 -0.027147546 -0.032753926 0.0003229435 -0.030065188 0.059969205 0.050167486 0.028108286 0.010214305 0.0015900714 0.10368143 0.14073208 -0.06601863 -0.023083739 -0.11035259 0.017939432 0.080574445 -0.07066331 -0.12600832 -0.063769445 0.021297483 -0.04791306 -0.008478448 0.1535132 0.10992631 -0.017590554 0.04162267 -0.008597619 -0.08681387 -0.14184298 0.17142342 0.2769155 -0.107938826 -0.014212167 0.041971512 0.18182418 0.11158964 0.14025462 0.11409485 0.10406277 -0.11158948 -0.038618475 -0.03983322 0.08941619 0.07712467 0.0006762546 0.05309146 -0.06758805 0.026300391 -0.24907154 -0.06543145 -0.048400756 0.06925194 0.03525636 0.05201364 0.110406406 -0.058405668 -0.06691931 -0.070507064 -0.06619773 0.0322918 -0.08060985 -0.07134936 -0.021171387 -0.091438845
30 -0.085301384 0.093744345 0.07638347 0.12406236 -0.039278567 -0.032707654 0.08247493 0.20918603 0.00037147276 0.11473866 -0.06650828 0.11009651 0.07927638 -0.049990054 0.062379904 -0.13034485 0.04897859 -0.009679357 0.008705427 -0.029840108 -0.030778741 -0.048238397 -0.12235202 -0.13327616 -0.07457802 0.00684289 -0.07777346 -0.3599854 -0.09698432 0.12312462 0.011433185 -0.0038227704 0.10611564 -0.09047867 0.12850983 -0.051569313 0.14010373 0.05144729 0.2025395 0.11395947 -0.09171001 0.21782991 0.02784426 0.09265079 0.012428221 -0.03170861 -0.00978093 -0.09552069 -0.020842949 -0.12773784 -0.03635074 -0.21291567 0.07151462 -0.29046297 0.043797396 -0.008579339 -0.079285316 0.05807417 -0.0834206 0.14711878 0.0928016 -0.044453498 -0.040285464 -0.03641409 -0.0229927 -0.011172098 -0.006784135 -0.02356289 0.05607708 0.038526148 0.026681188 0.0078091463 0.010192161 0.08101738 0.12298777 -0.069094874 -0.030490335 -0.09069209 -0.011814364 0.077362455 -0.06120938 -0.12317999 -0.04492418 0.015745929 -0.04798197 -0.030425848 0.16614439 0.09898843 0.0034451606 0.0581404 0.0079606315 -0.07135715 -0.10271808 0.15847564 0.24897875 -0.10493665 -0.01914024 0.04987154 0.1739308 0.096551746 0.13186647 0.0865184 0.1118384 -0.11590449 -0.04529376 -0.03400053 0.0874441 0.084573686 -0.017691933 0.08737712 -0.04811857 0.034143843 -0.24762297 -0.070057645 -0.039105654 0.08254856 0.036776867 0.061778273 0.09418095 -0.06161044 -0.06995414 -0.07704276 -0.0747302 0.0017256802 -0.07769477 -0.06733676 -0.012759944 -0.09168118
31 -0.11835826 0.11702366 0.09611453 0.15511625 -0.049668413 -0.04075417 0.07520821 0.21437836 0.00063833926 0.11907359 -0.06056396 0.11505774 0.08155581 -0.043117214 0.06550556 -0.12834404 0.055406988 -0.0065987357 0.008646746 -0.04091337 -0.039122712 -0.035228305 -0.13313979 -0.1374923 -0.07648185 0.008658411 -0.073214166 -0.37421155 -0.110709295 0.12475093 0.012922153 -0.0015024868 0.09582086 -0.09646991 0.13098931 -0.06702201 0.14712696 0.052252103 0.19955479 0.12613703 -0.09641765 0.22224824 0.023174563 0.09740884 0.018341094 -0.030574214 -0.011859012 -0.094442345 -0.032991536 -0.11822542 -0.03100256 -0.21604247 0.082351 -0.29604313 0.054732762 -0.0065679345 -0.08836392 0.056359388 -0.06363355 0.1473487 0.08931676 -0.045934927 -0.04890432 -0.033991266 -0.02332914 -0.00623511 -0.01655018 -0.024230553 0.05138317 0.0393299 0.018953668 0.0034613602 0.011951734 0.07015936 0.117959104 -0.067313306 -0.034487486 -0.0782539 -0.020535398 0.07836336 -0.052023306 -0.120472305 -0.036322903 0.011841749 -0.04886746 -0.039095223 0.16948806 0.08950957 0.007115986 0.06627174 0.02044702 -0.06822175 -0.08921516 0.1477556 0.23376115 -0.09888777 -0.02059548 0.052587222 0.16987062 0.08774277 0.12331162 0.08037451 0.11454661 -0.12210418 -0.04702159 -0.0310788 0.083759665 0.08213073 -0.026841596 0.097903244 -0.03390961 0.035413317 -0.2359059 -0.068701476 -0.02414278 0.090299256 0.030806288 0.05613885 0.08338072 -0.06140752 -0.0665974 -0.07908086 -0.074858114 -0.010019058 -0.075584166 -0.066782594 -0.007539371 -0.091914244
47 -0.09977908 0.10067022 0.082300976 0.13362218 -0.039369952 -0.041559372 0.092412345 0.22311167 0.000108588545 0.115748174 -0.07162101 0.11689855 0.077489026 -0.04087604 0.056968316 -0.12312372 0.05141187 -0.014339722 0.007450673 -0.03414674 -0.0326077 -0.045114547 -0.115421414 -0.12735994 -0.0722562 0.0054337773 -0.07803191 -0.35130957 -0.09692712 0.117840275 0.012765817 -0.0013692862 0.0934775 -0.08385726 0.1273845 -0.056364994 0.13741516 0.048620425 0.18904358 0.115427986 -0.09387971 0.20800827 0.024643214 0.09032575 0.013443367 -0.03385512 -0.0074093104 -0.09228439 -0.022338703 -0.12252993 -0.03576478 -0.21475762 0.07224068 -0.2832785 0.049592197 -0.009377342 -0.07642389 0.055377826 -0.07274878 0.14052662 0.08780206 -0.0476471 -0.043323956 -0.037327923 -0.02364666 -0.014000538 -0.009356368 -0.026095986 0.050532505 0.03587656 0.02153754 0.0075501064 0.010198098 0.07242317 0.11570304 -0.06788185 -0.024444215 -0.07998782 -0.0134039195 0.079046346 -0.055304036 -0.121232495 -0.03616504 0.014666703 -0.04913771 -0.02973259 0.16276109 0.09431766 0.0056386017 0.06000962 0.02031905 -0.066442005 -0.094269164 0.15596236 0.23818287 -0.0978785 -0.014806517 0.05487306 0.17491163 0.087625735 0.12236502 0.08280504 0.107253656 -0.119597234 -0.03887576 -0.034057494 0.087174796 0.079496145 -0.015316773 0.089921884 -0.046354253 0.033015274 -0.2365965 -0.06792712 -0.032146577 0.08316025 0.033390727 0.055532552 0.094817095 -0.06334872 -0.068484575 -0.07964085 -0.0759682 0.00186914 -0.0733619 -0.060051613 -0.014640242 -0.08718552
62 -0.087580465 0.10632863 0.07826935 0.13356674 -0.03159844 -0.036145248 0.101552315 0.22842284 0.0010729536 0.12258014 -0.0688835 0.112287275 0.07936424 -0.04865648 0.054885816 -0.1321465 0.04562788 -0.013298331 0.0134848645 -0.034467135 -0.036764797 -0.045160096 -0.11101378 -0.12398401 -0.07487175 0.007964715 -0.088964805 -0.3560705 -0.08024137 0.12891498 0.011179746 0.0014471189 0.11016182 -0.09456255 0.12897624 -0.040944517 0.13810319 0.049225703 0.19577947 0.11003708 -0.09107153 0.2177872 0.03683817 0.09512527 0.010379922 -0.031106593 -0.0060798903 -0.09584493 -0.020896 -0.123831056 -0.034959733 -0.21461645 0.06628345 -0.29017964 0.047762506 -0.009655711 -0.0692211 0.055662423 -0.09063627 0.13972726 0.09380089 -0.04744447 -0.03969536 -0.045320567 -0.027987083 -0.023463387 -0.0050610807 -0.018223226 0.054720074 0.043441348 0.018881766 0.003106197 0.0075873337 0.086253606 0.11924417 -0.066951364 -0.020270014 -0.09345678 0.0032062782 0.077065095 -0.06348811 -0.13016543 -0.044222992 0.018845541 -0.05043186 -0.014571144 0.15990306 0.09688712 0.0020739497 0.053905576 0.01253357 -0.07303533 -0.113149434 0.16450918 0.25859454 -0.10910889 -0.015207398 0.058976796 0.18410501 0.10570599 0.1307688 0.09253335 0.114343755 -0.12363365 -0.0442456 -0.034896746 0.08492681 0.08748532 -0.016393842 0.07830643 -0.054890487 0.029401898 -0.25188595 -0.06132917 -0.0337324 0.07798069 0.040967427 0.06341001 0.10304439 -0.058946915 -0.06309668 -0.0805379 -0.07716307 0.009067052 -0.0803871 -0.07307297 -0.017612776 -0.09883477
8 -0.08938083 0.09874513 0.074738786 0.1251936 -0.036425523 -0.040296007 0.09634264 0.23058493 -0.0027270443 0.123085506 -0.076987006 0.12043163 0.07655792 -0.04876528 0.058595255 -0.13019186 0.04014673 -0.015250813 0.0131290825 -0.027943207 -0.029357474 -0.048630908 -0.11312893 -0.120746724 -0.078130946 0.0073707886 -0.081465594 -0.3459209 -0.087223105 0.12199366 0.016602006 -0.0040468625 0.10122493 -0.08854409 0.12809582 -0.047217555 0.13374668 0.043179907 0.198574 0.102214426 -0.09291244 0.21587461 0.031737298 0.09240041 0.012682398 -0.030789489 -0.0036817119 -0.09727192 -0.01835186 -0.12163729 -0.036334496 -0.21456778 0.061511658 -0.27830505 0.03984965 -0.00654142 -0.07291939 0.059654307 -0.08839152 0.14692737 0.09700175 -0.047418952 -0.039635647 -0.035400216 -0.023142563 -0.019724147 -0.007665278 -0.022557208 0.053255796 0.041953534 0.027206704 0.0059660776 0.0040726317 0.083804496 0.12077029 -0.067519076 -0.026256744 -0.09135943 -0.008599671 0.07751302 -0.05507841 -0.12178698 -0.048516337 0.013638697 -0.051671084 -0.026314419 0.15908939 0.097408205 -0.0037670291 0.056421556 0.0074543105 -0.07250581 -0.10453795 0.15675442 0.25280282 -0.10563428 -0.017565701 0.05489933 0.17837764 0.09916697 0.13262142 0.086856134 0.112123065 -0.11829961 -0.039615225 -0.036581237 0.08430842 0.083371304 -0.015406101 0.07918137 -0.054065336 0.032579876 -0.24817936 -0.065565646 -0.039466046 0.08462709 0.03990644 0.059891034 0.09265067 -0.057188526 -0.06556658 -0.074796386 -0.0749362 0.011209055 -0.07836066 -0.061685733 -0.011390682 -0.08905232
35 -0.10866748 0.1096785 0.08410271 0.14172596 -0.04529915 -0.041278098 0.088385426 0.22931224 0.0023870927 0.124189176 -0.06729571 0.11594189 0.07293569 -0.040951103 0.060115326 -0.12790108 0.051080447 -0.008132879 0.01545093 -0.036113888 -0.029617496 -0.04261605 -0.12461587 -0.12474328 -0.075814374 0.012163127 -0.079638824 -0.35771465 -0.10154003 0.12059201 0.017271308 -0.008561393 0.09732549 -0.09261569 0.1297723 -0.05533183 0.13856407 0.051701404 0.1977697 0.11691614 -0.095012076 0.21510355 0.02182102 0.09789851 0.016439062 -0.03438506 -0.011406345 -0.09516406 -0.026039878 -0.12333964 -0.031442184 -0.21773982 0.0760207 -0.28992808 0.047845885 -0.00418447 -0.07973751 0.057047185 -0.07644333 0.14395685 0.090784304 -0.048720144 -0.044131648 -0.038200103 -0.024519444 -0.0147708105 -0.012422588 -0.018800871 0.05062104 0.043961894 0.021995066 0.006038222 0.010903514 0.07690853 0.115837 -0.0646683 -0.02934092 -0.08044367 -0.009112455 0.0830515 -0.05430614 -0.119163595 -0.03821079 0.010046767 -0.045181066 -0.023786396 0.15888013 0.08989391 0.008026011 0.056028694 0.015257727 -0.06554146 -0.0918397 0.15161605 0.23611805 -0.10381556 -0.015042247 0.05953965 0.17700766 0.09140044 0.12720163 0.08154459 0.107935764 -0.115810245 -0.04523913 -0.038352437 0.08229133 0.08194792 -0.016492948 0.0922478 -0.0437723 0.030734185 -0.24329114 -0.06792139 -0.03287766 0.08432045 0.037547737 0.059406083 0.09178472 -0.054694295 -0.061339423 -0.074052796 -0.07301593 0.00042757814 -0.078466676 -0.065893926 -0.010027145 -0.09179584
4 -0.100840725 0.10889729 0.082516566 0.14270803 -0.03357286 -0.03625525 0.08353192 0.20991725 0.0033254493 0.11133643 -0.061883595 0.112956524 0.07542062 -0.040675864 0.05764242 -0.12902595 0.04557856 -0.0108163515 0.010760816 -0.033411052 -0.036622882 -0.04342021 -0.11908397 -0.12757972 -0.07466023 0.0060104346 -0.081099994 -0.35601538 -0.09509566 0.12136698 0.01891423 -0.007373893 0.10443575 -0.08884767 0.1297964 -0.055648945 0.13715994 0.048655044 0.20429288 0.11137004 -0.09737449 0.21932377 0.028811019 0.09656866 0.010689158 -0.03065656 -0.008128511 -0.09335367 -0.0234911 -0.12962496 -0.030572144 -0.21788247 0.064811535 -0.2900108 0.049226727 -0.0076000453 -0.078731336 0.057781443 -0.083581544 0.14519115 0.09479293 -0.047847316 -0.044650685 -0.035883162 -0.02669996 -0.016219461 -0.008846466 -0.021937741 0.05024847 0.041275576 0.022361945 0.005472538 0.0052864742 0.08189703 0.119356394 -0.066943556 -0.025675979 -0.08101112 -0.0040225694 0.082854606 -0.052019823 -0.11844489 -0.03872141 0.015212725 -0.044222843 -0.026541341 0.15951738 0.096677326 -0.001684886 0.05396123 0.012962208 -0.0743245 -0.09660975 0.15179357 0.24191181 -0.10484382 -0.01113902 0.052792806 0.17559224 0.098686084 0.13037314 0.083681695 0.10830507 -0.11605786 -0.046371225 -0.035787046 0.081247404 0.08105849 -0.01750471 0.08371608 -0.04874081 0.034332845 -0.23865756 -0.07070788 -0.030120242 0.08530882 0.03612284 0.061523534 0.09281279 -0.05917931 -0.06357966 -0.072553016 -0.07497099 0.0034626408 -0.07756018 -0.06184354 -0.016017236 -0.090339586
13 -0.105852365 0.10763691 0.08676514 0.14443302 -0.047720563 -0.039216805 0.10075862 0.24320786 0.0004970177 0.12648538 -0.07332545 0.12466091 0.074375294 -0.048097026 0.06636793 -0.13288784 0.045796756 -0.010583004 0.015681576 -0.033152055 -0.03876404 -0.04406423 -0.12464892 -0.13510504 -0.078593925 0.010536665 -0.082510434 -0.36813572 -0.10007665 0.12802935 0.0133291045 -0.0008480682 0.10285189 -0.09672823 0.13204508 -0.054268833 0.13834606 0.05169091 0.2032993 0.11457935 -0.099526264 0.2214041 0.027882807 0.09154325 0.013702445 -0.032728095 -0.011191584 -0.09732768 -0.027686456 -0.12588252 -0.033397064 -0.21638194 0.075627424 -0.29303792 0.04969313 -0.0060519385 -0.078716435 0.056148153 -0.076172754 0.14561857 0.088147014 -0.04645219 -0.04356239 -0.0407238 -0.021949368 -0.010376148 -0.012536234 -0.02069328 0.051740926 0.038608562 0.02107955 0.0065199914 0.013281407 0.08117471 0.11986465 -0.07060024 -0.034079716 -0.084908225 -0.012332264 0.08286024 -0.05697296 -0.123939276 -0.039681055 0.017146429 -0.04444202 -0.025538463 0.16230561 0.09416175 0.0035423753 0.057968076 0.01421832 -0.07266844 -0.09660387 0.15446477 0.23850742 -0.102658235 -0.012451776 0.05610547 0.17927328 0.09256638 0.12958696 0.081194036 0.11079147 -0.12135918 -0.047914498 -0.036819343 0.08218448 0.080367096 -0.013924334 0.08935512 -0.046022654 0.03444288 -0.24538553 -0.070409425 -0.029625304 0.08437997 0.032414753 0.06481897 0.08917731 -0.058347974 -0.063104436 -0.07626997 -0.07522531 -0.0050449935 -0.08393697 -0.065518305 -0.011211431 -0.09662058
2 -0.08441206 0.100066446 0.07902656 0.11883767 -0.029275516 -0.037869018 0.10307865 0.22584127 -0.0017302049 0.119110845 -0.07394294 0.11955886 0.07667175 -0.051701546 0.058652896 -0.1320675 0.04521955 -0.014225531 0.013484514 -0.034777205 -0.032206457 -0.051463954 -0.11563737 -0.123179495 -0.07630412 0.004356613 -0.08458459 -0.3494191 -0.08573374 0.12554264 0.019092014 0.0012521474 0.10484558 -0.09043034 0.12580742 -0.04401418 0.13171086 0.05022677 0.19723123 0.1046502 -0.09359285 0.21713218 0.031834822 0.08909907 0.013018719 -0.027105492 -0.005160773 -0.09656126 -0.014225436 -0.12509792 -0.03820545 -0.21547881 0.06270791 -0.2888849 0.04442429 -0.0090604015 -0.0715287 0.05944668 -0.09146729 0.14486788 0.09959188 -0.049129922 -0.037236743 -0.039486524 -0.027131917 -0.01881909 -0.006493952 -0.027057081 0.055114523 0.04573167 0.024240391 0.0054859184 0.0037654326 0.08388518 0.12089371 -0.07390174 -0.026829569 -0.09494726 -0.003630825 0.07778664 -0.06030025 -0.1168983 -0.044971254 0.015724288 -0.050798662 -0.020697251 0.16159171 0.10009551 -0.00093424605 0.05143126 0.010282703 -0.07718704 -0.104510635 0.16002773 0.25372985 -0.10117546 -0.017875556 0.053178374 0.17494744 0.099797726 0.13284521 0.09391263 0.1070784 -0.10960013 -0.03862887 -0.03740238 0.08531312 0.081887215 -0.0061498387 0.0759048 -0.055638816 0.036070984 -0.24779849 -0.067884594 -0.036516633 0.08098294 0.034903664 0.058164094 0.09662461 -0.06024511 -0.062661946 -0.07320425 -0.079126425 0.007998218 -0.07771365 -0.06341909 -0.018044783 -0.08859811
7 -0.04784614 0.104688644 0.059210062 0.07994686 0.017633768 -0.0335604 0.14396323 0.22560957 -0.013389667 0.11136306 -0.082828835 0.1264511 0.068401545 -0.05920648 0.03953558 -0.14241698 0.030915154 -0.015167147 0.009751427 -0.017389392 -0.015491847 -0.07332452 -0.07837275 -0.1095367 -0.086556315 -0.02024493 -0.1056752 -0.312614 -0.033562932 0.13686143 0.0385912 0.0070474343 0.13573264 -0.07637626 0.10127627 0.007034197 0.09773825 0.029024301 0.21699752 0.07141806 -0.082410194 0.21485008 0.06946483 0.08974136 0.015461835 -0.0147203095 0.0010172533 -0.118808925 0.0002968661 -0.15929599 -0.04468343 -0.21631667 0.032694217 -0.2854491 0.024511114 -0.02208135 -0.054962058 0.063054614 -0.16468677 0.15069623 0.1176123 -0.05924726 -0.02892667 -0.06334375 -0.026340224 -0.033244744 -0.0059801876 -0.03259025 0.07820331 0.061257966 0.03615961 0.021797482 -0.010231697 0.11181911 0.13920903 -0.076164596 -0.024446972 -0.1328407 0.015204076 0.07599122 -0.09097056 -0.1164603 -0.07835176 0.03283542 -0.049885187 -0.0048068254 0.14525776 0.111668795 -0.03354018 0.033002585 -0.020130573 -0.09481625 -0.15682437 0.18790062 0.2974618 -0.10395964 -0.016927727 0.03101771 0.17809062 0.11451899 0.14845298 0.13465236 0.10721459 -0.09048422 -0.045043465 -0.025462953 0.08204886 0.07900137 0.032723088 0.04516 -0.085520834 0.030040275 -0.2866636 -0.07819023 -0.05801992 0.06266773 0.03937676 0.054227524 0.1204204 -0.060771238 -0.07187672 -0.07186474 -0.076642945 0.055680104 -0.09127213 -0.067167304 -0.027306639 -0.09251087
12 -0.07545903 0.09134582 0.07263457 0.113248736 -0.032755207 -0.040096276 0.11388281 0.23972748 0.00010192731 0.12636915 -0.07941741 0.12956192 0.078191616 -0.049086984 0.060438115 -0.13150913 0.044878554 -0.011913684 0.010791577 -0.030559784 -0.029515743 -0.053369455 -0.10978644 -0.12835771 -0.076098986 0.0061191344 -0.08434175 -0.3501474 -0.07907535 0.12476859 0.016144818 0.0044896044 0.11095685 -0.08464599 0.118892156 -0.032388903 0.13324049 0.042807166 0.20012611 0.106918626 -0.09218824 0.21174869 0.036940467 0.09030855 0.008900442 -0.024905937 -0.006170801 -0.09763722 -0.01609707 -0.13135956 -0.038507953 -0.2159126 0.06377619 -0.2873443 0.03912436 -0.015942272 -0.06920622 0.05503114 -0.10090174 0.14529034 0.09862708 -0.043703854 -0.036405146 -0.04914861 -0.027007712 -0.014413099 -0.009245215 -0.021444544 0.059661783 0.044574887 0.026713869 0.006876473 0.005288853 0.08215792 0.12229723 -0.07372887 -0.028723404 -0.09872469 -0.00019766603 0.07631801 -0.066602334 -0.11883874 -0.049127605 0.013901291 -0.050318833 -0.021654127 0.15990318 0.0987958 -0.0030768816 0.055438723 0.0061477935 -0.07930048 -0.10680698 0.16004068 0.25177544 -0.10107623 -0.010777822 0.051720273 0.1782189 0.098066635 0.13267434 0.10047687 0.11085242 -0.112291 -0.040988054 -0.03553072 0.086292684 0.08353703 -0.005159246 0.078780524 -0.05451991 0.03106447 -0.2535735 -0.072556585 -0.04430849 0.07944898 0.04175133 0.061894313 0.10076111 -0.05809174 -0.06795088 -0.08061298 -0.08347976 0.013056759 -0.0855544 -0.06921362 -0.017164487 -0.09375642
39 -0.08655212 0.099490225 0.0780836 0.118500255 -0.028938431 -0.039598074 0.10350014 0.21340011 -0.00036777894 0.10938354 -0.07175494 0.11474288 0.071920104 -0.051245645 0.057139564 -0.12681039 0.043876827 -0.009315994 0.011537762 -0.030800106 -0.025995301 -0.04937634 -0.10993253 -0.12195691 -0.074618 -0.00212675 -0.07982613 -0.34233737 -0.07877347 0.1253289 0.015061575 -0.0020878946 0.10652527 -0.08938232 0.1180901 -0.038240213 0.13104731 0.043997083 0.19987504 0.101626545 -0.09182542 0.21538284 0.033172294 0.09026049 0.014714669 -0.028580321 -0.0030365314 -0.10003924 -0.017192751 -0.12509279 -0.036811437 -0.20908959 0.057970785 -0.28129974 0.04322674 -0.009914118 -0.069856495 0.058408607 -0.0932177 0.1417221 0.09792675 -0.048172936 -0.042125992 -0.046928804 -0.024745194 -0.020966716 -0.010549834 -0.024592217 0.05309803 0.04098223 0.02261588 0.0065541468 0.007479442 0.08262613 0.12352633 -0.07010629 -0.029732637 -0.09731608 -0.0054552173 0.077424034 -0.06533438 -0.1137334 -0.045940343 0.017464003 -0.045764696 -0.021115052 0.15582481 0.094174385 -0.0076197716 0.05523467 0.006945999 -0.07752727 -0.10984968 0.15799862 0.24972093 -0.1031906 -0.018857596 0.05393697 0.17630418 0.096077904 0.13381267 0.09277204 0.105336554 -0.112277776 -0.03987979 -0.033031505 0.0828664 0.08054791 -0.0034489671 0.076762624 -0.050499853 0.03534719 -0.24449205 -0.06883019 -0.04136292 0.080341116 0.03221794 0.059694104 0.1006889 -0.05571252 -0.06691712 -0.07370319 -0.07861528 0.0125497375 -0.08075494 -0.068254404 -0.012489629 -0.08695031
23 -0.086620286 0.1042644 0.07397667 0.116369165 -0.020892989 -0.036721516 0.100906745 0.2111168 -0.0037138555 0.10930293 -0.06754475 0.11096169 0.075298734 -0.049786363 0.05407883 -0.13693394 0.04031591 -0.013625736 0.007054566 -0.03219118 -0.03234213 -0.050917074 -0.10861098 -0.12770593 -0.08072428 0.0018386783 -0.088946216 -0.34863532 -0.08194334 0.12433941 0.016420256 0.0027412993 0.107909605 -0.08811539 0.11958481 -0.039500672 0.12794797 0.047943514 0.20219065 0.10659088 -0.086266905 0.21896519 0.044069357 0.09207279 0.010733416 -0.023500456 -0.007329129 -0.10130719 -0.01744047 -0.12917654 -0.03477153 -0.21753189 0.06009038 -0.2908056 0.043033592 -0.015118066 -0.070029974 0.05386537 -0.10182088 0.14330092 0.10108316 -0.052160524 -0.036043074 -0.047226552 -0.023074375 -0.016921205 -0.0075929337 -0.024113951 0.054733712 0.04872029 0.029238714 0.012523874 0.005956383 0.0897342 0.12842037 -0.07266801 -0.027240582 -0.0949731 -0.0036915978 0.07936486 -0.06859279 -0.11845635 -0.04723866 0.019318432 -0.047047544 -0.022453548 0.1550455 0.09706693 -0.010095547 0.04750914 0.002960631 -0.08212522 -0.11109455 0.16378115 0.25591278 -0.105016395 -0.016357796 0.043531295 0.17363575 0.10218263 0.13232109 0.10017933 0.10921964 -0.10538306 -0.046545155 -0.031213123 0.07921769 0.078367166 -0.008721417 0.07101366 -0.05319506 0.03218717 -0.25107518 -0.07024186 -0.04118809 0.07791055 0.033144556 0.055585038 0.09757734 -0.053329606 -0.068972394 -0.07109021 -0.07436831 0.012089426 -0.077753924 -0.06250914 -0.016727958 -0.09131403
20 -0.08684125 0.103071384 0.07289157 0.123393975 -0.032867216 -0.03984426 0.09486481 0.21609508 -0.0043482143 0.11257426 -0.07105639 0.114086196 0.07577295 -0.048518065 0.052802302 -0.1282117 0.044608135 -0.014023748 0.007323818 -0.0351961 -0.03721352 -0.04856357 -0.10746266 -0.12647226 -0.07349608 0.001176239 -0.08431354 -0.34225392 -0.07940015 0.12218478 0.014157541 0.0008901536 0.103818074 -0.09009645 0.11781292 -0.039223637 0.12753469 0.044139195 0.19636512 0.10395228 -0.087180965 0.20946051 0.039070297 0.08514277 0.016048852 -0.020890111 -0.009345987 -0.096258275 -0.022486622 -0.12306261 -0.030389257 -0.20422399 0.06298372 -0.28244773 0.04404698 -0.014807482 -0.0758925 0.05898927 -0.09374144 0.14000437 0.09505987 -0.0511465 -0.033711277 -0.039497763 -0.01967898 -0.01572975 -0.00815793 -0.018967643 0.054192614 0.038219508 0.024817849 0.0038252058 0.0065519013 0.08432105 0.12180119 -0.06776436 -0.026010334 -0.09148872 -0.0016822894 0.07494956 -0.06378053 -0.114376806 -0.048455738 0.016723119 -0.038368426 -0.017013427 0.15419674 0.098476335 -0.00449774 0.054693416 0.012127038 -0.07064372 -0.108244136 0.15235028 0.23723045 -0.09403364 -0.01620027 0.043561097 0.167919 0.095057175 0.1271166 0.087522194 0.10550109 -0.10558495 -0.042955834 -0.030727051 0.07338028 0.07483715 -0.010431899 0.077867694 -0.050084572 0.026704468 -0.23833591 -0.07140061 -0.03979964 0.076455675 0.034802347 0.056934927 0.09504254 -0.052154906 -0.06755529 -0.076441646 -0.07609214 0.007945052 -0.08047004 -0.06675088 -0.0144657185 -0.093001746
15 -0.10069965 0.1109172 0.084781185 0.13360085 -0.042692836 -0.04316273 0.100224175 0.24044533 -0.002551314 0.12640418 -0.0760718 0.12520894 0.07956159 -0.048534818 0.061992627 -0.12942809 0.044198193 -0.009181692 0.014421353 -0.031964406 -0.0388951 -0.048958987 -0.11542336 -0.13586974 -0.07705633 0.00014010535 -0.08502903 -0.3604031 -0.09299834 0.1255857 0.015768344 -0.0013265378 0.10953157 -0.09330741 0.123017006 -0.045174837 0.14056224 0.049204182 0.2043106 0.11300476 -0.09709076 0.22888435 0.038050193 0.095415 0.017380066 -0.024261884 -0.0039083255 -0.10183298 -0.025888242 -0.13227162 -0.038473945 -0.21338987 0.065684356 -0.29324776 0.043452296 -0.014676476 -0.07800252 0.055245634 -0.086759165 0.14342846 0.094705395 -0.047187924 -0.03528048 -0.036798503 -0.021276185 -0.010409327 -0.012300162 -0.025702324 0.051222183 0.03775642 0.026485303 0.0016535039 0.0049074027 0.08584215 0.12522136 -0.071041435 -0.029196346 -0.087124944 -0.005896296 0.07784272 -0.061721444 -0.11512813 -0.047224376 0.01720995 -0.040947303 -0.02764396 0.16176172 0.09813808 -0.0016004681 0.054815736 0.013275571 -0.07444801 -0.102769814 0.15859446 0.24106412 -0.096352294 -0.015163758 0.0458393 0.17268185 0.09112549 0.13054205 0.08887041 0.108715996 -0.10843397 -0.05090772 -0.03611908 0.081050165 0.07854526 -0.010960281 0.08285338 -0.04657985 0.034077555 -0.2490154 -0.07747112 -0.03347965 0.08307504 0.034698304 0.061956264 0.09350652 -0.05519962 -0.07240067 -0.07685424 -0.08280852 0.0014248553 -0.08064697 -0.06931471 -0.01175366 -0.09788776
56 -0.08284742 0.10237723 0.077746175 0.11875857 -0.030183125 -0.041804846 0.10739801 0.22927223 -0.008157723 0.11805437 -0.07232028 0.11613213 0.07858789 -0.04966971 0.055523522 -0.1315121 0.040008564 -0.009534606 0.004615518 -0.030311568 -0.030568559 -0.05073115 -0.11194202 -0.12728201 -0.07947957 0.0017944525 -0.08563615 -0.3517563 -0.08115723 0.123469636 0.01521752 -0.0025495868 0.11030094 -0.088691846 0.11783395 -0.035315134 0.13156775 0.045182712 0.20472339 0.10041558 -0.0945946 0.2204223 0.03862178 0.08973589 0.012429727 -0.027228076 -0.003967676 -0.10260033 -0.01753892 -0.12811337 -0.038581055 -0.21814643 0.061178874 -0.29331422 0.043442428 -0.00944185 -0.07154553 0.060388032 -0.100332946 0.14476545 0.09512791 -0.054622866 -0.03986347 -0.04165866 -0.028765034 -0.016471706 -0.010130729 -0.02503312 0.05905124 0.043103572 0.030194927 0.0060517476 0.006869366 0.08959808 0.12958437 -0.074220985 -0.026289426 -0.09678733 -0.0059079714 0.07689006 -0.06409336 -0.11629949 -0.049849547 0.015641386 -0.04483521 -0.020507535 0.16090041 0.10062837 -0.0044420245 0.0536277 0.0057268706 -0.07568688 -0.109966986 0.16037463 0.2562579 -0.099554636 -0.012767786 0.051267676 0.17600062 0.09843935 0.13028131 0.09309463 0.107957095 -0.1084153 -0.040686626 -0.03761503 0.08069909 0.08081588 -0.0050829174 0.0775498 -0.05714123 0.034575813 -0.25341764 -0.06915153 -0.04423896 0.08282658 0.03687293 0.058018785 0.10349387 -0.055649985 -0.07096731 -0.07591241 -0.074726105 0.014285096 -0.08444378 -0.069211364 -0.018685179 -0.0938402
9 -0.08802478 0.094310746 0.0776986 0.12189832 -0.03953179 -0.03653731 0.09736922 0.22012483 -0.0011351614 0.11813293 -0.07578942 0.121121116 0.07517437 -0.05207415 0.064737484 -0.12451209 0.04499647 -0.01421903 0.005508912 -0.029903581 -0.036900133 -0.040171754 -0.110932715 -0.12303694 -0.07542695 0.0006882119 -0.07511814 -0.3467786 -0.089840546 0.11741237 0.015444746 -0.0028737937 0.10668876 -0.08824152 0.1222337 -0.0429536 0.13064876 0.051219087 0.19607526 0.11269789 -0.09616333 0.21447515 0.027196366 0.09046764 0.010937275 -0.031660546 -0.010010094 -0.09229471 -0.019010084 -0.1274104 -0.032183412 -0.21574289 0.0686339 -0.28801486 0.045649584 -0.008348199 -0.07614654 0.058574453 -0.09016139 0.14402454 0.09302723 -0.050626375 -0.03960193 -0.041678894 -0.020432642 -0.016909178 -0.00672538 -0.01973846 0.053227637 0.043208238 0.024667514 0.01128525 0.01088602 0.08010295 0.12572584 -0.06693328 -0.027426377 -0.089348115 -0.007860863 0.082017936 -0.064753056 -0.12577175 -0.047635153 0.010578787 -0.048687406 -0.019513771 0.16139404 0.09659582 -0.00013154146 0.059503496 0.013309089 -0.0728156 -0.106069334 0.1593427 0.24685921 -0.10532075 -0.013736565 0.054309018 0.18172967 0.09710941 0.13241385 0.092152245 0.11402814 -0.1204688 -0.040729698 -0.036032937 0.085753545 0.08608043 -0.008622758 0.0874639 -0.04801314 0.029390192 -0.25047153 -0.06703636 -0.034196213 0.08631354 0.036243085 0.05932556 0.104121394 -0.06535773 -0.06948193 -0.0806716 -0.077089824 0.008337763 -0.079403624 -0.06766656 -0.015616278 -0.094926685
40 -0.08035802 0.09530022 0.07017745 0.12003489 -0.036946394 -0.035755537 0.09974941 0.22694157 0.00044609932 0.11569762 -0.07652029 0.12006861 0.0731647 -0.05131781 0.060058434 -0.12861526 0.041498844 -0.016349271 0.008409008 -0.036890842 -0.03358352 -0.04536756 -0.11515734 -0.120683275 -0.07174344 0.0075958935 -0.07924392 -0.35189462 -0.088488944 0.120298386 0.014880297 -0.0062873224 0.1071549 -0.08882378 0.12764104 -0.045090955 0.13315627 0.04664607 0.20180714 0.10873928 -0.09320458 0.21383806 0.032156855 0.091838166 0.015030339 -0.029526107 -0.009834802 -0.09796889 -0.01508643 -0.12546052 -0.030974839 -0.21532452 0.06385763 -0.28182933 0.046236347 -0.00821325 -0.07085488 0.05589969 -0.08621928 0.14371203 0.09669381 -0.04767744 -0.04294825 -0.041867174 -0.021583244 -0.018999945 -0.0046070633 -0.02080467 0.055557318 0.043124463 0.022247024 0.009138673 0.010076404 0.084057674 0.12040629 -0.066508286 -0.030774789 -0.08892464 -0.0062341434 0.07681222 -0.059010323 -0.12077524 -0.047182478 0.014734852 -0.0492703 -0.019313652 0.16001321 0.09567154 -0.0037606428 0.055635642 0.012068052 -0.071613796 -0.10222429 0.1534888 0.2497199 -0.10363395 -0.016235957 0.051748555 0.18038248 0.09962802 0.13172711 0.09182396 0.107470065 -0.12148933 -0.04620278 -0.03995725 0.08652845 0.08254554 -0.0104915695 0.07914978 -0.050497796 0.029200057 -0.24826927 -0.06681234 -0.039068375 0.08209351 0.038599607 0.06114256 0.09758312 -0.05510223 -0.06636577 -0.07734403 -0.07804374 0.0029401148 -0.08118033 -0.06720691 -0.014467884 -0.087848544
18 -0.041863523 0.09871278 0.051057857 0.06779736 0.02103947 -0.040402964 0.16046621 0.2529773 -0.016128577 0.12922263 -0.09258745 0.13975234 0.072535016 -0.05640436 0.03774128 -0.1366581 0.02837037 -0.01089409 0.005966916 -0.011240324 -0.009165023 -0.06959835 -0.07648741 -0.10953675 -0.08251458 -0.026168592 -0.105269775 -0.29232806 -0.024500124 0.13181789 0.03471894 0.0055071195 0.1370793 -0.074542336 0.09740766 0.008821954 0.08943739 0.031499192 0.2208007 0.05775688 -0.073342375 0.20326826 0.067947954 0.082321696 0.011262208 -0.00764796 0.005822364 -0.1203128 0.0074686827 -0.15533856 -0.045536097 -0.2162051 0.02353759 -0.278865 0.022966964 -0.023741676 -0.051073447 0.059411906 -0.1681887 0.14906885 0.117508665 -0.0591034 -0.032573704 -0.062339187 -0.028026592 -0.043137796 0.0011349354 -0.027861843 0.079129025 0.068774305 0.03497758 0.023020286 -0.018871764 0.11170802 0.14428383 -0.07502753 -0.018102458 -0.13280626 0.026260937 0.07474632 -0.09624425 -0.10707718 -0.082318895 0.032718282 -0.04660987 0.0025822597 0.14030236 0.11662664 -0.039578192 0.027756095 -0.020436006 -0.10387834 -0.1576459 0.18519416 0.2917118 -0.10529548 -0.010685182 0.0336356 0.17077935 0.11686574 0.1470004 0.14157544 0.103489764 -0.0806067 -0.03994301 -0.02687925 0.08093206 0.08066939 0.035298936 0.042104412 -0.086394936 0.029928459 -0.2893104 -0.080004334 -0.06091714 0.06636975 0.03635893 0.060203377 0.12640049 -0.0571185 -0.064067625 -0.06816588 -0.076423675 0.055090334 -0.08651485 -0.07020237 -0.02969627 -0.08993705
19 -0.03915328 0.09246181 0.04764468 0.060315765 0.020007458 -0.039779853 0.15362847 0.23907806 -0.01573093 0.12221972 -0.09535815 0.1339642 0.067369506 -0.053939685 0.032983504 -0.13832916 0.029904347 -0.011031852 0.0020411506 -0.009280531 -0.010351686 -0.07149658 -0.07159757 -0.10506132 -0.080412686 -0.025231525 -0.09752119 -0.28625202 -0.02304738 0.12715846 0.038657647 0.009983368 0.13854142 -0.071407944 0.0961949 0.013659155 0.097319126 0.027387165 0.21458247 0.060044724 -0.07538937 0.20589 0.06489139 0.07911627 0.008827863 -0.013576629 0.008827749 -0.11699816 0.003186737 -0.15432137 -0.042837746 -0.20970704 0.020244429 -0.27400208 0.023588628 -0.02029042 -0.051528685 0.056833796 -0.17135692 0.14510278 0.111620806 -0.054609716 -0.031703502 -0.06172291 -0.030689616 -0.0360062 0.0018101133 -0.03457505 0.076837964 0.06821439 0.038568657 0.022925526 -0.013698102 0.11455133 0.13833457 -0.07254462 -0.017815981 -0.1335972 0.020297255 0.0723174 -0.09475534 -0.10497587 -0.0776191 0.02637844 -0.04970527 0.0028222334 0.1373647 0.11295884 -0.03468208 0.032132287 -0.024723243 -0.10005015 -0.1533167 0.18247579 0.29205632 -0.106267534 -0.012920242 0.03382034 0.17641495 0.11134506 0.14830624 0.14210495 0.10877423 -0.08085663 -0.038345575 -0.025035385 0.08509709 0.08122521 0.033700883 0.0361552 -0.0889768 0.0354207 -0.28809914 -0.07085751 -0.063213065 0.06442533 0.04274916 0.055586725 0.122601114 -0.058677457 -0.06754127 -0.066701174 -0.07360391 0.06197544 -0.087955505 -0.0671513 -0.025929766 -0.09312152
37 -0.0499552 0.10284137 0.060109504 0.07888566 0.011983148 -0.039119836 0.14227465 0.2391335 -0.019392358 0.11696589 -0.088496886 0.1251504 0.071562804 -0.050461467 0.032872885 -0.1327385 0.030028658 -0.014289296 0.008132827 -0.018539384 -0.013781956 -0.06975903 -0.074640244 -0.10708354 -0.080497384 -0.019572124 -0.101884946 -0.2971616 -0.0324099 0.1291756 0.04057373 0.004784021 0.13137633 -0.07760493 0.09737933 0.0038774135 0.0946525 0.03302754 0.21548438 0.0641967 -0.07473833 0.20158166 0.063545145 0.084044404 0.012436194 -0.010761345 0.0039291405 -0.11065146 0.0025066296 -0.15069574 -0.04138902 -0.21086565 0.03240783 -0.280218 0.022818731 -0.018429983 -0.05037026 0.05514688 -0.16064607 0.14071202 0.107676245 -0.060787622 -0.033318777 -0.057231296 -0.03181834 -0.038415477 -0.004818065 -0.02929163 0.074731596 0.062083937 0.037823398 0.014921595 -0.01584847 0.104901865 0.13604702 -0.0699671 -0.019932007 -0.12521687 0.020298682 0.07563429 -0.08151771 -0.10497988 -0.071303904 0.031536747 -0.042895302 0.0013962185 0.13698067 0.113715775 -0.031964257 0.027336698 -0.017783325 -0.09304563 -0.1473851 0.17982379 0.27579787 -0.09910434 -0.013874987 0.031045992 0.16630837 0.10993782 0.14039186 0.1288734 0.09934727 -0.08045577 -0.03837068 -0.027381985 0.08063997 0.07779104 0.028825616 0.044210568 -0.08102087 0.03278669 -0.27313253 -0.07601257 -0.055878483 0.061917372 0.041248873 0.059306342 0.11382303 -0.059477985 -0.061329745 -0.07161595 -0.06856599 0.05175618 -0.08563275 -0.06571526 -0.028965611 -0.090949275
14 -0.08987229 0.10816146 0.075424194 0.12338202 -0.033963043 -0.038765628 0.110367455 0.24111953 -0.003017952 0.12563829 -0.07837218 0.12980507 0.06804538 -0.049535368 0.052320704 -0.12377756 0.042078156 -0.011232973 0.0084769735 -0.025527798 -0.028969431 -0.04662973 -0.11104086 -0.12204686 -0.075681455 0.0018017838 -0.08498634 -0.33997136 -0.0836948 0.12493955 0.017140321 -0.0006192006 0.10594615 -0.08594773 0.116511725 -0.03778363 0.12771255 0.04980936 0.19686127 0.09859518 -0.090871006 0.20899004 0.0331061 0.089083776 0.011824912 -0.024152573 -0.008978777 -0.098421685 -0.0173321 -0.12663953 -0.03198398 -0.21418813 0.06389935 -0.2832982 0.042892788 -0.0076654027 -0.07458173 0.060989216 -0.09610895 0.13783868 0.095247604 -0.048329964 -0.037924863 -0.04777097 -0.02230287 -0.020153627 -0.008878553 -0.02557055 0.057336234 0.044272758 0.02652948 0.0129567785 0.008305034 0.08424718 0.12676468 -0.07218535 -0.031090492 -0.093495905 -0.0034179126 0.07897858 -0.06865917 -0.116549596 -0.04757416 0.01601201 -0.04586751 -0.015894264 0.15651461 0.095755726 -0.008188776 0.054346018 0.009301938 -0.08034116 -0.10631035 0.158475 0.2466795 -0.10186912 -0.0136097 0.051731426 0.17266135 0.09607105 0.12937026 0.09661965 0.10639277 -0.10677761 -0.043314382 -0.037223034 0.082963295 0.07754733 -0.002143357 0.07798814 -0.057271104 0.031888783 -0.25358868 -0.06821585 -0.034176283 0.081478655 0.030219492 0.056491133 0.100190006 -0.05707646 -0.06353843 -0.075892664 -0.07781154 0.008203459 -0.07885454 -0.0707321 -0.019030605 -0.087527506
48 -0.06405306 0.10251614 0.06275673 0.09979665 -0.0005484521 -0.039957725 0.13523304 0.24261579 -0.015832696 0.11868569 -0.08823821 0.1263598 0.06747942 -0.0539399 0.040881895 -0.13556597 0.031065075 -0.012875942 0.009380302 -0.019414661 -0.020397224 -0.066969395 -0.08714135 -0.11036878 -0.08456371 -0.013369054 -0.10121367 -0.3158574 -0.042175166 0.12886351 0.031803135 -0.0010839029 0.12430973 -0.08208249 0.11055238 -0.007959987 0.10636357 0.040192045 0.21757431 0.074769326 -0.081284605 0.21414153 0.055020653 0.08914738 0.016512098 -0.014731223 0.004329411 -0.11355831 -0.002513405 -0.14842072 -0.04086707 -0.21346197 0.0422333 -0.28414112 0.026242888 -0.022094235 -0.05906245 0.06269431 -0.14650372 0.1470599 0.11247261 -0.061443597 -0.03225056 -0.0550188 -0.032199662 -0.035803948 -0.006461178 -0.028104212 0.06939377 0.05466613 0.037677005 0.015149008 -0.009661642 0.10800527 0.1389636 -0.07237499 -0.021346832 -0.12000728 0.018023416 0.07989127 -0.08082533 -0.11071823 -0.07068426 0.023399673 -0.050119627 -0.00583532 0.14637336 0.109205425 -0.02967985 0.035203874 -0.0071407156 -0.09334791 -0.13883771 0.17856881 0.27953595 -0.106180996 -0.011624415 0.041564934 0.17833158 0.109070964 0.13997129 0.11837978 0.102753446 -0.09136397 -0.03840749 -0.034466736 0.07923253 0.07674868 0.016936384 0.048071105 -0.0692838 0.03420977 -0.26685458 -0.07363773 -0.052989665 0.07088449 0.039433647 0.057864074 0.11593891 -0.060408443 -0.065202005 -0.071613796 -0.07526021 0.041934207 -0.08462868 -0.06991372 -0.02426634 -0.090066925
52 -0.065005295 0.08154584 0.06421605 0.10016969 -0.01928624 -0.033982087 0.10904308 0.22550808 -0.0055402936 0.11647826 -0.08325434 0.11689927 0.07631092 -0.04636317 0.050739773 -0.13230473 0.039575886 -0.019990511 0.0060521355 -0.029911915 -0.0283408 -0.05967121 -0.10183474 -0.116039656 -0.07153296 0.0021487258 -0.09564393 -0.33076352 -0.061479915 0.12808879 0.025437415 -0.005781214 0.11412602 -0.08499856 0.12111717 -0.030084448 0.12761515 0.040170453 0.20964414 0.101159565 -0.086975805 0.20975816 0.04133058 0.08729907 0.006790705 -0.02222282 -0.0074036447 -0.104772426 -0.0065245866 -0.13208698 -0.03123766 -0.2195946 0.051896323 -0.2841242 0.038752433 -0.011304058 -0.06557222 0.05997927 -0.118991725 0.14917177 0.0994421 -0.056946464 -0.0397219 -0.04995231 -0.027782131 -0.029428605 -0.0027672953 -0.023392996 0.061164267 0.05412315 0.030607468 0.007551896 -0.00016966855 0.09497583 0.1334309 -0.0693693 -0.019606944 -0.105310984 0.008003714 0.079340875 -0.06782688 -0.12939015 -0.059732944 0.020764796 -0.04655392 -0.0047462913 0.15637963 0.10351994 -0.013906418 0.052091617 -0.0011399757 -0.08691139 -0.12696943 0.16724138 0.27436453 -0.114244096 -0.01261392 0.055904083 0.18603897 0.109605774 0.14254324 0.106525674 0.11453053 -0.120633714 -0.040515743 -0.040900983 0.09127 0.08191784 -0.005641988 0.06793079 -0.06609286 0.029939726 -0.2665805 -0.063988976 -0.04313529 0.07474444 0.041188598 0.05933692 0.11143529 -0.06559976 -0.069356605 -0.07956712 -0.08288586 0.027306873 -0.08869384 -0.06962251 -0.016955225 -0.10334437
33 -0.047261294 0.090474874 0.046481546 0.07164984 0.0061445804 -0.036608793 0.13906643 0.24313031 -0.017112875 0.12233205 -0.09191426 0.13064119 0.06531604 -0.050116096 0.040012524 -0.12812763 0.029852461 -0.014257903 0.006751941 -0.014992244 -0.018942317 -0.065602526 -0.076783076 -0.1070569 -0.07761918 -0.016801042 -0.094916634 -0.28735012 -0.032885384 0.120473325 0.031242574 0.0048176153 0.12220498 -0.07618396 0.094349705 -0.0030113824 0.104136065 0.03645008 0.20720544 0.06939122 -0.07315717 0.20043519 0.053265803 0.07966113 0.013023952 -0.010759689 0.0014804042 -0.11122494 -0.00016822905 -0.13794626 -0.036837462 -0.20734619 0.031138912 -0.27165323 0.021275867 -0.02087604 -0.05434724 0.060086664 -0.14897114 0.14046527 0.10306795 -0.058092088 -0.029606806 -0.05059591 -0.029959315 -0.032482993 -0.0046249963 -0.03077696 0.06721019 0.05998967 0.03379095 0.016412674 -0.009443719 0.101878196 0.13481328 -0.06433419 -0.021959689 -0.11417005 0.02258059 0.07433249 -0.08538019 -0.10890521 -0.07195098 0.02145437 -0.041637547 0.00139369 0.13845384 0.11042778 -0.03248567 0.030791482 -0.009095182 -0.093755975 -0.14198665 0.1740235 0.272792 -0.101179905 -0.01226395 0.03642683 0.17105104 0.10454005 0.14129743 0.12068163 0.0980431 -0.087101355 -0.037800968 -0.030629335 0.076763175 0.07517354 0.019616239 0.042143207 -0.07203503 0.032675818 -0.26877913 -0.07237366 -0.057111867 0.066714525 0.035509806 0.055585317 0.114445604 -0.060742002 -0.06437169 -0.063841164 -0.07581344 0.04887003 -0.08195472 -0.07064611 -0.02004357 -0.090466425
67 -0.06432926 0.099863835 0.06012134 0.10161539 -0.014776967 -0.044330444 0.12208298 0.24783847 -0.012723998 0.12606324 -0.089837775 0.12767766 0.06849318 -0.0466023 0.043343395 -0.13071263 0.02819928 -0.017959284 0.0050421436 -0.024053983 -0.029211 -0.061445214 -0.088247605 -0.110351555 -0.0717177 -0.011884175 -0.098257035 -0.30965394 -0.046084512 0.12399499 0.024767203 -0.001817073 0.12222479 -0.07740664 0.09950423 -0.01607801 0.11612357 0.03454721 0.20324756 0.08085282 -0.086687766 0.20974521 0.04990595 0.082615316 0.015380139 -0.013205109 -0.0036318712 -0.1056362 -0.003970133 -0.13576172 -0.03390415 -0.21250995 0.04126231 -0.27687877 0.031226808 -0.015763802 -0.068176284 0.063853376 -0.13248526 0.13528638 0.10471529 -0.057900853 -0.03163254 -0.047086746 -0.02944016 -0.029030025 -0.0070681935 -0.02728163 0.060920946 0.047615733 0.030840851 0.0055258195 -0.003561314 0.10013618 0.13648258 -0.0691021 -0.023005232 -0.108396895 0.0147539 0.07368711 -0.075639054 -0.111763395 -0.05970629 0.017762037 -0.039297912 -0.00084660813 0.14704512 0.10618553 -0.02022565 0.038970068 -0.0033457908 -0.08677075 -0.13030793 0.16290812 0.26284304 -0.09945476 -0.01013315 0.042089906 0.17345649 0.10300479 0.13080984 0.106307715 0.09687991 -0.10359655 -0.043302797 -0.038205065 0.07868887 0.06328182 0.00912195 0.05530771 -0.06261419 0.02805412 -0.25684232 -0.069877446 -0.05003406 0.06837744 0.031779952 0.05422261 0.11114128 -0.057480026 -0.06451337 -0.07487923 -0.075445995 0.036405034 -0.08613857 -0.07596692 -0.020179966 -0.0966403
58 -0.06567349 0.088139646 0.05732683 0.09074643 -0.019239899 -0.03798213 0.11102729 0.22655745 -0.011808609 0.1139264 -0.076734945 0.11972306 0.063657396 -0.051227402 0.047678623 -0.12732726 0.030682867 -0.01184142 0.004285491 -0.020764057 -0.031862203 -0.053057957 -0.09685527 -0.1059223 -0.07331605 -0.0044707134 -0.091910824 -0.31086352 -0.057901148 0.11926258 0.02179004 0.00096097414 0.10881125 -0.08105371 0.10716118 -0.023097232 0.11498027 0.040534034 0.19544053 0.08890363 -0.08249007 0.19977812 0.04132851 0.078505926 0.016328616 -0.017216636 -0.0013607952 -0.10059586 -0.012462809 -0.12491966 -0.028257215 -0.20616083 0.052747164 -0.2710807 0.032111585 -0.018102802 -0.06654791 0.05962775 -0.12303219 0.1382323 0.09948076 -0.047981523 -0.030210206 -0.049638685 -0.021999592 -0.020786183 -0.0047573037 -0.026481476 0.05860384 0.043687705 0.030384945 0.0095871305 0.0036906444 0.0923 0.12788472 -0.06267729 -0.029074641 -0.09678305 0.012991944 0.074563175 -0.06930551 -0.11555701 -0.055329893 0.021362651 -0.04554737 -0.00609053 0.14794827 0.10211553 -0.015404828 0.04150887 0.0021307357 -0.08363784 -0.1232898 0.15729728 0.25253642 -0.096518785 -0.015525813 0.042647045 0.16942866 0.100094005 0.13335513 0.10189194 0.10032862 -0.10425956 -0.043796487 -0.04043153 0.07800893 0.07015869 0.004857816 0.05740999 -0.061721765 0.025556935 -0.2557394 -0.068765305 -0.048244122 0.067777134 0.03157809 0.05541981 0.107734196 -0.060498778 -0.06468777 -0.06885559 -0.073763736 0.030258894 -0.0809516 -0.06938277 -0.01133755 -0.09508784
25 -0.058850642 0.08460702 0.060221747 0.092819564 -0.011298692 -0.036850993 0.12553543 0.24111573 -0.009122506 0.12093483 -0.09096276 0.12809159 0.06731159 -0.046765547 0.045715705 -0.12913959 0.036946427 -0.020088144 0.004599822 -0.027469553 -0.026860537 -0.059751052 -0.094065204 -0.107389845 -0.0740891 -0.0022458078 -0.09875225 -0.3263741 -0.05513531 0.124425195 0.026248928 -0.0035220282 0.117509976 -0.08086264 0.117137276 -0.022040408 0.12132529 0.03607868 0.21246833 0.08843725 -0.08786146 0.20778276 0.051971894 0.084201396 0.005693822 -0.019071253 -0.0031350993 -0.102746956 -0.0014011961 -0.14022471 -0.032690294 -0.21653466 0.044737205 -0.28474528 0.03328019 -0.01285827 -0.06295474 0.060780797 -0.13214001 0.1471129 0.100976974 -0.054365415 -0.033696104 -0.052329175 -0.02577955 -0.027001241 -0.0028134019 -0.029766466 0.06452453 0.051862013 0.028450917 0.0122277625 -0.0040023983 0.1042166 0.13943456 -0.070464306 -0.019608255 -0.10904946 0.014384254 0.08222739 -0.07425538 -0.12883015 -0.06676754 0.023751372 -0.049007233 -0.0061716624 0.15460864 0.108176045 -0.018501513 0.045695405 -0.008029695 -0.08836916 -0.13415094 0.17620543 0.27882016 -0.11269894 -0.010033159 0.04304301 0.1842954 0.10805002 0.14691421 0.11126788 0.11268213 -0.1175603 -0.038365033 -0.041700933 0.090775155 0.08022673 0.005306589 0.062155437 -0.072994255 0.030605072 -0.27193055 -0.06505272 -0.053013876 0.07588126 0.041397553 0.057404224 0.11676632 -0.06349767 -0.07283033 -0.074873 -0.078500405 0.03373058 -0.08833485 -0.07181872 -0.017304651 -0.09816298
32 -0.06375861 0.09581984 0.061641432 0.10364102 -0.011584954 -0.038462345 0.12209386 0.24146684 -0.005285214 0.12519088 -0.08734476 0.12402926 0.07171353 -0.052733187 0.051119577 -0.13457271 0.033058003 -0.013936579 0.008419343 -0.027834173 -0.03152429 -0.06056932 -0.10011522 -0.118396334 -0.07938101 -0.006237685 -0.096449874 -0.32976183 -0.056268115 0.1303722 0.023285674 0.0014275794 0.12121978 -0.09070949 0.11815345 -0.02658652 0.12271815 0.042692542 0.21678382 0.09333512 -0.089842595 0.22240344 0.049656045 0.08536109 0.012218173 -0.017508188 -0.0018831013 -0.10756885 -0.0064557446 -0.14456557 -0.034473367 -0.22316921 0.04823772 -0.29278418 0.030402867 -0.017231492 -0.06572841 0.06447498 -0.13198619 0.14810069 0.1067293 -0.060604315 -0.034234587 -0.05116923 -0.03198634 -0.02856152 -0.00412921 -0.02805129 0.058822956 0.05346121 0.03219839 0.009763538 0.0033297 0.099406816 0.1388163 -0.07196642 -0.024781076 -0.10979934 0.014828967 0.08192816 -0.07694589 -0.13013086 -0.06781243 0.019681565 -0.05253348 -0.0056916582 0.16007687 0.10699008 -0.018152583 0.045454204 0.0011878685 -0.08830541 -0.13578363 0.18048808 0.28643617 -0.10844592 -0.0147182355 0.046199914 0.1860745 0.11219379 0.14944072 0.116684385 0.1113632 -0.118261814 -0.044993762 -0.040798206 0.08956856 0.08469343 0.0033209773 0.062384155 -0.06453839 0.028560892 -0.26984164 -0.07454927 -0.046035416 0.079303 0.037936084 0.061894048 0.11970374 -0.06349446 -0.068638936 -0.077611424 -0.0832498 0.0312951 -0.091116935 -0.073342465 -0.022651177 -0.101122335
59 -0.06338879 0.08811829 0.06473426 0.10241358 -0.015311264 -0.038943 0.113932006 0.22435458 -0.008650558 0.11617572 -0.07770693 0.116584584 0.06933113 -0.05469145 0.051299095 -0.13301353 0.03713435 -0.016035302 0.0033806807 -0.023235492 -0.031976502 -0.059597507 -0.09576265 -0.113926284 -0.075174406 -0.0009897394 -0.0919414 -0.32398766 -0.056149703 0.12561658 0.019939015 0.0016497732 0.1192204 -0.08574401 0.108156875 -0.024353642 0.120710246 0.040001247 0.20514892 0.09257594 -0.08369893 0.2084663 0.049243353 0.08211005 0.011524859 -0.021796882 -0.003894151 -0.10429313 -0.010874018 -0.13373695 -0.033011694 -0.21240003 0.051662534 -0.27827907 0.03479595 -0.018913975 -0.06463904 0.05948151 -0.12003766 0.13723238 0.10105883 -0.050863255 -0.034159478 -0.051329345 -0.027142625 -0.021314714 -0.008624775 -0.024974836 0.05463911 0.043599565 0.030518914 0.007788546 0.005315928 0.09086589 0.1330699 -0.07143495 -0.025296599 -0.10713435 0.008648783 0.071385615 -0.073999375 -0.11970067 -0.05903676 0.021045407 -0.047617536 -0.005753742 0.14709306 0.104543746 -0.013546884 0.048572246 -0.0030534223 -0.0824049 -0.1282972 0.1656657 0.26245144 -0.10240497 -0.010464131 0.047340397 0.17687319 0.10519952 0.13664877 0.10842526 0.1032196 -0.10415702 -0.04050748 -0.037757505 0.08293278 0.078659 0.0025239813 0.061173778 -0.062728465 0.025500983 -0.2566108 -0.06968543 -0.04536203 0.072215036 0.035985045 0.053944908 0.105953634 -0.05609054 -0.06540764 -0.071476765 -0.07373697 0.024513662 -0.081181385 -0.071885504 -0.014392912 -0.08908749
66 -0.06339617 0.09124748 0.058553614 0.09468499 -0.013229344 -0.042063143 0.12206884 0.24516407 -0.0047309715 0.12404285 -0.08580085 0.13203989 0.06719529 -0.055186283 0.04685601 -0.1280973 0.032525066 -0.0128848655 0.006887934 -0.0195187 -0.028664108 -0.05631366 -0.09491391 -0.113111876 -0.07775457 -0.0099779265 -0.097852916 -0.31386504 -0.04992285 0.12047183 0.02543375 0.0027210703 0.119918525 -0.085106835 0.10965127 -0.018796848 0.11791325 0.03726286 0.20515515 0.08359876 -0.08761202 0.20898461 0.045476966 0.08584049 0.012595429 -0.0146810375 -0.002558753 -0.107933484 -0.008996615 -0.1329402 -0.035326384 -0.21132551 0.048953418 -0.27417058 0.027903823 -0.01844038 -0.06073446 0.058730297 -0.12846403 0.14285849 0.102525525 -0.053558894 -0.03335037 -0.047896788 -0.024474826 -0.024431018 -0.0014202234 -0.02521377 0.061778165 0.04935213 0.029883735 0.008336619 -0.00021113695 0.09952044 0.13101973 -0.06943445 -0.0268837 -0.10560558 0.016226927 0.07567071 -0.07668622 -0.11711046 -0.06625294 0.021155197 -0.041975666 -0.0042927125 0.14580567 0.10389836 -0.016982827 0.045402125 -0.007059755 -0.08832776 -0.13220315 0.16515483 0.26797864 -0.104703866 -0.012301215 0.047478404 0.17628163 0.10641884 0.1392079 0.10896733 0.10382658 -0.1055819 -0.044864945 -0.03827884 0.07856498 0.07454737 0.009280353 0.054959215 -0.06431489 0.03189745 -0.2658086 -0.06878748 -0.04568059 0.06857357 0.032919265 0.05768839 0.10932305 -0.060131583 -0.0661455 -0.07034357 -0.07938081 0.034894235 -0.085618414 -0.07716738 -0.01846617 -0.09624336
11 -0.056941144 0.09205996 0.058286592 0.0942822 -0.012680784 -0.04314651 0.12867907 0.2520595 -0.010915107 0.121351704 -0.09109665 0.13420407 0.0689938 -0.05626929 0.044216733 -0.13164842 0.030150741 -0.014162296 0.0047069746 -0.019137913 -0.03304978 -0.06476436 -0.09182776 -0.11434725 -0.07524089 -0.0074484884 -0.10204163 -0.31833395 -0.05113675 0.12796243 0.025435358 -0.0009026489 0.1256278 -0.08639768 0.11241928 -0.016249755 0.1221713 0.035086997 0.21377234 0.08368121 -0.08617192 0.2183057 0.055928968 0.085584655 0.017222641 -0.019771032 -0.0016494456 -0.11210306 -0.0039573903 -0.14162591 -0.0362545 -0.21933031 0.04256039 -0.2808655 0.026118284 -0.016384266 -0.062335435 0.06554116 -0.13655438 0.14656715 0.10897505 -0.05451072 -0.031320553 -0.048746407 -0.026891852 -0.027417377 -0.006064696 -0.03178954 0.058875997 0.05210535 0.034444395 0.0069110976 0.0027288853 0.10643116 0.14161682 -0.072275184 -0.026720302 -0.11252531 0.01299862 0.07337391 -0.080045626 -0.117030025 -0.06589193 0.024094135 -0.044492856 -0.000782979 0.1512619 0.11037649 -0.022489307 0.041929197 -0.0069326325 -0.090022504 -0.13831703 0.17240502 0.27930158 -0.10562467 -0.01684435 0.043717653 0.18373777 0.10907784 0.14697461 0.11571446 0.10818644 -0.1059344 -0.04088367 -0.042267356 0.08320342 0.07310281 0.004250338 0.054421656 -0.066968024 0.031262122 -0.26896897 -0.06836237 -0.053806603 0.074972264 0.035334297 0.05373142 0.11819756 -0.06154629 -0.074693084 -0.07324327 -0.08248146 0.039341252 -0.09102366 -0.07887577 -0.015371437 -0.09937686
60 -0.064716406 0.10165964 0.0672154 0.10469174 -0.018456168 -0.038741253 0.12484908 0.24514335 -0.0087141525 0.12274832 -0.08784565 0.1273282 0.07156187 -0.050300427 0.0538654 -0.13132307 0.034631174 -0.015093237 0.011566623 -0.029062565 -0.026159117 -0.060327664 -0.10101208 -0.11302011 -0.080394745 -0.008215496 -0.09125177 -0.3240801 -0.057285227 0.1261935 0.027755175 -0.00025293406 0.12241856 -0.08365067 0.11655503 -0.026416965 0.12127398 0.04375714 0.2090583 0.09156839 -0.08597365 0.21346678 0.047236905 0.08406131 0.016073508 -0.023962883 -0.0020133115 -0.108535334 -0.008230027 -0.14220493 -0.03455097 -0.22052796 0.047114585 -0.29112262 0.03068236 -0.012680077 -0.062219925 0.063577816 -0.12908444 0.1500955 0.1045488 -0.053107053 -0.030803554 -0.05119686 -0.026952876 -0.023257531 -0.00050382863 -0.027977794 0.0621599 0.054564644 0.03183936 0.00813743 0.0022052121 0.096788175 0.13694113 -0.06861843 -0.02524457 -0.1109965 0.0076577743 0.08414719 -0.072615705 -0.118955106 -0.06532059 0.017144602 -0.05038261 -0.011527311 0.1546568 0.10451161 -0.013989316 0.047128532 -0.005087128 -0.08753251 -0.12792504 0.17344189 0.27151316 -0.1066406 -0.010669737 0.047439978 0.18316239 0.109606974 0.142024 0.11183584 0.1125575 -0.10641408 -0.04682619 -0.034149278 0.086717114 0.07993927 0.0029712673 0.06331781 -0.06910896 0.030527374 -0.2659895 -0.07280613 -0.04519585 0.0780974 0.03689318 0.057672977 0.11542802 -0.058870304 -0.07132092 -0.07140311 -0.07921914 0.026621157 -0.08786208 -0.073892996 -0.020447107 -0.099332616
28 -0.056566045 0.091444075 0.06055807 0.09335591 -0.01123589 -0.03663183 0.116316475 0.233001 -0.0089807445 0.11777913 -0.08590726 0.122543 0.063986726 -0.049903877 0.0469071 -0.12318186 0.031473402 -0.013803382 0.007489296 -0.027341798 -0.030611532 -0.05448152 -0.085451774 -0.10706955 -0.073525116 -0.009938824 -0.092917144 -0.2992356 -0.04739061 0.11653647 0.023177315 -0.0021712093 0.11467645 -0.08210593 0.09819827 -0.018384965 0.11103757 0.0392035 0.2013926 0.08073288 -0.07782033 0.19820276 0.054087214 0.08013814 0.01692764 -0.011858047 -0.004416805 -0.105617754 -0.008837301 -0.13649394 -0.03443331 -0.2035905 0.045265462 -0.27279213 0.029873138 -0.018743789 -0.059925843 0.055572927 -0.1284611 0.13337648 0.100225456 -0.055812214 -0.032629453 -0.048576187 -0.0256235 -0.021963568 -0.006841874 -0.022415612 0.05796471 0.04627447 0.027514508 0.010236644 -0.00423301 0.10012561 0.13193938 -0.06926206 -0.021960534 -0.10459758 0.016277418 0.07483413 -0.07666641 -0.11246231 -0.06436387 0.02121082 -0.042382337 -0.0012510199 0.14024462 0.10253488 -0.019617788 0.04411619 -0.0072942935 -0.082665525 -0.1278958 0.16325484 0.25430894 -0.10178936 -0.01133585 0.034769494 0.1722592 0.09957765 0.13452777 0.10783238 0.10197423 -0.09906301 -0.043690044 -0.03509742 0.07571859 0.06861414 0.005580989 0.054510664 -0.065714665 0.028410194 -0.25403252 -0.06620121 -0.046907626 0.06922882 0.037172385 0.054278802 0.11097004 -0.058028407 -0.0654759 -0.07305232 -0.072458796 0.030934786 -0.08453881 -0.07080176 -0.017942933 -0.09140148
43 -0.053999707 0.084319025 0.054706085 0.085930906 -0.009040502 -0.04190734 0.13438581 0.25082597 -0.011933534 0.1206307 -0.092784815 0.13383491 0.065404266 -0.050473645 0.046864547 -0.12623884 0.026581045 -0.015942277 0.0035275503 -0.019296339 -0.025825 -0.061969504 -0.082916446 -0.10561868 -0.07694376 -0.010545896 -0.09565801 -0.30395055 -0.04080932 0.123130776 0.020953566 0.0038262894 0.121483296 -0.079432 0.102610916 -0.009072006 0.11491111 0.03464694 0.20393623 0.08356342 -0.08199638 0.20571001 0.05237014 0.07656079 0.010199319 -0.015484112 -0.0014928947 -0.10413017 -0.002209054 -0.13678527 -0.03293466 -0.20517248 0.04472334 -0.27330086 0.024504375 -0.018997274 -0.06482373 0.06305624 -0.13515666 0.13979566 0.10807312 -0.05217142 -0.026534865 -0.055376288 -0.028543867 -0.02805248 -0.0026357942 -0.025074467 0.061532237 0.051139873 0.0330507 0.013475618 0.0014171302 0.10525243 0.14023966 -0.06768852 -0.026980331 -0.11230099 0.013478045 0.07533495 -0.08197549 -0.11331754 -0.068534575 0.023696177 -0.043658122 0.0015819145 0.15065043 0.105739616 -0.020168107 0.04100176 -0.009619946 -0.088370375 -0.13923818 0.16864124 0.27676523 -0.10088101 -0.01487142 0.043575734 0.18111248 0.10724932 0.13791454 0.11054246 0.10534588 -0.10277333 -0.041146927 -0.040528975 0.07675886 0.07511252 0.007951247 0.05454517 -0.067451864 0.0267824 -0.2658757 -0.07106859 -0.050784204 0.06718859 0.0403177 0.054427072 0.11498723 -0.05897407 -0.07026637 -0.07457768 -0.08167979 0.038049985 -0.08537664 -0.07422432 -0.0199703 -0.0983201
45 -0.06597506 0.09154019 0.067279436 0.102843195 -0.016312947 -0.039214343 0.11813773 0.23409899 -0.0067521255 0.119911715 -0.08319991 0.12022021 0.07202412 -0.055712238 0.054889172 -0.13227937 0.037045557 -0.018408041 0.008991537 -0.02578208 -0.031242957 -0.05909871 -0.099362515 -0.11790822 -0.08171708 -0.002276242 -0.093962654 -0.33319834 -0.062998205 0.12808546 0.023045788 0.0010873468 0.11877564 -0.088277265 0.11861491 -0.023191469 0.12069364 0.043099254 0.2058602 0.0933219 -0.090063654 0.2148341 0.04617172 0.08921006 0.012540517 -0.024057966 -0.0025400443 -0.10796693 -0.0074358108 -0.13261911 -0.031716615 -0.21329428 0.054580584 -0.28300807 0.03468536 -0.013796639 -0.064093485 0.059015043 -0.11685978 0.14778161 0.105149195 -0.05708505 -0.03867053 -0.052595034 -0.025826508 -0.02463712 -0.0010720451 -0.024480885 0.063119955 0.051115457 0.027928293 0.008081267 -9.202358e-05 0.098903865 0.13597915 -0.07107055 -0.025316114 -0.10640769 0.008160094 0.076503456 -0.074551895 -0.12515914 -0.061751116 0.016744463 -0.048282217 -0.0070405733 0.15677279 0.10392018 -0.014087134 0.046717603 0.00270573 -0.08380942 -0.13035233 0.16923185 0.26792657 -0.107845776 -0.011942866 0.044373844 0.18133512 0.10578026 0.14322782 0.10583464 0.1070205 -0.10800992 -0.042853117 -0.039926354 0.08696806 0.07905284 0.0056553823 0.06424479 -0.060846746 0.027616886 -0.25869942 -0.07030251 -0.043119356 0.07162826 0.034945205 0.059138 0.11335646 -0.06039906 -0.071719654 -0.072929546 -0.07454672 0.027987903 -0.08790349 -0.07403614 -0.018230012 -0.09865706
5 -0.06575228 0.097041585 0.06165863 0.09845457 -0.008607345 -0.038539913 0.11944836 0.24076334 -0.0072384602 0.12210497 -0.085044324 0.12818803 0.07038062 -0.051124815 0.043855682 -0.13032247 0.027616188 -0.017649151 0.008406172 -0.025798673 -0.027084185 -0.061731167 -0.091044314 -0.115684845 -0.07269267 -0.0060506416 -0.09523643 -0.31575853 -0.054513548 0.12579629 0.021211036 -0.0013366597 0.11535705 -0.08003192 0.1102829 -0.015285914 0.11761826 0.041564714 0.20408256 0.08727503 -0.08430119 0.21012129 0.049903385 0.084272064 0.016724654 -0.013936689 -0.0033640277 -0.109173305 -0.008357517 -0.13277593 -0.032082297 -0.21349418 0.04363107 -0.2797409 0.030275807 -0.016858231 -0.061914492 0.05820906 -0.12911771 0.13773185 0.10132051 -0.05140488 -0.033267282 -0.053024583 -0.027142275 -0.027406178 -0.0005021968 -0.030462444 0.061975848 0.0484198 0.02878828 0.0104436735 0.0007865967 0.0995196 0.13731004 -0.068123646 -0.025809987 -0.105463415 0.012019455 0.07400165 -0.07582758 -0.11289235 -0.0603786 0.022932973 -0.04742863 -0.008104241 0.14991303 0.10578868 -0.0201188 0.04680419 -0.0034184367 -0.08537466 -0.12699829 0.16995375 0.2647711 -0.0994031 -0.011527051 0.046445474 0.17255506 0.10350473 0.13854851 0.11019808 0.10588346 -0.10279574 -0.03996457 -0.037975725 0.08040428 0.07435555 0.008398421 0.054715216 -0.06392109 0.029084325 -0.26068664 -0.06795969 -0.051595904 0.07112486 0.031754907 0.051283758 0.109097876 -0.06066056 -0.06323997 -0.071945176 -0.0751883 0.03505024 -0.086506374 -0.06793526 -0.01674866 -0.09021129
0 -0.064422 0.09690958 0.06224866 0.105520725 -0.00818864 -0.04308783 0.11984005 0.23592994 -0.008386032 0.116052605 -0.083235756 0.12674059 0.07214792 -0.05213508 0.049631037 -0.1327664 0.029715758 -0.016174747 0.007869302 -0.023271214 -0.025753517 -0.0629719 -0.09681531 -0.11641449 -0.07674528 -0.0050493157 -0.09613968 -0.3231234 -0.04961641 0.12944496 0.022237707 0.0017778112 0.11992137 -0.08373786 0.11300173 -0.013965377 0.1198077 0.04170759 0.20818044 0.08930827 -0.08874887 0.2160726 0.053011443 0.08766509 0.0126015805 -0.015258874 -0.0024105865 -0.10935601 -0.005659754 -0.13940214 -0.038462948 -0.21409734 0.04508147 -0.2829575 0.03345418 -0.017273445 -0.061175164 0.062909074 -0.12591189 0.14239193 0.101408124 -0.057521548 -0.034033027 -0.054308064 -0.024645157 -0.02766845 -0.0057911393 -0.022510452 0.060100764 0.052775122 0.032561302 0.0096314475 -0.0005173454 0.097474575 0.13208616 -0.06836591 -0.021069134 -0.10897454 0.014093489 0.07303289 -0.07536778 -0.1136731 -0.06538939 0.018410288 -0.043537997 -0.0006224201 0.14673683 0.10702831 -0.020553572 0.045774378 -0.0056943153 -0.08339258 -0.12886657 0.16475433 0.27210256 -0.10471565 -0.015698029 0.042146623 0.17761944 0.1053238 0.13462685 0.10822125 0.1027515 -0.10508058 -0.03991326 -0.036012642 0.07718715 0.072774485 0.0046488424 0.053247456 -0.06479132 0.030593826 -0.26055345 -0.06633482 -0.050854113 0.07321474 0.036564857 0.05680323 0.113766864 -0.059490744 -0.0666917 -0.06901901 -0.076380454 0.034369268 -0.083054 -0.06784845 -0.018254459 -0.09503103
6 -0.065462016 0.10224451 0.061968863 0.10163138 -0.015695749 -0.041357227 0.11953988 0.24014361 -0.008823489 0.1181603 -0.08941342 0.124141455 0.06923478 -0.050136622 0.04971944 -0.13540724 0.03027228 -0.01754736 0.0041262424 -0.022016823 -0.027520401 -0.058087062 -0.098669544 -0.11667531 -0.07814895 -0.005830765 -0.09918102 -0.33066687 -0.05384585 0.1282534 0.023476455 -0.0021179724 0.12012629 -0.08281973 0.10931365 -0.020400507 0.119583614 0.041648444 0.21265508 0.08992435 -0.08563767 0.21897477 0.04938064 0.08610904 0.012136008 -0.014363376 -0.0015930508 -0.10598796 -0.011534578 -0.13951592 -0.032255474 -0.21378326 0.05066709 -0.28451374 0.0295203 -0.014342243 -0.06517368 0.06209061 -0.12956709 0.14114192 0.10510596 -0.056319073 -0.030462708 -0.050313145 -0.025823899 -0.029441122 -0.005261797 -0.027760401 0.06248657 0.04715516 0.03266167 0.0068532056 -0.00032058934 0.10418635 0.14077482 -0.07157552 -0.027775293 -0.10502278 0.014802097 0.077506505 -0.07703632 -0.11829438 -0.06302174 0.022003157 -0.04365211 -0.0032046824 0.15298818 0.11089461 -0.01861237 0.045222174 -0.00475754 -0.08792455 -0.13363756 0.16618527 0.27384153 -0.099884234 -0.01211847 0.04248074 0.17780204 0.108396254 0.1389822 0.108211875 0.10433881 -0.10602474 -0.041049134 -0.0379101 0.08238533 0.077754304 0.0026970059 0.06259312 -0.06368045 0.031958483 -0.2633 -0.07173498 -0.051487863 0.06891491 0.032746043 0.059759386 0.11224964 -0.061847877 -0.06676728 -0.07130205 -0.07658582 0.034587167 -0.08987338 -0.07892304 -0.018407993 -0.100350045
21 -0.062950276 0.09405583 0.06294171 0.1023365 -0.015809378 -0.042108905 0.12305917 0.24337737 -0.008614223 0.12111532 -0.08423959 0.13179266 0.07166384 -0.051732093 0.04929643 -0.13458943 0.030974483 -0.014069742 0.0055982666 -0.02319449 -0.032610234 -0.06047147 -0.093831964 -0.11528218 -0.07874494 -0.0029185892 -0.09782684 -0.32947037 -0.057266027 0.123742975 0.020848854 0.0043669054 0.11638967 -0.08579298 0.1087968 -0.021996949 0.12168347 0.035849314 0.2105518 0.0880457 -0.09067058 0.21383849 0.047967456 0.08277055 0.014350311 -0.019545414 -0.0031090502 -0.11000753 -0.012556852 -0.1403963 -0.03586555 -0.21677661 0.049516547 -0.28456652 0.03550575 -0.013489456 -0.07030069 0.06518215 -0.12678146 0.14212711 0.10253328 -0.055188295 -0.0314551 -0.0533913 -0.03053616 -0.026620274 -0.0073543526 -0.027115576 0.06381359 0.05173323 0.032891043 0.008242723 -0.001943528 0.09924566 0.1382693 -0.07468021 -0.023618031 -0.10741028 0.007132616 0.073043555 -0.07575616 -0.116635986 -0.0609285 0.017060136 -0.046016723 -0.0039851665 0.15362173 0.10885975 -0.01590197 0.0446902 -0.0003020443 -0.08451247 -0.12927675 0.16940632 0.27153978 -0.10174358 -0.018036304 0.045647584 0.18100007 0.10579096 0.13591361 0.10935704 0.10548213 -0.10902142 -0.044372626 -0.037602644 0.07962591 0.07282853 0.0056807376 0.06289172 -0.061451294 0.03043923 -0.26456112 -0.075322025 -0.047512114 0.07558777 0.033467256 0.056762993 0.11206022 -0.06387846 -0.06963456 -0.07514782 -0.07879368 0.03180471 -0.086884424 -0.07497894 -0.019275079 -0.093785316
17 -0.06039382 0.08797109 0.054728456 0.098722264 -0.018678978 -0.041897018 0.12514311 0.24011438 -0.0064085107 0.12515344 -0.08639565 0.13081464 0.07413164 -0.051906306 0.052890357 -0.1330222 0.035926167 -0.010658463 0.010960162 -0.023571461 -0.031186605 -0.058607064 -0.09518156 -0.11638498 -0.07674681 -0.0026015565 -0.09770986 -0.32276657 -0.05397829 0.12528889 0.021405943 0.004687042 0.11567041 -0.080941655 0.107198775 -0.017322538 0.118810795 0.035128467 0.20443012 0.09266588 -0.08561301 0.20936213 0.047897797 0.081702106 0.01495312 -0.0144487 -0.0033559517 -0.10357656 -0.011091736 -0.13171533 -0.032709938 -0.21119969 0.04971308 -0.2792141 0.03303629 -0.018101413 -0.061539937 0.061431203 -0.1231896 0.14321913 0.10406544 -0.05140535 -0.032688763 -0.04950294 -0.029627677 -0.02113822 -0.0008362977 -0.02274971 0.056350157 0.04857258 0.028467974 0.0086401235 0.004704551 0.09640794 0.13613878 -0.06827882 -0.025793983 -0.10871503 0.012932131 0.080760695 -0.07262715 -0.11670602 -0.05786229 0.02107141 -0.04173918 -0.0051827026 0.15467383 0.109066695 -0.0117121795 0.04548291 -0.00018349539 -0.08191077 -0.12767182 0.16756056 0.26216647 -0.10062432 -0.010209112 0.043926693 0.18080847 0.10427198 0.13972855 0.10670861 0.105503514 -0.10738602 -0.04403383 -0.04002566 0.07694873 0.07882958 0.004447942 0.06410073 -0.063724086 0.026631776 -0.2645755 -0.07196224 -0.05220085 0.07699898 0.03887369 0.05439975 0.112491205 -0.062968954 -0.06990358 -0.073520586 -0.08318997 0.02949992 -0.08698228 -0.07283077 -0.021132056 -0.09495935
51 -0.065988585 0.09871904 0.065779276 0.103314646 -0.015941104 -0.043286007 0.12738883 0.2520115 -0.009259567 0.12774397 -0.09097053 0.12901998 0.072826676 -0.05280259 0.048858117 -0.1352499 0.036758807 -0.015043274 0.008241289 -0.022965323 -0.029191725 -0.058435228 -0.09930387 -0.11625888 -0.07519063 -0.0049199755 -0.09887462 -0.32205862 -0.05523572 0.12655208 0.027341818 -0.0009875775 0.12073622 -0.08607315 0.11120089 -0.01999796 0.12265503 0.038028337 0.21126172 0.08495772 -0.08879491 0.21392718 0.05036699 0.083769135 0.014166106 -0.018666161 -0.0025614551 -0.10703116 -0.012201082 -0.13566285 -0.03784716 -0.21489978 0.049563386 -0.28214285 0.0299013 -0.016929487 -0.07123031 0.063062854 -0.13116288 0.14460538 0.100891694 -0.057865195 -0.029478563 -0.049321644 -0.029606154 -0.023495637 -0.0021501356 -0.028715553 0.06020299 0.048610926 0.03315567 0.006145476 -0.0022660957 0.10165736 0.13563675 -0.07115417 -0.027106257 -0.10959611 0.0078121065 0.07048047 -0.07782468 -0.11737894 -0.06396227 0.020317314 -0.043479696 -0.007584638 0.14695099 0.108738 -0.016358078 0.04165921 -0.00077125867 -0.08718279 -0.13161606 0.16784954 0.26957172 -0.10077952 -0.011408948 0.041344464 0.17683212 0.10692226 0.1310247 0.10681934 0.10497984 -0.103448 -0.04031186 -0.037230935 0.07941909 0.0691114 0.009298047 0.05998722 -0.060784347 0.026959883 -0.2647236 -0.070393115 -0.045067303 0.06929504 0.034611244 0.057997547 0.107655294 -0.05994149 -0.064534694 -0.069665946 -0.081213206 0.028221149 -0.08885587 -0.07680141 -0.02048767 -0.09571015
10 -0.06604936 0.0924213 0.061112154 0.0990291 -0.017504552 -0.040855132 0.11418379 0.2297431 -0.006660699 0.11891716 -0.08533775 0.1248767 0.07209222 -0.05396795 0.04573005 -0.12593137 0.033959355 -0.013190666 0.009358054 -0.026050875 -0.029550262 -0.059081808 -0.09396733 -0.11616841 -0.077068865 -0.009180086 -0.089122266 -0.32079408 -0.054407876 0.12617935 0.02425356 0.0031946693 0.11759706 -0.08767785 0.10761306 -0.021253219 0.11960524 0.041346364 0.20901364 0.089717 -0.08377761 0.21474703 0.04414068 0.08711241 0.015118117 -0.017976215 -0.005747464 -0.102383 -0.011693556 -0.13447125 -0.034131847 -0.21184462 0.04798697 -0.2790646 0.03522081 -0.019165415 -0.062047563 0.06086894 -0.12520026 0.13880093 0.09868274 -0.05759344 -0.029389996 -0.05156605 -0.02627983 -0.022461602 -0.0039294953 -0.026742144 0.06142374 0.045870166 0.026933169 0.010771783 0.0023193702 0.093829654 0.13672557 -0.06656582 -0.02900696 -0.1038576 0.011194166 0.07670141 -0.0763082 -0.118248336 -0.0634458 0.016549598 -0.04375556 -0.01038549 0.14807642 0.102890566 -0.015418293 0.04679052 -0.0010045172 -0.08106679 -0.12875722 0.16773474 0.26617277 -0.10073997 -0.015907329 0.042378623 0.17986155 0.106881715 0.13860191 0.108564675 0.10461154 -0.10822383 -0.044448756 -0.04023374 0.08107878 0.07877256 0.005207848 0.060197033 -0.06087296 0.031674888 -0.25596547 -0.0730986 -0.042680897 0.07321555 0.037795883 0.055577166 0.10979082 -0.062087215 -0.06847026 -0.07552805 -0.07608297 0.025954345 -0.08722731 -0.070905186 -0.0162987 -0.095765315
41 -0.06624968 0.09486732 0.05993727 0.100883864 -0.020119764 -0.041062236 0.11715115 0.2365695 -0.0038975738 0.119176276 -0.083390646 0.11923755 0.070077896 -0.050048955 0.04733018 -0.13288294 0.034279525 -0.013117409 0.010036518 -0.028338952 -0.033266682 -0.055173483 -0.099556215 -0.1112012 -0.07838817 -0.0075693876 -0.0957739 -0.32624003 -0.060566004 0.12044806 0.024669882 -0.0014042319 0.11552164 -0.083441086 0.11073603 -0.024537755 0.12016971 0.03596883 0.19874765 0.08699934 -0.08874736 0.21259792 0.044876374 0.08707286 0.00887764 -0.017295565 -0.0059966464 -0.10446387 -0.00753662 -0.13695835 -0.030669883 -0.21397868 0.04982874 -0.28319156 0.030458802 -0.018486325 -0.06878803 0.06170204 -0.123884946 0.13995007 0.10573295 -0.056350734 -0.032987345 -0.048502315 -0.024910696 -0.024266534 -0.001093867 -0.026875997 0.054222427 0.048871238 0.030169273 0.010249243 0.0006079876 0.100508645 0.13525873 -0.07281144 -0.02420367 -0.10175846 0.010294303 0.07625601 -0.07490135 -0.12079119 -0.062604 0.021621125 -0.04309832 -0.009244147 0.15548174 0.10582498 -0.014040936 0.045379587 0.001373836 -0.086509645 -0.12918003 0.16529433 0.26934928 -0.10646839 -0.011960576 0.043958116 0.1811929 0.10103371 0.13922533 0.106409885 0.11014994 -0.11169808 -0.044448104 -0.040005367 0.08490175 0.0766921 0.0034476195 0.05904975 -0.06584559 0.026247265 -0.25731048 -0.06730939 -0.045456562 0.07181047 0.038699783 0.057817537 0.111761294 -0.06278547 -0.07304156 -0.07013393 -0.082382396 0.027933648 -0.08854734 -0.075486 -0.014568501 -0.09524476
42 -0.06997278 0.0984772 0.061569996 0.106187664 -0.02087956 -0.040628407 0.12207977 0.24215524 -0.0076692174 0.12575984 -0.087011315 0.12987235 0.068668954 -0.055206425 0.048859842 -0.1317103 0.0327229 -0.011335382 0.0067905798 -0.023309695 -0.031829983 -0.05486051 -0.09831501 -0.11972024 -0.07925896 -0.0009826194 -0.09524643 -0.32469624 -0.056651738 0.12548822 0.018497901 -0.0020569272 0.11356264 -0.082906865 0.10919166 -0.023871835 0.12208645 0.04245169 0.20718339 0.09123695 -0.091957316 0.2132028 0.041546077 0.08335942 0.015870092 -0.01851016 -0.0022333867 -0.10242866 -0.008950518 -0.13414653 -0.030295754 -0.20920509 0.05085925 -0.2806046 0.030850166 -0.017907333 -0.06263762 0.0599018 -0.11829546 0.14455391 0.09683895 -0.051935654 -0.035219476 -0.051798455 -0.030290281 -0.019415151 -0.0093371635 -0.024980916 0.057988554 0.04373068 0.02713233 0.006912995 0.00059128023 0.09309264 0.13238516 -0.07263703 -0.02746057 -0.10338905 0.007963946 0.073385715 -0.07117008 -0.11621844 -0.059705842 0.015362122 -0.044172775 -0.011068325 0.14924872 0.103028186 -0.017894669 0.045248013 -0.0022258724 -0.08295846 -0.12665169 0.16629621 0.26178238 -0.100723036 -0.016285572 0.047459397 0.17902747 0.100028686 0.1375095 0.103376 0.10243248 -0.10785837 -0.04164461 -0.038407803 0.07837142 0.07585021 0.005085124 0.05994843 -0.061697736 0.028153988 -0.25213605 -0.0703518 -0.04505337 0.07117881 0.035501044 0.05418553 0.10596606 -0.06205 -0.065990746 -0.06836685 -0.07625408 0.025005236 -0.08539027 -0.06946834 -0.014787499 -0.09161604
65 -0.060161933 0.09205751 0.058713615 0.097169615 -0.014586454 -0.036614683 0.12025043 0.24037592 -0.006073749 0.116939075 -0.08544102 0.13121109 0.066745706 -0.05505418 0.053144336 -0.12699398 0.027561642 -0.010905528 0.0095175635 -0.018978612 -0.02747311 -0.053356253 -0.09290523 -0.114638865 -0.07363067 -0.0072820177 -0.095143504 -0.31222028 -0.05254451 0.1206765 0.01999347 0.0010135472 0.11538772 -0.078265704 0.10398532 -0.01966718 0.12006956 0.042883564 0.19960813 0.087946095 -0.0875321 0.20893806 0.04870754 0.08062752 0.017686896 -0.01680924 0.0013089031 -0.10056908 -0.011397967 -0.1322154 -0.028780282 -0.20736395 0.044837557 -0.26978162 0.029360166 -0.012860786 -0.06510458 0.062094986 -0.12449542 0.13916843 0.10228893 -0.0519342 -0.028628659 -0.05159579 -0.023731766 -0.024679579 -0.0012241642 -0.02904984 0.054688092 0.04793356 0.026530664 0.009874666 0.0031426055 0.099415615 0.1340824 -0.06940624 -0.028137911 -0.105869755 0.013873763 0.07699211 -0.07396698 -0.11581517 -0.064181656 0.016430847 -0.043271955 -0.00560315 0.15016998 0.107009426 -0.020168178 0.046002306 -0.0018293996 -0.0827437 -0.12598553 0.16116546 0.2615266 -0.09627214 -0.014075103 0.043951724 0.17332517 0.1056003 0.13897294 0.10426494 0.10348717 -0.1023911 -0.037765753 -0.04162752 0.076961495 0.070487484 0.0049476903 0.057850257 -0.062111173 0.031276274 -0.2558223 -0.07418381 -0.045768358 0.069804676 0.034410033 0.05225322 0.11241449 -0.06383076 -0.06320946 -0.07035498 -0.07779853 0.03278526 -0.08654422 -0.074278794 -0.0183776 -0.094068125
22 -0.06959712 0.09899332 0.068772346 0.1073515 -0.016345853 -0.03633641 0.117625214 0.23818369 -0.0018990181 0.12328791 -0.084204756 0.12894087 0.07041924 -0.053288355 0.052092697 -0.12757021 0.03456278 -0.016253399 0.008543531 -0.025897505 -0.027329886 -0.05884739 -0.0978972 -0.115216084 -0.07686182 -0.00062801206 -0.09243584 -0.3195965 -0.056573924 0.1258707 0.018931212 -0.0021434084 0.11753751 -0.0849291 0.10979512 -0.020154921 0.12012413 0.036553577 0.20260212 0.09152953 -0.08788308 0.21110372 0.044276565 0.08282056 0.011127315 -0.023181356 -0.0049799434 -0.10509082 -0.008724314 -0.13016818 -0.029368415 -0.21289009 0.047518607 -0.2767021 0.02934778 -0.012164199 -0.060483564 0.06231195 -0.119071215 0.13907376 0.10455481 -0.050215084 -0.034865163 -0.048121147 -0.025956647 -0.022615355 -0.002197519 -0.0221588 0.057336725 0.05112183 0.027579244 0.010319246 0.0012207369 0.09354158 0.13048321 -0.07363321 -0.02320137 -0.10319542 0.011712488 0.07874386 -0.07002937 -0.114500135 -0.06064038 0.019203683 -0.043291513 -0.006139729 0.14922835 0.10335428 -0.0154842995 0.049461238 0.0020059403 -0.086231425 -0.12398813 0.16220696 0.26135233 -0.10592185 -0.011944608 0.046817932 0.17884383 0.106349066 0.13462093 0.10683712 0.102990344 -0.11032867 -0.041385688 -0.034425747 0.07720296 0.07939966 0.0034532386 0.0625642 -0.06558593 0.030400764 -0.25670868 -0.06758207 -0.045171786 0.0729869 0.03670312 0.05124154 0.10867989 -0.059291355 -0.06703715 -0.06896123 -0.08092795 0.023006504 -0.08488764 -0.06964368 -0.020219717 -0.096311554
34 -0.06698264 0.09534834 0.062368672 0.10029365 -0.012414043 -0.03664483 0.11750373 0.23104 -0.008086424 0.11327003 -0.08056021 0.11936192 0.07044591 -0.05303386 0.047578987 -0.13962793 0.035379626 -0.016603295 0.009623921 -0.022006577 -0.028643582 -0.05647658 -0.099108346 -0.11392834 -0.08387367 -0.011476516 -0.09808946 -0.3318641 -0.052071877 0.12856661 0.024662564 0.0017835933 0.121440485 -0.08663715 0.111258395 -0.02210008 0.118206635 0.041932307 0.20849702 0.09156777 -0.08976244 0.21890879 0.049633715 0.08896066 0.0162028 -0.018996978 -0.0004528144 -0.108063295 -0.0077641215 -0.14055747 -0.035079125 -0.21927069 0.049623758 -0.28678516 0.03393889 -0.019345472 -0.068889834 0.063674 -0.13479973 0.14991713 0.105548985 -0.058247667 -0.034866195 -0.04745264 -0.03204467 -0.026756236 -0.0051324717 -0.03075522 0.062011544 0.053922117 0.036203515 0.010703827 0.0005529976 0.10306468 0.14196971 -0.06978922 -0.02325914 -0.11174388 0.011734419 0.0756542 -0.079497725 -0.12281385 -0.06360023 0.01927927 -0.04413346 -0.009858799 0.15560205 0.109189145 -0.022723766 0.04663478 -0.0045230463 -0.08930858 -0.14053842 0.17248496 0.27758598 -0.104394235 -0.013298812 0.041541472 0.18435778 0.11085077 0.14396225 0.11609362 0.10954663 -0.1028118 -0.040021017 -0.035856396 0.08481965 0.07544039 0.0057628304 0.056083195 -0.0645141 0.029324401 -0.27126023 -0.07091811 -0.05424767 0.0763821 0.03579038 0.061085362 0.11889423 -0.06562452 -0.07253914 -0.07017401 -0.0810428 0.03748218 -0.08503639 -0.07205351 -0.018272413 -0.09689193
61 -0.06256777 0.09270915 0.057992004 0.096592695 -0.010212114 -0.042502485 0.13165411 0.24713531 -0.0058711376 0.12858322 -0.09311377 0.13328229 0.06883112 -0.05311297 0.049575057 -0.13659821 0.032403264 -0.016666558 0.0042416397 -0.019276474 -0.030379735 -0.056851666 -0.09684536 -0.11380029 -0.07967374 -0.010226037 -0.096411064 -0.33232018 -0.057787035 0.12536012 0.025077403 -0.0014912274 0.12451488 -0.08427566 0.1103856 -0.019323606 0.1219736 0.043703962 0.2128238 0.08952836 -0.08813149 0.21503216 0.047923356 0.08939946 0.01104696 -0.01801358 -0.0021051483 -0.11030164 -0.0071879537 -0.14352678 -0.033417925 -0.22418256 0.05135812 -0.2917526 0.033932894 -0.013037639 -0.06781181 0.06529876 -0.13347688 0.14736906 0.10789939 -0.05729 -0.036803648 -0.049866274 -0.026226994 -0.029659076 -0.005795718 -0.027805777 0.06608115 0.053736262 0.029641543 0.012624753 -0.00023587493 0.09969731 0.13745087 -0.072883494 -0.024445985 -0.11341576 0.011647322 0.07602683 -0.07958121 -0.12473987 -0.0648255 0.019389264 -0.05330848 -0.0055372864 0.15732539 0.11097247 -0.020594472 0.04578401 -0.006161857 -0.0896903 -0.13245863 0.17746337 0.28200647 -0.1062475 -0.012038161 0.050077625 0.18380359 0.11314157 0.14595582 0.11897527 0.11046659 -0.108390115 -0.04143528 -0.041602865 0.083292246 0.079962954 0.007828607 0.060193673 -0.07080244 0.033849955 -0.2769363 -0.07505311 -0.055064477 0.07466034 0.037976023 0.058558304 0.117108434 -0.06623918 -0.07107831 -0.07431545 -0.083602436 0.032726053 -0.087593645 -0.07828005 -0.018307567 -0.097554594
63 -0.0657575 0.092855625 0.05869962 0.0978773 -0.017067367 -0.04211522 0.12694962 0.24840099 -0.0100021325 0.1292685 -0.09332975 0.13283525 0.06906351 -0.057029393 0.04759751 -0.1277914 0.031971503 -0.012379205 0.00759204 -0.02068801 -0.030586341 -0.058126558 -0.09289758 -0.1163845 -0.07411433 -0.00450371 -0.09532179 -0.3193355 -0.05750758 0.12478035 0.018403266 -0.0014831027 0.11693557 -0.08233222 0.10717158 -0.017192064 0.12381249 0.0374208 0.20830886 0.086481035 -0.08989757 0.21602961 0.050080214 0.084956355 0.010792504 -0.017861031 0.0006225852 -0.108498946 -0.009385089 -0.13342153 -0.03535806 -0.21572545 0.0524399 -0.28365993 0.028465578 -0.012983403 -0.06446878 0.06539149 -0.1288408 0.14632048 0.10120353 -0.05256431 -0.032759313 -0.047206193 -0.024540588 -0.02774379 -0.0012315436 -0.029710323 0.060644474 0.048504308 0.034010526 0.0092572495 0.0031613212 0.10136803 0.13805966 -0.071480796 -0.030459005 -0.10967648 0.010425037 0.07350355 -0.077415995 -0.11771271 -0.06586925 0.022437137 -0.046782397 -0.0040994133 0.15159953 0.10492197 -0.01402782 0.046695337 -0.0024981562 -0.085354544 -0.12757432 0.1675887 0.26864812 -0.1065635 -0.013786303 0.043381374 0.17752941 0.10401459 0.14130177 0.106984764 0.10613556 -0.10873612 -0.038746107 -0.04202231 0.078402795 0.07503285 0.008571428 0.061539926 -0.06149457 0.03379834 -0.26789668 -0.0762871 -0.05158432 0.07138979 0.039838284 0.058810096 0.11279725 -0.06194695 -0.07010625 -0.07505229 -0.0797008 0.028700123 -0.087609865 -0.077634655 -0.019033713 -0.10049556
36 -0.065812774 0.09343325 0.0609769 0.09497844 -0.015863176 -0.0444794 0.12567022 0.24810904 -0.010915698 0.12493327 -0.09133142 0.13186185 0.07299175 -0.05056074 0.05055964 -0.12915088 0.032906223 -0.011794512 0.0023365754 -0.020227462 -0.03092517 -0.05867451 -0.094324075 -0.11050953 -0.07281756 -0.006936568 -0.09496546 -0.3229842 -0.05825699 0.12294223 0.020140532 -0.0029213945 0.116916575 -0.08513438 0.11174361 -0.02300386 0.12011003 0.039047483 0.20588376 0.087133355 -0.08789631 0.20984083 0.0484815 0.08568319 0.011215432 -0.02227306 -0.00156981 -0.10207443 -0.011039186 -0.13290499 -0.032259952 -0.21410064 0.048846744 -0.28120273 0.036129978 -0.015025876 -0.0644429 0.057374008 -0.122676685 0.14367923 0.105661884 -0.05014813 -0.03480275 -0.04605774 -0.029538486 -0.026625667 -0.0018574715 -0.030051647 0.058440614 0.04879017 0.033873323 0.0046788384 0.00030536274 0.095839486 0.13769889 -0.07406265 -0.028301693 -0.10849549 0.008769629 0.075043485 -0.07781276 -0.118435256 -0.05836573 0.019381016 -0.048351604 -0.0074699167 0.15604801 0.10904546 -0.0150109995 0.047236785 0.0002174992 -0.08206931 -0.12515418 0.17010316 0.2695497 -0.10278501 -0.015641483 0.049347438 0.17704943 0.107383944 0.13744283 0.105381615 0.10920409 -0.111853644 -0.042673588 -0.042455073 0.08103152 0.07590344 0.002851034 0.06502714 -0.063691184 0.032131914 -0.26965508 -0.07412257 -0.051569153 0.074927986 0.034900784 0.05630019 0.114357136 -0.06334441 -0.06658294 -0.07595466 -0.08322574 0.029865663 -0.09027316 -0.07391562 -0.012187207 -0.10137883
26 -0.06757086 0.10785184 0.068861194 0.10182038 -0.010128883 -0.040045753 0.12674695 0.24099548 -0.004708224 0.11935277 -0.08564996 0.12994705 0.072097145 -0.05519479 0.044355765 -0.13471517 0.030975005 -0.016033169 0.012102632 -0.026589999 -0.025696177 -0.06146389 -0.09451799 -0.115170695 -0.078875914 -0.009454065 -0.0924617 -0.3206185 -0.052605227 0.12673895 0.023907632 -0.0001499921 0.12289556 -0.08055118 0.10776724 -0.020589497 0.11318167 0.041501056 0.20874035 0.0828453 -0.08315112 0.21465069 0.053515527 0.08222447 0.012835276 -0.016149094 -0.0013198493 -0.105785854 -0.0040364303 -0.13659054 -0.03917934 -0.20945378 0.0405377 -0.27291226 0.030905293 -0.015608876 -0.05947982 0.061296728 -0.13129489 0.13849595 0.1036371 -0.0593787 -0.03384766 -0.053009175 -0.028894452 -0.030807415 -0.0075973314 -0.024864139 0.05965601 0.054136332 0.032764774 0.012392756 -0.0059855683 0.09492446 0.1354454 -0.068672 -0.02744388 -0.1053864 0.009779634 0.07354769 -0.07763405 -0.116259106 -0.06368253 0.023441546 -0.050544348 -0.008705061 0.14722332 0.10347885 -0.022721004 0.04500756 -0.0060355025 -0.08780153 -0.12817244 0.16414794 0.2700796 -0.10165493 -0.018915374 0.045821052 0.17729813 0.105102286 0.13630149 0.11496378 0.10157987 -0.104370795 -0.040054724 -0.035262726 0.07685484 0.07290036 0.009863688 0.05262452 -0.064849295 0.032109514 -0.25832886 -0.06654043 -0.04649906 0.072290696 0.03770715 0.051783074 0.109904476 -0.06284763 -0.06979307 -0.06902825 -0.078334786 0.035465185 -0.082945876 -0.06696571 -0.017672516 -0.0929603
46 -0.06951772 0.093142286 0.06068131 0.1048699 -0.014004463 -0.03838549 0.11528658 0.24055043 -0.0047599953 0.11863427 -0.08725322 0.12423332 0.07372494 -0.052321073 0.052736595 -0.13415074 0.030623375 -0.012523304 0.008239899 -0.01960589 -0.027288835 -0.057990342 -0.10033379 -0.11588004 -0.079689994 -0.0052986736 -0.095947236 -0.32735223 -0.058357835 0.125541 0.024678195 -0.0010925366 0.12096697 -0.083025 0.11405455 -0.0181526 0.11632296 0.039445795 0.20451508 0.08803694 -0.088351145 0.21651664 0.044345144 0.08529497 0.014175961 -0.01901338 5.3347583e-05 -0.10842544 -0.0069434866 -0.13547286 -0.03243046 -0.21295334 0.048000798 -0.28091422 0.029318225 -0.014610278 -0.06523093 0.065625735 -0.12395728 0.14361152 0.101806946 -0.05482908 -0.030103218 -0.046283707 -0.029698843 -0.02667879 -0.006125679 -0.023981074 0.055715643 0.051350556 0.031199995 0.0052211843 -0.0012458512 0.09591795 0.13814089 -0.067745686 -0.022391366 -0.107702814 0.009092234 0.076051004 -0.07291136 -0.11522919 -0.06334455 0.019419245 -0.045914672 -0.002708595 0.14812773 0.10596902 -0.017874088 0.043639556 0.0014795203 -0.08567033 -0.1261417 0.1663671 0.2656229 -0.10182 -0.016860222 0.046101686 0.17648414 0.106542334 0.14095064 0.10342794 0.104349054 -0.105680674 -0.03821475 -0.038299844 0.076759145 0.0770369 0.0011448227 0.057411995 -0.061243985 0.030911703 -0.26049435 -0.07305925 -0.04803525 0.075613424 0.039440814 0.06023706 0.11041537 -0.06044634 -0.06302218 -0.06799371 -0.07422221 0.02755248 -0.0898162 -0.06999212 -0.018004512 -0.094871044
53 -0.076053485 0.09639518 0.06353859 0.109409355 -0.025113456 -0.04143028 0.11301592 0.23518242 -0.008509947 0.120481424 -0.08639098 0.12686795 0.06569981 -0.047081135 0.04971601 -0.123653986 0.036042653 -0.01350457 0.010554117 -0.026691657 -0.028348764 -0.055088274 -0.099262685 -0.113083564 -0.07163527 -0.0039559226 -0.08892107 -0.32285318 -0.06529226 0.124336645 0.020866495 0.0027500521 0.10949518 -0.08596972 0.11031564 -0.025989985 0.12439189 0.043621358 0.20076111 0.08999843 -0.08972442 0.20575348 0.04479256 0.0825967 0.010026712 -0.016995559 -0.001065528 -0.101420514 -0.012169533 -0.13040337 -0.02835124 -0.21009344 0.05311037 -0.27888948 0.03695751 -0.0150297005 -0.070511095 0.057722624 -0.11133932 0.13952783 0.09851337 -0.04976377 -0.0364389 -0.048685715 -0.022058401 -0.02651757 -0.0034665882 -0.028726896 0.05758739 0.047194056 0.028619468 0.0086032115 0.0034497175 0.09302985 0.13028738 -0.06885005 -0.02903394 -0.09802541 0.005399224 0.0718138 -0.068190515 -0.11615137 -0.05940256 0.01826118 -0.04889703 -0.011411012 0.15273036 0.10103472 -0.009340019 0.046376493 -0.00080497004 -0.08471436 -0.12207395 0.15864527 0.25775152 -0.09811522 -0.0098432135 0.04893953 0.1788474 0.101900645 0.13303217 0.101935014 0.1080201 -0.11290633 -0.03776112 -0.041991685 0.083524816 0.078276515 -0.00025818576 0.0661132 -0.059266217 0.026284406 -0.25490826 -0.066667214 -0.04599604 0.07770703 0.03803749 0.056703333 0.10329067 -0.06194911 -0.06321391 -0.07511272 -0.077152014 0.0272765 -0.08746172 -0.07239363 -0.013573579 -0.09097155
50 -0.074472725 0.10366191 0.066582695 0.115335844 -0.013878936 -0.037330005 0.11366956 0.23102623 -0.003840997 0.11942397 -0.0813792 0.11821531 0.06664503 -0.04920676 0.05205477 -0.13224022 0.032485623 -0.01714722 0.01049723 -0.027132424 -0.02991504 -0.058143035 -0.102933325 -0.11719688 -0.07931662 -0.0020112272 -0.09092857 -0.33236235 -0.0617691 0.12453408 0.023364224 -0.0035052383 0.12051776 -0.08451374 0.115494326 -0.027197791 0.12135613 0.044223137 0.20682739 0.09379711 -0.090263866 0.2190148 0.044315476 0.08963447 0.016383164 -0.016836911 0.00016281503 -0.10201426 -0.006261054 -0.1353721 -0.030647451 -0.2138223 0.054042887 -0.28099093 0.031094786 -0.014102249 -0.06959525 0.064003184 -0.125362 0.14455462 0.10094834 -0.05736974 -0.03404932 -0.04816987 -0.025723292 -0.021641847 -0.0020596585 -0.026197331 0.06077521 0.05150179 0.028403204 0.011134678 0.004555206 0.09711888 0.13706864 -0.072308555 -0.028349686 -0.10345919 0.01219944 0.07701584 -0.06886766 -0.12253763 -0.0628875 0.019081598 -0.04853 -0.010465984 0.15482561 0.10919095 -0.010934616 0.04766117 -0.002194313 -0.08432292 -0.12996772 0.16671571 0.27010676 -0.10340514 -0.016051473 0.04587307 0.18254673 0.10786259 0.14317523 0.10588214 0.10624317 -0.11438918 -0.04380138 -0.039583664 0.081752114 0.07599795 0.0032198674 0.06033747 -0.06308467 0.032363594 -0.260116 -0.073044114 -0.046837293 0.0758749 0.034832817 0.054818325 0.105722085 -0.059345987 -0.07151624 -0.069606826 -0.0742483 0.027317386 -0.08572517 -0.0738422 -0.017503437 -0.09419881
44 -0.059064545 0.10200113 0.06050245 0.09768377 -0.009589655 -0.039898835 0.13429219 0.2466732 -0.012911304 0.12406224 -0.09579772 0.13462575 0.068533234 -0.052638825 0.047930066 -0.13727354 0.028470892 -0.0198519 0.006738627 -0.020346746 -0.030769786 -0.05999395 -0.08996674 -0.11356025 -0.08041523 -0.0114674745 -0.10265415 -0.3193895 -0.04749284 0.12715189 0.027816992 0.0026459335 0.124233656 -0.08548707 0.10646861 -0.014239519 0.118847534 0.039147872 0.2130361 0.08356323 -0.08938827 0.21709904 0.052501097 0.08488275 0.014866252 -0.014342716 0.0029239717 -0.10819537 -0.0022046794 -0.14260834 -0.037869714 -0.22156297 0.046928093 -0.28821334 0.031266093 -0.017004663 -0.06859126 0.06736078 -0.14342298 0.14442001 0.10934034 -0.056177787 -0.035404965 -0.057396263 -0.030629836 -0.026786227 -0.002461666 -0.027870113 0.0671466 0.05556981 0.029130017 0.012083647 -0.0046202415 0.10828099 0.14429508 -0.0702726 -0.026194172 -0.11699499 0.013983504 0.079637505 -0.0845052 -0.118998885 -0.06832219 0.023979781 -0.050982177 0.00060302846 0.15453972 0.11324566 -0.021943491 0.048318114 -0.0050634695 -0.08820229 -0.14313999 0.17390144 0.28716734 -0.10835052 -0.012255531 0.04081871 0.18584242 0.11051193 0.14923179 0.117629774 0.106088154 -0.10650349 -0.04021043 -0.036210034 0.08254959 0.07509639 0.008942643 0.057268832 -0.06689201 0.03197733 -0.2726915 -0.07168979 -0.050125107 0.06909766 0.03542649 0.058729317 0.12263803 -0.06789359 -0.0735188 -0.074423894 -0.08460021 0.03942072 -0.08809765 -0.07873273 -0.021707717 -0.10194349
1 -0.07334393 0.095912 0.06280417 0.11156482 -0.020632097 -0.038370762 0.110677674 0.23818009 -0.002270532 0.12403845 -0.0848415 0.12945236 0.06762275 -0.047765985 0.05226706 -0.13031508 0.035048362 -0.016711792 0.009332409 -0.025362743 -0.029777173 -0.055797193 -0.10037496 -0.118594036 -0.07346785 -0.0055370396 -0.08738626 -0.32829 -0.064901285 0.12236133 0.016832309 0.00030658854 0.11224722 -0.08910719 0.11083364 -0.02275278 0.123266205 0.040095516 0.20185077 0.09118765 -0.08471578 0.21470952 0.041409325 0.0859654 0.014384023 -0.022001447 -0.0032395942 -0.10376886 -0.0100509655 -0.12713757 -0.032050323 -0.20893264 0.050320756 -0.27581558 0.035034817 -0.017585896 -0.064111605 0.055672046 -0.11480337 0.13606876 0.0945001 -0.052312557 -0.030568054 -0.048158288 -0.023929378 -0.018585531 -0.0063197785 -0.0219422 0.058004342 0.046463817 0.029534932 0.0074362177 0.0039788694 0.08800494 0.13016331 -0.07141816 -0.02856141 -0.096894406 0.00428109 0.07539403 -0.073460355 -0.1156646 -0.05792868 0.014828636 -0.04547179 -0.008483507 0.1537642 0.10162385 -0.009628778 0.051004127 0.0053716316 -0.07850122 -0.122725196 0.1633154 0.2564805 -0.100103535 -0.017709114 0.044127773 0.17573552 0.09971449 0.13357358 0.098872475 0.10631648 -0.10645347 -0.04383335 -0.03669018 0.07545852 0.07661162 -0.002970079 0.063103124 -0.054896068 0.029252315 -0.24806361 -0.06828446 -0.045989636 0.07290404 0.03117105 0.051800057 0.10115809 -0.06304082 -0.06879549 -0.07101439 -0.07925174 0.025045613 -0.08229285 -0.07145036 -0.014110703 -0.093741514
54 -0.0639086 0.09310202 0.059635192 0.10255066 -0.010213106 -0.04124796 0.12109411 0.24213535 -0.0037730173 0.12343736 -0.08961726 0.131204 0.066400714 -0.04884152 0.05006247 -0.13198711 0.030647231 -0.012323241 0.008575818 -0.022463512 -0.031718142 -0.06210213 -0.092309274 -0.118271194 -0.07867991 -0.004003536 -0.097177364 -0.32025224 -0.05520906 0.12401253 0.021105027 0.001835059 0.118983395 -0.08101499 0.11196635 -0.018314587 0.11781018 0.03641369 0.2078708 0.09177927 -0.08366235 0.21378936 0.051997952 0.08662383 0.012481621 -0.01587043 -0.0011778641 -0.10664275 -0.0043504485 -0.13858269 -0.032826144 -0.21126288 0.04714576 -0.27633777 0.0296274 -0.020910593 -0.066795334 0.06350539 -0.1248752 0.14127034 0.103436686 -0.055367406 -0.028999195 -0.050917655 -0.029854571 -0.025732184 -0.0055799205 -0.026703097 0.059167918 0.04770173 0.033605844 0.012529838 0.0013264514 0.09521228 0.13374335 -0.071767494 -0.022350248 -0.10883967 0.010053081 0.077020995 -0.07042198 -0.1134133 -0.059212625 0.019950463 -0.043777224 -0.003295933 0.14937983 0.10328319 -0.021271465 0.04402909 -0.0004919321 -0.08327844 -0.12928247 0.17039865 0.26610774 -0.10576445 -0.01482738 0.040260404 0.180049 0.10224386 0.1377037 0.10854218 0.10153638 -0.10790968 -0.042418238 -0.040490102 0.07569054 0.07316085 0.0074170833 0.060189188 -0.060769662 0.026574168 -0.25557464 -0.073024906 -0.04868207 0.06838379 0.03365315 0.05451531 0.11219345 -0.062599696 -0.06577462 -0.07030676 -0.07877374 0.033569217 -0.08316446 -0.06689327 -0.017356388 -0.09748642
38 -0.05366902 0.08789709 0.049617164 0.08554836 -0.004130208 -0.042246364 0.12469868 0.23903471 -0.009630466 0.120887674 -0.08770454 0.12954658 0.06865474 -0.05430052 0.045162957 -0.13137715 0.024468994 -0.015553185 0.009146657 -0.020822758 -0.024397645 -0.057843324 -0.08893434 -0.10670867 -0.078544386 -0.005863142 -0.0975217 -0.30792823 -0.043630812 0.1243638 0.02252526 0.00056888734 0.12433395 -0.078238964 0.10256956 -0.008158181 0.11631178 0.037160736 0.2017532 0.08364791 -0.08310328 0.20838547 0.05170902 0.08334266 0.015101574 -0.013353817 -0.0031669803 -0.11005281 -0.00427744 -0.1377394 -0.029277794 -0.21117425 0.042640638 -0.27916777 0.024569219 -0.021456113 -0.057757366 0.06286986 -0.1416847 0.13892914 0.10280638 -0.058087848 -0.02944222 -0.056602694 -0.029789671 -0.02581449 -0.000654608 -0.029881302 0.06485602 0.056167755 0.028243333 0.013640698 0.0014924674 0.100680076 0.1352406 -0.067528285 -0.025329163 -0.11580328 0.017991547 0.07569347 -0.08309919 -0.11934506 -0.06541394 0.017145447 -0.04546551 -0.004265157 0.14866392 0.107562415 -0.020707937 0.047568653 -0.009639089 -0.08459185 -0.13871136 0.17694513 0.2802663 -0.104712196 -0.016918154 0.045328543 0.17900531 0.108415894 0.14658451 0.11511691 0.1083641 -0.106672235 -0.038423 -0.040195823 0.08034718 0.07537105 0.009676051 0.049064852 -0.07152505 0.026438732 -0.26643872 -0.069590546 -0.055273138 0.07296846 0.041362125 0.052975696 0.11349069 -0.06409661 -0.0663025 -0.07203962 -0.08086406 0.042536806 -0.08695424 -0.07594632 -0.019448884 -0.09745417
24 -0.06972654 0.09271534 0.062407367 0.10867027 -0.022008833 -0.040179387 0.115428835 0.24088176 -0.0054808604 0.11821541 -0.088403136 0.12773558 0.07563453 -0.055244192 0.055114925 -0.12880301 0.030043073 -0.015733447 0.003539324 -0.02331423 -0.031318158 -0.051818155 -0.101043485 -0.11875705 -0.07276379 0.0009441962 -0.08937606 -0.32955506 -0.06372246 0.11810318 0.019444328 -0.0025576758 0.11146328 -0.08408223 0.11298719 -0.028364902 0.1271577 0.039148066 0.20082144 0.09285096 -0.0906091 0.21337095 0.040601373 0.08925037 0.014386539 -0.016835937 6.8811496e-05 -0.10214604 -0.0147751225 -0.13018282 -0.03300821 -0.21383204 0.058228277 -0.28285035 0.031243635 -0.012401254 -0.06994211 0.058411226 -0.110850476 0.13944036 0.10251712 -0.05102044 -0.03207751 -0.04850544 -0.029724512 -0.023722736 -0.00740768 -0.029150827 0.05499067 0.046225425 0.03206848 0.0051104142 0.0050834995 0.09277009 0.13728791 -0.06688296 -0.024667537 -0.10081399 0.004737687 0.076646306 -0.071713634 -0.118619636 -0.05459109 0.02108012 -0.04881676 -0.011044946 0.16122372 0.10126022 -0.0139018595 0.049739875 0.0041969605 -0.077919655 -0.12662019 0.16374925 0.26385486 -0.09831229 -0.018316638 0.044874944 0.17705338 0.09973408 0.13193923 0.09733514 0.106751345 -0.10998409 -0.045697726 -0.040016018 0.07814602 0.07191028 -0.006115276 0.06316852 -0.058394067 0.03498924 -0.25376573 -0.07039564 -0.04870352 0.07408036 0.037193086 0.05885259 0.10933199 -0.06416131 -0.06845904 -0.071999095 -0.081262514 0.021228386 -0.08496331 -0.07788045 -0.010728743 -0.09951167
64 -0.06352087 0.09042434 0.058965232 0.10427199 -0.019479817 -0.035464697 0.12351106 0.23825729 -0.00340255 0.12255862 -0.085835814 0.12836556 0.068378195 -0.05131847 0.05341537 -0.1276246 0.03159228 -0.013311637 0.01062386 -0.02510274 -0.028092604 -0.060034003 -0.093882285 -0.10823264 -0.07957452 -0.004727477 -0.09374598 -0.32171863 -0.057146538 0.12429711 0.024013203 -0.00059517956 0.11281043 -0.08573781 0.115816794 -0.023070129 0.12139076 0.038590033 0.20591661 0.09460266 -0.085339375 0.2085494 0.04625136 0.08642556 0.009085669 -0.01830141 -0.000683261 -0.102407105 -0.004740973 -0.13425198 -0.033036556 -0.20977867 0.0501844 -0.28324246 0.032990508 -0.01302867 -0.06704809 0.06318326 -0.1197815 0.14172488 0.098036066 -0.054585237 -0.035664674 -0.050269373 -0.026679413 -0.022484759 -0.003185112 -0.021715127 0.060157232 0.048010033 0.02746636 0.010068664 0.0022577462 0.1005863 0.13316761 -0.07123713 -0.027725 -0.10472799 0.009020271 0.08089269 -0.06988803 -0.117739074 -0.05947806 0.015729472 -0.044482935 -0.007899419 0.15098403 0.10857537 -0.014932133 0.04987471 -0.0019246532 -0.08332415 -0.12963109 0.17295486 0.27392417 -0.11007791 -0.015054544 0.047642637 0.18300879 0.10491727 0.14016028 0.10879295 0.109129615 -0.11486389 -0.041619763 -0.041544195 0.084682874 0.08052039 0.001487532 0.063113205 -0.063991494 0.028867165 -0.26208246 -0.06857535 -0.04543389 0.0705438 0.03860579 0.059407547 0.108253 -0.06431389 -0.070042014 -0.07663803 -0.076505974 0.025918614 -0.08362406 -0.07311523 -0.015979933 -0.10030642
27 -0.060723037 0.08970929 0.057498533 0.09280824 -0.012793034 -0.038404103 0.12294357 0.24728373 -0.009275731 0.11994902 -0.09007102 0.12744789 0.06556606 -0.04767722 0.048657607 -0.13372245 0.035099346 -0.013284226 0.0049058236 -0.021578075 -0.027966337 -0.058095075 -0.095104344 -0.11024519 -0.071684726 -0.0020599663 -0.097725816 -0.31522006 -0.05154437 0.124327235 0.019000962 9.591821e-05 0.11569223 -0.08196002 0.109153 -0.017277494 0.11801608 0.035518065 0.2033076 0.09084232 -0.08661091 0.210253 0.04777393 0.08347742 0.016700596 -0.018163608 0.00029544954 -0.10882502 -0.005473193 -0.13358322 -0.034298994 -0.20929992 0.048130907 -0.27913335 0.031169903 -0.01838369 -0.06285571 0.06282816 -0.1274225 0.14024222 0.101394 -0.05148479 -0.0272987 -0.052261546 -0.028636659 -0.027711328 -0.0024097825 -0.027382268 0.061069436 0.046232674 0.033169158 0.008351544 0.000815489 0.09693755 0.13251084 -0.07004155 -0.025394559 -0.10580662 0.015519516 0.07488139 -0.07634749 -0.120412 -0.06291253 0.019278435 -0.046804532 -0.003203776 0.14902711 0.107101806 -0.01329663 0.045695767 -0.0054314127 -0.08442769 -0.1287841 0.17078088 0.26752394 -0.10535048 -0.011857287 0.045565974 0.17751326 0.10470082 0.13723116 0.104446776 0.10346359 -0.110693306 -0.043637957 -0.042259153 0.08337169 0.07429862 0.0032487235 0.05797337 -0.06883868 0.025054853 -0.26795787 -0.07222079 -0.051122215 0.0677134 0.034575976 0.05602849 0.11178799 -0.06247922 -0.07115245 -0.07451908 -0.07917791 0.03108379 -0.08272615 -0.06982076 -0.01701169 -0.09740437
3 -0.07452797 0.09914925 0.0688744 0.10611054 -0.014738322 -0.035858903 0.10575955 0.22381258 -0.009281215 0.1120055 -0.0779592 0.11727312 0.066678084 -0.052770693 0.053211484 -0.13226019 0.036453906 -0.017878924 0.0043027913 -0.025464613 -0.02833472 -0.055855762 -0.1035565 -0.11159822 -0.07769155 -0.0058724 -0.091555975 -0.33067816 -0.061017275 0.12543035 0.022137292 0.0021130694 0.114126384 -0.08421059 0.11612965 -0.02601436 0.12312914 0.039073702 0.20317309 0.09309955 -0.08632994 0.21009032 0.045143794 0.08777095 0.014968022 -0.024133192 -0.005766853 -0.102767244 -0.01359865 -0.1361648 -0.037574094 -0.21215373 0.051633842 -0.28276163 0.034375094 -0.011518099 -0.06430991 0.060958687 -0.11968373 0.14554524 0.10368026 -0.05262192 -0.036961764 -0.050172478 -0.028072758 -0.02269886 -0.008710095 -0.026937198 0.058588192 0.045719795 0.030188639 0.0065592467 -0.000262475 0.098293245 0.13519244 -0.06651079 -0.02157101 -0.0986936 0.0031249162 0.07911956 -0.07458556 -0.12041943 -0.053977963 0.017763928 -0.046536308 -0.008242666 0.1540778 0.10349376 -0.013593353 0.042445783 -0.00045081557 -0.084616266 -0.12069902 0.16587742 0.26627293 -0.10012479 -0.015949639 0.044626184 0.1725755 0.105901256 0.13789545 0.106140286 0.108069405 -0.10521078 -0.04066439 -0.03504208 0.081001885 0.079490215 -0.0017940535 0.06240078 -0.058191914 0.031073308 -0.25844073 -0.069839045 -0.043429017 0.07176755 0.03555602 0.054899856 0.10926987 -0.05531413 -0.06923693 -0.07537668 -0.076385394 0.021028467 -0.080231935 -0.071992576 -0.016356641 -0.09480427
