43 128
15 0.11242106 0.118781134 0.018546045 -0.06391506 0.17189066 -0.022081252 0.1558241 0.026309893 0.0251204 0.106077604 -0.031127766 0.061734095 0.24387474 -0.09846345 0.010429572 -0.016465357 -0.08731355 0.12274483 0.04355493 -0.021473844 -0.078012556 -0.094471075 -0.0735707 -0.16029394 0.20028876 0.09247486 -0.17930055 -0.092394456 -0.02276345 0.111397065 -0.032332625 -0.10561041 0.1523917 0.04215692 0.1649712 0.019713333 -0.042080607 0.06327888 0.3814601 -0.066139325 -0.1712392 0.06354491 0.145253 0.1483704 0.014547655 0.20824526 0.068257704 0.16062874 0.13879508 -0.3486416 -0.11713022 -0.19503929 -0.063116975 -0.20955329 -0.0110451495 -0.09708073 0.3179989 -0.115529984 -0.07681652 0.04293703 0.12348861 0.08703803 -0.062934004 -0.14769413 -0.092854716 -0.103794314 -0.024907565 0.0042873435 0.01738718 -0.049072143 0.05202719 -0.118320204 -0.15881318 -0.1728272 -0.057373732 -0.114495195 0.037798095 -0.05537755 0.23883593 0.05339805 -0.1254629 -0.032579545 -0.12370804 0.13363364 -0.20703867 -0.0025827808 0.12768617 0.06035224 -0.15191925 -0.09759351 0.053322446 0.12233991 0.1463394 0.359122 0.24642633 0.069520816 0.0236019 -0.08665833 -0.14656189 0.18032601 0.09838251 0.15686865 -0.034921296 -0.0835905 -0.12091858 -0.19116504 0.16188586 0.13233164 0.17000718 0.035450783 -0.028666722 -0.044245314 -0.20232306 -0.13521953 -0.054180022 0.0949532 0.14708242 0.18816406 0.2091272 -0.07714608 0.08836451 -0.12888293 -0.20629248 -0.17472802 -0.039212648 0.1525376 -0.073009565 0.017711243
37 0.11076146 0.1193842 -0.040583517 -0.08238223 0.109264076 -0.030849958 0.089289606 0.036065355 0.010095581 0.064492285 -0.00732617 0.036509383 0.22073549 -0.03152959 -0.038427122 -0.074206345 -0.07250464 0.05171729 0.05988549 -0.06613836 -0.06695157 -0.080530494 -0.04224144 -0.113015264 0.11854619 0.090739354 -0.12582216 -0.117483124 -0.007590559 0.056176603 -0.013490343 -0.09759107 0.12687482 0.04323615 0.093734294 -0.025912939 -0.07311529 0.1279054 0.34745014 0.0039240657 -0.10760245 0.059901487 0.09834003 0.0915944 0.017693339 0.1832652 -0.0068492168 0.14686868 0.08440218 -0.29636335 -0.05918192 -0.16107039 -0.04299365 -0.15608701 -0.0021335343 -0.101219766 0.2411145 -0.0740372 -0.12827823 -0.004039663 0.041223813 -0.041243427 -0.029011639 -0.093802445 -0.12970501 -0.1431547 -0.025128856 0.045820713 0.045075603 0.02505437 0.096581206 -0.07203424 -0.15025716 -0.19082734 -0.062711254 -0.0033177594 0.014866706 0.029471677 0.24260427 0.022059377 -0.12048117 -0.052975107 -0.09327109 0.034258705 -0.12953123 0.033848498 0.05843498 0.09118234 -0.13841833 -0.08799294 0.077912055 0.14571387 0.1418258 0.25056338 0.17767918 0.11548711 -0.00014997367 -0.05167531 -0.09370714 0.16140896 0.05857507 0.1686824 -0.07842457 -0.07159054 -0.086467534 -0.15721905 0.100278 0.0886765 0.14978352 0.020216428 0.031854875 -0.093271 -0.15985738 -0.14612898 -0.08551189 0.10660887 0.15721111 0.1755875 0.18001707 -0.12160093 0.098085836 -0.09034367 -0.16650295 -0.039394498 -0.024786182 0.1575335 -0.083184145 0.016084468
16 0.10369219 0.11830798 -0.014022196 -0.06877199 0.13946596 -0.031516347 0.11713527 0.034563392 0.020628326 0.079157226 -0.012842677 0.05040641 0.21672562 -0.0597221 -0.022147015 -0.053221166 -0.07654084 0.07834742 0.051925108 -0.050098125 -0.069413505 -0.081632145 -0.06456258 -0.12793165 0.15650743 0.091509804 -0.14730419 -0.10363153 -0.014443525 0.07648688 -0.027202383 -0.09777882 0.13353646 0.03812396 0.12155643 -0.010436572 -0.05285533 0.09979248 0.3616083 -0.028961621 -0.12891796 0.062488172 0.11766912 0.10852707 0.021435983 0.19128238 0.02215042 0.14505954 0.100234084 -0.3072791 -0.07882886 -0.17904998 -0.052274637 -0.17743565 0.00037215446 -0.09058067 0.2698214 -0.07966357 -0.105394 0.011318035 0.07414091 0.0056544496 -0.044396594 -0.11898166 -0.10757864 -0.12643848 -0.029136928 0.02639243 0.02924696 -0.0012010601 0.07773752 -0.08798375 -0.13833193 -0.17729712 -0.05592889 -0.050724942 0.022524852 -0.0044543473 0.23033845 0.03864027 -0.124156825 -0.04120104 -0.10236576 0.075245574 -0.15875976 0.02190462 0.08739447 0.07231295 -0.1427148 -0.0807108 0.06779927 0.12825687 0.1366049 0.2831359 0.20409198 0.08955166 0.0077733323 -0.061949186 -0.1127366 0.16744918 0.07053527 0.15894257 -0.055785663 -0.073205285 -0.0942351 -0.1601116 0.11790422 0.09889777 0.14929211 0.024759755 0.011736836 -0.06576898 -0.17611259 -0.12536645 -0.07468616 0.10521641 0.13837323 0.16746382 0.18917352 -0.10075887 0.085908465 -0.09955951 -0.17959364 -0.0931899 -0.02641613 0.14271717 -0.07370838 0.022953672
10 0.10367691 0.12124723 0.015030343 -0.07844573 0.15865396 -0.032772608 0.14313397 0.038396385 0.023577442 0.07403536 -0.022205414 0.07671391 0.21954285 -0.089515224 -0.01694454 -0.033366952 -0.06700109 0.10260208 0.040903296 -0.034668185 -0.060200296 -0.094929606 -0.07526775 -0.1475666 0.17463543 0.09536872 -0.15211475 -0.10404554 -0.022866135 0.10600398 -0.03836631 -0.09663631 0.12933654 0.013536302 0.13313559 0.0014891925 -0.031306453 0.06819467 0.3732719 -0.057785064 -0.1298922 0.07445556 0.11934468 0.12564549 0.025426798 0.1834667 0.03173177 0.121020086 0.10719909 -0.3013795 -0.10138144 -0.18996431 -0.061580833 -0.19772194 0.0005646066 -0.07079327 0.29027072 -0.08107552 -0.08581811 0.022065794 0.09813775 0.042974513 -0.056333207 -0.14528106 -0.10655183 -0.11958931 -0.049075607 0.0004319173 0.028969707 -0.006229046 0.065884516 -0.10253306 -0.142712 -0.17005886 -0.032377616 -0.09210303 0.01879925 -0.038079463 0.21550523 0.04842677 -0.15657246 -0.01925693 -0.09716688 0.1045902 -0.16489929 0.030552803 0.10472384 0.052758884 -0.15799166 -0.07479537 0.056276646 0.1112431 0.1367642 0.3199088 0.23282988 0.065512404 -0.01890046 -0.06436824 -0.11845862 0.16758877 0.0987158 0.15745968 -0.038568277 -0.07316812 -0.10050244 -0.17008284 0.1233852 0.10216803 0.14442825 0.03006712 -0.0029349 -0.020636454 -0.19646336 -0.115711175 -0.071462184 0.115193896 0.11734037 0.16161224 0.19863415 -0.0821662 0.078126036 -0.104811475 -0.2005137 -0.1355026 -0.03659656 0.12105521 -0.055962052 0.016198052
41 0.11081733 0.12122674 -0.0124289915 -0.059171338 0.14225672 -0.030394724 0.12646988 0.027469557 0.028753815 0.095180586 -0.020866962 0.045576002 0.24015121 -0.070024654 -0.014946822 -0.043453738 -0.08266062 0.10010889 0.053085987 -0.046283267 -0.08021621 -0.083189175 -0.065787464 -0.14058173 0.17184705 0.08905004 -0.16194575 -0.10373511 -0.015682712 0.08548868 -0.021108786 -0.10480472 0.14555334 0.049398534 0.13830961 0.00043718982 -0.05654476 0.08602899 0.3667171 -0.04206538 -0.15400685 0.063823596 0.12506469 0.13364857 0.011992728 0.20717175 0.036710866 0.16293657 0.12170299 -0.33751097 -0.08954397 -0.1916256 -0.055950433 -0.19042711 -0.009240805 -0.11004711 0.29124874 -0.100081325 -0.102132246 0.021886019 0.09821648 0.033800147 -0.051165216 -0.13240248 -0.108463235 -0.12502688 -0.016259063 0.024351828 0.022839278 -0.022941561 0.07037914 -0.09926626 -0.15513004 -0.1865261 -0.06381553 -0.07399178 0.029290536 -0.017560596 0.25082904 0.03934647 -0.1240163 -0.045999434 -0.118859455 0.09497006 -0.18279712 0.007647161 0.105483875 0.07335139 -0.14829905 -0.09293806 0.07066276 0.13328008 0.14501044 0.31650367 0.22748041 0.08659597 0.02052579 -0.07374905 -0.12198833 0.1764915 0.07899218 0.16726723 -0.050121874 -0.089835905 -0.11320876 -0.18491343 0.14640436 0.1175315 0.16738875 0.025116397 -0.007964229 -0.07597704 -0.18391863 -0.14040524 -0.06418155 0.10173371 0.16059324 0.18981013 0.20848908 -0.104284674 0.09304482 -0.11758498 -0.20154798 -0.12161686 -0.03996135 0.15746464 -0.0800658 0.02515136
4 0.10510012 0.10949938 -0.052087206 -0.06432958 0.0994685 -0.028643763 0.071207955 0.028062724 0.01640515 0.07036217 -0.0042034425 0.033368602 0.21171117 -0.02252074 -0.03592454 -0.074280694 -0.07665714 0.044396035 0.058293384 -0.06265246 -0.07697772 -0.072834246 -0.037717227 -0.102591924 0.111034065 0.08553699 -0.119067825 -0.10940652 -0.0040738964 0.04242631 -0.00926562 -0.096245095 0.121329136 0.054167483 0.09371348 -0.029925417 -0.07235396 0.12205774 0.32691628 0.008953945 -0.11119434 0.055749085 0.088625535 0.08754226 0.009591735 0.17316063 -0.0090876855 0.15205981 0.07654089 -0.29008225 -0.04769112 -0.15387268 -0.04541377 -0.13710767 -0.00085325877 -0.10860227 0.2276035 -0.07346444 -0.124010414 -0.00061864755 0.038178544 -0.038541317 -0.024791569 -0.07970504 -0.11903729 -0.12692155 -0.009048832 0.052232053 0.034955565 0.013637782 0.08724475 -0.06376613 -0.1418245 -0.17866917 -0.06870252 0.0061652744 0.020466244 0.044703607 0.23759912 0.01945591 -0.09767886 -0.06265138 -0.093715355 0.022246165 -0.12912717 0.019535145 0.0536096 0.089646615 -0.12294751 -0.08643837 0.078390114 0.14272957 0.14019494 0.22346361 0.16342793 0.11173205 0.019287126 -0.04834515 -0.081829935 0.15769438 0.048190802 0.15455249 -0.073691554 -0.07819189 -0.08596305 -0.1491605 0.0931278 0.08849717 0.13599396 0.01500622 0.029411532 -0.10390823 -0.13494034 -0.13981786 -0.070606194 0.09682848 0.16055089 0.16454628 0.1666326 -0.12019624 0.090899535 -0.082618274 -0.14966565 -0.02891403 -0.024547953 0.15887696 -0.08168009 0.01656321
11 0.08956689 0.14461713 0.12545563 -0.111070454 0.28750977 -0.025100438 0.27675235 0.06305676 0.03524727 0.053496815 -0.03960435 0.167389 0.20032887 -0.20866396 0.019552909 0.026061615 -0.05131922 0.19785637 -0.0020677876 0.031687096 -0.028319698 -0.13747919 -0.15969291 -0.21632005 0.29478887 0.13153206 -0.23102106 -0.10449384 -0.08234831 0.22557874 -0.096867085 -0.11352848 0.1421474 -0.05974212 0.23599178 0.05154017 0.054819558 -0.035659306 0.4616872 -0.18527718 -0.1642906 0.11227154 0.18619238 0.18815197 0.050527997 0.17445338 0.099123284 0.041790966 0.16544656 -0.32120988 -0.19323935 -0.25664222 -0.10169783 -0.30507457 -0.0037838193 0.031282935 0.39175588 -0.085646756 -0.006078395 0.07622811 0.21634513 0.20540613 -0.127795 -0.24705243 -0.07677879 -0.10540562 -0.13074121 -0.10628163 0.007726267 -0.019470302 0.033835288 -0.16494301 -0.1263453 -0.10636688 0.03403649 -0.27586114 0.021716539 -0.18295296 0.1421418 0.11013555 -0.25268775 0.06911091 -0.0711094 0.26425532 -0.21422143 0.06696993 0.19834633 -0.012519982 -0.21803692 -0.059195116 -0.00095715665 0.02109122 0.12983337 0.47030059 0.35453343 -0.044691697 -0.08795989 -0.08115439 -0.17935048 0.17084353 0.20563833 0.14573161 0.04235363 -0.044601534 -0.101247884 -0.17866513 0.15410043 0.10700549 0.1267206 0.049065456 -0.07100476 0.14669788 -0.29771152 -0.03359946 -0.0798027 0.14015648 0.005650117 0.12259254 0.22926055 0.009197367 0.038320117 -0.107870586 -0.26811397 -0.2932992 -0.046941426 0.028329998 0.002283676 0.0133518735
9 0.0838132 0.1236673 -0.015629986 -0.110526025 0.12661509 -0.036479242 0.11146772 0.053783976 0.012276193 0.026622903 -0.0014164778 0.07512456 0.17344536 -0.053076547 -0.043175828 -0.07499559 -0.043248188 0.052994628 0.044894747 -0.055472363 -0.04630337 -0.07945423 -0.07017867 -0.11082765 0.12142798 0.09391212 -0.12021524 -0.13162798 -0.032045774 0.0791692 -0.036384623 -0.095132954 0.10451451 -0.004731912 0.092366174 -0.03243532 -0.0344366 0.106044725 0.34829497 -0.013439066 -0.07866959 0.087167434 0.08994245 0.083304875 0.035862282 0.14895068 -0.022832496 0.0769322 0.061371915 -0.24570787 -0.06535697 -0.16511981 -0.050707582 -0.16679515 0.0087150065 -0.04198558 0.21797696 -0.032010693 -0.106634185 -0.0062205116 0.04444851 -0.04111571 -0.037727896 -0.10651002 -0.11669904 -0.1463936 -0.07132552 0.010801809 0.040002014 0.06402124 0.096602865 -0.06661586 -0.11924855 -0.15191633 -0.01628244 -0.026798042 0.003562643 0.013604715 0.18155257 0.035550464 -0.1703798 -0.020770777 -0.058164943 0.04550603 -0.09384322 0.07421576 0.057337955 0.056220993 -0.15102714 -0.05333994 0.06391156 0.09685991 0.12211257 0.23450784 0.18128963 0.07226442 -0.051913254 -0.028197972 -0.0764664 0.13366872 0.08604172 0.15404302 -0.046938572 -0.05050651 -0.058625303 -0.123456 0.063228995 0.05445006 0.11027518 0.021673335 0.04410457 -0.02705348 -0.1747611 -0.08825409 -0.092777215 0.1301638 0.080219746 0.12364579 0.16818902 -0.09320013 0.06426679 -0.055642076 -0.17233945 -0.037113037 -0.014315601 0.09080913 -0.04201416 0.012241083
18 0.09719227 0.12674987 0.015185851 -0.09707943 0.1731089 -0.03006784 0.15690245 0.05013266 0.022626793 0.05872739 -0.012106638 0.08689043 0.20315023 -0.09143577 -0.015628096 -0.041944463 -0.05840797 0.101385616 0.037060525 -0.031705547 -0.045128983 -0.09281701 -0.091597795 -0.14884901 0.17255627 0.10174896 -0.15850133 -0.11810703 -0.03555949 0.116892524 -0.05124761 -0.10218654 0.123943016 -0.00064167235 0.14004683 -0.0054319105 -0.025278365 0.06807925 0.3818574 -0.06286189 -0.11643417 0.079882495 0.12584098 0.11892023 0.031124372 0.17412838 0.0273188 0.09162539 0.10514897 -0.28826314 -0.104200736 -0.19112702 -0.064163834 -0.2026371 0.0015774923 -0.047808513 0.27738452 -0.06860228 -0.077295765 0.02573911 0.1019323 0.041829463 -0.064163856 -0.14641206 -0.104680315 -0.12941678 -0.063190416 -0.008189414 0.03273117 0.018221708 0.06741606 -0.09651547 -0.13482505 -0.14974093 -0.01801755 -0.09927803 0.016386814 -0.04574794 0.19473776 0.05250671 -0.17266165 -0.006894637 -0.08113729 0.11437143 -0.15036392 0.04704853 0.10785773 0.0467168 -0.16656321 -0.06851642 0.05054076 0.08748859 0.12718654 0.31474373 0.23566796 0.050054032 -0.034795742 -0.05491372 -0.11816968 0.15779409 0.11007859 0.15729234 -0.029604105 -0.05923504 -0.088327944 -0.15292189 0.10829839 0.08786606 0.13169096 0.033828028 0.00014988653 -0.0037312496 -0.2086734 -0.10131583 -0.08187052 0.12303203 0.08545053 0.14886378 0.19393216 -0.0654534 0.07269586 -0.08757252 -0.20349403 -0.12855618 -0.03004711 0.09681667 -0.04802311 0.0147848455
36 0.105710715 0.1238769 0.020244699 -0.07068622 0.17562829 -0.026482215 0.15662171 0.028909529 0.023694418 0.08630777 -0.028562928 0.071018316 0.23164134 -0.098315574 0.00032373564 -0.02362993 -0.07899981 0.11575329 0.036050078 -0.022977866 -0.067561954 -0.095172614 -0.07906627 -0.14896707 0.19566362 0.09384609 -0.17207283 -0.10195215 -0.027873171 0.11377496 -0.037119575 -0.10663854 0.14361307 0.026781324 0.16167073 0.012377423 -0.037212245 0.061578415 0.38198832 -0.07233175 -0.15781239 0.06881488 0.13869402 0.14348768 0.018080521 0.19171868 0.05485663 0.1439782 0.12883954 -0.32609728 -0.11237978 -0.19838476 -0.06509526 -0.20720853 -0.000675001 -0.07791385 0.31305212 -0.103192605 -0.07738829 0.038469434 0.12329181 0.07453121 -0.06779041 -0.14805986 -0.101376675 -0.117316574 -0.035394162 -0.0033194306 0.022173485 -0.028111046 0.061103497 -0.11541138 -0.15108578 -0.17027083 -0.04404515 -0.1164565 0.02660709 -0.057432964 0.22250149 0.054429457 -0.14353292 -0.02472024 -0.10630116 0.1272479 -0.19676128 0.01402898 0.12652811 0.058660526 -0.15754245 -0.085767984 0.05562347 0.11506154 0.14542903 0.34785274 0.24991843 0.06161131 0.00040027226 -0.07222816 -0.13820426 0.17965567 0.10085612 0.15593153 -0.031514682 -0.08247374 -0.10956349 -0.18372822 0.145961 0.11877394 0.15972719 0.035634823 -0.021869995 -0.025677728 -0.20898019 -0.12331246 -0.0667372 0.10545054 0.12648322 0.17383386 0.20907862 -0.078376494 0.08742892 -0.119336076 -0.20801711 -0.15981615 -0.041141182 0.13653676 -0.062123973 0.017848635
42 0.10724992 0.12373388 -0.027548896 -0.082832426 0.12872668 -0.03229285 0.11141231 0.03511852 0.017005099 0.07213165 -0.011926712 0.054055978 0.2175973 -0.055463705 -0.029930469 -0.063766085 -0.07117279 0.072625406 0.051485818 -0.054094926 -0.068707116 -0.08185606 -0.057930063 -0.12772295 0.13893321 0.09588162 -0.14021747 -0.113297 -0.011682172 0.075901456 -0.028203737 -0.1025527 0.12463862 0.035084523 0.11017646 -0.020839185 -0.05557792 0.1086761 0.36170337 -0.016585711 -0.122209914 0.06773211 0.10228733 0.102063045 0.022538537 0.18403429 0.0075430446 0.1359988 0.09217586 -0.3004106 -0.071393 -0.16989681 -0.0514418 -0.1715134 -0.0017792342 -0.09400129 0.25860333 -0.07573544 -0.10857179 0.013010261 0.0608561 -0.007507202 -0.041406527 -0.11300199 -0.1217116 -0.1313364 -0.036839053 0.029216098 0.03508673 0.010339243 0.082274854 -0.085812904 -0.14920804 -0.1813989 -0.052421313 -0.03954953 0.01817897 0.007086038 0.23158392 0.028051777 -0.13273859 -0.04336369 -0.09643815 0.05622851 -0.1434989 0.028339198 0.07553442 0.07518691 -0.14780378 -0.08363114 0.0678306 0.13112484 0.13884602 0.27547336 0.20020877 0.096453674 -0.0064938655 -0.05110319 -0.09988449 0.16072607 0.07391728 0.16212429 -0.06266396 -0.07604705 -0.09085419 -0.159127 0.10636794 0.09310156 0.14572208 0.02178882 0.019462705 -0.07090671 -0.16741928 -0.13135308 -0.078319505 0.10782658 0.13878472 0.16575378 0.18449377 -0.107291974 0.089753374 -0.08740943 -0.17665094 -0.074379124 -0.028296782 0.14430563 -0.0681523 0.019504353
12 0.10448473 0.122765854 0.007417271 -0.083811656 0.15696983 -0.030779675 0.13830942 0.03658217 0.027607178 0.066298306 -0.012282795 0.069580406 0.21793431 -0.07623305 -0.015156068 -0.045412492 -0.066028476 0.09754151 0.043375164 -0.039198574 -0.057404336 -0.09049791 -0.08053771 -0.14584625 0.17550851 0.10177492 -0.15641965 -0.117278926 -0.027235592 0.103947535 -0.0394779 -0.09942599 0.13298474 0.022568127 0.13485475 -0.002579393 -0.032877404 0.07736883 0.37257975 -0.045515787 -0.13035388 0.0720611 0.12373034 0.123425394 0.022070235 0.18732978 0.028794803 0.121162705 0.106130704 -0.3077353 -0.1003667 -0.1912825 -0.056543887 -0.19722398 -0.0028800669 -0.07490306 0.27946305 -0.08241018 -0.09087082 0.022370052 0.09614577 0.038089883 -0.055800404 -0.14122973 -0.111427076 -0.12678292 -0.051233046 0.0056447666 0.03193171 0.0037714345 0.0740507 -0.10289393 -0.14318112 -0.17116882 -0.041252263 -0.08665308 0.017742896 -0.030769784 0.2184938 0.041156802 -0.1535947 -0.021944143 -0.08997045 0.09736799 -0.16304004 0.031367883 0.103187434 0.05753663 -0.1562278 -0.07406816 0.05784325 0.10468208 0.14139043 0.30693483 0.22764708 0.07126309 -0.011644582 -0.056208022 -0.117681 0.16310365 0.0914889 0.16186842 -0.03990253 -0.06905371 -0.09202743 -0.16226265 0.12210159 0.09394245 0.14147595 0.029775882 0.005727488 -0.03211946 -0.19313489 -0.118209764 -0.07985476 0.1120983 0.116145164 0.1655002 0.19246872 -0.08102702 0.08375351 -0.10075146 -0.20409323 -0.116434 -0.03570419 0.11963357 -0.058946148 0.017573277
40 0.09950975 0.11430711 -0.008964413 -0.07000921 0.13312773 -0.024396209 0.12181511 0.033611782 0.021335132 0.0681206 -0.01823631 0.058286753 0.20428698 -0.06742727 -0.015409816 -0.04545239 -0.06835225 0.079699315 0.044168822 -0.046720874 -0.062009826 -0.07943323 -0.06302389 -0.12406708 0.15495753 0.08967079 -0.13992283 -0.10643346 -0.021685133 0.08289067 -0.027339788 -0.09598609 0.12667724 0.028652858 0.123571135 -0.0038842757 -0.045707077 0.082892604 0.34701073 -0.033645958 -0.122282706 0.061281342 0.11166071 0.112009734 0.022241397 0.17543538 0.019098815 0.123569705 0.10181087 -0.2906526 -0.08135569 -0.1740905 -0.052662093 -0.17340338 0.0023683086 -0.08131366 0.2625173 -0.08214102 -0.09243004 0.019666187 0.08194965 0.019647334 -0.050668076 -0.122775316 -0.10265423 -0.12226318 -0.033398118 0.017018972 0.032419797 0.0023938334 0.06791662 -0.08661268 -0.13665576 -0.16418885 -0.049142882 -0.060915425 0.015381287 -0.015136818 0.2142503 0.037411366 -0.13208608 -0.031566877 -0.09387298 0.0801246 -0.1534946 0.02801943 0.08969976 0.06152123 -0.14414182 -0.079230726 0.06366367 0.116068624 0.1351945 0.28238365 0.20660989 0.07631405 -0.0030359318 -0.05872806 -0.10454894 0.16007052 0.08216363 0.15771116 -0.048858803 -0.073504984 -0.094782785 -0.15991248 0.11785659 0.097131945 0.1456534 0.025460072 0.008238457 -0.05204242 -0.17762786 -0.11807292 -0.07366101 0.101991266 0.12586693 0.16149272 0.18280457 -0.08396907 0.08253473 -0.09651291 -0.18070143 -0.10201044 -0.032658152 0.127565 -0.06488414 0.021856835
32 0.1053923 0.115244694 -0.024176383 -0.078525476 0.12888654 -0.03111126 0.107017696 0.039699044 0.017045561 0.068724945 -0.0118455645 0.046713572 0.21017784 -0.04848045 -0.02872316 -0.06096745 -0.07035165 0.06709283 0.050778765 -0.05733813 -0.06795264 -0.08237802 -0.05688337 -0.121409684 0.13914809 0.0914764 -0.1336953 -0.10900246 -0.012041127 0.07149535 -0.024176648 -0.094887085 0.12224808 0.030966988 0.1114863 -0.021823993 -0.056897715 0.106801935 0.35271335 -0.015234911 -0.11572387 0.06740908 0.10601049 0.0973859 0.020765882 0.18474627 0.0059811706 0.13632531 0.09046709 -0.29671082 -0.07188874 -0.17116897 -0.051513024 -0.16739738 -0.003948295 -0.08850877 0.2520506 -0.07109128 -0.11116901 0.0042099236 0.05867232 -0.014728621 -0.037902113 -0.10833108 -0.121663354 -0.13657792 -0.03483076 0.028137896 0.032214597 0.015322121 0.087190606 -0.083512485 -0.13977608 -0.18113491 -0.05343004 -0.031861547 0.019254744 0.011923609 0.23109818 0.03060383 -0.13049123 -0.0453002 -0.094524466 0.057207044 -0.14430438 0.03630364 0.074008584 0.071256295 -0.14461814 -0.08257433 0.07437065 0.13000463 0.14121814 0.2698109 0.19679813 0.09841048 -0.0042146817 -0.054286525 -0.10388643 0.1596879 0.07147507 0.16209087 -0.06263746 -0.07615528 -0.08803971 -0.15871984 0.107932724 0.09013322 0.14233372 0.021225031 0.026167778 -0.07080256 -0.16763368 -0.13059151 -0.07665753 0.11288789 0.13622147 0.16829152 0.18825126 -0.10438743 0.091250114 -0.094498776 -0.18090028 -0.07142262 -0.029397167 0.14344326 -0.07377298 0.017500332
29 0.11103096 0.12060381 0.0043597184 -0.06788195 0.16482961 -0.026780047 0.14519107 0.028920082 0.02793009 0.08773255 -0.024552096 0.06850807 0.22864173 -0.08523441 -0.0052866815 -0.033736378 -0.07793045 0.1044448 0.044358213 -0.038231593 -0.068621114 -0.095657036 -0.07275891 -0.15049161 0.18569063 0.09820578 -0.16672069 -0.10418349 -0.022034103 0.10426808 -0.03370557 -0.10197052 0.14188679 0.029431732 0.14923091 0.0065031783 -0.04085794 0.07006025 0.38294363 -0.06003877 -0.15282089 0.065248616 0.12923324 0.13706368 0.018134687 0.19849196 0.043296043 0.14277104 0.12562588 -0.328608 -0.1046093 -0.19581904 -0.06503842 -0.20302516 -0.0023318166 -0.08945093 0.30536038 -0.09590557 -0.09253118 0.03094967 0.10728073 0.054624584 -0.0590156 -0.14814147 -0.10343229 -0.12218112 -0.033543374 0.005424133 0.022913473 -0.018251793 0.06350364 -0.110641874 -0.15461947 -0.17634171 -0.052885823 -0.09614342 0.029183842 -0.039651625 0.23413819 0.049945854 -0.13936794 -0.03139463 -0.10901915 0.111230455 -0.18903649 0.017720968 0.118165545 0.060923748 -0.15343069 -0.09071674 0.05761003 0.12324861 0.14470313 0.33742654 0.24399686 0.07236842 0.0065950104 -0.06816245 -0.13265432 0.18152545 0.0938576 0.16140187 -0.044586528 -0.081137195 -0.106247984 -0.17751749 0.14160345 0.12027575 0.15880571 0.03424632 -0.0122895 -0.042813767 -0.20010029 -0.12591587 -0.07201121 0.10686439 0.13518086 0.18006073 0.21044958 -0.086599655 0.0869242 -0.11646943 -0.20309795 -0.14191465 -0.03691728 0.13989773 -0.07330385 0.019112187
5 0.097466774 0.13613449 0.049934316 -0.09397269 0.21666598 -0.023832653 0.19019622 0.054880094 0.028525664 0.07324237 -0.02664438 0.10758928 0.2179288 -0.13047305 -0.0026028403 -0.021393206 -0.07033703 0.12862755 0.030840302 -0.01877334 -0.052929502 -0.11316766 -0.10504553 -0.17506157 0.2253513 0.11578036 -0.19204864 -0.110602126 -0.04675583 0.15216434 -0.061905902 -0.1096165 0.13560818 -0.0034753787 0.18460391 0.02326076 -0.005024175 0.042527806 0.41509148 -0.09369639 -0.15234116 0.09145251 0.15249947 0.1522369 0.03810122 0.19331019 0.05507953 0.09680472 0.13289267 -0.3211203 -0.13452439 -0.22115837 -0.07862015 -0.24805406 -0.0039214515 -0.042619273 0.3344517 -0.08970737 -0.06601123 0.042697545 0.14117272 0.10346927 -0.080935 -0.18389787 -0.099094875 -0.12315069 -0.07219523 -0.037325226 0.0235046 -0.013961339 0.056856927 -0.12711169 -0.14336672 -0.14782438 -0.014557532 -0.15500087 0.025584184 -0.08499251 0.20419262 0.07236462 -0.18802251 0.0035534608 -0.09309476 0.16818051 -0.19668472 0.037536584 0.1428437 0.035651684 -0.1829708 -0.07390217 0.036556114 0.08440808 0.14407463 0.38974282 0.2824406 0.032020688 -0.031547815 -0.070206106 -0.1517996 0.17531228 0.1413717 0.15991855 -0.008761866 -0.06954425 -0.103031844 -0.1806785 0.14411129 0.111739814 0.14833899 0.0329824 -0.028577937 0.026332047 -0.2449992 -0.08963447 -0.082787625 0.12283566 0.08369204 0.15290761 0.21566412 -0.055464078 0.074074775 -0.112100266 -0.22984721 -0.1909127 -0.040903304 0.10886711 -0.0406263 0.019685814
27 0.10667764 0.110076606 0.008783916 -0.04995986 0.15210424 -0.020191034 0.1310754 0.020859763 0.023160683 0.097275585 -0.031671833 0.04751737 0.23360491 -0.08134645 0.009238445 -0.025594682 -0.08189282 0.11046307 0.037801888 -0.024528744 -0.073712796 -0.0803945 -0.06644533 -0.14228082 0.18866302 0.090531126 -0.16401827 -0.08452705 -0.012178088 0.09487744 -0.02714508 -0.09807341 0.14139685 0.05403621 0.15187278 0.019143822 -0.04609304 0.06291083 0.34788868 -0.04614558 -0.17105174 0.05536737 0.12609752 0.14080265 0.014341411 0.20008208 0.0655916 0.16308765 0.13377452 -0.32942784 -0.10655745 -0.18182404 -0.05345502 -0.19354941 -0.010461785 -0.10830517 0.2991584 -0.11023501 -0.0819938 0.039597113 0.11205489 0.07567894 -0.051713973 -0.13887593 -0.097270675 -0.10684473 -0.011326791 0.013529851 0.01963199 -0.056316357 0.055781744 -0.11202586 -0.15234476 -0.18075232 -0.070879005 -0.09470173 0.03493998 -0.042323075 0.2431839 0.04175454 -0.106618874 -0.04300696 -0.12108657 0.10836502 -0.20418872 -0.009809479 0.11351809 0.06550392 -0.13485388 -0.09245336 0.053023104 0.12801649 0.14749226 0.33307892 0.22688454 0.0743195 0.034714606 -0.07669273 -0.13843787 0.17510985 0.08011214 0.14621927 -0.044527847 -0.092272945 -0.1151533 -0.19202007 0.16514501 0.12930983 0.16682763 0.02946835 -0.02748641 -0.06569752 -0.19100031 -0.14262848 -0.05801412 0.08433073 0.15658377 0.19207561 0.2033543 -0.087277226 0.093101986 -0.13320549 -0.19600275 -0.15695728 -0.03492285 0.16595903 -0.07856163 0.023934217
7 0.09979086 0.12564394 0.035649706 -0.08164147 0.19207394 -0.022751914 0.1765021 0.036534544 0.028137261 0.06714531 -0.022674644 0.09106165 0.20354761 -0.11055596 0.00031451008 -0.023716979 -0.06368473 0.119579405 0.03557595 -0.0220469 -0.048583653 -0.099709354 -0.09035559 -0.15241337 0.19882035 0.1030083 -0.1720067 -0.103670195 -0.037765242 0.13129666 -0.04740782 -0.09907132 0.13134636 0.007088972 0.15630195 0.018646438 -0.019710131 0.0428027 0.37960714 -0.07970047 -0.14397746 0.07916999 0.14042251 0.14154582 0.03171114 0.1799682 0.049726523 0.1054157 0.1221281 -0.3078889 -0.12038495 -0.19891985 -0.06571019 -0.21902469 -0.00089238223 -0.04997896 0.3047893 -0.080570206 -0.06633653 0.038175065 0.12889019 0.08134858 -0.06718809 -0.16609076 -0.09089986 -0.11359004 -0.061421514 -0.021214012 0.027394287 -0.01160837 0.055021554 -0.10913617 -0.13429323 -0.14979616 -0.029380826 -0.13318679 0.0176698 -0.074201755 0.19194692 0.06276059 -0.16356626 -0.0061417734 -0.09178034 0.14300041 -0.1804116 0.029489206 0.12701166 0.037359774 -0.16296771 -0.073633686 0.040793978 0.09206337 0.12971604 0.34658277 0.25746983 0.041709524 -0.027045641 -0.071016 -0.132909 0.16518241 0.111036815 0.145231 -0.022628013 -0.06889832 -0.101476274 -0.1624631 0.12790795 0.100113295 0.14630572 0.03663858 -0.024797574 0.0068682525 -0.22019304 -0.10035413 -0.07229351 0.10814286 0.09167516 0.14944945 0.19731152 -0.06083898 0.070062235 -0.10569825 -0.21010353 -0.1649145 -0.037256263 0.1073377 -0.049602695 0.021431737
6 0.10891003 0.2618438 -0.18227646 -0.36423326 0.09762349 -0.11125805 0.04936319 0.19670595 -0.022403564 -0.16350216 0.095386915 0.16577266 0.15466574 0.08355324 -0.26660317 -0.34292927 0.013643105 -0.12619658 0.12420624 -0.23043163 -0.00664561 -0.14614752 -0.10072792 -0.08004709 -0.029721297 0.20445411 -0.07182685 -0.37456763 -0.0602432 0.05050537 -0.08399739 -0.15550359 0.056981593 -0.1263675 -0.059924636 -0.24672882 -0.067939796 0.37685785 0.6055701 0.16466293 0.14091201 0.235717 0.02040241 -0.064829975 0.12454321 0.14345326 -0.32906276 -0.089607544 -0.13314687 -0.19420803 0.05121397 -0.19556408 -0.06461198 -0.16287807 0.06046034 0.032628983 0.12032324 0.16758184 -0.31341672 -0.17922272 -0.18661278 -0.4883376 0.034501676 -0.042717427 -0.31744158 -0.40139258 -0.2546436 0.05227693 0.15650341 0.45499218 0.3275952 0.02064186 -0.15369661 -0.24053 0.06432622 0.25957176 -0.09664283 0.28704172 0.24248987 -0.013840139 -0.43568948 -0.022112878 0.06491437 -0.19530676 0.17537786 0.3458789 -0.11133907 0.14484712 -0.2847467 -0.010397336 0.16278328 0.14139092 0.17790526 0.061420776 0.14010453 0.22001743 -0.30210906 0.09905029 0.05003678 0.125231 0.10156386 0.2982006 -0.18089718 0.00538608 0.045008667 -0.045722697 -0.18977433 -0.1315644 0.03594736 -0.01911062 0.31699574 -0.04330804 -0.22448145 -0.088609174 -0.31532276 0.33822048 -0.009353798 0.0691984 0.17989217 -0.25053975 0.072797254 0.1405995 -0.22150789 0.37612036 0.040698405 0.032369856 -0.0072338474 -0.014441672
20 0.11750335 0.2963843 -0.23416007 -0.42672408 0.08204398 -0.13301317 0.025292683 0.22718039 -0.035124052 -0.20628388 0.12274797 0.18212777 0.17449337 0.11261986 -0.32641903 -0.41170645 0.02518191 -0.16874138 0.1507201 -0.28378907 -0.012795857 -0.16722435 -0.10226848 -0.079648726 -0.05839709 0.2339341 -0.067909 -0.43650615 -0.06712321 0.041359194 -0.09262015 -0.17278273 0.0567513 -0.15061419 -0.088205956 -0.29867402 -0.083820716 0.4530153 0.68355954 0.21321136 0.17963617 0.26805305 0.012252085 -0.096170455 0.14886963 0.15768337 -0.40366048 -0.11068589 -0.17143975 -0.20373172 0.076592445 -0.21206178 -0.07076965 -0.17351687 0.07600527 0.031127831 0.10661619 0.21226592 -0.37607327 -0.21762031 -0.24008608 -0.6042462 0.05453672 -0.027938582 -0.370042 -0.4665796 -0.29137668 0.074039325 0.185498 0.54496086 0.38704383 0.038407143 -0.17272338 -0.2809556 0.0684457 0.3343932 -0.11069507 0.35159945 0.2748073 -0.027563946 -0.49629977 -0.032700446 0.0818481 -0.25726578 0.23025532 0.40568918 -0.15032703 0.1750632 -0.31867895 -0.005190079 0.19991557 0.17124087 0.19802965 0.03814435 0.13280378 0.2643205 -0.35648748 0.12480634 0.0771332 0.13364737 0.10678176 0.34311008 -0.21572064 0.012125458 0.06322684 -0.037128605 -0.24255638 -0.16829859 0.03447277 -0.028287726 0.37793133 -0.06980545 -0.2425641 -0.10498869 -0.36855805 0.39358407 -0.0044880835 0.068828985 0.19506873 -0.2957222 0.07792679 0.17027797 -0.24573514 0.4686728 0.054626584 0.04127747 -0.009630219 -0.018482182
26 0.10922148 0.2762923 -0.21466972 -0.4002584 0.073524006 -0.12017594 0.022745758 0.21383499 -0.027920928 -0.19741426 0.1185884 0.16970326 0.15655607 0.104096256 -0.30400473 -0.38499415 0.02259531 -0.15828854 0.14278631 -0.26394126 -0.010534503 -0.156577 -0.096615955 -0.070624605 -0.05682864 0.21728681 -0.056587648 -0.40469804 -0.06293912 0.035021227 -0.088449344 -0.16219594 0.053861547 -0.1389462 -0.086586595 -0.28365162 -0.07911602 0.42279392 0.6333077 0.1956577 0.17261377 0.2529162 0.00986031 -0.09494828 0.13666974 0.13989414 -0.37959686 -0.10710904 -0.15824288 -0.18511124 0.06779316 -0.1976191 -0.06928669 -0.15122454 0.07009879 0.036204707 0.09935199 0.20097238 -0.35081303 -0.20861131 -0.2297428 -0.56967217 0.04753358 -0.027492905 -0.3492738 -0.4358591 -0.27527586 0.06912859 0.16827217 0.51378006 0.36427635 0.039644297 -0.15998003 -0.26225725 0.07003636 0.31456754 -0.107560575 0.33663678 0.24685103 -0.02984594 -0.4624786 -0.03148831 0.08087071 -0.24010566 0.21315873 0.3792566 -0.14494169 0.15612727 -0.2956806 -0.003977631 0.18292105 0.15312827 0.1880683 0.02093662 0.118283235 0.24345765 -0.33635235 0.12309579 0.0767497 0.11859238 0.093515046 0.31942514 -0.20368087 0.008382548 0.06073399 -0.033842668 -0.23168494 -0.16508922 0.028551847 -0.033466298 0.3575437 -0.059546024 -0.21896431 -0.0877084 -0.33567488 0.36606562 -0.009455358 0.05445159 0.1783361 -0.27971333 0.06552529 0.16621447 -0.22405025 0.44138917 0.05461987 0.03444034 -0.0046848715 -0.016060345
21 0.122022144 0.30325636 -0.23299056 -0.4376044 0.08624465 -0.13470753 0.028742582 0.23750131 -0.03540154 -0.21791089 0.1325514 0.19454382 0.1753243 0.114092685 -0.3341278 -0.42166927 0.023309123 -0.16816212 0.15192626 -0.28656316 -0.012607491 -0.17609987 -0.1057751 -0.08107395 -0.059470836 0.24784866 -0.07112674 -0.45171556 -0.073103376 0.04079789 -0.10034763 -0.17639849 0.055918008 -0.16040069 -0.09456934 -0.31034026 -0.081508346 0.45993125 0.7111388 0.2123812 0.18305886 0.27795932 0.008824682 -0.09980553 0.1535978 0.15564018 -0.41695133 -0.125514 -0.17751478 -0.21185566 0.07230737 -0.22496088 -0.073854886 -0.17907223 0.07859537 0.044775613 0.110857755 0.22315463 -0.38310114 -0.22848484 -0.2507883 -0.62006557 0.051619623 -0.037385084 -0.39062017 -0.4838907 -0.3110939 0.07020758 0.19334717 0.5709662 0.40380728 0.03767348 -0.18191999 -0.29070216 0.079623826 0.33749837 -0.11395302 0.36571476 0.27531636 -0.03169176 -0.5179741 -0.027162738 0.08977623 -0.26561955 0.2374534 0.42724296 -0.15505265 0.17590022 -0.33069193 -0.008846379 0.2051925 0.17142896 0.20994851 0.03969691 0.13902651 0.26886746 -0.37758568 0.1327314 0.07899682 0.1328574 0.10675655 0.35429126 -0.22444896 0.010287052 0.061945572 -0.03990496 -0.25167078 -0.18047246 0.034166407 -0.03044587 0.39643863 -0.060184527 -0.2514178 -0.1047021 -0.37406635 0.41070837 -0.01679408 0.066118024 0.20069446 -0.3078878 0.077348925 0.17984402 -0.2516121 0.47949433 0.05967826 0.032988362 -0.0076386104 -0.013347149
34 0.10958656 0.28839648 -0.20925465 -0.40960556 0.0959637 -0.1208392 0.042417638 0.22473165 -0.02799496 -0.20009248 0.11892791 0.18387857 0.16108327 0.096247375 -0.30663753 -0.39142713 0.027437195 -0.14967898 0.1450563 -0.2612215 -0.009834171 -0.16307154 -0.112790234 -0.08338035 -0.043941773 0.22747518 -0.075016625 -0.42468566 -0.07014491 0.053512853 -0.09557521 -0.16751441 0.055145122 -0.15431102 -0.0722732 -0.28574854 -0.07058363 0.4276843 0.66888165 0.19495381 0.16196117 0.2672162 0.013884738 -0.07783613 0.14777258 0.15060025 -0.38127998 -0.11296853 -0.15515064 -0.20433837 0.060775176 -0.21992484 -0.069547676 -0.17951535 0.07423273 0.039379645 0.11626761 0.20200512 -0.35443684 -0.20073672 -0.223848 -0.56407595 0.03884363 -0.039033227 -0.36268735 -0.4467246 -0.29255548 0.052713744 0.17514953 0.52682257 0.37478155 0.030957684 -0.1632492 -0.26752496 0.07658219 0.30254522 -0.10639422 0.32756168 0.2598578 -0.021772457 -0.49438515 -0.027573777 0.081984006 -0.2328758 0.21386258 0.39324558 -0.13272797 0.15598622 -0.31944165 -0.006365896 0.18689193 0.1558692 0.1933728 0.057065703 0.14373401 0.24437013 -0.3466693 0.11512265 0.067283176 0.13021688 0.115103334 0.3339864 -0.2020447 0.0147472555 0.059261486 -0.0419184 -0.22323866 -0.16438822 0.03447344 -0.030966757 0.36661077 -0.048362978 -0.24728581 -0.0888069 -0.3558701 0.38536146 -0.021768378 0.06746672 0.19861881 -0.2836951 0.070915 0.16944988 -0.24868536 0.43331274 0.056476556 0.033923097 -0.0022421912 -0.012148113
33 0.101693 0.26072875 -0.2068996 -0.3772083 0.0721144 -0.1108902 0.023095917 0.2039922 -0.032895837 -0.18063894 0.109162904 0.16055213 0.14849038 0.10385594 -0.28507704 -0.36070147 0.024958415 -0.14914995 0.13486783 -0.24700819 -0.009824675 -0.15032569 -0.08781235 -0.07113011 -0.054304972 0.2061006 -0.055686064 -0.38290533 -0.059561994 0.032408983 -0.080050536 -0.15099269 0.04848969 -0.13362354 -0.082368955 -0.26727214 -0.0697748 0.40284437 0.60388774 0.18857032 0.16237797 0.23765251 0.004310982 -0.08405476 0.12977517 0.13623631 -0.3592119 -0.101554856 -0.14946494 -0.17630786 0.06571771 -0.19168103 -0.064297736 -0.15186833 0.06304898 0.02939439 0.09500911 0.1876225 -0.33316398 -0.19280054 -0.22034615 -0.53744125 0.044421054 -0.021080088 -0.33330938 -0.4113518 -0.26198947 0.059550427 0.16364656 0.48905385 0.34369004 0.036890224 -0.15309748 -0.25095898 0.061538354 0.29998958 -0.10058587 0.3179211 0.24245971 -0.025323484 -0.44067743 -0.030659243 0.07344008 -0.23153852 0.20586509 0.3590674 -0.13587038 0.1531043 -0.28409302 -0.01026879 0.1787975 0.14664209 0.17755158 0.03258054 0.114621066 0.23202254 -0.3140296 0.1128191 0.06920695 0.111362964 0.09482349 0.30378124 -0.19435498 0.0111209 0.05734239 -0.032707904 -0.21364844 -0.14992289 0.030325852 -0.030829147 0.34119338 -0.05602265 -0.21295358 -0.08976572 -0.324232 0.34897614 -0.009233993 0.058766212 0.16811557 -0.2656569 0.068785705 0.1589264 -0.21517989 0.4186278 0.054135595 0.034364354 -0.004778794 -0.012205973
38 0.119228065 0.30989993 -0.234884 -0.43948454 0.10061006 -0.13871142 0.035463262 0.23828736 -0.033734825 -0.20993488 0.12807497 0.1953591 0.18285327 0.10594387 -0.33255604 -0.41873395 0.019917995 -0.16312146 0.15720817 -0.28974235 -0.0062791915 -0.17360446 -0.11669222 -0.086547494 -0.04864835 0.25053596 -0.07814825 -0.45183346 -0.07388426 0.05224181 -0.101037785 -0.18612123 0.06757826 -0.15593372 -0.08309221 -0.30206633 -0.07762873 0.4636985 0.7175546 0.21092725 0.17848033 0.28089488 0.018150326 -0.08497678 0.15675943 0.16545317 -0.4136152 -0.11800447 -0.16651943 -0.2208127 0.07171025 -0.23169027 -0.07612024 -0.19179907 0.07313279 0.036058094 0.13265908 0.21244602 -0.38589835 -0.22494255 -0.24180186 -0.6132288 0.04547909 -0.046425264 -0.3881337 -0.4814862 -0.30610165 0.06460338 0.1917268 0.566336 0.3946158 0.036377065 -0.17762177 -0.2935646 0.072214045 0.33348113 -0.11564345 0.35278338 0.28565234 -0.022328997 -0.52455837 -0.030561192 0.087908976 -0.25486615 0.22807214 0.41771898 -0.14623772 0.17265093 -0.3349427 -0.0062042763 0.1991981 0.17699125 0.21010509 0.06151873 0.15442246 0.26492 -0.37409216 0.12868787 0.07003349 0.13970034 0.119660914 0.35827526 -0.218287 0.007869325 0.06254494 -0.048293296 -0.24110836 -0.17153072 0.038651463 -0.033349175 0.38518617 -0.06220041 -0.25932083 -0.101721704 -0.3813408 0.41294414 -0.0058987513 0.06953538 0.20587845 -0.30402517 0.08418736 0.1744789 -0.26104403 0.4705606 0.057648413 0.03600937 -0.0080009485 -0.01579184
30 0.10533158 0.12609643 0.023507215 -0.07458283 0.16794498 -0.019981083 0.14918125 0.04281523 0.018515278 0.08180565 -0.030419862 0.07544686 0.22363171 -0.101992235 -0.002109527 -0.03376529 -0.07105219 0.106626734 0.03686394 -0.021399293 -0.05818415 -0.10071486 -0.08295363 -0.15361989 0.18582651 0.10371868 -0.16206518 -0.105204284 -0.032230634 0.11295993 -0.04427539 -0.10551912 0.13443722 0.019377291 0.15421844 0.005019385 -0.026916347 0.06968358 0.3809841 -0.057975978 -0.14195131 0.07597222 0.12433802 0.12978745 0.02407084 0.18503721 0.042996857 0.123824686 0.120411806 -0.31495437 -0.11407819 -0.18678203 -0.05827754 -0.21126226 -0.011443576 -0.067437656 0.29238126 -0.08377161 -0.079111345 0.034996837 0.10742949 0.06377216 -0.057029504 -0.1393544 -0.10403434 -0.1162933 -0.046019632 -0.007854401 0.027619626 -0.018443221 0.06994048 -0.10829545 -0.1460684 -0.16031662 -0.034469325 -0.10132788 0.026499676 -0.051232874 0.21328746 0.05003351 -0.15280725 -0.024733892 -0.1016496 0.12044979 -0.17792015 0.02202933 0.116096735 0.058062475 -0.15396348 -0.08180119 0.044454645 0.11413861 0.13977867 0.33882207 0.2433706 0.05957081 -0.015657425 -0.072460696 -0.1362526 0.16521259 0.10673968 0.14650322 -0.035310913 -0.07060057 -0.09802082 -0.17031649 0.13481975 0.1084284 0.14253394 0.030348876 -0.014685198 -0.01826248 -0.20344728 -0.11271732 -0.07836618 0.1044496 0.11948714 0.16701926 0.19720185 -0.08054605 0.07654323 -0.10439037 -0.19702317 -0.14774416 -0.03081969 0.12693988 -0.054832235 0.01466377
35 0.112129234 0.28103182 -0.21838096 -0.39817542 0.09083858 -0.123117656 0.034617987 0.21528834 -0.026970923 -0.17569953 0.112535186 0.16976589 0.17279126 0.09930307 -0.29650915 -0.37986994 0.017629268 -0.14075534 0.14601089 -0.26243335 -0.0126784695 -0.16075034 -0.10442269 -0.08118592 -0.038815897 0.2247311 -0.0790902 -0.4076032 -0.065671064 0.044238135 -0.08404574 -0.17238781 0.06332904 -0.13517235 -0.06764232 -0.27372307 -0.080050655 0.42322725 0.6600962 0.19385454 0.15032598 0.25219217 0.019662293 -0.06974532 0.14036138 0.15603016 -0.36864233 -0.08995796 -0.14488758 -0.21951927 0.060090147 -0.21681258 -0.06560194 -0.17774424 0.06723619 0.022655992 0.12532897 0.18341418 -0.35352635 -0.19582354 -0.21294037 -0.5503885 0.041746672 -0.040808104 -0.3516853 -0.43742377 -0.27207598 0.06887844 0.16964442 0.50147194 0.3598679 0.0283482 -0.169095 -0.27291748 0.05752967 0.30168435 -0.102283016 0.3235271 0.27416056 -0.017973006 -0.4678847 -0.03573605 0.06585558 -0.22855279 0.19324026 0.37526378 -0.13048713 0.16126199 -0.30094585 -0.019271892 0.18532082 0.17144339 0.19737194 0.06541709 0.14380082 0.24480703 -0.32414255 0.11020227 0.061208118 0.13584472 0.10357592 0.32838446 -0.20703442 0.004153644 0.044864334 -0.05567118 -0.20846489 -0.14539611 0.048808664 -0.022004347 0.35132104 -0.07033263 -0.2420129 -0.10595884 -0.34302613 0.3666726 0.0074234838 0.07640645 0.1996559 -0.2796278 0.08287484 0.15107697 -0.23836255 0.4195343 0.047513448 0.049992435 -0.01229595 -0.01378588
24 0.09438371 0.118013576 0.03421801 -0.07354942 0.1784988 -0.022730514 0.16097735 0.041458577 0.021429278 0.06401962 -0.02992925 0.08528308 0.20585886 -0.11089109 0.0016391927 -0.018784255 -0.069574535 0.10845537 0.02369488 -0.010607468 -0.049323726 -0.09209473 -0.086226456 -0.14750338 0.19135107 0.10210745 -0.1586275 -0.09333256 -0.032416843 0.11570622 -0.044965543 -0.097007446 0.12322912 0.010314458 0.1548509 0.015131204 -0.014136418 0.041385144 0.35833362 -0.07941531 -0.13819806 0.071942866 0.12620893 0.13309598 0.02323347 0.17414291 0.05356505 0.106410965 0.11594179 -0.2918235 -0.11634216 -0.18753411 -0.06067029 -0.20766263 -0.008200252 -0.043831963 0.29023972 -0.084085 -0.058273558 0.03429054 0.11947653 0.08189863 -0.06595599 -0.15265815 -0.09365078 -0.10859994 -0.05844494 -0.021762237 0.018593907 -0.014821814 0.058296345 -0.10979909 -0.12972192 -0.14099441 -0.019646233 -0.117346734 0.029420637 -0.064818546 0.1843913 0.05844318 -0.15162937 -0.00525069 -0.08365144 0.13514535 -0.17302917 0.030294577 0.12295321 0.037228025 -0.15489519 -0.070749685 0.038615912 0.09032679 0.12422967 0.32649273 0.23980011 0.042549383 -0.023050627 -0.067762315 -0.13025664 0.15068223 0.10738088 0.13402976 -0.017544303 -0.06048303 -0.09217216 -0.15746175 0.12301117 0.09728483 0.12611651 0.027286544 -0.023736537 0.012737028 -0.1953906 -0.0887718 -0.06904874 0.10136556 0.095005564 0.14727417 0.18794036 -0.058170076 0.06674577 -0.096540116 -0.194231 -0.158957 -0.031495795 0.09711739 -0.03959871 0.0102029685
2 0.10725092 0.13191584 0.038758405 -0.082900584 0.1972943 -0.02490054 0.17673635 0.041760094 0.024966376 0.08234784 -0.03195295 0.08985845 0.22807375 -0.11588609 -0.00057939824 -0.028164044 -0.07190294 0.118539445 0.038466077 -0.023905506 -0.058037084 -0.105775006 -0.09520907 -0.1596206 0.20766215 0.11019919 -0.17818254 -0.10468236 -0.037300136 0.13042028 -0.04643827 -0.10516713 0.13685805 0.011267826 0.17089221 0.013506898 -0.02148761 0.058489848 0.39658412 -0.07918767 -0.15449159 0.083388306 0.137731 0.14370252 0.028918656 0.19588426 0.055039167 0.12211758 0.13430527 -0.32321504 -0.12868798 -0.20761049 -0.068647526 -0.2305207 -0.0042560403 -0.05943403 0.3219484 -0.088089585 -0.07240155 0.039084774 0.12950282 0.07991191 -0.065855496 -0.1609056 -0.10530866 -0.12653042 -0.055897564 -0.018921722 0.026801966 -0.015576708 0.06372389 -0.121848814 -0.15335613 -0.16499282 -0.035629958 -0.13061745 0.027281752 -0.068200216 0.22032796 0.061186496 -0.16541277 -0.011149889 -0.100816175 0.14077072 -0.19558726 0.031327274 0.13185865 0.052791614 -0.16605549 -0.08357622 0.046252884 0.10552331 0.14773966 0.36606893 0.26798823 0.0518448 -0.021930195 -0.07165185 -0.14557704 0.17770982 0.120730646 0.15663798 -0.02860219 -0.072284125 -0.10097893 -0.18519443 0.14544642 0.11461389 0.15474273 0.031329878 -0.025622496 0.00056249544 -0.22602625 -0.10824854 -0.078972876 0.11600749 0.11067229 0.16904983 0.21016479 -0.0739985 0.08401874 -0.111795664 -0.22152333 -0.17301223 -0.033064447 0.12726277 -0.05623969 0.021983488
8 0.093501545 0.120735325 0.05812329 -0.06290221 0.19934958 -0.021790437 0.18331559 0.040073477 0.023174627 0.09029229 -0.03975969 0.09062767 0.21813668 -0.13288556 0.018276203 -0.0044689844 -0.075104885 0.13548274 0.02864085 0.0022704767 -0.049629748 -0.10302264 -0.09826467 -0.16375692 0.2168231 0.1066878 -0.18377742 -0.08809572 -0.040489253 0.14413041 -0.053245205 -0.102277786 0.13336764 0.008791757 0.18544233 0.027097963 -0.0033021024 0.02215554 0.38292828 -0.10254764 -0.16654803 0.077804476 0.14675717 0.15588874 0.0267284 0.18381834 0.08332204 0.11339067 0.14066195 -0.3143671 -0.14179136 -0.20532747 -0.06964628 -0.23050897 -0.011449639 -0.046697542 0.32214975 -0.09351912 -0.044606235 0.058193967 0.15083818 0.12500057 -0.078988455 -0.169015 -0.08257015 -0.099870846 -0.05551249 -0.032677878 0.015388868 -0.046354104 0.04490612 -0.12813778 -0.1419268 -0.1407248 -0.026623894 -0.16097674 0.034163363 -0.10141252 0.18771003 0.06838291 -0.14784357 -0.004178809 -0.1036081 0.16721658 -0.20793779 0.009047366 0.14440608 0.03407521 -0.1625895 -0.07420331 0.026474863 0.08972358 0.13308702 0.37796015 0.27390546 0.02399253 -0.015045898 -0.07853879 -0.15073168 0.1683312 0.12617445 0.13143745 -0.005221748 -0.07559864 -0.103291765 -0.17720042 0.15592285 0.12097577 0.14201179 0.03792983 -0.04967295 0.020914203 -0.22700408 -0.09389894 -0.06365554 0.10333015 0.10045004 0.16122884 0.19788387 -0.04520346 0.07139971 -0.11931688 -0.21023534 -0.20900626 -0.035280302 0.11498152 -0.04300082 0.022168595
14 0.07544718 0.15229587 0.12715815 -0.14532086 0.29048195 -0.02929786 0.28174832 0.07502394 0.039418977 0.015312939 -0.024063619 0.1876319 0.16712527 -0.20776238 0.0026725938 0.012687997 -0.025837649 0.1948023 -0.0016807239 0.023159431 -0.0041260817 -0.13384983 -0.1835266 -0.2120918 0.28501856 0.13619997 -0.21832329 -0.1303667 -0.100689806 0.2389533 -0.113314815 -0.106978394 0.117446885 -0.09414323 0.21593511 0.03369857 0.07672177 -0.031582646 0.46048898 -0.18604785 -0.129487 0.12886013 0.17304063 0.1753906 0.064642854 0.16363327 0.075401455 -0.008648105 0.13846065 -0.27678356 -0.1870492 -0.25233272 -0.09880356 -0.3133307 0.013329028 0.07192052 0.35851446 -0.046022136 0.0038071093 0.0555307 0.2051216 0.18000627 -0.12946464 -0.2594819 -0.08648585 -0.12590247 -0.16937907 -0.12565535 0.014846195 0.025153942 0.047355227 -0.15402335 -0.106228374 -0.09565542 0.06496974 -0.27683824 0.00073436304 -0.18390705 0.104411036 0.11645975 -0.29454303 0.09512317 -0.035904415 0.2577378 -0.17603664 0.10428453 0.19750546 -0.03168351 -0.23482932 -0.02678704 0.0041480865 -0.011997771 0.12122041 0.44982544 0.35371286 -0.06346943 -0.13855916 -0.05811853 -0.16379271 0.15046723 0.2178778 0.14432931 0.050502717 -0.024238404 -0.08554252 -0.1524654 0.118797496 0.07303464 0.10227864 0.052074008 -0.05215223 0.18806249 -0.3163943 -0.009398735 -0.08845503 0.1645507 -0.049493443 0.095845275 0.22014436 0.020156149 0.023845676 -0.08302852 -0.2837817 -0.2791895 -0.034870725 -0.019707823 0.020284366 0.015823556
0 0.109732606 0.12039373 0.00806842 -0.06565561 0.1663017 -0.028503926 0.14302666 0.03338408 0.021634568 0.086587206 -0.025349379 0.06939384 0.23632784 -0.09173072 -0.0012289655 -0.03686208 -0.08261739 0.103342965 0.042132087 -0.027711073 -0.06586529 -0.09735947 -0.07860283 -0.15155885 0.18532932 0.103835225 -0.1643167 -0.10403771 -0.020073283 0.10787747 -0.03851748 -0.10195398 0.13862865 0.035552815 0.15507813 0.010939261 -0.038086373 0.07620787 0.3775997 -0.05040357 -0.1568042 0.071272895 0.1296033 0.13583934 0.016988078 0.19716114 0.045265567 0.14377725 0.12558368 -0.32854778 -0.11087059 -0.19335863 -0.060115382 -0.20572329 -0.005476782 -0.08673594 0.30354032 -0.09354162 -0.08325586 0.035172295 0.103464626 0.05623738 -0.058329634 -0.14426963 -0.10109428 -0.11629748 -0.03496188 0.011212754 0.024634285 -0.023299385 0.06803261 -0.10631394 -0.1499036 -0.17682515 -0.055237353 -0.0914541 0.032142445 -0.040120743 0.23051083 0.04420897 -0.1346341 -0.03165625 -0.11145734 0.10554337 -0.18547527 0.016957391 0.10938029 0.064225316 -0.1529531 -0.085393675 0.05275581 0.12602025 0.14889796 0.3298605 0.24177186 0.0699039 0.002545559 -0.07333041 -0.13208646 0.17301676 0.09154312 0.15236332 -0.042389665 -0.08272412 -0.10254167 -0.17828283 0.13990168 0.115783095 0.15443663 0.026748804 -0.014467616 -0.040925518 -0.1995499 -0.12339681 -0.073348865 0.10530133 0.13937104 0.17924117 0.20473619 -0.08667223 0.086991884 -0.11207051 -0.19888118 -0.14175372 -0.031069811 0.15006933 -0.067131504 0.019620435
31 0.07139861 0.16560403 0.19555287 -0.15063263 0.3686284 -0.036182467 0.3592439 0.087679446 0.046274763 0.026803004 -0.039635144 0.23519205 0.18615481 -0.266787 0.03130796 0.039909896 -0.017163074 0.25603452 -0.021104194 0.043024033 0.0030688832 -0.15162398 -0.2296402 -0.257731 0.35739288 0.1477683 -0.2559549 -0.13096337 -0.11928321 0.30293146 -0.13905737 -0.11314596 0.13122861 -0.12909554 0.26924714 0.055808976 0.12235674 -0.091681264 0.5239969 -0.24607378 -0.15816775 0.15016428 0.21130997 0.2153376 0.07979719 0.1790869 0.12480652 -0.034243725 0.16811198 -0.29803437 -0.23864777 -0.28669423 -0.11820316 -0.38025707 0.018077385 0.10654214 0.41982746 -0.061574165 0.044561762 0.0920121 0.27161336 0.27095357 -0.1742349 -0.3172341 -0.07926285 -0.11555085 -0.20771271 -0.17748077 0.007079228 0.0043786187 0.019426389 -0.20186237 -0.116224214 -0.08487149 0.089869216 -0.37447876 0.003518988 -0.26814377 0.08404452 0.14519253 -0.33954006 0.13336588 -0.041514616 0.3483424 -0.22727449 0.103327714 0.25991526 -0.061976887 -0.26789272 -0.017006453 -0.021259226 -0.045327388 0.12204201 0.5461871 0.43401346 -0.110355616 -0.16962078 -0.07558222 -0.20876887 0.16682354 0.2726697 0.14539717 0.09260349 -0.031219695 -0.09997521 -0.16517287 0.14983723 0.09283239 0.10181156 0.070240624 -0.08088492 0.2705878 -0.37727648 0.01118493 -0.08669087 0.17832796 -0.08854129 0.095188655 0.24296726 0.052418113 0.013116974 -0.10294788 -0.33150554 -0.37905893 -0.04656662 -0.05395255 0.049545057 0.011353588
1 0.060442194 0.15534905 0.13851784 -0.1633143 0.3058994 -0.032595564 0.2908461 0.09777738 0.035832454 -0.008784699 -0.02341945 0.2173482 0.13724893 -0.20800303 -0.004179248 -0.0021357227 -0.008581835 0.17801176 -0.0072195223 0.023119058 0.015719265 -0.14522916 -0.19472158 -0.20672503 0.27787456 0.14015937 -0.20450228 -0.14335468 -0.11175434 0.2495918 -0.12822154 -0.10594941 0.10074426 -0.13375364 0.21044119 0.028350266 0.098473944 -0.04480619 0.46984258 -0.19386594 -0.09743788 0.1507216 0.16350228 0.15951392 0.07722269 0.12967362 0.058951315 -0.06303002 0.1195133 -0.23610322 -0.18642493 -0.248804 -0.108927645 -0.31392035 0.020683449 0.10898819 0.34526432 -0.024199886 0.0059634172 0.05075134 0.1908098 0.16505548 -0.13084494 -0.25725278 -0.0844005 -0.1273018 -0.20158283 -0.14136478 0.022960294 0.06293267 0.053294208 -0.15114991 -0.0958172 -0.07394611 0.09195529 -0.2801328 -0.008604112 -0.183532 0.06439888 0.12048056 -0.32606092 0.113687806 -0.012754395 0.25495985 -0.14648683 0.13537434 0.1918186 -0.042005263 -0.23677373 -0.008183173 -0.0054517277 -0.03359297 0.10377279 0.43361893 0.35457543 -0.082151845 -0.18250856 -0.04341183 -0.14784928 0.13444154 0.23495598 0.13256955 0.06511617 -0.010406538 -0.064383164 -0.12401183 0.08120941 0.051586125 0.069549106 0.047987442 -0.036042694 0.23153572 -0.31794247 0.024590706 -0.11103798 0.17528021 -0.0965333 0.058914483 0.19784175 0.028191011 0.0030440604 -0.048924252 -0.27685753 -0.25547555 -0.028396856 -0.05725376 0.052310422 0.0048147882
19 0.08940032 0.12883446 0.057802804 -0.08953258 0.21126707 -0.027823243 0.19618677 0.045813367 0.028609479 0.067064665 -0.029837128 0.108981125 0.20146482 -0.12965104 0.0011274358 -0.015689705 -0.05577028 0.13747588 0.019689558 -0.0033837869 -0.040348552 -0.10757737 -0.10856507 -0.1702873 0.21603203 0.10696573 -0.17601277 -0.10345259 -0.048462596 0.14859574 -0.05963483 -0.0962495 0.13151024 -0.010482449 0.17459752 0.02466429 0.007415767 0.021552932 0.3909597 -0.10620445 -0.14444478 0.08712692 0.1408402 0.14383955 0.029921388 0.1710362 0.06455111 0.082732975 0.12456088 -0.30047652 -0.13538727 -0.20666371 -0.07611122 -0.23553191 0.0016608245 -0.023883974 0.31258097 -0.08237705 -0.05016958 0.04555353 0.13925655 0.11152102 -0.086451575 -0.18061265 -0.0905583 -0.10764622 -0.07464689 -0.045481227 0.02276361 -0.008236559 0.05094198 -0.119538404 -0.13122138 -0.13167013 -0.011318103 -0.1641063 0.024008783 -0.098519504 0.17121725 0.06979854 -0.18540457 0.017047465 -0.08065032 0.16331543 -0.18431717 0.040442377 0.13950427 0.02399867 -0.16981126 -0.06350182 0.027045798 0.0697236 0.13092265 0.36750087 0.27514276 0.015814114 -0.041421294 -0.06586099 -0.1385556 0.15739937 0.13357212 0.14435829 -0.00037053472 -0.05674146 -0.09458767 -0.16014303 0.13404553 0.10201641 0.13537557 0.035599686 -0.035951413 0.04891904 -0.23501873 -0.07508703 -0.07337509 0.11662867 0.06978565 0.14059418 0.19678949 -0.0398468 0.06253521 -0.099090196 -0.21501568 -0.19082096 -0.036396004 0.08433594 -0.032016248 0.0156082995
3 0.08167902 0.122801386 0.06434378 -0.09471906 0.210735 -0.023042206 0.18919927 0.050598964 0.021107009 0.051586065 -0.025158152 0.11039647 0.18108831 -0.13483469 0.004456407 -0.014493214 -0.051725868 0.12544547 0.01685959 -0.0045523173 -0.036645226 -0.10602526 -0.114588685 -0.15746765 0.20750876 0.104402184 -0.17468388 -0.10387215 -0.048490647 0.15188614 -0.06355413 -0.09328537 0.118598245 -0.021686872 0.17180938 0.020360945 0.011845752 0.019594366 0.3817657 -0.10481025 -0.13041401 0.084772795 0.13868248 0.13753419 0.03711937 0.1592138 0.05237319 0.06992182 0.11662892 -0.2817208 -0.13608819 -0.19817543 -0.07426749 -0.2312291 -0.00053104205 -0.009206508 0.30672795 -0.06946782 -0.04514272 0.045869865 0.13972667 0.10574446 -0.08594336 -0.17807208 -0.085007966 -0.10357521 -0.088236436 -0.048082016 0.018642202 -0.0069387564 0.048034567 -0.11966592 -0.12349346 -0.11554108 0.003921646 -0.15859005 0.02414674 -0.09248488 0.15370886 0.07717972 -0.1890384 0.017809628 -0.067978956 0.1633 -0.1678548 0.05067464 0.13671811 0.020013578 -0.16900112 -0.06303948 0.023658358 0.05365599 0.123614274 0.35338625 0.26707911 0.010443415 -0.051523447 -0.06278556 -0.13823535 0.15166493 0.14142756 0.13620283 0.004225564 -0.04955224 -0.08337231 -0.14790817 0.118348934 0.0938755 0.1181549 0.034114424 -0.028473713 0.059792206 -0.22897376 -0.06344376 -0.070890814 0.11277262 0.04963838 0.12428756 0.19269386 -0.028735926 0.04985579 -0.09262738 -0.20931794 -0.18981971 -0.030502414 0.06512405 -0.022070192 0.01101496
39 0.07280377 0.1495907 0.16544625 -0.14551933 0.32696363 -0.03659388 0.324222 0.07441039 0.046282545 0.020068621 -0.03720363 0.20578675 0.1723938 -0.23808429 0.020813456 0.030952282 -0.019034974 0.22764347 -0.007092967 0.030231342 0.002838423 -0.14191718 -0.20133258 -0.23151527 0.32574025 0.1348546 -0.22914858 -0.12019452 -0.10570307 0.2676596 -0.12740391 -0.11251457 0.12328265 -0.11084823 0.23888502 0.04800783 0.10329721 -0.065013416 0.48477992 -0.21473695 -0.14759888 0.14048196 0.18638133 0.19597442 0.07251226 0.1682963 0.10601387 -0.020543575 0.15434116 -0.2821567 -0.2149825 -0.2602019 -0.11322102 -0.34073928 0.014916694 0.083949916 0.38893273 -0.053646646 0.02803977 0.07312133 0.23674649 0.2273692 -0.15105374 -0.28738946 -0.07748946 -0.12061208 -0.1827479 -0.149147 0.00568373 0.0029705986 0.027288603 -0.18194915 -0.1113202 -0.0917877 0.07080342 -0.32473403 0.0034642168 -0.22931081 0.095678575 0.12772718 -0.31182444 0.11623798 -0.0403213 0.3030837 -0.19982314 0.09849112 0.2229678 -0.0489288 -0.24766786 -0.02095854 -0.012397191 -0.026208527 0.11944092 0.4950495 0.3897683 -0.090306796 -0.15159908 -0.06413399 -0.18311526 0.15784228 0.24485716 0.13560352 0.066042125 -0.03235455 -0.08956905 -0.15832493 0.13813353 0.08459604 0.10737952 0.060312692 -0.06545883 0.2265775 -0.33929035 -0.0013308912 -0.091813035 0.16704178 -0.06607669 0.10366712 0.23297356 0.039342754 0.018452832 -0.0935246 -0.3088794 -0.33035755 -0.04127976 -0.032053452 0.037781034 0.021464184
22 0.09222725 0.1387588 0.1039679 -0.109285064 0.26463458 -0.020143965 0.24626566 0.065804385 0.033548266 0.0596596 -0.037206855 0.149962 0.20187914 -0.18240353 0.017388172 0.008229006 -0.054773323 0.16648845 0.009077414 0.011734673 -0.028657854 -0.13102227 -0.14407171 -0.19928385 0.26317513 0.13262677 -0.21301754 -0.10774882 -0.068488985 0.20072757 -0.08841974 -0.112062365 0.13575308 -0.04631278 0.21432735 0.041168235 0.03718764 -0.010708464 0.44315475 -0.14863005 -0.1571683 0.10695181 0.17008914 0.16871722 0.043267164 0.17293623 0.08015043 0.05343702 0.1494974 -0.31223723 -0.16984624 -0.24227607 -0.09126228 -0.28947115 -0.0065426026 0.018203268 0.3667358 -0.07855159 -0.022432277 0.06201969 0.18922794 0.16683882 -0.11061901 -0.22188754 -0.08432157 -0.10836493 -0.11257788 -0.080581196 0.014789929 -0.009996826 0.041411154 -0.14689875 -0.13040054 -0.11479835 0.020867122 -0.23440805 0.027797272 -0.1500158 0.15699576 0.10405876 -0.22628877 0.046982784 -0.0754211 0.2293315 -0.2002562 0.061484568 0.17753226 0.0023175343 -0.20266561 -0.058675785 0.010518128 0.037791714 0.1298937 0.4344264 0.3264913 -0.025969313 -0.07225782 -0.07717875 -0.16484043 0.16871457 0.17782336 0.14189821 0.02310974 -0.05479165 -0.097158335 -0.16647404 0.13916656 0.10593215 0.12582074 0.04546544 -0.06068312 0.11396157 -0.27780494 -0.04674485 -0.08069971 0.13094813 0.028776258 0.12447388 0.21742105 -0.010597633 0.047670003 -0.100830056 -0.24916254 -0.25974822 -0.041226204 0.052215815 -0.012725333 0.008417405
23 0.09450382 0.14393528 0.103144184 -0.109587915 0.27492413 -0.02453098 0.25914282 0.055298056 0.035069082 0.06238867 -0.037485532 0.14483795 0.20984729 -0.18555427 0.016777672 0.0069301473 -0.061018422 0.17708628 0.009830168 0.011156848 -0.035862114 -0.12888621 -0.1437119 -0.20595059 0.27532867 0.13182244 -0.22000386 -0.10730411 -0.07366166 0.20148425 -0.0902601 -0.10992028 0.13809758 -0.04010269 0.21904144 0.040231604 0.035953656 -0.0080556655 0.44875276 -0.15303396 -0.16362098 0.1082414 0.17951673 0.18071586 0.0414977 0.18987268 0.08907362 0.06550976 0.1579752 -0.32428616 -0.17806566 -0.24840887 -0.09234728 -0.29846877 0.00016666591 0.0040403814 0.3785195 -0.09056052 -0.022976518 0.06346396 0.19656117 0.17267951 -0.1098671 -0.23510206 -0.08402583 -0.10976285 -0.110287584 -0.08301038 0.012022534 -0.017909547 0.043311402 -0.15080166 -0.13455415 -0.12305173 0.017150193 -0.24483311 0.024421507 -0.15607284 0.16331506 0.10304195 -0.23417844 0.043631125 -0.078710355 0.23795126 -0.21745144 0.051635593 0.18581016 0.0005009755 -0.20895761 -0.06632326 0.009512169 0.04252997 0.13793711 0.4556396 0.34215063 -0.024595749 -0.070885 -0.08461411 -0.1753219 0.17829949 0.1812345 0.14751774 0.023079388 -0.05583511 -0.10866994 -0.17803107 0.15086192 0.108811185 0.13468993 0.044344675 -0.060017094 0.11031051 -0.28863344 -0.05657866 -0.0813697 0.13299926 0.03253557 0.1381924 0.22503312 -0.009826347 0.049110398 -0.110423595 -0.2607089 -0.2733597 -0.040356666 0.06085739 -0.0154566 0.016386032
25 0.07986354 0.14300764 0.08152776 -0.13875256 0.24550876 -0.030354634 0.22958666 0.081857875 0.022441046 0.019332668 -0.022563579 0.15697719 0.16612014 -0.15126671 -0.018507134 -0.023494393 -0.03439041 0.13217658 0.012800213 -0.008216488 -0.016494786 -0.12684233 -0.14012817 -0.17385137 0.2282366 0.13381132 -0.19070145 -0.13415745 -0.074865766 0.18368424 -0.08929018 -0.10864781 0.109204866 -0.06573841 0.18030833 0.0070304573 0.03975614 0.017256705 0.43970573 -0.12492646 -0.10881463 0.11630491 0.15036324 0.13466589 0.052268274 0.15319794 0.034470346 0.01764843 0.112390004 -0.26987037 -0.14547545 -0.2228664 -0.08949206 -0.2663936 0.008288393 0.03890557 0.3172223 -0.04144654 -0.04269111 0.036488462 0.14047344 0.098325156 -0.093554124 -0.2030231 -0.096227854 -0.1299259 -0.13944755 -0.08291927 0.029837616 0.04280154 0.06409809 -0.12217745 -0.11794498 -0.10362804 0.0412833 -0.18585995 0.008948209 -0.11034801 0.13349876 0.09237359 -0.25234553 0.04714711 -0.04520362 0.18659171 -0.14347947 0.095804855 0.14193958 0.003302197 -0.20683953 -0.04321983 0.013452519 0.02889819 0.1202394 0.3776673 0.29505476 -0.01761824 -0.10999369 -0.054491937 -0.13532905 0.14254029 0.17650549 0.14113428 0.01528825 -0.037129894 -0.06861417 -0.1400706 0.094780676 0.06171585 0.10062378 0.03648597 -0.021413494 0.119848624 -0.2660429 -0.028841252 -0.10438394 0.1501436 -0.0044096233 0.09807537 0.19667922 -0.02019532 0.034783058 -0.063332826 -0.23323539 -0.18664248 -0.028610405 0.024702106 0.006516822 0.008539218
13 0.09228736 0.14901578 0.1307777 -0.114521675 0.30223104 -0.02087604 0.2916953 0.06663451 0.03927763 0.058546018 -0.04114548 0.1684267 0.20731369 -0.21351989 0.027964056 0.018037885 -0.056429017 0.20119059 0.006418629 0.028982742 -0.029950723 -0.13865253 -0.16811813 -0.22574027 0.3008967 0.13762492 -0.2376617 -0.116062604 -0.08428063 0.23467302 -0.10066817 -0.11114167 0.14480248 -0.06180779 0.24576099 0.05310958 0.05144402 -0.033099934 0.47735113 -0.18976313 -0.17552689 0.1162474 0.19184682 0.19089015 0.04875765 0.1870879 0.10273828 0.044728123 0.16682777 -0.33574188 -0.2008926 -0.26221126 -0.099536896 -0.3251288 0.0034249153 0.030396681 0.40131274 -0.09067455 -0.0059881387 0.076634064 0.21735397 0.20842138 -0.1317125 -0.26092088 -0.081798024 -0.10852785 -0.13468507 -0.106412224 0.01209605 -0.0227839 0.03144464 -0.16678958 -0.1321647 -0.1112905 0.031224817 -0.28520998 0.02162624 -0.19264305 0.14795114 0.11938033 -0.2605755 0.061329864 -0.07579642 0.27584553 -0.2282227 0.064246595 0.20925805 -0.012815461 -0.22355981 -0.05779841 0.00082996255 0.023232253 0.13604054 0.49272287 0.3684557 -0.04669228 -0.083874665 -0.08377161 -0.18597865 0.17667384 0.21018715 0.14588766 0.04299087 -0.05290422 -0.10958427 -0.18244283 0.1605742 0.11295004 0.13864617 0.05135326 -0.073622815 0.15109032 -0.3101235 -0.038696278 -0.07845307 0.14160839 0.007302947 0.13673086 0.23128283 0.0048897355 0.048317023 -0.11335732 -0.27715302 -0.3116406 -0.050009143 0.038812146 -0.0016087029 0.0129446145
28 0.085422546 0.11980905 -0.006714446 -0.10713069 0.13331148 -0.031325582 0.11340225 0.058813374 0.013465193 0.025746314 -0.0041672355 0.080987684 0.16648729 -0.05877501 -0.041289497 -0.066899545 -0.044006925 0.05840535 0.04451498 -0.055786837 -0.042572223 -0.085879676 -0.072041616 -0.11461097 0.12602064 0.09650158 -0.1250212 -0.122368656 -0.031148292 0.08612287 -0.042188585 -0.094656624 0.09780515 -0.013870647 0.09304348 -0.03243841 -0.024810396 0.09664 0.35046878 -0.02744995 -0.0731292 0.08227936 0.09676508 0.0814111 0.040688064 0.14861315 -0.019605335 0.060751077 0.06250807 -0.24164361 -0.07183208 -0.1628316 -0.054657985 -0.16962895 0.008762615 -0.035693828 0.22365648 -0.036764413 -0.09716683 -0.006337633 0.052527286 -0.027595017 -0.04446536 -0.112286955 -0.115331024 -0.13651036 -0.07917798 0.00084494054 0.03830547 0.059814773 0.08547731 -0.07040457 -0.1211376 -0.1390118 -0.011394392 -0.0428826 0.0028785456 0.0013956474 0.17811073 0.03921369 -0.17591374 -0.011942715 -0.05696225 0.059524905 -0.09680869 0.075210996 0.06409474 0.05135013 -0.15446582 -0.051223665 0.054317046 0.08728969 0.11907745 0.2428386 0.18723993 0.061754197 -0.05749446 -0.03410017 -0.07781713 0.12878828 0.09508967 0.1508221 -0.043237295 -0.046788268 -0.063939534 -0.123272635 0.062265527 0.048290893 0.10412643 0.017628344 0.033304166 -0.00788956 -0.17693679 -0.080442525 -0.09498484 0.12900078 0.07096923 0.118016005 0.16724132 -0.08355543 0.06272022 -0.053334057 -0.17269707 -0.050340265 -0.019656824 0.08207819 -0.03582521 0.012288003
17 0.09338776 0.11757921 -0.01895769 -0.0917318 0.1278886 -0.03274498 0.11467925 0.04371766 0.014709445 0.045362152 -0.006393578 0.068747535 0.18872394 -0.055284455 -0.034198545 -0.06431985 -0.052792504 0.06651352 0.047744032 -0.049242668 -0.052242395 -0.0844165 -0.06440538 -0.11792633 0.1318985 0.09716028 -0.13231173 -0.11660778 -0.020501267 0.083401226 -0.035036154 -0.08959368 0.10836499 0.010679356 0.09930892 -0.020595968 -0.038884383 0.092863396 0.34656045 -0.020064011 -0.09280996 0.073637865 0.098457396 0.08724669 0.031178206 0.16364087 -0.006176667 0.09718909 0.07369506 -0.25774515 -0.069796555 -0.1631469 -0.05178117 -0.16475539 0.004660507 -0.057929024 0.23823223 -0.04945999 -0.10105762 0.0027195092 0.056982547 -0.015556554 -0.04092235 -0.11101597 -0.11772818 -0.13183133 -0.05383608 0.01367244 0.034240093 0.037990738 0.08348 -0.07698602 -0.12386839 -0.15663229 -0.026068581 -0.036406484 0.009083644 -2.1058135e-05 0.19783491 0.03814283 -0.15025517 -0.025196487 -0.06775607 0.06004482 -0.11161807 0.055624906 0.07116687 0.063540585 -0.14264998 -0.06592363 0.06173323 0.10714548 0.12527649 0.2523177 0.18639839 0.078932375 -0.030904727 -0.040810294 -0.087270245 0.14244315 0.08433947 0.15105589 -0.05099596 -0.058997184 -0.07383655 -0.13853472 0.07804816 0.070521735 0.12065223 0.022632109 0.028617805 -0.03695129 -0.17290366 -0.10211407 -0.090359926 0.12029454 0.099186495 0.13384248 0.17217551 -0.09289025 0.07108476 -0.06829886 -0.17545763 -0.060494903 -0.022059795 0.10589576 -0.054283436 0.014736854
