100 128
24 -0.022757208 0.10715587 0.06767073 0.004736261 0.06925083 0.034840398 0.09027095 0.04354229 -0.06512865 -0.03980175 -0.11467742 0.30542615 0.0117451595 -0.20813097 -0.024012113 0.1754513 -0.03718656 0.17158756 0.030317318 0.15453756 -0.007043564 -0.05771555 -0.02098896 -0.050350573 -0.046297517 -0.045615923 -0.08682305 -0.10464949 0.023399383 0.01647134 0.05143812 0.12656274 0.0099929245 0.058129694 0.13523024 0.15264563 0.059534144 0.03755815 -0.04455861 -0.06416324 -0.19768606 0.051755182 0.008170946 0.14203425 -0.020241614 0.10396609 0.0808325 -0.071794696 -0.06717639 -0.106328174 -0.07509785 -0.15282741 -0.069722876 -0.16304137 -0.014426968 -0.009906717 0.05870528 0.11064911 -0.049618524 0.016679125 0.06117847 0.118600525 0.15438806 -0.14272374 0.023103638 -0.13848588 0.06279612 -0.09249048 0.12678793 0.07526993 0.1606562 0.045121983 -0.022094492 -0.09472809 0.0077218073 -0.084844545 0.059665214 -0.10151477 -0.09247949 0.008976441 -0.12759183 0.010193328 -0.036482166 -0.041165505 -0.123547874 0.016102014 0.1327348 0.002842594 0.011450645 -0.020660635 0.0611966 0.04770974 -0.03239787 0.15289691 0.17851812 -0.082837075 -0.13876621 0.0771568 0.021973025 0.016928447 0.11633868 -0.042622108 0.13226007 -0.09757912 0.04747355 -0.17869747 -0.01860064 -0.003653637 0.19120382 -0.068928525 0.05489382 0.14726633 -0.027205897 -0.12927032 0.13580765 0.09059549 0.05592586 0.03268038 0.33267903 -0.24381806 -1.3794979e-05 0.008292094 -0.13735886 0.14346884 0.07341919 -0.05228694 0.15872301 -0.044808246
58 -0.03871852 0.11107877 0.083145246 -0.049505603 0.032457575 0.03528579 0.11329513 0.046094052 -0.095635876 -0.050104387 -0.12999293 0.3307306 0.0014681021 -0.24939975 0.029566009 0.18963969 -0.02876634 0.19906972 0.068511896 0.14069636 -0.047179837 -0.041727852 -0.0033379965 0.049307134 -0.05168334 -0.08948516 -0.092074744 -0.049598858 0.025645575 -0.00821996 0.090456545 0.13909915 -0.03910081 0.0561406 0.15703443 0.09567272 0.017148439 0.0064369366 -0.083851375 -0.06685746 -0.16344124 0.00872969 -0.017436557 0.1339138 0.018333573 0.086648546 0.042247463 -0.10613909 -0.046964195 -0.10820537 -0.105318315 -0.19046135 -0.07237147 -0.10471945 -0.017484117 8.3807325e-05 0.05858492 0.1081349 -0.0126829175 0.05037189 0.07908924 0.109980285 0.14979911 -0.14882326 0.06981802 -0.16856757 0.022730079 -0.08810249 0.1287718 0.03755937 0.16460574 0.06237366 -0.06686291 -0.09409979 0.008371882 -0.05577556 0.0658747 -0.08156429 -0.11910498 0.05821762 -0.12485144 0.029210059 -0.064720385 -0.037965804 -0.08664895 0.07260505 0.11646556 -0.005072889 -0.06591873 -0.046835337 0.110207684 0.018271316 0.006211284 0.12765701 0.12890044 -0.09876094 -0.15161996 0.089636594 0.008037773 -0.035183117 0.11857109 -0.014815249 0.14851516 -0.09138921 0.04254569 -0.22642465 -0.025811339 -0.06737637 0.23362553 -0.08089204 0.07336137 0.09681385 -0.03841425 -0.08309904 0.13018306 0.054226432 0.04249474 0.011204266 0.3640427 -0.21896026 -0.014883966 -0.01573972 -0.14376907 0.11022889 0.115913086 -0.02022542 0.20994447 -0.01459172
82 -0.015069133 0.0020999948 0.09071405 -0.07214442 -0.039358754 -0.031592336 0.13058099 0.01538023 -0.17518266 -0.011972818 -0.1658223 0.28714445 0.045387577 -0.28873077 -0.039519344 0.17730922 0.036602538 0.12704906 -0.059425883 0.09667689 0.01483338 -0.19437374 0.06416359 -0.11296709 0.011697645 -0.041738868 -0.03930508 -0.05292289 0.015507932 0.089415684 0.019005848 0.11281596 0.0486862 -0.072377935 0.13005169 0.17337325 0.1782546 0.011091782 0.043447446 -0.06671336 -0.22376294 0.08005147 0.055674113 0.04754869 -0.10539398 0.10403737 0.12887673 -0.09672061 -0.13937224 -0.042469423 -0.11254847 -0.15362455 -0.09008087 -0.23767419 0.059743404 -0.08921145 0.009229598 0.09080431 -0.039754063 -0.03547562 0.019080563 0.1775576 0.1288584 -0.12893818 0.0056229434 -0.09546402 0.0827377 -0.034713976 0.13748947 0.03813132 0.14944825 -0.023587428 -0.062011775 -0.045205027 0.03688629 -0.09176937 0.10953299 -0.14706495 -0.16296501 -0.056264117 -0.20120637 0.09952768 -0.15362331 -0.09719849 -0.06319281 0.09683716 -0.014000816 -0.006952444 0.020032449 0.060208745 0.04734356 0.054443732 -0.03329554 0.0898225 0.10874006 -0.013430204 -0.06956527 0.117174216 0.06446629 0.029624918 0.07673715 -0.044954367 0.08861664 -0.013401706 0.10776835 -0.15706436 0.00071058405 0.069867454 0.19199036 -0.02248305 0.049182385 0.09627437 -0.036946125 -0.040056396 0.14414358 0.13948958 0.16078545 0.07117621 0.2169795 -0.16676544 -0.013950257 -0.026057571 -0.15623997 0.066224985 0.119297065 -0.012230579 0.07761038 -0.05897001
48 -0.059678033 -0.022001667 0.04470467 -0.080442436 -0.024562508 -0.0046728286 0.12442766 -0.026539095 -0.17137013 -0.028983012 -0.16369794 0.2306745 0.037751243 -0.2100007 -0.12638324 0.1683066 0.07578449 0.122902066 -0.06861544 0.08614589 0.021209901 -0.2430296 0.10183557 -0.13871454 0.021485215 -0.055728767 -0.01506539 -0.061200894 -0.04482509 0.10025946 0.08858315 0.052511893 0.027749399 -0.13101614 0.05727007 0.21380301 0.24458604 0.082518764 0.10614593 -0.0021719192 -0.22005402 0.088739894 0.04590876 0.09819002 -0.0989458 0.17368756 0.11338453 -0.09209007 -0.13432488 -0.036203925 -0.082871936 -0.15768164 -0.020954777 -0.28726846 0.10885278 -0.06248576 0.0113122305 0.08356001 -0.06686335 -0.08920607 -0.037390348 0.15136567 0.08533527 -0.11463401 -0.034415748 -0.092873625 0.012616741 -0.045741647 0.11901925 0.11032564 0.10426006 -0.042058885 -0.081034444 -0.0666175 -0.012348041 -0.01777322 0.012390243 -0.14824574 -0.13733897 -0.113842815 -0.24425024 0.14215815 -0.16089873 -0.15584134 -0.09733095 0.12838541 -0.04222496 -0.026536772 0.112408884 0.052140728 -0.025857227 0.14017926 0.028577255 0.108767025 0.07801725 -0.019316591 -0.08604924 0.13755007 0.028731018 0.06286138 0.053855598 -0.04957379 -0.008235235 0.016185535 0.113837816 -0.17551434 -0.007352897 0.07944113 0.14269395 0.0021277633 0.07975631 0.0969828 -0.029245399 -0.018670067 0.11276371 0.14916524 0.17808193 0.04465697 0.116256796 -0.18808506 -0.0013330379 -0.035495564 -0.14436528 0.114380404 0.09642408 -0.035462063 0.08300097 -0.059289534
63 0.041468997 0.087147236 0.11250815 0.0025304123 0.031503823 0.041327275 0.14538582 -0.12365538 -0.093883656 -0.056739867 -0.20776096 0.30959308 0.023424683 -0.26405483 -0.050197046 0.2412457 0.024199218 0.15457876 -0.015579707 0.016120201 -0.05810058 -0.24402802 0.095270574 -0.16250485 0.021588698 0.011337592 -0.01861381 -0.090077594 0.013258019 0.098006226 0.028951898 0.21782397 -0.056927055 0.0183992 0.068514705 0.120912 0.1522241 0.13900824 -0.094329655 0.03708196 -0.114980236 0.0074362634 0.054819934 0.056209624 -0.11217518 0.2541113 0.12676592 -0.052873213 -0.15534487 0.022221044 -0.0046582865 -0.116967864 -0.097683944 -0.23526043 -0.062003907 -0.024934424 0.052439254 0.119668774 -0.007009179 0.012273517 0.00089641055 0.07881268 0.12352097 -0.19998977 0.020696495 -0.008894134 0.06317086 -0.12828688 0.14051327 0.13396879 0.2663093 -0.100034185 -0.0041950373 -0.15214056 0.12923612 -0.10447831 0.0111486465 -0.09382838 -0.14439455 -0.049631685 -0.12960067 0.06116593 -0.065444715 -0.033342242 -0.13904524 0.04818583 0.096198194 -0.03233853 -0.0072974395 0.0731076 0.18329252 0.02747373 0.025419543 0.0976619 0.10622457 -0.08928518 -0.19690418 0.017231137 -0.06814252 -0.050774742 0.07720018 -0.018522086 0.21942402 -0.13575822 0.11341084 -0.18069689 0.07055004 -0.037376616 0.033226058 -0.11270229 0.06407101 0.25896478 0.014353032 -0.10161988 0.28287885 0.3065739 0.15151677 0.051618684 0.24855687 -0.1916211 0.024853572 -0.12162632 -0.28293243 0.05512382 0.03561117 -0.11052695 0.10467138 -0.05978479
66 -0.010482399 0.08375899 0.14626005 -0.09387551 -0.02995973 0.06592099 0.29565105 -0.06775286 -0.23682427 -0.16385604 -0.25974572 0.41897207 0.030814582 -0.35252684 0.051639456 0.27352706 -0.011246805 0.1044306 0.047378667 0.101080835 -0.020296715 -0.26550245 0.15935229 0.030098615 0.01495409 -0.12499538 -0.0078112665 0.028062502 0.037489012 0.035726864 0.14173709 0.15551752 -0.02713301 -0.014834846 0.22742698 0.1396806 0.10378928 0.060081806 -0.063860096 -0.09332532 -0.23286717 -0.003181113 -0.030052131 0.07353498 -0.055991493 0.11242803 0.15709956 -0.10232113 -0.117851734 -0.04353417 -0.15289344 -0.11625029 -0.21371365 -0.11487693 0.045545183 -0.027087009 0.13558602 0.10024955 0.068206325 0.002922378 0.012440306 0.18852295 0.089020915 -0.13582014 0.12516823 -0.10638744 0.059815366 -0.09756785 0.21134812 0.011172587 0.23332828 -0.054078754 -0.11225677 -0.066342525 0.08258103 -0.013261344 0.08005168 -0.058765303 -0.19394119 0.06742558 -0.12209832 0.19093432 -0.16902654 -0.049533557 -0.06529255 0.1190903 0.008933345 0.060445935 -0.082904406 0.039709147 0.13280942 0.073762536 0.010553512 0.0073766746 -0.011185467 -0.060816634 -0.11302924 0.078136325 -0.004849246 -0.097319014 0.10119195 -0.12977695 0.16173106 -0.03161554 0.13623399 -0.26441652 0.022769408 -0.035323236 0.23482685 -0.13113606 0.0083754 0.20438418 0.012862163 0.013957687 0.20765728 0.22911549 0.15261945 0.055145208 0.25215128 -0.20321368 0.007922196 -0.029451167 -0.24571377 0.10680161 0.18778984 0.01749942 0.21652713 0.00041239243
83 -0.027315324 0.07161923 0.0973277 -0.08205106 -0.014240411 0.052117586 0.22546652 -0.09716256 -0.20889288 -0.115677044 -0.22725157 0.31648684 0.036344953 -0.25160632 -0.0228826 0.2322899 0.02389925 0.1247708 0.008310428 0.07445205 -0.0032025427 -0.2768009 0.15042803 -0.062041897 0.018819906 -0.09776007 0.0018003305 -0.0035052146 -0.00716157 0.07246152 0.12777808 0.10911429 -0.025706511 -0.04987948 0.1321763 0.1637283 0.16206661 0.07956692 -0.0043721604 -0.047173522 -0.22260703 0.0324229 -0.0128397355 0.09281683 -0.077572845 0.17474864 0.14029698 -0.084535345 -0.108611725 -0.025042323 -0.10525742 -0.12728168 -0.15622564 -0.16838849 0.04968261 -0.010844033 0.09804088 0.08470187 0.031162072 -0.027684439 -0.037104398 0.16346423 0.05413347 -0.10727665 0.059371866 -0.082371734 0.051302467 -0.112100944 0.18395978 0.090837196 0.18840723 -0.06722125 -0.091694586 -0.08192657 0.046655055 -0.01833343 0.03904067 -0.07120955 -0.14924495 -0.014294233 -0.14603807 0.18875323 -0.14730686 -0.093195416 -0.09048949 0.10949092 -0.0023354136 0.035778783 0.012840219 0.042937655 0.060877074 0.10823755 0.04103914 0.034822226 -0.004906807 -0.07330205 -0.115048096 0.08912547 -0.032304496 -0.05082685 0.07776238 -0.097407475 0.10819251 -0.051218648 0.13072352 -0.22608347 0.02396332 0.00047234292 0.15876198 -0.09699728 0.034814857 0.20943284 0.015112813 0.009867896 0.17958754 0.23182577 0.14480297 0.03653857 0.19200045 -0.20963374 0.006595565 -0.04517727 -0.20317586 0.11493539 0.14316048 -0.017958123 0.17956606 -0.031944565
53 -0.025718333 0.053495124 0.105946176 -0.08226285 -0.026112843 0.049793314 0.23439468 -0.09561248 -0.22851777 -0.11082757 -0.24558689 0.34260324 0.054742686 -0.26811644 -0.037132803 0.24456342 0.034496408 0.10755951 -0.017459795 0.07904857 0.016201923 -0.2943243 0.16110747 -0.08669763 0.03978781 -0.09067445 0.008808537 -0.007525193 -0.0074231084 0.08601326 0.11251471 0.11449188 -0.0049349125 -0.069252156 0.12825838 0.18938509 0.19072191 0.0794324 0.018464705 -0.05518267 -0.23820703 0.035442773 0.0051478148 0.072920464 -0.096756466 0.16363212 0.15515368 -0.08895229 -0.12130022 -0.015439876 -0.10592565 -0.11986695 -0.16491258 -0.2037742 0.07740709 -0.018221907 0.092401065 0.08121112 0.01797746 -0.038723577 -0.04059286 0.18210024 0.05909613 -0.10673286 0.053365357 -0.06815959 0.05459812 -0.10781045 0.17961194 0.0854076 0.18045841 -0.07460894 -0.08506408 -0.07629632 0.04507549 -0.022201871 0.040783398 -0.08269971 -0.16698095 -0.036042184 -0.15293498 0.19336861 -0.1557301 -0.09807419 -0.08974953 0.093885876 -0.015602235 0.025830545 0.037999023 0.059943035 0.035100836 0.11754833 0.030139832 0.02898953 0.0035643398 -0.05125111 -0.095124274 0.079535395 -0.013800588 -0.039579608 0.064503066 -0.10450543 0.09322811 -0.027596626 0.13849309 -0.2009776 0.03141602 0.032347612 0.14524944 -0.08153198 0.019084102 0.19134517 0.012876087 0.014424967 0.16675112 0.24016005 0.15995143 0.038179424 0.15222982 -0.19957703 0.010793645 -0.04135847 -0.19767526 0.111170515 0.13081612 -0.01586624 0.15565398 -0.036938995
21 -0.043808162 0.058916397 0.09528006 -0.11189007 -0.026803508 0.03600335 0.22703207 -0.054676913 -0.22224374 -0.10723453 -0.22526589 0.3492294 0.04319804 -0.27499884 -0.0039317817 0.22617102 0.017914461 0.14522472 0.011369275 0.10905589 -0.012032676 -0.24196249 0.1334349 -0.022399025 0.008836436 -0.118880875 -0.018069321 0.0032262348 -0.002756647 0.05142448 0.12900686 0.09710238 -0.017056942 -0.054657757 0.15327075 0.16157311 0.14421545 0.023738507 0.017605383 -0.08265031 -0.24921845 0.045507766 -0.023348147 0.09991188 -0.059377477 0.14052168 0.12356949 -0.11039111 -0.09853598 -0.059521455 -0.1371967 -0.1574242 -0.15029746 -0.15027282 0.07244928 -0.008503732 0.08189474 0.08650152 0.027198916 -0.025380418 -0.016763136 0.17892997 0.06610233 -0.09885638 0.06268355 -0.1214849 0.03902972 -0.08268301 0.17737108 0.054196034 0.16431974 -0.033022866 -0.11816588 -0.055186395 0.022857392 -0.020966094 0.067876674 -0.07428749 -0.15348856 -0.00041676167 -0.14886759 0.1930887 -0.15922153 -0.09781487 -0.060878765 0.13337065 -0.017152973 0.038049668 -0.0066452697 0.023508275 0.043949317 0.09667546 0.042263184 0.025658581 -0.0031063273 -0.06377179 -0.09786095 0.10850704 0.0027440162 -0.040554535 0.08042229 -0.08921196 0.08597028 -0.032575097 0.1129689 -0.22907442 -0.008200512 0.0011780268 0.20442466 -0.07091724 0.041801553 0.1551792 -0.0024951806 0.01636605 0.14444913 0.17199484 0.1260043 0.035799332 0.20704316 -0.20521948 -0.0070779505 -0.024784999 -0.17206062 0.11143709 0.1675721 0.0064568864 0.1887111 -0.015635718
93 -0.033716727 0.06503051 0.108389646 -0.09543863 -0.026263239 0.057762813 0.26179895 -0.11342865 -0.23808108 -0.148364 -0.2653056 0.34289 0.034149826 -0.27400598 -0.011099483 0.24543676 0.022838902 0.11303386 0.0176388 0.077750534 -0.0068624844 -0.30896583 0.1777929 -0.044286028 0.029943142 -0.118365504 0.02369559 0.0081987865 -0.0086786775 0.07025246 0.14612626 0.103472464 -0.03022868 -0.0520048 0.1507997 0.16724944 0.1701653 0.09255093 -0.0054867663 -0.050219826 -0.23389685 0.033642277 -0.029110387 0.09061213 -0.07777484 0.17976905 0.16519433 -0.0926 -0.11625723 -0.018411547 -0.10854541 -0.12235917 -0.1854419 -0.15240182 0.059706006 -0.0026735584 0.113090396 0.079264276 0.050751414 -0.031226318 -0.044940036 0.1694001 0.043632757 -0.105745256 0.07592839 -0.09527168 0.057442628 -0.1167986 0.20015705 0.073714234 0.2013518 -0.080049664 -0.10864076 -0.0735494 0.05577245 -0.007215816 0.040043835 -0.0620998 -0.15661077 -0.005322422 -0.1332227 0.22698195 -0.15932533 -0.09367907 -0.07389521 0.1285193 -0.01845237 0.059644446 0.0054798867 0.05445002 0.06665118 0.110566266 0.045351353 0.0041298047 -0.042587098 -0.073279485 -0.11495473 0.08953544 -0.023331657 -0.06417732 0.078450024 -0.11214712 0.12097814 -0.0462159 0.1527854 -0.24389066 0.019489791 -0.0022171147 0.166847 -0.10722596 0.02013733 0.21871217 0.02018612 0.040244102 0.18209773 0.25558934 0.15770389 0.041046694 0.17834763 -0.20859711 0.00066451536 -0.047474 -0.21460587 0.12156712 0.15778445 -0.007857659 0.1985232 -0.015222394
25 -0.036448818 0.03996849 0.09950338 -0.094824165 -0.03840301 0.04436961 0.23330937 -0.07094274 -0.23110142 -0.10844001 -0.22803265 0.3219825 0.050371967 -0.25577024 -0.03620188 0.22252691 0.034568574 0.1033673 -0.014841136 0.08653132 0.014043056 -0.2750821 0.15403706 -0.055912506 0.032814384 -0.09813946 0.000731951 0.0050946926 -0.009563181 0.076519296 0.12189514 0.085935436 -0.0034000594 -0.076976515 0.13855474 0.18745166 0.18242215 0.055709764 0.033507086 -0.0583791 -0.24112773 0.03782791 -0.0023827653 0.074372716 -0.08267739 0.13562699 0.1364245 -0.09450587 -0.10524778 -0.033277176 -0.12266512 -0.12292161 -0.1559921 -0.18869059 0.09051165 -0.022900077 0.090874314 0.07953964 0.013782818 -0.04158806 -0.040738128 0.18609172 0.061351925 -0.095785975 0.05621904 -0.08548573 0.03817153 -0.101081885 0.17998639 0.06749761 0.1599203 -0.054501854 -0.100530334 -0.06449482 0.035619035 -0.0032900127 0.048019577 -0.092357464 -0.16463733 -0.023370912 -0.16698663 0.19418359 -0.16586918 -0.10095758 -0.07853978 0.114768505 -0.028168987 0.023037843 0.032956056 0.04515779 0.023001853 0.12085786 0.03215447 0.035430625 0.000581402 -0.055870745 -0.089777336 0.097287565 -0.0062503666 -0.030874768 0.075550534 -0.10883945 0.066576906 -0.013922946 0.1337673 -0.20815456 0.014562255 0.028869938 0.18145324 -0.070678174 0.02179052 0.16042483 0.0051677194 0.020759478 0.14410955 0.19847028 0.152753 0.034757398 0.16571477 -0.1992775 0.0053202873 -0.021323893 -0.18167043 0.11694156 0.14637026 0.003984773 0.16546011 -0.03573207
11 -0.035776455 0.093052074 0.11407169 -0.098791 -0.012754252 0.07277559 0.25823322 -0.09364236 -0.22473331 -0.14694789 -0.24433386 0.3670745 0.03245321 -0.27420205 0.010575423 0.25670832 0.012202576 0.1262449 0.04401069 0.08843036 -0.026069751 -0.2565823 0.15992317 0.010362663 0.018495478 -0.12645386 -0.005577585 0.029118761 0.0043950076 0.03753043 0.16004798 0.1157016 -0.049124133 -0.020819312 0.15899101 0.13625844 0.11726565 0.070621 -0.03698385 -0.064920865 -0.20163429 -0.0017395242 -0.036811776 0.09792162 -0.047064718 0.14914858 0.120448135 -0.098782256 -0.09035335 -0.034826655 -0.12311414 -0.14001349 -0.17957358 -0.11592489 0.043917783 0.0132328 0.13096224 0.081372835 0.057979673 -0.0013898562 -0.016858598 0.16257907 0.054703716 -0.107640535 0.09552585 -0.10776667 0.03188154 -0.12646393 0.18982516 0.066677876 0.20554456 -0.058316004 -0.10676065 -0.08753967 0.045610182 -0.005028431 0.036351345 -0.045715585 -0.15843508 0.027172858 -0.124196544 0.20020846 -0.14425318 -0.07499964 -0.0751199 0.11998229 0.008536365 0.04340856 -0.038281012 0.024247147 0.08273274 0.099003434 0.054426685 0.022373522 -0.03227634 -0.0822213 -0.12991643 0.0775682 -0.041629247 -0.09380384 0.08349439 -0.09910144 0.13488261 -0.049034737 0.12227224 -0.260773 0.021779308 -0.043818664 0.18399747 -0.119589984 0.030969696 0.20125435 0.022142187 0.03250696 0.17106463 0.22398253 0.124203324 0.017820146 0.215694 -0.20710844 0.0029736964 -0.046434764 -0.2141316 0.11571177 0.15960248 -0.006430671 0.2332299 -0.007970971
13 -0.090432815 0.11673832 0.03933449 -0.07153083 0.06425646 0.0787906 0.12729259 -0.018531624 -0.13287115 -0.07783948 -0.15828478 0.30735147 0.034464795 -0.15037434 -0.0545545 0.19696347 -0.0025084119 0.19902043 0.04927798 0.17297684 0.00015047644 -0.11937116 0.041119467 -0.021747828 -0.034244787 -0.11585471 -0.06069169 -0.050438967 -0.037053503 0.012253524 0.16392183 0.044171154 -0.03232484 -0.013005069 0.09312139 0.18749739 0.10790183 0.028596874 0.029658321 -0.07441847 -0.24682567 0.047881573 -0.045529723 0.18943173 -0.01171368 0.1498772 0.04680119 -0.110433586 -0.019556876 -0.11293917 -0.09489821 -0.18398885 -0.07613536 -0.15379298 0.056219377 0.06633084 0.0832632 0.08585689 -0.040141817 -0.017743524 -0.01797823 0.14828315 0.06321189 -0.062101472 0.025132397 -0.1498957 -0.0024654835 -0.13672195 0.14033097 0.13478996 0.096079975 0.040088207 -0.078546934 -0.09857413 -0.076311015 -0.006988597 -0.009078544 -0.06944946 -0.08768699 -0.019412965 -0.13658608 0.12314301 -0.07216878 -0.11146804 -0.11821211 0.06896629 0.062165663 0.015168916 0.09139832 -0.05515043 -0.058943897 0.13731526 0.07456026 0.11188558 0.06743599 -0.116906136 -0.12735905 0.0961731 -0.04155786 0.0048694247 0.104417615 -0.06395699 0.028061105 -0.078107044 0.044281226 -0.2166061 -0.044000372 -0.0014815748 0.19118404 -0.061432943 0.070087895 0.14983268 -0.0023557968 -0.047501616 0.08077028 0.079656616 0.032249097 -0.015051494 0.22038297 -0.2694901 0.009540697 0.027592337 -0.09670539 0.18229829 0.108789675 -0.03005174 0.23458216 -0.04204236
39 -0.019410754 0.054950792 0.11050818 -0.082963854 -0.023138527 0.04966692 0.24258283 -0.101347335 -0.20473903 -0.12022697 -0.24199378 0.33931777 0.03522751 -0.27565342 -0.015186226 0.24299529 0.02992064 0.118355654 0.009035803 0.06579122 -0.012881173 -0.2746381 0.15462114 -0.05306726 0.03223099 -0.09616705 0.007175705 0.001924634 -0.0003241808 0.0704563 0.11971688 0.12346694 -0.032169785 -0.051731467 0.13405925 0.15414032 0.16484419 0.08047202 -0.016450377 -0.038712706 -0.20427945 0.019181907 -0.008149681 0.075433955 -0.07812629 0.16530453 0.13795926 -0.09067551 -0.11719684 -0.01782089 -0.10740454 -0.12145121 -0.15952148 -0.17364667 0.052938357 -0.017227784 0.09529379 0.08884666 0.036222707 -0.022655798 -0.02754281 0.16042289 0.0648372 -0.12683599 0.065197825 -0.08030566 0.036521114 -0.10809785 0.17365152 0.07230137 0.19568606 -0.07397806 -0.08967962 -0.08945371 0.06288317 -0.016919922 0.0361114 -0.08320096 -0.16658299 -0.009201447 -0.1505069 0.18423337 -0.14715324 -0.08330116 -0.0846095 0.11453633 -0.003576299 0.016916545 -0.0056201285 0.05265276 0.08165079 0.094905764 0.03796914 0.034445234 -0.000743541 -0.072866775 -0.12397341 0.084189534 -0.02520967 -0.057893828 0.075836755 -0.09432804 0.116022654 -0.044791825 0.13233462 -0.22324191 0.028178962 -0.00903152 0.15608063 -0.09178985 0.036979053 0.19588798 0.015024362 0.009115193 0.1842644 0.2374322 0.14935829 0.04180841 0.1920666 -0.19326517 0.010211575 -0.053521678 -0.2258551 0.099613145 0.13573658 -0.019228807 0.17767844 -0.023226656
0 -0.02670297 0.07688455 0.09106118 -0.05144509 0.0025452287 0.029867727 0.17557763 -0.05187868 -0.16401684 -0.08272827 -0.20699522 0.33211622 0.043919705 -0.25600362 -0.008620537 0.21054234 0.0038849637 0.15536536 0.01219051 0.10934817 -0.0025535016 -0.19376571 0.0759892 -0.057129618 0.0065902644 -0.067690775 -0.020768577 -0.041109983 0.0018013017 0.06487591 0.082826026 0.11705451 -0.019344086 -0.0019270396 0.13184908 0.15433174 0.13052078 0.04107568 -0.018869638 -0.050725948 -0.22066884 0.048883226 -0.012501778 0.102355115 -0.051483337 0.13999636 0.12289788 -0.099295065 -0.088767424 -0.054117188 -0.091725096 -0.14592108 -0.12935902 -0.17511064 0.032637265 0.0083228685 0.073310025 0.10287749 0.0026415333 0.0010321806 -0.011082829 0.145819 0.089136526 -0.12031486 0.057318613 -0.10038408 0.050884273 -0.102345586 0.15487196 0.08414252 0.17432766 -0.020605097 -0.06585957 -0.08376527 0.028777102 -0.039978717 0.06699168 -0.09738585 -0.13698879 -0.019363781 -0.1368033 0.14278212 -0.10786405 -0.08158783 -0.08528927 0.091664106 0.031431697 0.016407639 0.021019015 0.026076952 0.062360108 0.08542252 0.044182103 0.050373565 0.063283466 -0.08969228 -0.12876597 0.08350962 -0.011330185 -0.025195371 0.10074204 -0.07088662 0.11935304 -0.0770111 0.1118877 -0.19605036 0.0020523295 -0.0056229113 0.15472025 -0.08016978 0.03907624 0.18084599 -0.010652307 -0.032675717 0.15249316 0.18936756 0.110480435 0.041351873 0.25529772 -0.21844576 -0.0009162687 -0.02342456 -0.16438363 0.11704862 0.1237374 -0.021557512 0.15949616 -0.028696181
57 -0.0381346 0.10825572 0.07210122 -0.057715546 0.034538988 0.06279403 0.1786949 -0.07257247 -0.13910784 -0.10126475 -0.20026697 0.3194393 0.021189725 -0.21390256 -0.02711528 0.22592224 0.0055576945 0.16640158 0.0480872 0.09658059 -0.03712571 -0.19332428 0.08818674 -0.03526973 -0.0109532755 -0.08845112 -0.030731682 -0.037414514 -0.011169205 0.03605189 0.13505559 0.112859055 -0.052460916 0.003876855 0.11225504 0.14289801 0.112213634 0.0841295 -0.040425334 -0.026733764 -0.18951416 0.020817347 -0.029830774 0.13356726 -0.03591324 0.18874022 0.08808408 -0.085731104 -0.0763093 -0.056340393 -0.07048165 -0.14138949 -0.10932061 -0.14233418 0.012796409 0.023238141 0.092257224 0.09640303 0.010709211 -0.004075765 -0.010264119 0.11709099 0.07671685 -0.121976726 0.04830256 -0.10542963 0.02742686 -0.120605454 0.15741682 0.112619765 0.17205955 -0.023422243 -0.07815865 -0.10381088 0.022422286 -0.022112321 0.00924673 -0.057784185 -0.11374502 0.00047708707 -0.12005317 0.12593968 -0.0904609 -0.07719149 -0.11030815 0.09221478 0.059502177 0.021307852 0.015044036 -0.0029818397 0.07047617 0.09204047 0.059460595 0.0677867 0.039515678 -0.10423679 -0.1575634 0.073166095 -0.052527234 -0.043665204 0.094789624 -0.058596116 0.11606924 -0.09574829 0.08513327 -0.22720729 -0.0003834255 -0.03491111 0.14356625 -0.09127392 0.05610264 0.19795178 0.008131406 -0.041363105 0.1731352 0.18163246 0.09168614 0.018456291 0.23604436 -0.22692595 0.013907963 -0.04310351 -0.19348277 0.12630779 0.10931265 -0.044386715 0.20367455 -0.02298751
76 -0.012130764 0.10611746 0.116092205 -0.04174321 0.0065928823 0.0707905 0.22642645 -0.07776134 -0.18904577 -0.12551251 -0.22371423 0.35124257 0.04652842 -0.2595134 -0.0071397126 0.23892927 -0.0058580665 0.118932165 0.024831606 0.09801299 0.0030669332 -0.22577801 0.11254984 -0.041626528 0.006112653 -0.076735444 -0.016393667 -0.018624432 0.0151417665 0.054484818 0.10807924 0.13101903 -0.025186963 0.0048609907 0.14580849 0.15856765 0.10876829 0.06885047 -0.03860803 -0.05969833 -0.21720622 0.013940449 -0.022632167 0.088429905 -0.046334073 0.13207707 0.13589847 -0.088558264 -0.08683835 -0.038589276 -0.097708605 -0.117200404 -0.16701522 -0.15408763 0.03303548 0.011393603 0.11468977 0.09810888 0.023451542 0.004327301 -0.007431802 0.15744734 0.07560294 -0.12017313 0.0673217 -0.084178686 0.059292812 -0.13065852 0.18727958 0.07844028 0.19675034 -0.041391697 -0.065077685 -0.094977416 0.043227147 -0.03307638 0.046020027 -0.07671149 -0.14663157 0.0043035434 -0.11203045 0.15185326 -0.10061018 -0.06408558 -0.111442536 0.05970043 0.05210533 0.03446809 0.010139003 0.024297327 0.07586971 0.098351546 0.032068633 0.04738368 0.034843702 -0.08612486 -0.13672611 0.060177695 -0.035917576 -0.055305585 0.09363649 -0.103001356 0.12898318 -0.07529265 0.12033769 -0.20766634 0.021265652 -0.016661253 0.16592696 -0.10890591 0.01964463 0.21226658 0.021576012 -0.033243716 0.17649575 0.22103608 0.11066801 0.031905606 0.24750923 -0.2297876 0.013081455 -0.025452565 -0.19859093 0.12910163 0.12176321 -0.025389658 0.18765527 -0.02748065
79 -0.042455778 0.08064299 0.090379335 -0.087053694 -0.005551972 0.03695155 0.17978343 -0.008256202 -0.16584687 -0.08272942 -0.17589483 0.33137375 0.029875237 -0.25726476 0.028979806 0.19987056 -0.007133946 0.17465818 0.053990033 0.11956358 -0.032310788 -0.13007158 0.06403365 0.029217746 -0.021182036 -0.1163716 -0.048798125 -0.006025484 0.01883532 0.021047307 0.10875443 0.10830792 -0.030139865 0.0122457575 0.16977161 0.12345993 0.06578456 -0.0047519905 -0.043674774 -0.08091773 -0.20188375 0.033562 -0.02618439 0.11799649 -0.018513601 0.099709734 0.07492191 -0.10737284 -0.060725663 -0.09375304 -0.13414104 -0.17397638 -0.12851202 -0.109091625 0.02401266 -0.0039083073 0.07981168 0.08679008 0.021904811 0.014116134 0.02424754 0.1459026 0.10463103 -0.110799365 0.0819818 -0.15299678 0.03557344 -0.09252333 0.16226095 0.02938754 0.16268831 0.020705754 -0.09485195 -0.06903406 0.017309949 -0.037696447 0.071700834 -0.0755761 -0.13159114 0.041811135 -0.1298699 0.12492349 -0.11577013 -0.063259274 -0.058260795 0.10795208 0.042882774 0.021946846 -0.047102798 -0.010778481 0.073326714 0.04549676 0.021338206 0.064802215 0.04722122 -0.09297435 -0.11906889 0.10210071 0.0037150246 -0.042534288 0.10393702 -0.060427953 0.12486113 -0.064229816 0.07888448 -0.23077822 -0.019848192 -0.03871657 0.2299339 -0.079845816 0.052226517 0.11876132 -0.011615081 -0.021879539 0.13311607 0.10316814 0.079875685 0.024124686 0.29238954 -0.20354097 -0.0117544 -0.01780824 -0.1500245 0.10785866 0.15274371 0.0031558545 0.2050491 -0.011574253
44 -0.013017494 0.10953501 0.116809584 -0.052930962 0.0011258917 0.068228625 0.25136966 -0.072894394 -0.19604781 -0.14498183 -0.23551331 0.3721732 0.031014511 -0.2754384 0.02658355 0.23688175 -0.021635886 0.1150249 0.053894617 0.112496905 -0.015058355 -0.21783611 0.1163846 -0.0028637024 0.00024579646 -0.099454254 -0.014770874 -0.007423094 0.017278573 0.04414365 0.12471963 0.121160224 -0.027970772 0.005711505 0.18413395 0.15092532 0.09916797 0.060010623 -0.044776984 -0.07784611 -0.23183334 0.0260285 -0.038305487 0.10005882 -0.038949024 0.11609408 0.14284989 -0.08254071 -0.080430806 -0.061302286 -0.119088046 -0.11688068 -0.18014042 -0.12006137 0.03229947 0.010315875 0.115881056 0.10769076 0.03642804 0.0054883715 -0.0024918455 0.16843893 0.07278907 -0.12163238 0.08526206 -0.107002206 0.061729264 -0.11629845 0.19379058 0.05246101 0.19010158 -0.030811206 -0.0868209 -0.06799878 0.054611556 -0.014954263 0.05077224 -0.06943472 -0.14693677 0.037237786 -0.102612615 0.16491711 -0.11220724 -0.050082527 -0.09084825 0.091240674 0.036886193 0.06034504 -0.022343477 0.020903131 0.08683115 0.086450726 0.026887815 0.025220688 0.023052208 -0.08668621 -0.11994488 0.07020197 -0.011502313 -0.05872153 0.11605574 -0.11421979 0.1285493 -0.06489952 0.12329367 -0.2214416 0.008394948 -0.023161335 0.18993565 -0.10266574 0.015333829 0.20970355 0.016272765 -0.019725904 0.1752254 0.1935553 0.10889587 0.04370236 0.2511934 -0.2264165 0.013598418 -0.01245118 -0.1986221 0.13200812 0.1476703 -0.0048108357 0.19419882 -0.01221942
10 -0.052178834 0.114626095 0.093140826 -0.06924667 0.01713451 0.08373951 0.21546943 -0.07773909 -0.19219477 -0.13066968 -0.22812362 0.35415557 0.04490138 -0.22861697 -0.015257642 0.24074124 -0.0013950219 0.14627267 0.050376747 0.121214 -0.007181239 -0.2144131 0.12089132 -0.008031999 0.00067761785 -0.1170665 -0.011698492 -0.0051823803 -0.0065528746 0.03262618 0.16276616 0.09440285 -0.044446055 -0.01323121 0.13477316 0.16711624 0.11254674 0.06529043 -0.020423679 -0.0677607 -0.22632885 0.01491048 -0.053626347 0.13206235 -0.024584908 0.14371522 0.10270796 -0.09883248 -0.06333431 -0.057680488 -0.10575798 -0.13627708 -0.15637484 -0.12910292 0.05140399 0.04118674 0.12572688 0.08865286 0.018306322 -0.003457528 -0.026722588 0.15475006 0.06017061 -0.09190038 0.07184288 -0.10625471 0.022506196 -0.14277288 0.18008494 0.09454632 0.16205965 -0.025090227 -0.09310863 -0.10064887 0.008333681 0.011175245 0.015954211 -0.05403608 -0.13323739 0.008626004 -0.11366873 0.1707024 -0.11006055 -0.0885677 -0.10311744 0.08080636 0.035675656 0.035049394 0.025605734 -0.0069931992 0.035978805 0.12902771 0.06592955 0.04286843 0.005685263 -0.097707875 -0.1358989 0.071079515 -0.051085815 -0.05314087 0.0951973 -0.100329764 0.091436565 -0.066136144 0.09986468 -0.23212194 -0.0018469774 -0.023679296 0.1753536 -0.107672945 0.0356514 0.20139973 0.024023334 -0.012717427 0.14618929 0.18561365 0.09367852 0.0044609234 0.22058003 -0.24198285 0.0121998135 -0.012760461 -0.16931659 0.14827713 0.13154703 -0.012906033 0.23152202 -0.020047728
40 -0.03260332 0.0858585 0.10524549 -0.0827293 -0.013532872 0.07451059 0.24786286 -0.083484076 -0.23045547 -0.1348724 -0.24325511 0.35833302 0.05550132 -0.25727007 -0.031618502 0.24397837 0.016082454 0.105354995 0.0029437311 0.09319863 0.017103257 -0.26571137 0.15716188 -0.041519906 0.030335966 -0.10007378 0.0014632241 0.0042253244 -0.00955808 0.060104623 0.1392991 0.08911688 -0.019389357 -0.04921408 0.13988774 0.1874043 0.1600833 0.06869395 0.013803291 -0.06508632 -0.2390612 0.018854028 -0.022515342 0.09149571 -0.065534174 0.13584065 0.1340211 -0.09254437 -0.08642381 -0.029335743 -0.117706195 -0.12340596 -0.16806553 -0.16978997 0.08102194 0.008358754 0.12094584 0.07832862 0.019963134 -0.022951227 -0.030940056 0.18501729 0.05060684 -0.09473213 0.060462095 -0.081939526 0.041889023 -0.128684 0.18635027 0.088833354 0.17144239 -0.054744337 -0.08863218 -0.0862829 0.019173741 0.0008848845 0.026661418 -0.073633075 -0.15846379 -0.016286615 -0.13442777 0.1950119 -0.13725354 -0.09349222 -0.104195625 0.08418305 0.0024926362 0.026822478 0.031532243 0.035852693 0.026512792 0.13857165 0.048139878 0.032031924 -0.0005156802 -0.071045205 -0.10696801 0.0723485 -0.028427405 -0.04954499 0.06900235 -0.11635074 0.07379332 -0.03273461 0.11841553 -0.21182439 0.022801632 0.010893836 0.17314784 -0.09692883 0.020461295 0.19011055 0.021215346 0.00937918 0.144929 0.20985323 0.13104519 0.020351516 0.17477033 -0.21708603 0.016844813 -0.0198735 -0.19041844 0.130265 0.1376353 -0.0049423967 0.18743616 -0.032415442
17 -0.03573242 0.06626011 0.08385871 -0.092200525 -0.015258974 0.03704046 0.20379071 -0.059627634 -0.18094653 -0.093547486 -0.20935848 0.3259958 0.033931714 -0.2523483 -0.0005486186 0.21362096 0.019746525 0.15440826 0.03137747 0.10114367 -0.03146991 -0.20482898 0.10369406 -0.017349606 -8.611849e-05 -0.10317151 -0.024615945 -0.008833326 0.0024117422 0.04947224 0.12585087 0.10662143 -0.031443615 -0.022126922 0.14133999 0.14296988 0.12102712 0.03208408 -0.011346292 -0.052532528 -0.20610218 0.03666052 -0.023183657 0.1062421 -0.05028367 0.15093121 0.10009277 -0.09318987 -0.09288909 -0.061650638 -0.112992965 -0.15605065 -0.12552802 -0.14002317 0.038743757 -0.007944899 0.081769235 0.0905056 0.017133174 -0.010559368 -0.0055396287 0.15284255 0.07838551 -0.1120086 0.059173405 -0.118010364 0.033871826 -0.09058025 0.15924762 0.059769478 0.16789733 -0.024583103 -0.09579205 -0.07358447 0.036526315 -0.013397236 0.04675218 -0.078053735 -0.13030532 0.015100617 -0.14019915 0.15898335 -0.12783727 -0.07569 -0.063029505 0.12895863 0.012166784 0.026741875 -0.011958374 0.012768563 0.06914362 0.07722968 0.04446563 0.045097042 0.013164423 -0.07539726 -0.113385424 0.095220275 -0.007618642 -0.036620777 0.097157225 -0.068922654 0.10439453 -0.05105275 0.09799237 -0.22748709 -0.004601451 -0.014841106 0.18370065 -0.06809222 0.04952243 0.15368159 -0.0053042937 -0.005131651 0.14912115 0.1632122 0.114182614 0.034422807 0.22580235 -0.19755654 0.00013532261 -0.03065363 -0.18083031 0.10705389 0.14218782 -0.009514488 0.17710257 -0.019164896
36 -0.029000528 0.08096618 0.11407317 -0.07930091 -0.011742247 0.061082114 0.26143527 -0.084795736 -0.22336777 -0.14301594 -0.24197137 0.35399142 0.033583347 -0.27269667 -0.008378727 0.24597935 0.010377529 0.09888396 0.022565108 0.09302293 -0.006566943 -0.27538982 0.15826134 -0.026834933 0.018361373 -0.11027446 -0.00045831208 -0.004859514 0.0024014392 0.06453645 0.13533969 0.10908864 -0.016968362 -0.041264053 0.1689707 0.16904834 0.14305685 0.090873934 -0.0132545065 -0.05789562 -0.224742 0.024978153 -0.016579106 0.08943571 -0.06809874 0.1339212 0.14471816 -0.080928415 -0.10841959 -0.038349353 -0.11816835 -0.11225335 -0.17342903 -0.15250269 0.06366886 -0.016208144 0.11583564 0.09012101 0.03855158 -0.02393534 -0.022267615 0.17237285 0.06684652 -0.112233356 0.0747074 -0.10032733 0.051373925 -0.11025968 0.19015774 0.058725387 0.19298266 -0.063455895 -0.09714028 -0.07646926 0.057281796 -0.005540822 0.03152809 -0.076161 -0.15645905 0.010787805 -0.13742697 0.1839534 -0.14314818 -0.074162774 -0.089225516 0.10609038 0.007898901 0.055736046 -0.0050589363 0.041105255 0.07840421 0.106194414 0.028360043 0.03791394 -0.002953695 -0.062451616 -0.11409216 0.09182472 -0.013893295 -0.05258655 0.086158566 -0.12076706 0.10817944 -0.035934545 0.13749504 -0.2292026 0.019787323 -0.00024800427 0.1847245 -0.09202201 0.014147124 0.19925466 0.015621007 0.0018499177 0.16912234 0.21857437 0.14162551 0.038623404 0.1930598 -0.20463833 0.018826222 -0.029865777 -0.20913984 0.1260625 0.14212194 -0.0010442509 0.1885099 -0.019638166
60 -0.03583101 0.10391859 0.09413085 -0.08293946 0.0020869698 0.06341387 0.21577783 -0.0695003 -0.17889228 -0.1149145 -0.22087726 0.339397 0.031573407 -0.24383143 0.0146582965 0.2304411 0.0018780122 0.15610914 0.059320457 0.09982639 -0.03189458 -0.19838056 0.10371505 0.0076635107 -0.006705179 -0.11442106 -0.022035744 -0.003532751 0.004413571 0.03079644 0.14613873 0.10830025 -0.05169336 0.0048525287 0.14634779 0.12675768 0.094666965 0.052262183 -0.04401224 -0.05833437 -0.19630611 0.013580634 -0.043476477 0.11580956 -0.030015612 0.14750142 0.0983382 -0.09383565 -0.06765532 -0.0597004 -0.10212552 -0.1504834 -0.14182428 -0.11690268 0.01927724 0.030261535 0.10345819 0.09113214 0.02874221 0.011474036 -0.008820433 0.14258294 0.07132165 -0.10879223 0.077684194 -0.12078949 0.03456002 -0.121405624 0.17130446 0.0766643 0.17842811 -0.024547586 -0.09392212 -0.08809643 0.028396778 -0.00936112 0.036383748 -0.059815407 -0.12943158 0.02936196 -0.110280804 0.15850922 -0.11490196 -0.07151663 -0.0837925 0.10561142 0.03488877 0.029161518 -0.01754956 0.0014299563 0.070930004 0.0812562 0.061647467 0.04282227 0.0066223047 -0.09922201 -0.13291991 0.08395724 -0.037284486 -0.060759425 0.09621122 -0.07535244 0.12663333 -0.07199883 0.09642586 -0.2360375 0.0018361931 -0.045979563 0.17594813 -0.097367905 0.042567283 0.18483323 0.010714085 -0.00763981 0.1597348 0.1725436 0.09206313 0.020110067 0.24519002 -0.21572128 0.0036466164 -0.029762045 -0.18145832 0.11695237 0.14199078 -0.01895961 0.21336533 -0.016350985
9 -0.02935978 0.018808331 0.11355918 -0.11449837 -0.058431283 0.0257898 0.25044492 -0.07709533 -0.24569352 -0.105365016 -0.24559583 0.33564317 0.05092121 -0.29858342 -0.012970059 0.231279 0.044112578 0.10199309 -0.02219367 0.079100706 0.006575664 -0.2960307 0.17256063 -0.06445206 0.03649628 -0.11290408 0.010855114 0.0085737435 -0.0013432142 0.08348334 0.110666685 0.09909902 0.011430463 -0.08771756 0.152782 0.18340994 0.19004993 0.05559303 0.028479096 -0.0628146 -0.25098217 0.054257505 0.002787843 0.0679661 -0.098432586 0.14294922 0.15829498 -0.09527849 -0.12997612 -0.024195198 -0.13492517 -0.13028315 -0.16611896 -0.18967158 0.089965865 -0.042949498 0.08063078 0.07834598 0.029143332 -0.04447921 -0.03631137 0.18831281 0.06381418 -0.10492294 0.06684053 -0.092211656 0.05726558 -0.06930172 0.18239175 0.047750782 0.18062031 -0.06738092 -0.11024337 -0.04855173 0.05287909 -0.024178041 0.07961874 -0.09139321 -0.17970838 -0.019729603 -0.17419884 0.20946614 -0.19259894 -0.106946014 -0.049671244 0.13781023 -0.05664136 0.029395537 0.0023781394 0.07151449 0.046316855 0.10355659 0.017548943 0.015208987 -0.020824281 -0.03970111 -0.07422826 0.110296614 0.021832066 -0.040644947 0.063496485 -0.1035188 0.091032945 0.0018871592 0.14992198 -0.21135162 0.018148733 0.036076818 0.18796149 -0.06601842 0.022340477 0.1568715 0.0008349377 0.04731594 0.1626053 0.21667697 0.17457318 0.05130298 0.16129136 -0.18007274 -0.009319715 -0.041071877 -0.1932862 0.09372203 0.16846918 0.011191285 0.14948638 -0.02793525
72 -0.018559184 0.06798627 0.11139736 -0.07768252 -0.0056338133 0.059609883 0.23943868 -0.09826691 -0.22242951 -0.1172491 -0.24613221 0.34935975 0.057028405 -0.2683544 -0.025452208 0.24594288 0.021953022 0.09903874 -0.016015355 0.07901786 0.014925072 -0.30159992 0.16013713 -0.09136721 0.034298573 -0.08350719 0.006978269 -0.010224757 0.002847342 0.08261822 0.10814652 0.11438871 -0.002022626 -0.05142613 0.14081636 0.18866366 0.17898624 0.090450116 0.0022606107 -0.05473197 -0.24094899 0.033341922 -0.00034013216 0.07227827 -0.10023207 0.17019638 0.16156042 -0.08040653 -0.120708235 -0.0136081055 -0.0976242 -0.11007403 -0.1811859 -0.19087069 0.058164313 -0.014089717 0.10809831 0.08281214 0.024415739 -0.03282535 -0.038668554 0.1827313 0.06579835 -0.10844402 0.052653395 -0.066608585 0.07343318 -0.114042 0.19557407 0.09334881 0.20548677 -0.083075024 -0.079861484 -0.0823047 0.052707523 -0.042575553 0.053442877 -0.076997936 -0.16805644 -0.031284176 -0.13802353 0.19425614 -0.14586264 -0.094163604 -0.09700123 0.083788976 0.00029397363 0.039316338 0.031178849 0.06019733 0.04809702 0.11460707 0.025295494 0.032575473 0.0047092256 -0.063065715 -0.106169425 0.06968336 -0.021628251 -0.054216534 0.07174182 -0.11560137 0.1124569 -0.038311303 0.13900676 -0.20739126 0.03403065 0.030254388 0.14374301 -0.09887107 0.0078262575 0.22499481 0.027975423 0.0024375042 0.19163476 0.25830692 0.15979499 0.04126126 0.1734636 -0.21589528 0.011727334 -0.039418537 -0.21324188 0.11649109 0.14047438 -0.01977312 0.16762403 -0.042654157
81 -0.052582197 0.07295624 0.09071986 -0.09952173 -0.0040254933 0.08415887 0.25888184 -0.14133132 -0.23687285 -0.14758652 -0.27023914 0.32812536 0.040003043 -0.23182845 -0.040801767 0.251705 0.03723739 0.097982526 0.012614076 0.073453784 0.006348066 -0.33031547 0.19023043 -0.06896363 0.035548344 -0.10542111 0.03187677 -0.00023476135 -0.032114394 0.079309486 0.17327966 0.07978401 -0.042261004 -0.06671639 0.11073838 0.1859889 0.20175119 0.12341291 0.01884227 -0.0330044 -0.22588004 0.0244704 -0.031934794 0.09873984 -0.088173665 0.20473498 0.15313363 -0.08412879 -0.11631847 -0.0036995981 -0.086108945 -0.10177462 -0.16919452 -0.17752713 0.08102005 0.020104742 0.11215049 0.08454826 0.03431044 -0.056347508 -0.07636315 0.16801773 0.024908131 -0.083984464 0.058006644 -0.07290128 0.0322675 -0.12887606 0.18896836 0.11827295 0.18804523 -0.09941575 -0.10249206 -0.09301333 0.036354646 0.019240089 0.0004055872 -0.06195529 -0.14839725 -0.03902171 -0.13467315 0.24548702 -0.15651222 -0.11031024 -0.09755276 0.118109256 -0.027453665 0.056489635 0.05595341 0.05349191 0.03357296 0.16010134 0.07952991 0.010946225 -0.049498886 -0.06845004 -0.12620765 0.076958865 -0.05692382 -0.054821286 0.07709851 -0.12910147 0.08222305 -0.03300317 0.15092832 -0.23960136 0.030777834 0.011313099 0.12845829 -0.09634487 0.018445939 0.24226572 0.03668049 0.024847928 0.1760702 0.2797051 0.16355076 0.029850837 0.12676278 -0.22510774 0.030188777 -0.03889152 -0.2119787 0.14559868 0.1466038 -0.021661874 0.19538245 -0.027025433
26 -0.037009515 0.06300516 0.10502701 -0.11909723 -0.032900006 0.050300162 0.2529004 -0.09572366 -0.22871229 -0.13245629 -0.25434792 0.34984562 0.038747348 -0.2848411 0.006067062 0.24106152 0.021920726 0.1296911 0.02723775 0.081819475 -0.022024736 -0.28175044 0.16010892 -0.023947392 0.024671894 -0.12177729 0.008705355 0.014921535 -0.0065512112 0.061451584 0.14526945 0.09880639 -0.031658947 -0.052899234 0.15546586 0.14766468 0.15360115 0.06434285 0.000152868 -0.06542306 -0.22800422 0.03682931 -0.025645638 0.0920342 -0.071697034 0.17164116 0.140352 -0.095291846 -0.10837076 -0.03394847 -0.119738355 -0.13736072 -0.168456 -0.13952354 0.05934995 -0.00031854794 0.10008366 0.081797995 0.04622718 -0.030139571 -0.034719136 0.17056344 0.050294567 -0.105867825 0.07585197 -0.10940343 0.038368233 -0.092815876 0.18484452 0.06161221 0.18943551 -0.062336024 -0.123938136 -0.061125197 0.048990138 -0.0032033098 0.048897248 -0.058733113 -0.15780179 0.0050286064 -0.13889346 0.21715316 -0.17036104 -0.09018477 -0.059707686 0.1437043 -0.0300961 0.047462203 -0.022628175 0.043295268 0.06297818 0.09753657 0.06160042 -0.0024347834 -0.039783906 -0.06546061 -0.106414616 0.09799317 -0.016349489 -0.06323431 0.0844317 -0.09650144 0.10689911 -0.033873826 0.13280538 -0.25076357 0.008307846 -0.013715175 0.17389116 -0.090776645 0.03037147 0.19366668 0.010394444 0.040014192 0.1736677 0.22053798 0.15277812 0.04004254 0.18310371 -0.20269775 -0.0023357882 -0.04390339 -0.20454742 0.10513653 0.17295429 0.0032895315 0.19686258 -0.016272629
77 -0.03109522 0.08287076 0.11828745 -0.096794575 -0.012667456 0.069834314 0.26506168 -0.10389284 -0.23236777 -0.14301103 -0.2579702 0.36908475 0.039924257 -0.28104007 0.0020759862 0.258935 0.018404454 0.11499126 0.022107512 0.08518322 -0.0047035315 -0.2898585 0.17081471 -0.035273913 0.020711001 -0.114576146 0.007536745 0.0047448957 -0.0032288483 0.0663337 0.14500868 0.11112869 -0.02837314 -0.043138977 0.16051194 0.17114809 0.14952879 0.08188786 -0.018371547 -0.06391337 -0.23591457 0.023928009 -0.028394941 0.09305084 -0.07391026 0.16234787 0.15156297 -0.087531365 -0.10906576 -0.027517447 -0.10786878 -0.119686164 -0.18646201 -0.15584478 0.05466477 0.00689997 0.11627837 0.09047726 0.04781433 -0.024942959 -0.03909729 0.18057095 0.049037643 -0.106118836 0.07904215 -0.08522917 0.04966753 -0.11020395 0.19578609 0.071836665 0.20094813 -0.07503013 -0.10630682 -0.07413637 0.04841887 -0.009759125 0.048141986 -0.06011396 -0.16595776 0.0075502805 -0.12108156 0.21081826 -0.156586 -0.08897316 -0.07600305 0.11056555 -0.007756118 0.058220923 -0.0061381725 0.04833339 0.06182536 0.11022454 0.043350454 0.013189993 -0.033981655 -0.07325977 -0.11565001 0.08264357 -0.028046131 -0.06830514 0.08430288 -0.11728185 0.114183545 -0.03369899 0.14187087 -0.23303123 0.023599805 -0.0014200325 0.16599989 -0.102539666 0.010198933 0.21311583 0.027097767 0.019544687 0.1842859 0.24123685 0.14755231 0.034795154 0.18496315 -0.21261726 0.012553903 -0.034783702 -0.20637347 0.12011444 0.16205129 -0.0045353873 0.20051996 -0.018916452
64 -0.034519292 0.025342513 0.10476441 -0.11821141 -0.05036495 0.054138236 0.28112343 -0.10781193 -0.26207185 -0.13928358 -0.25969213 0.34213546 0.045364164 -0.28472137 -0.024560606 0.24882422 0.04239275 0.07845556 -0.014400606 0.07017396 0.01429083 -0.3446042 0.20698708 -0.059106037 0.043920897 -0.118614905 0.023549663 0.018565347 -0.014389501 0.08723302 0.14881754 0.0854949 -0.005219469 -0.107257254 0.14827023 0.19383109 0.21397023 0.09362207 0.04008194 -0.04842348 -0.24473073 0.03644868 -0.0030014731 0.072484955 -0.10727737 0.1661384 0.17041107 -0.087995045 -0.13128473 -0.007869228 -0.12748498 -0.10842659 -0.17170821 -0.19412482 0.10636263 -0.033244826 0.09727361 0.07894282 0.041483212 -0.0691308 -0.059389506 0.19894569 0.03972909 -0.10049645 0.06526981 -0.07947117 0.046805438 -0.08068919 0.19465409 0.06483705 0.17823221 -0.09460894 -0.11821085 -0.050502278 0.046322703 0.0071042445 0.03709441 -0.07519498 -0.17998433 -0.024917683 -0.16611427 0.24600708 -0.19686599 -0.11652088 -0.062343087 0.14058767 -0.068581164 0.050857276 0.018866109 0.07864043 0.03140969 0.13490026 0.035522636 0.00479453 -0.048159234 -0.033794787 -0.07843403 0.10356922 -0.003158194 -0.049763802 0.057203524 -0.12691472 0.06637483 0.013712741 0.15753262 -0.22901699 0.02562873 0.03596217 0.16753294 -0.076020665 0.011674609 0.18224841 0.017804183 0.057117265 0.16776514 0.24175209 0.1920768 0.0482558 0.106223024 -0.18631138 0.007109618 -0.04263991 -0.21148087 0.10582324 0.17425907 0.0065507623 0.16349016 -0.028966185
2 -0.05017859 0.053716592 0.084881686 -0.118229255 -0.017289199 0.051282506 0.23431447 -0.106109254 -0.22499554 -0.12083548 -0.24279056 0.3184705 0.042982984 -0.25210768 -0.03034659 0.23635669 0.042110175 0.12624532 0.012108078 0.081076406 -0.0045756213 -0.29776418 0.16666488 -0.053987708 0.02870933 -0.1156161 0.011901603 0.005282062 -0.026396135 0.07400299 0.15570138 0.08105433 -0.027997926 -0.0755238 0.12528016 0.1766509 0.18508175 0.08164816 0.021532834 -0.047057386 -0.23408636 0.04376297 -0.02548805 0.10206574 -0.08124919 0.18859251 0.13806675 -0.092631474 -0.104950175 -0.019548368 -0.10770992 -0.12987593 -0.14377557 -0.16848671 0.07755726 0.0017032279 0.0930391 0.07716929 0.031905238 -0.049934536 -0.053887457 0.17015404 0.04175718 -0.08553337 0.0541884 -0.100701384 0.03933285 -0.10357288 0.18188594 0.09529738 0.16567968 -0.0706806 -0.11760029 -0.06787222 0.020149738 -0.0048972014 0.032187346 -0.067540325 -0.14805532 -0.027788864 -0.15185462 0.22719294 -0.16555996 -0.116023056 -0.07330779 0.1416817 -0.035611533 0.04453437 0.036630325 0.04174277 0.029355623 0.12730013 0.06485369 0.018186653 -0.03714893 -0.06145138 -0.10805102 0.1032696 -0.02824907 -0.044152252 0.071707346 -0.09582366 0.07358443 -0.024022276 0.13534117 -0.237041 0.0066910544 0.016273497 0.16118625 -0.07980271 0.030010128 0.19693828 0.01438349 0.039829444 0.15968274 0.21913785 0.1518233 0.032995533 0.14250931 -0.2058256 0.006669446 -0.04088889 -0.19211672 0.114186175 0.16408724 -0.0065264255 0.18407084 -0.024645444
33 0.012805171 0.050974112 0.15600877 -0.07481027 -0.056067124 0.05759128 0.31301355 -0.094272524 -0.27140698 -0.14983343 -0.2720583 0.3895501 0.048068006 -0.3438294 0.020029603 0.2677922 0.017688923 0.041742064 -0.009981823 0.06489781 0.015059606 -0.35128498 0.20752558 -0.06470163 0.04755155 -0.09245728 0.02658222 0.016367987 0.030145053 0.0976894 0.098261885 0.14721932 0.0150505565 -0.0697835 0.20547578 0.18490933 0.1819205 0.09893357 -0.010719194 -0.07272022 -0.24348977 0.022438698 0.006061018 0.023776634 -0.10808181 0.11217273 0.1989136 -0.08157197 -0.15195386 -0.005863134 -0.14236133 -0.0741635 -0.23865621 -0.18061127 0.07604783 -0.066298366 0.120309904 0.09795664 0.061040115 -0.025837768 -0.026524538 0.21206886 0.0747882 -0.1282484 0.09530699 -0.057825696 0.08507572 -0.09184989 0.22306341 0.022864006 0.23333025 -0.10140693 -0.09802666 -0.057022497 0.112213366 -0.022589445 0.07974702 -0.08810298 -0.20944507 0.010993505 -0.14530604 0.21066007 -0.19561507 -0.06514477 -0.07246629 0.10114448 -0.027841393 0.065216646 -0.037542317 0.09146334 0.1140546 0.08788613 -0.01550749 0.0032444284 -0.01219585 -0.027966157 -0.08448292 0.08219755 0.021006001 -0.07164062 0.08466677 -0.15569352 0.13456231 0.0036009543 0.18319911 -0.21111146 0.051567588 0.036183365 0.19308195 -0.10620219 -0.019314535 0.21693002 0.021909686 0.016210401 0.21576032 0.28411266 0.20283976 0.06929314 0.17404331 -0.18777722 0.020180902 -0.034207202 -0.2570012 0.09881272 0.17083073 0.016894842 0.15016912 -0.019849753
52 -0.024438519 0.089574814 0.11536576 -0.09224493 -0.0041473554 0.063939035 0.2534779 -0.10342025 -0.20839678 -0.13178694 -0.25596753 0.35892758 0.0287205 -0.27524754 0.015967619 0.25255796 0.006941367 0.12351517 0.03946564 0.07888946 -0.024719488 -0.27045617 0.1503232 -0.030869976 0.017680796 -0.11027929 0.00061649166 0.004014551 0.011308324 0.056652702 0.13736694 0.12310369 -0.040877655 -0.011100493 0.15763652 0.13638696 0.12906505 0.08342794 -0.03827941 -0.05620605 -0.20273887 0.020875504 -0.033139586 0.09373162 -0.07183818 0.17815265 0.14416488 -0.07874451 -0.10538494 -0.02386715 -0.09826011 -0.11889944 -0.18054093 -0.12232092 0.02458036 0.0064571653 0.11334797 0.08396637 0.052122008 -0.010473666 -0.029058004 0.15092039 0.05683019 -0.114709266 0.08632904 -0.09798089 0.06341172 -0.1129553 0.19412214 0.07041448 0.21742138 -0.06865279 -0.09710688 -0.077687316 0.063473575 -0.026722824 0.049567133 -0.05045029 -0.14013432 0.020627495 -0.10510869 0.19251557 -0.13884911 -0.065536425 -0.06830967 0.112931624 0.005319865 0.05343679 -0.037051097 0.046925426 0.09252935 0.07704922 0.04172006 0.009945245 -0.026309261 -0.08282124 -0.1217588 0.07578018 -0.031915274 -0.07994011 0.08808764 -0.10082891 0.15331015 -0.060664374 0.1291941 -0.24229074 0.029669061 -0.027513279 0.15397108 -0.11383189 0.019340673 0.23277017 0.023675404 0.018183699 0.19932872 0.24089198 0.13267227 0.04140773 0.20216537 -0.20485829 0.007011956 -0.051487576 -0.21788876 0.1086579 0.15541597 -0.015853014 0.1972825 -0.016593304
15 -0.030218352 0.04536211 0.094443195 -0.09252644 -0.01769494 0.044403024 0.232118 -0.09692892 -0.21410057 -0.11321376 -0.23658162 0.31829414 0.029648144 -0.25637233 -0.035069473 0.2387531 0.031989753 0.095235065 -0.0018220732 0.070657805 -0.007168734 -0.29963213 0.16003999 -0.08618541 0.029089814 -0.09316377 0.011650578 -0.022297427 -0.013487126 0.084413715 0.12317362 0.101559274 -0.0041139643 -0.06529862 0.13097848 0.18177305 0.19467884 0.11243789 0.019919055 -0.028702231 -0.21706153 0.053932518 0.0038769885 0.08293299 -0.10463162 0.1862878 0.16066949 -0.06855249 -0.13945726 -0.02214025 -0.09055937 -0.10999769 -0.14905095 -0.1936467 0.06329451 -0.033325713 0.08713981 0.081858024 0.022584224 -0.058290783 -0.049896583 0.16844842 0.06521904 -0.111573674 0.04849298 -0.076791994 0.057612613 -0.0913316 0.17687409 0.08034639 0.18450567 -0.08782449 -0.08964051 -0.06522655 0.056613337 -0.01340557 0.03130736 -0.074620284 -0.13641255 -0.028905716 -0.1505305 0.19644892 -0.15650994 -0.09140057 -0.074653484 0.116076946 -0.021897096 0.0517955 0.022804715 0.068385564 0.054226834 0.105959594 0.027771316 0.035441224 -0.015911143 -0.03909409 -0.09921253 0.08783409 -0.010620222 -0.031682372 0.0775942 -0.10385852 0.0993642 -0.021892378 0.13778503 -0.21751161 0.030341424 0.030914024 0.1422286 -0.07272356 0.021445792 0.20589676 0.011437756 0.009483379 0.18287702 0.24615127 0.17130262 0.05789624 0.13671678 -0.18836412 0.015684364 -0.043156978 -0.21165782 0.109867126 0.1381948 -0.019640451 0.14816092 -0.036166493
27 -0.27483913 -0.016625835 -0.15170245 -0.26417506 0.066319056 -0.042092104 -0.06789099 0.058323372 -0.054819044 0.086185805 -0.11434849 0.16880217 -0.03393699 -0.053915203 -0.17354314 0.12030014 0.14230934 0.44348085 0.05262154 0.209838 -0.11125712 -0.0006032807 -0.070063934 0.008701591 -0.0882225 -0.21427909 -0.12302602 -0.10608776 -0.1660195 -0.016270021 0.29562864 -0.078079194 -0.10164648 -0.11755766 -0.060465556 0.15536638 0.22489005 -0.018255712 0.17439893 0.057963904 -0.20765646 0.17955048 -0.0454619 0.4080233 0.024084903 0.38161555 -0.11225282 -0.19585864 -0.035427675 -0.21127997 -0.068437755 -0.46875542 0.2433885 -0.25693545 0.08956746 0.06100255 -0.10715842 0.09321455 -0.14988148 -0.120801084 -0.04064202 0.066851 0.10201212 -0.08151892 -0.08078997 -0.38370314 -0.16202244 -0.03399694 0.026053922 0.2304245 -0.042784717 0.15255192 -0.19990315 -0.096119225 -0.23856856 0.069418915 -0.085857615 -0.12080415 0.00483754 -0.12793723 -0.3699428 0.14861615 -0.15728961 -0.2942997 -0.030928897 0.35736093 -0.045803744 -0.08099173 0.16048586 -0.14852993 -0.17326719 0.16500929 0.22915055 0.22847143 0.08367001 -0.13463038 -0.1839024 0.2874736 -0.022017976 0.14713301 0.1296682 0.1496219 -0.10992278 -0.06215502 -0.0311275 -0.38630107 -0.17741844 -0.041905146 0.21562243 0.11204244 0.30117384 -0.056367844 -0.14287575 0.0020438293 -0.033623412 -0.13236515 0.043483913 -0.029795457 0.21489511 -0.26908678 -0.07426662 -0.040730845 -0.0013567326 0.18786098 0.15967576 -0.08183306 0.27379444 -0.032529946
56 -0.13260739 -0.031875305 -0.03280519 -0.16254193 0.0040850476 -0.06377793 -0.0064188037 0.06414379 -0.13739268 0.09106376 -0.1154863 0.20931403 0.06923347 -0.14111172 -0.17411952 0.12364263 0.09831976 0.28725222 -0.09793869 0.15890165 0.024197279 -0.098743536 -0.007746186 -0.15478854 -0.01602549 -0.091484025 -0.08648229 -0.08787106 -0.08605405 0.07134081 0.08481577 -0.005598703 0.03186147 -0.13717017 -0.02415576 0.22267309 0.25973672 -0.07315378 0.18874924 -0.044283047 -0.27513394 0.16155788 0.048806056 0.19481404 -0.079499856 0.21600035 0.026972717 -0.15176846 -0.07230188 -0.101961724 -0.09985456 -0.3099631 0.07855188 -0.32808667 0.123519816 -0.008721738 -0.069758885 0.06824373 -0.15258944 -0.100856304 -0.029569421 0.1558939 0.09904697 -0.052680288 -0.09110378 -0.1792283 -0.013854323 -0.04560531 0.06437616 0.16556907 0.011094156 0.06298541 -0.09711029 -0.06699147 -0.152627 -0.065517835 0.046264626 -0.1746514 -0.08946255 -0.17023195 -0.30773854 0.12537079 -0.14630023 -0.2282171 -0.0671036 0.15656126 -0.045283083 -0.09523361 0.19976133 -0.015969556 -0.17582856 0.15124041 0.08213974 0.1701691 0.14703688 -0.063879825 -0.0719343 0.19192745 0.03601518 0.13523278 0.055378955 0.04893142 -0.07546545 -0.017711747 0.027434196 -0.17309265 -0.08734578 0.096493766 0.18010421 0.0693337 0.15567835 -0.008603021 -0.08787146 -0.022412574 0.00063279714 -0.014998949 0.08904967 0.00036039302 0.1744257 -0.21651605 -0.06154834 -0.0069742133 -0.011270901 0.12933695 0.10279698 -0.053194758 0.11205905 -0.10162832
71 -0.15496925 -0.007168437 -0.04596886 -0.19863924 0.0063106297 -0.062413257 -0.030267451 0.09045697 -0.15004624 0.11278701 -0.11360305 0.22189283 0.084346324 -0.1259081 -0.14865617 0.11507941 0.088183336 0.3413084 -0.082062446 0.19476478 0.033697464 -0.04721725 -0.0304664 -0.11805109 -0.030229911 -0.11899314 -0.11468115 -0.05971766 -0.07981828 0.050472543 0.09263123 -0.03530844 0.017329544 -0.121462636 -0.025723327 0.20215574 0.22212206 -0.15996666 0.20198606 -0.10096766 -0.3090474 0.16316572 0.01879762 0.2219216 -0.046888616 0.19592446 -0.0006247738 -0.17611638 -0.015796602 -0.1280515 -0.121516824 -0.347639 0.07214716 -0.27941558 0.11620872 0.036100194 -0.06906266 0.050883994 -0.15459621 -0.075146176 -0.021217667 0.17560099 0.075859554 -0.0009964369 -0.07789748 -0.20746186 -0.010397417 -0.069781244 0.06333187 0.16327167 -0.015436403 0.104859225 -0.11338339 -0.06158772 -0.21118669 -0.08434132 0.08516956 -0.16162762 -0.069032386 -0.15473112 -0.2823731 0.13624163 -0.13904834 -0.2342908 -0.054912873 0.14188388 -0.047085017 -0.104812935 0.19326292 -0.05330709 -0.22804025 0.15135822 0.10670013 0.15857263 0.13343468 -0.101397924 -0.058889624 0.19003348 0.028785719 0.12426723 0.054577887 0.06119068 -0.08960312 -0.041741613 -0.002561553 -0.16663656 -0.11230092 0.08410017 0.21187973 0.060505807 0.16666654 -0.027335595 -0.081406906 -0.009391401 -0.043669183 -0.07827173 0.027568353 -0.03025712 0.20862003 -0.24391347 -0.07679996 0.022429014 0.046765525 0.13138002 0.13753112 -0.03707653 0.15881613 -0.1051216
99 -0.15716599 0.0013552101 -0.05343578 -0.17679858 0.02616945 -0.061284214 -0.03396383 0.09214555 -0.117007054 0.10155429 -0.11164039 0.21938343 0.050907556 -0.1280393 -0.13527124 0.11587722 0.07734847 0.34009412 -0.045321908 0.1973727 0.004734298 -0.021740925 -0.05349169 -0.0936488 -0.045543585 -0.12679091 -0.118566275 -0.07794401 -0.08070629 0.033392742 0.10778452 -0.021247951 0.010729442 -0.085746884 -0.0066908184 0.17974043 0.19660927 -0.123588674 0.17356654 -0.077798165 -0.27300704 0.16128194 0.005386417 0.23701814 -0.029690241 0.20746572 -0.010487808 -0.16129442 -0.030581443 -0.14786308 -0.10751566 -0.3440536 0.08601179 -0.25534934 0.09295704 0.027218629 -0.06844556 0.06232982 -0.14453521 -0.0680299 -0.008001116 0.15050687 0.09567669 -0.02934415 -0.069095634 -0.24196377 -0.007923252 -0.058590773 0.063458234 0.15577187 -0.0067705396 0.12066062 -0.11032296 -0.05966248 -0.18516386 -0.06830207 0.06380215 -0.15573022 -0.05013117 -0.12880997 -0.28012756 0.11597439 -0.13003768 -0.21646385 -0.05116674 0.16236071 -0.025747528 -0.08216036 0.169246 -0.06227431 -0.18486862 0.12634313 0.098960534 0.16605847 0.14283277 -0.105198026 -0.07751617 0.19952503 0.033809327 0.12541687 0.07872461 0.07083459 -0.062165014 -0.05685032 -0.0069811568 -0.19581936 -0.11795621 0.056363348 0.21891186 0.0600504 0.17420365 -0.01957599 -0.09476925 -0.023978446 -0.027200054 -0.082437746 0.02526134 -0.010271715 0.23830685 -0.23973836 -0.06733024 0.013622683 0.034555137 0.13544938 0.12759174 -0.04405673 0.16666013 -0.07992887
68 0.082247235 0.10308377 0.12066281 0.08743172 0.09969863 0.03322145 0.040443886 -0.092958674 0.0056802086 0.027114978 -0.15034258 0.29862112 0.022052126 -0.22202033 -0.14727902 0.2278237 0.047195427 0.17187716 -0.08310394 -0.020221882 -0.053913485 -0.19442081 0.028561898 -0.28188196 0.01492654 0.10677796 -0.05759221 -0.18358926 0.026409632 0.11370937 -0.05127469 0.28515166 -0.04492791 0.044615902 -0.020170424 0.1307845 0.17063698 0.19621882 -0.12205623 0.111646034 -0.039373145 -0.012714052 0.13568613 0.041316614 -0.13992663 0.303394 0.09504722 -0.022775374 -0.18848178 0.057656534 0.06997589 -0.13029976 -0.02173897 -0.35239723 -0.10863595 -0.058245547 0.016886087 0.13200969 -0.08987658 0.020085923 0.041302957 0.022671916 0.19843708 -0.27144703 -0.05665045 0.06863194 0.06696697 -0.14380229 0.088682935 0.21491578 0.28870893 -0.109556265 0.08693253 -0.24610583 0.13085812 -0.18979439 -0.021108892 -0.13539648 -0.13558696 -0.11906712 -0.15733688 -0.07884239 0.015506313 -0.024558637 -0.22338709 -0.05293603 0.19578594 -0.12060678 0.047277205 0.09389303 0.2110198 0.016640615 -0.02039536 0.22000208 0.25368547 -0.08725865 -0.2524313 -0.022352079 -0.08777341 -0.0066562626 0.036740735 0.045245923 0.25528327 -0.18368118 0.07118137 -0.11035989 0.114224344 -0.022295149 -0.05735923 -0.11678416 0.09937474 0.26474738 0.013556261 -0.20272686 0.32964313 0.34091026 0.14522894 0.027871575 0.28429815 -0.20214488 0.03479566 -0.1584337 -0.32241032 0.046531577 -0.08280358 -0.19465235 0.04307191 -0.109664775
29 -0.15038861 0.0030442365 -0.050397474 -0.16770396 0.021733003 -0.07461771 -0.060573272 0.1281348 -0.09854513 0.12167763 -0.08429739 0.2193171 0.058199212 -0.13381357 -0.11815776 0.09917472 0.064542815 0.3532041 -0.042637054 0.20982632 0.0062705525 0.016517721 -0.08577219 -0.0817538 -0.05560901 -0.113694556 -0.13514921 -0.08561749 -0.06693076 0.028308835 0.08036514 -0.015466424 0.022588065 -0.07961894 0.0097777685 0.1823152 0.1729635 -0.16521582 0.16184764 -0.1047487 -0.28770453 0.16957408 0.009611065 0.2407137 -0.021209914 0.1697805 -0.02038699 -0.17547205 -0.012329368 -0.16234517 -0.1190655 -0.3556723 0.085241355 -0.2523129 0.087525286 0.022797732 -0.07699216 0.067498 -0.15842223 -0.050555248 0.017850786 0.15567161 0.12214498 -0.03804679 -0.067995936 -0.25302565 -0.0020451099 -0.04926625 0.051689245 0.13738206 -0.017594766 0.14314534 -0.111858726 -0.047017198 -0.1970492 -0.09013054 0.095398866 -0.16524808 -0.05443633 -0.12026954 -0.27563295 0.08238702 -0.11839616 -0.20881811 -0.0456627 0.1524229 -0.0058246134 -0.09501531 0.15867846 -0.08127083 -0.18620233 0.10838394 0.08112343 0.1810251 0.18065186 -0.10404795 -0.06892259 0.20609182 0.05229988 0.13780504 0.08894494 0.07960536 -0.06092714 -0.056131158 -0.018064488 -0.18161209 -0.13009131 0.061661724 0.23782635 0.06978332 0.17279497 -0.051171567 -0.10239974 -0.037482057 -0.043005697 -0.12460116 0.009348522 -0.012247565 0.28374362 -0.23997699 -0.08770008 0.027731888 0.054920547 0.13087651 0.1308026 -0.039845202 0.15552302 -0.08841961
19 -0.13349682 0.021953411 -0.030671962 -0.1545435 0.036404293 -0.070393674 -0.055027485 0.1263018 -0.09091677 0.12786084 -0.088156424 0.24394742 0.06377535 -0.13949588 -0.11273163 0.10901303 0.06191297 0.35658818 -0.05040606 0.20625648 0.0060041156 0.01887276 -0.087878756 -0.0966812 -0.057223134 -0.10254692 -0.13734993 -0.09821917 -0.053614173 0.030520542 0.06275847 0.013261457 0.023925155 -0.054627854 0.01398269 0.17850909 0.16289571 -0.15893058 0.1389296 -0.099050805 -0.28146553 0.16314384 0.022708787 0.23218086 -0.027598003 0.17286421 -0.015003753 -0.16993082 -0.019275391 -0.16621813 -0.116405845 -0.3543584 0.0672844 -0.2586086 0.06535044 0.02368738 -0.07707971 0.07488131 -0.15520523 -0.03432686 0.027550222 0.15727045 0.12854245 -0.054362763 -0.0655628 -0.23244086 0.010333078 -0.061863396 0.06675773 0.14032061 0.0105461115 0.14320341 -0.094240926 -0.062195383 -0.18136019 -0.118749306 0.1015641 -0.16460426 -0.06817216 -0.115130596 -0.2660663 0.0625765 -0.10333377 -0.19389388 -0.060023367 0.1251481 0.016876068 -0.10126813 0.1406486 -0.07116591 -0.15868054 0.0861861 0.07611699 0.19248517 0.20379296 -0.11158644 -0.083909184 0.1866449 0.049423464 0.12030273 0.08968457 0.08654399 -0.02374217 -0.074300006 -0.018328138 -0.17020462 -0.11131897 0.054473665 0.23202308 0.054032773 0.16825645 -0.03068476 -0.10230816 -0.060767837 -0.014945536 -0.10673504 0.0068344753 -0.017754162 0.29856884 -0.23863268 -0.07757646 0.01712658 0.03387641 0.1258782 0.11419024 -0.04617566 0.15478072 -0.08949222
86 -0.08649097 -0.16322543 -0.0133782895 -0.17046262 -0.106530264 -0.16462426 -0.04329071 0.16413143 -0.16422273 0.18673562 -0.07934093 0.1820273 0.10159226 -0.23514976 -0.18814602 0.06632985 0.14006898 0.2470587 -0.21118101 0.14519407 0.06775741 -0.1275094 -0.02539687 -0.24677996 0.021275863 -0.038966812 -0.093666606 -0.10115957 -0.06556803 0.15960874 -0.038643684 -0.008061017 0.15070353 -0.25935617 0.018483106 0.27625582 0.3593857 -0.15446666 0.29537877 -0.05993293 -0.33642715 0.242244 0.16018172 0.1158595 -0.14850587 0.13344349 0.06116742 -0.16951035 -0.13973714 -0.12081157 -0.16614956 -0.3242597 0.105583176 -0.4550145 0.19049037 -0.1577216 -0.16754217 0.083929144 -0.21037063 -0.13927963 0.015687712 0.2363089 0.1738263 -0.09988814 -0.13214962 -0.17854919 0.02155847 0.06762466 0.046857614 0.077176064 -0.02976466 0.08451652 -0.098217756 0.004618553 -0.11387677 -0.12032625 0.14130212 -0.29797035 -0.17671107 -0.23217162 -0.44407463 0.08996037 -0.24795741 -0.24554005 -0.025764411 0.19799364 -0.1309349 -0.15760352 0.1997097 0.048074234 -0.19468124 0.106662184 -0.023890417 0.1965401 0.25507206 0.022445936 0.017248333 0.25798726 0.18199907 0.24174695 0.052374013 0.06014503 -0.14297907 0.0838615 0.056256186 -0.102163985 -0.092215374 0.21125935 0.24789535 0.170643 0.15820213 -0.15503082 -0.15162311 -0.033962835 -0.0057394714 -0.09387814 0.18222012 0.061768625 0.15894207 -0.15851562 -0.08756996 0.00086549984 -0.00834275 0.056349352 0.122120745 -0.007829875 -0.045302678 -0.13605276
62 0.017916532 0.08213398 0.07556349 0.04640695 0.07768942 0.0148415435 0.1087474 -0.048244074 -0.057010364 -0.040681146 -0.15201813 0.25828397 0.004471574 -0.21109337 -0.09861979 0.19177857 0.005873131 0.121629275 -0.010954003 0.06485817 -0.010020388 -0.19092877 0.031158943 -0.18589061 -0.004770208 0.023579638 -0.029179456 -0.15761563 0.0023594047 0.09656196 0.012957496 0.17190303 0.015976202 0.030636681 0.07741386 0.17200592 0.16001995 0.1807279 -0.047590755 0.041034337 -0.13707843 0.06790101 0.056661848 0.097994 -0.09612194 0.20858996 0.15470749 -0.026910404 -0.15594211 -0.010388692 0.009683618 -0.092985936 -0.0546501 -0.26553205 -0.029970787 -0.03788784 0.055898905 0.11848986 -0.0547787 -0.030085297 -0.0018787751 0.0709197 0.14310606 -0.18966082 -0.020530049 -0.05691392 0.103624776 -0.09020739 0.12627928 0.14358628 0.20146166 -0.07035519 0.025170563 -0.11835545 0.06837729 -0.09774918 0.012965074 -0.1204134 -0.07427022 -0.078680076 -0.14618053 0.025501784 -0.0244308 -0.051415395 -0.15132718 0.024818951 0.10516882 0.013610783 0.08522195 0.063118905 0.1108505 0.06610498 -0.03025205 0.15018511 0.16220573 -0.06763689 -0.1710223 0.06041012 -0.009341879 0.030988652 0.09436953 -0.038558166 0.17340815 -0.12195287 0.10966477 -0.14495833 0.04135017 0.0335012 0.05116168 -0.07389934 0.039100528 0.24520001 -0.012879356 -0.12906174 0.21727303 0.258923 0.14207046 0.076756045 0.23952281 -0.2084416 0.025287723 -0.068000324 -0.20176359 0.1265108 0.009905907 -0.11864637 0.07139673 -0.057459224
38 0.046840906 0.07201782 0.08492116 0.08011786 0.08351181 -0.0037810307 0.08000742 -0.025443053 -0.026844436 -0.017140985 -0.1304684 0.26164272 -0.0030438353 -0.22554767 -0.095959365 0.18261138 -0.002941702 0.10556312 -0.031116236 0.05613049 -0.0057745585 -0.18191716 0.0029137856 -0.22400066 -0.01109179 0.06302804 -0.041144706 -0.19477555 0.017817428 0.11940482 -0.03589948 0.1938449 0.043781552 0.037936952 0.086221054 0.18166518 0.16695318 0.18828914 -0.053473536 0.053266056 -0.13398905 0.08334341 0.09153768 0.081189185 -0.11122325 0.20073023 0.15571326 -0.019301541 -0.17313796 -0.02165518 0.022580005 -0.08147509 -0.049055792 -0.2964926 -0.05343828 -0.08284993 0.030546678 0.14181568 -0.075383686 -0.029934172 0.023490667 0.065676495 0.18244343 -0.22532296 -0.033012595 -0.041884545 0.12730749 -0.07343966 0.12660344 0.13294993 0.21399643 -0.06293026 0.053526066 -0.12068837 0.09878803 -0.13266432 0.022413772 -0.14808875 -0.086698525 -0.083179966 -0.16153465 -0.025025237 -0.014426341 -0.034647763 -0.158474 0.000818854 0.13117434 0.003724438 0.075657025 0.08100755 0.14086215 0.031612787 -0.0696839 0.18242496 0.22774988 -0.051123176 -0.1763029 0.058691636 0.020347225 0.055921413 0.112860695 -0.032659587 0.19120754 -0.12906787 0.11417306 -0.12159191 0.049496006 0.052178822 0.049365446 -0.0610283 0.034157366 0.23659365 -0.017867438 -0.18169205 0.24514778 0.2605009 0.15755926 0.09092794 0.26134214 -0.20245184 0.031689253 -0.06907982 -0.22544873 0.1141913 -0.013433199 -0.12892471 0.020627193 -0.06580177
23 0.07014341 0.05915101 0.1068764 0.044464685 0.0681446 0.01636787 0.04142929 -0.07944093 -0.028331514 0.04420738 -0.13866055 0.27878067 0.04017458 -0.22080114 -0.15965757 0.21274196 0.064346775 0.15140891 -0.11834538 -0.021516776 -0.027139615 -0.21156137 0.051183816 -0.2955404 0.033061843 0.103170365 -0.054045003 -0.15657227 0.0036285403 0.12949082 -0.052151777 0.24348965 -0.01798126 -0.028478326 -0.03146314 0.15250276 0.22202112 0.15908425 -0.047413558 0.092153594 -0.06908299 0.011076678 0.15334518 0.033501655 -0.16219914 0.28213373 0.086077064 -0.03539762 -0.18301663 0.05315799 0.043031055 -0.1446267 -0.008504802 -0.37782088 -0.054543443 -0.079869695 -0.00726728 0.116531014 -0.105202526 -0.021838026 0.0242688 0.05929105 0.18019472 -0.24040976 -0.070046924 0.06678419 0.04814205 -0.10938344 0.073659874 0.20091717 0.24001086 -0.10027098 0.06942817 -0.20605358 0.10455581 -0.17020324 -0.019211423 -0.1433801 -0.14562415 -0.1385382 -0.19680879 -0.051178146 -0.027137417 -0.058389176 -0.19574891 -0.031351067 0.13013522 -0.13282357 0.070923716 0.09924094 0.13274723 0.035031363 -0.012591596 0.2084116 0.23806351 -0.055338472 -0.19577911 -0.0036748066 -0.060994104 0.028494043 0.019610535 0.04004995 0.1772864 -0.12034393 0.06487073 -0.09374791 0.096561916 0.018169148 -0.045283016 -0.0699844 0.09517502 0.20069718 -0.007764224 -0.1660884 0.28039533 0.29047978 0.15722795 0.022509716 0.20242798 -0.17091662 0.026827574 -0.14210263 -0.28262535 0.030913852 -0.06114256 -0.16399333 0.0066730618 -0.123016156
78 0.03214228 0.062699884 0.07732771 0.060123228 0.08661753 -0.020362278 0.040959813 -0.002284133 -0.021032864 0.026238564 -0.10650842 0.25071633 0.012332333 -0.20748812 -0.13491783 0.16848688 0.015745815 0.13663822 -0.061369434 0.056342352 -0.007859674 -0.15369691 -0.011887413 -0.25451308 -0.0138966525 0.065812 -0.060203753 -0.19237752 0.0082989065 0.12017459 -0.051897705 0.19582078 0.036242384 0.02058815 0.037695114 0.18094657 0.17176065 0.15687835 -0.035259366 0.060874842 -0.121928476 0.07980226 0.11976512 0.077529505 -0.11728343 0.21085107 0.12490781 -0.030909749 -0.16088322 -0.018285828 0.018436028 -0.11457255 -0.0091633145 -0.3258667 -0.044811286 -0.08357076 -0.0017477811 0.12944409 -0.101304114 -0.029436957 0.03665353 0.06285933 0.19130628 -0.21816961 -0.06447478 -0.04144492 0.108292185 -0.07555994 0.09749015 0.15146622 0.19213013 -0.052609235 0.056888275 -0.13591078 0.06354368 -0.15880871 0.015990634 -0.1579372 -0.083486736 -0.118797675 -0.19181095 -0.053395096 -0.006965393 -0.05434293 -0.17101637 -0.010171775 0.13624007 -0.04271492 0.103168145 0.0656576 0.11146964 0.028251193 -0.066636704 0.22121985 0.25595146 -0.055966705 -0.17448115 0.06502408 0.011783399 0.07008972 0.08754508 0.008278468 0.16653775 -0.13086428 0.084929064 -0.09985923 0.037688296 0.058714766 0.04887529 -0.042553503 0.06530722 0.1977421 -0.025260193 -0.19013296 0.22263554 0.21468627 0.1344264 0.06652296 0.26712966 -0.198035 0.010850983 -0.078231536 -0.20512937 0.10243221 -0.032035146 -0.14159243 0.021401986 -0.087179944
18 0.071031585 0.12211787 0.1441226 -0.003410946 0.046985958 -0.06356251 0.04088885 0.21030127 0.05860204 0.072701804 -0.06759344 0.44019598 -0.054016802 -0.425271 0.22494346 0.18043117 -0.09900073 0.3246677 0.1502979 0.16440283 -0.17437385 0.16073425 -0.19472376 0.10739427 -0.13935308 -0.05209036 -0.21669759 -0.14261074 0.15249409 -0.022888958 -0.0730407 0.30899006 -0.016292019 0.2071202 0.3262414 -0.036373667 -0.15890399 -0.11764409 -0.25012344 -0.11272835 -0.12350037 0.070134014 0.052476697 0.1633686 0.04662132 0.05526323 -0.0019421028 -0.12732081 -0.07033087 -0.25467113 -0.14893319 -0.3070309 -0.07680466 -0.05402202 -0.20559363 -0.111173764 -0.036976382 0.20147283 0.008397024 0.17706963 0.27514178 0.075321 0.35409707 -0.32164496 0.13382941 -0.29887244 0.10712566 0.024428833 0.12839709 -0.118495286 0.26987082 0.1913011 -0.04784661 -0.05152096 0.14048308 -0.25060186 0.24279942 -0.13885991 -0.13521008 0.20192704 -0.13586256 -0.17986757 -0.050700314 0.09273362 -0.0031831965 0.108005166 0.2475668 -0.028559526 -0.3509338 -0.0833142 0.3642174 -0.2726147 -0.11687961 0.2165682 0.35290354 -0.13861185 -0.19209181 0.13421091 0.15082748 -0.018507712 0.25211948 0.104082696 0.38926068 -0.18953507 0.0056283665 -0.27845672 -0.054541737 -0.16002795 0.35101768 -0.05795558 0.12761 0.025472999 -0.12719671 -0.22956966 0.2623161 -0.06096255 0.006046887 0.09870694 0.7290649 -0.18522854 -0.068005085 -0.059227016 -0.21409352 -0.00024976273 0.13786918 -0.039273873 0.16673289 0.021429203
20 -0.0015436232 -0.2017517 0.08282247 -0.10270405 -0.17107572 -0.14629619 0.10647853 0.09903508 -0.23752338 0.09839186 -0.14080426 0.2326052 0.10649114 -0.34673214 -0.16897763 0.11347965 0.14580913 0.06670769 -0.2500788 0.06469904 0.096520945 -0.29482153 0.09784737 -0.29283378 0.078871906 0.0048714224 -0.027972387 -0.08355664 -0.020115001 0.23216373 -0.083976805 0.0733236 0.19580968 -0.2988838 0.09752622 0.31540424 0.40684414 -0.02749639 0.25013298 -0.017312579 -0.32016814 0.1993826 0.21106985 -0.019916076 -0.20380466 0.075172044 0.1673631 -0.1331885 -0.23059925 -0.050251752 -0.18081242 -0.18542096 -0.008877309 -0.5023351 0.2244967 -0.2641105 -0.12164732 0.115200475 -0.14833792 -0.15235227 0.0033111991 0.26233196 0.19805998 -0.16663115 -0.080822 -0.08411219 0.0622808 0.08996004 0.10455679 0.011572957 0.062181927 -0.029745834 -0.07659344 0.010021389 0.031702925 -0.09267819 0.15005264 -0.33069795 -0.26605403 -0.21417747 -0.45191422 0.11271509 -0.29780495 -0.19893937 -0.04322606 0.17694277 -0.15400511 -0.116849095 0.15438914 0.15079816 -0.063348904 0.10143922 -0.11088253 0.16225892 0.2279976 0.089831665 0.023212666 0.23350987 0.2181437 0.20236975 0.044902083 -0.039752245 -0.08767772 0.1530189 0.17102414 -0.06518901 -0.0148525145 0.24980922 0.23373686 0.13936865 0.069562346 -0.097734444 -0.11759771 -0.03505593 0.09503276 0.075497925 0.31089747 0.11840073 0.10607599 -0.10843876 -0.046025608 -0.029061012 -0.14384024 0.03549263 0.107163385 0.018770285 -0.12078714 -0.12644018
88 -0.0071675405 -0.19380468 0.06456366 -0.094919585 -0.1491461 -0.15500824 0.07176757 0.103278965 -0.21798396 0.123052135 -0.13227059 0.22209856 0.10571623 -0.32147136 -0.18850125 0.105897315 0.13682365 0.09400273 -0.2656635 0.07826015 0.107421964 -0.28708166 0.07100733 -0.32823014 0.072578534 0.0104109105 -0.033581465 -0.104751766 -0.030321628 0.2293892 -0.0966283 0.063549705 0.20521761 -0.28688544 0.07498312 0.32088006 0.42276567 -0.043027412 0.27049103 -0.026413612 -0.33940795 0.22551262 0.21045265 0.0006703598 -0.22083439 0.099247284 0.1738146 -0.12592088 -0.22755474 -0.056737535 -0.17092896 -0.20334314 0.001577494 -0.5155273 0.21522266 -0.25241667 -0.12588142 0.10724945 -0.1687108 -0.16589732 -0.005123798 0.26815185 0.19030024 -0.15818073 -0.1100115 -0.07818203 0.08005502 0.077829905 0.09860229 0.038322102 0.055254698 -0.024388215 -0.06469214 0.0058102 0.016966037 -0.11882939 0.15058547 -0.3295906 -0.2435342 -0.23519659 -0.44570625 0.10396531 -0.27786532 -0.20559596 -0.06235543 0.1534897 -0.14742392 -0.12438613 0.19032086 0.14758931 -0.09603677 0.10258805 -0.10199966 0.169236 0.24815963 0.08283138 0.0252962 0.23175494 0.21329243 0.22134455 0.038860857 -0.02956209 -0.09514026 0.13153368 0.15514152 -0.050894298 -0.011587316 0.27014047 0.21470705 0.14207225 0.08277334 -0.07367462 -0.11462522 -0.046915706 0.09547238 0.069565 0.29056442 0.119520515 0.10056106 -0.12894644 -0.04676416 -0.017735304 -0.11959923 0.046405174 0.092524394 -0.00045004667 -0.13226433 -0.14252643
43 -0.031141609 -0.19635105 0.061845254 -0.12117186 -0.15308331 -0.14766401 0.08047905 0.11043445 -0.23198022 0.1150581 -0.13170002 0.22211605 0.10802377 -0.3060759 -0.18309215 0.11058026 0.14531708 0.10854107 -0.2528052 0.08983222 0.10328689 -0.2733698 0.08340994 -0.29750505 0.067903444 -0.01162147 -0.038119487 -0.09075248 -0.034180257 0.22306623 -0.07334543 0.045779835 0.19606332 -0.29715747 0.07243391 0.3272429 0.41935822 -0.054137897 0.2824683 -0.031220458 -0.34333396 0.22284827 0.19632952 0.017926438 -0.20663111 0.09834605 0.15137309 -0.1355228 -0.20965265 -0.06617118 -0.18191239 -0.2198943 0.012478502 -0.50395095 0.22376904 -0.23514546 -0.12742142 0.1043576 -0.163567 -0.1650339 -0.0041778786 0.27343753 0.18517268 -0.14676403 -0.1023104 -0.1065285 0.058799967 0.07633934 0.09694162 0.040674597 0.04082261 -0.0058978735 -0.07951087 0.010413847 -0.006758351 -0.097596906 0.13806021 -0.3197398 -0.2409629 -0.22764063 -0.45510685 0.12818606 -0.29008472 -0.21646404 -0.046045706 0.17965163 -0.15270722 -0.12841308 0.1871341 0.13230155 -0.123323396 0.11731028 -0.08533657 0.16512102 0.22883606 0.07600065 0.028126312 0.24599169 0.21084355 0.21551315 0.03629268 -0.030660238 -0.11252588 0.13838145 0.14628528 -0.077284105 -0.03081747 0.2575799 0.22817838 0.14799742 0.09128306 -0.09930839 -0.113493524 -0.0261582 0.07085506 0.04484536 0.28381276 0.10140205 0.09840915 -0.12638804 -0.05253328 -0.01937053 -0.105351694 0.050075207 0.117191344 0.010347823 -0.10348529 -0.13480473
51 -0.02996378 -0.19699477 0.05168095 -0.12656063 -0.15990679 -0.14812468 0.07865353 0.12967663 -0.21794248 0.10981824 -0.11772745 0.19777267 0.09760702 -0.3013804 -0.14401324 0.08460741 0.12881894 0.09601856 -0.21754517 0.103743844 0.09111447 -0.23724422 0.0568529 -0.24431562 0.055873714 -0.024700867 -0.042129032 -0.07198602 -0.029624442 0.1988887 -0.055448413 0.022262286 0.19680698 -0.2825158 0.103556104 0.29839996 0.37507796 -0.07151085 0.27247623 -0.049639106 -0.33967438 0.2245496 0.17429534 0.02323604 -0.17785433 0.060960203 0.13961439 -0.13588059 -0.19178839 -0.0890679 -0.19478361 -0.21285853 0.010729048 -0.44494724 0.21611944 -0.23135166 -0.12773454 0.102460764 -0.15064839 -0.15202844 -0.00029973552 0.26041993 0.18042327 -0.12959269 -0.08575823 -0.12685199 0.058708705 0.09701488 0.09194132 0.0015424504 0.02234914 0.013103239 -0.09654816 0.04005865 -0.009957668 -0.07915742 0.14811377 -0.30484837 -0.22785005 -0.19739033 -0.42821398 0.11658311 -0.28912503 -0.20234141 -0.018779881 0.190162 -0.16658187 -0.09639362 0.1520798 0.10650556 -0.11175061 0.09199727 -0.089163214 0.14570034 0.21167979 0.07769244 0.050547004 0.24791588 0.22716543 0.21363331 0.050649606 -0.030185945 -0.11808016 0.14786409 0.13865982 -0.07951156 -0.04668888 0.23862128 0.25588113 0.15316135 0.08367005 -0.12569098 -0.12620267 -0.016744016 0.050277855 -0.0016112844 0.26075608 0.11061978 0.09808171 -0.111803584 -0.053129986 0.00908968 -0.08215944 0.04237934 0.12599573 0.030376382 -0.09920812 -0.112526685
97 -0.17210351 -0.021695267 -0.06089828 -0.2145288 -0.007468176 -0.08388683 -0.051944148 0.079925865 -0.16132364 0.12807079 -0.11506502 0.19436865 0.10153166 -0.11438654 -0.18155803 0.09942395 0.10070671 0.35399714 -0.1038793 0.18811461 0.03687408 -0.054738313 -0.038640853 -0.15214153 -0.022726523 -0.12355477 -0.1070016 -0.06072289 -0.09578409 0.05886947 0.08996849 -0.055865 0.026337037 -0.14486353 -0.043177772 0.21595721 0.25693676 -0.16775882 0.2323342 -0.10113355 -0.3198627 0.1895648 0.022345852 0.21966407 -0.06173536 0.22676086 0.0019401195 -0.16873853 -0.024015404 -0.11011092 -0.11492549 -0.3593587 0.093720816 -0.30450433 0.13402127 0.032803986 -0.08852772 0.027926538 -0.16695178 -0.09373544 -0.03469137 0.18400434 0.06630453 0.0128843505 -0.105112456 -0.21583477 0.003770522 -0.0613044 0.06345798 0.17965712 -0.040571734 0.10884663 -0.12545006 -0.050510895 -0.23109041 -0.085966006 0.08774105 -0.17758149 -0.061292447 -0.19522446 -0.3048366 0.15466799 -0.15369046 -0.2625584 -0.053530905 0.16083485 -0.07937148 -0.107943594 0.22843306 -0.04955364 -0.26582664 0.16550481 0.12278628 0.14894228 0.13263555 -0.09506615 -0.04707217 0.20365217 0.0291829 0.14056449 0.045573495 0.07988589 -0.10669088 -0.039912622 -0.008548752 -0.1674915 -0.121780686 0.09943005 0.20106056 0.06934358 0.18702716 -0.036737908 -0.092520356 0.004835952 -0.05922542 -0.0814983 0.037941106 -0.02425602 0.19180001 -0.24606049 -0.09152861 0.01311878 0.06683598 0.12475025 0.14162669 -0.04512082 0.1461676 -0.119575016
74 -0.12213475 0.018177304 -0.037955306 -0.15459633 0.031594753 -0.09937666 -0.12720501 0.14007445 -0.09579501 0.18615179 -0.054312266 0.2091165 0.11094977 -0.11775536 -0.151732 0.083880864 0.06691959 0.38665614 -0.10704362 0.19361036 0.0422948 0.045991845 -0.11732225 -0.17540911 -0.044407107 -0.061317515 -0.15691505 -0.09962357 -0.05512957 0.051210344 -0.0077025634 0.0057066362 0.04292448 -0.06522504 -0.04477597 0.18153591 0.1786873 -0.22028443 0.17268515 -0.13144428 -0.29744193 0.18000472 0.05038674 0.20492922 -0.05859529 0.18381968 -0.014009378 -0.15834828 -0.00014252351 -0.116043925 -0.100569084 -0.3601702 0.089172 -0.29371428 0.057069443 0.034441974 -0.097147875 0.037970774 -0.18762292 -0.036955908 0.021815497 0.16521609 0.115454644 -0.009473212 -0.117176056 -0.18951531 0.050056633 -0.07528016 0.050746568 0.17071222 -0.009490177 0.14076526 -0.06557976 -0.06790774 -0.21880312 -0.19099934 0.14091389 -0.17843689 -0.052901514 -0.16900131 -0.2580951 0.04049646 -0.09154126 -0.21424866 -0.07504876 0.06782806 0.009571252 -0.14490202 0.19585644 -0.049706366 -0.23074496 0.08791231 0.06383373 0.19160053 0.23175985 -0.118158124 -0.05491975 0.16679874 0.035279766 0.13912904 0.053307153 0.11808218 -0.038566057 -0.09797958 -0.043585632 -0.118293375 -0.11157622 0.090305656 0.19045211 0.05123382 0.1831896 -0.041837152 -0.091069795 -0.07290074 -0.032613747 -0.11104666 -0.016778653 -0.028268429 0.301928 -0.25300312 -0.098838195 0.011732281 0.07486382 0.09467367 0.10315583 -0.067476325 0.11672787 -0.14370993
47 0.03216408 0.08503984 0.11302218 0.05578952 0.057966996 0.013808013 0.13149533 -0.005092955 -0.07533048 -0.0484993 -0.14837874 0.3079142 0.010519657 -0.25402033 -0.05672688 0.20424172 -0.012093097 0.096043736 -0.014716518 0.0795673 0.005535116 -0.17694531 0.035306044 -0.15778084 -0.01004994 0.012086118 -0.047043845 -0.14157729 0.030335862 0.08811134 -0.008373703 0.19022644 0.036487162 0.037398636 0.13120133 0.17512907 0.12847692 0.14212132 -0.06695986 0.0016792043 -0.1714307 0.05411216 0.06637102 0.07692057 -0.08453989 0.13632914 0.15367965 -0.047588967 -0.14230232 -0.043319512 -0.044341423 -0.096877605 -0.09712043 -0.24997012 -0.02221939 -0.072333656 0.06297489 0.13088055 -0.037765134 -0.009148401 0.032824304 0.105096 0.17217658 -0.20382662 0.014058224 -0.062408373 0.11436085 -0.086364746 0.14667036 0.08516075 0.21296811 -0.04375398 0.019467723 -0.11460863 0.08263967 -0.120157115 0.05416738 -0.12871757 -0.1243468 -0.04038194 -0.15049244 0.0017364911 -0.043192312 -0.030320337 -0.14890927 -0.0013606666 0.12184356 0.012231319 0.03856273 0.062646925 0.13659777 0.04045085 -0.070226334 0.16277438 0.19158569 -0.052998837 -0.15282004 0.06569323 0.026953008 0.012172418 0.09987546 -0.060543157 0.17766845 -0.10540781 0.1161858 -0.13825399 0.042016543 0.031961977 0.12745859 -0.07855309 0.023723202 0.21019624 -0.008095235 -0.15080763 0.22274148 0.2225455 0.1348391 0.06715592 0.29061416 -0.21337985 0.015674213 -0.047592808 -0.21237339 0.116679996 0.032872647 -0.08161551 0.07593762 -0.04917942
98 -0.15398379 -0.022387447 -0.0656048 -0.2012005 0.0074404855 -0.10030158 -0.09106862 0.12411553 -0.14572993 0.16812766 -0.09036476 0.22624882 0.11717839 -0.116098486 -0.16668165 0.09178671 0.08965891 0.38619256 -0.11996677 0.215323 0.06855009 -0.008936142 -0.07372557 -0.17102495 -0.024649726 -0.085007675 -0.13414663 -0.0882925 -0.08191567 0.07449313 0.03033336 -0.059880715 0.048340786 -0.12586245 -0.048840072 0.23450048 0.25298712 -0.22733998 0.25162327 -0.1369561 -0.3539082 0.2020603 0.041549727 0.2232156 -0.07193216 0.18831362 0.010531305 -0.18364143 -0.0055505796 -0.12853901 -0.11241743 -0.3709866 0.08367944 -0.32134253 0.121370465 0.044158187 -0.10977553 0.04429384 -0.20466448 -0.07532723 -0.021081746 0.2015027 0.094574705 0.011517761 -0.112920016 -0.20472193 0.025074525 -0.058172237 0.04882703 0.17968857 -0.04233591 0.13285375 -0.09218641 -0.03855303 -0.2510173 -0.148411 0.12904057 -0.18814495 -0.06601688 -0.1954949 -0.2949054 0.12415146 -0.12849765 -0.258779 -0.04693276 0.11929643 -0.048591457 -0.12926406 0.2507116 -0.045094177 -0.28599182 0.1520168 0.097040355 0.18006383 0.19220369 -0.09546355 -0.04328533 0.20108908 0.05722903 0.16969477 0.05773885 0.075428836 -0.097828165 -0.059789326 -0.02317643 -0.13917182 -0.120485134 0.13255227 0.21113266 0.089080654 0.16475597 -0.049082845 -0.09983745 -0.016654974 -0.0644446 -0.12504202 0.008515926 -0.018320978 0.23044658 -0.26418296 -0.09680631 0.030057544 0.08914568 0.1296438 0.13773291 -0.04539786 0.116362385 -0.14222884
54 0.025546685 0.13735774 0.10081486 -0.028629012 0.0927461 -0.063051365 -0.013994562 0.22938128 0.09138523 0.09192914 -0.061230462 0.4383035 -0.07392618 -0.377893 0.19431928 0.17745163 -0.09611043 0.4007523 0.17315365 0.2025387 -0.20158996 0.20867275 -0.2303332 0.1243691 -0.17382313 -0.07797333 -0.24499567 -0.16232142 0.13016324 -0.05782272 -0.03211494 0.2968869 -0.042549353 0.23183902 0.30007794 -0.03325061 -0.16881087 -0.13520913 -0.25022548 -0.10153732 -0.13025777 0.08868807 0.0327096 0.23884268 0.068092935 0.106046215 -0.046999577 -0.14256023 -0.048421837 -0.2960038 -0.1363188 -0.36773908 -0.02305432 -0.05931674 -0.22296911 -0.082954265 -0.053056464 0.20621945 -0.019697448 0.17253044 0.27513722 0.058525216 0.36628675 -0.31547132 0.1103445 -0.34762514 0.08352151 -0.0018453801 0.1173541 -0.07952359 0.26171634 0.23547724 -0.055650033 -0.07652987 0.080370456 -0.2579653 0.22633353 -0.13112262 -0.110409826 0.19384713 -0.14631297 -0.18768996 -0.025183355 0.05813158 -0.012661351 0.13127698 0.2709545 -0.04242464 -0.32650903 -0.13314 0.33224165 -0.25573617 -0.08311456 0.262885 0.3738699 -0.17182185 -0.22653735 0.14748707 0.13497297 -0.010208902 0.26088196 0.14275783 0.37848535 -0.22699699 -0.029550629 -0.31989434 -0.09504416 -0.18384787 0.3690202 -0.05890534 0.18440452 0.017824307 -0.1318228 -0.24269266 0.23956057 -0.11281327 -0.03307017 0.07482666 0.7759994 -0.23283923 -0.08304261 -0.05307575 -0.18555881 0.03837501 0.13908261 -0.05842146 0.22676833 0.0134010725
95 0.07702156 0.14291683 0.16958846 0.06336686 0.03970296 0.073834404 0.20614743 -0.13484576 -0.11978277 -0.12352031 -0.24976295 0.39171338 0.05670311 -0.31494683 -0.0074851373 0.26752824 -0.023731284 0.12634455 0.0019816249 0.04504446 -0.023210049 -0.2591388 0.091330804 -0.14292292 0.031973246 0.037021436 0.0015184763 -0.084075294 0.039691057 0.098439336 0.013471224 0.25294313 -0.047547262 0.07824522 0.13706589 0.1393283 0.110883616 0.1323443 -0.14460808 -0.0036626852 -0.15974596 -0.014325808 0.024736786 0.0322174 -0.08775822 0.1894951 0.18517885 -0.0606202 -0.13738155 0.021076417 -0.013356949 -0.061262894 -0.1907531 -0.21696065 -0.06695378 0.0050461083 0.11482769 0.1381874 0.011185023 0.048795164 0.013275037 0.10448019 0.13185258 -0.20467572 0.06270377 0.020080358 0.099580854 -0.17010798 0.18745089 0.12542707 0.30610523 -0.10083656 0.018205348 -0.15926968 0.1527918 -0.110482655 0.057784427 -0.09401067 -0.18251294 -0.020965314 -0.07398188 0.07762458 -0.032972526 -0.004550738 -0.17046142 -0.006647707 0.13709138 0.003945729 0.0020693457 0.064822525 0.21523526 0.040410437 0.016362043 0.059081603 0.12173023 -0.111920215 -0.20538531 -0.023755912 -0.08199644 -0.08392787 0.11228449 -0.07365768 0.26494342 -0.16017745 0.14160702 -0.16067532 0.0843038 -0.03911899 0.045249067 -0.1685655 0.0046957936 0.33026612 0.038557112 -0.13094106 0.3140116 0.37244448 0.14125545 0.06656885 0.3274082 -0.23576929 0.032102372 -0.088152684 -0.30143625 0.093715824 0.0427518 -0.090562455 0.12361741 -0.04815652
94 0.0210351 0.18134058 0.12671906 0.09149376 0.10807791 0.10938931 0.11568058 0.0870591 -0.06336043 -0.061775107 -0.08775154 0.3956756 0.055155974 -0.19669104 -0.020960862 0.2079038 -0.08425371 0.084020674 0.02463317 0.18983534 0.061028913 -0.049775105 -0.019633522 -0.06329368 -0.052007403 -0.014030007 -0.10771628 -0.12180386 0.05087914 0.031149268 0.019143166 0.14622243 0.06653496 0.056785 0.18547218 0.23647211 0.027942847 0.048720237 -0.046736088 -0.105425805 -0.26375622 0.023132285 0.0402435 0.12170393 0.00018745469 -0.014081994 0.07016119 -0.07848275 -0.009553723 -0.16258526 -0.11415512 -0.09189031 -0.1662097 -0.2021661 0.015699437 -0.012560356 0.107475564 0.16778058 -0.080879666 0.04779844 0.09837063 0.18875436 0.18565698 -0.13741171 0.048179884 -0.087102026 0.055924945 -0.142817 0.1609797 0.066992685 0.1478599 0.07330551 0.018513635 -0.12789322 0.0029607513 -0.08940137 0.029029043 -0.11852059 -0.14326316 0.025157122 -0.0982826 -0.05590468 -0.0052572256 -0.0047098887 -0.20815177 -0.12402559 0.21791808 0.005486185 0.05587058 -0.050702423 0.020518266 0.07241527 -0.07761748 0.20705676 0.29164776 -0.08598507 -0.13488741 0.03222566 0.02269517 0.041290205 0.15235125 -0.12164516 0.08205994 -0.07850731 0.06324512 -0.10650646 0.00045061565 0.050958995 0.23472571 -0.081028 -0.002996069 0.14824897 -0.001565712 -0.23579882 0.14786625 0.070790604 0.022126075 -0.008106843 0.3520696 -0.29990733 0.04860475 0.08438189 -0.15372558 0.21438321 0.023472488 -0.03725935 0.1616903 -0.06910825
91 -0.3914178 0.0004322581 -0.23009309 -0.33849248 0.11908896 -0.046054907 -0.11145879 0.09729495 -0.024180073 0.10802258 -0.123154715 0.20854406 -0.07713659 -0.043975208 -0.2166708 0.15776879 0.16742647 0.6071841 0.13782547 0.3007963 -0.18120667 0.055650495 -0.12903073 0.06364082 -0.16154905 -0.31368366 -0.17795107 -0.16367261 -0.23102988 -0.06254941 0.43582353 -0.1246758 -0.15429221 -0.11849506 -0.06761493 0.18710911 0.24932416 -0.0020636606 0.210896 0.08615199 -0.25027367 0.24068148 -0.08726698 0.59606993 0.06734667 0.5121083 -0.18956032 -0.25183818 -0.026354378 -0.3310972 -0.07476825 -0.6454849 0.35625958 -0.29375687 0.09418413 0.10197226 -0.13911018 0.13914542 -0.19939716 -0.15275218 -0.04154437 0.05012803 0.14609635 -0.11438593 -0.09586452 -0.56342787 -0.24081078 -0.034258705 0.016001593 0.31011966 -0.08441387 0.24762371 -0.27171522 -0.12064382 -0.32884938 0.12424224 -0.14393063 -0.14045224 0.048662893 -0.13519128 -0.47097504 0.17492531 -0.18347992 -0.37272552 -0.025020938 0.49188775 -0.02600139 -0.080666855 0.18925601 -0.24308024 -0.21530618 0.21024929 0.3080364 0.32106677 0.1144847 -0.19353269 -0.2718633 0.39168388 -0.02272019 0.20900837 0.20634827 0.21848734 -0.14652756 -0.098196514 -0.057997815 -0.5362538 -0.26932904 -0.08637385 0.3106743 0.1638138 0.42168716 -0.086262666 -0.19797076 -0.012326652 -0.062312875 -0.22292148 0.028212355 -0.04293002 0.31500167 -0.3663059 -0.08870367 -0.035586223 0.023207419 0.2824645 0.20150612 -0.114835486 0.39646646 -0.014428789
87 0.013934743 0.20150578 0.13278939 0.089147456 0.12270768 0.13540128 0.13052785 0.06762013 -0.0745138 -0.09237174 -0.09655517 0.40513378 0.057559073 -0.17623241 -0.014501236 0.22025603 -0.09110529 0.0809494 0.045880016 0.19298482 0.07030522 -0.052992348 -0.009100052 -0.037230957 -0.04735106 -0.028011452 -0.10003483 -0.110061735 0.047460727 0.018512959 0.056807894 0.1251157 0.044933986 0.0711249 0.17983676 0.23748957 0.021214556 0.06250216 -0.057533596 -0.10674183 -0.26166502 0.0006420498 0.0076529323 0.13939728 0.014304669 -0.018164732 0.06951459 -0.083905116 0.014630461 -0.15567888 -0.11178944 -0.08255785 -0.19063254 -0.16646358 0.018071074 0.027954865 0.13786829 0.15907909 -0.06593067 0.05263479 0.07482655 0.18630889 0.15964524 -0.11729561 0.05844721 -0.0903281 0.049961552 -0.16828431 0.17721745 0.08442595 0.14933258 0.05730291 0.015464419 -0.14064541 -0.011668835 -0.06322403 0.01665846 -0.097785965 -0.13645814 0.027476855 -0.0758956 -0.029999247 0.012580784 -0.0124046365 -0.21101469 -0.12734254 0.22198024 0.024642935 0.07172096 -0.06310452 0.009339369 0.086883664 -0.056710772 0.19014841 0.25131273 -0.11278499 -0.14324644 0.027662825 -0.009985701 0.023121828 0.15358914 -0.14129496 0.08161467 -0.09081229 0.06515274 -0.115096256 -0.00022111023 0.039030597 0.23145941 -0.09938766 -0.018132288 0.17220922 0.013640405 -0.21740976 0.14035034 0.08650975 0.012091167 -0.03315468 0.34862417 -0.3099023 0.05695659 0.09213751 -0.1504463 0.2394864 0.026420068 -0.03140686 0.19536814 -0.055619787
85 -0.3858918 -0.0020658267 -0.22311151 -0.34231526 0.1269053 -0.053337544 -0.11317834 0.10906866 -0.0066188257 0.12822628 -0.1243791 0.23639399 -0.08516751 -0.06784094 -0.21221803 0.17231482 0.17214495 0.63703614 0.13976216 0.31024697 -0.19791938 0.070512585 -0.14831878 0.06492215 -0.16838706 -0.3061374 -0.19347453 -0.18110494 -0.22114685 -0.05631096 0.42987293 -0.092715986 -0.15688166 -0.10922944 -0.062027078 0.1823361 0.25208843 0.0010255838 0.19208121 0.097319774 -0.24924071 0.2467697 -0.07747361 0.6095671 0.067038804 0.52846587 -0.19835006 -0.26533666 -0.036161713 -0.34768674 -0.08135659 -0.6699203 0.3630861 -0.30935627 0.081704855 0.085342705 -0.15617326 0.15074128 -0.19988863 -0.14424309 -0.02188457 0.051691487 0.16812532 -0.14235276 -0.091126285 -0.58134747 -0.23577271 -0.026424728 0.019696794 0.31123388 -0.06332246 0.2548762 -0.272166 -0.124189764 -0.3196581 0.10699737 -0.1338294 -0.15619886 0.0360903 -0.12890275 -0.49429074 0.15467797 -0.18216458 -0.37372118 -0.030863833 0.50865996 -0.009476776 -0.09832605 0.17157935 -0.24754643 -0.18718691 0.18044673 0.306999 0.33984244 0.14942436 -0.1994338 -0.28573886 0.40415856 -0.017738892 0.21021946 0.22270547 0.23486392 -0.121435046 -0.11147359 -0.0655433 -0.5576416 -0.266641 -0.09720124 0.319422 0.16871479 0.4380652 -0.08466131 -0.21015877 -0.028736765 -0.04147744 -0.22319144 0.03457003 -0.030064147 0.36057913 -0.3722812 -0.093960896 -0.052299947 0.0023982306 0.2738527 0.19785298 -0.12187223 0.39467347 -0.013216128
35 -0.41767728 0.005165507 -0.24201669 -0.3781006 0.12509303 -0.050818503 -0.10325201 0.096393846 -0.029930236 0.11338539 -0.14789793 0.24085705 -0.09253567 -0.058809116 -0.21409899 0.1774861 0.18039379 0.6639242 0.1625781 0.3206889 -0.20018384 0.05682286 -0.1351417 0.08829752 -0.17544316 -0.34338954 -0.19472547 -0.1681559 -0.24350853 -0.0704812 0.4765759 -0.12128063 -0.1763751 -0.11867237 -0.063641064 0.18405205 0.2546114 -0.00019563735 0.20857207 0.09127161 -0.26601684 0.25186995 -0.10773448 0.6442632 0.08501528 0.5509272 -0.20328389 -0.2793524 -0.030621015 -0.3590366 -0.0865146 -0.69418234 0.37062022 -0.30161244 0.091108985 0.117607474 -0.14687818 0.14894551 -0.19594182 -0.15347694 -0.042735223 0.045456264 0.14817375 -0.124901205 -0.086338736 -0.60646164 -0.258894 -0.03325028 0.029645106 0.32857877 -0.07354194 0.25977504 -0.29899442 -0.12581134 -0.34412083 0.13531114 -0.14221567 -0.13721861 0.047083016 -0.12126726 -0.49826467 0.19434641 -0.19752207 -0.3985078 -0.019360172 0.5441062 -0.03136751 -0.08635085 0.18310697 -0.26579994 -0.21004657 0.2138785 0.33896303 0.32839212 0.10704866 -0.21847379 -0.29317355 0.42036855 -0.028406883 0.19657002 0.22545917 0.2356997 -0.13897593 -0.10447759 -0.06356593 -0.5894433 -0.2898171 -0.11359874 0.33290362 0.16389996 0.45089325 -0.08060404 -0.20944017 -0.005266984 -0.054551326 -0.22911072 0.029270988 -0.04513864 0.35475594 -0.38312307 -0.09696009 -0.045707967 0.01742123 0.29216945 0.22594373 -0.12274322 0.4390813 -0.008589952
61 -0.40834972 0.00034459418 -0.24862577 -0.35532776 0.14533891 -0.03921099 -0.10539442 0.06708586 -0.0078118043 0.10760808 -0.1439417 0.22120254 -0.0993336 -0.037817385 -0.24314798 0.17971681 0.18274383 0.6324477 0.14520791 0.30260283 -0.20534605 0.042874772 -0.12115846 0.060398847 -0.1658006 -0.32381475 -0.17984009 -0.1841891 -0.25038466 -0.06377787 0.4750188 -0.11703621 -0.18004599 -0.122879185 -0.09719621 0.18821369 0.27330428 0.048214726 0.20574252 0.12554595 -0.23434593 0.23591588 -0.09188454 0.635022 0.064356536 0.57823217 -0.20274849 -0.25982913 -0.042614173 -0.3350567 -0.054733288 -0.6738824 0.38797763 -0.3212919 0.088932216 0.11428001 -0.14781049 0.1522466 -0.20273116 -0.16919772 -0.05215186 0.02869469 0.14132722 -0.13263395 -0.09988019 -0.57763445 -0.27047563 -0.03931641 0.018849682 0.35126045 -0.07462503 0.23555195 -0.27840185 -0.1468334 -0.33291537 0.14401633 -0.1811461 -0.13536099 0.056216042 -0.1473873 -0.49372292 0.17793229 -0.1796004 -0.3930565 -0.046059515 0.52600175 -0.022775961 -0.090743706 0.19593564 -0.2512275 -0.20725122 0.22146769 0.3422903 0.33983526 0.1114591 -0.20326196 -0.30144998 0.4045148 -0.052140526 0.207824 0.2120308 0.2392691 -0.14391094 -0.10617202 -0.060650814 -0.57771707 -0.27396157 -0.1099212 0.2861984 0.16046943 0.44682676 -0.057334963 -0.1997125 -0.019460477 -0.043904163 -0.19661921 0.039572038 -0.04600549 0.3089804 -0.37751234 -0.08105565 -0.05951064 -0.007310004 0.29113272 0.19523972 -0.14416178 0.41662884 -0.011090143
7 0.02350222 0.18377897 0.11558168 0.08653508 0.11655992 0.10363292 0.1109958 0.058182705 -0.045558423 -0.069072776 -0.09628711 0.3837773 0.03546338 -0.1930656 -0.00863707 0.20112719 -0.07979412 0.110293224 0.047711287 0.17453997 0.036860134 -0.051864993 -0.023555607 -0.053141747 -0.053018104 -0.016788725 -0.10315479 -0.12795612 0.04609853 0.03238229 0.03334466 0.14597924 0.034128927 0.08149932 0.16903655 0.20842616 0.018358137 0.052124433 -0.070688255 -0.08400953 -0.23913004 0.025321793 0.022895217 0.14101657 0.008860014 0.024300303 0.068712935 -0.07891434 -0.0143289035 -0.15365483 -0.09135696 -0.09971032 -0.15004279 -0.17163661 -0.014804121 0.0064608837 0.10199365 0.16254196 -0.06820628 0.058603022 0.09037434 0.15690555 0.17803523 -0.14658153 0.05297347 -0.096255 0.057860058 -0.14733014 0.16286066 0.07826907 0.16108565 0.06400963 0.015995465 -0.12952864 0.0091277445 -0.091011584 0.027964111 -0.11019306 -0.12579955 0.02422706 -0.08779104 -0.04702418 0.0042094095 0.0011475282 -0.1955901 -0.0968592 0.21793911 0.008120054 0.0408826 -0.053371437 0.050536238 0.05767975 -0.060578655 0.19084537 0.2678379 -0.10569784 -0.15953502 0.029685684 0.0065699443 0.02731409 0.15323013 -0.10145826 0.11441393 -0.11160714 0.056898426 -0.12212267 -0.005645733 0.019026184 0.21209803 -0.088045746 0.005192923 0.17051814 -0.005255567 -0.22246706 0.16115001 0.0888177 0.019788066 -0.00839422 0.36886674 -0.2972012 0.03780027 0.057653375 -0.1641048 0.20799257 0.025056014 -0.048092812 0.16737881 -0.05231335
49 0.0068054833 0.18129572 0.10151799 0.07829881 0.1334542 0.08855657 0.055006742 0.1152754 -0.009504593 -0.024456449 -0.06125717 0.37176752 0.03155761 -0.1749537 -0.013964986 0.18668666 -0.08432734 0.13815108 0.051740482 0.19826789 0.029887447 0.023160573 -0.08091881 -0.038673524 -0.07834825 -0.020825054 -0.13657518 -0.14992319 0.04657977 0.009417224 0.025984194 0.14473447 0.045022245 0.09315465 0.16549817 0.19338247 0.0017703013 0.026976505 -0.06417128 -0.09047953 -0.23121363 0.037512936 0.032419305 0.15762281 0.015724456 0.008935204 0.03309463 -0.08013157 0.0039446983 -0.18810786 -0.096546 -0.1411962 -0.11652187 -0.18422751 -0.021873048 0.0066477093 0.075736724 0.16692214 -0.10245304 0.067055844 0.12015608 0.15020485 0.207472 -0.1427622 0.033106435 -0.12789053 0.04718872 -0.13729419 0.13165781 0.077915445 0.13484047 0.10663999 0.02587761 -0.12686804 -0.015586956 -0.10454406 0.032284558 -0.11681736 -0.10395225 0.033239298 -0.09288437 -0.09370301 0.024249459 -0.00743198 -0.19071484 -0.10699414 0.23954761 -0.008613215 0.04012947 -0.08347496 0.030246908 0.030035568 -0.06707072 0.2310864 0.31067857 -0.11192519 -0.1516391 0.04139653 0.02328638 0.053102266 0.16805553 -0.062360987 0.10089711 -0.10682725 0.02848408 -0.12290798 -0.01547734 0.021165218 0.2306346 -0.065921985 0.029936323 0.12672676 -0.019764757 -0.24540152 0.13472563 0.026581552 -0.008412698 -0.015277434 0.39688 -0.2905131 0.03144378 0.0707897 -0.13031398 0.2068842 0.012912073 -0.054535173 0.16446245 -0.06453025
73 0.07200123 0.09603653 0.14170207 0.013868169 0.010498765 -0.050840355 0.06490302 0.15378888 -0.012138555 0.047445513 -0.082360975 0.38342747 -0.01744445 -0.37549555 0.15326692 0.17015891 -0.071513645 0.22769375 0.06746807 0.12863386 -0.09545339 0.060477514 -0.11757409 0.030038763 -0.08453463 -0.020256732 -0.15563427 -0.114726745 0.12498235 0.016648013 -0.07934801 0.25652972 0.019220982 0.13496536 0.25821835 0.02269612 -0.06879238 -0.0859235 -0.16330782 -0.11053626 -0.14558735 0.058683835 0.051250935 0.08607609 -0.0019837173 0.024754867 0.05345855 -0.100125045 -0.08010257 -0.16695116 -0.121851385 -0.22250904 -0.10680966 -0.10013172 -0.12729685 -0.0922258 -0.009114965 0.16248806 -0.0047187065 0.12822872 0.192477 0.10003862 0.2767085 -0.2425512 0.09329202 -0.19243105 0.11086341 0.001385893 0.12097166 -0.08053576 0.2388 0.108014725 -0.01929603 -0.04974374 0.11634857 -0.2081879 0.21640854 -0.13774094 -0.13770328 0.12308245 -0.11827516 -0.10656902 -0.054421186 0.059114784 -0.02269141 0.04957104 0.17890657 -0.021693131 -0.22825181 -0.0137331635 0.26244408 -0.17307667 -0.100548774 0.16292128 0.28445995 -0.09427983 -0.13697918 0.104804575 0.13044715 -0.014453313 0.1891621 0.02879532 0.30585957 -0.13603495 0.045643315 -0.19197764 -0.01249506 -0.07945662 0.27797773 -0.054591544 0.06680906 0.06171893 -0.08966785 -0.17534511 0.21696654 0.012677554 0.04058689 0.08168279 0.5519021 -0.17533997 -0.044613212 -0.03615234 -0.17543173 0.020125404 0.11493051 -0.022170087 0.105619095 -0.004631051
