33 128
18 0.07245095 0.04168418 0.08585452 -0.099917255 0.21191874 0.09348407 0.07388041 -0.03458305 0.14506532 0.022966018 0.08493908 0.1587876 0.104584016 -0.108052164 0.12627521 -0.07858366 -0.06562656 -0.05842719 0.12734154 -0.07650803 -0.031282187 -0.06496896 -0.05815576 -0.24897681 0.012422602 0.13515697 -0.17152755 -0.08872931 -0.03521765 0.14008969 -0.14076376 0.047529288 0.012930652 0.010228712 -0.009348168 0.020572953 0.0147351455 0.06841006 0.07474013 0.02636502 -0.05156123 0.08912548 0.19712357 0.10746124 -0.0141086 0.24063933 -0.014068447 -0.09654622 -0.0005546946 -0.1489898 -0.17796741 -0.14683521 -0.005272747 -0.2592642 0.024849715 -0.09083001 0.10816794 0.04073981 -0.03994749 -0.018646775 0.18419208 0.040979072 0.12637702 -0.19085203 0.123729125 0.013390135 -0.100408286 0.049286414 0.010549347 0.0587433 -0.010934412 0.049879637 -0.17353924 0.03376362 0.02696723 -0.19656712 0.10413326 -0.03824106 0.17066179 0.12842901 -0.19093706 -0.06477831 -0.11733291 0.15037751 -0.14985114 -0.0646263 0.095103405 -0.035213362 -0.12809488 0.058214374 -0.08876096 -0.1128157 0.047164854 0.20237242 0.19783506 -0.083173566 0.07485814 -0.09704321 -0.07120365 0.1645549 0.016616512 0.116548605 0.025531013 0.026272876 -0.09916788 0.09388062 -0.08299354 -0.007631278 -0.026895646 0.021704685 -0.14948249 0.08598367 -0.253939 0.02087335 -0.027477073 0.07644628 -0.012311214 0.025664983 0.124606654 0.020059662 -0.10090714 -0.015858583 -0.16786169 -0.17008677 0.08547271 0.09324406 -0.106031865 -0.08079636
16 0.065744594 0.045241375 0.09117239 -0.10134494 0.20952187 0.085073836 0.07535053 -0.03181969 0.13988158 0.028359586 0.08179289 0.1472221 0.10586768 -0.11071692 0.13099287 -0.07997287 -0.067197785 -0.066954195 0.13574275 -0.08803306 -0.03079503 -0.06031412 -0.065086305 -0.2527133 0.012715164 0.1330159 -0.17535152 -0.08775692 -0.030971454 0.14033222 -0.13876085 0.0567935 0.018242685 0.009965237 -0.017550057 0.027825067 0.016422616 0.08413045 0.0684147 0.036300555 -0.053334665 0.08634639 0.206862 0.10709256 -0.010716473 0.2538817 -0.0146591 -0.08937139 -0.0039791083 -0.14987826 -0.17615972 -0.15145335 0.011640108 -0.2770768 0.029873064 -0.09526597 0.11107703 0.04494926 -0.045307007 -0.022696286 0.18298718 0.027233861 0.1308799 -0.19454396 0.14186509 0.017736813 -0.10613447 0.05510625 0.013690857 0.05559355 -0.010686337 0.049814153 -0.16628551 0.026378144 0.017356412 -0.20274253 0.10167975 -0.04913457 0.17677714 0.13307667 -0.1913352 -0.0681831 -0.13308099 0.1521874 -0.1540919 -0.06953076 0.09649884 -0.0314669 -0.13096134 0.07161414 -0.08898917 -0.10716976 0.03940833 0.20566538 0.20121247 -0.07980468 0.08148111 -0.107606776 -0.07991367 0.17102972 0.004772041 0.121868536 0.024257118 0.031399243 -0.09033533 0.10769223 -0.0781541 -0.009257305 -0.02066213 0.02513697 -0.14780803 0.08459247 -0.25849256 0.03153483 -0.033055313 0.0697013 -0.011332257 0.026637165 0.121931136 0.015650583 -0.100639924 -0.019268427 -0.15963478 -0.17293265 0.08991357 0.09327396 -0.10720649 -0.080386266
15 0.073651485 0.039871395 0.09106152 -0.10775452 0.21753299 0.10320384 0.07120567 -0.038220875 0.1485184 0.018997919 0.08518764 0.1635054 0.099496 -0.109618954 0.13094576 -0.07700265 -0.07256518 -0.058924302 0.13067254 -0.0688312 -0.043156393 -0.06927495 -0.052398294 -0.25036484 0.014509493 0.13389352 -0.17311914 -0.08521302 -0.041500494 0.1381322 -0.14416893 0.049500458 0.013104256 0.011387785 -0.011313686 0.02098145 0.021769704 0.0690808 0.075072855 0.028471451 -0.058252297 0.100271195 0.20272243 0.11306378 -0.015570332 0.24722548 -0.010574018 -0.099440604 -0.005825315 -0.16333938 -0.18662098 -0.14483649 -0.010879239 -0.2653443 0.02295289 -0.09290483 0.115142874 0.03608513 -0.039389078 -0.028596457 0.18423921 0.050510924 0.13502696 -0.19581378 0.1250278 0.024178118 -0.108409785 0.042141613 0.0009292258 0.053942464 -0.0049252072 0.048863363 -0.18182932 0.041080926 0.031036673 -0.2010146 0.11309048 -0.026289765 0.17313236 0.13596515 -0.20133728 -0.067966275 -0.11531973 0.15669726 -0.15370148 -0.06493021 0.097124115 -0.039764464 -0.12987758 0.053038333 -0.09262355 -0.116672896 0.05965012 0.21735531 0.20060897 -0.0836176 0.07778514 -0.10608509 -0.07419816 0.16359422 0.02348185 0.11491575 0.027842287 0.030784069 -0.11400777 0.09062974 -0.08772627 -0.009855336 -0.030945828 0.01318769 -0.15059425 0.0954801 -0.26016426 0.022269038 -0.021019407 0.07958454 -0.013126035 0.02488065 0.12639512 0.018479219 -0.11462597 -0.011697317 -0.17820282 -0.18097655 0.09462549 0.09915135 -0.10436147 -0.08727309
21 0.091776505 0.0072624707 0.0039923745 0.009438772 0.21173464 0.10056334 0.035197224 -0.025831707 0.18045835 -0.03897325 0.08013984 0.25437158 0.08879188 -0.012751744 -0.013451285 -0.12044538 -0.07555361 0.0279519 0.031810943 0.023831254 -0.10591817 -0.15967692 0.050383385 -0.20121886 0.11703105 0.23914202 -0.1514048 -0.031614628 -0.060944974 0.06095022 -0.1574571 -0.0049768845 -0.03852667 0.047935437 0.04438331 -0.023859989 0.07917745 -0.1775365 0.19696079 -0.106475994 -0.13918541 0.13416621 0.106883876 0.057908177 -0.019901866 0.14008181 0.05342269 -0.17369097 -0.037589837 -0.17113486 -0.146495 -0.15850496 -0.22315481 -0.098011255 0.023886308 0.00847208 0.124315806 0.033483457 -0.05199415 -0.08602141 0.15177564 0.19759881 0.08205421 -0.19763187 -0.13309298 -0.042439792 -0.08157682 -0.040555034 -0.048238438 0.09889405 0.07270177 -0.010754653 -0.23437294 0.036907744 0.058164317 -0.19129725 0.17431325 0.09211282 0.12775229 0.096849255 -0.1461294 0.01702052 0.054973252 0.12769654 -0.2029903 0.034063954 0.115941055 -0.048200503 -0.091662064 0.010026773 -0.053538073 -0.10527927 0.19087772 0.20264105 0.17031242 -0.083951905 0.010873783 0.041491795 0.037087634 0.11672405 0.07037462 0.057345316 0.04608519 -0.07148625 -0.19333498 -0.033992678 -0.14122213 -0.033105075 -0.090538375 -0.05508952 -0.18258502 0.13731709 -0.2235767 -0.00513877 -0.028889202 0.1913243 0.0054799435 -0.058928877 0.1222283 -0.07525137 -0.123670734 0.016876077 -0.24705765 -0.051404063 0.048268296 0.1413329 -0.09840705 -0.010647253
14 0.07665466 0.031492706 0.05608792 -0.06925574 0.2098319 0.099741116 0.057689887 -0.031049779 0.1599045 0.0013880879 0.08510295 0.18770878 0.0958238 -0.08040973 0.08037294 -0.09122947 -0.07273999 -0.031812508 0.102725334 -0.04579187 -0.05619789 -0.09798454 -0.02819085 -0.24451001 0.0472144 0.17484127 -0.1728725 -0.07356526 -0.047403976 0.12251076 -0.15249045 0.033441324 -0.0056555667 0.023548571 0.0040400345 0.00960355 0.037948467 -0.0029449402 0.1119033 -0.014975292 -0.07967956 0.10711605 0.17598301 0.095924765 -0.016558412 0.22114694 0.0036447588 -0.123874426 -0.0146249635 -0.16150984 -0.1686416 -0.15605222 -0.07111391 -0.22051655 0.024566166 -0.060812324 0.11722861 0.04115297 -0.04476084 -0.049280528 0.1770842 0.09264304 0.119567685 -0.2034054 0.04779724 -0.0003517276 -0.10176901 0.019005567 -0.010731266 0.07027879 0.0186686 0.034532245 -0.19084671 0.035155743 0.03949101 -0.20574576 0.12342932 0.003447379 0.1624236 0.12656978 -0.18584487 -0.039084394 -0.06451892 0.14913265 -0.16862011 -0.032957364 0.10685467 -0.04355896 -0.1242123 0.050346978 -0.07819491 -0.115943335 0.09578278 0.21178243 0.19446601 -0.086074494 0.056137215 -0.05812884 -0.03900395 0.15182836 0.03393315 0.1009087 0.03277159 0.00034163194 -0.135893 0.054132346 -0.10418983 -0.01933885 -0.04857484 -0.0037355714 -0.16776378 0.10788505 -0.25443467 0.01748982 -0.026563758 0.11576551 -0.010675307 -0.0043521165 0.12746875 -0.010493907 -0.112125225 -0.005637485 -0.20098142 -0.14073028 0.07459966 0.10909098 -0.10743861 -0.06144835
32 0.1003655 0.006956048 -0.0005305177 0.008202307 0.22488652 0.10440331 0.038760904 -0.023097025 0.19342314 -0.030889995 0.075988 0.26348236 0.092387244 -0.0092593245 -0.018086463 -0.12446895 -0.077067375 0.025393018 0.035787497 0.014035591 -0.10840983 -0.16915284 0.052436788 -0.21101955 0.12502882 0.24803095 -0.15389642 -0.027991517 -0.05906169 0.06490079 -0.16019231 -0.0070551056 -0.041470442 0.04754774 0.048708353 -0.028179882 0.08104992 -0.18271694 0.20561735 -0.10894605 -0.13772637 0.13781571 0.11136557 0.056422133 -0.023448706 0.14777657 0.055568967 -0.16858014 -0.033495553 -0.17142786 -0.14316164 -0.1642639 -0.23408261 -0.09631429 0.017672349 0.0054075625 0.13207391 0.031887773 -0.05915382 -0.08961002 0.15287703 0.19801205 0.08383354 -0.19773535 -0.1384111 -0.044102862 -0.07963569 -0.041966327 -0.05569644 0.10057938 0.074539535 -0.012756162 -0.23297125 0.031783827 0.05533968 -0.19078045 0.17633699 0.0965648 0.13580517 0.10229557 -0.14279321 0.010886178 0.053458728 0.13065737 -0.21241122 0.034370713 0.11902419 -0.055355743 -0.094821185 0.011198905 -0.05087321 -0.10264904 0.19277978 0.20833254 0.1769544 -0.08327742 0.013369727 0.0404787 0.038435884 0.12148056 0.07412276 0.0579161 0.04671315 -0.08009579 -0.19237986 -0.03634835 -0.14017516 -0.029300956 -0.0962417 -0.056838363 -0.18553035 0.1348503 -0.22053663 -0.002210048 -0.031777576 0.1969496 0.011439536 -0.06057653 0.12556742 -0.07525016 -0.12157357 0.01364086 -0.25331315 -0.046600837 0.04138979 0.14864199 -0.102366135 -0.013093416
26 0.09425291 0.015295363 0.013742059 -0.008983114 0.21636014 0.10310981 0.041985963 -0.024175936 0.18682012 -0.030663956 0.079208724 0.24902394 0.09672886 -0.025308711 -0.0024089874 -0.121633984 -0.07558756 0.015081635 0.05123606 0.0034285577 -0.097565964 -0.15550096 0.036710244 -0.21640664 0.11081075 0.23359193 -0.154758 -0.03896193 -0.05810704 0.07636154 -0.16020146 -0.0044044987 -0.030247528 0.047560606 0.03876356 -0.023141285 0.07093926 -0.14676751 0.1896926 -0.093194544 -0.12385611 0.1344492 0.1251694 0.061434273 -0.021038484 0.15927686 0.045804545 -0.16323367 -0.029477637 -0.16668953 -0.15180017 -0.15853846 -0.20620076 -0.1139522 0.021627517 -0.005263694 0.13031872 0.032422468 -0.056015447 -0.08350869 0.15795657 0.17798829 0.08820677 -0.19895034 -0.10705959 -0.039542466 -0.08475303 -0.029066958 -0.046173558 0.09585122 0.06469447 -0.0031852524 -0.2314148 0.03202213 0.056440443 -0.19120033 0.16099615 0.08109403 0.13790536 0.10264876 -0.15341142 0.0038911016 0.034543443 0.13824819 -0.2048732 0.018885113 0.11509066 -0.050916042 -0.10107013 0.021662146 -0.060093623 -0.10830755 0.1778992 0.20163581 0.17653902 -0.08398909 0.017037118 0.028300796 0.02777771 0.12485605 0.0668913 0.06772967 0.043640733 -0.06560779 -0.18521444 -0.02319393 -0.1394055 -0.032263946 -0.08657949 -0.05165121 -0.18605246 0.13541426 -0.22949724 0.0033421675 -0.031169627 0.18227048 0.009780588 -0.054676272 0.123938344 -0.0693112 -0.12412703 0.014391878 -0.24752903 -0.061595727 0.04911974 0.14289872 -0.098356426 -0.022834254
22 0.09208093 0.009594526 0.014257243 -0.007390771 0.21189962 0.10101556 0.037711393 -0.021221595 0.18332951 -0.025435334 0.075567394 0.24714111 0.08987872 -0.021598693 0.0015115594 -0.11066326 -0.070973195 0.0111352 0.0447391 0.001857905 -0.09196752 -0.15052834 0.036323916 -0.20825355 0.10629846 0.23056215 -0.15437546 -0.034971863 -0.052326284 0.073681965 -0.15398315 -0.004865025 -0.03134526 0.041275624 0.03772782 -0.014221171 0.07348476 -0.14754994 0.1786129 -0.08346725 -0.12541468 0.12669195 0.11700437 0.06082276 -0.020822015 0.14782038 0.04224906 -0.16016665 -0.029472392 -0.15661846 -0.13619408 -0.1587252 -0.19664373 -0.116166905 0.01798371 -0.0024923417 0.12572025 0.033997603 -0.051792145 -0.07763674 0.15427503 0.17545304 0.083710186 -0.18782395 -0.09771548 -0.034077562 -0.077285066 -0.027007869 -0.04431143 0.093323216 0.058047496 -0.0043736883 -0.21713142 0.033550587 0.050185516 -0.18796986 0.16232418 0.07453596 0.13762464 0.104568735 -0.13911538 0.007732656 0.031149965 0.12818034 -0.18909612 0.02220508 0.11023235 -0.046650082 -0.09578414 0.023453625 -0.054374974 -0.1051532 0.16632283 0.19480765 0.16694866 -0.08657507 0.023755055 0.026315365 0.028993076 0.12293924 0.061329063 0.06270269 0.041758597 -0.065919176 -0.17351612 -0.018078584 -0.13286982 -0.025582537 -0.08506832 -0.044486713 -0.18166296 0.12698328 -0.21899937 0.0049351677 -0.034392 0.17403416 0.0080060745 -0.05674407 0.11951151 -0.062683314 -0.11564692 0.014917285 -0.23388161 -0.05924914 0.044471014 0.13599035 -0.09733539 -0.022994675
27 0.09788905 0.00412197 -0.01057227 0.022785328 0.22436288 0.11017395 0.03000413 -0.022483094 0.19626385 -0.049454447 0.077232756 0.28061444 0.08914468 0.003943007 -0.035895545 -0.13422248 -0.07494201 0.044018697 0.018108303 0.041008953 -0.11890077 -0.18056546 0.06439211 -0.2053158 0.14360881 0.26489764 -0.15455711 -0.022242798 -0.06700522 0.0557479 -0.16662857 -0.019150382 -0.046531633 0.057063717 0.058773 -0.03207849 0.09344703 -0.22381018 0.22371134 -0.12718028 -0.15333906 0.14963354 0.096976 0.054571893 -0.020382967 0.12840605 0.0692685 -0.18908557 -0.03909812 -0.1748427 -0.14366092 -0.16174473 -0.267086 -0.07348808 0.019620981 0.019025313 0.1341373 0.028852893 -0.057351474 -0.09694268 0.15265903 0.23230627 0.07895672 -0.19942228 -0.17848513 -0.050844997 -0.07685011 -0.059315704 -0.0631561 0.10285727 0.087669455 -0.02061162 -0.24582067 0.03668177 0.0626844 -0.19101131 0.18423533 0.11655464 0.1292923 0.09760845 -0.14305831 0.025467029 0.08429068 0.13116214 -0.21800578 0.045736376 0.12313864 -0.053432763 -0.08627609 0.004425774 -0.05235589 -0.108188435 0.2173161 0.21012717 0.16932252 -0.08928814 0.004507537 0.06350271 0.055456556 0.110778555 0.087118104 0.044753905 0.05180015 -0.09111071 -0.21413183 -0.060894556 -0.15122135 -0.035703145 -0.1082753 -0.07147576 -0.19805378 0.14646327 -0.22477488 -0.009598768 -0.034034174 0.21054648 0.011248893 -0.075931035 0.12337406 -0.0913859 -0.13221097 0.023419263 -0.26941124 -0.03217343 0.042231884 0.15535568 -0.09487312 -0.006067472
0 0.0751266 0.04366339 0.09478622 -0.10901305 0.226513 0.09601345 0.075219065 -0.036745317 0.15362589 0.02326626 0.09066839 0.16873744 0.10679894 -0.11573246 0.13807413 -0.07829883 -0.06905335 -0.0681024 0.13723622 -0.08434428 -0.02921003 -0.064971216 -0.06828825 -0.25789237 0.0085325865 0.13307217 -0.17346953 -0.09470664 -0.030928835 0.1502332 -0.143004 0.056355473 0.015082342 0.008944877 -0.013616287 0.03126882 0.016809477 0.09041258 0.065168805 0.04226209 -0.05401825 0.09300596 0.20657866 0.11386112 -0.014437807 0.2544264 -0.021878807 -0.093594536 -0.0013182346 -0.15368843 -0.18343367 -0.14937092 0.009993954 -0.28117472 0.02965107 -0.09867049 0.11234123 0.04506806 -0.038810544 -0.01940512 0.1812049 0.02908072 0.13070963 -0.19748804 0.14679709 0.022001022 -0.10861131 0.057985052 0.011747743 0.055557754 -0.012718058 0.053784683 -0.16786627 0.028587822 0.01832519 -0.19877498 0.101670735 -0.04529576 0.17687601 0.13054736 -0.19673751 -0.068443015 -0.13342783 0.14756308 -0.1466228 -0.066239946 0.09173728 -0.033501726 -0.13301864 0.0709125 -0.09230007 -0.10989646 0.04548861 0.2026249 0.20414306 -0.08398951 0.07821814 -0.109082095 -0.07815841 0.1674573 0.009698611 0.11997836 0.023987498 0.030696224 -0.09304513 0.106225505 -0.08389115 -0.008681964 -0.023470722 0.021890456 -0.14908119 0.08861789 -0.26283884 0.03141505 -0.030045517 0.07254688 -0.01316106 0.028956719 0.12848803 0.019372983 -0.102814965 -0.015736809 -0.16610253 -0.17703043 0.09199806 0.09832021 -0.10606198 -0.087262325
1 0.09742671 0.004430976 -0.009042434 0.020485228 0.21592006 0.10416265 0.030369705 -0.02210638 0.19206198 -0.037234545 0.07470157 0.26585478 0.08689353 -2.336828e-05 -0.027872583 -0.12809484 -0.07621997 0.030071514 0.02960613 0.027967323 -0.10836734 -0.17319402 0.058011625 -0.20211822 0.1335634 0.24860495 -0.1462898 -0.026868489 -0.064893566 0.055963498 -0.15996236 -0.014380582 -0.043233924 0.04904841 0.0512685 -0.023649001 0.08511458 -0.20082511 0.20832081 -0.121152066 -0.13875273 0.1410627 0.09833088 0.056001697 -0.021763036 0.12995231 0.06031668 -0.17627914 -0.034871683 -0.16685635 -0.13797808 -0.16156992 -0.24622853 -0.08172027 0.020309508 0.011857746 0.13185492 0.02500159 -0.0589327 -0.09379437 0.14647737 0.21024509 0.0807818 -0.1959194 -0.15333538 -0.043325216 -0.07823186 -0.045568835 -0.055291757 0.102328815 0.08134858 -0.016524406 -0.23220165 0.030237032 0.058850948 -0.19038384 0.17418297 0.10481221 0.12421794 0.09819304 -0.14204524 0.020961795 0.06859398 0.12719221 -0.21117279 0.04131709 0.12403398 -0.051946532 -0.08644117 0.010523465 -0.046015643 -0.099629484 0.19591503 0.20616192 0.17139064 -0.08400457 0.0030763673 0.051402662 0.050197702 0.11393642 0.07879327 0.04867527 0.052289978 -0.07973014 -0.20062016 -0.04613599 -0.14790459 -0.030788558 -0.10084298 -0.06350231 -0.18548368 0.1399566 -0.21499403 -0.0035665971 -0.037962332 0.19903752 0.0095346235 -0.070691295 0.11782524 -0.08702808 -0.12563829 0.021505779 -0.25842267 -0.03377365 0.039200127 0.14560942 -0.093093954 -0.0076392884
23 0.07439975 0.037610337 0.076203264 -0.09453726 0.21982971 0.097792916 0.07076156 -0.03980561 0.15236528 0.01143998 0.08523701 0.16684683 0.09447226 -0.09742769 0.110477924 -0.08362921 -0.07207467 -0.05504529 0.11651611 -0.07093898 -0.044701364 -0.07532207 -0.042339224 -0.24260296 0.022835424 0.14677213 -0.16899802 -0.07691091 -0.041191284 0.1273043 -0.1448663 0.047034048 0.004099972 0.013869555 -0.008956811 0.016177071 0.024322707 0.04965722 0.07971703 0.019707065 -0.058209457 0.09722405 0.19338378 0.105079986 -0.019132037 0.23492883 -0.011323676 -0.101404674 -0.004888138 -0.1512752 -0.17281651 -0.1494165 -0.025716921 -0.24998647 0.026594246 -0.08583616 0.114912376 0.03427764 -0.042699803 -0.033350136 0.1804764 0.05458603 0.12938285 -0.19788311 0.10472292 0.017629033 -0.10006415 0.03888939 -0.0033380056 0.06309101 0.0016094258 0.048036568 -0.17505038 0.037963748 0.030216997 -0.20110154 0.11159498 -0.019242456 0.1666337 0.13073622 -0.19200525 -0.060746126 -0.09739823 0.14972343 -0.15796368 -0.056521628 0.09582234 -0.04167762 -0.12571445 0.049567863 -0.09038804 -0.114615045 0.06701635 0.20876114 0.20001818 -0.0877064 0.06974316 -0.092068374 -0.06171442 0.16336448 0.018977553 0.10920595 0.02557545 0.020001829 -0.11452229 0.083837785 -0.09369383 -0.015479027 -0.038060606 0.0067480165 -0.15135922 0.094579436 -0.25123844 0.023888523 -0.028603965 0.08412042 -0.013352984 0.012784525 0.12293992 0.0131191 -0.11119772 -0.008910941 -0.17561638 -0.16269785 0.085448846 0.10223498 -0.10487863 -0.076688446
6 0.07612498 0.047516428 0.093587115 -0.117766745 0.22325207 0.09726527 0.07592431 -0.036052816 0.15228304 0.024179509 0.08343105 0.16227426 0.10157105 -0.11378039 0.13934068 -0.07791142 -0.071542 -0.07265077 0.1370584 -0.086547874 -0.027394485 -0.06096226 -0.06844508 -0.25778303 0.005838111 0.13087167 -0.17792392 -0.09553704 -0.031276498 0.15038344 -0.14166424 0.054728355 0.01573495 0.009842274 -0.019423816 0.028893728 0.013675886 0.094914824 0.06812649 0.04145896 -0.047672544 0.09478975 0.20985632 0.11396662 -0.016716605 0.26186666 -0.020614497 -0.09014738 -0.0050838864 -0.15619327 -0.18044394 -0.1478777 0.012998926 -0.28400385 0.02547357 -0.098349035 0.11575198 0.042104922 -0.042549506 -0.024688156 0.18721956 0.028913116 0.13864863 -0.1959896 0.15313184 0.0206264 -0.10841669 0.054787498 0.012551925 0.05128463 -0.013276986 0.05292239 -0.17104459 0.0380553 0.023795685 -0.20410307 0.09971125 -0.04280557 0.18377432 0.13889626 -0.19914946 -0.06987736 -0.13483045 0.15450388 -0.14678217 -0.0687391 0.094292864 -0.031454444 -0.13516486 0.06777675 -0.0972662 -0.115999125 0.04108358 0.20521563 0.20639478 -0.08042604 0.08563972 -0.11620514 -0.083004646 0.17389385 0.009886789 0.12160232 0.022350414 0.03746397 -0.09257016 0.10902105 -0.07961882 -0.004065746 -0.025593054 0.026433643 -0.15075327 0.09122416 -0.2606363 0.031574115 -0.031792033 0.0652159 -0.016508112 0.032726724 0.12568426 0.023162622 -0.10132587 -0.014775788 -0.16062771 -0.17926073 0.08918844 0.09155067 -0.10844849 -0.09125154
28 0.0803687 0.036712743 0.07651078 -0.08660735 0.2205832 0.10181586 0.0656701 -0.032203145 0.1592978 0.012255395 0.079979405 0.184667 0.09599091 -0.09265902 0.103723116 -0.081838645 -0.06930258 -0.04651695 0.11444182 -0.06411499 -0.049034867 -0.080199614 -0.03688163 -0.2377114 0.030284593 0.14798963 -0.16547501 -0.07311162 -0.03801837 0.122122675 -0.13913114 0.037447043 0.0032319534 0.015374286 -0.007043679 0.012787444 0.028443784 0.035889696 0.09338419 0.0053351726 -0.06592175 0.096328795 0.18221109 0.09916085 -0.012778474 0.22766681 -0.005145642 -0.106588505 -0.010181457 -0.1567225 -0.17082205 -0.14486282 -0.039487273 -0.23493509 0.026762055 -0.07381598 0.11338077 0.035855535 -0.043528467 -0.03942842 0.1733972 0.061947618 0.11824934 -0.18982205 0.08402091 0.011297794 -0.10122954 0.03307993 -0.0039928863 0.058727596 0.0013226965 0.041751634 -0.18127325 0.03722205 0.02941953 -0.19417681 0.113954276 -0.013663608 0.16563554 0.12722313 -0.18354596 -0.052523196 -0.09179564 0.14268285 -0.15810344 -0.04453179 0.09343905 -0.039046064 -0.12163359 0.055450894 -0.084902994 -0.10742308 0.073811784 0.20205519 0.18841884 -0.085096374 0.065888986 -0.08063481 -0.048919924 0.15100548 0.02688598 0.1043383 0.028575761 0.010960547 -0.11651767 0.07117172 -0.090031 -0.014897017 -0.036692694 0.004274851 -0.15689655 0.099983685 -0.24497084 0.025701413 -0.024346244 0.09368835 -0.0062877275 0.01021927 0.12514302 -0.00038810284 -0.10428748 -0.011198326 -0.17474334 -0.14878535 0.07812813 0.10320473 -0.10177969 -0.06833603
24 0.098230794 0.004096818 -0.010293497 0.026887449 0.21875003 0.10606239 0.032051783 -0.023623541 0.1934499 -0.047814123 0.0738289 0.2759521 0.09389188 -0.0029030235 -0.032958735 -0.12697999 -0.0807003 0.037959438 0.019549863 0.03950558 -0.1147631 -0.17517461 0.06659353 -0.20212848 0.1393152 0.26046944 -0.14720158 -0.020831205 -0.0634028 0.049475867 -0.15927878 -0.01839382 -0.04681875 0.057764262 0.054935172 -0.02957815 0.09105376 -0.21806182 0.21341094 -0.12935024 -0.14956227 0.14179996 0.09265193 0.05584925 -0.0224332 0.13003895 0.0683156 -0.18127373 -0.042297915 -0.17133461 -0.1405525 -0.15912034 -0.25665373 -0.07225144 0.01719773 0.022525206 0.12912804 0.026133807 -0.052369993 -0.09721344 0.14950548 0.22465226 0.07512085 -0.19612987 -0.17396605 -0.051029943 -0.07831422 -0.057578832 -0.062390804 0.10370713 0.08527525 -0.02052712 -0.23981096 0.036276594 0.06581523 -0.18285759 0.1844924 0.11142448 0.12169272 0.09493353 -0.13778691 0.02804489 0.08319198 0.13050508 -0.2135849 0.04533732 0.12455647 -0.055509284 -0.08781146 0.0056392606 -0.04765316 -0.099686 0.20564702 0.20118012 0.16657239 -0.08138202 0.0005623247 0.05989104 0.054029316 0.10541369 0.08103434 0.04403974 0.05209069 -0.08418323 -0.2078626 -0.054953177 -0.15120961 -0.03543278 -0.10590535 -0.070272185 -0.19129081 0.14915106 -0.21413492 -0.005609365 -0.034432754 0.20712216 0.016031742 -0.070326835 0.123375125 -0.09053767 -0.12652384 0.02458484 -0.26402104 -0.032437228 0.03963445 0.14545472 -0.09046886 -0.0071718367
17 0.11446912 -0.010579296 -0.049792442 0.07307341 0.22890855 0.11418473 0.020465462 -0.02555614 0.22005723 -0.0707518 0.078111954 0.33219284 0.08928609 0.040698607 -0.09375481 -0.15182872 -0.08229546 0.0843014 -0.016680563 0.08865958 -0.15421994 -0.22371493 0.11554214 -0.18853188 0.18752636 0.31256068 -0.1489661 0.0052170116 -0.07568319 0.021452244 -0.17347203 -0.04046363 -0.06722509 0.07681979 0.07966697 -0.048273187 0.120967716 -0.33689243 0.27806696 -0.18935873 -0.18997191 0.16750647 0.057216413 0.032220017 -0.024205226 0.08689661 0.09877136 -0.21923792 -0.05913449 -0.18292803 -0.12775761 -0.16718744 -0.3658249 0.003112447 0.01906507 0.06542468 0.1470706 0.024524048 -0.060002115 -0.12541212 0.14283732 0.30451515 0.05388573 -0.2008248 -0.2932174 -0.07094231 -0.06400749 -0.09483107 -0.09485024 0.12411092 0.11906331 -0.045812365 -0.26922598 0.042228438 0.08275723 -0.18488827 0.21880862 0.1704431 0.11038141 0.09129882 -0.12180526 0.064201824 0.16468647 0.1263402 -0.236842 0.091385245 0.13688193 -0.057996474 -0.06920076 -0.019591594 -0.034667224 -0.10164859 0.2769049 0.21010716 0.15672125 -0.08824936 -0.020817416 0.12286185 0.10885978 0.092734575 0.11615472 0.020959856 0.063163914 -0.13122441 -0.25906038 -0.11631414 -0.18459365 -0.040802237 -0.13603365 -0.10299374 -0.21284622 0.17208993 -0.21202728 -0.01778288 -0.037061643 0.2690234 0.02414908 -0.11532745 0.12719145 -0.13345806 -0.1442489 0.042431574 -0.3106409 0.017517606 0.024867713 0.17272402 -0.09592119 0.024977503
31 0.07448787 0.039819825 0.072693326 -0.073688574 0.21390025 0.08615487 0.066220224 -0.028488982 0.15267025 0.015978862 0.082976535 0.18458547 0.11642467 -0.085285336 0.09385997 -0.09765039 -0.063755326 -0.044307932 0.10920718 -0.075272605 -0.05354568 -0.09005145 -0.03770979 -0.26002312 0.041754823 0.1718603 -0.17921527 -0.0853816 -0.03675818 0.13600153 -0.15065968 0.043730333 0.0011639494 0.01650657 -0.000731514 0.009467269 0.034587845 0.011811035 0.11390264 0.0041116467 -0.072803095 0.102634564 0.19460507 0.09710447 -0.011270446 0.24310908 -0.0007417026 -0.121060304 -0.013942086 -0.15241237 -0.17159963 -0.16401124 -0.05232505 -0.2457365 0.032161504 -0.07672174 0.113912135 0.04548456 -0.0534389 -0.03253433 0.18759261 0.07294825 0.12093651 -0.20379157 0.069549985 -0.00223242 -0.10666458 0.03126991 0.0022243261 0.07896579 0.005813882 0.030898234 -0.19828735 0.024823012 0.031554412 -0.2089262 0.121396884 -0.019361325 0.17419858 0.12457443 -0.1855394 -0.04941084 -0.09069151 0.15357378 -0.17800401 -0.049602114 0.111095846 -0.03863034 -0.13051318 0.066828534 -0.08275 -0.11531618 0.07684014 0.21106549 0.20594722 -0.0825506 0.062185075 -0.06611731 -0.051852163 0.1675671 0.02458144 0.117542624 0.037436504 -0.003989512 -0.11633234 0.07813835 -0.10021326 -0.014146113 -0.047231264 0.011813478 -0.16225742 0.09998858 -0.2621115 0.020697605 -0.035245985 0.10879353 -0.0073668277 -0.000743721 0.12534958 -0.009700376 -0.106567726 -0.016814781 -0.19377846 -0.14107792 0.073286146 0.10783536 -0.10820947 -0.0730944
29 0.07666265 0.030926274 0.060499135 -0.06685016 0.20572075 0.08878589 0.06085622 -0.033670165 0.15509029 0.010797455 0.07695517 0.18105453 0.09887332 -0.07570916 0.08818235 -0.0889284 -0.06478253 -0.044105455 0.10500966 -0.06610122 -0.049480837 -0.09465596 -0.024669811 -0.24287365 0.043297954 0.16830833 -0.17017978 -0.0734985 -0.038047843 0.12174484 -0.14496031 0.038347546 -0.0009911562 0.01782158 -3.7583122e-05 0.012600325 0.036983997 0.0022861974 0.104467936 -0.004549271 -0.07714762 0.09631044 0.17602012 0.09589798 -0.017220277 0.2225555 0.0018937812 -0.11848332 -0.00659 -0.14875081 -0.16484617 -0.15460427 -0.06323518 -0.22372575 0.02811267 -0.07435736 0.11241776 0.04258951 -0.05331361 -0.03742566 0.17391255 0.07730945 0.12111837 -0.19616255 0.06581544 -0.003112535 -0.09395035 0.024415977 -0.006690403 0.073397756 0.009066665 0.02868531 -0.19169858 0.028463608 0.02577102 -0.19793884 0.12366727 -0.008939024 0.16812222 0.11992614 -0.17369571 -0.046003755 -0.07946688 0.14093496 -0.16910195 -0.0427321 0.10402821 -0.039287593 -0.11621911 0.053344585 -0.08295972 -0.10578166 0.08040611 0.20369864 0.19371368 -0.0829644 0.06607662 -0.056153364 -0.043769136 0.15851916 0.021699619 0.10187742 0.027164683 -0.0025744773 -0.11151345 0.070044056 -0.09499312 -0.011344571 -0.0457149 0.006570829 -0.16186821 0.09302305 -0.24213779 0.024000384 -0.037730545 0.10150259 -0.006559797 -0.0005988214 0.12254173 -0.006681751 -0.10758732 -0.009981308 -0.18140699 -0.12995474 0.07391427 0.10514724 -0.10789304 -0.06484566
20 0.07740985 0.036075927 0.07077303 -0.089752294 0.21256061 0.090451896 0.067521244 -0.03662856 0.15210266 0.014325377 0.08020611 0.17651704 0.10532271 -0.091434814 0.10019364 -0.08655487 -0.06194242 -0.0555552 0.11466958 -0.07781167 -0.04690922 -0.082994856 -0.03762425 -0.24845424 0.030018868 0.15238108 -0.17096873 -0.08185142 -0.036468405 0.13251317 -0.14215343 0.046169173 0.0028100621 0.011503871 -0.0034086646 0.01747379 0.025770772 0.035587374 0.09092848 0.014092453 -0.06294018 0.09400682 0.19056414 0.0966787 -0.014870965 0.23648672 -0.009202137 -0.104852326 -0.007892519 -0.14757018 -0.16762412 -0.15000702 -0.036864206 -0.24622683 0.0303513 -0.08440421 0.10869541 0.04408437 -0.049943287 -0.029401883 0.18062529 0.05579787 0.12856413 -0.19124545 0.09682093 0.005714181 -0.09863132 0.041379016 0.0024791409 0.0651767 0.0007196299 0.038009584 -0.18243612 0.029777147 0.023680946 -0.19812682 0.1161354 -0.024730675 0.17164819 0.12661012 -0.18279488 -0.054382224 -0.09881371 0.14408182 -0.15669301 -0.04894208 0.098223165 -0.0340728 -0.124813735 0.060933445 -0.080373734 -0.10847081 0.064158134 0.20468673 0.19480608 -0.08157922 0.06732841 -0.07898337 -0.053456165 0.16421326 0.023561958 0.11070541 0.030301522 0.011718477 -0.10442889 0.084357716 -0.09437301 -0.010234036 -0.037319247 0.015473926 -0.15781668 0.088046946 -0.24911965 0.020254064 -0.03599953 0.092432566 -0.005713519 0.010851317 0.12320033 0.007928461 -0.10481217 -0.017662093 -0.18010698 -0.14707462 0.07564036 0.105223194 -0.10803216 -0.075705536
12 0.0804574 0.037328735 0.07989088 -0.08648138 0.21653748 0.08985084 0.07044266 -0.039081328 0.15929803 0.016331658 0.08463044 0.17844017 0.11358924 -0.0888842 0.10758157 -0.08771927 -0.060058977 -0.056115597 0.11790405 -0.08237057 -0.03895129 -0.08248298 -0.039718125 -0.2569449 0.032066405 0.16013052 -0.17222978 -0.088843 -0.034729104 0.13525699 -0.14124921 0.04987238 0.00797221 0.019006584 -0.007112514 0.022260362 0.028756445 0.03539603 0.088357724 0.0210855 -0.06565584 0.090093784 0.19503333 0.105583005 -0.019248225 0.2429587 -0.008692987 -0.10268569 -0.0057001994 -0.15159577 -0.17530975 -0.16086392 -0.02809261 -0.2541782 0.026718313 -0.08950359 0.11037096 0.040813155 -0.055366237 -0.025148414 0.1856705 0.058668833 0.12855324 -0.20086934 0.09645933 0.0051250006 -0.10369995 0.04310727 0.009691473 0.071392976 0.0003569581 0.036692116 -0.18680416 0.021339945 0.019698687 -0.20417456 0.11457355 -0.032203786 0.17747451 0.12294601 -0.1842333 -0.05796161 -0.102210194 0.14397103 -0.16704725 -0.057971753 0.100443535 -0.038195636 -0.12560555 0.066910736 -0.0865673 -0.11003486 0.065270625 0.2037818 0.20036401 -0.08111824 0.073824234 -0.076934844 -0.05630822 0.16645235 0.013548514 0.117853835 0.031309478 0.009203267 -0.098630264 0.08996502 -0.08895644 -0.012475643 -0.036911495 0.019607337 -0.15788908 0.088794775 -0.25354382 0.021693397 -0.041244414 0.09021418 -0.0010031257 0.013622244 0.12267409 0.0065711043 -0.10028101 -0.02296478 -0.18241619 -0.14403592 0.073233135 0.104690544 -0.11031959 -0.07652713
3 0.074531764 0.042477794 0.089863405 -0.10220302 0.22817232 0.105004184 0.070232786 -0.039834145 0.15273808 0.013484991 0.08997243 0.17351548 0.09938885 -0.11176821 0.12641113 -0.086687535 -0.07199998 -0.059391674 0.124997385 -0.069705844 -0.043179475 -0.07653135 -0.05553285 -0.2496627 0.019210186 0.14314358 -0.17512313 -0.0889932 -0.039169937 0.14027463 -0.14686684 0.05156491 0.00879874 0.014647121 -0.0046349927 0.021304563 0.023091046 0.05501824 0.082181126 0.020618878 -0.062905595 0.097875886 0.19873518 0.11253304 -0.013751505 0.2413221 -0.013560381 -0.1022053 -0.008063178 -0.164383 -0.18967572 -0.15048002 -0.020887734 -0.2622364 0.026032487 -0.08538381 0.12197479 0.040602602 -0.04449325 -0.025911286 0.18957631 0.05616377 0.12794916 -0.20594369 0.11156475 0.018470278 -0.11102479 0.042529516 0.0026492765 0.057302777 -0.0019802114 0.046390273 -0.18656296 0.040149093 0.032745536 -0.20270295 0.117954396 -0.021348696 0.16875991 0.13778952 -0.20389949 -0.06682654 -0.10519664 0.15414482 -0.16232803 -0.057509653 0.10141615 -0.040007215 -0.13069944 0.051289074 -0.09136529 -0.11925663 0.06928804 0.21718653 0.2095852 -0.08419466 0.07192697 -0.09598284 -0.071441434 0.17030972 0.026174136 0.11793737 0.03068817 0.023849752 -0.11362022 0.089881726 -0.093262464 -0.007550742 -0.03361177 0.010952127 -0.15408175 0.0992394 -0.26792753 0.022452375 -0.022929627 0.08501571 -0.012118424 0.018996071 0.13419703 0.014948851 -0.11528511 -0.016881494 -0.18456127 -0.17726952 0.092782535 0.102943845 -0.10780509 -0.081981905
30 0.08032997 0.03568174 0.07355992 -0.075381726 0.21766734 0.105737895 0.06267296 -0.035061695 0.15828939 0.009069243 0.08329199 0.18637054 0.1019382 -0.09378275 0.09965528 -0.09142129 -0.06927618 -0.03837894 0.108324096 -0.04960927 -0.051578116 -0.09452762 -0.03716816 -0.2465439 0.040325064 0.16214505 -0.16666053 -0.07931691 -0.047573343 0.1255416 -0.15026638 0.03522987 0.0030014203 0.019938068 0.004541095 0.009267508 0.035750426 0.015727302 0.107637264 -0.0012149715 -0.072626606 0.106642015 0.17852867 0.10039864 -0.017879618 0.22285876 -0.0020042 -0.1138473 -0.0109832315 -0.16584693 -0.17976536 -0.14822233 -0.05467437 -0.23439498 0.02201441 -0.06898866 0.11606094 0.04029188 -0.04508463 -0.03614997 0.18020646 0.08407766 0.12196655 -0.1967206 0.066748485 0.009878892 -0.10093847 0.025059005 -0.0058269827 0.0631365 0.013240975 0.03767083 -0.1910541 0.03919459 0.03828815 -0.19991137 0.12200075 -0.0066349353 0.16147487 0.12742604 -0.19297202 -0.052239332 -0.078666635 0.15325047 -0.16759735 -0.046231773 0.10610414 -0.03923105 -0.120446585 0.04678218 -0.08799029 -0.11173948 0.08771072 0.21454562 0.20209005 -0.08737486 0.058352828 -0.07410641 -0.05231224 0.1575783 0.0347939 0.09950366 0.030815614 0.007941849 -0.12805933 0.0666181 -0.09946092 -0.013072785 -0.046763696 0.0020680672 -0.15955953 0.107973374 -0.2561916 0.016310647 -0.030507855 0.1029623 -0.0059454804 0.008560689 0.12855732 -0.007409492 -0.11647663 -0.007122509 -0.19351818 -0.15244444 0.08065131 0.10711937 -0.10345329 -0.07113719
13 0.077761725 0.03140828 0.07010688 -0.07305694 0.22466415 0.10719731 0.06851728 -0.035067424 0.16499545 0.0027178295 0.08869729 0.19349769 0.101016864 -0.091346 0.09793971 -0.09810186 -0.076123565 -0.039156936 0.11239347 -0.048678994 -0.060656335 -0.09544213 -0.03219654 -0.2517327 0.041125838 0.17206602 -0.17548347 -0.07896043 -0.046185404 0.12837681 -0.1525969 0.039769895 0.0010414174 0.018074013 0.008528972 0.010893302 0.03309582 0.0055450955 0.11158591 -0.00959314 -0.08260692 0.11019123 0.18322176 0.09706285 -0.018473996 0.22372572 0.001445229 -0.12314687 -0.014166988 -0.1677751 -0.18009125 -0.15600131 -0.063224144 -0.23439276 0.027867652 -0.06668679 0.12172638 0.03843348 -0.04474108 -0.039528467 0.18020688 0.087240644 0.119511954 -0.20526727 0.06052745 0.0056772856 -0.10492679 0.025519073 -0.009565066 0.06929303 0.011168114 0.037472665 -0.19438234 0.04066909 0.036499023 -0.20652862 0.12633644 -0.0046706996 0.16361415 0.13203625 -0.19242235 -0.051738817 -0.07370319 0.15649323 -0.17241137 -0.040836878 0.10481891 -0.043050222 -0.12448677 0.048179027 -0.0862369 -0.11820911 0.09276241 0.21851417 0.20029432 -0.090628214 0.06538459 -0.064646944 -0.04292484 0.15808141 0.03679654 0.10162844 0.034477428 1.7889426e-05 -0.13297683 0.06414879 -0.10542277 -0.016359672 -0.044708427 -0.0033757505 -0.16506054 0.11009759 -0.2568584 0.020505473 -0.025513835 0.111249864 -0.009363911 0.005691596 0.12565206 -0.0073163924 -0.113191575 -0.0044855378 -0.19785197 -0.15205906 0.0780167 0.11542509 -0.106454395 -0.07058876
19 0.09255325 0.004617421 -0.016669102 0.029856415 0.2223621 0.10233584 0.031936683 -0.027075289 0.19812404 -0.045851465 0.07411678 0.28608882 0.08928709 0.00813639 -0.04489639 -0.13418922 -0.07380937 0.04879479 0.009910261 0.051257167 -0.11768626 -0.18319413 0.07234165 -0.20347393 0.1423183 0.26188615 -0.1445482 -0.020320287 -0.06844426 0.04660137 -0.15993112 -0.016839217 -0.043291833 0.061844226 0.060389817 -0.029304732 0.10110883 -0.2350608 0.22473152 -0.13805008 -0.15765609 0.14947842 0.086252905 0.052332144 -0.027277175 0.11825375 0.07511458 -0.19075859 -0.048026595 -0.17769836 -0.1386962 -0.16085257 -0.27706587 -0.0632577 0.023371555 0.02930181 0.12804914 0.025300818 -0.05651761 -0.09770284 0.14530723 0.2392076 0.06732097 -0.19648224 -0.18525682 -0.050119426 -0.07088442 -0.06591002 -0.06280627 0.11033201 0.08961262 -0.019105157 -0.24592976 0.04413661 0.062171724 -0.18794683 0.19087794 0.11813067 0.116417535 0.09178381 -0.13959672 0.037921626 0.09347362 0.12310942 -0.21562026 0.051089056 0.12052124 -0.054969985 -0.08182649 0.0043852734 -0.05140858 -0.10356424 0.2202526 0.20182383 0.16840023 -0.0882565 0.0013032327 0.071532264 0.06558713 0.10323996 0.08615868 0.0460305 0.05827128 -0.0860358 -0.21391799 -0.05760989 -0.15250948 -0.031536948 -0.106403 -0.073619656 -0.20115447 0.15659183 -0.22507717 -0.0028897945 -0.034011308 0.21805479 0.017436108 -0.077745445 0.1217062 -0.090886354 -0.13096768 0.029563433 -0.26708043 -0.023314321 0.04017624 0.15390642 -0.093730785 -0.002412687
4 0.092668734 0.003000065 -0.009609287 0.022026042 0.22071888 0.10356328 0.030030726 -0.02577024 0.19245684 -0.04120191 0.07886029 0.27285144 0.090886295 -0.0005945965 -0.029853836 -0.127826 -0.07850566 0.036523163 0.025961155 0.03502573 -0.11659693 -0.17201628 0.059295103 -0.20482005 0.13318083 0.25368962 -0.14971435 -0.026104208 -0.065548845 0.05427233 -0.15726937 -0.017164044 -0.042401742 0.057037316 0.05579173 -0.031499904 0.09213933 -0.20623267 0.21542208 -0.12144616 -0.14772792 0.14262986 0.097757764 0.058162954 -0.025728973 0.1309566 0.06307654 -0.17444041 -0.043947 -0.17519148 -0.1360592 -0.16005476 -0.25317353 -0.08083197 0.022938048 0.018369513 0.12963971 0.026971802 -0.05277498 -0.09154276 0.14984347 0.22070111 0.071617894 -0.19268663 -0.16055065 -0.04292448 -0.07668751 -0.05171128 -0.06018774 0.10010166 0.07798819 -0.015147913 -0.23759638 0.040452376 0.05984334 -0.18593834 0.18051724 0.10907438 0.12579136 0.10230568 -0.1360881 0.024727345 0.07591587 0.13030118 -0.20914707 0.037698496 0.1216991 -0.05121058 -0.091460526 0.00880535 -0.050903413 -0.10572215 0.20609859 0.20200986 0.17023285 -0.08916075 0.009870488 0.053693216 0.052413426 0.11481145 0.085555196 0.046975657 0.054676626 -0.08233988 -0.20530686 -0.048963506 -0.14786972 -0.028753093 -0.10318023 -0.06330037 -0.19112594 0.14841084 -0.22165366 -0.005798875 -0.029358659 0.20722322 0.015954375 -0.066345654 0.121158004 -0.086052254 -0.12544896 0.023154527 -0.26108375 -0.037390184 0.040964756 0.14976563 -0.0938245 -0.008074976
5 0.088505454 0.01434063 0.013448471 -0.0059379386 0.21505426 0.09938099 0.036401473 -0.020570695 0.17963706 -0.021214243 0.076955795 0.24302943 0.096224405 -0.023262568 -0.0011292418 -0.115619786 -0.075875655 0.008965638 0.050171208 -0.0014798692 -0.09238009 -0.15137114 0.03608622 -0.21458296 0.10959526 0.2260999 -0.15486835 -0.04052503 -0.055249646 0.07778663 -0.15608552 -0.0025910833 -0.033806168 0.04452163 0.04111124 -0.012855876 0.07252443 -0.13848172 0.17933592 -0.08246049 -0.12047323 0.12727065 0.12174629 0.06526574 -0.016134107 0.15994927 0.04130743 -0.15996188 -0.031204166 -0.15682739 -0.14092791 -0.15896127 -0.19612302 -0.12097521 0.021249557 -0.010009091 0.12586965 0.028841188 -0.05684403 -0.077951536 0.15307926 0.17540887 0.08559395 -0.19376117 -0.09540719 -0.036110338 -0.076452285 -0.029985344 -0.040465653 0.090110086 0.05624389 -0.0038041095 -0.21805327 0.03430858 0.054807004 -0.18380584 0.15936989 0.07364825 0.1390307 0.10192181 -0.14670892 0.005048757 0.03016889 0.13338819 -0.19681667 0.014816611 0.11512115 -0.046313934 -0.09885105 0.025871808 -0.05606416 -0.10283416 0.16704519 0.20304896 0.17112261 -0.08027699 0.024395239 0.02618825 0.020159729 0.12404097 0.06798803 0.06775344 0.04870496 -0.061133374 -0.1712897 -0.017175984 -0.12843055 -0.023814594 -0.08243454 -0.04588283 -0.17570503 0.124803364 -0.22442767 0.004876242 -0.038406298 0.17362325 0.004956411 -0.05281348 0.119593635 -0.06267915 -0.112080775 0.008826496 -0.2323776 -0.056915045 0.04458557 0.13732782 -0.094994925 -0.019583942
7 0.084156014 0.030168375 0.049269933 -0.05124458 0.22219329 0.100030124 0.060597107 -0.033756696 0.16767755 -0.0060989526 0.08239942 0.2107804 0.09630803 -0.065191984 0.062590666 -0.10031639 -0.070311114 -0.02238572 0.0893846 -0.036789738 -0.06587303 -0.11112735 -0.004953303 -0.22985278 0.06201663 0.18440096 -0.1642045 -0.061800756 -0.044473004 0.10753779 -0.14529096 0.025003951 -0.010826949 0.030817647 0.01133047 0.0056523094 0.04437094 -0.043662783 0.12787603 -0.028533684 -0.09423149 0.1124767 0.1611529 0.08954457 -0.013263309 0.19944116 0.0151925795 -0.12952296 -0.020632394 -0.1613656 -0.16060047 -0.1517387 -0.10256272 -0.19000521 0.024817161 -0.049502987 0.11730019 0.038878903 -0.04898096 -0.049749885 0.1707645 0.11111605 0.110198624 -0.19614488 0.013708589 -0.0075007123 -0.09416549 0.0065482864 -0.015501465 0.07418617 0.025152197 0.02486797 -0.1978633 0.03374628 0.034784336 -0.19443654 0.13240203 0.017449528 0.15195918 0.116688326 -0.16911161 -0.031090211 -0.043864477 0.14311507 -0.17699835 -0.025329227 0.104969025 -0.044006757 -0.11374003 0.041170344 -0.07493216 -0.10334473 0.10875443 0.2046456 0.18932219 -0.08069625 0.046146512 -0.04038097 -0.021195658 0.14380544 0.037766714 0.08668218 0.034855448 -0.02092935 -0.14229386 0.04143679 -0.111715995 -0.021165099 -0.05338588 -0.013725439 -0.16854443 0.10882414 -0.242323 0.011988553 -0.03140193 0.12484967 -0.0010414696 -0.017315174 0.12147593 -0.027688257 -0.11263775 -0.0019495303 -0.2034732 -0.11079267 0.06567446 0.12086403 -0.10137388 -0.04829446
11 0.10400806 -0.00017552101 -0.021892585 0.043187574 0.22563168 0.10937375 0.025564149 -0.023960073 0.20343357 -0.06018405 0.08057271 0.3021169 0.08583119 0.012877526 -0.062281046 -0.13402276 -0.07974593 0.058703262 0.002516188 0.062094305 -0.1344802 -0.19896746 0.08557928 -0.19651869 0.15960184 0.27784428 -0.14993444 -0.0071996762 -0.07218951 0.041108828 -0.16470884 -0.028552428 -0.050525136 0.061023116 0.070173964 -0.03807283 0.10661791 -0.26451948 0.24342835 -0.15521877 -0.16413233 0.15535271 0.082761705 0.046283703 -0.020631256 0.10468555 0.07670853 -0.20079452 -0.046475895 -0.17984155 -0.1362417 -0.16508003 -0.30488592 -0.040605176 0.016947709 0.040187296 0.13921298 0.02661196 -0.056068487 -0.104010075 0.14843144 0.25954637 0.064200096 -0.19448145 -0.21566968 -0.054708637 -0.07398111 -0.07633611 -0.07654474 0.11162221 0.09798302 -0.03090821 -0.24912272 0.045059357 0.07054527 -0.18785827 0.19511922 0.13632962 0.11505985 0.090041295 -0.13547845 0.04657225 0.11513457 0.12997742 -0.21898106 0.06497673 0.12395306 -0.055402 -0.08290285 -0.00789711 -0.046931397 -0.105697975 0.23772937 0.2048542 0.16448155 -0.087928705 -0.009047257 0.08453128 0.0756027 0.10222763 0.101194665 0.03813154 0.058141936 -0.098825224 -0.22617537 -0.08054668 -0.1630823 -0.03973126 -0.119218215 -0.08608875 -0.19908944 0.16086213 -0.21442993 -0.0066598984 -0.03498406 0.2338201 0.014782996 -0.09242103 0.12456269 -0.10297901 -0.1377553 0.03298352 -0.2819577 -0.0118383225 0.0323366 0.15617001 -0.08966574 0.006369611
2 0.080526315 0.04117825 0.08285274 -0.09422819 0.23254204 0.10224329 0.07404655 -0.03864985 0.16258352 0.016703183 0.08812391 0.18550386 0.10555334 -0.10170407 0.11246702 -0.08849051 -0.06887209 -0.054688755 0.12714174 -0.07675594 -0.04627038 -0.084816426 -0.04627884 -0.25247073 0.030337714 0.15783209 -0.1785383 -0.0829594 -0.042058922 0.13900222 -0.14591315 0.04766271 0.0028340893 0.01438408 -0.003166034 0.01712792 0.02641076 0.046445176 0.08965448 0.013391566 -0.06891527 0.102847286 0.1944548 0.10714401 -0.014380988 0.24684498 -0.007353421 -0.10725554 -0.0032964787 -0.15664649 -0.18328142 -0.15710904 -0.033082087 -0.25949836 0.029812247 -0.08302704 0.118797556 0.045358174 -0.04465362 -0.032586277 0.18992516 0.060341373 0.1334606 -0.20014961 0.09911445 0.008363387 -0.10260162 0.035286326 0.0022779866 0.06676841 -0.0020467099 0.042745695 -0.19123904 0.033872616 0.025242366 -0.21067727 0.11733532 -0.024559142 0.17797697 0.1331622 -0.19162768 -0.056952942 -0.101686396 0.1536804 -0.16942258 -0.054073077 0.10487101 -0.037314076 -0.12689567 0.056106344 -0.08737477 -0.11450181 0.07352046 0.21622452 0.20821702 -0.08532081 0.06914652 -0.08506277 -0.06324758 0.16911715 0.024019409 0.11385169 0.02740511 0.016023606 -0.1118397 0.08040428 -0.09253523 -0.011366614 -0.0328708 0.009096486 -0.16499114 0.101246245 -0.26235363 0.024816597 -0.028087724 0.09299889 -0.010988904 0.011210224 0.12662272 0.0027966916 -0.10538052 -0.01223306 -0.18624568 -0.16245931 0.08730764 0.110135935 -0.11307581 -0.071495205
8 0.072799884 0.039014723 0.075166225 -0.080352336 0.21140681 0.093976185 0.06271033 -0.029964102 0.15114541 0.014902006 0.080834 0.18036613 0.103205696 -0.09339093 0.10240316 -0.08865584 -0.07106088 -0.049343128 0.11664431 -0.059740875 -0.045780204 -0.08499653 -0.03769836 -0.24255206 0.028389705 0.15991473 -0.17331955 -0.07947232 -0.041235823 0.13095437 -0.14468896 0.03732634 0.0009581193 0.015262611 0.001988885 0.010511073 0.032147508 0.025542455 0.0983051 0.004571143 -0.07096263 0.102576025 0.18474029 0.10185051 -0.011756862 0.22548029 -0.0007673864 -0.1133966 -0.010169764 -0.14997493 -0.17413594 -0.15385558 -0.044328023 -0.23462726 0.023514962 -0.072375365 0.112371564 0.045602184 -0.043584935 -0.029118668 0.1808403 0.066578105 0.11967756 -0.18899286 0.08270343 0.0026763836 -0.10065401 0.032790255 -0.0024385422 0.0625173 0.00614998 0.037153773 -0.1877763 0.03571015 0.031554572 -0.19639613 0.11801578 -0.01718171 0.162122 0.12541224 -0.1784497 -0.05385636 -0.09136771 0.14476404 -0.16235776 -0.051386215 0.09671072 -0.03661766 -0.12534538 0.057333414 -0.08593891 -0.10911819 0.074282624 0.20499808 0.19528268 -0.0864948 0.06437915 -0.07020697 -0.05000051 0.15907165 0.029225033 0.103926264 0.0331564 0.0034938992 -0.11060646 0.072693706 -0.092032194 -0.010080498 -0.04270703 0.008642133 -0.15961973 0.095312655 -0.25398862 0.023218658 -0.030534761 0.10052429 -0.005772469 0.008805892 0.12023103 0.0034525117 -0.10551354 -0.0115857525 -0.17930345 -0.14703551 0.08175232 0.108137205 -0.1019695 -0.06666722
9 0.08120433 0.035106126 0.072467975 -0.07322022 0.23150142 0.10511885 0.07018585 -0.037225746 0.17094117 0.0065047527 0.0855652 0.21050332 0.111607924 -0.09178369 0.09559973 -0.100878455 -0.0731131 -0.039749548 0.10721756 -0.05187616 -0.06455437 -0.100053035 -0.023424312 -0.25886923 0.04870437 0.1814706 -0.17953493 -0.07962977 -0.050076846 0.12442414 -0.15545703 0.034110334 0.001049857 0.024997855 0.006207117 0.012064604 0.03885589 -0.0041613067 0.120694086 -0.008232775 -0.09150965 0.1174352 0.1848433 0.107805826 -0.017788464 0.23060581 0.00561229 -0.12611273 -0.012732406 -0.17239171 -0.18436387 -0.17024921 -0.076263055 -0.23815328 0.027629726 -0.06603666 0.12528172 0.045180146 -0.054685246 -0.04249548 0.18950784 0.092458874 0.12587242 -0.2118019 0.057150245 -0.0034841187 -0.10478155 0.02493034 -0.010913476 0.07909782 0.018542524 0.037973374 -0.20830706 0.0358579 0.040365227 -0.21121375 0.14032921 0.0013577945 0.17118922 0.1354859 -0.19566809 -0.050093517 -0.07563622 0.1537789 -0.18476006 -0.03753062 0.10694057 -0.04721145 -0.12844239 0.05301543 -0.08723201 -0.11567691 0.09943957 0.22550277 0.20653929 -0.09552683 0.06400357 -0.060408473 -0.0394749 0.1653994 0.03612214 0.10807564 0.03989118 -0.007199755 -0.13442455 0.06338823 -0.10778866 -0.0127335135 -0.04879881 0.0014395479 -0.1743341 0.10977088 -0.27233204 0.023952134 -0.028883962 0.12414735 -0.0036684573 -0.0034311179 0.13909307 -0.01567052 -0.12242752 -0.01053906 -0.20698452 -0.14283618 0.085117884 0.12229639 -0.112727985 -0.06661402
25 0.09092178 0.015758518 0.02956271 -0.02761131 0.22454372 0.10311212 0.050661113 -0.023100084 0.17966622 -0.017295077 0.078096576 0.24057391 0.09360925 -0.037001256 0.021573378 -0.10913989 -0.074193746 -0.004240977 0.0637559 -0.014435353 -0.08529892 -0.13963689 0.02038669 -0.22273922 0.095368065 0.22028731 -0.16704567 -0.051304147 -0.05338067 0.088672206 -0.1558222 0.0053880643 -0.02789471 0.041074153 0.03273651 -0.01123811 0.06521299 -0.107553415 0.1703488 -0.06799092 -0.11419903 0.12250346 0.1433111 0.073721275 -0.023031874 0.17918473 0.032305073 -0.14756721 -0.02331018 -0.16612245 -0.15315403 -0.16073503 -0.16846223 -0.15055934 0.023199083 -0.021523295 0.12836866 0.03393386 -0.055899907 -0.069736876 0.16046254 0.15409034 0.0994077 -0.2011102 -0.054573193 -0.024603307 -0.08934591 -0.017897462 -0.032928992 0.08531584 0.04609709 0.007833359 -0.22011794 0.03800759 0.05189194 -0.19541599 0.15720646 0.057126347 0.15049385 0.11574284 -0.15947826 -0.013338696 0.0010728713 0.14154302 -0.19205166 0.0026448872 0.11159767 -0.047842667 -0.11052971 0.029294722 -0.0688354 -0.10865324 0.15105781 0.21108727 0.18305655 -0.08864051 0.034960758 -0.0037862612 0.005232306 0.13374087 0.060987167 0.07421851 0.044031724 -0.050747637 -0.16296005 -0.00010758065 -0.12219565 -0.026452215 -0.07433254 -0.033820663 -0.18095098 0.12499759 -0.23740946 0.011052095 -0.036323573 0.16178063 0.0034924056 -0.03949593 0.12583664 -0.049544025 -0.11933981 0.007139586 -0.22688653 -0.08218889 0.055157688 0.13411132 -0.098357245 -0.033359267
10 0.07831852 0.03677777 0.0753908 -0.0872687 0.22506954 0.09956316 0.067345075 -0.03735177 0.16341186 0.014932442 0.08439464 0.1920532 0.1052931 -0.09761987 0.100497 -0.08363561 -0.07028298 -0.04746345 0.11817903 -0.06593473 -0.048890293 -0.08859462 -0.03707673 -0.24836642 0.031098008 0.15474826 -0.16845435 -0.07964571 -0.037255652 0.13278238 -0.14445885 0.044199213 0.0021555305 0.013177222 -0.005047608 0.015029799 0.029519692 0.030545235 0.099736795 0.005453696 -0.06633382 0.104032114 0.18330081 0.105849184 -0.014656576 0.23301674 -0.008676443 -0.10806521 -0.011858504 -0.15563227 -0.1762913 -0.15420637 -0.044255856 -0.24124473 0.02883967 -0.080563016 0.119878694 0.041349903 -0.046947073 -0.036985833 0.17819324 0.06408583 0.12777296 -0.19965018 0.08575343 0.010082141 -0.10030351 0.03173484 -0.00025580017 0.06033214 0.0005644627 0.041131508 -0.18639983 0.03251359 0.034106113 -0.19687733 0.11424325 -0.0120902965 0.17028627 0.12860975 -0.19023319 -0.055352826 -0.09378092 0.14466673 -0.16086318 -0.05228854 0.0961905 -0.042041052 -0.124618694 0.053837106 -0.084393054 -0.10866425 0.076568455 0.20951399 0.19894141 -0.082678445 0.065422535 -0.0798129 -0.051870838 0.16332844 0.026899232 0.10756205 0.028237745 0.006810112 -0.11941658 0.07006016 -0.09423973 -0.009868444 -0.03804649 0.005312613 -0.15684332 0.100903705 -0.25053817 0.019276915 -0.02377099 0.0973882 -0.006032379 0.009089504 0.12575002 0.0015738141 -0.10870778 -0.013705754 -0.18246527 -0.15701947 0.07824393 0.10702784 -0.10406022 -0.072345786
