81 128
51 0.12869759 -0.043377515 0.1382875 -0.007298 0.019267987 -0.023844097 0.14734668 0.22098741 -0.07449157 0.061201252 0.0130705675 0.18680634 0.15418972 -0.293568 -0.097645365 0.0109854415 0.0737107 0.10855045 0.112131976 0.04542998 -0.040479355 -0.18062507 -0.016117578 -0.22814481 0.032006383 0.11927661 -0.23662013 0.054430157 -0.010905129 0.24373354 -0.014721405 0.025350798 -0.017953891 -0.073277 0.19356667 0.07454108 0.09597645 0.07592549 0.07620327 -0.013452222 -0.11885915 0.08857336 0.009596789 -0.026463736 0.053993404 0.048239235 0.021293033 -0.03276709 -0.09659388 0.061500743 -0.020493226 -0.108010836 -0.036342844 -0.14009482 -0.09938389 -0.008462045 -0.032842454 0.14832848 -0.05616761 0.011016302 -0.08401973 0.003760911 0.08731847 -0.04131757 -0.075450666 -0.006828891 0.045896146 0.03083517 -0.0017630005 -0.058782373 0.09770055 -0.17242494 -0.09956619 0.04234464 -0.101977676 -0.05807342 0.022267334 -0.1618595 -0.0133435475 -0.07679583 -0.06755515 0.004990539 -0.096925914 -0.09470625 0.074233666 0.049790904 -0.059445735 0.20097947 -0.07604321 0.07311417 0.04335723 -0.07048535 -0.1271749 0.17437756 0.11575647 -0.07605846 -0.048070963 0.19074534 0.10175329 0.13819027 0.10504319 0.013507011 0.074495785 -0.044937197 0.15183848 -0.07684496 -0.019380545 -0.025871059 0.04520956 0.0028106202 -0.050228745 -0.066043094 -0.081865914 -0.031160122 0.053527918 0.03475062 0.016046923 0.063154 0.10692319 -0.12346213 0.12763873 0.029240336 -0.05135751 0.07340063 -0.007024399 0.018067818 -0.02470034 0.035996135
65 0.064394124 0.13785595 0.10506984 0.0648611 0.08359245 -0.07864787 0.110460594 0.08671913 0.03155594 -0.120376624 0.06898548 0.421072 0.09575506 -0.28435948 -0.12486052 0.07465017 0.08467539 0.20396794 0.031571746 0.08505397 -0.036720663 -0.11801585 0.11545794 -0.4403141 -0.040433764 -0.021913413 -0.117048256 -0.13605385 -0.009929604 0.34980035 -0.16798164 0.089028314 -0.17060286 0.03817615 0.21630117 0.09700175 0.11620487 0.13706781 -0.050715476 0.15144876 -0.22220021 0.15665284 0.060354397 0.050334312 0.12853727 0.09998066 0.042278074 0.11310703 -0.21345462 -0.040814888 0.038467318 -0.17516106 -0.084108405 -0.09684844 -0.05644022 -0.024678025 -0.038076516 0.17067215 0.08642659 -0.0058296933 -0.21427095 0.08604522 -0.033567376 -0.14219138 -0.01712555 0.0077158683 -0.051011324 0.14169401 -0.05484609 -0.19877245 0.05132708 -0.12202235 -0.036366183 -0.12245232 -0.27699968 -0.13666861 0.07475572 -0.118934266 -0.07467238 -0.13866854 0.022511166 0.018164106 -0.15330073 -0.26015806 0.15263066 -0.016331442 -0.15540431 0.38338912 -0.2354027 0.3602246 -0.01089773 0.03813636 -0.16223168 0.1607367 -0.004512643 -0.043973405 -0.17756748 0.3000412 0.25972643 0.110777766 0.061881095 0.08613984 0.06466495 -0.10196427 0.2819973 0.03570941 -0.104017034 0.008674431 -0.0015549724 0.09378159 -0.11387756 -0.067845285 -0.003725651 -0.16782539 0.04853563 0.09115876 -0.046577338 -0.083457656 0.2520592 -0.27191508 0.10490527 -0.041098114 -0.004045108 0.25526413 0.11394625 0.20970738 0.058729794 0.16631886
42 0.08068728 0.12078938 0.13738984 0.050150987 0.07331496 -0.11479648 0.15297563 0.16780113 0.0073897657 -0.0467092 0.07495682 0.44417608 0.1320317 -0.30675697 -0.17172222 0.054336313 0.12579067 0.24065484 0.062067892 0.040951762 -0.05222704 -0.13603 0.07313325 -0.4448645 -0.04624986 -0.00081628247 -0.17176664 -0.12498089 0.0067407186 0.33813676 -0.12736785 0.08193923 -0.17263484 -0.0007423196 0.19034965 0.0604052 0.13458775 0.116340935 0.01067637 0.14356554 -0.20569612 0.16009896 0.021841882 0.06672726 0.12225883 0.110534914 -0.012500107 0.10726138 -0.2131556 -0.043156922 0.052546155 -0.17661332 -0.04979087 -0.110968605 -0.047244173 -0.04955761 -0.037350208 0.15625384 0.05687302 0.0021803312 -0.2025229 0.037247263 -0.051313013 -0.15444605 -0.030834245 0.02722753 -0.06324119 0.12322775 -0.043432634 -0.16874997 0.03791552 -0.12515864 -0.049524397 -0.12120219 -0.25189826 -0.118212774 0.045822356 -0.107613 -0.055111762 -0.12381685 -0.012249789 6.8732064e-05 -0.17070861 -0.24865344 0.16116883 -0.027309239 -0.1538727 0.34085646 -0.21891452 0.32446948 -0.00655384 0.030570209 -0.17607002 0.17339088 0.050161116 -0.061222505 -0.17979406 0.29130185 0.25962457 0.115310185 0.050766215 0.09312085 0.06191973 -0.12576452 0.23217301 0.021785244 -0.10066823 0.005067951 0.010588774 0.08877268 -0.07816877 -0.07168306 -0.016347999 -0.15765472 0.08198287 0.07107986 -0.03236237 -0.0865155 0.23381408 -0.27870247 0.10483349 -0.03061846 -0.016611729 0.22178341 0.086629 0.17430122 0.070433065 0.14491326
47 0.082527235 0.115228735 0.12785958 0.051026743 0.090024255 -0.09877068 0.14259388 0.13963512 0.017094566 -0.077392496 0.06115973 0.4244422 0.115031876 -0.293626 -0.14908382 0.06909364 0.10943206 0.20835488 0.048501667 0.05405102 -0.03608989 -0.13920738 0.094783485 -0.43149748 -0.038807146 -0.008105443 -0.14737977 -0.12784135 -0.0024157653 0.33510646 -0.14213239 0.08683798 -0.17441933 0.019879121 0.20874009 0.07919625 0.12406265 0.12958425 -0.024421874 0.1452256 -0.20399457 0.14429376 0.048914824 0.056776706 0.1179956 0.10687455 0.02254005 0.10800366 -0.20999244 -0.037556715 0.045561124 -0.15791045 -0.058515366 -0.097760744 -0.043555666 -0.03993787 -0.035112098 0.14923204 0.077448696 -0.011168838 -0.20180729 0.059120182 -0.04270709 -0.15270251 -0.009843658 0.018645061 -0.045854628 0.12947693 -0.040558938 -0.18674752 0.04240929 -0.118486345 -0.048663102 -0.121468924 -0.2657739 -0.123295605 0.063195795 -0.10738431 -0.06216007 -0.1279838 0.0061835735 0.0046220426 -0.16191478 -0.24391916 0.14191803 -0.026143111 -0.14292903 0.36115614 -0.21461363 0.33630085 -0.0016462408 0.040778268 -0.16666782 0.17114168 0.023471931 -0.046666987 -0.17217205 0.2809738 0.24689221 0.108882524 0.042429734 0.0833665 0.060416214 -0.113401726 0.2455347 0.030745761 -0.09016754 0.006408507 0.010395512 0.08990365 -0.10751284 -0.06986518 -0.01720312 -0.16179574 0.06494289 0.07496331 -0.0351546 -0.081575066 0.23634072 -0.2636723 0.09673298 -0.039863877 -0.009064111 0.23273337 0.102074996 0.18616317 0.06276532 0.1589637
77 0.08307689 0.11322864 0.1315585 0.030645628 0.09092012 -0.100912504 0.14130253 0.1491844 0.01287611 -0.047733445 0.06546731 0.4042166 0.12491411 -0.28155673 -0.15604459 0.056089263 0.11301959 0.22042637 0.05889511 0.022072047 -0.038011324 -0.1393296 0.072985694 -0.39973438 -0.04261956 0.0010844565 -0.16193712 -0.11243479 -0.0048723766 0.32511458 -0.10976386 0.08578537 -0.1647619 -0.00814934 0.19653596 0.071173266 0.120021105 0.10559501 0.003028273 0.12293781 -0.1821104 0.1487313 0.029000688 0.06344483 0.10901382 0.11588918 0.0017199473 0.092766404 -0.2060024 -0.019069083 0.047272597 -0.16850832 -0.050370652 -0.12293385 -0.050114706 -0.04185788 -0.036556154 0.158 0.04731327 -0.015533784 -0.1789633 0.038343627 -0.02462795 -0.14609697 -0.0370064 0.014314773 -0.039356414 0.12463998 -0.034482393 -0.15431854 0.046495862 -0.13119847 -0.07016139 -0.10557403 -0.24618833 -0.113348536 0.049629547 -0.10956248 -0.05315585 -0.11407449 -0.012666755 0.009907916 -0.16696645 -0.2314654 0.13841599 -0.018350597 -0.1314742 0.34062186 -0.19941495 0.2957843 0.005901823 0.02593756 -0.16586146 0.17966284 0.060994703 -0.06061004 -0.17514238 0.27606255 0.23192437 0.122437865 0.052708734 0.08402809 0.06094864 -0.11350304 0.21897165 0.008263945 -0.0919358 0.01375712 0.013657646 0.08271678 -0.09051932 -0.06797237 -0.028424066 -0.15430224 0.08318215 0.06322676 -0.014704879 -0.070463136 0.22367801 -0.25787196 0.1081812 -0.031125747 -0.017116915 0.20944467 0.082654536 0.16081554 0.06363984 0.13792817
20 0.077646695 0.10268386 0.10558344 0.043085147 0.07126775 -0.07259099 0.111499555 0.11343189 0.0077313324 -0.07434479 0.052263737 0.3610203 0.11531364 -0.2725294 -0.12420233 0.055639483 0.08667993 0.1773553 0.044219907 0.06059698 -0.03656861 -0.13412121 0.08060646 -0.38744256 -0.02617848 0.0014251857 -0.1365887 -0.09806484 -0.007449346 0.31911984 -0.1298152 0.07547831 -0.13804513 0.013991162 0.20910414 0.08373854 0.10625239 0.11992101 -0.022784898 0.11724594 -0.18682124 0.13920009 0.04650161 0.031963557 0.11595843 0.09445581 0.034789126 0.08200772 -0.18593036 -0.017073713 0.030690987 -0.15473768 -0.07338206 -0.106701285 -0.05998362 -0.029531797 -0.03595186 0.16456227 0.053635497 -0.0035524913 -0.17719106 0.06433226 -0.006299438 -0.114246905 -0.022448214 0.0066738925 -0.030098757 0.12155604 -0.039075658 -0.16631868 0.05786112 -0.13080162 -0.05228879 -0.09849072 -0.23836342 -0.11751976 0.064680085 -0.11986491 -0.060671303 -0.120304376 0.008260061 0.0205579 -0.14448595 -0.2211993 0.12885953 -0.006576194 -0.12809666 0.34375915 -0.1939618 0.29773864 0.007843099 0.018051634 -0.15084398 0.15955436 0.020737693 -0.041205794 -0.15652995 0.2677493 0.21898478 0.115061015 0.06585578 0.07389395 0.06621463 -0.09161199 0.2407264 0.020320764 -0.087109335 0.0071457117 0.0023245958 0.074990705 -0.10505798 -0.0697344 -0.0221807 -0.14436159 0.04912705 0.08205274 -0.029829273 -0.055678003 0.21403459 -0.2302518 0.102626555 -0.03052108 -0.017849622 0.20695108 0.08671264 0.17068174 0.043794528 0.13641487
0 0.07892947 0.11006439 0.12926243 0.046350982 0.08166228 -0.11026886 0.14705954 0.150396 0.012409439 -0.053753413 0.07228701 0.42289048 0.13106309 -0.2994476 -0.15734296 0.054370433 0.11956247 0.23005866 0.06227872 0.039790556 -0.04446852 -0.13905174 0.07181254 -0.42565295 -0.04237007 0.0017873598 -0.1675322 -0.12104861 0.008478233 0.3349951 -0.12365625 0.090076126 -0.17221625 -0.0057416935 0.19607498 0.07311526 0.1359331 0.11284691 0.0062056696 0.13984632 -0.19962847 0.1530233 0.03391998 0.06499392 0.11065016 0.112454794 -0.008092934 0.096952416 -0.21134716 -0.04048229 0.041515525 -0.167052 -0.046881426 -0.11336536 -0.038708422 -0.048003692 -0.041854672 0.15491843 0.060371026 -0.003202242 -0.19228281 0.037622117 -0.04317141 -0.15907316 -0.022906031 0.021905186 -0.057432424 0.12522997 -0.039729107 -0.16166611 0.041487224 -0.11947589 -0.052669853 -0.11389294 -0.25272077 -0.11072974 0.049158342 -0.11187949 -0.053344116 -0.12440544 -0.019026762 0.009152387 -0.16930561 -0.23964185 0.15476534 -0.01754639 -0.14400344 0.33537003 -0.21400835 0.31659922 0.00052749086 0.03489793 -0.1661414 0.16935782 0.06039982 -0.062707625 -0.17688027 0.27431276 0.24697703 0.1123665 0.042414434 0.08472574 0.06313446 -0.11767466 0.22726859 0.02086455 -0.098751135 0.0038676567 0.014000188 0.08454772 -0.07968289 -0.066468574 -0.027414672 -0.14773788 0.07890459 0.06994516 -0.023294993 -0.07588681 0.2323935 -0.2688947 0.10325529 -0.029603355 -0.025602236 0.22032581 0.08940942 0.16734296 0.06702814 0.14086618
35 0.0437748 0.039636508 0.10972998 -0.06808058 0.04355303 -0.18477407 0.17962286 0.31672624 -0.036491208 0.28258452 0.024113998 0.19171992 0.19652732 -0.13092327 -0.25094807 -0.05308455 0.20249845 0.24278463 0.17173822 -0.25813872 -0.04895181 -0.13985199 -0.13710341 -0.12150799 -0.023515625 0.07540593 -0.334356 0.021808231 0.05566581 0.1762373 0.16298287 0.031255316 -0.08326353 -0.24062324 0.048633374 -0.06404376 0.16616607 -0.023681028 0.32885197 -0.00400417 0.009246024 0.115372494 -0.10427846 0.11307346 0.08679123 0.16144535 -0.16691583 -0.074888654 -0.18494242 0.09729115 0.075205274 -0.22077852 0.06653025 -0.30776498 -0.04556168 -0.12826104 -0.017843595 0.15842015 -0.23377635 -0.0024138417 -0.023637963 -0.22855622 0.12284057 -0.15263942 -0.14091669 -0.0010667255 0.053592496 0.022237739 0.046305396 0.09156181 0.017051676 -0.18229544 -0.21255769 0.039233834 -0.0490866 0.011532001 -0.10726881 -0.10472186 0.12931746 0.03515211 -0.24376486 -0.048715316 -0.23936208 -0.07765717 0.09925639 0.026897829 0.0067175543 0.10368229 -0.03944138 -0.03374688 0.12963556 -0.03535189 -0.17941642 0.26778397 0.42198017 -0.14379977 -0.12699425 0.15872245 0.116903774 0.20977741 0.10763107 0.043783605 0.08922054 -0.1878871 -0.030217972 -0.18764502 -0.044497546 -0.0039479285 0.074325405 0.027663654 0.070404164 -0.052286513 -0.16250117 -0.046650093 0.19063085 -0.081576526 0.13295357 0.011406921 0.10662302 -0.22831479 0.12507322 0.027162341 -0.12055285 0.020417405 -0.12774764 -0.11776875 0.06331489 -0.06394531
10 0.059216622 0.028297435 0.11866439 -0.053502366 0.0342241 -0.16876069 0.18199976 0.31077325 -0.04707627 0.2535425 0.023077812 0.21158402 0.20653763 -0.17554155 -0.2419142 -0.038473573 0.18512043 0.23095077 0.16495275 -0.20935033 -0.06188085 -0.15728147 -0.11313898 -0.1571246 -0.014324894 0.083240055 -0.32887593 0.028169502 0.050179023 0.19735366 0.13703725 0.037680123 -0.07022459 -0.22037329 0.06902822 -0.044105444 0.16053206 -0.014797824 0.30396885 -0.009588632 -0.01613205 0.12085572 -0.09375138 0.09437549 0.08140037 0.14746755 -0.14812961 -0.06702101 -0.17489444 0.09315082 0.061253704 -0.21620403 0.044053786 -0.2844705 -0.05479997 -0.114332214 -0.017785605 0.16793554 -0.21354416 -0.0036264868 -0.03908616 -0.2003234 0.11956422 -0.13766252 -0.13663591 0.0016233437 0.049941536 0.021130798 0.040845063 0.06417241 0.031142578 -0.1866565 -0.19747686 0.036206614 -0.054914307 -0.0022043157 -0.08998173 -0.115975544 0.10565434 0.013282697 -0.22678009 -0.04353339 -0.22398613 -0.08863376 0.106298104 0.027755946 -0.011864505 0.124018796 -0.053968776 -0.011260909 0.11967066 -0.045273952 -0.17717113 0.26108214 0.38322112 -0.1372372 -0.119132936 0.17128433 0.123988524 0.20752853 0.11299186 0.045213733 0.09110871 -0.18216439 -0.0016026036 -0.17794621 -0.041577607 -0.0103751235 0.07104611 0.02177267 0.0584895 -0.05313775 -0.14583912 -0.047124676 0.17973277 -0.05810421 0.112539195 0.01941316 0.10883131 -0.22515501 0.124666624 0.02139143 -0.11362753 0.024775457 -0.11434725 -0.09757597 0.05099675 -0.05043733
13 0.052351292 -0.16045515 0.06723923 -0.010271481 -0.07719484 0.114712715 0.11099562 0.14541578 -0.07675361 0.02558657 -0.0037018645 -0.024374878 0.08905507 -0.26698178 0.039610654 -0.069573276 -0.015450053 -0.043539338 0.12537017 0.13983232 -0.06737609 -0.11770815 -0.08479582 -0.103027634 0.034240615 0.16007411 -0.20965849 0.08727738 -0.037494015 0.23313716 0.01908429 0.017870324 0.13046154 -0.14567351 0.25915876 0.11066725 0.0069871144 0.108650096 0.08498965 -0.087454945 -0.15786959 0.096871875 -0.021454193 -0.12370626 0.0016308947 -0.036016997 0.04629019 -0.13712077 -0.020792432 0.084812246 -0.12852417 -0.14602426 -0.015319807 -0.2469869 -0.12845057 0.051486798 -0.04149909 0.20988525 -0.15063022 0.039637696 -0.10720316 -0.018176693 0.22401933 0.048896935 -0.12932365 -0.058771286 0.087666616 0.018664826 0.014241022 0.007833548 0.19156064 -0.18144013 -0.046399746 0.15525876 -0.02213015 -0.050693773 0.031634472 -0.25604174 -0.01781745 -0.031441584 -0.13663852 -0.015128977 -0.0013009408 -0.0061680945 0.07559822 0.17123064 -0.058656495 0.11999326 -0.010293685 -0.026129069 0.05361679 -0.17553328 -0.11388405 0.1984658 0.09828365 -0.13952318 0.088775225 0.2126066 0.08218957 0.14955916 0.20906192 -0.051753234 0.10854599 0.0140929725 0.19304682 -0.11810167 0.014148038 -0.0562607 0.104706906 -0.054556906 -0.028582564 -0.04804226 -0.09503453 0.11856995 0.03503291 0.064337164 -0.011998616 0.22774082 0.03275699 -0.05645475 0.18234032 0.095608465 -0.058432538 0.0027935107 -0.029946579 -0.007852379 -0.115287066 -0.049639665
31 0.056024686 0.02346795 0.11861765 -0.053662382 0.037809454 -0.14837362 0.17318043 0.29480255 -0.051504944 0.24202974 0.023181403 0.18022227 0.19934715 -0.1654069 -0.2189409 -0.04577984 0.17735195 0.21463013 0.15592118 -0.20056689 -0.057080757 -0.149098 -0.12167036 -0.13959114 -0.009216728 0.08956496 -0.32438755 0.03414756 0.04408331 0.1968246 0.13277248 0.034896884 -0.060409356 -0.21287757 0.08137164 -0.04023453 0.15226209 -0.011902563 0.28746134 -0.013546433 -0.016829237 0.11239893 -0.08174853 0.076799616 0.07869377 0.14318763 -0.12777561 -0.07750332 -0.163639 0.10314785 0.053237725 -0.20710753 0.041898917 -0.287583 -0.06033215 -0.102632746 -0.02200995 0.16744976 -0.20565103 0.0055279997 -0.029601118 -0.1837376 0.12552342 -0.1226471 -0.14258353 -0.0064151324 0.056469474 0.014341765 0.041537713 0.07216351 0.039404776 -0.19256349 -0.19875512 0.047234703 -0.050926693 -0.0073296474 -0.081122875 -0.12800165 0.10153704 0.010165065 -0.21455975 -0.036760762 -0.21024816 -0.07282345 0.09044412 0.034220368 0.0029618186 0.12206619 -0.04815161 -0.020124335 0.11932288 -0.06020534 -0.17166717 0.25372916 0.37360522 -0.1341261 -0.108893804 0.16726106 0.104837686 0.20246696 0.117638074 0.040432915 0.09517177 -0.16564178 0.0076962253 -0.17276207 -0.034642417 -0.0109830415 0.06741493 0.01713001 0.050027717 -0.051323522 -0.15316397 -0.036296435 0.16897869 -0.05287496 0.10721363 0.029210424 0.104839996 -0.21375784 0.12955017 0.029354969 -0.1157624 0.023352008 -0.1078055 -0.09763895 0.040288717 -0.05252143
11 0.08818762 -0.06410017 0.056346428 0.0009784822 -0.06361223 0.05858155 0.020559886 0.13029101 -0.15031597 0.0056697982 0.023366565 -0.002841803 0.1199349 -0.24091652 -0.018742915 0.027318433 -0.029616905 -0.017819064 0.059653744 0.17233476 -0.04288673 -0.18884271 0.000469502 -0.1218646 0.104105085 0.17550777 -0.19821092 0.16292638 -0.07940649 0.26374298 -0.034745194 -0.046000734 0.17090335 -0.038655683 0.24927725 0.10685103 0.052524116 0.06786137 0.058206704 -0.1180946 -0.14853224 0.12563775 0.05046287 -0.087023824 0.074073076 -0.06526494 0.12374577 -0.147532 0.043570466 0.12736054 -0.12123987 -0.18002117 -0.14592148 -0.15849762 -0.24321036 0.10534847 0.0024422589 0.246959 -0.11771626 0.034426473 -0.048598077 0.07585342 0.20448326 0.15777493 -0.16736263 -0.094048135 0.09898294 -0.04753086 -0.0065628528 -0.010561281 0.20991553 -0.27337438 -0.08490464 0.15908335 -0.022777138 -0.08988013 0.064913504 -0.23443727 -0.023235066 -0.09214519 -0.03249602 0.06351055 0.022629257 -0.06020738 0.05736721 0.15483057 -0.042101752 0.19580063 -0.010878268 -0.03592699 0.012769312 -0.1960238 -0.08916882 0.14586969 0.035758857 -0.088867575 0.03263156 0.2498032 0.03402517 0.15726219 0.25965935 0.011345973 0.064725325 0.047484405 0.23659718 -0.16566479 0.016902713 -0.07087013 -0.010412831 -0.041979242 -0.055410054 -0.06195697 -0.05740068 0.025170092 -0.063547924 0.113222785 -0.037642583 0.12878613 0.087286025 -0.013477871 0.117501855 0.041775286 -0.021776915 0.062488437 -0.0151751125 -0.038857147 -0.1234237 -0.047600497
41 0.051982164 0.022020474 0.10460275 -0.05762384 0.029700352 -0.15442368 0.16692135 0.29571357 -0.046729423 0.25760475 0.01762949 0.15774682 0.198684 -0.151741 -0.22422981 -0.04928515 0.17683251 0.21147762 0.16499583 -0.21459548 -0.058844946 -0.14920197 -0.12998357 -0.114934444 -0.0075290077 0.08957647 -0.32951868 0.044966064 0.04325767 0.17610742 0.1520912 0.027267195 -0.050486255 -0.22067797 0.06913762 -0.04623573 0.15255763 -0.023873 0.29788178 -0.028548595 -0.005613273 0.110522576 -0.09221701 0.083212614 0.07143528 0.1415975 -0.138817 -0.088379584 -0.15351489 0.10379541 0.056723434 -0.20900562 0.043449234 -0.29047406 -0.06756733 -0.110870264 -0.020205759 0.1659374 -0.22422028 -0.0007658127 -0.01455673 -0.19888052 0.13741054 -0.11872167 -0.14090429 -0.0051700063 0.068223685 0.006615565 0.039550968 0.08242398 0.03713625 -0.18969214 -0.20428978 0.05981711 -0.036045372 -0.0016253575 -0.087635934 -0.11828596 0.11407036 0.021039024 -0.2280627 -0.038912307 -0.21300149 -0.0605974 0.092329726 0.036063354 0.01283996 0.110348865 -0.033585437 -0.04602926 0.12903276 -0.06375592 -0.1699372 0.25427637 0.39146867 -0.13802055 -0.10079185 0.15193251 0.09983064 0.19893403 0.12092662 0.036058515 0.09680413 -0.1699665 -0.01334741 -0.18743892 -0.02854361 -0.01298766 0.072124965 0.0066408394 0.05253868 -0.05498637 -0.1523882 -0.028314566 0.1710986 -0.06451737 0.117885605 0.033703413 0.092338055 -0.20524238 0.12196014 0.036393274 -0.122708395 0.008357994 -0.12396714 -0.118113756 0.04146028 -0.060767334
34 0.058463804 -0.12511781 0.07750231 -0.008839602 -0.056211352 0.086768985 0.10131941 0.13977976 -0.072382815 0.025398523 0.0009971778 0.010773728 0.0900531 -0.24445517 0.013054755 -0.050475925 0.004490224 -0.019595362 0.11282936 0.11252451 -0.055293262 -0.118210085 -0.064239696 -0.10494345 0.029874861 0.13777493 -0.19961266 0.07493848 -0.032868117 0.22980875 0.011257315 0.019481745 0.0945706 -0.12658206 0.23622042 0.10386497 0.026552558 0.100943215 0.07499983 -0.066297494 -0.14732164 0.0944647 -0.017679183 -0.094591156 0.02063568 -0.016171265 0.049342647 -0.11450603 -0.03503238 0.09410959 -0.10843193 -0.14496365 -0.027188795 -0.22639298 -0.12485299 0.036919285 -0.041165974 0.20739697 -0.1352353 0.039174177 -0.0983249 -0.011579933 0.20799224 0.038082633 -0.13178797 -0.05658756 0.088260464 0.017315246 0.012466645 -0.00034380984 0.17663302 -0.18476275 -0.067854345 0.13261718 -0.03435251 -0.047924113 0.03786938 -0.23254378 -0.010974456 -0.0460773 -0.11636928 -0.0066849836 -0.018677767 -0.030952744 0.07284297 0.14440557 -0.05232467 0.1348729 -0.025172759 -0.00951884 0.054814614 -0.14956689 -0.1151379 0.18583445 0.099913515 -0.11769639 0.056279257 0.2038848 0.078726254 0.15274449 0.18934777 -0.032678414 0.09979112 0.012779804 0.19478187 -0.11191007 0.007818926 -0.045866244 0.08639755 -0.043696642 -0.02750364 -0.05463115 -0.09465082 0.08642744 0.025573347 0.057146903 -0.0046471097 0.18940023 0.062346738 -0.07674303 0.16388567 0.082024984 -0.060560603 0.029591525 -0.015128466 0.0010674829 -0.10039651 -0.024500577
74 0.07635225 -0.030340742 0.061965074 0.0035702435 -0.03444518 0.026752401 0.03382506 0.135909 -0.1192443 0.00037404656 0.034631137 0.07074444 0.119839475 -0.23130167 -0.038859434 0.030834064 -0.0024756896 0.017844291 0.058877308 0.14007105 -0.028285624 -0.16043824 0.014805371 -0.16958103 0.07385792 0.13569143 -0.1751869 0.10048872 -0.06846998 0.26538703 -0.05893112 -0.02054448 0.10540115 -0.018661011 0.22622102 0.098665476 0.056604993 0.08239247 0.03276368 -0.06588491 -0.15597887 0.13038385 0.04542569 -0.05739622 0.072748505 -0.031917706 0.1033366 -0.092982166 -0.0012942174 0.10267602 -0.087541394 -0.16968799 -0.12711993 -0.14919889 -0.19869782 0.07905766 -0.0021799284 0.21733503 -0.07588052 0.01396678 -0.07931504 0.065803945 0.15808687 0.105811164 -0.13878056 -0.076975286 0.07364975 -0.009304608 -0.009169958 -0.03667851 0.17243244 -0.23258828 -0.07875923 0.1029305 -0.06543306 -0.093815625 0.06985073 -0.19753784 -0.02500164 -0.084757835 -0.01826236 0.042919494 -0.013158422 -0.09865908 0.06783787 0.11737491 -0.056667738 0.21603863 -0.040677633 0.037695143 0.007138754 -0.1488963 -0.10559743 0.13980183 0.024034694 -0.08084629 0.00062045665 0.24798448 0.069445185 0.13917688 0.21439701 0.02740796 0.05686758 0.016302682 0.22824933 -0.12605312 -0.005422383 -0.0471017 -0.010076115 -0.012779116 -0.06260745 -0.06857781 -0.04647029 -0.014555635 -0.042612575 0.10748628 -0.03161071 0.0912565 0.111294016 -0.054768845 0.115904756 0.022048084 -0.009539828 0.08885043 0.010412127 0.010205373 -0.091823846 -0.014502942
9 0.057425834 -0.14933068 0.07295684 -0.012443319 -0.076024994 0.1165239 0.09710918 0.13353387 -0.08896371 0.0192451 -0.0074250167 -0.027740294 0.094995745 -0.26580814 0.045032114 -0.056942787 -0.01686355 -0.05148397 0.11412481 0.14714272 -0.06059225 -0.12528798 -0.071386784 -0.09304571 0.0433808 0.16012892 -0.20086512 0.09828084 -0.049709324 0.23961785 0.014411177 0.0087990975 0.13950975 -0.12855317 0.26828703 0.1263758 0.009384084 0.114718676 0.06971903 -0.088274 -0.16243322 0.100204594 -0.015554057 -0.12213331 0.013647699 -0.04044929 0.06948536 -0.13948545 -0.010327371 0.10527524 -0.13801579 -0.1568634 -0.037774634 -0.24889114 -0.15069714 0.06231174 -0.03894683 0.22947726 -0.15255274 0.04637553 -0.09951919 -0.0017902685 0.24285533 0.06632162 -0.14092264 -0.07270174 0.10412686 0.014360069 0.014313511 0.00825325 0.20614043 -0.20088506 -0.06271517 0.15765789 -0.019290771 -0.052184302 0.048549075 -0.2630979 -0.020825217 -0.0439232 -0.11865377 -0.0011665558 0.0008657752 -0.017497309 0.06441406 0.17689908 -0.056777526 0.13361499 -0.008245608 -0.030365821 0.05550053 -0.17953628 -0.109645806 0.19433692 0.08658453 -0.13150586 0.0832529 0.22240676 0.07030456 0.16044007 0.21813855 -0.044460274 0.1101493 0.028829336 0.21724461 -0.12466999 0.018300375 -0.05006918 0.095452614 -0.053454496 -0.03369957 -0.057426337 -0.102354094 0.113704495 0.016295597 0.07433402 -0.011778121 0.22322804 0.052403826 -0.05562953 0.1795679 0.09176464 -0.05628039 0.017787645 -0.018407103 -0.004102491 -0.12792543 -0.03987367
75 0.1122846 -0.075269885 0.080789275 -0.024909634 0.019461984 0.027571185 0.102505006 0.18671434 -0.058499653 0.05189833 0.009296507 0.0956746 0.12310918 -0.21642229 -0.03510179 -0.01441043 0.025541985 0.023512824 0.09811886 0.040441927 -0.016380263 -0.1501283 -0.025940156 -0.1436942 0.03990454 0.11906688 -0.21334624 0.06817032 -0.02290049 0.22609594 -0.0034609449 0.02227096 0.032960583 -0.085766986 0.21895859 0.09232555 0.057096735 0.0922913 0.07671151 -0.042233944 -0.10624005 0.1014496 0.019556422 -0.036432926 0.038549706 0.028478542 0.06166099 -0.08942076 -0.063462846 0.11326636 -0.03734127 -0.13239919 -0.056754567 -0.21264516 -0.11299529 0.0036925117 -0.018496871 0.1843924 -0.11145589 -0.0069297045 -0.0696777 -0.01579418 0.17939693 -0.00011317083 -0.08541325 -0.037260786 0.09265555 0.053988025 0.004386694 -0.01969793 0.14228919 -0.19198713 -0.1183987 0.08186147 -0.08898265 -0.077107824 0.037913192 -0.1717479 -0.0024289812 -0.046506487 -0.10871737 0.009667106 -0.09002695 -0.09117172 0.06940504 0.0920831 -0.019292537 0.21272084 -0.051141877 0.03661486 0.071568996 -0.08960458 -0.120737605 0.20189363 0.14282812 -0.08425645 -0.008539291 0.184494 0.08180319 0.14227685 0.16659962 -0.018359026 0.105960086 -0.038929045 0.14837755 -0.12114903 0.001374596 -0.030700197 0.048173923 -0.023479683 -0.07646373 -0.07405589 -0.10316859 0.00826356 0.040434018 0.053991318 0.03780293 0.11641374 0.07735316 -0.0843548 0.13421844 0.039181475 -0.06150639 0.063786544 -0.027137144 0.0028571344 -0.04071904 0.0007896881
1 0.09849924 -0.0968847 0.066057734 -0.013106892 -0.0034595449 0.06314152 0.07939235 0.16064768 -0.064926885 0.042122636 -0.0058753802 0.046573084 0.10516084 -0.2082103 -0.0019396943 -0.022228975 0.0022542167 -0.017028697 0.093489416 0.078891 -0.015049886 -0.15257674 -0.030629449 -0.11570148 0.053718932 0.12759015 -0.18971112 0.082035646 -0.03660914 0.22454605 -0.010490305 0.006653154 0.0644528 -0.09090185 0.23486452 0.1131476 0.040947944 0.092726834 0.06297034 -0.06694162 -0.11108498 0.09727491 0.01354748 -0.06378549 0.038077846 -0.0006690128 0.0864043 -0.11475342 -0.035630435 0.123958185 -0.067884535 -0.12969951 -0.06906141 -0.21230078 -0.13372198 0.023158146 -0.014415741 0.1902992 -0.12038019 0.003495619 -0.076903135 0.0047222516 0.20667541 0.027593857 -0.09956006 -0.046654947 0.10283082 0.04592311 0.011289815 -0.020109126 0.16516933 -0.20319708 -0.10816523 0.1005093 -0.067717135 -0.0774103 0.047968592 -0.19148584 -0.010450013 -0.048432663 -0.09740639 0.014150101 -0.060572337 -0.07141754 0.05322973 0.11891126 -0.01486305 0.1959266 -0.025609434 0.015661284 0.07303687 -0.11029516 -0.1151131 0.19607128 0.115091085 -0.08928119 0.010846644 0.18908201 0.06626528 0.14475557 0.18567929 -0.034298267 0.1075665 -0.007473529 0.16656847 -0.12171509 0.0040271506 -0.028570086 0.043631908 -0.03611413 -0.074828275 -0.068967216 -0.09565388 0.03345056 0.011856303 0.058376886 0.020309668 0.13950053 0.06269723 -0.068454154 0.13469063 0.052342236 -0.059293926 0.055403452 -0.022165146 -0.0019299927 -0.06564023 -0.009681348
60 0.10181892 0.008580247 0.102894634 0.027264038 0.00602152 -0.0062919394 0.12108104 0.15240261 -0.06294345 -0.01699355 0.014676484 0.17711863 0.108739935 -0.26387373 -0.051269945 0.017486032 0.037739936 0.082235545 0.081193894 0.08096461 -0.04452686 -0.1689964 0.007036479 -0.2508387 0.011770012 0.09173881 -0.16688183 0.022699362 -0.009137893 0.2714881 -0.05387712 0.02978674 0.0027044616 -0.027180431 0.23199463 0.06842186 0.08174461 0.12621222 0.03291891 0.020063011 -0.17462085 0.11529543 0.026649455 -0.037701365 0.10053388 0.034594093 0.080385834 -0.021513702 -0.090909116 0.038779266 -0.017386988 -0.14901328 -0.06623111 -0.1505379 -0.12950681 0.033624377 -0.02117326 0.19867395 -0.056108363 0.028511807 -0.1380112 0.046929315 0.09498205 -0.03621663 -0.07499497 -0.012251088 0.052129373 0.03781996 -0.003346697 -0.07632132 0.13456285 -0.18739319 -0.060881853 0.008714378 -0.12337367 -0.085708976 0.052562647 -0.18020417 -0.036532138 -0.08229703 -0.011181607 0.020113124 -0.09539709 -0.150617 0.06902363 0.059449777 -0.08376067 0.25079572 -0.09138682 0.14094767 0.004228893 -0.077142425 -0.12189652 0.15967278 0.041525923 -0.06573349 -0.04630789 0.25246334 0.13805863 0.15155992 0.12768719 0.026430644 0.07434533 -0.040125225 0.20245296 -0.052718237 -0.027886275 -0.04167392 0.02199245 0.004116165 -0.08890671 -0.05860437 -0.0564219 -0.05400539 0.037676886 0.09104864 -0.03467089 0.04070264 0.14681642 -0.13919544 0.10208138 0.035322394 -0.018028729 0.12052748 0.03885972 0.054822054 -0.029033644 0.05298429
46 0.072250925 -0.009807542 0.08408087 -0.021193061 0.031182606 -0.018827334 0.08158627 0.1604325 -0.04418842 0.045242086 0.01574047 0.13290001 0.15958199 -0.22011006 -0.08846065 -0.0025639874 0.060955998 0.102666534 0.10195596 0.0200816 -0.014811461 -0.16119845 -0.042007476 -0.19002372 0.023095248 0.09343769 -0.21248803 0.03499109 -0.033110034 0.26317298 -0.0019509721 0.029926857 -0.0113563705 -0.06613878 0.21078606 0.08438708 0.06711614 0.07605455 0.05997503 -0.019742668 -0.11562937 0.12489388 -0.015477853 -0.023429228 0.07859999 0.058096346 0.041007157 -0.059717823 -0.08592295 0.0943815 -0.033519924 -0.15647615 -0.06323264 -0.19597743 -0.105708934 -0.00845017 -0.01840546 0.19766286 -0.0634027 0.013019511 -0.065667816 0.0043566017 0.14321603 -0.0015297304 -0.10955763 -0.040734228 0.061978295 0.039985362 -0.007849803 -0.0371326 0.09299046 -0.20111378 -0.12711939 0.029589444 -0.105896495 -0.06734383 0.03544242 -0.174353 0.0035715543 -0.06319351 -0.052728858 0.043265343 -0.09980184 -0.09060564 0.05739713 0.06623722 -0.04340374 0.22585697 -0.061719332 0.054953832 0.08325536 -0.08648541 -0.09776807 0.17702295 0.1286271 -0.061667774 -0.07282557 0.21632826 0.08351158 0.1608509 0.14595841 0.011978967 0.06551305 -0.041643273 0.1786042 -0.095451646 -0.03326983 0.0017262474 0.03532234 -0.001132737 -0.053894017 -0.05021461 -0.087153375 -0.04667819 0.038626924 0.05270017 0.030415984 0.07200362 0.11466323 -0.124671996 0.15766753 0.04346054 -0.049538538 0.065385744 -0.022745155 0.049325664 -0.044470076 0.039552327
67 0.07430359 -0.045202516 0.058996927 -0.008897397 -0.041131455 0.025922611 0.049497623 0.14278057 -0.116365284 0.03646257 0.018234363 0.03185169 0.1254448 -0.22300316 -0.04702025 0.0070815925 0.0046662353 0.018911246 0.0757522 0.103119485 -0.044433758 -0.17197447 -0.013329703 -0.13898121 0.071350016 0.1443616 -0.20753889 0.11707793 -0.050192174 0.2574896 -0.016938867 -0.019461937 0.111482434 -0.06135995 0.2197522 0.08729025 0.064687386 0.07005138 0.08088199 -0.08298631 -0.1394448 0.12118796 0.024556119 -0.06326777 0.06984541 -0.013460278 0.0795604 -0.11770793 -0.008442153 0.11245841 -0.08719197 -0.17983155 -0.106243946 -0.18934543 -0.1906602 0.063919395 -0.012826395 0.23001395 -0.120466836 0.020779882 -0.065491706 0.025910519 0.18555021 0.08804979 -0.15800264 -0.07758652 0.08645717 -0.015869664 0.0045690457 -0.014374171 0.17430015 -0.2462492 -0.103638254 0.12495141 -0.043843422 -0.07695972 0.048671797 -0.21763414 -0.0030286997 -0.071547024 -0.060416546 0.035140518 -0.024083512 -0.07505923 0.06707426 0.12964877 -0.039287522 0.1949148 -0.029948419 -0.0085116085 0.034336254 -0.16122319 -0.10873273 0.17014875 0.08532175 -0.09882367 0.011471022 0.23930119 0.06258556 0.16127619 0.21830729 0.012777399 0.06866504 0.00088780664 0.20067936 -0.14877827 0.006683034 -0.055557545 0.018295975 -0.023628436 -0.0466364 -0.060983982 -0.07392218 0.009565259 -0.015550403 0.08107036 -0.013787167 0.116800584 0.09955362 -0.06179593 0.12959288 0.0352546 -0.03231725 0.06698231 -0.01784089 -0.02534402 -0.093486026 -0.032991502
45 0.0979235 -0.08459454 0.07782623 -0.015865203 -0.00011642117 0.053102985 0.08329874 0.1312793 -0.08734272 0.031952243 -0.021749761 0.020962516 0.0764991 -0.22530437 -0.017893968 0.012980696 0.0073142154 -0.018082218 0.0881936 0.07941368 -0.02781686 -0.16517173 0.0073846914 -0.10397416 0.056582507 0.1557482 -0.20284936 0.105565764 -0.042682797 0.24458943 -0.0040766783 0.0039184997 0.06629511 -0.086874664 0.24047107 0.12491688 0.05044318 0.09887334 0.06803724 -0.07993841 -0.11909105 0.06621748 0.05164378 -0.066315286 0.05255356 0.005724947 0.10528105 -0.12009354 -0.043399133 0.13571401 -0.055035964 -0.12411744 -0.07461743 -0.21796837 -0.16026784 0.052491214 -0.0029938535 0.19027652 -0.112734444 0.023206053 -0.07849784 0.014233723 0.19565175 0.012517544 -0.119572 -0.062207628 0.12391796 0.01242668 0.028596457 -0.02739449 0.14810629 -0.22204444 -0.12936793 0.15063743 -0.05628274 -0.06762325 0.049721353 -0.21733324 0.012205049 -0.0625907 -0.07245893 -0.008314631 -0.050234355 -0.06835365 0.043383844 0.12464953 -0.022163596 0.18606141 -0.035643063 -0.010483697 0.047469445 -0.11601656 -0.133637 0.20514683 0.091937155 -0.104357004 0.026287775 0.18127331 0.05162599 0.15373565 0.21247876 -0.02821345 0.082273185 0.01948964 0.19813108 -0.1485703 0.02980805 -0.04492117 0.05896795 -0.033322368 -0.08057863 -0.07223323 -0.086734675 0.030935196 -0.0059923846 0.03281118 0.016494596 0.13977085 0.099418014 -0.076447606 0.12754883 0.050137244 -0.01641869 0.08414937 -0.030430567 -0.023700388 -0.07286064 -0.014548868
50 0.11115063 -0.0146537125 0.1039997 0.03021507 0.011446282 0.018954605 0.11832588 0.1459776 -0.06228944 -0.023982467 0.012702909 0.15643373 0.09548562 -0.2684616 -0.027270943 0.013399157 0.016715772 0.05502211 0.07734878 0.105895914 -0.045185365 -0.17142323 0.004329415 -0.24877831 0.016613988 0.107871056 -0.16037528 0.026620375 -0.020439638 0.271357 -0.06402376 0.023443474 0.024880711 -0.025724718 0.24799776 0.08242948 0.063161895 0.14041683 0.020064766 0.01049092 -0.1879218 0.12127956 0.027105099 -0.049393743 0.09527927 0.034721658 0.1021345 -0.028110135 -0.06780792 0.04855209 -0.02714928 -0.1371623 -0.06449018 -0.14644542 -0.13681236 0.043308526 -0.031534415 0.20707116 -0.05829592 0.025516812 -0.1412601 0.05314995 0.1057216 -0.017679155 -0.07416515 -0.013587574 0.061051924 0.043482985 -0.00018860395 -0.073739365 0.14442228 -0.18346106 -0.054027274 0.023635041 -0.115374744 -0.10030543 0.057243075 -0.1872531 -0.035271436 -0.09094316 -0.006104585 0.022735119 -0.082407795 -0.14188267 0.066140376 0.07742248 -0.0804564 0.26387265 -0.078534804 0.13611516 0.0016035411 -0.08790828 -0.12236712 0.15283251 0.02971361 -0.06360124 -0.036659915 0.25382528 0.13225663 0.14920849 0.14977087 0.014299464 0.06981287 -0.034699947 0.21527822 -0.06021348 -0.028143074 -0.047950972 0.029350184 -0.007983903 -0.09983978 -0.054060847 -0.06078091 -0.045569282 0.022857154 0.102314755 -0.043114133 0.059007697 0.12972131 -0.12059335 0.10323368 0.044778958 -0.010466467 0.117442295 0.041924812 0.05708266 -0.04192667 0.057178285
21 0.09647965 -0.075202696 0.067949645 -0.012829457 -0.008783292 0.027252488 0.069849096 0.13406762 -0.070536144 0.041392066 -0.0025726818 0.053717088 0.1182271 -0.21073303 -0.03172138 -0.011909863 0.009988816 0.034382064 0.08234817 0.069272675 -0.049359817 -0.17849399 -0.017621605 -0.123513445 0.04979449 0.14995356 -0.22091165 0.09742837 -0.03396567 0.2267285 -4.9464543e-05 0.022349268 0.064341195 -0.09502798 0.21349071 0.091505915 0.06201273 0.055639707 0.10997001 -0.065200955 -0.11939713 0.10033141 0.011747144 -0.06773698 0.054766636 0.017377457 0.06999543 -0.12844689 -0.046743177 0.09686241 -0.083447576 -0.16096659 -0.06930009 -0.21516804 -0.1417746 0.028055409 -0.039602574 0.23420036 -0.12579541 0.01331783 -0.063481316 -0.0010342742 0.2161154 0.028955612 -0.1498776 -0.06649714 0.08390746 0.010771114 0.017761292 -0.012111678 0.17507812 -0.23031808 -0.1351433 0.09725288 -0.05168943 -0.07946645 0.05331606 -0.21312231 -0.00663395 -0.0715304 -0.07557449 0.0480169 -0.045209818 -0.071142524 0.055763472 0.13270608 -0.030547623 0.19567873 -0.031339355 -0.019328363 0.07105471 -0.12672208 -0.09608604 0.1987354 0.12759784 -0.08707833 -0.01695771 0.20769612 0.063013315 0.17033198 0.16646028 -0.0043626735 0.07089985 -0.022267701 0.16829169 -0.13727033 -0.014100481 -0.04683465 0.049062975 -0.018317375 -0.036853127 -0.058658987 -0.09713155 -0.004203543 0.01870478 0.053834025 0.004831491 0.12704818 0.08573472 -0.09171562 0.14159925 0.048971508 -0.056337945 0.050244905 -0.016759988 -0.013049687 -0.08426538 -0.004947665
25 0.103120916 -0.078348085 0.08695853 -0.010646249 0.00967774 0.04476733 0.097559966 0.14821085 -0.08243684 0.029823542 -0.019742502 0.066299565 0.085917264 -0.22963884 -0.034689493 0.016483989 0.016095886 0.0021437507 0.08728429 0.07100656 -0.025817718 -0.16560692 0.008723853 -0.12843622 0.05736778 0.14935601 -0.20464318 0.08668039 -0.035065643 0.24435242 -0.013099468 0.005600675 0.038141824 -0.07419358 0.23814408 0.11576773 0.06444731 0.097439654 0.07159667 -0.06451486 -0.12205631 0.06645527 0.05007401 -0.06576816 0.048806094 0.022921944 0.0920402 -0.0931741 -0.057189677 0.11799727 -0.046760045 -0.11939709 -0.07842683 -0.20580432 -0.146421 0.04245936 -0.012174474 0.18532008 -0.104180485 0.016356308 -0.094544314 0.019570788 0.18162265 -0.005556486 -0.10519962 -0.044917174 0.10536519 0.018768318 0.023177862 -0.04346541 0.13477865 -0.20579816 -0.12707622 0.12932174 -0.069455326 -0.068349876 0.05358257 -0.2049046 0.006492928 -0.062111378 -0.06777977 -0.0074076504 -0.06690286 -0.074106604 0.052014098 0.104734376 -0.033676516 0.19970481 -0.054253343 0.017287578 0.04015399 -0.10336752 -0.13023171 0.20340575 0.0949305 -0.099238075 0.0085191205 0.17899077 0.06391742 0.14616543 0.19479893 -0.02398467 0.091312245 -0.0045119207 0.19653098 -0.13274467 0.020035364 -0.042248122 0.053566527 -0.027406693 -0.08842088 -0.066886485 -0.09172935 0.020735145 -0.00041988515 0.044320147 0.021183927 0.12222501 0.09981814 -0.08861877 0.12927417 0.045335412 -0.025276445 0.08494964 -0.021610096 -0.0032277042 -0.056095544 0.0069030323
54 0.09984062 -0.07153796 0.06910665 -0.008636076 0.0015343085 0.025221687 0.075895295 0.13801424 -0.062484983 0.027625402 -0.0059176483 0.084263496 0.10682515 -0.22069483 -0.029032987 -0.0033838595 0.011537863 0.04114298 0.083544455 0.08549864 -0.04849153 -0.17925711 -0.0021907398 -0.15684848 0.044074014 0.14269209 -0.21368724 0.09124595 -0.03123524 0.24088657 -0.020253746 0.027954027 0.0552282 -0.073841766 0.22269173 0.09975047 0.06346768 0.07015798 0.082826726 -0.040464748 -0.12847427 0.10501991 0.025595168 -0.059863962 0.057981677 0.021006286 0.07770382 -0.10701326 -0.044367988 0.08077548 -0.07489607 -0.15223931 -0.068965465 -0.19544664 -0.14169805 0.01815301 -0.03891056 0.22691283 -0.10194654 0.019612242 -0.070221566 0.0132896295 0.19756329 0.021568872 -0.13754325 -0.05897266 0.073118486 0.0133142825 0.0072671166 -0.035989396 0.16971542 -0.21866396 -0.11729568 0.08031466 -0.07215773 -0.08489753 0.062321022 -0.21831293 -0.013376639 -0.074652165 -0.056524355 0.045700684 -0.042053487 -0.08253015 0.063908175 0.12532224 -0.042301316 0.20379518 -0.05271502 0.009547044 0.061999626 -0.11465123 -0.10267013 0.19784312 0.104583494 -0.08639411 -0.019061435 0.21090524 0.08075082 0.16078942 0.16488385 -0.00097200344 0.061204348 -0.01816031 0.18898861 -0.12460701 -0.022211844 -0.044229444 0.048469167 -0.0111491475 -0.04513626 -0.06258215 -0.078246616 -0.014463822 0.012881505 0.050128203 -0.003232958 0.11244805 0.100870065 -0.09919192 0.14348577 0.047322553 -0.052833743 0.07183735 -0.00076539384 0.014092462 -0.07597989 8.1647435e-05
2 0.07720051 -0.047065426 0.0762099 -0.04233813 0.008213986 0.01768425 0.07838574 0.15043224 -0.06638412 0.06750386 0.004484091 0.04941703 0.15458795 -0.2157883 -0.057392195 -0.021755114 0.04191753 0.05381531 0.11884253 0.020328017 -0.021337656 -0.1663878 -0.06820753 -0.12145636 0.04479396 0.1289052 -0.22870614 0.08650447 -0.041160703 0.258364 0.02958439 0.02264465 0.040099997 -0.10363604 0.23307493 0.091890946 0.05626648 0.0784505 0.08427469 -0.06594289 -0.10557379 0.11431732 -0.020150153 -0.057927243 0.06583798 0.044620354 0.055069108 -0.10772091 -0.058617674 0.1348276 -0.07342809 -0.16634853 -0.06323516 -0.24165487 -0.1320338 0.00971619 -0.017482067 0.22413687 -0.11244074 0.019243067 -0.04489455 -0.0075053005 0.21498172 0.037647612 -0.14410298 -0.06653165 0.105911024 0.016699975 0.012127379 -0.0036294737 0.12979412 -0.23285449 -0.14749666 0.09071195 -0.077629544 -0.06447243 0.03033863 -0.21596514 0.020041227 -0.051924895 -0.079372175 0.049060863 -0.072867684 -0.05320786 0.043076206 0.109425366 -0.016431645 0.20655221 -0.021222806 -0.014606989 0.09897947 -0.12891875 -0.09614064 0.19732685 0.16083848 -0.08049526 -0.032068975 0.21640421 0.051079184 0.18397386 0.18710735 -0.0073003336 0.07711558 -0.014131394 0.18077324 -0.14036135 -0.009399963 -0.008856707 0.05890376 -0.025479482 -0.053756464 -0.047726694 -0.10987244 0.00043669326 0.034279216 0.042543735 0.037136782 0.13092381 0.08502542 -0.09750579 0.18475254 0.06363988 -0.06901037 0.03338586 -0.037144136 0.00882982 -0.08276192 0.0038149396
72 0.077281885 -0.02781195 0.07401353 -0.007773371 0.013980919 0.017302463 0.09269839 0.13491538 -0.05437443 0.023233447 0.0068733376 0.11779757 0.11191098 -0.22388674 -0.048419848 0.003778554 0.033707887 0.048643906 0.08023431 0.05553028 -0.028041514 -0.14844324 -0.009719021 -0.17293534 0.032745007 0.103222445 -0.18643591 0.04928249 -0.024962595 0.25612065 -0.02412841 0.021531066 0.019555261 -0.07606771 0.22432315 0.09441308 0.06922579 0.09301976 0.06340265 -0.022388536 -0.12853248 0.10054947 0.019054823 -0.04111989 0.0650293 0.039475534 0.05772195 -0.06902954 -0.083937906 0.08864594 -0.041759253 -0.15661746 -0.066161506 -0.19885464 -0.12940148 0.011358462 -0.01627803 0.19413121 -0.08821988 0.011041342 -0.09734562 0.01665167 0.16027574 -0.010650851 -0.106707774 -0.046458475 0.076558515 0.04629898 0.007065765 -0.04381432 0.13173226 -0.19361399 -0.10282511 0.06796928 -0.09782203 -0.075580016 0.039901197 -0.18584447 -0.009580205 -0.06823467 -0.07181728 0.018387951 -0.08072576 -0.09800302 0.068120845 0.088624425 -0.04568357 0.22119068 -0.06363427 0.061505016 0.04721416 -0.09205498 -0.12528403 0.18855695 0.10682664 -0.09005987 -0.031408682 0.2136661 0.09921354 0.14955316 0.16500776 0.0030662143 0.083119966 -0.0270711 0.18796848 -0.10454677 -0.017611956 -0.018238598 0.03620272 -0.004516158 -0.07440937 -0.060528602 -0.08018262 -0.0132030165 0.029494649 0.053557433 0.017464036 0.094166465 0.11243931 -0.12096169 0.13894911 0.033611324 -0.047180224 0.08741112 0.0014949245 0.027547302 -0.041695077 0.020045053
22 0.07641713 -0.02978387 0.079697974 -0.017999612 0.008403951 -0.008671686 0.10295454 0.17007202 -0.051382013 0.07342686 0.006676205 0.1109358 0.124449946 -0.2066634 -0.074528806 -0.0092691155 0.056004696 0.0715092 0.10007711 0.005047941 -0.033375297 -0.14953831 -0.035581175 -0.15372813 0.025579311 0.11002631 -0.2144832 0.05382942 -0.010975632 0.23767199 0.010016553 0.018619312 0.014335196 -0.11134641 0.19178891 0.07176482 0.08337293 0.06907861 0.11540705 -0.028369796 -0.102588594 0.10316935 -0.0043559875 -0.0224182 0.063323244 0.049643394 0.024399249 -0.08240393 -0.09416535 0.09946475 -0.02776616 -0.16584027 -0.042524874 -0.22548926 -0.12178579 -0.0046382034 -0.017607309 0.19459325 -0.12341824 0.005526912 -0.08020176 -0.029020915 0.16193318 -0.026309712 -0.116510145 -0.036798373 0.080933325 0.041092165 0.012713633 -0.01582424 0.12032199 -0.19649191 -0.124145314 0.072613664 -0.08108988 -0.06189943 0.017539037 -0.17815025 0.021752086 -0.043643028 -0.10423046 0.007349446 -0.102997325 -0.084770925 0.07514322 0.088974796 -0.034967143 0.19656625 -0.0535262 0.038383022 0.069468945 -0.09274442 -0.13402836 0.20409034 0.16337764 -0.10342125 -0.036161453 0.20523724 0.098881334 0.16871831 0.15515512 0.0064300643 0.08848449 -0.057494137 0.14743166 -0.120170414 -0.019828713 -0.019550322 0.047243487 -0.004891037 -0.04816419 -0.06024001 -0.10336585 -0.006586109 0.052427158 0.029787356 0.03610912 0.08865468 0.10489608 -0.12944268 0.13626319 0.038838547 -0.063290186 0.06408306 -0.02893652 -0.007678465 -0.035348352 -0.0057069347
69 0.07705619 -0.014587199 0.080615796 -0.0012978123 0.010666443 -0.005781928 0.095387526 0.13649344 -0.054994036 0.027847083 0.009640634 0.12994291 0.116444215 -0.22129788 -0.06793256 0.006417112 0.045510627 0.07430932 0.0839852 0.04420574 -0.03506189 -0.14564592 -0.0077034915 -0.18479037 0.030301593 0.09757353 -0.1877618 0.042178627 -0.022437904 0.25269502 -0.02223353 0.024832275 0.0061534513 -0.0794093 0.21172667 0.079912975 0.07984173 0.08601541 0.0741768 -0.015841944 -0.12671 0.1033725 0.0128674265 -0.02877214 0.07507126 0.043545898 0.04974925 -0.061691806 -0.094468355 0.082517155 -0.03716581 -0.1536991 -0.061798453 -0.1991267 -0.1249481 0.009746617 -0.022841966 0.19481152 -0.09069665 0.008846473 -0.10029413 0.006452979 0.147261 -0.019972641 -0.108400494 -0.037072618 0.06540519 0.042458616 0.00338868 -0.049568687 0.12482943 -0.19475807 -0.11080802 0.059313606 -0.103996076 -0.070699185 0.03432104 -0.18265587 -0.0046527893 -0.06650781 -0.07356915 0.019310009 -0.0877092 -0.10484517 0.07709142 0.08141246 -0.048863217 0.2220427 -0.067155346 0.070154876 0.050998967 -0.08212719 -0.13060796 0.18541452 0.11752945 -0.08991444 -0.049905226 0.22079578 0.103824265 0.15730843 0.15664776 0.013790314 0.08359741 -0.040538643 0.18074305 -0.10053411 -0.024688162 -0.019845424 0.031600043 0.003247252 -0.06568323 -0.05947213 -0.082161605 -0.02433792 0.036143653 0.05116786 0.018545154 0.079411924 0.11991944 -0.13376746 0.13399713 0.026369007 -0.049890064 0.09366842 0.0016770017 0.02192577 -0.032407567 0.022849912
58 0.07092268 -0.031476926 0.08159285 -0.017153824 0.0006299671 0.002761649 0.10022909 0.1521766 -0.06288052 0.051735535 0.009723481 0.10349088 0.11378875 -0.21759138 -0.06485386 -0.006477538 0.044010047 0.06515893 0.09414499 0.031142496 -0.037982024 -0.14436895 -0.02984455 -0.14996734 0.02643832 0.107009485 -0.20254084 0.054252323 -0.022503216 0.2437099 0.0039508766 0.023146283 0.016518151 -0.098226786 0.20569764 0.077222556 0.07143709 0.07922139 0.09552989 -0.030430181 -0.11043214 0.09594021 -0.0014623491 -0.036568202 0.06618232 0.04315308 0.038270112 -0.07724981 -0.0897724 0.096668944 -0.04010168 -0.16004954 -0.04596426 -0.21323702 -0.123225376 0.0016007457 -0.021550812 0.19489114 -0.114793286 0.013630314 -0.08597556 -0.009293943 0.16192083 -0.019846367 -0.11331406 -0.039830092 0.076748274 0.033712592 0.012750828 -0.029575748 0.12484937 -0.19098017 -0.11236434 0.07392086 -0.08328693 -0.055524163 0.019807976 -0.18149878 0.010974546 -0.049957998 -0.08793396 0.0070872144 -0.08292865 -0.07662343 0.06573572 0.08838659 -0.038413726 0.19680475 -0.05567563 0.0354377 0.061741576 -0.0986114 -0.12724535 0.1941071 0.13522613 -0.09445888 -0.034635372 0.20556605 0.09221058 0.15880206 0.1635725 0.007702678 0.08605018 -0.043109834 0.16206625 -0.1174179 -0.013658077 -0.022220219 0.052277543 -0.009176149 -0.05303249 -0.06068265 -0.09706068 -0.0052208086 0.040631272 0.035174597 0.02206619 0.0976136 0.106394194 -0.12549998 0.14042567 0.039395336 -0.050722532 0.071600676 -0.01592862 0.0084312465 -0.03852404 0.002465484
57 0.08229871 -0.036188073 0.0787901 -0.008723207 0.00022773484 0.015987823 0.104370125 0.15256998 -0.062120005 0.036880035 0.0060925526 0.10438184 0.11233393 -0.22869754 -0.05365307 -0.0021255487 0.032076642 0.052437313 0.093627654 0.05206243 -0.040228184 -0.15051362 -0.01914052 -0.16655445 0.032105725 0.11351322 -0.20047055 0.060429264 -0.02742965 0.25263387 -0.015550569 0.022965029 0.02998096 -0.09069198 0.22325799 0.09357379 0.07261846 0.09280459 0.07786168 -0.032498218 -0.12708735 0.099347934 0.009735895 -0.04923337 0.06426352 0.038556714 0.05461458 -0.07800308 -0.084698305 0.09470585 -0.049980324 -0.15391463 -0.061290476 -0.21068949 -0.13055448 0.010158949 -0.02100504 0.20375422 -0.103294924 0.011563027 -0.09603803 0.0030700075 0.17079936 -0.009165094 -0.11580714 -0.043040402 0.084690526 0.043895394 0.0065707127 -0.03389589 0.1394167 -0.19645196 -0.11007316 0.08279211 -0.090397626 -0.070979536 0.03686183 -0.19499686 -0.0018271683 -0.060068607 -0.08345692 0.010600929 -0.080136344 -0.0869472 0.06649677 0.09839786 -0.044863507 0.2126341 -0.058431182 0.048754018 0.057473294 -0.099871434 -0.12834439 0.1940981 0.120532036 -0.09905291 -0.02614218 0.22010335 0.09610643 0.16018333 0.16767895 0.0032833694 0.090278484 -0.033608448 0.1826359 -0.110145256 -0.016015926 -0.02189217 0.048497766 -0.008021545 -0.065343164 -0.06334052 -0.09374148 -0.0033445936 0.03560362 0.045747794 0.016707884 0.108839 0.10917024 -0.11708346 0.14781655 0.03741615 -0.054631293 0.07414338 -0.005668778 0.017548984 -0.046539493 0.010940847
76 0.08514506 -0.054924957 0.08001943 -0.012856859 -0.0073227882 0.02870134 0.09676406 0.13711144 -0.06741822 0.036451265 -0.0025669967 0.07127755 0.10958003 -0.22652692 -0.040788695 -0.004039813 0.02757827 0.033490386 0.092170015 0.05694213 -0.035271745 -0.15346274 -0.024261463 -0.14687479 0.033152636 0.120473884 -0.20256937 0.06969814 -0.026434122 0.24902491 -0.0037529895 0.023176096 0.042555854 -0.092233576 0.2205355 0.09328222 0.05905768 0.088983916 0.08379929 -0.042124264 -0.12214137 0.09781203 0.012931337 -0.05694234 0.061568495 0.02953761 0.06440682 -0.092625305 -0.07457271 0.10167022 -0.056851875 -0.15361188 -0.05845543 -0.2199522 -0.13100791 0.017129924 -0.02366749 0.20614304 -0.109306835 0.013522654 -0.08745916 0.0046385513 0.17942913 -0.0007663714 -0.11819459 -0.05145459 0.09214958 0.032037415 0.013612681 -0.033427764 0.13993709 -0.20155421 -0.10931052 0.097211294 -0.07789753 -0.0645744 0.035769675 -0.2037299 0.004529926 -0.058812432 -0.08679786 0.01502691 -0.06972982 -0.074950285 0.06257381 0.10374548 -0.039487384 0.20401399 -0.045549486 0.02658207 0.057711415 -0.108725786 -0.122192964 0.19637455 0.11608419 -0.09483648 -0.014656899 0.21052685 0.08190357 0.16357759 0.17669342 -0.0070529124 0.08629457 -0.023427268 0.18804564 -0.11871445 -0.009179232 -0.031509437 0.05476548 -0.014184127 -0.060445547 -0.062022403 -0.09251291 0.010326099 0.026971301 0.047677703 0.0148458835 0.12143498 0.100747064 -0.105437055 0.14213051 0.04824831 -0.047319535 0.067771554 -0.015611246 0.003956828 -0.060442824 0.0023323537
18 0.08538077 -0.0137405945 0.08191548 0.0005915167 0.023138676 0.0056178337 0.097715735 0.12776661 -0.041341625 0.0051413625 0.0174735 0.14713591 0.10915559 -0.23237103 -0.0504163 0.011427788 0.03566367 0.07018128 0.07788363 0.06305365 -0.027503515 -0.14094943 0.0037291083 -0.2077786 0.019829115 0.08886749 -0.17732882 0.024133127 -0.022724228 0.26242357 -0.04546666 0.031850025 -0.0038211811 -0.058067754 0.22191116 0.09427801 0.06895466 0.09869408 0.047837008 -0.0039645396 -0.13524318 0.102036454 0.028284635 -0.03148173 0.069263786 0.046912946 0.061976623 -0.04587049 -0.09563397 0.06985392 -0.03984842 -0.14867936 -0.06478423 -0.18020812 -0.116454154 0.0060089366 -0.02442722 0.18872353 -0.06262864 0.010736893 -0.10770775 0.025914384 0.13060592 -0.029295886 -0.090587184 -0.03612342 0.06409209 0.060201667 -0.00065913796 -0.06450256 0.11857841 -0.17888321 -0.096093185 0.04291082 -0.119158484 -0.08238554 0.047474056 -0.17930315 -0.013970348 -0.07636692 -0.05723477 0.018763812 -0.08808925 -0.10963702 0.076224044 0.071970604 -0.06034603 0.24037848 -0.08622343 0.09925372 0.039995022 -0.07681965 -0.12846099 0.18253748 0.09002715 -0.08065378 -0.044917975 0.2201853 0.11312911 0.14732425 0.14221649 0.016400507 0.08139371 -0.03563533 0.19457254 -0.07856549 -0.026978457 -0.016669065 0.037919305 0.008068393 -0.07819973 -0.06475523 -0.07678721 -0.035415094 0.030714579 0.057719037 0.0035396377 0.07609644 0.12885262 -0.12770525 0.13287671 0.025855554 -0.041920442 0.10039075 0.017005714 0.048307154 -0.035737604 0.040410675
63 0.09382791 -0.02483773 0.09301153 1.4062642e-05 0.015213752 0.0035425394 0.109421186 0.14798579 -0.051513635 0.015567619 0.014307014 0.15945518 0.11475669 -0.253175 -0.061589833 0.0095214695 0.040896293 0.07824674 0.08708359 0.06670659 -0.03778861 -0.15153658 0.0036879538 -0.21590707 0.023015087 0.098005965 -0.19113746 0.031469822 -0.022670804 0.26653877 -0.0416093 0.032011867 -0.0062303487 -0.0659343 0.21803233 0.09681664 0.07919877 0.094293304 0.058006436 -0.0074058957 -0.14433901 0.112536035 0.02073332 -0.032191567 0.06520051 0.043905552 0.05621779 -0.048444632 -0.10053273 0.07074615 -0.04061739 -0.15104078 -0.05607195 -0.18662535 -0.11918457 0.009936595 -0.02812836 0.19628403 -0.072682634 0.011672088 -0.116495356 0.01952027 0.13014118 -0.026906738 -0.09291777 -0.033544555 0.0600566 0.05308601 -0.0033112657 -0.06595079 0.12923512 -0.18647535 -0.093402445 0.046919335 -0.11743142 -0.08070443 0.040162787 -0.18493393 -0.017763397 -0.08023431 -0.06600169 0.01685229 -0.09243242 -0.11213945 0.08258934 0.07995897 -0.06717924 0.23693529 -0.08271309 0.098614976 0.04241061 -0.07821963 -0.12909319 0.18861793 0.09771946 -0.087721154 -0.046567008 0.22574456 0.119450204 0.14897606 0.14485967 0.0113116205 0.084578514 -0.041459143 0.19861075 -0.083771504 -0.031189464 -0.021688337 0.044671066 0.004577361 -0.06681641 -0.060855493 -0.07822934 -0.03234367 0.035124104 0.0549376 0.008010202 0.07852453 0.12544887 -0.13657957 0.13476083 0.029485771 -0.042271703 0.09935306 0.013328477 0.042696733 -0.03690661 0.035995197
64 0.0772249 -0.04688111 0.0738428 -0.020456517 -0.003080867 0.0018808044 0.10482733 0.16538285 -0.06095118 0.08144981 0.0031515833 0.08076277 0.12928732 -0.2100087 -0.06619825 -0.017482787 0.04734411 0.06442339 0.108699866 0.011218393 -0.03940105 -0.15561566 -0.044863157 -0.1295141 0.029860273 0.11858373 -0.22570996 0.069600075 -0.017430615 0.22970155 0.027518522 0.017329184 0.02799585 -0.12096138 0.19735372 0.0700045 0.07651675 0.06457109 0.12364741 -0.04641183 -0.09433904 0.09461791 -0.008828051 -0.03230923 0.05355019 0.04827048 0.027780775 -0.09434541 -0.077979594 0.10743543 -0.04425521 -0.15826723 -0.0396233 -0.23339249 -0.124283805 -0.0003444529 -0.024730384 0.20022234 -0.13240825 0.009556059 -0.07319964 -0.03395139 0.17739207 -0.010552567 -0.12728077 -0.041352056 0.088852 0.029519212 0.01662292 -0.0058120904 0.12629277 -0.20305717 -0.12731916 0.094001606 -0.064448 -0.05458076 0.010209188 -0.18678178 0.019516231 -0.04093953 -0.1100165 0.012280951 -0.087002166 -0.067965545 0.0663027 0.096093446 -0.029529138 0.18080287 -0.038081143 0.007433592 0.07224812 -0.103596464 -0.1254242 0.20702446 0.17258918 -0.105818994 -0.025185678 0.19626056 0.078967534 0.1666149 0.16316263 0.00056722085 0.090480775 -0.046020094 0.14243245 -0.13406582 -0.011321636 -0.023809925 0.051958594 -0.015266706 -0.03633589 -0.058527097 -0.105957 0.0076126223 0.052977033 0.024282016 0.03783673 0.111940235 0.08605071 -0.1177921 0.1428759 0.042825904 -0.063784584 0.043846052 -0.03427211 -0.022191027 -0.044445686 -0.016346714
40 0.08386658 -0.044014357 0.06846096 -0.010765523 0.00030731974 0.029581117 0.095322534 0.13939641 -0.0593395 0.031125236 -0.0032773376 0.08387437 0.106256254 -0.2218599 -0.036297128 -0.0060289144 0.019772783 0.03114574 0.08896294 0.051798604 -0.03437956 -0.14778562 -0.017480649 -0.14250948 0.039975267 0.121162474 -0.19399497 0.06518122 -0.029805511 0.24890812 -0.0070964033 0.017963728 0.03944188 -0.09225974 0.2315194 0.1004243 0.06424555 0.0894317 0.084837325 -0.042673785 -0.121507116 0.097182065 0.01788783 -0.049000345 0.06282766 0.034078345 0.06477277 -0.094296396 -0.07474797 0.105243914 -0.055683058 -0.1608552 -0.06401526 -0.22272156 -0.13720107 0.017251007 -0.01909514 0.2081 -0.11352398 0.0127896 -0.08776804 0.004233689 0.18416542 -0.003890304 -0.11842166 -0.052967884 0.095391065 0.041425943 0.012448527 -0.03153309 0.14524594 -0.205573 -0.11556942 0.093698055 -0.087038256 -0.06756212 0.034984525 -0.20310907 -0.00054030214 -0.062482018 -0.08687537 0.018444324 -0.07494167 -0.08020999 0.06342202 0.1084835 -0.03843501 0.212412 -0.057197116 0.034889657 0.063862756 -0.104202256 -0.1234042 0.20098495 0.12819564 -0.09694265 -0.018742505 0.21133803 0.09143479 0.16688354 0.18001595 -0.0029738375 0.0930096 -0.028767165 0.18279225 -0.123527564 -0.0076207044 -0.025541862 0.051830404 -0.018635862 -0.06584892 -0.064701326 -0.09942306 0.006476813 0.025323056 0.04709414 0.024472207 0.12193433 0.101333335 -0.10742891 0.14718743 0.042752374 -0.05548776 0.06973654 -0.014575014 0.0070034466 -0.05623009 0.007849015
52 0.0832024 -0.004883021 0.084526055 0.006396124 0.023003373 0.001435935 0.09817152 0.13000381 -0.043431703 -0.00048815372 0.015403111 0.16342454 0.11206689 -0.23739079 -0.06398638 0.015273179 0.040006112 0.073435016 0.07389468 0.06405197 -0.027761709 -0.15198135 0.014821046 -0.2253072 0.022640212 0.08729021 -0.17769356 0.023086762 -0.01958655 0.27459085 -0.047860075 0.030469704 -0.013579297 -0.05046578 0.22291782 0.09446161 0.07856802 0.10335612 0.04778749 0.006811755 -0.14335726 0.108248994 0.026019463 -0.02694172 0.07419663 0.049882323 0.06130641 -0.038336206 -0.103359476 0.06942338 -0.028958036 -0.15309627 -0.07046729 -0.17630228 -0.11753282 0.009663069 -0.022005456 0.19274478 -0.061863683 0.00729885 -0.12427988 0.02482236 0.121683046 -0.035058912 -0.08764722 -0.034980845 0.056872662 0.064832956 -0.0018524022 -0.071798615 0.12666179 -0.18578127 -0.09742658 0.032096915 -0.1353561 -0.08776343 0.050602946 -0.17982213 -0.021513699 -0.083960176 -0.052537274 0.016618157 -0.09765559 -0.12794454 0.085734054 0.073853314 -0.070314795 0.2548889 -0.09931821 0.12106132 0.03684792 -0.073573664 -0.13354953 0.18372338 0.08807758 -0.08127416 -0.05694095 0.23977655 0.12585497 0.14996202 0.14293857 0.017703256 0.08330891 -0.042324856 0.20629564 -0.076365545 -0.02855191 -0.020914814 0.03200525 0.00914508 -0.08389071 -0.064334705 -0.07204182 -0.038404077 0.03454002 0.059266727 0.0034062774 0.06417638 0.13456605 -0.14473902 0.12935142 0.019763105 -0.03985894 0.119265705 0.02011779 0.058528546 -0.027635325 0.04424492
43 0.077113196 -0.040176038 0.08109423 -0.013506049 0.0017014159 0.008794689 0.103295445 0.15803498 -0.063872516 0.04900526 0.007859884 0.095890075 0.11972279 -0.22047985 -0.055733763 -0.00543648 0.035752706 0.05310786 0.09521894 0.036831446 -0.03489461 -0.15128829 -0.024496812 -0.15245634 0.031641696 0.11464951 -0.20833431 0.062461503 -0.020531356 0.25076592 -0.0030181939 0.021026084 0.034650676 -0.10259386 0.21359693 0.08753667 0.07776248 0.08009016 0.09766721 -0.03945858 -0.1159635 0.102672026 0.006198296 -0.04246113 0.058861583 0.039535284 0.044701673 -0.08577305 -0.08156707 0.104858235 -0.051112168 -0.16056338 -0.052846424 -0.22257867 -0.13799949 0.0076316074 -0.023690104 0.20653336 -0.11933626 0.007558903 -0.08522819 -0.007825658 0.1805448 -0.011952589 -0.12706052 -0.04960445 0.08963014 0.03886347 0.010316289 -0.02489647 0.13867536 -0.207722 -0.117850654 0.091803595 -0.081202835 -0.06340725 0.024435101 -0.2003457 0.0077885096 -0.05578227 -0.1025567 0.014246073 -0.08598678 -0.0786086 0.07228041 0.10311172 -0.037009533 0.20499165 -0.050400108 0.034850895 0.058482736 -0.108119205 -0.13476884 0.20607062 0.14846641 -0.101463385 -0.02490923 0.224469 0.09502482 0.17174208 0.17251788 -0.0011861823 0.09423395 -0.03663564 0.17461772 -0.12545174 -0.017058333 -0.023375178 0.046643913 -0.01127312 -0.055796903 -0.06382222 -0.09771968 0.0016810282 0.042972762 0.039332174 0.029357057 0.108931355 0.1037855 -0.11518509 0.14589614 0.037596975 -0.05948937 0.06846776 -0.015572868 -0.001876102 -0.054491583 -0.0011480001
78 0.070231944 0.0014648318 0.08124993 -0.005461209 0.024167158 -0.021685174 0.105418384 0.14267041 -0.04483159 0.029763835 0.019985266 0.15326768 0.12239034 -0.22640346 -0.08460598 0.004816567 0.052730817 0.09291998 0.08799172 0.031967785 -0.035967637 -0.14879481 -0.004510246 -0.20675372 0.012940973 0.08473119 -0.19189113 0.02789092 -0.01607372 0.26551506 -0.021887887 0.035537727 -0.018969223 -0.078414164 0.2023055 0.07937356 0.08362806 0.08823047 0.07583855 -0.0003047216 -0.12365936 0.108531155 0.013725496 -0.01778746 0.07402341 0.0605989 0.03949983 -0.04468169 -0.11278835 0.078081094 -0.026656987 -0.15887146 -0.055339947 -0.1973105 -0.11171393 -0.0053952527 -0.022833632 0.19321385 -0.0781404 0.0044211843 -0.10475521 -0.003272916 0.13151802 -0.038669705 -0.10627802 -0.03704734 0.062271994 0.057499018 -0.0020438218 -0.051815845 0.111069426 -0.19099227 -0.10881824 0.04289727 -0.12047069 -0.07265559 0.028042372 -0.17201482 0.0028068167 -0.07250429 -0.07635625 0.012040071 -0.10092218 -0.113580346 0.082000926 0.06854906 -0.06045255 0.23417154 -0.07956232 0.0882173 0.052083153 -0.07150311 -0.13805811 0.19653669 0.123070665 -0.09048588 -0.059745416 0.22748978 0.11830165 0.15663831 0.14107454 0.019565992 0.082864776 -0.055559635 0.1795559 -0.089053646 -0.036508676 -0.012995049 0.037101503 0.010197278 -0.06484451 -0.05664135 -0.07966856 -0.036074053 0.045476258 0.041479927 0.017558806 0.06507043 0.13045442 -0.14859697 0.13040012 0.025082776 -0.04525701 0.10067749 0.0034462383 0.035667535 -0.020998836 0.03350799
7 0.08352145 -0.020213414 0.07976374 -0.001343294 0.015113773 0.008643823 0.09648713 0.13269964 -0.05019558 0.0141691975 0.013117156 0.1313301 0.1106193 -0.23257984 -0.056462202 0.0040031145 0.03784151 0.06523927 0.087419756 0.059076212 -0.033370495 -0.15194792 -0.0014060334 -0.18972154 0.02591528 0.10131491 -0.1918916 0.040234193 -0.024508175 0.2644428 -0.02592129 0.029433146 0.008449647 -0.06840693 0.21823715 0.09606344 0.06929606 0.08920178 0.06164965 -0.015015067 -0.1374113 0.10957424 0.020625666 -0.03302579 0.07407646 0.040123116 0.05701739 -0.06219342 -0.09053067 0.07696529 -0.044909623 -0.15507133 -0.063673414 -0.19477369 -0.12514327 0.009315243 -0.024723675 0.20312162 -0.08156865 0.014224411 -0.10063251 0.015942764 0.1506129 -0.018216029 -0.10288598 -0.03837472 0.06436069 0.04434529 0.0033702715 -0.05454085 0.12750098 -0.1926944 -0.10246894 0.055884235 -0.11136448 -0.078025244 0.040457003 -0.19139425 -0.012444449 -0.073029935 -0.065211 0.017774256 -0.08422139 -0.10034204 0.07426553 0.081923924 -0.056254618 0.22829038 -0.07608551 0.074231915 0.04798352 -0.08507731 -0.12885739 0.1915215 0.106948495 -0.081975915 -0.044077855 0.21966684 0.10768122 0.15447001 0.1525261 0.008043467 0.080169775 -0.03629799 0.19157179 -0.0914907 -0.026767742 -0.02630855 0.043850943 -0.00018839326 -0.06923803 -0.06316267 -0.08187642 -0.024597602 0.029547915 0.05153745 0.0066059222 0.081623614 0.118387476 -0.13009916 0.13495715 0.033311922 -0.045376148 0.09525879 0.0023749708 0.038208243 -0.043632444 0.029530289
36 0.079495184 -0.031118242 0.07669725 -0.017098073 0.011978701 0.008311204 0.09393661 0.13709514 -0.059844438 0.03612593 0.0036223303 0.096068405 0.12216985 -0.22019033 -0.055720445 -5.0914146e-05 0.034660805 0.056225006 0.0884894 0.04486051 -0.03391367 -0.15331936 -0.017195014 -0.15493955 0.0336927 0.107112765 -0.20209816 0.056665894 -0.025297677 0.25316897 -0.006851165 0.020816352 0.024545005 -0.091603614 0.22140527 0.091859974 0.069248326 0.084507234 0.083237395 -0.039003722 -0.11966749 0.10189296 0.015044085 -0.03747594 0.06196939 0.038776744 0.05536853 -0.07580095 -0.08381942 0.10193295 -0.04804156 -0.15758543 -0.06205149 -0.21193543 -0.12564029 0.009166791 -0.017928997 0.19944222 -0.10393982 0.011531586 -0.08250036 0.0014651563 0.16947095 -0.0053451634 -0.11839071 -0.049796324 0.087442 0.036683146 0.0067338473 -0.032908536 0.13477992 -0.20646293 -0.119765416 0.07524623 -0.08854538 -0.07129856 0.03165925 -0.19821483 0.0026290144 -0.062241796 -0.08659623 0.01833767 -0.08218624 -0.08488132 0.06301641 0.09358418 -0.037395667 0.21740386 -0.057884067 0.044245265 0.06543379 -0.09453972 -0.122208044 0.20046997 0.1326635 -0.09138305 -0.033399265 0.21603654 0.088243075 0.16593768 0.16538766 0.0002653737 0.08923536 -0.035529923 0.18025772 -0.11692542 -0.01722547 -0.021746513 0.047557928 -0.0080264835 -0.06269875 -0.057912577 -0.09658624 -0.010060857 0.032950718 0.045185614 0.022381667 0.100851975 0.11191471 -0.11984651 0.14646605 0.037361156 -0.057034653 0.07606945 -0.015938984 0.013187221 -0.045640353 0.006592298
56 0.07858999 -0.017726263 0.07993034 -0.015508711 0.009011429 -0.012638411 0.10429915 0.15660883 -0.057907775 0.051535398 0.015853172 0.115459956 0.12454739 -0.21007124 -0.07398346 -0.0030419352 0.046030197 0.07899462 0.08941051 0.019682268 -0.034665935 -0.14587498 -0.024270406 -0.16776827 0.021107472 0.10234924 -0.20203638 0.045170836 -0.01717999 0.24248864 -0.0043942295 0.024788354 0.008769979 -0.09248336 0.19644548 0.07488033 0.08036778 0.075403094 0.09588324 -0.026137138 -0.113977335 0.10650673 0.004411027 -0.025112342 0.065240964 0.051970057 0.036379874 -0.06991334 -0.09371117 0.09296707 -0.03627289 -0.16341062 -0.051456187 -0.21275903 -0.117845185 0.0006634171 -0.019772388 0.19661696 -0.10571406 0.007232016 -0.09055054 -0.017838623 0.15353377 -0.020493975 -0.11785199 -0.03641386 0.0728346 0.04077415 0.010544903 -0.029503454 0.12384287 -0.19675376 -0.11629595 0.06553741 -0.09034226 -0.0682354 0.024419231 -0.17832914 0.0061871894 -0.056397904 -0.085715376 0.015622443 -0.09567935 -0.09623694 0.07416805 0.08031675 -0.0396283 0.20880872 -0.059433702 0.052951045 0.057002608 -0.08673835 -0.1252875 0.19236307 0.14470597 -0.09010713 -0.03918405 0.21468939 0.09919094 0.16159625 0.15225543 0.010163193 0.083907366 -0.04675884 0.16262577 -0.11464308 -0.02335104 -0.018796787 0.043089613 -0.00021666264 -0.055672012 -0.057283595 -0.09345468 -0.018838018 0.04450474 0.041725732 0.02762311 0.08418951 0.114174485 -0.1257953 0.13177624 0.032075625 -0.05365613 0.076776914 -0.016811542 0.0071068965 -0.036923513 0.006216311
3 0.07350625 -0.028469156 0.0770638 -0.014786366 0.005943742 0.010478816 0.08840786 0.13590126 -0.061300755 0.03735629 0.008456443 0.093421616 0.10921117 -0.2183592 -0.052951723 -0.004050741 0.03485538 0.05431716 0.08561965 0.043649126 -0.03419186 -0.14595515 -0.021746969 -0.15240085 0.028987924 0.105946615 -0.19543858 0.055619907 -0.021282181 0.24846944 -0.008104476 0.023937648 0.025144143 -0.088503644 0.21217759 0.08674758 0.073686086 0.0772266 0.08508835 -0.03408093 -0.115914136 0.09752355 0.011488877 -0.03684544 0.065462746 0.037656695 0.048434142 -0.07722162 -0.08710175 0.09221333 -0.0536412 -0.15726496 -0.058541425 -0.20871691 -0.13199115 0.011885749 -0.017332697 0.19957073 -0.10852565 0.013081592 -0.087153986 0.0013117932 0.16193923 -0.012035908 -0.12136273 -0.044416983 0.07778368 0.036207866 0.00923756 -0.035648827 0.13318291 -0.20129868 -0.1150412 0.08144229 -0.08467308 -0.06391585 0.03348059 -0.18751395 -0.0002142227 -0.05869238 -0.08720359 0.013835427 -0.07543695 -0.08517556 0.067282036 0.09450927 -0.04195272 0.20706679 -0.05740398 0.03974226 0.053763404 -0.10170723 -0.12223658 0.19545789 0.13164903 -0.09192856 -0.030811675 0.21388738 0.0888739 0.16318525 0.16699804 0.008211417 0.08828462 -0.033197716 0.17685992 -0.11184837 -0.015674684 -0.0199878 0.04397879 -0.008897252 -0.055413473 -0.05842513 -0.0947999 -0.0078436425 0.03648215 0.04070651 0.021170052 0.099704765 0.110619925 -0.113355674 0.13789192 0.031811707 -0.053053677 0.07173237 -0.008621703 0.0068331747 -0.046720687 0.0055067246
14 0.07617352 -0.03518262 0.07209077 -0.011827825 -0.0039752834 0.013646575 0.09383739 0.14170425 -0.056576926 0.037585422 0.011729625 0.0986137 0.114733174 -0.22685654 -0.05783639 -0.0047348184 0.037309375 0.060748674 0.09251088 0.051671308 -0.036882035 -0.14612262 -0.026264256 -0.16151373 0.029902816 0.11258038 -0.20322068 0.056131445 -0.025919406 0.25025168 -0.0064585637 0.021461874 0.026372151 -0.0938324 0.21022195 0.087070785 0.07244297 0.084067024 0.0863537 -0.03714366 -0.12017725 0.10194286 0.0053588646 -0.03964018 0.060745705 0.03830862 0.043338362 -0.08116304 -0.08270717 0.09363953 -0.051063333 -0.16022706 -0.05230594 -0.2123633 -0.12970568 0.0113331415 -0.027688675 0.20592742 -0.108284354 0.009146772 -0.0892778 -0.0032575987 0.16982046 -0.011141665 -0.11946757 -0.04549546 0.07670593 0.036007263 0.005929018 -0.031504087 0.13880737 -0.19782574 -0.106832325 0.079823665 -0.08343074 -0.0691615 0.025909891 -0.19751774 0.0007453866 -0.0605168 -0.09564981 0.017231442 -0.07750883 -0.0834947 0.07523632 0.09971588 -0.044556964 0.2052963 -0.060133487 0.044886637 0.060174253 -0.105705336 -0.12727125 0.1996338 0.13356948 -0.100679465 -0.029589282 0.21915469 0.09769179 0.16224056 0.16656786 0.0053158314 0.0896308 -0.031762317 0.1747613 -0.11628098 -0.017126866 -0.027001893 0.048410445 -0.0089592 -0.057521272 -0.05929509 -0.09760342 -0.0009374256 0.04000245 0.047861222 0.017574636 0.10429353 0.10720359 -0.118426226 0.14321633 0.039362755 -0.059539016 0.06852077 -0.012435559 0.003757208 -0.05198129 0.0076356675
59 0.08210391 -0.046227135 0.07929458 -0.018771406 0.00010552476 -0.0008854216 0.104099266 0.16966808 -0.071541496 0.07824951 0.0037359716 0.0781904 0.12086401 -0.2116762 -0.06440906 -0.014066867 0.047452196 0.054200277 0.09837604 0.019891763 -0.03759289 -0.15448926 -0.034270737 -0.1316409 0.036503855 0.122165814 -0.21561207 0.07431714 -0.014301862 0.23185356 0.017149635 0.015167257 0.037136413 -0.11279838 0.19278641 0.0726614 0.077733204 0.069874 0.116815336 -0.048069995 -0.09521695 0.092865594 0.004465424 -0.034950443 0.058352165 0.038125314 0.036042895 -0.09586819 -0.0798963 0.10609932 -0.041324113 -0.15884279 -0.045955576 -0.22447105 -0.12878549 0.00035942887 -0.017060721 0.19238658 -0.13349694 0.006818205 -0.07362715 -0.024737563 0.17365555 -0.011733447 -0.12386714 -0.040733606 0.08785282 0.026140073 0.013332764 -0.014259997 0.13097806 -0.20603989 -0.122988455 0.09211214 -0.065493815 -0.056507953 0.015712049 -0.18952663 0.02090885 -0.049069215 -0.1088015 0.0028582222 -0.08804474 -0.071768895 0.06259397 0.09752512 -0.031191628 0.18621023 -0.039426234 0.013707055 0.06326171 -0.10249689 -0.13319023 0.20446903 0.1599087 -0.10299239 -0.017056208 0.19947903 0.081576444 0.1677164 0.169881 0.0024868194 0.08807964 -0.036892917 0.14756927 -0.13313873 -0.0040963013 -0.024752237 0.04914191 -0.015987802 -0.047295917 -0.06365228 -0.10603562 0.00263732 0.044493537 0.029818512 0.035350386 0.10567444 0.09251081 -0.10765975 0.13762225 0.040948085 -0.055918973 0.055850957 -0.030869406 -0.025024096 -0.041569795 -0.009902903
48 0.08529022 -0.02791979 0.07951824 -0.003784796 0.009554637 0.00806729 0.09404856 0.14431158 -0.065544754 0.02636911 0.01066121 0.11095821 0.10659161 -0.22328822 -0.059981577 0.0075629335 0.034458376 0.056807954 0.086164095 0.051949542 -0.02859967 -0.1546368 -0.003352922 -0.16836835 0.030729562 0.11027372 -0.19568005 0.05397856 -0.024437511 0.25659367 -0.018983644 0.015079883 0.01741694 -0.07599707 0.22301841 0.09331553 0.07061035 0.091148235 0.07614509 -0.032313272 -0.12392543 0.10275961 0.020766675 -0.030652849 0.07364059 0.035607602 0.064626604 -0.0728431 -0.08129461 0.09135998 -0.043337516 -0.15433283 -0.06598448 -0.20017555 -0.13772202 0.013192586 -0.013263555 0.19910465 -0.09541857 0.0124846175 -0.09093241 0.008844373 0.15585813 -0.011427661 -0.11330406 -0.048589647 0.07612526 0.041456502 0.007625659 -0.045739546 0.13373037 -0.20132282 -0.11412792 0.07732722 -0.099736325 -0.07472574 0.039669927 -0.18996964 0.0008795409 -0.06338495 -0.069697164 0.01843472 -0.08393739 -0.099972054 0.06553666 0.08735678 -0.04668785 0.22037219 -0.06937455 0.055081964 0.051016405 -0.09345343 -0.12595563 0.19440421 0.114123486 -0.09259023 -0.031582095 0.22045648 0.09962493 0.15654173 0.16629675 0.0045675505 0.081992455 -0.027312595 0.19047777 -0.11181913 -0.016193885 -0.02446844 0.0371325 -0.0077484846 -0.06629586 -0.060882676 -0.081256926 -0.015227055 0.025372148 0.05065765 0.01910643 0.09003376 0.11845377 -0.11992243 0.13370326 0.029301742 -0.0420189 0.091261744 -0.0051356237 0.017028185 -0.04528091 0.017549843
39 0.074306555 -0.044175413 0.06973988 -0.00815384 -0.00056770287 0.027180117 0.086697236 0.11979476 -0.05263632 0.011352839 0.004466909 0.084987216 0.10026396 -0.2213604 -0.031379648 -0.0037127263 0.021805014 0.04044951 0.08458726 0.07008428 -0.029391322 -0.14364146 -0.01473134 -0.15979025 0.034840923 0.107555 -0.17886329 0.056138013 -0.028620997 0.2493555 -0.023849282 0.02085024 0.033932067 -0.078526564 0.22143528 0.097691774 0.060277194 0.0907523 0.06331014 -0.034171473 -0.13241944 0.10319164 0.014448508 -0.05186505 0.061605196 0.026632642 0.07123455 -0.08131272 -0.07034211 0.09068724 -0.061512735 -0.14586677 -0.06554647 -0.19960019 -0.12752783 0.021714251 -0.022822984 0.20253682 -0.089699976 0.013914707 -0.09531761 0.017403573 0.16520612 0.000477379 -0.11179677 -0.05034963 0.07645414 0.039167583 0.0032467993 -0.044165708 0.14018282 -0.19832663 -0.09723312 0.07371327 -0.08981254 -0.075126305 0.042888466 -0.20165564 -0.011392472 -0.06648906 -0.070511684 0.025101546 -0.062441114 -0.083181374 0.06702569 0.1005538 -0.049784064 0.20870827 -0.059640095 0.05320171 0.048977625 -0.10479351 -0.11726948 0.18647283 0.09837419 -0.09138806 -0.021683753 0.21948755 0.09322704 0.15319254 0.16753131 -0.0051495964 0.08081636 -0.021826606 0.19243349 -0.09918619 -0.01448773 -0.02624727 0.047263257 -0.011347158 -0.06323589 -0.054796394 -0.082216516 -0.0014087455 0.018693663 0.058238897 0.004081785 0.11323423 0.10361538 -0.10348495 0.14057428 0.043140963 -0.047505237 0.07633169 -0.0013872244 0.023093501 -0.05507378 0.018914504
26 0.08215364 -0.042105928 0.08158177 -0.027043412 -0.0026536009 0.005705365 0.10511976 0.16987318 -0.06468581 0.07408654 0.005316096 0.0813349 0.13292369 -0.22061577 -0.06831576 -0.019335514 0.045372985 0.056138933 0.11078506 0.016304558 -0.037711974 -0.15677106 -0.043208197 -0.13896753 0.035209298 0.121666014 -0.22217211 0.07277973 -0.01931404 0.24452652 0.018576762 0.014411526 0.039969064 -0.11604246 0.20616087 0.0756452 0.07437868 0.07556803 0.12095052 -0.052810207 -0.10079557 0.10495211 -0.0010022487 -0.03866154 0.059228547 0.04417674 0.033826005 -0.09653132 -0.08138631 0.114604086 -0.0526252 -0.16768667 -0.050407283 -0.2339696 -0.13548513 0.0031090232 -0.016016489 0.20751294 -0.1425494 0.0077044843 -0.07769603 -0.031624038 0.18626976 -0.009116814 -0.13387315 -0.049642768 0.092182696 0.03445884 0.01396878 -0.007578845 0.14066505 -0.21323973 -0.13356833 0.09291658 -0.0698964 -0.056031413 0.013700234 -0.19565955 0.017503548 -0.04948297 -0.11794456 0.005076755 -0.092463896 -0.07010207 0.06433894 0.101047 -0.033362124 0.19276091 -0.04414453 0.015618662 0.070377626 -0.11160164 -0.13104966 0.21045104 0.1712561 -0.107038565 -0.025300594 0.2145434 0.08745504 0.1766236 0.1766861 0.0022140741 0.09576907 -0.045897093 0.15739667 -0.13783175 -0.01342325 -0.027980816 0.05428382 -0.019681964 -0.044798557 -0.06147454 -0.11023339 0.0111021325 0.05015309 0.033675898 0.0408844 0.11341398 0.09610248 -0.119268805 0.14450034 0.044820614 -0.068337105 0.05591262 -0.03412556 -0.016806498 -0.048945714 -0.015204735
53 0.0807441 -0.042785455 0.07837683 -0.011793046 0.0045416094 0.013896792 0.094636075 0.14784984 -0.062442698 0.040755976 0.00088953273 0.09647077 0.1147005 -0.22562924 -0.055195086 -0.002670808 0.038540564 0.052800324 0.09906991 0.043987367 -0.030801676 -0.15677688 -0.02349727 -0.15869562 0.035978068 0.11642573 -0.20578827 0.06295821 -0.026739273 0.24880527 -0.0029426634 0.02653148 0.02259498 -0.09115454 0.21529034 0.09169351 0.0713361 0.08888894 0.08243811 -0.039267715 -0.11943456 0.09490998 0.012649765 -0.04421762 0.05766645 0.041744348 0.05597243 -0.08162878 -0.07941335 0.096928775 -0.043156136 -0.14884186 -0.05364258 -0.21248199 -0.12276327 0.008516515 -0.025464233 0.19291413 -0.10104871 0.014166901 -0.08483605 0.00031012655 0.16397849 -0.011315176 -0.10887749 -0.04525586 0.08447271 0.031090163 0.0109137995 -0.030609699 0.13135743 -0.19831546 -0.11435998 0.08052493 -0.08483886 -0.06571228 0.030058788 -0.1914115 0.00022393164 -0.06289175 -0.08179849 0.014531359 -0.08271073 -0.08139365 0.06003838 0.09034759 -0.037385214 0.20352621 -0.052198485 0.035271395 0.056634337 -0.10217025 -0.12469482 0.19445293 0.12829857 -0.08828246 -0.020818725 0.20680381 0.0906834 0.15945426 0.161482 -0.0014896843 0.08870492 -0.03188422 0.1765036 -0.11461501 -0.007719116 -0.022490498 0.048798338 -0.012933622 -0.060445152 -0.06302879 -0.095543526 -0.0009278582 0.031740922 0.046051696 0.025105387 0.10624909 0.0983905 -0.1142507 0.14446484 0.040778138 -0.049335808 0.073622406 -0.019650295 0.00869392 -0.047219835 0.012840688
24 0.08681688 -0.04378715 0.086362086 -0.010244558 0.0038332585 0.008741353 0.11136007 0.16541864 -0.05931043 0.044776887 0.0037905013 0.11491563 0.12545773 -0.23783714 -0.058827143 -0.0067624925 0.039750014 0.059203956 0.09723782 0.04436899 -0.03707876 -0.14912944 -0.024556091 -0.16870274 0.032195665 0.11654127 -0.20741573 0.057643916 -0.017950559 0.24182564 -0.0034624957 0.023509003 0.01813934 -0.09341851 0.21030441 0.085651204 0.07399821 0.081418276 0.08458371 -0.032293208 -0.12254451 0.100659795 0.0015683506 -0.036118038 0.059104532 0.04277087 0.044245616 -0.07505283 -0.087464586 0.09047122 -0.04602041 -0.15147495 -0.04383753 -0.20929083 -0.12249753 0.0067659346 -0.025959743 0.19080648 -0.10222215 0.009087624 -0.08806412 -0.0071297614 0.16141072 -0.017888553 -0.11209473 -0.040650602 0.07283616 0.035281297 0.006534615 -0.032979503 0.13258703 -0.19597176 -0.10879656 0.07330607 -0.084553584 -0.06153267 0.031558685 -0.19090347 0.0010650597 -0.05729441 -0.09124955 0.011258442 -0.08165596 -0.08158018 0.07074544 0.092692755 -0.040902097 0.20039903 -0.0588755 0.045480367 0.061740268 -0.093452625 -0.13193992 0.19723132 0.13307492 -0.092221044 -0.029218843 0.20978385 0.09690139 0.15728255 0.15340658 -0.0011153948 0.08689404 -0.03620297 0.16690882 -0.10854776 -0.0178112 -0.027741496 0.05021773 -0.011370432 -0.055027116 -0.057675995 -0.091557644 -0.0026484702 0.040101353 0.040126417 0.023020323 0.10539205 0.10506733 -0.12125742 0.14345804 0.042433314 -0.0571953 0.068473645 -0.014032665 0.005163361 -0.043223158 0.004619295
62 0.08590474 -0.03462026 0.079536855 -0.006251867 0.0040123356 0.017367944 0.09887806 0.147602 -0.061819613 0.034429256 0.01098776 0.099629276 0.11322138 -0.22455905 -0.050397806 -0.0012149179 0.03214891 0.04998368 0.09116729 0.05596688 -0.033440165 -0.14580368 -0.011616991 -0.16495223 0.032434653 0.111394726 -0.19163956 0.05198284 -0.022947617 0.25495943 -0.01989249 0.023100551 0.029297853 -0.08637402 0.223227 0.09402736 0.07116873 0.09301367 0.06856637 -0.029903248 -0.12279376 0.10338098 0.018800939 -0.038326606 0.06463885 0.030445408 0.060580086 -0.07330569 -0.08220332 0.09373099 -0.05329447 -0.15267968 -0.059207194 -0.206419 -0.12961854 0.01683368 -0.018965907 0.19771983 -0.09828835 0.010505077 -0.09866993 0.0104456255 0.16250353 -0.007228563 -0.1117458 -0.04684523 0.079703964 0.041951004 0.008211771 -0.038300436 0.1321408 -0.19702245 -0.101513095 0.07586771 -0.09421784 -0.06844615 0.040312767 -0.19376336 -0.0012744495 -0.06617078 -0.07606193 0.012600092 -0.07463149 -0.08729121 0.06635797 0.09508987 -0.04958844 0.2094171 -0.05609163 0.05405246 0.049625773 -0.09209817 -0.12860914 0.19138417 0.113866486 -0.09427614 -0.028890826 0.21752946 0.09715316 0.15738185 0.16103667 0.0013592442 0.08774535 -0.028187286 0.18415067 -0.1014088 -0.016132943 -0.023395207 0.038625803 -0.009540749 -0.06602252 -0.060305655 -0.0886105 -0.002110189 0.030027006 0.04949837 0.016673068 0.10218872 0.10938767 -0.11256313 0.13970047 0.034054283 -0.044779643 0.08147314 -0.004240611 0.013349175 -0.04788475 0.007938723
44 0.071192734 -0.011181452 0.07855843 -0.019968174 0.009221974 -0.024274169 0.11117695 0.16779692 -0.05522865 0.07552798 0.012022412 0.123055995 0.1276356 -0.19801068 -0.08784625 -0.014561782 0.059912898 0.08637555 0.10105919 -0.0062924773 -0.04102332 -0.1389046 -0.035480052 -0.15489542 0.016137052 0.09552138 -0.21698932 0.04786341 -0.0068616755 0.23330577 0.019697327 0.027474897 0.0017754334 -0.11244473 0.17923476 0.057643883 0.08742895 0.061625097 0.119632505 -0.024665968 -0.098018035 0.10522483 -0.010766401 -0.01203465 0.067558825 0.063302204 0.01328306 -0.069605924 -0.09933182 0.090925746 -0.029853182 -0.1723999 -0.03397928 -0.22090727 -0.113143235 -0.015541276 -0.024719745 0.1948533 -0.12487179 0.0042192773 -0.079484254 -0.034603562 0.15060323 -0.03671214 -0.120284066 -0.032488022 0.071967974 0.03899989 0.014182808 -0.012305722 0.10739318 -0.19129956 -0.12670109 0.06609629 -0.083949514 -0.051993858 0.0067707147 -0.1726809 0.020303397 -0.04289698 -0.111470014 0.0100445375 -0.10727935 -0.08193256 0.07399323 0.08151774 -0.03768169 0.19350225 -0.058162645 0.0430228 0.06793063 -0.084040806 -0.13459699 0.19935797 0.17852467 -0.10151521 -0.047837682 0.20174874 0.10157569 0.16441941 0.15244715 0.013749566 0.085219875 -0.06282927 0.1411221 -0.11541433 -0.025917707 -0.021668052 0.04500091 -0.0012601074 -0.033029176 -0.055506606 -0.09706946 -0.013849502 0.06707502 0.02109696 0.035326224 0.08147331 0.10831471 -0.1405678 0.13319491 0.03436613 -0.06826523 0.06529403 -0.024787351 -0.008480766 -0.027993994 -0.0050530434
37 0.08385422 -0.03372845 0.07645211 -0.01411805 0.004951873 0.010260348 0.09029859 0.1400986 -0.06295015 0.036495373 0.0059841806 0.0885216 0.114152364 -0.20943303 -0.054811355 -0.0028167625 0.031280857 0.051686008 0.088379726 0.043140523 -0.03336053 -0.1522083 -0.014668272 -0.15137069 0.032617833 0.11374977 -0.19719388 0.061260436 -0.023778945 0.24311298 -0.0030601572 0.02059251 0.032387294 -0.087601446 0.20631696 0.08797436 0.06638437 0.077045426 0.08732088 -0.039129432 -0.1138171 0.09658674 0.013457412 -0.03954844 0.061850764 0.037347045 0.054593895 -0.080127716 -0.071098514 0.093087666 -0.04999286 -0.15443352 -0.058860697 -0.20854041 -0.13315217 0.014206161 -0.018014597 0.19795427 -0.108530134 0.009570411 -0.08512305 -0.00074311206 0.16601717 -0.004286228 -0.123037145 -0.04817396 0.079615556 0.03207134 0.0113964705 -0.028215619 0.13535689 -0.2020954 -0.115317926 0.07733603 -0.08277345 -0.067862034 0.032610137 -0.19299985 0.003105303 -0.059945464 -0.074064404 0.023228494 -0.07194848 -0.07768218 0.06795537 0.09704333 -0.04086348 0.20606117 -0.053271882 0.032099053 0.05274194 -0.09897643 -0.12157011 0.19261535 0.12374827 -0.08928493 -0.02932701 0.2044436 0.08461497 0.1591521 0.16477358 0.0050917487 0.07896918 -0.027807325 0.17336911 -0.1143727 -0.01360382 -0.023871645 0.045902338 -0.00997206 -0.059283685 -0.056607094 -0.08944317 -0.009951097 0.029324522 0.04020745 0.021042515 0.10316843 0.101107396 -0.113591835 0.1383109 0.036267135 -0.04688747 0.07254567 -0.012544032 0.008554739 -0.05457202 0.0040779016
33 0.07940179 -0.028280951 0.08121012 -0.020527009 0.013654151 -0.0042647826 0.11060596 0.16626212 -0.060664296 0.068432316 0.0039197626 0.11314959 0.12505808 -0.21292107 -0.07295357 -0.007560801 0.05639853 0.07335238 0.10251661 0.014375564 -0.035618313 -0.15427138 -0.028255964 -0.16216698 0.02460162 0.109847605 -0.21256341 0.05667869 -0.014844902 0.24146062 0.010232252 0.02741405 0.008050146 -0.104983315 0.19700909 0.07466058 0.08402889 0.077505745 0.10792812 -0.029707462 -0.10242438 0.09769516 -0.0044044284 -0.02839424 0.063964844 0.05602016 0.03068678 -0.07852399 -0.09373933 0.1006019 -0.035013244 -0.15843685 -0.046194527 -0.2223559 -0.121509045 -0.0063836914 -0.021460593 0.1950205 -0.11611745 0.010973637 -0.087306954 -0.023107292 0.16181833 -0.024604565 -0.11973742 -0.036873583 0.07751087 0.035134956 0.013912379 -0.021010045 0.11736576 -0.19598421 -0.12726994 0.07128554 -0.0871888 -0.05610686 0.019154407 -0.18250953 0.017386625 -0.050925504 -0.09925475 0.009199778 -0.09892647 -0.08563066 0.07176798 0.085898995 -0.03944687 0.20317498 -0.05827666 0.03371631 0.06923606 -0.09295157 -0.13139866 0.20714755 0.15543757 -0.098580256 -0.038889095 0.20576246 0.09446438 0.16267554 0.16086794 0.0061323135 0.085648805 -0.04665758 0.1594496 -0.11557822 -0.018828887 -0.016237251 0.050783888 -0.008261674 -0.047794867 -0.056352567 -0.100429155 -0.011292118 0.04940087 0.031119352 0.032814372 0.09337253 0.10189374 -0.13124458 0.14293975 0.04221429 -0.058696017 0.06975688 -0.018894263 0.0013315441 -0.035113018 0.00777959
28 0.08467356 -0.021003326 0.08925214 -0.0014157768 0.011149273 0.00018395956 0.10377105 0.1527547 -0.0517824 0.029258613 0.008952845 0.1399361 0.112021744 -0.23384097 -0.06290451 0.0042631053 0.04437548 0.072532855 0.09006896 0.043653727 -0.041750226 -0.14678647 -0.0052862368 -0.19187954 0.02101377 0.0954115 -0.19458286 0.038927894 -0.017351804 0.25461274 -0.02114098 0.025751315 0.0014948759 -0.08197705 0.20891176 0.08184522 0.07970905 0.09385503 0.07702649 -0.013901756 -0.13026357 0.10377352 0.017044604 -0.02928381 0.07225442 0.04903081 0.044405997 -0.059103917 -0.09858403 0.07358485 -0.03731153 -0.15547812 -0.053922582 -0.19808662 -0.117944755 0.003980267 -0.024659406 0.19098292 -0.089045905 0.007374456 -0.10676442 5.3283875e-05 0.13577731 -0.029148774 -0.10202878 -0.030737257 0.06120479 0.04922251 0.0005170145 -0.05113338 0.11974598 -0.18662572 -0.103787675 0.05748727 -0.10595469 -0.073744275 0.03445228 -0.1820925 -0.0035026653 -0.0661727 -0.07799912 0.0081969835 -0.095120795 -0.10586595 0.07685745 0.08237239 -0.059258435 0.22208959 -0.077670634 0.08311359 0.04496941 -0.08151796 -0.13296011 0.19404534 0.11307595 -0.094601944 -0.041755047 0.21736231 0.1184208 0.14998731 0.15252921 0.013164567 0.086969145 -0.045600884 0.18023124 -0.09514119 -0.023459844 -0.026761094 0.04271422 -0.0011408769 -0.06473477 -0.059324913 -0.08181067 -0.017992115 0.043003853 0.05009878 0.013669712 0.07971719 0.12359675 -0.13793635 0.13313453 0.029337378 -0.044598777 0.09356718 -0.00034612737 0.028149722 -0.03201848 0.02534132
79 0.078095585 -0.039729845 0.078395076 -0.0128814755 0.002475704 0.02000389 0.100177884 0.14125948 -0.063021526 0.03493396 0.0074202307 0.09186026 0.114163816 -0.22444572 -0.04957952 -0.008238335 0.031584736 0.050138343 0.09275797 0.045916528 -0.038108025 -0.14392832 -0.020072607 -0.1552555 0.031777162 0.11192386 -0.19511172 0.062612906 -0.023503559 0.24598801 -0.01052604 0.022209795 0.028625282 -0.0879892 0.22076982 0.090455644 0.06730276 0.083335035 0.078691505 -0.03629246 -0.11954472 0.10054868 0.01424985 -0.048646726 0.05916112 0.034388483 0.052323055 -0.078858055 -0.08264251 0.093525045 -0.05577829 -0.15628171 -0.059322305 -0.21238753 -0.12905808 0.010941448 -0.021062376 0.1961459 -0.10693178 0.009221268 -0.09490361 -0.0018581934 0.17358951 -0.004270214 -0.114713036 -0.045722976 0.08348635 0.033840526 0.012029572 -0.032989934 0.14018422 -0.19850253 -0.10967712 0.08060711 -0.08258255 -0.06886986 0.03201995 -0.1962161 0.0025124915 -0.060902547 -0.084807456 0.016302846 -0.07795895 -0.084189735 0.06636932 0.09812607 -0.04381783 0.2079285 -0.05654933 0.043766256 0.055092916 -0.10275159 -0.12948155 0.19496474 0.12112547 -0.09551834 -0.021991346 0.21216948 0.08933331 0.16249922 0.16301554 -0.0017532468 0.09292742 -0.032276884 0.17715383 -0.113932 -0.01133846 -0.027519582 0.052721627 -0.014201527 -0.05975242 -0.062021755 -0.092351355 -0.0007926852 0.03573709 0.048997197 0.019853491 0.10935866 0.10637452 -0.11318448 0.14563686 0.03897417 -0.04987509 0.07582616 -0.008701379 0.011567461 -0.05101181 0.0075079156
17 0.077615105 -0.022726888 0.07549657 -0.009049116 0.010089085 -0.005836058 0.09957818 0.1407334 -0.053088833 0.04617855 0.010026729 0.11532118 0.117390074 -0.20936237 -0.063806914 -0.0019893707 0.04837638 0.07320401 0.091047235 0.030012054 -0.034296133 -0.14201725 -0.015592856 -0.1640601 0.023785587 0.09958593 -0.19511911 0.045570605 -0.014743986 0.2433046 -0.0073682135 0.028201513 0.007165836 -0.085990645 0.19443974 0.080349624 0.075761095 0.075111054 0.086620376 -0.019279335 -0.11224532 0.098207414 0.008385871 -0.028797284 0.06742962 0.051485676 0.039412666 -0.063141495 -0.091944814 0.090930864 -0.034325525 -0.14960888 -0.0503507 -0.19813333 -0.11566707 0.0014576414 -0.019103274 0.18978249 -0.09770974 0.009055543 -0.08853851 -0.005783711 0.14523594 -0.022082856 -0.11218617 -0.035802994 0.07332494 0.043755665 0.005268609 -0.034400117 0.11595213 -0.19087134 -0.10928655 0.06252992 -0.09078417 -0.06076533 0.02667345 -0.18120039 0.008527547 -0.055399902 -0.081444114 0.011929078 -0.08829718 -0.09142729 0.07394354 0.08388703 -0.042851724 0.21062154 -0.05839374 0.05431297 0.05495936 -0.08174678 -0.1278651 0.1919178 0.12791745 -0.089883454 -0.038646728 0.20761201 0.10039792 0.15629992 0.15517904 0.009487167 0.082067706 -0.04396578 0.16505262 -0.1069956 -0.024442824 -0.016517555 0.042394865 0.0008161515 -0.054303274 -0.060442105 -0.09025568 -0.017416636 0.038062576 0.042858437 0.024728449 0.07973685 0.111492775 -0.12778352 0.13034907 0.031961717 -0.051932886 0.0799012 -0.008866522 0.011873881 -0.037976023 0.014398615
4 0.07525717 -0.032194953 0.06540697 -0.003864556 0.009411834 0.016664892 0.08938777 0.12806222 -0.04566663 0.025864637 0.010108328 0.10478665 0.108131304 -0.21200834 -0.047075555 -0.008102908 0.029066356 0.0530451 0.088682935 0.052079253 -0.037279323 -0.14345333 -0.018367516 -0.162938 0.028152972 0.10399765 -0.18650083 0.047038037 -0.025667097 0.24970058 -0.011942258 0.0234591 0.021939063 -0.08379151 0.22161107 0.08788346 0.06971757 0.08862434 0.07926836 -0.028171897 -0.12858973 0.10588677 0.0079267165 -0.03889533 0.062679075 0.039675396 0.05784729 -0.072273105 -0.087967925 0.08828351 -0.04637938 -0.1599283 -0.062488195 -0.2141735 -0.12591997 0.010006216 -0.02365124 0.20659515 -0.10222598 0.011598358 -0.096914575 0.007775476 0.16873197 -0.011056505 -0.11769515 -0.04223811 0.08102912 0.048335064 0.003137008 -0.04053035 0.13733342 -0.20035887 -0.11026937 0.072122976 -0.09998387 -0.07290388 0.036830835 -0.1948102 -0.0020702097 -0.059246097 -0.07943145 0.018705152 -0.07966848 -0.09125118 0.07013765 0.094213046 -0.045289893 0.22388881 -0.0637288 0.056382265 0.059436567 -0.09955181 -0.12399377 0.1995067 0.12682302 -0.09793011 -0.029800598 0.2238013 0.104869395 0.1680195 0.17078769 -0.0006179272 0.09150969 -0.036396712 0.18239854 -0.10797686 -0.022469398 -0.019314582 0.04280859 -0.008111615 -0.0664746 -0.056799516 -0.0910351 -0.011186875 0.03764006 0.052646253 0.02028499 0.105937324 0.10812331 -0.12560388 0.14348972 0.04093081 -0.057312105 0.078572154 -0.005795297 0.023779543 -0.04829305 0.015660588
8 0.07753625 -0.009356716 0.08992881 -0.001238018 0.017004963 -0.012544203 0.10561575 0.15907997 -0.050252836 0.03622108 0.0132494075 0.15203993 0.12065605 -0.22849287 -0.07223046 -1.0855147e-05 0.04985486 0.08125553 0.09294726 0.035516903 -0.03117884 -0.14862764 -0.012378112 -0.19697633 0.013977813 0.09494267 -0.19779485 0.026908206 -0.018112553 0.26097736 -0.021868197 0.030915005 -0.011522013 -0.081070974 0.21331738 0.076661155 0.08338411 0.08623402 0.076879494 -0.006911402 -0.12822406 0.11308162 0.009835341 -0.017834706 0.07525413 0.052356716 0.042792667 -0.05431925 -0.104062594 0.07863615 -0.031234529 -0.1625629 -0.051819224 -0.19722852 -0.11320803 -0.001476066 -0.024106657 0.19355203 -0.08206029 0.012594904 -0.10014645 -0.00091293367 0.13112897 -0.03277989 -0.09719856 -0.034316123 0.059203357 0.051266268 0.0028251652 -0.050075937 0.11604844 -0.18432055 -0.10645724 0.043133635 -0.11110587 -0.07243589 0.032897707 -0.17514618 -0.0068291407 -0.06484089 -0.07041839 0.011096857 -0.101777166 -0.10931823 0.074626416 0.06806539 -0.054400682 0.22531265 -0.07959254 0.08824881 0.049302056 -0.07186253 -0.13029806 0.19194221 0.124211386 -0.088323526 -0.05534209 0.22136734 0.1169924 0.15316662 0.14457971 0.012369626 0.08683246 -0.0555733 0.17918822 -0.09101875 -0.026114976 -0.015539331 0.038343985 0.0057936884 -0.06487947 -0.06124912 -0.08713537 -0.027205193 0.04375642 0.050521396 0.017749391 0.070969455 0.119603045 -0.13955095 0.1352826 0.029349862 -0.046280965 0.09657853 0.0037176148 0.037147768 -0.023387847 0.032420713
70 0.0859217 -0.021553818 0.09693073 -0.004500398 0.015948333 -0.0067010387 0.11393723 0.16268444 -0.049774487 0.032437056 0.012304416 0.15354863 0.122419685 -0.2444208 -0.073396854 0.002148435 0.0526296 0.08779544 0.091174826 0.03989993 -0.03706202 -0.15212353 -0.013931848 -0.20344447 0.019703025 0.09346595 -0.20480621 0.032444157 -0.01658511 0.25682938 -0.022682805 0.037007533 -0.009265198 -0.082607865 0.20559523 0.0831107 0.08009314 0.08850396 0.07635145 -0.009733191 -0.12894692 0.10851332 0.005047094 -0.027411008 0.06747409 0.05512779 0.035664964 -0.045926966 -0.10552432 0.07307198 -0.03597436 -0.14835545 -0.04581335 -0.19519904 -0.10330789 -0.0045161596 -0.028917374 0.18515164 -0.07926088 0.00943764 -0.10203546 0.00041101102 0.13510345 -0.037705347 -0.09863036 -0.024508875 0.06118791 0.05145561 0.0038223884 -0.052865434 0.11604882 -0.18566091 -0.10468043 0.044124864 -0.115548134 -0.07037365 0.03008201 -0.18233491 -0.002266544 -0.07131552 -0.079489574 0.008759073 -0.10149078 -0.106823996 0.08164337 0.071081154 -0.05999365 0.22272873 -0.07969122 0.082970314 0.05153235 -0.07432375 -0.13475178 0.19288313 0.1258207 -0.08611989 -0.04954073 0.21971427 0.11441784 0.1547105 0.13733052 0.009465377 0.083036855 -0.046524126 0.1804838 -0.08929777 -0.028979046 -0.022084126 0.04867173 0.0026401652 -0.057834785 -0.06107506 -0.08144335 -0.02514432 0.04928971 0.0448936 0.018940208 0.07411556 0.122511774 -0.14033721 0.13366494 0.031786956 -0.054493133 0.09064723 0.0005065583 0.034264587 -0.030380305 0.034768183
80 0.08455541 -0.021838313 0.08867093 -0.0018777607 0.018087912 0.002616343 0.105594866 0.14805529 -0.044162247 0.021898152 0.01523866 0.14548042 0.114984505 -0.23708756 -0.06864841 0.0055507235 0.042078827 0.0726275 0.0871785 0.04909011 -0.03383495 -0.14946955 -0.0028081448 -0.20255035 0.023063729 0.09767037 -0.1980559 0.033548072 -0.02263836 0.26872936 -0.029174848 0.03449419 -0.0018998064 -0.07885059 0.22170812 0.09181309 0.076967895 0.09019243 0.068603195 -0.011863298 -0.13516125 0.11076053 0.021622196 -0.027115634 0.071352966 0.051134996 0.054377057 -0.05335874 -0.105023675 0.07678592 -0.033158038 -0.15825713 -0.058727376 -0.20235138 -0.114992276 0.00024146336 -0.026699426 0.19380502 -0.08103017 0.004856979 -0.11220621 0.01013501 0.1416342 -0.030494008 -0.09506176 -0.036715608 0.06691904 0.056650784 0.0030244684 -0.055718847 0.121058516 -0.18701982 -0.108299576 0.05052718 -0.11888884 -0.07751681 0.0348085 -0.18231052 -0.010252302 -0.06926721 -0.071450286 0.012618386 -0.09521894 -0.10845361 0.079177365 0.078199595 -0.055151995 0.23216622 -0.0855255 0.0903418 0.054800477 -0.08029045 -0.1334851 0.19895789 0.11489454 -0.084933504 -0.050130714 0.22540952 0.11832468 0.15697195 0.15056263 0.009636261 0.08503474 -0.04741395 0.18957344 -0.09034544 -0.02415442 -0.018197084 0.04326355 0.0047330502 -0.07303546 -0.06422882 -0.08132768 -0.02349741 0.039495364 0.049987536 0.015569195 0.08186138 0.123490706 -0.14233382 0.13405837 0.032314554 -0.0452538 0.10109332 0.002692732 0.03989343 -0.03223196 0.030205999
32 0.08326073 -0.04396528 0.079764634 -0.013681424 0.003216922 0.0149107855 0.100911036 0.15162235 -0.061347276 0.048228353 0.0025768043 0.09004461 0.12062819 -0.22428885 -0.052281275 -0.008743559 0.03623353 0.052950628 0.096240185 0.042115275 -0.037695386 -0.15108494 -0.028958743 -0.15571085 0.033136867 0.1149845 -0.20214641 0.06290003 -0.022993196 0.24874626 -0.0015929831 0.023858733 0.026459703 -0.0984716 0.21934707 0.08471938 0.06772215 0.08374408 0.08728151 -0.039194863 -0.11919858 0.10100995 0.005129333 -0.048299596 0.057841625 0.039931126 0.049611393 -0.07871676 -0.07783415 0.09646542 -0.052628435 -0.15500587 -0.05578554 -0.21306288 -0.1313425 0.01048965 -0.022677554 0.20113435 -0.10789334 0.012276981 -0.0886784 -0.0053757867 0.17054802 -0.004564433 -0.12112217 -0.046409756 0.083308086 0.033484694 0.0054482124 -0.028285962 0.13480045 -0.20106551 -0.11046227 0.07911373 -0.08497813 -0.061972704 0.032533504 -0.19419903 0.004414294 -0.05881224 -0.0866163 0.011604225 -0.08053985 -0.077660985 0.06255334 0.09859297 -0.04171276 0.19868459 -0.05285694 0.033882983 0.06460257 -0.10134706 -0.122891605 0.19836996 0.13423663 -0.09313511 -0.024321798 0.20919943 0.08629868 0.16219348 0.16580938 -0.0004464071 0.087676935 -0.034826007 0.17709893 -0.11340331 -0.010811194 -0.021244567 0.048886146 -0.013380865 -0.05381158 -0.061193198 -0.09231316 0.0019057064 0.03991916 0.047336575 0.022249041 0.11265114 0.10360255 -0.11419959 0.14911899 0.041600365 -0.05635409 0.06547803 -0.016712936 0.010883634 -0.0558564 0.0062939054
30 0.09307155 -0.04330658 0.080187365 0.0041952156 -0.0056413403 0.038840175 0.083103016 0.13040383 -0.07018576 0.008476902 0.0054503977 0.096651636 0.10359188 -0.23756061 -0.024651632 0.005744364 0.013684663 0.031973295 0.07549454 0.0983623 -0.032349743 -0.15833682 0.00010018051 -0.1751198 0.042003177 0.11951184 -0.176618 0.06084102 -0.03911063 0.2604929 -0.040965654 0.013849298 0.046333674 -0.064856075 0.23769906 0.10494488 0.06378651 0.10266566 0.05413493 -0.033816673 -0.14043505 0.10367308 0.027450467 -0.058941443 0.06400624 0.015400136 0.082954064 -0.07941536 -0.0620968 0.087684564 -0.06838941 -0.14651918 -0.07544437 -0.19345258 -0.150203 0.035593286 -0.026157884 0.21153654 -0.088551894 0.016253768 -0.10217927 0.035775363 0.16911207 0.017501457 -0.11449801 -0.048384365 0.0814404 0.03552659 0.00397056 -0.053639032 0.15831277 -0.20450364 -0.094416596 0.083327815 -0.08921259 -0.08163595 0.052850485 -0.20684522 -0.020906381 -0.079110794 -0.060139544 0.02379991 -0.057530448 -0.09458101 0.06805306 0.10467976 -0.050997198 0.22920091 -0.05754366 0.058769807 0.03636347 -0.10489474 -0.12082371 0.1853708 0.08115892 -0.089220546 -0.019504666 0.22487928 0.09146112 0.15225558 0.17750368 -0.0018538159 0.081908494 -0.008719851 0.20891418 -0.10273027 -0.012410702 -0.030492736 0.0334367 -0.0097293975 -0.07573252 -0.06176613 -0.080372475 -0.006790013 0.0038955822 0.06721824 -0.0011017605 0.1101116 0.11251596 -0.10526415 0.1335201 0.037426796 -0.036952112 0.08821093 0.010533442 0.023986857 -0.062345225 0.015854543
73 0.0832149 -0.017387146 0.08596602 -0.010844069 0.0085939625 -0.01706701 0.10893807 0.16849314 -0.060876627 0.06225478 0.014943402 0.13187896 0.12431022 -0.22427593 -0.07922085 0.0015454694 0.057003904 0.08431205 0.09217715 0.021051355 -0.042558894 -0.14843054 -0.026307147 -0.17148386 0.024561945 0.10458526 -0.21437165 0.04782996 -0.014469126 0.24633625 0.0035882604 0.028396903 0.012728818 -0.09759141 0.19724542 0.07121593 0.083041005 0.06970021 0.10650455 -0.027128631 -0.10989325 0.10334101 0.00090842973 -0.02285503 0.06709386 0.04759257 0.028791824 -0.07104553 -0.093490876 0.08862458 -0.03223649 -0.17107171 -0.050926045 -0.21333726 -0.12240011 -0.000202811 -0.021030918 0.19761717 -0.11075255 0.012189038 -0.08754843 -0.018799651 0.15282875 -0.0215812 -0.119981214 -0.038602125 0.06777303 0.040064394 0.005242142 -0.02727307 0.12378134 -0.2008212 -0.115213014 0.0640114 -0.093013674 -0.061917942 0.024440657 -0.18255995 0.011920315 -0.059062928 -0.0960955 0.012026702 -0.09387332 -0.09055629 0.0807885 0.08062014 -0.04351452 0.20737374 -0.06283978 0.05263078 0.059144117 -0.08924972 -0.13158448 0.20307262 0.15235528 -0.098302566 -0.04322503 0.21751557 0.10602695 0.16199961 0.15887552 0.010692109 0.089532524 -0.051917437 0.16491382 -0.114970565 -0.019035628 -0.025751747 0.046510752 0.0018792641 -0.04890039 -0.05994395 -0.09609851 -0.017621346 0.046974346 0.03616451 0.024119955 0.07960553 0.11522299 -0.13784026 0.1345905 0.033345677 -0.053539347 0.08051366 -0.015127916 0.0034912964 -0.03545336 0.007571959
