37 128
26 0.032837227 0.05002186 0.08721078 -0.006417529 0.049540207 0.047012202 -0.11280712 0.01985733 0.14173274 0.020898556 -0.043734893 0.25147203 0.16557887 -0.09852387 0.008021361 -0.08885092 -0.06115826 -0.111674145 0.103506126 -0.033224814 -0.08393274 -0.20398654 0.018218303 -0.17997195 0.08727571 0.1253123 -0.034529027 -0.1404875 0.029842256 0.1476436 -0.050171345 0.0025510325 -0.016448945 0.015342076 -0.023359729 0.10609353 0.09288318 0.03615424 0.16278213 0.1281809 -0.07006909 0.23200753 -0.0039632013 0.1437595 0.051971495 0.16126452 -0.114244275 0.0020672644 -0.13378564 -0.10352495 -0.10306788 -0.19494642 -0.0737365 -0.1587171 -0.044545136 0.020552224 0.22621603 0.060622513 -0.18151796 -0.106687196 0.029601296 0.037921436 0.07152521 -0.13232583 -0.07458061 -0.022380866 -0.14124098 -0.005911977 -0.06467537 0.020134065 0.1292146 -0.0864271 -0.07604366 -0.07204949 0.1573719 0.047341626 0.06757146 0.15941083 0.13613826 0.10007461 -0.175232 -0.037389576 0.00802917 -0.017322306 -0.089067765 0.09884996 0.025034256 -0.026719816 -0.0789361 0.13435242 -0.01205408 0.062212106 0.18418278 0.0991785 0.09820645 0.09679599 -0.006001534 0.045046955 0.030520122 0.11729322 0.09060217 0.10122478 0.07898693 -0.07472682 0.016750362 -0.027838612 -0.0933712 0.086410716 -0.094092295 -0.033944845 0.0774453 0.13312145 -0.1419551 0.15518953 -0.10885157 0.16512132 0.04562655 -0.10538823 0.16957118 -0.21988636 -0.060276292 -0.036057286 -0.15770671 0.11588934 -0.021042056 0.11078996 0.021250283 -0.068767086
8 0.025546178 0.04576301 0.08192556 0.0012056961 0.04496909 0.042696774 -0.11314341 0.022653652 0.13246773 0.025189966 -0.045661535 0.24388374 0.16155887 -0.0944921 0.009613179 -0.083826505 -0.06498458 -0.10939708 0.1018905 -0.02409808 -0.080675185 -0.19620028 0.020474881 -0.17138962 0.08174238 0.12789811 -0.04085854 -0.13465971 0.026413882 0.14357935 -0.048488047 0.00019746502 -0.023032185 0.013230641 -0.017830294 0.101836644 0.0954072 0.030329678 0.15944251 0.12495861 -0.075039014 0.23204407 -0.005187216 0.14848112 0.053808104 0.15998632 -0.10897638 0.00037035724 -0.13768612 -0.10152369 -0.101223096 -0.2000083 -0.070915416 -0.16124198 -0.04819951 0.02263594 0.22317356 0.06356842 -0.17658558 -0.101972945 0.03253704 0.042130817 0.07356491 -0.12614185 -0.07206429 -0.022096155 -0.13890298 -0.00854524 -0.06545378 0.014334656 0.1280733 -0.08787278 -0.07376425 -0.06502527 0.15821138 0.04737609 0.07272965 0.15420145 0.13626605 0.10435717 -0.16584022 -0.038600493 0.007145467 -0.01774851 -0.0860525 0.09420453 0.024615902 -0.02388933 -0.07915471 0.13296735 -0.0135377385 0.06548405 0.18030746 0.104980305 0.09718899 0.09216963 -0.0006970672 0.04305157 0.030058675 0.11824976 0.09528676 0.09249997 0.08246232 -0.07663898 0.017630346 -0.030771697 -0.09010397 0.09051527 -0.10006713 -0.030023338 0.07518904 0.13195558 -0.14728875 0.1562832 -0.11535964 0.17227608 0.04694984 -0.10274863 0.16893636 -0.21859352 -0.057154223 -0.036690354 -0.1561615 0.11652892 -0.019561468 0.11497632 0.022891425 -0.065667324
15 0.028641423 0.042946298 0.08410109 -0.005723927 0.04650745 0.046966366 -0.11361725 0.018726917 0.13627838 0.022190385 -0.043520644 0.2456568 0.16148323 -0.09290846 0.010866626 -0.08001226 -0.062228642 -0.10738572 0.10251923 -0.025730433 -0.086284555 -0.19929789 0.021630002 -0.17735857 0.08681646 0.12087309 -0.039129697 -0.13681981 0.027136933 0.14551575 -0.047798045 0.0035841716 -0.018331507 0.014177827 -0.020299217 0.10867864 0.09612768 0.034476854 0.15652716 0.12989536 -0.07553858 0.2337493 -0.003179537 0.1482893 0.051903475 0.16531524 -0.109015584 0.00074492604 -0.13686413 -0.10819956 -0.10250511 -0.1923736 -0.07344813 -0.16191804 -0.046236854 0.016942503 0.22353171 0.05650662 -0.17662573 -0.10703588 0.02769146 0.0473774 0.07607545 -0.12802243 -0.07114725 -0.016530696 -0.13949949 -0.01393349 -0.06700011 0.01509372 0.12643269 -0.090463385 -0.07598564 -0.06580184 0.15796754 0.048453946 0.073959626 0.15973118 0.14114077 0.101627454 -0.17350426 -0.035047602 0.008451845 -0.015131387 -0.08339997 0.0967795 0.027700203 -0.026068242 -0.07716397 0.13146141 -0.010972384 0.06279465 0.18389305 0.10699217 0.09372817 0.10032868 0.0014799775 0.03987577 0.025954815 0.11350252 0.09628788 0.09794323 0.08232654 -0.06923315 0.013512299 -0.031732854 -0.09087054 0.089778356 -0.09593064 -0.034423016 0.0789903 0.1354106 -0.1438809 0.1551998 -0.11032417 0.1691815 0.043614045 -0.10393225 0.1717471 -0.22047246 -0.06112154 -0.03455459 -0.16348721 0.11401284 -0.0196649 0.11254669 0.022784466 -0.07380907
9 0.029085172 0.04465288 0.08594282 -0.0029078596 0.046695195 0.046731327 -0.10891148 0.016873447 0.13429776 0.020932667 -0.04568263 0.24614999 0.16250362 -0.097788386 0.0150076235 -0.08351739 -0.05905013 -0.10930729 0.09491142 -0.026475476 -0.08663138 -0.19109142 0.02148497 -0.17454681 0.0829604 0.1197474 -0.032989483 -0.1374316 0.027524631 0.1379751 -0.043998864 0.00354201 -0.01658676 0.015378644 -0.023413168 0.10796022 0.0895425 0.034491315 0.15349033 0.13196027 -0.07559142 0.22961798 -0.009767148 0.14852881 0.050453503 0.15884572 -0.112366736 0.0068213902 -0.13488233 -0.10621089 -0.099445984 -0.19662216 -0.067000434 -0.16427101 -0.046109192 0.02177859 0.22071125 0.060427174 -0.1793295 -0.10318202 0.0282873 0.038476855 0.07248441 -0.12932967 -0.071339525 -0.020856941 -0.14070043 -0.005289386 -0.06532018 0.020646155 0.12952206 -0.08384623 -0.07060508 -0.070409566 0.15920244 0.050592914 0.07443999 0.15922362 0.13618731 0.10528636 -0.1737821 -0.039692406 0.007775165 -0.021599151 -0.08492604 0.102741 0.023060005 -0.028327288 -0.07794731 0.1322993 -0.009410829 0.064967535 0.18066758 0.103081174 0.094011836 0.09506709 -0.00020793246 0.041016567 0.030332705 0.116090566 0.09221514 0.098586865 0.083494455 -0.07375109 0.018045178 -0.02619683 -0.09152455 0.09266506 -0.09510313 -0.028977515 0.08280304 0.13202819 -0.14544103 0.15803447 -0.10839847 0.17088172 0.045622565 -0.10352806 0.17703742 -0.2258121 -0.060589176 -0.039524492 -0.15865041 0.11865049 -0.018232029 0.111950085 0.019589553 -0.07037736
17 0.032248184 0.044773106 0.078782864 -0.00062924495 0.04745672 0.044451598 -0.10806217 0.016220063 0.13620979 0.024523335 -0.04354232 0.24667731 0.16482924 -0.09349216 0.011664021 -0.08358208 -0.059872888 -0.10456685 0.10194026 -0.026540684 -0.08492383 -0.19869557 0.020595243 -0.17695998 0.08619412 0.12743469 -0.041798215 -0.13614145 0.03149137 0.1448649 -0.048026837 0.0047717746 -0.020630453 0.017634362 -0.024481045 0.10902693 0.09405719 0.030679068 0.16091777 0.13213521 -0.073285885 0.22945601 -0.007056225 0.14571905 0.053261932 0.16675141 -0.113184966 0.0051338724 -0.13937055 -0.102266364 -0.09897887 -0.19583176 -0.0707777 -0.16203487 -0.045192305 0.021065457 0.22786245 0.061662756 -0.17897056 -0.10530926 0.032197773 0.044975698 0.072662964 -0.12961698 -0.07813787 -0.018911516 -0.13703853 -0.0073552807 -0.068529494 0.017974863 0.12611824 -0.089189395 -0.07168651 -0.06867046 0.16270763 0.0512785 0.072912335 0.15655297 0.14498146 0.109250575 -0.17270014 -0.03672179 0.012328816 -0.016069569 -0.08325641 0.10191766 0.02930247 -0.021694912 -0.07498374 0.13200343 -0.011059388 0.066879846 0.18447354 0.10596874 0.09529819 0.098532364 0.002125368 0.04225679 0.030317036 0.11989712 0.096992165 0.09820756 0.08058433 -0.07497595 0.014180755 -0.031653635 -0.09634441 0.09416964 -0.0983243 -0.029224982 0.07954634 0.13537495 -0.14992917 0.15795413 -0.11842964 0.17532614 0.0470783 -0.108456306 0.17889638 -0.2289923 -0.05989254 -0.035938654 -0.16470967 0.118749745 -0.0214891 0.11250455 0.01760251 -0.06989672
3 0.02442312 0.043672506 0.08137593 -0.006009306 0.047983512 0.04445268 -0.10832503 0.015746368 0.124870814 0.015584041 -0.040029485 0.23182335 0.14797793 -0.092045434 0.012878413 -0.08166018 -0.05597073 -0.105645426 0.08855794 -0.024116375 -0.079044126 -0.18664388 0.012464893 -0.16217993 0.078975745 0.115029246 -0.036303237 -0.1357617 0.03011413 0.13955082 -0.04459131 0.007123696 -0.01896848 0.015115742 -0.016924314 0.10520064 0.090927124 0.027750522 0.15147069 0.12473782 -0.07305003 0.22022577 -0.0072347685 0.14377613 0.05051208 0.15175214 -0.11153878 0.0052510225 -0.13799931 -0.10565362 -0.10033818 -0.19007775 -0.06901945 -0.15995394 -0.043619055 0.023849608 0.22306211 0.05908735 -0.1765717 -0.097917974 0.032027088 0.044401333 0.066534765 -0.13119166 -0.072513156 -0.017136337 -0.13978095 -0.00849406 -0.062114518 0.014052526 0.12454525 -0.08764043 -0.07252517 -0.062114254 0.15612775 0.04809987 0.07378517 0.15691827 0.13035475 0.104546584 -0.17187954 -0.037793726 0.013807374 -0.01970556 -0.08175151 0.099847466 0.027204588 -0.023832576 -0.075935915 0.1254134 -0.010967387 0.05707071 0.18073255 0.10028667 0.09736265 0.09583951 -0.000771825 0.040987913 0.02491259 0.11772242 0.093928 0.0974979 0.08218055 -0.06953584 0.018622534 -0.025369601 -0.09114301 0.09336113 -0.09625913 -0.030290106 0.0799338 0.13398415 -0.14818184 0.15351824 -0.10940411 0.16465886 0.04350123 -0.10318243 0.17645335 -0.21579286 -0.06086712 -0.04018289 -0.15986232 0.11113827 -0.019752903 0.10835357 0.021651212 -0.073046006
25 0.02759119 0.03963155 0.08007216 -0.0034347137 0.048409864 0.044009876 -0.103503875 0.021641431 0.127835 0.021091195 -0.044487957 0.23701969 0.15080099 -0.08692796 0.005977931 -0.076651104 -0.0567838 -0.10449242 0.09196251 -0.026974356 -0.07866058 -0.18911956 0.01878055 -0.16396031 0.08528385 0.12135866 -0.03967471 -0.1327395 0.026998168 0.13631026 -0.044814825 -0.0007423555 -0.022004515 0.016359653 -0.015692947 0.10046487 0.09126055 0.029247776 0.15439217 0.12132352 -0.071767494 0.21743855 -0.0038102395 0.13957179 0.04581032 0.15481932 -0.1072053 0.006123532 -0.12728715 -0.10043188 -0.09395279 -0.18596761 -0.07116442 -0.15546697 -0.042851403 0.022185344 0.21453856 0.056490313 -0.17101899 -0.09905141 0.025687227 0.043244157 0.07074923 -0.12483214 -0.06936489 -0.018170241 -0.13297129 -0.0128805805 -0.061246417 0.014366806 0.119640835 -0.08323204 -0.0718624 -0.061085105 0.15448035 0.04626767 0.07207736 0.15168461 0.13542983 0.10247583 -0.16377364 -0.037860744 0.008662867 -0.014190187 -0.0801373 0.09433682 0.025437303 -0.024319649 -0.07665333 0.12554222 -0.014002386 0.060945544 0.1751909 0.10246176 0.09251888 0.089149356 0.0006763932 0.036754142 0.025415396 0.109928235 0.09338688 0.09008846 0.07911283 -0.073170386 0.017307665 -0.032320082 -0.08531281 0.08492822 -0.09243329 -0.03027278 0.071188964 0.13095859 -0.14199235 0.1520381 -0.1114204 0.16375388 0.043187954 -0.10138834 0.16864839 -0.21372753 -0.058037717 -0.033891037 -0.1530075 0.111962155 -0.020790813 0.10887582 0.02291188 -0.067402594
24 0.03014195 0.043646254 0.07875213 0.0009875095 0.047153525 0.045673005 -0.102987714 0.018402873 0.12974475 0.017302 -0.045241978 0.23422788 0.15680166 -0.093239464 0.011594887 -0.07785718 -0.060767777 -0.10356681 0.09070732 -0.024659196 -0.07718743 -0.18380405 0.020062694 -0.16610238 0.082811944 0.12058059 -0.032273173 -0.12651855 0.029222474 0.13075505 -0.04402211 0.0010703313 -0.02103661 0.017017517 -0.022404121 0.10007927 0.088377096 0.028108705 0.14561403 0.12006877 -0.07019131 0.2157496 -0.008409841 0.14111754 0.048543748 0.15653495 -0.10221755 0.0036049834 -0.13038051 -0.0984993 -0.09556745 -0.18381277 -0.06346809 -0.15392715 -0.04682443 0.021269342 0.20946482 0.05484909 -0.16548455 -0.10161824 0.030576559 0.042015094 0.07088029 -0.12418328 -0.07405079 -0.02060396 -0.13498689 -0.011323459 -0.06318406 0.017410375 0.123437636 -0.08322162 -0.06929832 -0.06531807 0.15413001 0.048896797 0.07144507 0.14976937 0.13112776 0.09822181 -0.16363212 -0.034849748 0.0105914185 -0.013316589 -0.083931185 0.09318016 0.029170282 -0.027927391 -0.075539134 0.12628353 -0.010694447 0.063815214 0.16901216 0.09688464 0.0923142 0.09486778 -0.0042079054 0.036312062 0.026117763 0.10762562 0.08546836 0.08957239 0.076485775 -0.06831239 0.0122749405 -0.02711067 -0.09052684 0.08297936 -0.096150465 -0.03313134 0.07364124 0.13285834 -0.13741289 0.15100321 -0.1113139 0.16213278 0.046829406 -0.098599486 0.17021658 -0.21869744 -0.057575785 -0.033390973 -0.15645742 0.11168938 -0.019700028 0.10482358 0.023176132 -0.06997119
4 0.030526811 0.0440051 0.07958026 0.0011595549 0.05471274 0.047617536 -0.11115468 0.015739664 0.14031874 0.019581754 -0.03965404 0.24993217 0.16266307 -0.09206118 0.010458639 -0.08740905 -0.06383832 -0.107312255 0.09861261 -0.02520466 -0.08702454 -0.19657488 0.01874786 -0.17722802 0.0864286 0.12768905 -0.03527512 -0.1362841 0.026862135 0.1380685 -0.046385106 0.00059902266 -0.01962861 0.018673973 -0.020456817 0.099938475 0.09491397 0.028485514 0.15975127 0.12649739 -0.07643095 0.22900991 -0.009523547 0.14819342 0.046727 0.15860371 -0.10878606 0.0067276023 -0.13834119 -0.10789831 -0.09538206 -0.19450848 -0.07221655 -0.16131373 -0.04417514 0.02218204 0.21997239 0.05891417 -0.17365432 -0.10343447 0.031003134 0.045935664 0.06959363 -0.12754738 -0.077494174 -0.018530494 -0.13887009 -0.008188476 -0.066857986 0.018472748 0.12774938 -0.08473235 -0.07278184 -0.067161106 0.15451905 0.048129536 0.07288131 0.16061942 0.13708581 0.10687002 -0.16611506 -0.036350157 0.013054206 -0.015498976 -0.0864822 0.09432875 0.029335806 -0.025344858 -0.07940329 0.1291644 -0.011037451 0.061034717 0.18253893 0.10073578 0.09911943 0.091755584 0.000681676 0.04025693 0.030017586 0.11997802 0.09274992 0.09192483 0.080046326 -0.07354955 0.009974587 -0.026969455 -0.09497733 0.090434976 -0.0999337 -0.030674344 0.076853886 0.136927 -0.14511709 0.15046878 -0.10884016 0.17044899 0.048119567 -0.09932459 0.17159566 -0.22490504 -0.05972249 -0.03323749 -0.16247454 0.114736535 -0.01891104 0.11309328 0.019811554 -0.069200195
7 0.031431705 0.04799853 0.079604745 9.492249e-05 0.054275647 0.04857767 -0.103776164 0.016808234 0.13627328 0.0204627 -0.04174871 0.24486762 0.15554844 -0.09235551 0.010982696 -0.084526904 -0.059930533 -0.10642178 0.10103559 -0.028988134 -0.07901891 -0.19643268 0.022003716 -0.17192052 0.08420535 0.12382506 -0.03786287 -0.13272192 0.030239485 0.14167269 -0.04560759 0.0030141438 -0.019882336 0.017830191 -0.025201896 0.10704571 0.0905012 0.027163243 0.15595195 0.12716275 -0.07424745 0.225997 -0.0040234053 0.14680065 0.054101933 0.15826206 -0.108734444 0.0013333857 -0.13513683 -0.105568275 -0.09718991 -0.1905724 -0.06882407 -0.15842094 -0.04693728 0.018530808 0.21932247 0.061530456 -0.17592171 -0.10135795 0.031788427 0.04293244 0.07500719 -0.12968586 -0.07034579 -0.017773228 -0.13855141 -0.011582059 -0.06059882 0.016591532 0.123730905 -0.08326808 -0.07119396 -0.06769432 0.15046085 0.045631394 0.06778745 0.15214387 0.13435486 0.10205204 -0.16726184 -0.03859072 0.0059190225 -0.012120462 -0.08675099 0.09047902 0.029168846 -0.027108492 -0.07743334 0.12707706 -0.012466665 0.06607626 0.17241727 0.10338399 0.099889666 0.09779788 -0.0032408687 0.035687827 0.026720433 0.11551564 0.086146764 0.09148705 0.07551748 -0.073753916 0.011060105 -0.022953006 -0.094784856 0.08597884 -0.09297797 -0.031088198 0.073991805 0.13140094 -0.14456314 0.1497727 -0.11308873 0.16153583 0.044494897 -0.10510051 0.16825165 -0.22264475 -0.060420446 -0.0338331 -0.15673825 0.11607439 -0.021005658 0.11124934 0.019950325 -0.06544914
2 0.030439919 0.047678005 0.08619304 -0.005588414 0.05112552 0.04646185 -0.112611935 0.01722946 0.1352765 0.021263953 -0.04314105 0.24511914 0.15852988 -0.09752424 0.009946034 -0.08583003 -0.06010482 -0.110480025 0.10236036 -0.03243445 -0.08499051 -0.19944021 0.016454497 -0.1725666 0.0851751 0.12437786 -0.038088124 -0.13756816 0.024033444 0.14486986 -0.045156445 0.0050494275 -0.023348704 0.010079483 -0.018132152 0.10299329 0.092477575 0.040380426 0.15469187 0.12560914 -0.073708266 0.23232916 -0.010402068 0.14752394 0.05314453 0.16262498 -0.11419157 0.0022525825 -0.13303491 -0.10306817 -0.10505267 -0.1979051 -0.0701332 -0.16853507 -0.041220352 0.021988662 0.22394356 0.06298556 -0.17763868 -0.10535579 0.032007355 0.039033286 0.07621264 -0.12872589 -0.07277175 -0.021943577 -0.13898359 -0.011423214 -0.064344905 0.020018032 0.12638181 -0.08741664 -0.076237075 -0.066085935 0.15528415 0.043407816 0.07075192 0.1572491 0.13877729 0.103026316 -0.17377844 -0.034945466 0.010479814 -0.020713033 -0.08897625 0.10241426 0.027492186 -0.02344074 -0.074444205 0.12929569 -0.011446819 0.06305361 0.18710609 0.10504727 0.101124264 0.09507885 -0.005175409 0.044392087 0.026914854 0.11931432 0.09578096 0.09825986 0.079789415 -0.06833301 0.019434752 -0.03170522 -0.090205505 0.09010251 -0.0942369 -0.034012403 0.076165095 0.13845944 -0.14515075 0.15806052 -0.108828165 0.16714734 0.040638495 -0.10440499 0.17084214 -0.2223784 -0.054418318 -0.03516593 -0.1570405 0.11440032 -0.017108846 0.11357319 0.018434938 -0.064910814
35 0.027715314 0.048887942 0.08471165 -0.0056095757 0.05038171 0.0452082 -0.120419525 0.023933051 0.14326681 0.026562026 -0.043700464 0.2556326 0.16179876 -0.09521163 0.007645423 -0.09018754 -0.06022682 -0.10972606 0.10710647 -0.03202777 -0.08338047 -0.2071752 0.015904251 -0.18060124 0.086974226 0.13074057 -0.0414384 -0.14297777 0.026035441 0.14806582 -0.04628342 0.00010090739 -0.023153337 0.011009537 -0.023176182 0.10635235 0.097962365 0.037742853 0.16754434 0.1341027 -0.07323464 0.24058026 -0.008531419 0.15613411 0.058119673 0.16462465 -0.12050385 -0.00049157225 -0.14280334 -0.1121689 -0.10445609 -0.20638363 -0.06919947 -0.17243072 -0.04670623 0.021827672 0.22889738 0.06346687 -0.1880042 -0.10892431 0.028513977 0.037932567 0.07717994 -0.13714078 -0.075322896 -0.019706214 -0.14962918 -0.007838488 -0.06800644 0.021155613 0.13222358 -0.08863246 -0.07451672 -0.06956319 0.16203953 0.051099516 0.07052085 0.16643316 0.14321344 0.10895517 -0.181762 -0.038692683 0.008039231 -0.02202402 -0.087562844 0.105476215 0.02422043 -0.029386587 -0.07662637 0.13284852 -0.0145754395 0.06951909 0.18874972 0.10888576 0.10292932 0.09655285 -0.004809971 0.043943632 0.03212479 0.11958654 0.09593242 0.10061304 0.080157526 -0.07108907 0.01393603 -0.032031246 -0.096961126 0.0905352 -0.100016624 -0.030308612 0.08478427 0.1374393 -0.15188938 0.16168936 -0.11570412 0.17141505 0.045554966 -0.11086063 0.17910351 -0.22831099 -0.06026785 -0.034608677 -0.15971544 0.123225756 -0.021371942 0.113585986 0.025483452 -0.07206784
14 0.030912578 0.052499846 0.08749464 -0.0063871737 0.04913432 0.050706923 -0.1246823 0.020744065 0.14800723 0.02191951 -0.044459198 0.26472273 0.16788581 -0.10368565 0.0061477623 -0.08999365 -0.06531616 -0.113434926 0.10735616 -0.02785312 -0.08751303 -0.2112424 0.016661517 -0.18927824 0.08862614 0.13394076 -0.041798424 -0.14957817 0.024763336 0.15583815 -0.051577564 0.004447031 -0.024603551 0.014476812 -0.024340767 0.11123442 0.09976714 0.041081145 0.16538443 0.13333969 -0.075076595 0.24410743 -0.008774134 0.15810278 0.056495372 0.17255023 -0.122086056 0.00039144396 -0.14361334 -0.11089253 -0.10662707 -0.20912655 -0.070537694 -0.17413887 -0.046575468 0.023786841 0.23158556 0.06751195 -0.18775485 -0.1142982 0.03125423 0.042128608 0.07989368 -0.14193104 -0.076380886 -0.022003397 -0.15147433 -0.011381165 -0.06777765 0.018596465 0.13804865 -0.08779527 -0.074148215 -0.07118353 0.16938744 0.04563159 0.070617326 0.16701537 0.14327356 0.109828964 -0.18825972 -0.03714255 0.010627699 -0.021999834 -0.09039512 0.10749606 0.0276619 -0.03042668 -0.08456017 0.1422558 -0.012325233 0.064863436 0.19545382 0.11216599 0.10486642 0.09866041 -0.0061401655 0.04529795 0.030938407 0.121535376 0.09909506 0.10505722 0.08609722 -0.07117253 0.014666778 -0.03365174 -0.094638586 0.091192916 -0.10099526 -0.0328251 0.07935318 0.14208746 -0.15634324 0.16475661 -0.112258896 0.17812844 0.04215942 -0.110567644 0.18141061 -0.2295554 -0.06108886 -0.03992365 -0.16561759 0.11930897 -0.020269573 0.11400493 0.020077383 -0.06858078
23 0.028560935 0.046509393 0.08214039 -0.00618889 0.052366234 0.045157816 -0.113466054 0.016795933 0.13882776 0.02080786 -0.042457465 0.24763681 0.16042802 -0.09565558 0.007769533 -0.087726966 -0.066636086 -0.1116347 0.09836239 -0.030869914 -0.08856783 -0.20057966 0.022238148 -0.18042782 0.084800184 0.12918933 -0.039665677 -0.13658117 0.02390134 0.14194398 -0.05180224 0.005282874 -0.023429519 0.012707353 -0.023350917 0.103726834 0.09573681 0.037995238 0.15717542 0.1313341 -0.07112837 0.23714547 -0.003638769 0.15129817 0.04954026 0.16665028 -0.11713285 0.0003794513 -0.13815726 -0.105132245 -0.101437725 -0.20390223 -0.0720166 -0.1701066 -0.043567736 0.018437248 0.22791918 0.057456315 -0.18143944 -0.11049543 0.03028623 0.039667554 0.07714266 -0.13621883 -0.07070394 -0.017026024 -0.14112492 -0.008374527 -0.07045487 0.022662194 0.1319418 -0.08369114 -0.07211448 -0.06461866 0.1629295 0.044158075 0.07264554 0.16415666 0.13877578 0.10619723 -0.17909569 -0.037706785 0.01175608 -0.019681131 -0.08787722 0.10077394 0.023572285 -0.029546097 -0.07978808 0.13029881 -0.015478054 0.06105341 0.1884133 0.10758066 0.10155016 0.091263115 -0.0021583245 0.04010306 0.029652674 0.1208919 0.09331469 0.10037326 0.08199181 -0.07073168 0.012054533 -0.02859122 -0.09620625 0.0877767 -0.10237132 -0.035284158 0.08111349 0.13741814 -0.14894249 0.16096582 -0.112847425 0.17171049 0.041092593 -0.10817552 0.17463417 -0.21985894 -0.063074626 -0.034168582 -0.15891095 0.11548015 -0.018115448 0.11455479 0.020801863 -0.07077079
28 0.032930627 0.048087366 0.08853879 -0.002384627 0.049406044 0.0487881 -0.11820549 0.023238307 0.14021222 0.02417039 -0.04798301 0.25523758 0.1619955 -0.0986771 0.011645655 -0.08609408 -0.06374736 -0.111992 0.10617592 -0.03300469 -0.091202 -0.20418474 0.021096235 -0.18114334 0.086628 0.12586248 -0.039234582 -0.13854006 0.029088141 0.14555255 -0.04831958 0.0013661946 -0.022161273 0.010786455 -0.025963085 0.10480424 0.09766461 0.040643547 0.16807976 0.12897104 -0.07320611 0.23382838 -0.005733497 0.15003854 0.05844993 0.16789521 -0.11823917 -0.0016808425 -0.13980858 -0.110381804 -0.1060166 -0.20118956 -0.07241963 -0.16787226 -0.042351544 0.020974182 0.2295546 0.06000358 -0.1849011 -0.11111792 0.029280273 0.03747616 0.07099433 -0.13325393 -0.075796396 -0.018041337 -0.14800295 -0.006940915 -0.06896625 0.017302748 0.12781364 -0.08664324 -0.07783891 -0.066272944 0.1620917 0.047774967 0.07299588 0.16278878 0.14448002 0.108575 -0.18159567 -0.039556134 0.0061318553 -0.021840254 -0.091125056 0.1062495 0.023149936 -0.026998563 -0.08060856 0.1388814 -0.01562837 0.066008255 0.19020885 0.10818271 0.097979285 0.09257854 -0.0012765718 0.04186347 0.034973495 0.11816 0.10057443 0.10221373 0.08415452 -0.07475146 0.014193166 -0.031578165 -0.09327144 0.08887119 -0.099774644 -0.034753393 0.07869924 0.14094958 -0.14974336 0.16704626 -0.11269482 0.17681204 0.04603549 -0.107684985 0.18156078 -0.23118119 -0.059790418 -0.039732996 -0.15820128 0.121626206 -0.021225981 0.11615292 0.021794 -0.06709948
33 0.029636715 0.047558416 0.080901675 -0.0057554157 0.0518338 0.04861703 -0.10934916 0.021505443 0.13265774 0.025371823 -0.045518313 0.24875271 0.16258521 -0.091920406 0.011817027 -0.08286819 -0.058442857 -0.109610245 0.10025286 -0.027625868 -0.082744315 -0.2002885 0.022831257 -0.17854577 0.08403401 0.12444236 -0.034965277 -0.13354777 0.029206846 0.1398757 -0.045688506 0.0052552996 -0.021437258 0.013791981 -0.026162943 0.10462215 0.09793851 0.034648675 0.16121714 0.12861922 -0.07002902 0.22903706 -0.0105963005 0.147245 0.051485322 0.16270308 -0.11207456 0.0007629837 -0.1368504 -0.10138186 -0.100897424 -0.19887292 -0.07204049 -0.16596602 -0.049654283 0.01939012 0.2251493 0.06097803 -0.18001144 -0.10444712 0.026176522 0.039571423 0.07354289 -0.12676539 -0.076152965 -0.019241067 -0.1447477 -0.011649938 -0.06306119 0.021833457 0.12806271 -0.08700213 -0.07619201 -0.07290853 0.1563074 0.050858047 0.07116365 0.16161813 0.14187929 0.10527401 -0.1746991 -0.03786626 0.0067139706 -0.021093862 -0.083805524 0.09882078 0.025803946 -0.023108227 -0.08125958 0.12880045 -0.0071591805 0.062122874 0.18177016 0.107780404 0.09757864 0.097098 -0.0018273259 0.041814324 0.028255612 0.11440414 0.0951738 0.097582325 0.079125375 -0.07260743 0.016641624 -0.026380392 -0.093344994 0.09277829 -0.097674735 -0.03385377 0.081538096 0.13873322 -0.14690809 0.15458113 -0.11484757 0.17082524 0.04426828 -0.10484732 0.1691064 -0.22626404 -0.05857216 -0.032916635 -0.16134843 0.11938301 -0.016588505 0.11164123 0.023522459 -0.0675486
32 0.03379331 0.04429798 0.080579266 -0.00079802197 0.052002188 0.046354387 -0.10888813 0.021573517 0.13652287 0.025775956 -0.045928277 0.24326399 0.16237058 -0.09425567 0.011899872 -0.08394981 -0.06360738 -0.10793291 0.099280536 -0.030126078 -0.085082 -0.19988796 0.018787118 -0.1777982 0.08646142 0.12644984 -0.036266334 -0.1328082 0.03153057 0.1430935 -0.04779432 0.004212487 -0.021610523 0.012956965 -0.019754453 0.10146854 0.09299178 0.03183636 0.16111039 0.12838385 -0.074716546 0.23153475 -0.0060535916 0.14431812 0.050696127 0.16551138 -0.109427 0.006219988 -0.13600576 -0.108529985 -0.10029506 -0.19689836 -0.07215147 -0.16219461 -0.05191269 0.020997591 0.22508028 0.062330816 -0.17829807 -0.10598382 0.029347343 0.040879384 0.073459126 -0.12839635 -0.07760409 -0.021410603 -0.14137803 -0.009898478 -0.06949964 0.018035954 0.130672 -0.08967972 -0.07152636 -0.071783215 0.15573403 0.05037028 0.07526057 0.16097125 0.14152311 0.10438549 -0.16953474 -0.04053156 0.006280958 -0.016682755 -0.08981142 0.10048519 0.028000578 -0.029296055 -0.07999879 0.1291021 -0.007999447 0.06658388 0.18267986 0.105794646 0.10155014 0.1005673 -0.0017004197 0.038099624 0.024812615 0.11867292 0.09271053 0.09681976 0.07821488 -0.07727101 0.015050761 -0.02764937 -0.09114144 0.09134086 -0.09975336 -0.032445762 0.08139997 0.13272783 -0.14133477 0.15302761 -0.10950925 0.17114486 0.046503216 -0.099346526 0.1755373 -0.22160184 -0.0569858 -0.03769329 -0.16134837 0.1145338 -0.02170021 0.11363885 0.017431758 -0.07052047
5 0.026053311 0.045372747 0.081388466 -0.0023420192 0.049588528 0.04618911 -0.11473063 0.022243015 0.13507515 0.024290843 -0.04132276 0.2427428 0.1608675 -0.09220544 0.005040983 -0.083470486 -0.06475211 -0.10940759 0.09922484 -0.030168029 -0.08287374 -0.19822606 0.020393817 -0.17756164 0.086985745 0.12511148 -0.03919824 -0.13754873 0.025754038 0.14416498 -0.050023437 0.00067201775 -0.023004884 0.014220629 -0.017446704 0.10570844 0.09411318 0.036516614 0.1557889 0.12915419 -0.070679516 0.22853976 -0.0062255766 0.14612426 0.053149026 0.16191682 -0.11294055 -0.0008261434 -0.13667278 -0.09971647 -0.095864125 -0.1970992 -0.07182384 -0.16394864 -0.04510145 0.019076873 0.2211831 0.056219034 -0.17795685 -0.105951265 0.0279841 0.044587094 0.07172024 -0.12923568 -0.07357371 -0.021385739 -0.13361995 -0.012166669 -0.06359966 0.016145362 0.1247951 -0.08609185 -0.07000985 -0.06398138 0.16053192 0.049054656 0.069643945 0.1583629 0.13905858 0.10147829 -0.17048219 -0.03453175 0.0118328165 -0.01652847 -0.08489485 0.09517168 0.026324138 -0.024689125 -0.07862934 0.13310038 -0.011252597 0.061243497 0.18296933 0.105598606 0.09398258 0.09509836 0.0014074625 0.045590755 0.025972098 0.11633637 0.09626387 0.09824577 0.08352371 -0.072076455 0.016428318 -0.031110523 -0.0891152 0.09038037 -0.096894406 -0.033555903 0.07955893 0.13234325 -0.1445985 0.15442427 -0.11351567 0.16735129 0.040372584 -0.10456396 0.16874383 -0.21744764 -0.05322363 -0.03709446 -0.15452202 0.11714432 -0.023260472 0.112599775 0.022140406 -0.06611269
10 0.029465627 0.046102926 0.085250825 -0.0029351814 0.047165994 0.044524457 -0.11796929 0.01903422 0.13945946 0.025661249 -0.04715323 0.2541914 0.16645007 -0.098910786 0.006628722 -0.081970945 -0.061927777 -0.10960565 0.1028357 -0.030707166 -0.08825459 -0.20515332 0.021722453 -0.1817575 0.0868733 0.124038726 -0.03464093 -0.1391477 0.0309753 0.14717653 -0.046836402 0.0059837457 -0.02023954 0.009542335 -0.025752328 0.10655359 0.095788755 0.03397636 0.16438352 0.1280505 -0.070863634 0.23497711 -0.010463302 0.15166657 0.054271296 0.16327566 -0.11731791 0.0038078683 -0.14040361 -0.10582158 -0.101667196 -0.201154 -0.07234709 -0.1647661 -0.043520395 0.016922453 0.22878619 0.06114648 -0.18342438 -0.1090281 0.026913036 0.038363956 0.07715991 -0.13334757 -0.07334378 -0.016813489 -0.14144203 -0.0100355605 -0.064083435 0.014916037 0.12617545 -0.087145634 -0.072562814 -0.07184573 0.16102056 0.050078403 0.06835036 0.1625863 0.14116511 0.104225084 -0.1773342 -0.038331673 0.0058020814 -0.02333112 -0.08477715 0.09795191 0.022736937 -0.029030005 -0.07786751 0.13326511 -0.009866353 0.06712698 0.18436287 0.1059216 0.09820946 0.09805055 -0.0028125264 0.03947613 0.03120211 0.12036215 0.09426944 0.098910026 0.0805128 -0.074852735 0.01267385 -0.032877542 -0.091586195 0.09216963 -0.097575836 -0.03280581 0.082145825 0.13681798 -0.14183126 0.15431185 -0.10685257 0.17032877 0.04603429 -0.10520086 0.17326602 -0.22344193 -0.06048132 -0.040171377 -0.15755768 0.113184966 -0.023098024 0.111245856 0.022661515 -0.07007054
19 0.024342574 0.047088873 0.08186253 -0.0026157931 0.049628317 0.040685467 -0.10675488 0.017856853 0.13306475 0.026363822 -0.044981327 0.24158023 0.15846616 -0.09106873 0.00684875 -0.08560145 -0.05554357 -0.103394516 0.09430178 -0.023703232 -0.078298405 -0.19586053 0.017008426 -0.17452699 0.08374669 0.119297795 -0.033898525 -0.13745421 0.027115915 0.14134295 -0.045497354 0.0073672114 -0.016083684 0.015109261 -0.016818173 0.10755287 0.09657844 0.029437771 0.1593144 0.12198625 -0.07497414 0.22805825 -0.009373507 0.1439907 0.048731446 0.15595257 -0.10735998 0.0006924154 -0.1384694 -0.10607873 -0.10172908 -0.19552225 -0.073930785 -0.16200763 -0.040736347 0.022744581 0.22033629 0.05849981 -0.1800595 -0.10133874 0.027563257 0.04519753 0.06798371 -0.13059048 -0.07385626 -0.019438703 -0.13479152 -0.012463637 -0.059625532 0.019440731 0.12636706 -0.08521878 -0.07447564 -0.06463936 0.15394904 0.045184035 0.073633 0.1531861 0.13380323 0.10049253 -0.17509519 -0.03410558 0.0094649615 -0.021496778 -0.08814817 0.09777441 0.02573503 -0.024905598 -0.07399474 0.13358662 -0.012904109 0.06352885 0.18364806 0.104573905 0.10007475 0.09393496 -0.00044497728 0.045321748 0.029928437 0.11558085 0.09293673 0.09965678 0.08490741 -0.070023365 0.019112138 -0.026189089 -0.08755955 0.09342511 -0.092413545 -0.031729624 0.07479416 0.13750772 -0.14936732 0.15772997 -0.113139465 0.1689493 0.04668828 -0.10292205 0.17009367 -0.21845612 -0.056126293 -0.036564376 -0.15504342 0.11762662 -0.021344217 0.11288983 0.021516627 -0.06799588
34 0.02581658 0.04384988 0.08207422 0.0016810363 0.045724355 0.0469445 -0.111976214 0.019017093 0.13607742 0.01915492 -0.041619867 0.24202223 0.1555089 -0.09188507 0.008162356 -0.08734942 -0.05742014 -0.10934278 0.10214968 -0.026757969 -0.08324025 -0.19304481 0.01582585 -0.17175332 0.08026863 0.12115125 -0.038401533 -0.13950945 0.030731706 0.1437229 -0.04753176 0.0051639066 -0.022713779 0.010749235 -0.021831738 0.10016147 0.0921223 0.034997888 0.15488449 0.13002522 -0.07580168 0.22907822 -0.009594838 0.14694698 0.05405616 0.15883626 -0.110619 0.0035917861 -0.13537444 -0.101734914 -0.097749785 -0.19453788 -0.06687558 -0.15874039 -0.041452855 0.018155565 0.2174419 0.06218892 -0.17727318 -0.10060297 0.02644758 0.038872752 0.071280666 -0.12538995 -0.07588895 -0.01864968 -0.13887607 -0.011869154 -0.06455806 0.018601133 0.12951322 -0.08554513 -0.06944287 -0.066654116 0.15763773 0.048734974 0.071725406 0.15609628 0.13678007 0.100513965 -0.17091808 -0.040044896 0.009771091 -0.021405924 -0.08114708 0.095461436 0.026192535 -0.026612706 -0.07903202 0.13261421 -0.012041055 0.06355238 0.17592499 0.10011653 0.0940125 0.09647997 0.000923743 0.038766757 0.030542547 0.11716048 0.0922465 0.09645175 0.079191044 -0.06921046 0.018501611 -0.027626144 -0.09053322 0.08582462 -0.09758361 -0.034128644 0.0813215 0.13198365 -0.14374809 0.15743086 -0.11452126 0.16969311 0.040818494 -0.10074252 0.1748951 -0.22462738 -0.060633972 -0.03197397 -0.15874869 0.11879272 -0.017039439 0.11340714 0.0209005 -0.06644729
13 0.02831766 0.043682113 0.08409875 -0.00039227097 0.046450067 0.050217647 -0.11067938 0.02005747 0.13881497 0.019011615 -0.042653263 0.24517684 0.1564549 -0.09664217 0.01191684 -0.08758142 -0.06542826 -0.10847491 0.105793044 -0.02424085 -0.08771605 -0.20051979 0.018151242 -0.18155871 0.08397358 0.12809867 -0.040424623 -0.14167003 0.027663175 0.14850333 -0.0489309 0.007522438 -0.019163689 0.010488541 -0.020553008 0.10717639 0.091840796 0.033907223 0.16188563 0.12384827 -0.076031804 0.2318583 -0.0070959474 0.14428411 0.050961856 0.16004458 -0.11477734 -0.0013030046 -0.138612 -0.10953671 -0.10252821 -0.19660728 -0.06779262 -0.16580364 -0.042780716 0.022021392 0.22472319 0.059019305 -0.1786874 -0.1066712 0.024632897 0.041118775 0.072135314 -0.13499774 -0.07410404 -0.017241318 -0.14434935 -0.009994864 -0.065401435 0.0161026 0.12619418 -0.084774956 -0.06928174 -0.06496623 0.15818751 0.04447819 0.067021795 0.15627122 0.13626872 0.106732756 -0.17761531 -0.041287664 0.009870621 -0.015626125 -0.08573191 0.100127645 0.024574054 -0.028246893 -0.077698715 0.13211972 -0.014109459 0.06150356 0.18363845 0.10775599 0.09618303 0.093624055 0.0028593177 0.043575156 0.032231323 0.1145733 0.094631225 0.09459483 0.080288485 -0.07318141 0.013439805 -0.029524872 -0.09162224 0.08704076 -0.0935098 -0.03424703 0.07933695 0.13727057 -0.14088811 0.15866137 -0.107521206 0.16727583 0.040421244 -0.10031325 0.1672308 -0.22168958 -0.055860456 -0.033986714 -0.15402552 0.11203383 -0.024282485 0.11172534 0.021425636 -0.07007472
12 0.03258834 0.045115713 0.08842701 -0.0024961657 0.04853982 0.047498584 -0.116790265 0.017535849 0.14127392 0.020295922 -0.041980777 0.24918127 0.16509123 -0.093237504 0.01174544 -0.08516481 -0.06095971 -0.11076181 0.10221842 -0.029933853 -0.08362524 -0.20353156 0.019132838 -0.18131013 0.088951536 0.13005444 -0.03847558 -0.14267543 0.029416865 0.14721332 -0.047726877 0.006684191 -0.019231869 0.017034622 -0.023184253 0.11004411 0.09838439 0.032682057 0.15989153 0.13415071 -0.07534148 0.23135056 -0.005926953 0.15223436 0.051007472 0.16620566 -0.115111105 0.004378285 -0.1395412 -0.110217914 -0.10667593 -0.20394966 -0.068691604 -0.1685743 -0.04876014 0.018382793 0.2292566 0.058741704 -0.18544686 -0.10658579 0.031743925 0.046097677 0.075815566 -0.13659772 -0.0783745 -0.018682698 -0.14682828 -0.009271197 -0.06401846 0.018190548 0.13191041 -0.092874266 -0.07647442 -0.073011525 0.1596423 0.046277914 0.07239291 0.16110153 0.14462559 0.103812754 -0.17788586 -0.03878723 0.011374634 -0.020928467 -0.09022426 0.09975948 0.027274925 -0.0272333 -0.07806461 0.13578562 -0.013237788 0.06319915 0.19075672 0.10575244 0.09936809 0.10074521 0.0015073797 0.044270933 0.02860761 0.120395124 0.09326553 0.10269168 0.082954034 -0.07399133 0.018745176 -0.030068828 -0.09180503 0.09094871 -0.101160444 -0.032212988 0.083585866 0.1387825 -0.14769956 0.15896562 -0.11732197 0.17181465 0.04786886 -0.105457604 0.17665057 -0.22758265 -0.05846393 -0.041692775 -0.16598503 0.12093308 -0.02422091 0.11368676 0.021107405 -0.07220991
22 0.030084867 0.04114429 0.08151975 -0.004440898 0.046761665 0.047420938 -0.10889976 0.020159496 0.13342808 0.02160086 -0.041379787 0.23732732 0.15318112 -0.09151628 0.013081807 -0.07822642 -0.056439556 -0.1037911 0.09281772 -0.027423562 -0.07796368 -0.19126949 0.015168804 -0.16900279 0.08128017 0.12264978 -0.036955725 -0.13031398 0.029097153 0.13931091 -0.04822659 0.00035766026 -0.01692969 0.011450761 -0.020418856 0.10353696 0.090524666 0.028277004 0.15137793 0.12534742 -0.07223812 0.22136983 -0.008282046 0.13933678 0.048141867 0.14914994 -0.109786294 -3.332118e-05 -0.13120288 -0.100596495 -0.0936053 -0.19156562 -0.06859632 -0.15909667 -0.047806513 0.023811566 0.21873653 0.060093768 -0.17040025 -0.1009862 0.03251174 0.044123057 0.068507254 -0.124239706 -0.0722587 -0.017905857 -0.13359818 -0.006162449 -0.06408752 0.019332461 0.122501865 -0.08479997 -0.070084475 -0.0650725 0.1521962 0.04258312 0.07158679 0.15369956 0.13656005 0.10368641 -0.16458677 -0.03325264 0.009444988 -0.017609831 -0.07869231 0.09926333 0.025526138 -0.024027484 -0.074128345 0.12758212 -0.009316324 0.05659696 0.1767535 0.098051295 0.09281431 0.08870463 0.00067213754 0.0418404 0.029770793 0.1160561 0.08807071 0.09469454 0.07518803 -0.07310753 0.014843066 -0.02607126 -0.09202319 0.0899661 -0.095579796 -0.028646413 0.07352188 0.13160245 -0.14164749 0.15067078 -0.10823296 0.16236368 0.043119933 -0.10397626 0.17029665 -0.21378428 -0.057538427 -0.033079904 -0.1569736 0.10748362 -0.021376336 0.107332885 0.017595457 -0.07242409
30 0.03223586 0.047633767 0.087134436 0.0005010712 0.047389787 0.050128423 -0.11707773 0.021352965 0.13742903 0.026681663 -0.04768609 0.2517666 0.16651654 -0.09932651 0.0130064 -0.086228706 -0.060499106 -0.108537264 0.10055254 -0.024874305 -0.08230219 -0.20613465 0.016535986 -0.1816761 0.08795134 0.12816574 -0.037624206 -0.14296366 0.025379358 0.14763549 -0.05156996 -0.00021259153 -0.020530712 0.01275885 -0.019672846 0.10613791 0.09961957 0.03616281 0.16795921 0.13247862 -0.07377371 0.23864698 -0.010321584 0.15172452 0.053149223 0.16522238 -0.118181564 0.0019082834 -0.14170639 -0.11117144 -0.10751382 -0.20187342 -0.071779825 -0.17365319 -0.04993397 0.022637095 0.23036595 0.065759934 -0.18623085 -0.10643659 0.03127733 0.04627913 0.07714666 -0.13114712 -0.0765503 -0.018607436 -0.14356953 -0.011007893 -0.06593289 0.01492948 0.13461637 -0.09092848 -0.0766092 -0.06794332 0.16701086 0.049942758 0.073417276 0.16105267 0.14249256 0.10736407 -0.1819241 -0.04059967 0.007889355 -0.01790951 -0.08792156 0.100578845 0.030105438 -0.02238756 -0.07780809 0.1363735 -0.015142851 0.06907374 0.18951589 0.11120393 0.10399729 0.09692362 -0.0045363638 0.04136746 0.026083175 0.12234994 0.1003731 0.09621442 0.08290626 -0.07450343 0.017036075 -0.02966179 -0.09471562 0.09643911 -0.104598865 -0.029836359 0.08225734 0.14303891 -0.15386727 0.16029204 -0.12237552 0.1748262 0.046973914 -0.10511293 0.18130434 -0.23396304 -0.062845595 -0.03742171 -0.16403466 0.119121075 -0.021299113 0.11452188 0.023228116 -0.073435776
36 0.027433192 0.046196125 0.08335149 -0.0062808506 0.05078667 0.042728387 -0.11039212 0.016691996 0.12967078 0.018954271 -0.04429704 0.24016374 0.15897168 -0.09138938 0.0104982825 -0.07945831 -0.060228 -0.10547591 0.09381279 -0.02400794 -0.0827676 -0.19910714 0.019351589 -0.16894884 0.08631333 0.11976147 -0.04038568 -0.13976859 0.026102496 0.1452639 -0.04794202 -0.0014087152 -0.018104913 0.010068922 -0.014611208 0.105872735 0.09241722 0.032692358 0.16125207 0.1236709 -0.07598663 0.22955285 -0.0041369926 0.14932877 0.04941887 0.1534124 -0.11231693 0.003763434 -0.1357759 -0.1040528 -0.10148732 -0.19773364 -0.07407927 -0.16235918 -0.0407931 0.02195087 0.22730364 0.05607774 -0.17798737 -0.10223095 0.03390402 0.045434054 0.0695809 -0.12619752 -0.075462684 -0.02270151 -0.13616723 -0.01219838 -0.06582587 0.017455338 0.1289947 -0.09129716 -0.07583104 -0.06822899 0.1595952 0.043232787 0.070383385 0.15373422 0.13766298 0.10395378 -0.17622752 -0.03744208 0.012205615 -0.01871019 -0.08758982 0.1001232 0.029036842 -0.02116815 -0.076043636 0.13172515 -0.009328023 0.06503086 0.18701133 0.107483126 0.098902166 0.09362076 -0.0023108013 0.047193132 0.02708799 0.12004517 0.09437616 0.09581819 0.0831933 -0.07698689 0.017328236 -0.033097163 -0.09314129 0.091374286 -0.09664472 -0.029099569 0.07785741 0.13838455 -0.15010113 0.1545796 -0.115380615 0.17058328 0.041183762 -0.10681033 0.17831281 -0.22272491 -0.05539228 -0.038468897 -0.16260158 0.11724489 -0.025014943 0.113979734 0.024681043 -0.07463263
29 0.03004565 0.043608554 0.0800401 0.00041255535 0.04803112 0.046570886 -0.11289243 0.016244685 0.13795741 0.021622635 -0.04438885 0.24730141 0.15451434 -0.09221573 0.01171321 -0.082684174 -0.06051059 -0.11006131 0.09950863 -0.029255666 -0.081914 -0.20039912 0.019531686 -0.17586337 0.08479207 0.12526685 -0.03980177 -0.13825944 0.029352965 0.14463301 -0.04791511 0.0057724332 -0.02044105 0.011151863 -0.02106833 0.10690532 0.09613149 0.028620994 0.15910287 0.12338545 -0.07665182 0.22731967 -0.010736459 0.14871612 0.05015636 0.1600796 -0.113331676 -0.0010030159 -0.13556308 -0.10584769 -0.101364516 -0.19663593 -0.07400449 -0.16397068 -0.04312301 0.018484022 0.22530578 0.06328365 -0.1826702 -0.10467209 0.027804123 0.04365629 0.07543479 -0.13434733 -0.07092131 -0.0208735 -0.1400386 -0.013315973 -0.067343384 0.018608408 0.12676488 -0.09108817 -0.077099085 -0.06640394 0.15702859 0.047094453 0.074252255 0.15943305 0.14020777 0.105023324 -0.17379813 -0.03837579 0.008932437 -0.019777225 -0.08684285 0.09945197 0.030533124 -0.026098773 -0.074551105 0.12972014 -0.014495859 0.06525142 0.1825413 0.10662166 0.10123292 0.09655033 0.0027455122 0.04646972 0.027017016 0.12145474 0.09213823 0.096037105 0.07781895 -0.072187126 0.018769478 -0.02576371 -0.09300755 0.09527627 -0.09955118 -0.030091843 0.077324495 0.13634747 -0.14514999 0.16140045 -0.11527977 0.1679889 0.04203806 -0.104720294 0.17723556 -0.22438431 -0.06266776 -0.035275266 -0.15742204 0.11690428 -0.019281946 0.10953798 0.018395405 -0.07290714
27 0.028669296 0.048108246 0.08609379 -0.0053413985 0.05183927 0.048810203 -0.114940144 0.02098315 0.13658349 0.016948689 -0.045888904 0.25037077 0.16058859 -0.09379698 0.011532086 -0.0885678 -0.05855834 -0.106771916 0.09623958 -0.02478796 -0.08432329 -0.19984357 0.016175853 -0.17686664 0.08982638 0.12847842 -0.041009795 -0.1385169 0.029331047 0.1469116 -0.04995628 0.003080919 -0.02043701 0.015265447 -0.020599471 0.10725423 0.094936065 0.030165851 0.1590944 0.13230993 -0.07715577 0.23366153 -0.008171458 0.14869611 0.054829903 0.15988491 -0.10957463 -0.00041552482 -0.13428982 -0.103755005 -0.10185897 -0.19431028 -0.0699886 -0.16367418 -0.04543234 0.019460218 0.22427313 0.061572768 -0.17877257 -0.104586445 0.030335827 0.04535333 0.07653785 -0.1312079 -0.07618468 -0.021607038 -0.13989241 -0.012913426 -0.06533588 0.014722741 0.13063654 -0.08876111 -0.07309538 -0.07012164 0.15592687 0.047395553 0.069920145 0.16006628 0.14171498 0.103312224 -0.17472999 -0.038705137 0.01009491 -0.019608986 -0.087040566 0.09969805 0.025296604 -0.024586521 -0.07428568 0.13147505 -0.014411229 0.062079553 0.18629344 0.105901666 0.09611717 0.0949148 9.531361e-05 0.04321953 0.026391562 0.11584686 0.0921268 0.09378315 0.078266524 -0.075673364 0.014392947 -0.033071514 -0.08973971 0.08868271 -0.098661505 -0.0337096 0.075765796 0.13324244 -0.14891121 0.15433079 -0.113130726 0.165264 0.04128037 -0.10655586 0.17307746 -0.2248056 -0.062119637 -0.03635719 -0.16000724 0.11591241 -0.016556866 0.114756316 0.021641951 -0.07113455
0 0.03093399 0.044147607 0.081265 0.0005072006 0.05104988 0.042492367 -0.11543926 0.019736947 0.1364392 0.02128117 -0.04263857 0.25164384 0.16670306 -0.09712231 0.012080336 -0.085973606 -0.0643287 -0.11007738 0.09889287 -0.026586153 -0.081698276 -0.2013071 0.016280731 -0.17914936 0.08497349 0.1273393 -0.035679355 -0.13967483 0.029904183 0.14881675 -0.051864803 0.004664357 -0.024087802 0.013565214 -0.01660549 0.10857027 0.09605012 0.036542982 0.1559118 0.13198867 -0.07684581 0.2370144 -0.0067217494 0.15071012 0.05096832 0.1656503 -0.11523367 -0.00071096246 -0.13636522 -0.10495853 -0.10424792 -0.19958565 -0.07244167 -0.1683677 -0.04393612 0.01912525 0.22526346 0.06371083 -0.1751264 -0.103741504 0.027816083 0.041776597 0.07288924 -0.13280006 -0.07046695 -0.01984433 -0.14077772 -0.0053090956 -0.06655384 0.019606825 0.1298402 -0.086535044 -0.071890905 -0.070929654 0.15562153 0.050020535 0.07425549 0.15801093 0.13911246 0.09930263 -0.1726863 -0.034491964 0.0066036545 -0.023246668 -0.08393809 0.1025262 0.024360863 -0.02454355 -0.07988803 0.13714118 -0.011791495 0.06675464 0.18644495 0.10096184 0.10173605 0.09417951 -0.0059144935 0.041857347 0.028990481 0.11639757 0.093795635 0.09553733 0.08198467 -0.07580089 0.018451741 -0.028554168 -0.095455535 0.09037043 -0.10071502 -0.034595612 0.07913073 0.13575937 -0.14728151 0.15755796 -0.114982806 0.17322709 0.04420474 -0.10259641 0.17546351 -0.22161667 -0.05752592 -0.034146633 -0.16048469 0.11853226 -0.018473107 0.11709927 0.021911174 -0.06948496
21 0.031670395 0.044129524 0.085259974 -0.00044179554 0.047809094 0.044797093 -0.11309591 0.01875179 0.1356101 0.01925789 -0.039326053 0.24795489 0.1614348 -0.09365376 0.009036765 -0.08473739 -0.06528816 -0.10733577 0.097815685 -0.026585255 -0.087970175 -0.1998837 0.022594368 -0.17623618 0.084596485 0.12743704 -0.038983196 -0.1389148 0.026787287 0.1410606 -0.049855433 0.0070725847 -0.022183372 0.012111022 -0.023382833 0.10386174 0.094212994 0.031033916 0.1611352 0.12557459 -0.07696482 0.23138161 -0.007452739 0.14528722 0.052351195 0.1621175 -0.11307498 -0.0019410593 -0.13994302 -0.109755374 -0.1029713 -0.1981594 -0.07045465 -0.1637096 -0.043110378 0.022424376 0.22010761 0.062750965 -0.17792255 -0.108009525 0.026240692 0.041454718 0.075049296 -0.13356575 -0.07604733 -0.021001585 -0.14411126 -0.009628789 -0.06226837 0.019506514 0.13104801 -0.08926675 -0.07673907 -0.068431385 0.15904568 0.043755718 0.07411455 0.1600856 0.13528828 0.09830779 -0.17311466 -0.034171157 0.009254177 -0.02130371 -0.085836194 0.101791814 0.02512013 -0.025250591 -0.078179106 0.13035163 -0.010173657 0.0638369 0.18560387 0.1038825 0.097051494 0.09868001 -0.005078155 0.042366486 0.027634606 0.116159886 0.089386426 0.09808778 0.079771414 -0.07339288 0.013180159 -0.028612988 -0.09292672 0.08586782 -0.096888 -0.03185095 0.083259724 0.13552098 -0.14417456 0.15326 -0.10894173 0.17209676 0.04066384 -0.10296726 0.17206371 -0.22459745 -0.059448812 -0.03767043 -0.1577068 0.11655446 -0.020176891 0.11102088 0.019768192 -0.06624283
6 0.030931402 0.047552954 0.080073155 -0.005996656 0.045511987 0.043309793 -0.11088508 0.020877657 0.13313109 0.019830931 -0.046453644 0.24107222 0.15694429 -0.0904887 0.009965958 -0.084762484 -0.06252634 -0.10833459 0.09525034 -0.025544731 -0.07937953 -0.19429466 0.016783878 -0.17463867 0.08296502 0.1241133 -0.039025042 -0.13961513 0.03008095 0.14404498 -0.046564784 0.0017874873 -0.01982373 0.01662599 -0.023257896 0.104865454 0.0909713 0.03489562 0.16092779 0.12812565 -0.06996824 0.23084377 -0.006379787 0.14516398 0.04946318 0.16302097 -0.1119181 0.0038134982 -0.14041896 -0.10755907 -0.09786889 -0.19486065 -0.06812707 -0.16306102 -0.048070434 0.023463637 0.22418675 0.05982007 -0.1795259 -0.10649467 0.030352855 0.04195767 0.07458674 -0.12958089 -0.071143195 -0.022719279 -0.14056537 -0.009144115 -0.06282199 0.015238767 0.12867516 -0.087707505 -0.07232623 -0.063164175 0.16038589 0.047318894 0.0686485 0.1594963 0.1412274 0.10510346 -0.17285918 -0.035543233 0.008776644 -0.017089058 -0.08286971 0.10067055 0.02481297 -0.02269458 -0.07930382 0.13190638 -0.015736789 0.060727883 0.18089844 0.09954059 0.09809764 0.09853707 0.0013855657 0.039523575 0.027125191 0.11879298 0.09245064 0.097431205 0.07993571 -0.07133819 0.017918445 -0.027388806 -0.09054807 0.09292501 -0.10004357 -0.028451724 0.07938959 0.13750036 -0.14533374 0.15646288 -0.11548546 0.16665868 0.04227009 -0.10093773 0.17274949 -0.22163346 -0.055837125 -0.035296597 -0.15492262 0.119796365 -0.024535669 0.108362325 0.020619508 -0.07174436
20 0.027663989 0.0417172 0.07431541 -0.0050877016 0.04391473 0.040450234 -0.10675948 0.01704404 0.12461179 0.020010203 -0.042565 0.23294511 0.15577425 -0.08958459 0.0055809896 -0.07982773 -0.05514597 -0.104086414 0.09127097 -0.029084027 -0.08123949 -0.1866921 0.020048305 -0.16684355 0.07971133 0.11657782 -0.037545774 -0.13069673 0.026219122 0.1376204 -0.04567105 0.004773527 -0.022712516 0.0094733685 -0.016642228 0.09987532 0.0881184 0.031399716 0.14977744 0.12248907 -0.068642594 0.21830769 -0.0036860728 0.1366819 0.05086693 0.15728998 -0.10894952 0.0019093124 -0.134009 -0.09776039 -0.09357467 -0.18634963 -0.06842971 -0.1604495 -0.040305592 0.017402442 0.20949495 0.061092783 -0.17129168 -0.09808724 0.030801032 0.038890567 0.07397175 -0.12103953 -0.066405244 -0.0198377 -0.13246453 -0.0058413707 -0.060508102 0.015334716 0.12151595 -0.08480535 -0.07025211 -0.0633525 0.15025364 0.04559627 0.071312316 0.14629327 0.1335736 0.09946714 -0.16457106 -0.034035333 0.007238657 -0.018141467 -0.07680062 0.09653618 0.025633283 -0.01988976 -0.07605933 0.12953898 -0.0069392067 0.061982438 0.17121531 0.10151901 0.091814004 0.09220266 -0.0032662782 0.03857566 0.028155103 0.11429178 0.094031654 0.09270002 0.080752306 -0.06833899 0.01703017 -0.025243461 -0.091527075 0.087057404 -0.0947785 -0.02660101 0.07240536 0.12623724 -0.14185002 0.14517817 -0.11206811 0.16497494 0.04367745 -0.09836072 0.16662228 -0.20846166 -0.056206875 -0.03860693 -0.15573303 0.11146394 -0.022434616 0.10951978 0.019484174 -0.069506764
1 0.026366178 0.040295795 0.07465228 0.00087313063 0.047177676 0.043542102 -0.107363746 0.020444887 0.12747699 0.024009787 -0.04159309 0.23021227 0.1463557 -0.08314868 0.010749828 -0.079919405 -0.056311715 -0.10273613 0.09262717 -0.024983317 -0.07503758 -0.18603547 0.0155390585 -0.16076678 0.08136184 0.1127815 -0.033543374 -0.12942693 0.024846764 0.13418102 -0.04616695 0.0015084457 -0.02048249 0.008455344 -0.017007662 0.10405488 0.089828916 0.02780024 0.1530425 0.11846508 -0.06864702 0.22133678 -0.008187235 0.14113982 0.05059864 0.14869738 -0.10520916 -0.00078775926 -0.12769008 -0.09831165 -0.096404836 -0.18880747 -0.07117659 -0.15478551 -0.04260931 0.017643059 0.21659471 0.05433246 -0.17273788 -0.09950929 0.026544873 0.04137831 0.07111028 -0.123787776 -0.06966754 -0.01739664 -0.13397898 -0.006604251 -0.060239565 0.016636891 0.123189285 -0.08666199 -0.07106876 -0.068009675 0.14968944 0.042316314 0.06818544 0.15232387 0.13039629 0.09892033 -0.1658103 -0.03571788 0.0074304477 -0.020254299 -0.08374252 0.09666472 0.02938552 -0.022460781 -0.07049155 0.12705785 -0.007374292 0.0627875 0.17238499 0.10331162 0.095696725 0.09145645 -0.0043676314 0.040997192 0.027986888 0.11345614 0.09195204 0.09078612 0.080909885 -0.07080877 0.014514498 -0.028899286 -0.08980683 0.09030574 -0.09623981 -0.030519366 0.076699644 0.12831526 -0.13840069 0.14858656 -0.1113922 0.16151801 0.039644208 -0.10195257 0.16365682 -0.21494187 -0.057033096 -0.034873005 -0.15484838 0.11388841 -0.020419523 0.1075348 0.022438629 -0.06748681
31 0.028066682 0.04851551 0.08739349 -0.0008497476 0.052121058 0.04539379 -0.112183146 0.020660184 0.13478039 0.02332305 -0.04241317 0.24946626 0.16469309 -0.09413468 0.011735262 -0.0866656 -0.058662873 -0.10501031 0.09519208 -0.030710636 -0.08658812 -0.1947342 0.0154978875 -0.178361 0.084601775 0.12399106 -0.037477776 -0.13946128 0.029794676 0.14511554 -0.046845645 0.005729759 -0.020444836 0.012473308 -0.022304801 0.10010336 0.09449748 0.031098036 0.15876973 0.12963706 -0.07199028 0.2284649 -0.005441695 0.14507976 0.053342592 0.16312672 -0.11052929 0.0004422415 -0.13716692 -0.10167983 -0.09735263 -0.19284527 -0.06654405 -0.16417202 -0.04238549 0.020341057 0.21637416 0.059338983 -0.17433472 -0.100739375 0.029873831 0.041906565 0.068351835 -0.12877446 -0.0764085 -0.017814217 -0.14157939 -0.012273602 -0.06269177 0.020808168 0.12429102 -0.08745801 -0.07332825 -0.068978265 0.15660648 0.04621398 0.068624906 0.1540357 0.13438328 0.099654935 -0.17008202 -0.036785148 0.007994151 -0.017102651 -0.08782267 0.09472337 0.029651893 -0.026824554 -0.07800575 0.13298567 -0.011530126 0.060303863 0.17929135 0.10177877 0.09920359 0.09563368 -0.0048786383 0.04000137 0.02469028 0.11455389 0.09114545 0.09865391 0.082580514 -0.07483275 0.013252705 -0.02648516 -0.090795904 0.08786423 -0.09922067 -0.030297384 0.07992709 0.13576528 -0.14584266 0.15181455 -0.10545503 0.16703078 0.041466564 -0.104401104 0.16878909 -0.22204569 -0.057722017 -0.037195843 -0.15763003 0.11228126 -0.020353256 0.10735509 0.022264898 -0.07178831
11 0.028592044 0.044845693 0.08344582 -0.00060710864 0.04523674 0.044124722 -0.11085128 0.018774122 0.13106665 0.016087374 -0.04053164 0.2413238 0.15261176 -0.0953512 0.0068032895 -0.078421116 -0.058871597 -0.10312984 0.094011396 -0.022862177 -0.085995905 -0.1959475 0.018671064 -0.17239083 0.08555566 0.12174949 -0.039698597 -0.13085604 0.026313296 0.14259623 -0.04574661 0.0028452359 -0.016451396 0.010623677 -0.017467624 0.10299714 0.093889415 0.029144375 0.1566108 0.12197128 -0.07139112 0.22482744 -0.004577015 0.14410785 0.0539077 0.151426 -0.111383736 -0.00071891246 -0.13118348 -0.105309345 -0.09925148 -0.19443719 -0.07043946 -0.15592036 -0.046804573 0.02155255 0.22050875 0.059992168 -0.17439762 -0.098951295 0.03135887 0.04425994 0.06917439 -0.12477423 -0.07028891 -0.016954964 -0.13936308 -0.012998907 -0.06661741 0.017131116 0.12494798 -0.08710283 -0.066863924 -0.06242335 0.15502264 0.044951133 0.067851365 0.15460815 0.13334155 0.098777056 -0.17212678 -0.03315426 0.01075534 -0.017058538 -0.08040915 0.100413695 0.022283152 -0.02647702 -0.07707644 0.12608024 -0.014364014 0.05979081 0.17945777 0.10040258 0.094214186 0.092845276 -0.0021322293 0.041056138 0.028929355 0.114102244 0.09552258 0.09698323 0.08015517 -0.06746329 0.017648954 -0.031185504 -0.088290736 0.08510553 -0.0977367 -0.03310228 0.07829702 0.13311714 -0.13957074 0.15672258 -0.1093148 0.16725801 0.040621243 -0.10502554 0.17144264 -0.21425204 -0.061086964 -0.035870086 -0.15567152 0.11437124 -0.022560015 0.10524146 0.023043824 -0.06834165
16 0.027358858 0.04810593 0.08089909 0.0003605252 0.054046478 0.04236194 -0.1051159 0.02048505 0.13583218 0.023469206 -0.042100072 0.24145706 0.1615966 -0.093787715 0.009062843 -0.085371785 -0.064949326 -0.10858017 0.1010117 -0.027659424 -0.08422344 -0.19465603 0.015603738 -0.17672943 0.08911226 0.12500244 -0.037890706 -0.13141344 0.03218759 0.13766472 -0.046624 0.007161379 -0.016052024 0.019110655 -0.025074914 0.105975255 0.09547716 0.033072565 0.15956856 0.12621458 -0.074631125 0.2240865 -0.0039872616 0.14183465 0.052316405 0.1652937 -0.10425829 0.008146305 -0.13904257 -0.10613304 -0.09578542 -0.19374354 -0.0649385 -0.1620752 -0.04476662 0.022480369 0.2224944 0.060876276 -0.17643411 -0.10731857 0.029153876 0.039565183 0.07118411 -0.12960525 -0.07209477 -0.01977535 -0.14051272 -0.009370208 -0.06455113 0.015505495 0.12905478 -0.0876628 -0.06773201 -0.07089647 0.15284832 0.046654724 0.07264781 0.15444227 0.139411 0.105938435 -0.16880545 -0.035490416 0.005441475 -0.011272427 -0.08952674 0.094493054 0.031179417 -0.023383504 -0.0799412 0.13283968 -0.009404236 0.065294564 0.17607702 0.10396714 0.09876194 0.100172274 0.0021387863 0.03516177 0.021985255 0.11929208 0.08570492 0.09715578 0.07776547 -0.06820786 0.014423821 -0.022816263 -0.08975911 0.08779589 -0.094137244 -0.032085005 0.0787203 0.13466981 -0.14392482 0.15523368 -0.113112256 0.16554706 0.046742935 -0.099593565 0.16950093 -0.22386459 -0.059552692 -0.034815844 -0.15551125 0.11228539 -0.016810348 0.1073336 0.019854434 -0.06567924
18 0.030220555 0.04428309 0.08019722 -0.004421864 0.051979367 0.044427127 -0.10229169 0.019435296 0.13264915 0.023822907 -0.037967388 0.23769428 0.1591676 -0.09251187 0.012653045 -0.08155226 -0.05845744 -0.1026862 0.097328134 -0.026536591 -0.07701899 -0.1894893 0.013762053 -0.17412171 0.08249131 0.12006469 -0.03975804 -0.13536704 0.028578559 0.14111139 -0.049258016 0.0017565975 -0.016998442 0.0153299635 -0.018067995 0.10185138 0.08674573 0.032715965 0.15630299 0.12097365 -0.070015 0.21990727 -0.0034710262 0.1425619 0.04937558 0.15843558 -0.10637057 0.0010560773 -0.12853427 -0.10335626 -0.10142006 -0.19217247 -0.06979949 -0.15803719 -0.043766204 0.018540036 0.21812135 0.057917893 -0.17203853 -0.09806027 0.032949593 0.04205148 0.06925102 -0.12877455 -0.07143986 -0.02354852 -0.13371836 -0.0063079027 -0.060140423 0.02029554 0.12085374 -0.082858264 -0.07504922 -0.06586938 0.15571858 0.044938646 0.07213765 0.15171099 0.13955003 0.1015548 -0.1714313 -0.035940338 0.0067114374 -0.013216351 -0.08473246 0.0949331 0.02842206 -0.024116047 -0.077983916 0.12618472 -0.011269905 0.057981543 0.17514224 0.102951616 0.09716059 0.0921871 0.0018181734 0.0406737 0.024533622 0.117209695 0.09170246 0.099343255 0.078267716 -0.069427975 0.0148364995 -0.028217664 -0.088944554 0.08926956 -0.0916182 -0.028570672 0.07477634 0.12931712 -0.14569055 0.14784148 -0.10950146 0.16599907 0.041953433 -0.097651154 0.17354527 -0.21322906 -0.056269117 -0.035267506 -0.15786725 0.109455444 -0.018495666 0.10713952 0.017383665 -0.06750475
