53 128
29 -0.11811969 -0.025625793 0.027261602 0.017108824 0.04671711 -0.10884097 -0.041398276 0.12389438 0.085850455 0.2360909 -0.265781 0.14453457 0.089636676 0.04560887 -0.043550547 -0.089182995 0.06513737 -0.10523779 0.13682494 -0.035539787 -0.024552401 -0.26339978 -0.02490074 -0.17545325 0.056461174 -0.082363844 -0.08505753 -0.1374396 -0.009001929 0.20333476 0.08907921 0.018834395 0.11911958 -0.20615411 0.021522727 0.23305066 0.058514845 -0.009347033 0.25365958 -0.029377554 -0.047213256 0.22574396 -0.07797979 0.09913508 0.1451495 0.045443192 -0.009410753 -0.10245651 -0.05947103 -0.01533171 0.059487406 -0.10686448 -0.062010728 -0.08552889 0.08225544 -0.035487324 0.14288704 0.07727379 -0.31515363 -0.06741913 -0.15368283 -0.14343551 0.05182577 -0.17501836 0.06264412 0.07153056 0.037579346 0.0139374025 0.061357368 0.05937342 0.037301335 -0.17329048 -0.0640317 -0.068598785 0.16558796 -0.028600264 0.0084127905 -0.06039147 0.015200381 0.08459234 -0.26934052 -0.04141565 -0.19713637 -0.08762538 -0.04397274 0.2001104 0.009925323 0.028414087 0.06897415 0.21919507 0.13920581 0.16623035 -0.04310066 0.31760505 0.16811994 0.049102407 -0.041638337 -0.009692921 0.06005882 0.20592982 0.23484017 0.04454541 0.12809445 -0.03480952 0.044608843 0.009966621 0.010574412 0.12047693 0.049648713 0.06640849 0.16952065 0.027055655 -0.14464928 0.095749155 -0.027298087 0.08537465 -0.04789193 -0.078041606 0.11040203 -0.17035623 -0.1283417 -0.06792519 -0.0094382595 0.09374592 -0.19451086 -0.009594872 -0.041399676 -0.12354351
16 -0.1098393 -0.011511889 0.0047036964 0.012210262 0.057353757 -0.115107685 -0.015364088 0.12560318 0.07068437 0.19837806 -0.22724348 0.12624705 0.09628354 0.061227225 -0.09442495 -0.09444386 0.0740611 -0.09261484 0.115124956 -0.045251723 -0.007937815 -0.25378084 -0.012890477 -0.1830731 0.06969837 -0.040086597 -0.089256786 -0.12679166 -0.0033392487 0.17960015 0.06598405 0.002772623 0.07583568 -0.16451237 0.032221694 0.19541667 0.05831576 0.011641925 0.25484163 -0.0074541424 -0.022416715 0.19550483 -0.059368525 0.095268056 0.13605487 0.054053094 -0.009179679 -0.086092204 -0.0666219 -0.0035805681 0.060648788 -0.11836775 -0.035237767 -0.089192465 0.0691888 -0.051736657 0.14464542 0.0509892 -0.28028828 -0.067067176 -0.14016871 -0.1391638 0.040842842 -0.17701244 0.034479827 0.043554254 0.032161172 0.0131702535 0.080617264 0.04064084 0.05170837 -0.14147437 -0.045763157 -0.084299274 0.13371211 -0.028216116 -0.011480576 -0.04851179 0.038263228 0.07873959 -0.24882795 -0.035354048 -0.16560365 -0.07058614 -0.048215933 0.15652432 0.00810492 0.034655564 0.03409655 0.2072627 0.14098871 0.14951366 -0.029661642 0.28940564 0.14711319 0.043594077 -0.028394107 -0.0002207372 0.06256921 0.16909881 0.18131378 0.03988311 0.10285178 -0.03585532 0.03863203 -0.0012919944 0.0076026088 0.07928141 0.046932638 0.055278268 0.15458648 0.025934981 -0.13615905 0.067197174 -0.05975344 0.07031762 -0.04125889 -0.07870303 0.09315391 -0.16913618 -0.10156563 -0.068684995 -0.026236102 0.10629155 -0.18047479 0.0062448727 -0.025593637 -0.093632944
1 -0.10819784 -0.015252046 -0.0036722396 0.0041141263 0.060694728 -0.10750901 -0.018172571 0.13321535 0.07105951 0.18765043 -0.23039846 0.131062 0.09313024 0.071421675 -0.10432705 -0.095753476 0.07817861 -0.10765177 0.11507311 -0.0507522 -0.005095804 -0.26803654 -0.0012615377 -0.19077533 0.06825338 -0.031662244 -0.08942464 -0.1394507 -0.008175575 0.17755172 0.060942948 -0.0046378835 0.056940828 -0.15959391 0.046514753 0.19534346 0.05886094 0.028219763 0.25420982 0.0021272067 -0.017727716 0.20115782 -0.06314056 0.106375664 0.13579038 0.052323468 -0.012629881 -0.091415755 -0.06289788 -0.0027389177 0.051899932 -0.12634592 -0.036810085 -0.097608514 0.06391719 -0.06715668 0.15453161 0.037541058 -0.28088263 -0.06870163 -0.14368242 -0.1421921 0.047283567 -0.18119766 0.028001728 0.03784563 0.027165128 0.014897072 0.086107805 0.037147976 0.056594037 -0.13823102 -0.05839216 -0.0877249 0.13257499 -0.023620553 -0.009854135 -0.02728889 0.053259745 0.08574644 -0.25769222 -0.041184276 -0.16080911 -0.08227839 -0.0562117 0.15611026 0.0049592145 0.03959603 0.028595721 0.20444393 0.15765274 0.14614029 -0.0141576845 0.30117905 0.14298955 0.041959777 -0.021293495 0.01158453 0.07731363 0.15724957 0.18383048 0.037218306 0.09893941 -0.038041085 0.04547467 -0.009550072 0.0015090286 0.07722323 0.04653447 0.047220886 0.15990883 0.032120895 -0.13477282 0.06104849 -0.07286383 0.06918689 -0.043071844 -0.08564505 0.09848734 -0.17619881 -0.10040368 -0.069626145 -0.036386833 0.12341808 -0.18313831 0.022633174 -0.021786006 -0.09468031
34 -0.12976748 -0.034617454 -0.07422198 -0.013345125 0.113666855 -0.083749935 0.031552248 0.12943321 0.03292915 0.068115026 -0.21863745 0.12680107 0.09312134 0.115624525 -0.19335239 -0.100275435 0.06702245 -0.16323806 0.07272428 -0.073273815 -0.0710166 -0.23253177 0.064441375 -0.18767188 0.075087585 0.025580592 -0.1490971 -0.17257915 0.009849424 0.100963905 0.06310926 -0.03638452 -0.058564473 -0.06791342 0.1256717 0.112294875 0.045741647 0.09478602 0.2410759 0.03403901 -0.070826374 0.15180035 -0.028424993 0.116616584 0.09865366 0.13385636 0.013543437 -0.0010982227 -0.08551519 -0.038756635 0.06743181 -0.11064882 -0.01913257 -0.1474111 0.078099824 -0.13012205 0.13541964 -0.011954575 -0.24996643 -0.06828581 -0.13920683 -0.14903392 0.09426026 -0.15561268 -0.023372257 -0.01788947 -0.019871593 -0.031414703 0.052440967 -0.01924958 0.076783895 -0.09391871 -0.09197832 -0.06449276 0.10918185 0.0135636395 0.075561985 0.036312625 0.15515813 0.1511519 -0.21459943 -0.10058737 -0.112179965 -0.04563357 -0.09115379 0.07651463 0.027795574 0.060490377 -0.064793974 0.15130082 0.17651655 0.11286726 0.013076318 0.31060562 0.07874273 0.057550322 0.06622477 0.01445436 0.08522902 0.08337162 0.14286175 -0.007783033 0.08921651 -0.042528145 0.058432575 -0.031716075 -0.026766857 0.006576815 0.035365675 -0.0044076866 0.07880545 0.053098917 -0.11264054 0.025927203 -0.12300127 0.08862444 0.00282575 -0.05152136 0.12477155 -0.19006881 -0.06618755 -0.050419845 -0.0768435 0.13982777 -0.12291785 0.11548607 0.006697788 -0.073522665
30 -0.10089539 -0.017163707 0.0063300156 0.014770265 0.050600346 -0.104685634 -0.014572234 0.12945393 0.06693241 0.18862014 -0.23838477 0.13562667 0.1027896 0.059786595 -0.1044358 -0.092464805 0.08171557 -0.09643903 0.10555394 -0.040679205 -0.00473745 -0.2637834 -0.003597839 -0.19070536 0.075702034 -0.024925515 -0.09034904 -0.13531706 -0.0042981296 0.18190761 0.062448826 -0.01085809 0.058482606 -0.16260178 0.044061203 0.1858225 0.06298322 0.010777979 0.26740763 -0.0020699296 -0.02231818 0.19443522 -0.066603586 0.10024743 0.1311315 0.052420158 -0.014369008 -0.087676205 -0.07108017 -0.008061671 0.059164587 -0.11398418 -0.033290558 -0.095352165 0.063504666 -0.053612355 0.14089623 0.045993965 -0.27359775 -0.060103465 -0.13901767 -0.13198371 0.044846028 -0.17443317 0.024994994 0.036855787 0.029998643 0.0044624186 0.09043454 0.029639533 0.058057513 -0.14099881 -0.05353519 -0.07770885 0.1374883 -0.02349213 -0.008246416 -0.04612438 0.04426764 0.07972296 -0.25126237 -0.04254782 -0.16003896 -0.07046397 -0.04219133 0.15163311 0.0105605135 0.034214675 0.02480088 0.20690334 0.14180087 0.15215302 -0.029346513 0.2935436 0.1437098 0.039923918 -0.027753422 -0.0014736373 0.06764235 0.1579529 0.18361789 0.024309525 0.099199206 -0.03605319 0.03822371 -0.00789441 0.010021367 0.073242985 0.041009225 0.058622982 0.14929496 0.033230446 -0.13206856 0.058399986 -0.072551735 0.06651379 -0.0376 -0.06979723 0.09962197 -0.1775203 -0.1012279 -0.07133427 -0.036448292 0.11352119 -0.1893725 0.01104027 -0.018967453 -0.102045596
37 -0.09225667 0.0010044931 -0.020693172 -0.026219983 0.06909469 -0.10818377 0.00092492613 0.13884784 0.055146787 0.13246934 -0.16265133 0.09188861 0.08813838 0.089261994 -0.14133008 -0.08676095 0.08933894 -0.09660035 0.11980077 -0.08880347 0.03311063 -0.27979454 0.026569344 -0.21629353 0.058612473 0.013600107 -0.092059016 -0.13507469 -0.010896671 0.15806603 0.025361007 -0.010346775 0.010682561 -0.10089072 0.05540883 0.15897956 0.06421163 0.10358222 0.23197599 0.06429641 0.028120326 0.1791575 -0.0424691 0.11389415 0.13511747 0.06351693 -0.028210318 -0.10161028 -0.05071377 -0.0023768255 0.012276834 -0.15221414 -0.011083974 -0.12882945 0.034162123 -0.12156722 0.19344695 -0.0019556354 -0.25158975 -0.08449976 -0.14190291 -0.15852621 0.039200157 -0.19880047 -0.0018939549 0.0013932253 0.014022065 0.019234318 0.09302825 0.025069674 0.055334184 -0.092710376 -0.05666562 -0.1125655 0.075466424 0.00039960787 -0.035214014 0.015871363 0.10685178 0.086966574 -0.24134748 -0.031122968 -0.11832894 -0.08150735 -0.07296514 0.10020144 -0.025314385 0.046753023 0.0062922384 0.16461281 0.15698673 0.118017234 0.050971813 0.29084793 0.11054946 0.033885695 0.010734762 0.057859503 0.08708764 0.09837545 0.12222377 0.055804815 0.033533435 -0.031219823 0.067258455 -0.022697758 0.0014610721 0.050388943 0.056249946 0.019998878 0.16422619 0.035074413 -0.11606825 0.032893002 -0.10805554 0.045069285 -0.029026905 -0.09983391 0.08038996 -0.16360319 -0.06127231 -0.07491355 -0.03416857 0.15092184 -0.14543524 0.067600176 -0.02727678 -0.048921537
52 -0.1024508 -0.015945023 0.019707825 0.0029870314 0.045077577 -0.10910038 -0.021607155 0.13050161 0.070427924 0.20267913 -0.22376281 0.121478826 0.09333226 0.056587078 -0.08355403 -0.08650976 0.0810159 -0.088690795 0.12563916 -0.048866287 0.0129710585 -0.26823148 -0.012664772 -0.18825883 0.064939074 -0.040572517 -0.082042724 -0.1178469 -0.0059616766 0.19314924 0.0615731 0.00025889167 0.07779398 -0.1678617 0.025338046 0.19781582 0.0631018 0.023346703 0.24770518 0.00700882 -0.0024286783 0.19348499 -0.06444351 0.09379103 0.13467664 0.03888491 -0.025139757 -0.110214084 -0.052342765 0.0011611232 0.041052874 -0.11803782 -0.037593123 -0.08173911 0.05786677 -0.053546015 0.15110712 0.046004757 -0.26970845 -0.06291038 -0.14000095 -0.14025256 0.032221824 -0.17718498 0.037745714 0.041838918 0.03403671 0.01826743 0.08524074 0.04924399 0.04519015 -0.13473882 -0.046662915 -0.08468595 0.12184357 -0.022665 -0.024959123 -0.046532374 0.033715658 0.06569618 -0.25178832 -0.03066496 -0.16193101 -0.08059896 -0.037606016 0.1607504 -0.010304995 0.02291866 0.042856075 0.19961517 0.13082062 0.1396774 -0.015424119 0.28027955 0.14301354 0.03204382 -0.03219253 0.016531685 0.065507986 0.15787417 0.17903896 0.046313953 0.087824665 -0.028466448 0.04570799 -0.0058010095 0.016832279 0.0803766 0.04964503 0.05270889 0.16563083 0.023487326 -0.12653273 0.07243041 -0.05077567 0.058037467 -0.046252873 -0.08460298 0.085883856 -0.15960342 -0.09590046 -0.072671 -0.024622988 0.11197163 -0.180318 0.0056859055 -0.03146386 -0.09387994
10 -0.09813911 -0.0066833436 -0.00055222935 -0.0012619788 0.048275113 -0.12009082 -0.01652237 0.1295038 0.068219595 0.18434244 -0.20062274 0.11441888 0.09785294 0.06805656 -0.11546588 -0.08456243 0.08690937 -0.08357513 0.12238464 -0.06371386 0.020719297 -0.27532554 0.0033002947 -0.20258494 0.065260895 -0.019820467 -0.08079031 -0.12547664 -0.004303973 0.18352969 0.04247553 0.00089983124 0.050304778 -0.15122683 0.030287093 0.18254767 0.06614945 0.04507231 0.24973986 0.02471605 0.013758815 0.19371125 -0.059563622 0.10561033 0.13916554 0.047065027 -0.02949299 -0.10607738 -0.06305652 0.006720665 0.03418178 -0.1373245 -0.025898868 -0.09727011 0.05330409 -0.08493443 0.16878673 0.030506197 -0.2662731 -0.07604725 -0.1429819 -0.14831781 0.03965954 -0.19076946 0.021746423 0.029712303 0.03411813 0.015807291 0.09454911 0.033330318 0.04824447 -0.1206941 -0.04213235 -0.102488406 0.108735554 -0.01592391 -0.04019725 -0.02462188 0.061073206 0.06784783 -0.2524583 -0.029960614 -0.14603068 -0.08555112 -0.0481922 0.12991889 -0.013354089 0.030935608 0.033743292 0.1945841 0.14489843 0.1432594 0.004204388 0.28428358 0.13433698 0.037932698 -0.02023216 0.028432986 0.07648507 0.1411153 0.15066355 0.04865517 0.06746092 -0.037179206 0.045470953 -0.015884304 0.0101413885 0.068935454 0.050167076 0.046204343 0.16972628 0.025712647 -0.11897824 0.050209366 -0.07452382 0.05432499 -0.043560036 -0.093608186 0.08289244 -0.16386242 -0.08472872 -0.07767432 -0.028652126 0.12433055 -0.17451103 0.020654125 -0.025576765 -0.07685974
11 -0.10402127 -0.011091751 -0.014973498 -0.003832322 0.06687004 -0.11204508 -0.0017665369 0.13265671 0.059035074 0.15369976 -0.20381601 0.12137521 0.09513273 0.07843425 -0.13685824 -0.08736181 0.08358936 -0.101236634 0.11088959 -0.06354995 -0.002564151 -0.27454847 0.019700581 -0.20657027 0.073236234 -0.00456553 -0.10357495 -0.13174927 -0.0058251508 0.1675584 0.047552194 -0.010713073 0.028795391 -0.13272224 0.059168197 0.16759937 0.067370795 0.055298615 0.25316188 0.024290197 -0.005487551 0.18690269 -0.04567788 0.109543614 0.13444577 0.065362014 -0.019251913 -0.09083625 -0.06533944 -0.008557105 0.03692211 -0.13583522 -0.027361402 -0.10941192 0.05286235 -0.09275815 0.16411097 0.020794425 -0.26045737 -0.06968926 -0.13685541 -0.14242694 0.047783364 -0.18048628 0.013879458 0.018461764 0.01684944 0.00042847355 0.080809735 0.025269672 0.055832185 -0.117189415 -0.051947117 -0.08835064 0.105222814 -0.0121817235 -0.014564256 -0.012994441 0.08131054 0.0852275 -0.24542221 -0.04026499 -0.13548927 -0.069281615 -0.058370117 0.12139212 -0.0053193322 0.03754758 0.0078002866 0.18076058 0.14900643 0.13212211 0.009575845 0.29366252 0.12429772 0.039612263 -0.0009465765 0.028525537 0.077025376 0.12423777 0.15286924 0.038257767 0.07289227 -0.03257872 0.05313196 -0.019568281 0.0018610763 0.051044952 0.045233984 0.033137996 0.15148795 0.036647003 -0.12026366 0.051494084 -0.09049956 0.06532378 -0.036410592 -0.08857993 0.09383585 -0.1677225 -0.08342275 -0.070336826 -0.043478288 0.13397293 -0.1657806 0.03923824 -0.016749656 -0.076978
38 -0.10485404 -0.009841684 -0.0016541741 0.009308535 0.05836487 -0.12214297 -0.015328214 0.1298357 0.06887816 0.18837722 -0.21524197 0.12552607 0.10400381 0.065322645 -0.112403855 -0.09478792 0.0852085 -0.088686384 0.115950495 -0.056715976 0.013978127 -0.2685094 -0.003825782 -0.1959619 0.0706646 -0.015032314 -0.088485025 -0.13252236 -0.0043442547 0.18952374 0.054523975 -0.0057531795 0.058099974 -0.15359673 0.037172705 0.19305426 0.06525716 0.025146313 0.25878036 0.017062211 -0.0027693554 0.19702789 -0.06322122 0.10658044 0.14022799 0.050249282 -0.025931869 -0.10006299 -0.06827265 0.004644 0.05493372 -0.12967728 -0.028868549 -0.09744897 0.054652326 -0.0686184 0.16180396 0.04138049 -0.2736252 -0.06809544 -0.1418079 -0.14558941 0.038223457 -0.189817 0.019044185 0.03194369 0.03365742 0.012195603 0.09421006 0.040831245 0.05138289 -0.13135427 -0.04168507 -0.096963234 0.11961364 -0.018071115 -0.026148606 -0.0409378 0.049039513 0.07489782 -0.24935059 -0.0355304 -0.14573503 -0.0799319 -0.044474535 0.14176944 -0.001806501 0.030095123 0.03038063 0.2053342 0.14466397 0.15146329 -0.012225676 0.29284647 0.14418003 0.039937004 -0.02987699 0.019620566 0.070556104 0.15241554 0.16912818 0.038695175 0.08813854 -0.04255919 0.04687508 -0.010570873 0.007195485 0.072922744 0.044650156 0.052565098 0.16066526 0.023893777 -0.12867306 0.05591769 -0.07613759 0.06596863 -0.037165165 -0.08940331 0.08772594 -0.1729296 -0.08805031 -0.0772371 -0.034183443 0.12651084 -0.18630183 0.014945603 -0.026440743 -0.08712486
17 -0.09472446 -0.0071138507 0.02081469 0.011955611 0.03254762 -0.121608794 -0.02708453 0.11523586 0.07686707 0.21965435 -0.20960562 0.11611367 0.09435996 0.050632875 -0.06986374 -0.0830326 0.08410158 -0.06265326 0.13345566 -0.04399744 0.016273525 -0.26330337 -0.019260688 -0.18468891 0.058903713 -0.05140951 -0.0750086 -0.113168955 -0.0058518285 0.20370206 0.05580247 0.017667089 0.0952282 -0.18186882 0.005708406 0.20875408 0.063517004 0.0053187413 0.242001 0.0025973595 0.0048126117 0.20639701 -0.06503503 0.0953205 0.14819603 0.033450693 -0.02645127 -0.11848455 -0.058615044 0.010676299 0.042191032 -0.121894695 -0.036906064 -0.07656097 0.058124617 -0.05368557 0.15621024 0.056169078 -0.2769673 -0.06736927 -0.13763048 -0.1368183 0.028160533 -0.18075572 0.040287364 0.055390205 0.04773882 0.021706596 0.083960205 0.054359302 0.037759848 -0.1456488 -0.032591052 -0.09324699 0.12806244 -0.027956616 -0.042934664 -0.06071965 0.025522308 0.059482947 -0.25771645 -0.019693715 -0.16206878 -0.0837995 -0.031176204 0.16422662 -0.005223314 0.026899582 0.066461645 0.20857956 0.13471578 0.15666008 -0.022448502 0.2898118 0.1522641 0.03945938 -0.042334493 0.014372026 0.066377334 0.17050351 0.18349308 0.05525256 0.089198776 -0.03280658 0.039702468 -0.0029044512 0.013715964 0.09443672 0.052380007 0.066088066 0.18166216 0.016163591 -0.12911205 0.069887616 -0.050875116 0.061957765 -0.05517259 -0.09646491 0.08432638 -0.1591044 -0.10352641 -0.07578976 -0.019969994 0.11179122 -0.19027208 -0.013141077 -0.037853353 -0.094179735
7 -0.10732591 -0.017748035 0.00982879 0.019588754 0.056449533 -0.11060849 -0.015226725 0.11675086 0.07464246 0.20538189 -0.24032421 0.13841349 0.097899266 0.055497643 -0.085792735 -0.09569635 0.07735676 -0.089462616 0.11815561 -0.039748896 -0.0082238745 -0.25889948 -0.010775415 -0.18056497 0.07112118 -0.045625024 -0.08775224 -0.12668781 -0.0014211914 0.19394897 0.07550864 0.0029857038 0.08126004 -0.17451137 0.027638387 0.20637567 0.053574033 -0.009161569 0.25736612 -0.013576336 -0.029146925 0.201773 -0.06610671 0.10179227 0.13652465 0.050163276 -0.015244779 -0.09061024 -0.066314414 -0.0069248513 0.062379476 -0.111405365 -0.043669924 -0.083009504 0.070910074 -0.04713347 0.13843301 0.0625554 -0.28574607 -0.05927424 -0.13995686 -0.13516067 0.046927825 -0.17833038 0.04189719 0.04833678 0.033708245 0.009141863 0.08181596 0.04389674 0.048543718 -0.14512017 -0.04645202 -0.08213091 0.13798459 -0.028669594 -0.010057494 -0.061304174 0.025752226 0.07693621 -0.25248912 -0.041554563 -0.17195824 -0.069605105 -0.040402424 0.16435882 0.007767837 0.023403043 0.039031778 0.21053112 0.13585083 0.15963888 -0.040276896 0.2967146 0.15727928 0.04469905 -0.03828768 -0.005505791 0.06150016 0.17716503 0.19197415 0.029790405 0.11079323 -0.041674867 0.035262324 0.0016392964 0.0054324265 0.084677055 0.04743985 0.0620474 0.15153496 0.022787206 -0.13870296 0.069179945 -0.051358134 0.07222444 -0.04225642 -0.07760191 0.09635325 -0.17323887 -0.10770091 -0.0731161 -0.029996984 0.107489154 -0.19235885 0.0053150575 -0.02851416 -0.10206166
21 -0.09912882 -0.02465245 -0.007473447 0.009319108 0.059219513 -0.10536613 -0.0036506574 0.13327605 0.060361315 0.15686633 -0.23423244 0.13904114 0.10234495 0.072135344 -0.12480486 -0.09465116 0.07417273 -0.116984986 0.09363047 -0.04437746 -0.01909002 -0.2644044 0.017679492 -0.1863015 0.07331724 -0.0038171152 -0.10019418 -0.1436983 0.0002254447 0.16301464 0.062030546 -0.015172018 0.029663367 -0.14540422 0.06064814 0.17173521 0.057468798 0.016665524 0.26756456 0.00087493914 -0.03526674 0.18365966 -0.06007992 0.09853177 0.11944094 0.055633947 -0.0080048675 -0.07504692 -0.07832811 -0.0108720735 0.06221655 -0.11821571 -0.031671643 -0.09372197 0.065878235 -0.054327454 0.1383495 0.033604354 -0.2567682 -0.058827944 -0.13386166 -0.13199879 0.04753114 -0.17184095 0.008816052 0.019578936 0.018533027 0.0047675967 0.091799386 0.02541652 0.06860533 -0.13752532 -0.06695629 -0.0734491 0.13628057 -0.021225467 0.008665015 -0.023417316 0.06051459 0.08620597 -0.23781398 -0.046322264 -0.14663549 -0.076268725 -0.048744977 0.14973313 0.00806049 0.040673777 0.0019170423 0.19541094 0.15828617 0.14231372 -0.017307183 0.28495637 0.12935896 0.044323437 -0.01364527 0.003029946 0.082532234 0.14615928 0.17068394 0.018909244 0.09455816 -0.043427408 0.04000732 -0.01652292 0.00039041432 0.0551 0.04123137 0.048255626 0.1460478 0.039322495 -0.12555139 0.047615875 -0.08092146 0.073129766 -0.0348649 -0.06558252 0.10519267 -0.17985642 -0.09303843 -0.06683877 -0.045908526 0.12614901 -0.18597537 0.029064901 -0.014804088 -0.094344005
19 -0.105681114 -0.0069490494 0.013771757 0.009298255 0.047592383 -0.12399076 -0.02113233 0.12723544 0.07637485 0.21372342 -0.22385806 0.12765035 0.096829906 0.060636584 -0.09164957 -0.090183794 0.08728989 -0.07836498 0.12410692 -0.04810199 0.013275888 -0.2744595 -0.010062796 -0.19797218 0.06746522 -0.042026874 -0.07741069 -0.12488029 -0.007642049 0.19656959 0.057715874 0.009497658 0.083718166 -0.17451732 0.024569716 0.2042998 0.0737834 0.014165852 0.26000407 0.0021532513 -0.0046962006 0.20995627 -0.066645354 0.102302656 0.14379503 0.039755326 -0.020751927 -0.117301874 -0.06874813 -0.0006596718 0.0449065 -0.12855719 -0.041638847 -0.09063934 0.064541146 -0.062147833 0.15908422 0.045353673 -0.2861941 -0.07049254 -0.14867157 -0.14095344 0.03271806 -0.18934186 0.036017254 0.04800196 0.042202827 0.009590943 0.09266278 0.049039118 0.047123313 -0.14252792 -0.04609205 -0.090737514 0.124583155 -0.026342288 -0.0298523 -0.048521306 0.037668746 0.067672715 -0.26942426 -0.027159354 -0.16614261 -0.08770536 -0.046259277 0.15780412 -0.004400742 0.027995814 0.050867245 0.21694198 0.14261222 0.15946376 -0.014260607 0.30682665 0.15819526 0.039696842 -0.032438114 0.017633311 0.07424788 0.16523027 0.18235824 0.051335834 0.09572222 -0.034248255 0.044918425 -0.0025947434 0.015619234 0.089548916 0.054546725 0.058496382 0.17529382 0.029734422 -0.13888744 0.07285339 -0.06559245 0.06619066 -0.04764523 -0.09414943 0.08937296 -0.17108989 -0.102572605 -0.076624796 -0.02357721 0.12597021 -0.19425774 0.005918381 -0.029979028 -0.096740544
32 -0.10684901 -0.014311513 -0.03961799 -0.02359238 0.0849279 -0.10616176 0.0074404203 0.14721413 0.055420008 0.12890111 -0.19764714 0.11019713 0.09167718 0.10151681 -0.1599481 -0.093076505 0.08198198 -0.12423695 0.11277121 -0.08649753 -0.0066087116 -0.279665 0.03562012 -0.2188106 0.06871488 0.015031759 -0.11502392 -0.15052807 -0.005533645 0.14736429 0.038910504 -0.017584942 -0.009310306 -0.10175884 0.08358932 0.14813714 0.064710744 0.10571441 0.2499287 0.053478822 -0.0055807447 0.1825531 -0.037673246 0.112658076 0.12785067 0.09081729 -0.0138633875 -0.07294603 -0.06676795 -0.019236514 0.029258603 -0.14339982 -0.017936185 -0.13474073 0.04761683 -0.124644324 0.17856066 -0.001487946 -0.2585577 -0.08387086 -0.146907 -0.16050965 0.06106808 -0.18804935 -0.0053599346 0.00044811761 0.0035919955 0.0022408834 0.075555466 0.010107271 0.061403178 -0.10059969 -0.06732924 -0.09618595 0.09189773 0.004884838 0.0008102685 0.026958419 0.12602504 0.10963426 -0.24389388 -0.058949556 -0.1270879 -0.07471139 -0.08541043 0.10266055 -0.008400249 0.046792306 -0.013187795 0.16650404 0.1708422 0.12115484 0.04179716 0.30539346 0.108092956 0.044480488 0.02944655 0.0403132 0.08695876 0.098009914 0.13831668 0.03712387 0.054293007 -0.03831673 0.06382311 -0.028488893 -0.0041275844 0.03896898 0.048094224 0.014482534 0.15018831 0.041519288 -0.11503803 0.036386043 -0.10683431 0.06672805 -0.024193753 -0.08531656 0.1020415 -0.17353125 -0.06700564 -0.068865746 -0.051033407 0.14741974 -0.14926527 0.07852364 -0.018215535 -0.064458646
8 -0.094788186 -0.0010182242 0.028023664 0.020700483 0.027577877 -0.12441172 -0.029574713 0.120704815 0.072681315 0.22239907 -0.21172509 0.118040144 0.09901809 0.0465584 -0.07605509 -0.08834977 0.08343339 -0.06307526 0.12568767 -0.039435 0.028847903 -0.26270926 -0.0230285 -0.18337302 0.06388408 -0.03962151 -0.0705878 -0.11116244 -0.008023973 0.20790641 0.051658638 0.0079618115 0.09156982 -0.18345235 0.008806699 0.20061573 0.06973579 -0.0060608424 0.25433445 -0.002234503 0.0075839995 0.20703273 -0.06806256 0.09788649 0.14732239 0.025270712 -0.025660653 -0.12636864 -0.06220432 0.015451863 0.044008866 -0.13044614 -0.036332544 -0.0737648 0.053258162 -0.04623108 0.1539459 0.06011822 -0.27448508 -0.061668616 -0.13612925 -0.13543287 0.022594532 -0.18256131 0.039604943 0.046176203 0.04836885 0.018990632 0.09934475 0.052048765 0.048270855 -0.14714673 -0.035019465 -0.09604857 0.12544434 -0.033679448 -0.047056727 -0.066691615 0.014307198 0.049432416 -0.2554528 -0.01883883 -0.16552897 -0.084614746 -0.032289833 0.15814702 -0.007074432 0.023929179 0.056383677 0.22206013 0.13082898 0.16126986 -0.0267913 0.28850397 0.16321146 0.034836084 -0.05100603 0.015928319 0.06511593 0.1757419 0.17897257 0.050845895 0.09447669 -0.039905414 0.042621218 -0.0015639254 0.022475075 0.093111694 0.046021666 0.07039317 0.17981848 0.015886633 -0.13638958 0.07120353 -0.059322532 0.060778055 -0.05412958 -0.09205226 0.07693589 -0.16453612 -0.10148715 -0.082029834 -0.020149248 0.118138015 -0.19726653 -0.011346749 -0.031962145 -0.091448255
39 -0.091591544 -0.010030806 0.03647566 0.014217583 0.026720481 -0.12209869 -0.028264819 0.12185292 0.08384854 0.22632015 -0.22242142 0.12115612 0.092371844 0.041747328 -0.063725226 -0.0842424 0.08651235 -0.063116364 0.13164352 -0.04119767 0.029700862 -0.26806277 -0.030318838 -0.18586092 0.066230685 -0.053882584 -0.061790183 -0.111760296 -0.0059998212 0.21255437 0.054105554 0.00895655 0.10348413 -0.19693577 0.0022920032 0.21250932 0.06866261 -0.0067551136 0.25728822 -0.006236141 0.005059049 0.21198472 -0.07427504 0.095481634 0.14773867 0.01890996 -0.025522606 -0.12978332 -0.058663182 0.012710185 0.04513128 -0.12133304 -0.040253375 -0.07108969 0.05847068 -0.037459876 0.1548795 0.061206166 -0.2755368 -0.063845634 -0.13924271 -0.13463286 0.017780231 -0.18843451 0.046333574 0.053610187 0.04855643 0.023966033 0.09674289 0.055159956 0.04214747 -0.15497656 -0.0330465 -0.09294524 0.1346707 -0.037694346 -0.05093196 -0.06996639 0.009880865 0.04972402 -0.2672655 -0.013170804 -0.17265193 -0.08705464 -0.025816696 0.17628254 -0.008028319 0.018580252 0.06174967 0.22436544 0.13115136 0.15738796 -0.033276036 0.2846873 0.16442241 0.031836145 -0.056868557 0.010165979 0.06842844 0.18274081 0.18972301 0.05140351 0.090517186 -0.034658287 0.03844233 0.0022009548 0.023113877 0.09635565 0.053122092 0.07387235 0.19049916 0.021416122 -0.13162214 0.07394617 -0.04991308 0.056609314 -0.0635708 -0.085690655 0.08531064 -0.1592671 -0.1079608 -0.0766801 -0.018966448 0.10874434 -0.2047914 -0.025564706 -0.032945707 -0.097688936
31 -0.09316634 -0.0017996533 0.032500982 0.02063325 0.03281463 -0.12561387 -0.02851537 0.12351045 0.078179605 0.22887851 -0.21134457 0.12492687 0.10021289 0.048413925 -0.070826426 -0.08909731 0.0913867 -0.058907136 0.12420807 -0.045955747 0.023692157 -0.2688763 -0.029745853 -0.19471937 0.06580982 -0.045352053 -0.06879595 -0.11623178 -0.0039381245 0.21460287 0.054429334 0.017010614 0.09934913 -0.1922093 0.003225087 0.20583293 0.07238573 -0.0077153365 0.2633563 0.0040611112 0.010493491 0.21050231 -0.06828557 0.09394556 0.15127218 0.027443573 -0.029385723 -0.12982173 -0.06600284 0.01332804 0.04939152 -0.12924343 -0.034241803 -0.07834068 0.06025571 -0.0450177 0.15424949 0.05948041 -0.27967352 -0.06188027 -0.14072277 -0.1361212 0.016363904 -0.18911988 0.03789318 0.05688355 0.046362985 0.019456916 0.101244725 0.061368924 0.04305789 -0.15180288 -0.031744808 -0.09963087 0.12981637 -0.0347678 -0.05295527 -0.06735241 0.015082377 0.04954595 -0.26392677 -0.015544517 -0.16988786 -0.08624125 -0.031734884 0.16736512 -0.0027651505 0.022187343 0.06204827 0.2262649 0.13437171 0.16025926 -0.028763628 0.2891324 0.16843736 0.038734928 -0.05517127 0.009708761 0.06430186 0.18047413 0.18247987 0.060288135 0.09381798 -0.038281962 0.036190964 0.0037045206 0.020153781 0.095678315 0.046321973 0.07522566 0.19170326 0.02135636 -0.13884394 0.070528954 -0.05122412 0.0604301 -0.060667355 -0.09739365 0.08127058 -0.16876732 -0.10733912 -0.082567625 -0.021679245 0.1153852 -0.20456213 -0.021018174 -0.035616934 -0.102535084
45 -0.101391755 -0.012345631 -0.02869781 -0.02255227 0.07717517 -0.10554284 0.008711936 0.14101645 0.05289941 0.12365105 -0.1801079 0.09926332 0.08588217 0.089359224 -0.14451179 -0.08744658 0.08700931 -0.11300016 0.111292385 -0.07964508 0.008489053 -0.26706222 0.03010483 -0.20549382 0.059551693 0.015593712 -0.104603775 -0.1410684 -0.0058526057 0.1470645 0.035861883 -0.016550368 -0.00455664 -0.097506374 0.07272539 0.1491012 0.059575535 0.09925375 0.23085934 0.05505613 0.0032233223 0.17057146 -0.039298482 0.11197017 0.12608655 0.07073493 -0.01749412 -0.08347549 -0.06122672 -0.004784576 0.029307107 -0.13341953 -0.007686413 -0.12253006 0.04468036 -0.11358477 0.1761236 -0.0042312793 -0.23776308 -0.071339145 -0.13443609 -0.15608385 0.0463692 -0.18752699 -0.0023730902 0.00033435505 0.010006759 0.009754516 0.08675007 0.014664897 0.05631962 -0.09750281 -0.0628014 -0.094070025 0.08952411 0.000840726 -0.013688804 0.017859153 0.11420486 0.09835987 -0.24074292 -0.05330065 -0.123042315 -0.0799824 -0.075803645 0.10107752 -0.00965846 0.043972626 -0.0076903864 0.16376098 0.16464779 0.11631065 0.034196936 0.28811195 0.10157646 0.035301007 0.024252042 0.04232738 0.08884943 0.09427304 0.13081574 0.03529413 0.04668522 -0.029795177 0.059836708 -0.028484045 -0.0003838225 0.035555016 0.054254334 0.018348278 0.15149517 0.03556634 -0.10922576 0.033120178 -0.102273 0.050156213 -0.029545462 -0.087764144 0.093424365 -0.16629413 -0.0663498 -0.06400421 -0.041437767 0.14700866 -0.14703418 0.064533524 -0.015528149 -0.059309047
6 -0.108169936 -0.018001461 -0.024100274 -0.009545656 0.071937144 -0.10373503 -1.9501022e-05 0.13612701 0.057934884 0.14497466 -0.22832972 0.1271637 0.094934516 0.08783305 -0.13557267 -0.09534878 0.07416569 -0.12434101 0.10278711 -0.05906168 -0.018969517 -0.25990608 0.021988578 -0.19527891 0.06994624 -0.0075774603 -0.11368357 -0.1551581 -0.00078560726 0.15807834 0.061138026 -0.018044613 0.016685273 -0.123646975 0.07094259 0.16518113 0.05730088 0.06073757 0.26017162 0.02123252 -0.028056877 0.1900547 -0.04907096 0.10967641 0.12385321 0.08272021 -0.0066372603 -0.06580067 -0.07729345 -0.020311235 0.05208094 -0.12227673 -0.027692195 -0.115223035 0.062609755 -0.087887436 0.1558183 0.01741003 -0.2675378 -0.07207074 -0.14130902 -0.14687224 0.06271426 -0.17550915 0.010535933 0.012908356 0.01029078 -0.0022670934 0.07896503 0.013148477 0.0611564 -0.12438352 -0.07186485 -0.07638744 0.12566194 -0.0072991056 0.010208246 -0.000760909 0.09647352 0.10800982 -0.24699971 -0.060113434 -0.14409299 -0.07022617 -0.06742714 0.12807028 0.005622228 0.04759363 -0.0045959232 0.185867 0.15945481 0.13235196 0.001914337 0.30135888 0.12141696 0.05006299 0.012915298 0.014115151 0.08044941 0.1289012 0.1671298 0.024636453 0.08636188 -0.03855998 0.052935537 -0.019916015 -0.00039958186 0.05346284 0.044003323 0.03431509 0.1399525 0.043502323 -0.12308913 0.047621112 -0.09100116 0.07058354 -0.029920712 -0.07130748 0.10635871 -0.18006577 -0.08254469 -0.06427879 -0.044796698 0.13652655 -0.16946557 0.050379843 -0.013730824 -0.0876215
35 -0.118543014 -0.0052764043 -0.08849761 -0.067879 0.12100925 -0.10249153 0.028337408 0.15818125 0.037663378 0.05250078 -0.12692043 0.07708574 0.06890299 0.14043963 -0.21346085 -0.083414406 0.089055866 -0.13567431 0.12103157 -0.13333146 0.008090323 -0.28285113 0.076864555 -0.23806742 0.056402598 0.06078308 -0.13661782 -0.15730289 -0.014058764 0.09598068 0.00840342 -0.034489367 -0.0834267 -0.021829214 0.11523371 0.10090393 0.07139816 0.2143755 0.21165656 0.11875072 0.021938141 0.15517431 -0.008704122 0.13522886 0.13093382 0.12207493 -0.022952002 -0.06738466 -0.06178143 -0.030303203 -0.015599258 -0.16746983 0.01029728 -0.18526165 0.030066423 -0.20467983 0.21135595 -0.056272283 -0.23260306 -0.1048701 -0.14802822 -0.18482561 0.078062996 -0.2006285 -0.03515487 -0.036567967 -0.030911801 -0.0011999626 0.06006467 -0.013119319 0.053658556 -0.04102676 -0.079857625 -0.11033879 0.029997181 0.040098496 0.0004604931 0.0999813 0.21132772 0.1416555 -0.23191379 -0.06689288 -0.07845965 -0.0727385 -0.12465609 0.029369924 -0.030234309 0.06298245 -0.044110287 0.107832834 0.1815885 0.083271176 0.12083996 0.30906114 0.05816433 0.036128633 0.08909514 0.10016153 0.108327456 0.016374366 0.07304348 0.0458137 -0.0065355105 -0.025141923 0.086669676 -0.04889699 -0.029605525 -0.006068906 0.060577177 -0.03140344 0.13734575 0.053945847 -0.09910379 0.00798675 -0.1525756 0.050001998 -0.004312608 -0.11269022 0.09224298 -0.15998693 -0.023610936 -0.056712978 -0.05608191 0.17957085 -0.085409574 0.1438959 -0.0058099874 -0.012230888
20 -0.14013352 -0.037405584 -0.13728854 -0.051711783 0.16303079 -0.07967704 0.06360753 0.14433417 0.007177891 -0.0142239565 -0.194381 0.11828357 0.09426984 0.15723898 -0.2678551 -0.09879113 0.06579732 -0.20347753 0.057285324 -0.117390044 -0.08863511 -0.2451179 0.12446572 -0.21625009 0.081273854 0.08286095 -0.18437232 -0.19170693 0.007753747 0.048844878 0.04741821 -0.06100266 -0.14465155 0.0098129315 0.18409088 0.07134663 0.046100445 0.17796165 0.23076208 0.07760461 -0.06991566 0.12632935 0.0008530157 0.13378829 0.09133732 0.19059245 0.019835459 0.030009123 -0.09220769 -0.05687015 0.048603244 -0.12463398 -0.005900073 -0.20160416 0.067957416 -0.20186278 0.16007446 -0.058307227 -0.23749258 -0.08748972 -0.1413505 -0.17087835 0.12922733 -0.16678265 -0.05423884 -0.061961655 -0.05439902 -0.04001767 0.03947409 -0.05733368 0.081601776 -0.05295446 -0.121965244 -0.070591986 0.067174055 0.045792427 0.11003988 0.101688646 0.24329966 0.1994814 -0.19817044 -0.122342385 -0.07664096 -0.033310946 -0.1365528 0.020479223 0.020302625 0.08542645 -0.1196705 0.108639695 0.20787126 0.08501901 0.07628267 0.3329806 0.03685581 0.060201526 0.12513988 0.051071398 0.104921065 0.016666472 0.10417608 -0.021636255 0.058442187 -0.048600417 0.07983949 -0.051657263 -0.056987174 -0.034690365 0.035982504 -0.04578414 0.042326026 0.07184267 -0.10382355 -0.009561934 -0.17129956 0.09307669 0.038745977 -0.057511758 0.13048656 -0.18791372 -0.0306755 -0.052253615 -0.10035058 0.16607085 -0.08219018 0.19288944 0.018088952 -0.0408257
12 -0.110067025 0.0053948546 -0.112965874 -0.09550186 0.13908073 -0.09997168 0.045838267 0.1670463 0.029166982 0.00047159218 -0.07654084 0.04986299 0.06736243 0.17053263 -0.25922295 -0.08238153 0.099350296 -0.14688063 0.12368621 -0.16921672 0.034373563 -0.30375424 0.1070907 -0.27457124 0.055076227 0.105017625 -0.14251667 -0.1670509 -0.01760697 0.07347444 -0.028684026 -0.03693648 -0.13615201 0.040292773 0.13722417 0.07139251 0.0812944 0.29417875 0.19077069 0.17696536 0.057735983 0.13470313 0.011963981 0.14521466 0.12344568 0.14121996 -0.031070722 -0.070049234 -0.051637255 -0.029645152 -0.055869535 -0.19707254 0.033155423 -0.21672788 0.0059149098 -0.26961353 0.24961384 -0.102879025 -0.20990103 -0.11941205 -0.14943278 -0.19738016 0.081775755 -0.220202 -0.062138606 -0.06764433 -0.045108356 0.00054958416 0.07283476 -0.03248735 0.058691073 -0.00043076265 -0.086706474 -0.13795793 -0.021883186 0.05412962 -0.01613068 0.15202299 0.27342492 0.14501487 -0.22897738 -0.070156276 -0.04347857 -0.079780884 -0.15746781 -0.030029174 -0.051120598 0.076526254 -0.07209676 0.07824273 0.19496596 0.048275594 0.18859853 0.30476776 0.02763594 0.032687712 0.13272652 0.14508021 0.12112366 -0.040283225 0.014261862 0.06182928 -0.05759491 -0.022894064 0.11101915 -0.06143346 -0.029178714 -0.038351934 0.06643713 -0.06654723 0.13971178 0.060577627 -0.08002356 -0.019992828 -0.1935719 0.030173223 0.0044235107 -0.1255672 0.074461535 -0.15340452 0.010361872 -0.062345143 -0.06696989 0.20863755 -0.05037531 0.19264978 -0.0065439017 0.03215418
48 -0.12935382 0.0013657436 -0.1470146 -0.115456894 0.17042741 -0.095263556 0.06144115 0.1765229 0.013665729 -0.039933518 -0.06259277 0.038393322 0.054350924 0.19149154 -0.2946282 -0.07983084 0.094810665 -0.16561712 0.13106999 -0.1971846 0.01946484 -0.31045258 0.13852626 -0.28577998 0.049219187 0.11938837 -0.16497467 -0.17563395 -0.017511472 0.04636208 -0.03467428 -0.052166257 -0.17785268 0.076354265 0.16788788 0.052272156 0.07667816 0.35666025 0.18250525 0.1982234 0.057141647 0.13044378 0.024817685 0.15966144 0.13121179 0.17722908 -0.023356391 -0.055913646 -0.048302885 -0.043887477 -0.06971973 -0.19686764 0.037620597 -0.24771723 0.004560593 -0.31942028 0.26946574 -0.12572299 -0.21161465 -0.13846979 -0.15805842 -0.21921736 0.10258109 -0.22564006 -0.07674212 -0.088464536 -0.06583479 -0.008277837 0.050860982 -0.05398644 0.054296248 0.029432092 -0.10198847 -0.1350751 -0.046044722 0.076931916 0.0057709906 0.19019979 0.323673 0.18015072 -0.21937281 -0.08173043 -0.027369976 -0.06995704 -0.18849288 -0.066150144 -0.057371005 0.08355251 -0.09689045 0.047885176 0.2065449 0.032500025 0.22799583 0.3266256 0.0017508892 0.032234896 0.17010346 0.17183818 0.12968591 -0.07843733 -0.0023203047 0.05483776 -0.076980405 -0.020482464 0.12536821 -0.0745197 -0.04957573 -0.055264585 0.07140312 -0.100918524 0.12190711 0.07429224 -0.072227 -0.027709277 -0.2086585 0.03787251 0.023841342 -0.13542747 0.08023941 -0.15480885 0.026819475 -0.05896889 -0.07056732 0.21708699 -0.01223199 0.24043065 -0.004798716 0.056183904
51 -0.12188029 -0.025023581 -0.026054254 -0.009634721 0.0823393 -0.103015006 -0.0015024507 0.13757564 0.059630167 0.15269732 -0.22997917 0.12240443 0.08841938 0.079657674 -0.12079322 -0.09246479 0.069684036 -0.12719496 0.11330261 -0.059487075 -0.034355845 -0.25108996 0.014586695 -0.18519041 0.06344711 -0.020562004 -0.116642214 -0.14656194 -0.0039759236 0.15237166 0.07211002 -0.013049841 0.030377703 -0.13182367 0.07384632 0.17438431 0.05455505 0.060864214 0.24231972 0.0077396748 -0.046956185 0.19181928 -0.050941244 0.11006468 0.13030367 0.08415587 -0.003917622 -0.06093357 -0.06963256 -0.020249724 0.048932903 -0.1189599 -0.031370535 -0.11718033 0.06674211 -0.08928581 0.14787365 0.029414387 -0.2831402 -0.07235255 -0.14932728 -0.15598594 0.072056845 -0.1763782 0.015447816 0.02816325 0.0132588865 -0.001736615 0.06038133 0.019692661 0.053674158 -0.12849608 -0.07332413 -0.07170715 0.12980115 -0.0056653535 0.02188015 -0.008396007 0.088162854 0.11257843 -0.25070983 -0.06735132 -0.15358256 -0.07083458 -0.072896205 0.13450243 0.0056270505 0.04804369 0.0074778167 0.17750205 0.16292949 0.13134748 -0.003150282 0.3131705 0.12562299 0.047692154 0.013734481 0.014262508 0.08012155 0.13714315 0.17728303 0.025792036 0.09768135 -0.04077111 0.054337095 -0.018496405 -0.008420935 0.054941118 0.0541055 0.026525171 0.1365134 0.036114953 -0.13073394 0.058049414 -0.07086218 0.077812314 -0.027174348 -0.074475 0.110674106 -0.17295733 -0.085860744 -0.056385674 -0.04262947 0.116503984 -0.16120204 0.04812889 -0.020779774 -0.087640315
18 -0.11152673 -0.02908465 -0.018122613 0.018518725 0.07187165 -0.100825 0.0059056897 0.11854715 0.053390272 0.15873662 -0.24818149 0.1432697 0.106926665 0.0673262 -0.11872281 -0.0949523 0.067195676 -0.11347686 0.080651 -0.0333292 -0.044381447 -0.2280721 0.010264421 -0.16848268 0.077981025 -0.019775122 -0.11696941 -0.14283837 0.008777737 0.15912566 0.07805052 -0.020384865 0.035609715 -0.14841577 0.06762878 0.16661026 0.043641675 -0.007888494 0.26397574 -0.024822995 -0.063744485 0.17638522 -0.05489581 0.100842595 0.11320237 0.081236914 0.004899809 -0.04671505 -0.077869646 -0.01817371 0.08498894 -0.09884601 -0.040171966 -0.09522512 0.08145782 -0.05354283 0.11611337 0.04413174 -0.2693701 -0.049641963 -0.12929237 -0.1274182 0.062125303 -0.15942986 0.017916588 0.020965237 0.022416957 -0.010439485 0.075011514 0.020909898 0.062218107 -0.14196892 -0.069588035 -0.060854666 0.15051366 -0.023258934 0.038567152 -0.04705595 0.06297988 0.10358802 -0.2342541 -0.06626264 -0.15780577 -0.05094949 -0.045086134 0.14668004 0.03211517 0.03982941 -0.0050094374 0.19842207 0.14848608 0.14826006 -0.053590797 0.2999953 0.13443404 0.048131917 -0.006686646 -0.017901508 0.06412668 0.15871929 0.19060156 0.0034441275 0.12490786 -0.04679719 0.032219034 -0.012015922 -0.002343142 0.058023173 0.036280032 0.052981474 0.10609991 0.030486427 -0.13343112 0.05124867 -0.07203295 0.08622134 -0.0256298 -0.04847409 0.11869806 -0.17976126 -0.098997004 -0.064052805 -0.05433802 0.1049442 -0.18089621 0.027110707 -0.011567973 -0.11157786
40 -0.09586453 -0.008513944 -0.014216412 -0.0062221205 0.060626924 -0.1031504 0.00093814026 0.14134733 0.061579555 0.14498504 -0.20528345 0.1182583 0.092121415 0.073892504 -0.12585677 -0.09026798 0.07930344 -0.11096968 0.107910044 -0.06846158 0.008904246 -0.2660943 0.013916897 -0.19718397 0.07038345 0.0039871074 -0.09373588 -0.14227638 -0.008937844 0.1619048 0.043423697 -0.017771455 0.026621072 -0.12402111 0.064115256 0.16632727 0.060983393 0.062039465 0.2520172 0.034965504 -0.0039660223 0.18148983 -0.049305692 0.10757357 0.12996721 0.058458157 -0.01988618 -0.09081998 -0.058709607 -0.007268629 0.03775143 -0.13675039 -0.020199213 -0.10738373 0.050972372 -0.08596728 0.16751194 0.014921037 -0.24893491 -0.0668607 -0.13146049 -0.14334813 0.038923673 -0.18363169 0.01005503 0.009381412 0.019875648 0.012937556 0.09079781 0.026722025 0.058577295 -0.111874826 -0.05652686 -0.089825116 0.105869435 -0.005726782 -0.017734611 -0.003995254 0.08243817 0.08615566 -0.24407808 -0.040325116 -0.13697661 -0.0769466 -0.062718205 0.12848085 -0.0061953813 0.039389424 0.0009273091 0.18184717 0.15870216 0.13176051 0.01670994 0.28316253 0.1236926 0.038300645 -0.0008985272 0.0262389 0.08597154 0.12573633 0.15044871 0.040687956 0.06325845 -0.038273834 0.051576786 -0.022836413 0.006389407 0.05496942 0.04939395 0.03335219 0.15901496 0.03272211 -0.12372392 0.04608087 -0.09702154 0.059593804 -0.03070931 -0.07788052 0.09586777 -0.16500486 -0.0778157 -0.06888385 -0.043776233 0.13020805 -0.16582993 0.043312248 -0.02067148 -0.07015514
5 -0.12577085 0.0064994376 -0.1343184 -0.10355417 0.16064058 -0.09642484 0.052981842 0.17746279 0.020810844 -0.018041281 -0.072097264 0.050285734 0.06473893 0.180708 -0.28500918 -0.08264233 0.092531815 -0.16092095 0.12131623 -0.1830444 0.021565964 -0.3062144 0.12613094 -0.283505 0.05796294 0.11372242 -0.1570541 -0.17262453 -0.01876565 0.058798727 -0.035621725 -0.04874655 -0.16406968 0.05925968 0.15849923 0.058838025 0.081617996 0.3241794 0.18797535 0.1869709 0.05225238 0.13499188 0.018878829 0.15233 0.12912339 0.16389918 -0.029145649 -0.06400374 -0.055756662 -0.03201595 -0.054137878 -0.19981481 0.030027574 -0.23707351 0.009751446 -0.29447287 0.2568966 -0.116530016 -0.21471633 -0.13057923 -0.1583698 -0.20579101 0.09423999 -0.22292277 -0.068625234 -0.08127254 -0.049203098 -0.012231056 0.062477358 -0.047577504 0.05679987 0.01409252 -0.09213389 -0.13264659 -0.026297508 0.067511305 -0.0024136575 0.17331004 0.30067998 0.16374084 -0.22680548 -0.079628535 -0.03547074 -0.07001763 -0.17307056 -0.051070925 -0.049256153 0.08424581 -0.08974619 0.06942443 0.20280689 0.042535745 0.20376202 0.32295266 0.014141064 0.03367405 0.15372619 0.16016164 0.1236995 -0.059377838 0.011086595 0.05590956 -0.058946826 -0.027103418 0.116196826 -0.068532795 -0.039157335 -0.047464848 0.06861886 -0.08486844 0.125174 0.06683621 -0.08269811 -0.021879725 -0.20846573 0.03660607 0.008347389 -0.13402498 0.079386815 -0.15940513 0.020341199 -0.059796218 -0.06909192 0.21773344 -0.034799844 0.22292705 0.00043606854 0.044170752
26 -0.13172437 0.012459325 -0.16455732 -0.13955244 0.18776873 -0.09676501 0.0710721 0.19384407 0.018011296 -0.063424796 -0.044961117 0.036353547 0.060201075 0.213454 -0.33320478 -0.086904645 0.10276543 -0.18543953 0.1407148 -0.22615568 0.024380516 -0.3369207 0.1577912 -0.32121447 0.054530606 0.1424555 -0.17305611 -0.19257715 -0.024122914 0.036227863 -0.0558712 -0.056310374 -0.20942378 0.10654178 0.18463849 0.03130911 0.087978676 0.41357434 0.18642162 0.23471572 0.07563381 0.13335578 0.040041607 0.1663129 0.13261072 0.1960769 -0.031932585 -0.056475736 -0.049890254 -0.043819577 -0.09068999 -0.22229931 0.042989727 -0.2721375 -0.0007735576 -0.3581222 0.2965941 -0.15413387 -0.21265295 -0.15732895 -0.17042652 -0.23622352 0.10914018 -0.24220917 -0.093658365 -0.105184734 -0.07578905 -0.010617702 0.051688034 -0.061987348 0.060248256 0.050014686 -0.10927327 -0.1543973 -0.06159243 0.0924359 -0.004792215 0.23420455 0.36461243 0.1890877 -0.23398551 -0.09287207 -0.01006362 -0.07095938 -0.21191294 -0.09446426 -0.06641566 0.094550215 -0.114436366 0.040504448 0.22055803 0.019496018 0.2684354 0.3356367 -0.012731922 0.03529735 0.19227389 0.19724421 0.14393649 -0.108190045 -0.024546815 0.0695163 -0.10218271 -0.024764612 0.13485949 -0.08515643 -0.056094024 -0.07698922 0.07609571 -0.122437246 0.12853883 0.083368346 -0.071514204 -0.03801481 -0.23620522 0.03377501 0.024977896 -0.15240122 0.07946641 -0.16358444 0.037005465 -0.05644108 -0.08227827 0.24189687 0.0054946877 0.27572492 0.0023266433 0.073604524
23 -0.11887746 0.009755807 -0.14269069 -0.113663614 0.1642687 -0.09571208 0.060816046 0.16938491 0.017960936 -0.035369515 -0.053865757 0.038273647 0.057337 0.18638109 -0.29083773 -0.082031034 0.09262288 -0.16138907 0.119705975 -0.19176206 0.023788206 -0.30528983 0.133133 -0.2882992 0.051903542 0.12401304 -0.15565148 -0.168018 -0.021629885 0.045917016 -0.047007807 -0.043504644 -0.17545252 0.0719603 0.15600897 0.04442278 0.082201086 0.34372887 0.17760767 0.20010018 0.06579484 0.12862319 0.028155403 0.15157993 0.12094864 0.16686259 -0.03066547 -0.06096971 -0.04930302 -0.030876825 -0.06599484 -0.20430854 0.03690565 -0.24119891 0.00566388 -0.30822167 0.26270267 -0.12832066 -0.19941165 -0.13487236 -0.1529131 -0.20920181 0.09571827 -0.22292571 -0.07122219 -0.082117654 -0.053927362 -0.007910754 0.05671015 -0.045252603 0.057788983 0.031475622 -0.08954528 -0.13541174 -0.04170976 0.06695195 -0.00777807 0.18856727 0.3092749 0.16342482 -0.22077234 -0.078333944 -0.021194356 -0.0704216 -0.17723505 -0.066434085 -0.055859454 0.08355121 -0.09324923 0.050442945 0.19804533 0.029374262 0.2189992 0.31162867 0.008075329 0.027705183 0.1595268 0.16175343 0.12582165 -0.0717081 -0.010254677 0.060572557 -0.07840686 -0.021037055 0.113890536 -0.06835743 -0.045749195 -0.059018727 0.064407915 -0.095094375 0.124084026 0.06992846 -0.07422437 -0.029445507 -0.21173067 0.030136073 0.008872463 -0.13614711 0.07230314 -0.14748472 0.021417547 -0.052831553 -0.07013817 0.2136156 -0.014529627 0.22896996 -0.0019761831 0.053400375
47 -0.12878639 0.017586771 -0.16036429 -0.13553354 0.18147601 -0.102144144 0.06639176 0.1898845 0.02086356 -0.056867935 -0.02526081 0.024204137 0.047656205 0.2128717 -0.31476521 -0.07423959 0.10610893 -0.17141479 0.14372027 -0.2233693 0.041948475 -0.33205697 0.15085751 -0.31991607 0.04420889 0.13176359 -0.16221936 -0.18199195 -0.029999081 0.03390913 -0.062339 -0.041704666 -0.19977313 0.10940484 0.17140876 0.03293523 0.09257815 0.41892707 0.16188303 0.24489817 0.086076096 0.12818557 0.036179483 0.16492464 0.13651003 0.17900737 -0.036042485 -0.07118394 -0.042651393 -0.044322994 -0.10528278 -0.22899196 0.051440023 -0.2673602 -0.007123197 -0.3597341 0.29882511 -0.1542166 -0.19754374 -0.1582049 -0.17124856 -0.23448627 0.100058496 -0.24037072 -0.08136349 -0.096412115 -0.067781866 -0.006649692 0.052833576 -0.056785922 0.047298074 0.058211032 -0.095448114 -0.16154845 -0.079257034 0.08895302 -0.017261004 0.23534964 0.358233 0.17990641 -0.2324243 -0.0822254 -0.007961006 -0.07981834 -0.20952298 -0.09596982 -0.07380056 0.095963046 -0.092396826 0.03383761 0.21888483 0.019468399 0.2752569 0.3303281 -0.012472549 0.03496775 0.19196887 0.20446208 0.14254709 -0.114167854 -0.039332483 0.08120723 -0.117497705 -0.018714126 0.1385267 -0.07706541 -0.04731058 -0.07003385 0.083307184 -0.11641561 0.1389378 0.078557685 -0.06528228 -0.040679324 -0.22776678 0.022732751 0.013272152 -0.16075036 0.06981897 -0.15152337 0.041333683 -0.05829651 -0.06656626 0.23967241 0.014404971 0.26678008 -0.01009495 0.08732327
22 -0.10043424 -0.015650159 -0.024365231 -0.020194357 0.07216891 -0.09779493 0.0018790702 0.14676175 0.059698086 0.13039948 -0.20192339 0.11768063 0.09397415 0.08654969 -0.14286643 -0.08887923 0.08250922 -0.12451195 0.10450415 -0.07441244 0.004715887 -0.2741384 0.027058896 -0.20840298 0.06537536 0.016614564 -0.104992166 -0.14880623 -0.0049104174 0.15098935 0.037817404 -0.025338056 0.003483019 -0.106060095 0.07607099 0.15752955 0.060973812 0.08564571 0.24666584 0.04910451 -0.007806296 0.17842117 -0.045801546 0.107385844 0.12206812 0.06623385 -0.016052373 -0.08035342 -0.06389102 -0.010386262 0.035491697 -0.1391432 -0.01730658 -0.12223471 0.043755885 -0.09853147 0.17150687 0.0064584613 -0.24379678 -0.0711394 -0.13061364 -0.14533402 0.05081556 -0.17787139 -0.00059144775 0.001599723 0.009703148 0.012320435 0.084620394 0.015960712 0.060782805 -0.10335399 -0.0681972 -0.088589095 0.10210362 -0.0044110287 -0.0012933719 0.016413303 0.108761735 0.10163556 -0.23514612 -0.047060534 -0.12835526 -0.077011384 -0.07043091 0.11310672 -0.009640423 0.047733087 -0.011219916 0.17150472 0.16482125 0.11412491 0.029972706 0.28119257 0.10486519 0.035530638 0.018583763 0.036577877 0.09137377 0.10864564 0.1369814 0.035133876 0.054362617 -0.038641926 0.059947353 -0.023049591 -0.0045814267 0.045118786 0.04614591 0.024805637 0.14394955 0.04239894 -0.11712519 0.036618367 -0.104294665 0.05883542 -0.024960602 -0.08327755 0.09942986 -0.16699937 -0.069143824 -0.062210247 -0.047256984 0.1358803 -0.15453343 0.06422667 -0.01711498 -0.069032334
50 -0.12479256 -0.025462812 -0.016023455 0.00046071585 0.080216885 -0.0961843 -0.013811797 0.1256637 0.0637926 0.16916592 -0.23787259 0.12407697 0.081413254 0.069490075 -0.088669926 -0.089628555 0.056210775 -0.12371512 0.11269316 -0.049907316 -0.041140225 -0.24114378 0.0020229924 -0.17279224 0.0567628 -0.040817793 -0.10065665 -0.14633511 -0.0065819076 0.15238285 0.079885304 -0.007980121 0.058087047 -0.14156216 0.06202823 0.18417975 0.044028442 0.04258668 0.2331235 -0.0057703014 -0.05669549 0.1974553 -0.058452327 0.107734784 0.13014229 0.08498866 0.0056437575 -0.055968057 -0.057901982 -0.024713056 0.059141785 -0.10316829 -0.039796438 -0.10488793 0.07126376 -0.06709136 0.13492864 0.04698935 -0.28773367 -0.067952365 -0.14634551 -0.14705028 0.06717093 -0.1637658 0.03331763 0.040270783 0.015616157 0.004508653 0.05163538 0.032174557 0.045707576 -0.13339561 -0.07037349 -0.065911345 0.14357965 -0.011314557 0.030872868 -0.018408554 0.07046575 0.10893187 -0.2385415 -0.06109102 -0.16639672 -0.06993553 -0.06930548 0.15279031 0.009530578 0.044457905 0.023387216 0.18198632 0.14564326 0.13638054 -0.014020346 0.2991992 0.12767652 0.05031434 -0.004264281 0.0031552953 0.06728482 0.15378255 0.20108747 0.02356529 0.108458854 -0.042274464 0.049011707 -0.009920087 -0.00960258 0.07397925 0.04757268 0.030626262 0.12985812 0.038911015 -0.1347842 0.06257296 -0.05520647 0.08925189 -0.024947155 -0.06887952 0.10799967 -0.16103384 -0.09889667 -0.054159038 -0.023389393 0.0998258 -0.15746638 0.037240367 -0.021673653 -0.09232001
36 -0.12177109 -0.02493238 -0.05862701 -0.011655121 0.1038582 -0.09483126 0.022105744 0.11929806 0.03224412 0.09201126 -0.21873872 0.124880075 0.09691954 0.100902945 -0.16901731 -0.08914947 0.06241972 -0.1377021 0.07090342 -0.06163599 -0.05969098 -0.23435473 0.05469282 -0.17712441 0.07591367 0.010955593 -0.1364667 -0.15516596 0.0048475177 0.115303904 0.06193656 -0.03310987 -0.025793837 -0.09125202 0.10607397 0.12850322 0.0459947 0.066248484 0.2417024 0.012490712 -0.0625391 0.15888119 -0.030680574 0.11397642 0.10352328 0.11115172 0.009236098 -0.019184856 -0.08058081 -0.028961577 0.0648461 -0.10810039 -0.028285941 -0.12985405 0.07615174 -0.10925265 0.13554415 0.0010795628 -0.25084242 -0.066907085 -0.13011052 -0.13938384 0.08304484 -0.15341951 -0.009548862 -0.008166054 -0.0034678653 -0.027154172 0.054277506 -0.007800119 0.06899171 -0.10758751 -0.08395994 -0.06762713 0.11233097 -0.001266822 0.054170817 0.009129425 0.12396359 0.13076119 -0.21605197 -0.08226752 -0.11905351 -0.04676043 -0.08213055 0.09116611 0.026256673 0.05764848 -0.038344994 0.15716775 0.16557321 0.12401241 0.005736178 0.3055517 0.09587946 0.052259423 0.03847678 0.016375724 0.07349898 0.101061076 0.14647074 -0.0043532257 0.09392995 -0.049315393 0.04935541 -0.029315948 -0.0227573 0.022972034 0.036894493 0.013031819 0.08534717 0.048395243 -0.11830537 0.028612632 -0.10535968 0.08483429 -0.0077537918 -0.060733866 0.1161473 -0.17824607 -0.06904875 -0.058225498 -0.06596447 0.12682495 -0.13848689 0.087228365 0.0038300673 -0.082789905
24 -0.151454 -0.07063272 -0.16319537 -0.016620051 0.19069535 -0.06404586 0.09785178 0.14188771 -0.012186957 -0.056420136 -0.27446076 0.17532167 0.12736714 0.17205958 -0.3240324 -0.11107207 0.050573714 -0.25106522 -0.0033129836 -0.08919599 -0.162312 -0.22397624 0.16692361 -0.1971828 0.1259449 0.12241803 -0.22610715 -0.20955418 0.034429047 0.01634921 0.09139295 -0.10112639 -0.20179288 0.020750435 0.23162211 0.042867187 0.041350007 0.10570207 0.28452867 0.02841567 -0.14974435 0.10485426 -0.0020873414 0.14343648 0.056028776 0.23962943 0.055480022 0.1076992 -0.13813986 -0.07772774 0.11656781 -0.095210105 -0.01668409 -0.20369937 0.09628073 -0.1721067 0.11362937 -0.06446055 -0.23933077 -0.07356222 -0.13875735 -0.1442272 0.15957065 -0.14953949 -0.088809125 -0.08183626 -0.07921611 -0.089478694 0.034258965 -0.090996206 0.12103134 -0.08189298 -0.15390927 -0.037171528 0.11862896 0.050515413 0.19557011 0.09099106 0.25630173 0.2464883 -0.1772738 -0.1689798 -0.073236704 0.00955267 -0.1364204 0.025395198 0.07397113 0.083711974 -0.18901677 0.1318261 0.2267709 0.11482404 0.017577987 0.36499724 0.03667076 0.08053165 0.14263205 -0.004350915 0.10715747 0.022701116 0.13248874 -0.095678255 0.12235022 -0.07336209 0.055980675 -0.06553114 -0.07544635 -0.0690789 0.0057273814 -0.04317 -0.021352772 0.10256061 -0.11217659 -0.011164119 -0.1961789 0.12737337 0.07246541 -0.012237785 0.17276722 -0.24581034 -0.04680865 -0.048765168 -0.15170489 0.17160432 -0.112890154 0.2130967 0.05621904 -0.09057792
25 -0.14969316 -0.06252679 -0.14729725 -0.023949072 0.17953485 -0.07013312 0.086426355 0.14500317 -0.0059510376 -0.030197665 -0.2573319 0.16431186 0.11367475 0.17037526 -0.3080879 -0.11047305 0.061284862 -0.23311804 0.016082723 -0.09419347 -0.14074013 -0.23417187 0.14695895 -0.19909194 0.11571499 0.10754281 -0.21800442 -0.20769128 0.024901837 0.03715454 0.08262268 -0.09214168 -0.17710532 0.0086157555 0.215874 0.054139566 0.043926574 0.116025604 0.28266641 0.038241137 -0.12692253 0.115583755 -0.0010112674 0.13893595 0.06633598 0.21868488 0.04117694 0.085398294 -0.12082985 -0.07020866 0.10435405 -0.10393845 -0.019065784 -0.1963746 0.091198444 -0.17132199 0.1262393 -0.054882437 -0.24607855 -0.071491845 -0.14476034 -0.14983946 0.14531061 -0.15508279 -0.073811196 -0.067571916 -0.06849411 -0.07629486 0.04161217 -0.07884685 0.108096205 -0.07710355 -0.14286262 -0.044307485 0.11082581 0.04214679 0.16452818 0.086384736 0.2428247 0.22998382 -0.18520705 -0.15849514 -0.080917776 -0.0028260734 -0.12835038 0.030178076 0.055755086 0.082053766 -0.16687457 0.13210963 0.21325603 0.108288564 0.029492179 0.35779828 0.043556705 0.0685438 0.13120452 0.0046225702 0.10393431 0.029692294 0.13674998 -0.074713156 0.11208331 -0.07342496 0.06254937 -0.06489675 -0.06266139 -0.056988303 0.015454523 -0.03709305 -0.0009917105 0.09013597 -0.11808119 -0.004275886 -0.18381509 0.120476514 0.056606982 -0.029505983 0.15908429 -0.23254773 -0.04953111 -0.050639253 -0.1345763 0.17032339 -0.112172045 0.20293963 0.04643215 -0.07820538
41 -0.117054656 -0.023714172 -0.07160675 -0.011794173 0.10041431 -0.08913251 0.030088866 0.12526919 0.032681856 0.07110648 -0.20468238 0.11756576 0.09386005 0.10619733 -0.1869383 -0.09313514 0.06611843 -0.14024746 0.06710616 -0.072691396 -0.05984383 -0.2255823 0.061696663 -0.17989261 0.07256328 0.030496366 -0.139998 -0.1584606 0.0045867595 0.098962024 0.05823463 -0.03967992 -0.05025856 -0.06792902 0.11332755 0.11097315 0.04534805 0.07533348 0.23177631 0.025544915 -0.058801774 0.15142982 -0.03072299 0.117165476 0.09455308 0.12239832 0.0032785442 -0.015201989 -0.08090999 -0.035409115 0.0644503 -0.11532893 -0.019001646 -0.14173527 0.06268819 -0.124007896 0.13208617 -0.0055462797 -0.24104203 -0.06966507 -0.1261592 -0.14294252 0.086980276 -0.15778859 -0.018441433 -0.020073917 -0.00929646 -0.025401002 0.05459757 -0.015599946 0.07231965 -0.0909092 -0.087193996 -0.06438935 0.10407982 0.007181195 0.0605441 0.030570332 0.14308184 0.13715665 -0.2101569 -0.08837637 -0.11086429 -0.041942745 -0.08069541 0.07797067 0.022914233 0.057812568 -0.05513075 0.14719157 0.1716832 0.11166291 0.012475046 0.29773962 0.08618535 0.04703721 0.05326429 0.01877558 0.087017335 0.07739401 0.13305318 -0.0076464145 0.08536359 -0.052144106 0.050186515 -0.033942085 -0.023935387 0.009960181 0.034714643 0.00045645045 0.076575086 0.045148462 -0.1077866 0.023524107 -0.115373865 0.079361424 0.0044537517 -0.05624159 0.11698958 -0.18234143 -0.066002555 -0.05281686 -0.07523505 0.13483046 -0.13325103 0.09889176 0.008152144 -0.07080693
49 -0.130215 -0.033950634 -0.019580053 -0.0062304856 0.08730084 -0.090492554 -0.0020354525 0.13300309 0.05859189 0.152588 -0.2572953 0.1433335 0.09339951 0.07597538 -0.11131074 -0.09111074 0.056150824 -0.14550872 0.1105018 -0.050922826 -0.058570467 -0.242131 0.017268531 -0.17171867 0.062095996 -0.039851714 -0.12544064 -0.16353777 -0.0010895821 0.1494176 0.09204571 -0.008255125 0.035297472 -0.1365887 0.08263831 0.17808238 0.051599424 0.046800844 0.24466215 -0.0023769373 -0.07435129 0.19585319 -0.049308263 0.104495645 0.11992123 0.09411192 0.008847598 -0.040978402 -0.06887988 -0.038778104 0.06300683 -0.09990299 -0.04844032 -0.121721424 0.08622967 -0.07219274 0.13535042 0.033518683 -0.29200128 -0.064567365 -0.1438708 -0.15184781 0.083486505 -0.15953067 0.022093074 0.028889446 0.00037151139 -0.012296812 0.045700017 0.022875257 0.04874821 -0.13471027 -0.083122544 -0.05551094 0.14734314 -0.0017903331 0.055259526 -0.014449822 0.08711865 0.1324987 -0.2390748 -0.08212221 -0.16078633 -0.065520614 -0.07548603 0.14374919 0.023014799 0.04216664 0.0027303118 0.18035732 0.16002277 0.13647868 -0.020522676 0.3249385 0.12709169 0.050981313 0.008772372 -0.0050001084 0.071986884 0.14527504 0.21024023 0.017282218 0.11750114 -0.035595786 0.053027503 -0.014945222 -0.0058297752 0.06626021 0.0481078 0.028581286 0.11839462 0.048193432 -0.1288195 0.064487815 -0.062355574 0.095723286 -0.015155075 -0.06250367 0.12609483 -0.18125382 -0.100179605 -0.059171543 -0.046648473 0.11656315 -0.15997738 0.05532453 -0.017841311 -0.11007146
46 -0.16118336 -0.053146385 -0.03611993 -0.010336064 0.114755146 -0.08040254 -0.011818253 0.13775197 0.06456613 0.15135743 -0.2929746 0.14956304 0.09898005 0.08009529 -0.0892341 -0.10787271 0.039893795 -0.17519778 0.10836474 -0.043254226 -0.086483955 -0.23919836 0.014230028 -0.16758738 0.050978724 -0.055903174 -0.13212685 -0.1928323 -0.0146764675 0.13702443 0.12076726 -0.013307123 0.05052506 -0.12373226 0.107366994 0.21216452 0.016181814 0.055571932 0.23438768 -0.014656503 -0.10888674 0.21130231 -0.06475772 0.11891837 0.11785401 0.11524426 0.02580601 -0.017057078 -0.05659751 -0.05682325 0.07079493 -0.09760903 -0.05896839 -0.13741678 0.09217237 -0.06913348 0.13518211 0.056291565 -0.31674755 -0.06634489 -0.15547854 -0.16366042 0.109686136 -0.15576562 0.032790735 0.031706057 -0.013750782 0.010054871 0.015040466 0.026835373 0.052233845 -0.14449243 -0.11272957 -0.052293565 0.18092662 0.0070565944 0.10704038 -0.0012203432 0.08068255 0.161273 -0.23558907 -0.09031695 -0.17996857 -0.064762354 -0.09550464 0.17638926 0.0141268885 0.05488121 -0.0014302706 0.16390215 0.17448898 0.12785612 -0.0057239938 0.32937092 0.11548849 0.061255787 0.013294096 -0.0102226585 0.06512872 0.16391163 0.24314573 0.006284214 0.1437599 -0.047163587 0.0689417 -0.008689755 -0.03092969 0.094622955 0.043913424 0.017296886 0.10734639 0.049939655 -0.15073968 0.064842336 -0.044993784 0.12339128 0.0099307755 -0.04468175 0.14084889 -0.17304182 -0.096288286 -0.045139886 -0.022099435 0.0852228 -0.15098277 0.084724724 -0.022532383 -0.10164832
33 -0.122110344 0.002674972 -0.13232388 -0.100924835 0.15683678 -0.09555419 0.053554256 0.17037675 0.01895545 -0.0060420786 -0.08139761 0.055308804 0.061413974 0.17781803 -0.26730534 -0.078666724 0.096395 -0.1590059 0.12504224 -0.17433564 0.017898692 -0.30628756 0.12166037 -0.2785161 0.052363116 0.10290516 -0.14876148 -0.1664205 -0.015098325 0.059535503 -0.024044167 -0.037888538 -0.15118578 0.045017157 0.14551045 0.06371457 0.08411857 0.31116667 0.19251776 0.17432174 0.048497114 0.13516568 0.008314024 0.14998135 0.12522121 0.15875255 -0.027627045 -0.0634058 -0.053268254 -0.03184499 -0.05405044 -0.19565155 0.023890568 -0.22957371 0.012036279 -0.28380278 0.25062656 -0.10181825 -0.21727261 -0.12446157 -0.16309096 -0.20928258 0.09305029 -0.21389575 -0.062026724 -0.07039289 -0.05338226 -0.010907461 0.060005452 -0.034616653 0.05486965 0.008606861 -0.095096104 -0.13579631 -0.025231577 0.067215934 0.0013373725 0.16701116 0.29193857 0.16262306 -0.22955903 -0.0794986 -0.04779472 -0.0804286 -0.16278611 -0.035041664 -0.05109594 0.083463505 -0.08366777 0.06848783 0.20524581 0.048379723 0.19372489 0.32504454 0.023548188 0.034478497 0.14503115 0.1493279 0.12391307 -0.048523273 0.022736317 0.05508476 -0.056656256 -0.024795454 0.11611716 -0.061346088 -0.039966542 -0.036906358 0.0695688 -0.08043301 0.13160554 0.07136442 -0.086000055 -0.017206298 -0.19850804 0.044691812 0.007267799 -0.12812683 0.08033021 -0.16161618 0.009981102 -0.053546518 -0.06734522 0.21302494 -0.03344655 0.21094108 -0.0031546452 0.03868229
3 -0.14713046 -0.036231034 -0.024622446 -0.021168875 0.10444076 -0.07788194 -0.016847085 0.12856941 0.057803128 0.14686817 -0.2502814 0.12689625 0.0744883 0.07101439 -0.07451615 -0.09547526 0.04280937 -0.1578337 0.11284703 -0.05194129 -0.0665233 -0.22857901 0.0053644185 -0.15807773 0.04250418 -0.058964994 -0.11508663 -0.16969013 -0.01214398 0.1336102 0.09772428 -0.00092570274 0.052012786 -0.11802786 0.087524705 0.19565822 0.029518966 0.06809368 0.20811808 -0.001179444 -0.08327752 0.19295408 -0.054450367 0.11067699 0.12123263 0.09829734 0.013058021 -0.031021552 -0.050332054 -0.049954835 0.044969168 -0.09462833 -0.04989806 -0.12626658 0.079008944 -0.07380864 0.14108904 0.04361022 -0.29544368 -0.066237964 -0.14515702 -0.15381095 0.08766476 -0.15660065 0.035485793 0.03902479 -0.010658035 0.009517785 0.02100746 0.025382368 0.040458526 -0.12924026 -0.098808095 -0.05169143 0.15070884 0.0073082987 0.07912815 0.009152154 0.07880827 0.14246324 -0.23580398 -0.079807766 -0.16360137 -0.07056872 -0.09077093 0.15870324 0.009199279 0.05085846 0.012476397 0.1497896 0.15568383 0.11496516 0.008288072 0.30895916 0.11509713 0.057298485 0.014572904 0.0021634432 0.05947189 0.14822981 0.21764044 0.026364386 0.12054094 -0.034516055 0.06612824 -0.005272717 -0.021282982 0.089350924 0.04987858 0.011649334 0.11656558 0.043324567 -0.14056444 0.06641184 -0.04084345 0.099064454 -0.0041809636 -0.058314715 0.12525459 -0.15111563 -0.09346948 -0.048283074 -0.020381946 0.08261767 -0.12775792 0.06887053 -0.024873435 -0.0887678
27 -0.12308888 -0.013905642 -0.0864172 -0.041222706 0.12231503 -0.096328065 0.03363837 0.14673229 0.02730105 0.051826727 -0.17049181 0.10162942 0.084919885 0.13396788 -0.21654989 -0.09459326 0.08351222 -0.14317761 0.086601466 -0.10630122 -0.025888445 -0.26311886 0.076876745 -0.22183727 0.07672563 0.05684516 -0.14570946 -0.15994589 0.00041238347 0.09941798 0.024943246 -0.038959544 -0.079783306 -0.038119487 0.12209548 0.1040584 0.063589044 0.15251896 0.23342271 0.08245791 -0.01966986 0.15309769 -0.018887872 0.12821288 0.12045747 0.13290834 -0.0036063762 -0.041497573 -0.07329462 -0.02889185 0.023282861 -0.14255247 -0.0033833585 -0.17153475 0.051411018 -0.18053354 0.18151191 -0.036825895 -0.24396567 -0.09151704 -0.14725827 -0.16583557 0.090100184 -0.18826345 -0.035251632 -0.03512767 -0.021804154 -0.021171696 0.06649245 -0.026140664 0.07062676 -0.06640942 -0.086545296 -0.09970054 0.058316313 0.025664294 0.030811235 0.06858042 0.19287933 0.14331342 -0.22739652 -0.08325096 -0.09425568 -0.059434626 -0.11328911 0.044453125 -0.004305186 0.06684115 -0.05612517 0.13596821 0.1800416 0.10131813 0.075759485 0.32096806 0.06927886 0.04566081 0.07980996 0.066096455 0.09562763 0.044052348 0.09905256 0.01391759 0.036685344 -0.044424143 0.07196378 -0.045955643 -0.024631336 -0.0042407904 0.045592114 -0.021278929 0.1016397 0.05096928 -0.1098951 0.009209533 -0.1488634 0.063849084 -0.0010886344 -0.08759745 0.10177866 -0.18173052 -0.043733943 -0.06340918 -0.07036064 0.16398767 -0.10168113 0.13943279 0.00085200847 -0.03755365
13 -0.13374303 -0.037447724 -0.045176513 -0.0123973545 0.101080075 -0.08932113 0.014056442 0.13818134 0.05014675 0.12092898 -0.24355842 0.13656929 0.08890068 0.09854332 -0.1509635 -0.09822767 0.06183463 -0.1553335 0.10758716 -0.065028556 -0.066724926 -0.2562963 0.041551333 -0.19796927 0.07035186 -0.005461432 -0.14451216 -0.16976441 0.00041917906 0.13967419 0.075693965 -0.019707974 -0.0048944973 -0.11816299 0.10439612 0.15637973 0.05349464 0.077422574 0.2569861 0.009961205 -0.06907114 0.18421528 -0.037189353 0.11251276 0.11613305 0.1151765 0.0042595337 -0.03938236 -0.081563205 -0.041852314 0.06049375 -0.109950446 -0.033328723 -0.14289728 0.08428761 -0.10497009 0.14705922 0.0073436378 -0.27870217 -0.07516643 -0.15329903 -0.15619507 0.08652042 -0.17222068 0.006173079 0.015017228 -0.01164741 -0.021133348 0.05027206 0.0033493135 0.057726182 -0.11829388 -0.086823456 -0.057964876 0.12881145 -0.00011240885 0.054512132 0.007688349 0.122292094 0.14709212 -0.2475617 -0.09324841 -0.14408289 -0.05450942 -0.08369435 0.11996846 0.021481628 0.04958877 -0.024726316 0.17328641 0.16745676 0.12705867 0.00118605 0.33625805 0.10856454 0.049261075 0.0422342 0.010541501 0.08422216 0.11487501 0.1853823 0.004539929 0.10548027 -0.039098408 0.052477065 -0.025496831 -0.017727101 0.037265413 0.047838118 0.011257948 0.108499855 0.055989813 -0.12357575 0.056325067 -0.08869635 0.091463715 -0.015846444 -0.062978595 0.120201685 -0.18811528 -0.083623394 -0.05371225 -0.056884553 0.12755407 -0.15348537 0.08257611 -0.005156837 -0.09994034
44 -0.1045706 -0.015957061 -0.008400511 0.0076907882 0.057909783 -0.10357653 -0.0035586525 0.1249097 0.059349574 0.16561559 -0.2372364 0.1337031 0.09241803 0.06934445 -0.10934969 -0.09525993 0.06902327 -0.11276711 0.10276561 -0.041034963 -0.02605637 -0.2463458 0.007402728 -0.17883216 0.065242924 -0.024546977 -0.10568338 -0.13784365 -0.0013976183 0.16675454 0.07167044 -0.007843843 0.043750964 -0.15255652 0.05311306 0.17873245 0.05163631 0.020451153 0.2526236 -0.0053773304 -0.039057434 0.19328582 -0.059514057 0.103802234 0.13083017 0.06700657 0.0011241153 -0.06653224 -0.066290095 -0.008226308 0.06005168 -0.11892984 -0.028626332 -0.09483413 0.06837702 -0.05767902 0.13370645 0.047114078 -0.27297762 -0.06465906 -0.13401753 -0.13207954 0.04788765 -0.17564571 0.018159386 0.03358054 0.023786517 0.0047955373 0.08092384 0.030647743 0.054666907 -0.13852943 -0.063360296 -0.07060651 0.14381573 -0.01628642 0.0047111926 -0.03373228 0.056564137 0.09622955 -0.24771306 -0.044564348 -0.15436144 -0.06551382 -0.057500917 0.1558641 0.0115488805 0.03958108 0.012061142 0.20526315 0.1542251 0.14819805 -0.026165409 0.29015473 0.1393814 0.043599345 -0.011859624 -0.00440662 0.075827844 0.15284583 0.18924387 0.02379588 0.1000199 -0.038967684 0.04497465 -0.009279766 -0.0010934195 0.060740333 0.039430313 0.048908252 0.14735524 0.036354426 -0.12773672 0.059763886 -0.06507683 0.07203947 -0.0392458 -0.06847584 0.111869514 -0.17836058 -0.10210673 -0.064450525 -0.044427108 0.1145578 -0.17704087 0.021488069 -0.02074522 -0.10002555
14 -0.1075213 -0.013999344 -0.011802342 0.005870661 0.05746007 -0.11344745 -0.010289994 0.13395394 0.0697374 0.17522697 -0.22808605 0.13400741 0.0962029 0.07261673 -0.12578927 -0.09514514 0.08409768 -0.10199312 0.10988796 -0.047634713 -0.0036566285 -0.27096537 0.002501069 -0.19984472 0.07081445 -0.013040886 -0.10207346 -0.14495848 -0.0067510954 0.18349904 0.06038573 -0.009340603 0.042175308 -0.15410587 0.04965607 0.1869556 0.06021381 0.02853574 0.26417124 0.0055942056 -0.019945 0.20083171 -0.06513225 0.11403169 0.14005016 0.063196704 -0.014462525 -0.08603185 -0.0732519 -0.0018504534 0.061609264 -0.1349291 -0.024505327 -0.102979794 0.06365213 -0.06666062 0.1528096 0.04615353 -0.28211623 -0.07213787 -0.14395517 -0.14433382 0.04759386 -0.19642112 0.016406292 0.027983092 0.024769455 0.0075024692 0.093788 0.032520346 0.06609737 -0.13820602 -0.052484263 -0.09048244 0.14166963 -0.023536103 -0.014552676 -0.031742517 0.061669983 0.093362406 -0.2657349 -0.040630646 -0.15500996 -0.07798087 -0.053313162 0.15781263 0.0074577634 0.036730424 0.013224997 0.21636124 0.16389792 0.15176411 -0.01420667 0.30801904 0.14439918 0.043051157 -0.01893341 0.012674517 0.083101906 0.15573381 0.1827733 0.03292475 0.09550682 -0.038838144 0.04459524 -0.016247055 0.0017202578 0.063656144 0.045255598 0.05469517 0.1579133 0.034708038 -0.1403396 0.056293163 -0.077424504 0.07448199 -0.04472969 -0.084113024 0.10869826 -0.18186115 -0.09909418 -0.074589044 -0.045460466 0.12666151 -0.18946941 0.020208176 -0.024299648 -0.09202376
15 -0.13199395 -0.03456006 -0.021894151 -0.02868123 0.084260635 -0.08721764 -0.013455733 0.13164718 0.049506508 0.14952666 -0.24087529 0.12613876 0.07632716 0.088989265 -0.10314312 -0.073569775 0.053003363 -0.14085048 0.12751466 -0.06671209 -0.070252195 -0.24115382 0.03513021 -0.1805022 0.059409995 -0.0499464 -0.12605245 -0.14157665 -0.007821541 0.13709973 0.0803588 -0.008527362 0.034666922 -0.12870614 0.07136091 0.17087251 0.06456113 0.08181038 0.22489871 0.01217608 -0.06129272 0.19398002 -0.029715909 0.10969636 0.13257512 0.117232904 0.013953649 -0.05880064 -0.06949949 -0.050120078 0.041801706 -0.09202428 -0.047854714 -0.13121623 0.07697537 -0.108280405 0.14577495 0.011525927 -0.2829167 -0.090856105 -0.15507913 -0.14876398 0.085614644 -0.15848038 0.032295905 0.046821844 -0.008227875 -0.017741822 0.03261291 0.009230328 0.032745793 -0.13012135 -0.099266805 -0.04945232 0.121072434 0.0064151003 0.057970587 0.0077157365 0.10982275 0.13242781 -0.24857377 -0.070631705 -0.16195896 -0.05980232 -0.07989814 0.12887661 0.011274309 0.04303373 0.0043503186 0.17244898 0.15387267 0.12608463 0.008087332 0.33228123 0.10458685 0.054156374 0.032637056 -0.0018022947 0.06775988 0.11454197 0.2061533 0.026971132 0.10971206 -0.021742148 0.046689693 -0.018220533 -0.007477528 0.058633216 0.048559695 0.007483343 0.1193786 0.048324537 -0.12040307 0.06801836 -0.05372181 0.0885772 -0.012467088 -0.06890338 0.11061961 -0.16249229 -0.097087264 -0.053824764 -0.04502727 0.1029865 -0.13194558 0.06461227 -0.012750546 -0.10204044
42 -0.14031008 -0.03716853 -0.10918964 -0.035412487 0.1392345 -0.07980637 0.047319535 0.14020735 0.018554736 0.032062784 -0.21842918 0.12669851 0.09102801 0.13224095 -0.22778694 -0.09955918 0.059893254 -0.18540347 0.065498926 -0.09205553 -0.0875945 -0.23756823 0.09511462 -0.20226629 0.076790474 0.05534237 -0.17487738 -0.18221699 0.010148503 0.075102985 0.058163095 -0.05842177 -0.09976465 -0.029411033 0.15560855 0.096117854 0.04484911 0.13902804 0.24280703 0.049794886 -0.08361837 0.14517154 -0.020227287 0.12819825 0.100009024 0.16587177 0.018888364 0.01657799 -0.08456792 -0.054662194 0.060493026 -0.115697995 -0.016027596 -0.1779427 0.072130986 -0.16610418 0.15172733 -0.033229437 -0.2501724 -0.075204104 -0.14585994 -0.1608489 0.1139162 -0.1664308 -0.039771143 -0.034558833 -0.043764524 -0.03491359 0.040209383 -0.042207625 0.07536367 -0.079379395 -0.11640206 -0.065129824 0.09650896 0.026950272 0.09813307 0.06916222 0.19896229 0.17832707 -0.20967807 -0.115862995 -0.10238457 -0.042964194 -0.117168985 0.0530797 0.020392196 0.072256856 -0.09434175 0.12814179 0.18846741 0.10051819 0.043070246 0.33125713 0.060648076 0.05667029 0.09292703 0.035509877 0.09898367 0.05055221 0.13485035 -0.019293949 0.07793539 -0.05199117 0.0685471 -0.0465609 -0.043886345 -0.01176972 0.038843364 -0.02907014 0.0580919 0.062244035 -0.10829809 0.013828249 -0.14032601 0.09256277 0.022852857 -0.057238065 0.1307223 -0.19352113 -0.04958682 -0.046077717 -0.08484326 0.1472636 -0.105107166 0.15771672 0.016768834 -0.057771094
28 -0.11465197 -0.028613074 0.012476744 -0.007626677 0.06175374 -0.09081531 -0.029542277 0.1288889 0.06295034 0.19268818 -0.25351858 0.13200545 0.07635195 0.0586881 -0.06155371 -0.0731908 0.054809913 -0.1181033 0.1322701 -0.05478294 -0.05084001 -0.23872575 0.0049295374 -0.16380021 0.05651004 -0.074668705 -0.09909402 -0.12063597 -0.0049815956 0.16201101 0.08622997 0.0010664014 0.079517424 -0.17061618 0.036915828 0.19372807 0.059949506 0.03764158 0.23258668 -0.01617663 -0.049056638 0.196013 -0.046142496 0.09445922 0.14118412 0.078945145 -0.00021419331 -0.08401096 -0.059472643 -0.034179263 0.04476862 -0.08848229 -0.05585113 -0.09895461 0.078950115 -0.06432506 0.13896568 0.038732342 -0.28899541 -0.08020972 -0.14667414 -0.14487103 0.058962885 -0.15713832 0.048580863 0.06428875 0.011418103 0.0017448564 0.04316894 0.032128096 0.024114624 -0.1450832 -0.080895066 -0.049127944 0.13503534 -0.011359288 0.030792726 -0.031916574 0.058514386 0.10295683 -0.25346342 -0.05374267 -0.18119216 -0.07191244 -0.060189474 0.1677613 0.005167621 0.030473711 0.0364879 0.1930588 0.13432112 0.14122692 -0.020581786 0.31027058 0.12893759 0.042662323 -0.008146021 -0.0137816155 0.06461291 0.15090024 0.22133349 0.037268404 0.118694246 -0.02579617 0.038159095 -0.006170407 0.0058551184 0.081458196 0.049121793 0.031387396 0.13516797 0.036760706 -0.12467045 0.088644825 -0.029631585 0.08362217 -0.026912333 -0.069722794 0.10867365 -0.15776326 -0.10641628 -0.062840424 -0.022358254 0.09186101 -0.1601002 0.022483476 -0.025125505 -0.10766755
0 -0.112925336 0.0011966882 -0.11072257 -0.08227147 0.13884586 -0.103033654 0.0411637 0.16343538 0.029119104 0.0109133525 -0.08661994 0.06225177 0.06700049 0.15603696 -0.24015318 -0.081430115 0.08965278 -0.1460298 0.12315743 -0.15610205 0.022978276 -0.29775846 0.094430834 -0.26585653 0.052742235 0.08993613 -0.13954324 -0.16440631 -0.011845179 0.08256069 -0.022823734 -0.031647645 -0.12170792 0.020407677 0.134008 0.08199296 0.080191575 0.2759861 0.19413838 0.15962613 0.03973966 0.14443406 0.006358696 0.1421614 0.12439903 0.13941 -0.030015914 -0.07247538 -0.051843345 -0.032761257 -0.046938356 -0.1869233 0.022333853 -0.21033391 0.02024351 -0.25352788 0.23967695 -0.08421177 -0.21132724 -0.1154448 -0.15527473 -0.19811098 0.07927523 -0.21569256 -0.047144875 -0.05691118 -0.041545127 0.0011838237 0.06276082 -0.02374533 0.05636802 -0.0064806645 -0.081531934 -0.13087735 -0.012351316 0.05333859 -0.005231044 0.13823749 0.25626692 0.14138137 -0.23027536 -0.06776532 -0.058829337 -0.08167412 -0.1449055 -0.009011658 -0.04614658 0.07419996 -0.06645569 0.08881525 0.1896582 0.061329965 0.17039709 0.30407578 0.041560832 0.031879175 0.11738571 0.12978613 0.117083706 -0.024396362 0.03033976 0.05619798 -0.043523397 -0.025821729 0.10433079 -0.05537323 -0.03414992 -0.028685324 0.06454687 -0.06400462 0.1357834 0.061162483 -0.08816955 -0.0049049775 -0.18060744 0.0441323 -1.7587465e-05 -0.12067502 0.08571439 -0.15764344 -0.0031188368 -0.054388624 -0.06417942 0.19823085 -0.05016337 0.18422568 -0.008211167 0.019956583
4 -0.16364574 -0.08241663 -0.18393514 -0.013044175 0.21265519 -0.06667179 0.10407128 0.14611666 -0.0101885535 -0.063259356 -0.29314545 0.19786946 0.13542789 0.19716711 -0.3605844 -0.12811153 0.058763124 -0.27184233 -0.004261195 -0.09499036 -0.1889693 -0.24646793 0.18207774 -0.21591493 0.1396339 0.13540505 -0.24763027 -0.23350774 0.0334715 0.017290289 0.10360776 -0.11314991 -0.22259045 0.025116233 0.2602238 0.039759558 0.045719214 0.11015082 0.32364157 0.02948494 -0.16871421 0.1181474 -0.0045132604 0.15848118 0.05663401 0.25999334 0.060028613 0.12833102 -0.15451288 -0.088723734 0.1373495 -0.10510001 -0.027155299 -0.22071238 0.114342004 -0.18754293 0.12264964 -0.06647533 -0.2644559 -0.075640365 -0.15462025 -0.15237701 0.16976365 -0.15969816 -0.10052791 -0.08397286 -0.08517042 -0.09437194 0.036609188 -0.10342147 0.13277009 -0.08795844 -0.16887699 -0.038971186 0.12665601 0.05295414 0.21298598 0.104131676 0.27955467 0.2764417 -0.18461761 -0.1864227 -0.07598024 0.010744464 -0.1480692 0.02523012 0.08051036 0.09579778 -0.21125196 0.14522842 0.24749853 0.12067386 0.027062085 0.39549685 0.04075227 0.079837084 0.16132003 -0.005905887 0.12254302 0.034167916 0.15490878 -0.11118169 0.13954315 -0.087266564 0.05725147 -0.07372548 -0.08616142 -0.07176686 0.0016821807 -0.0429315 -0.027247977 0.114041954 -0.12907311 -0.017719727 -0.20826402 0.14891116 0.082024366 -0.010040342 0.18673468 -0.27271473 -0.052935053 -0.053695466 -0.17050123 0.18813589 -0.12426454 0.24333408 0.05873443 -0.094307415
9 -0.14411142 -0.035625633 -0.032193627 -0.020612702 0.100634016 -0.08558463 -0.003523114 0.13197553 0.057128377 0.13869134 -0.2509074 0.13306476 0.09220048 0.07980428 -0.10256495 -0.09868787 0.054382395 -0.15750507 0.106353275 -0.05801753 -0.059626177 -0.2388897 0.026553996 -0.17940436 0.04900559 -0.03882359 -0.116841234 -0.1781626 -0.016674642 0.12902983 0.09159316 -0.013728513 0.034634154 -0.10573514 0.0931911 0.19141455 0.028000422 0.083777934 0.22211267 0.018092943 -0.07475881 0.19806182 -0.057792433 0.12031105 0.11810665 0.10223879 0.007621146 -0.031135157 -0.05488334 -0.047008075 0.04734002 -0.114390165 -0.040943816 -0.14134498 0.07591034 -0.08894276 0.14781176 0.036176108 -0.29504764 -0.07231312 -0.15097186 -0.1641897 0.09312386 -0.16550566 0.028112687 0.01783753 -0.007860855 0.013338437 0.034386788 0.023323111 0.051996507 -0.11508972 -0.09578748 -0.06749454 0.14430897 0.010742638 0.072371386 0.0144691635 0.093735255 0.14506203 -0.23608765 -0.08073173 -0.1580376 -0.07265678 -0.092946984 0.14734922 -0.0012724713 0.05046906 -0.00066052406 0.15890233 0.1659095 0.12289253 0.017018965 0.31412572 0.10395861 0.050256662 0.023374926 0.016040994 0.0740016 0.13335787 0.19839072 0.021577979 0.11209239 -0.043246463 0.07274834 -0.011190184 -0.021576758 0.0806032 0.05262329 0.01787898 0.11875708 0.042559024 -0.13890706 0.059626594 -0.05926165 0.101621956 0.0004314402 -0.062985234 0.12611564 -0.16998008 -0.08465476 -0.056554366 -0.024238676 0.10764318 -0.13279155 0.08691459 -0.023575475 -0.08086333
2 -0.11902005 -0.024391713 -0.014309603 -0.0073027997 0.08092229 -0.09918389 -0.007865131 0.12790753 0.06056269 0.16444498 -0.23575643 0.1290118 0.091215715 0.07355513 -0.10747973 -0.09170105 0.06776271 -0.12383084 0.1171284 -0.060778722 -0.034326788 -0.25431123 0.011499109 -0.18111855 0.06661372 -0.02980494 -0.10869807 -0.14276989 -0.0071651954 0.15874979 0.075730145 -0.006913462 0.040921584 -0.1404224 0.06606054 0.18126406 0.05342324 0.050945282 0.24095958 0.0035830238 -0.04381883 0.19312438 -0.05460484 0.106172875 0.12932055 0.084934354 -0.0024248816 -0.06469196 -0.06203924 -0.020612206 0.049602203 -0.11029876 -0.03951041 -0.11618968 0.07240898 -0.0782038 0.14751002 0.035262868 -0.27762413 -0.07081109 -0.14163157 -0.14794213 0.06932088 -0.16711123 0.024770562 0.030767906 0.012748044 -0.00055127265 0.060026895 0.026548194 0.04633467 -0.13166507 -0.07494255 -0.0709896 0.12540509 -0.01187076 0.025381437 -0.018516177 0.07786139 0.10862738 -0.24081239 -0.056848377 -0.15495805 -0.068377025 -0.06896252 0.1433976 0.010232357 0.04314356 0.016492024 0.17918447 0.15257962 0.13561033 -0.0038062113 0.30789965 0.12795985 0.047954578 -0.0009362033 0.009192792 0.06762677 0.14327177 0.18928745 0.025671737 0.100905895 -0.033850778 0.052150384 -0.01551478 -0.004393935 0.06922998 0.049263343 0.029335964 0.12981713 0.0409436 -0.12887596 0.061610147 -0.064639285 0.08010961 -0.02395086 -0.0723884 0.102973565 -0.16980696 -0.0875824 -0.060456313 -0.037340317 0.10887195 -0.15689452 0.046628296 -0.022000324 -0.088759154
43 -0.11967588 -0.028000833 -0.025392085 -0.011409851 0.083778076 -0.09587557 0.00511561 0.1344414 0.051520787 0.13136013 -0.21945484 0.12559216 0.087286346 0.087568395 -0.12560102 -0.08410311 0.06614001 -0.12965554 0.10419693 -0.064798996 -0.03375493 -0.24983227 0.031023892 -0.18570976 0.06165791 -0.015026468 -0.11508879 -0.15017153 -0.0008311757 0.14259052 0.06056682 -0.012426284 0.017015101 -0.11624792 0.07688626 0.16060893 0.057693765 0.069023654 0.23649208 0.02320115 -0.04189165 0.1796502 -0.04269048 0.10486714 0.11656126 0.09005862 -0.0033135465 -0.05267717 -0.063701525 -0.02650472 0.045584466 -0.10828864 -0.028580137 -0.121165246 0.064801104 -0.09553721 0.14468466 0.017057512 -0.26020572 -0.074100666 -0.13752718 -0.14487514 0.070969656 -0.17021815 0.009199534 0.016827356 0.0012417422 -0.0032255654 0.057068188 0.014993935 0.05143992 -0.11160893 -0.07305349 -0.068104655 0.11840271 0.001949266 0.028308718 0.0024804547 0.097636655 0.1179872 -0.23733406 -0.062460404 -0.14030378 -0.061418526 -0.0715442 0.122330636 0.010520605 0.040156674 -0.0027225334 0.16725084 0.15174526 0.124242514 0.0070343493 0.30001733 0.11176816 0.047354825 0.018681394 0.01853988 0.07800889 0.11618207 0.16518547 0.018117344 0.088037245 -0.03474309 0.05299146 -0.021444546 -0.01197207 0.050646517 0.04300736 0.021165555 0.12553471 0.04212955 -0.116633646 0.051704213 -0.076574214 0.07701652 -0.014771299 -0.07215813 0.10588098 -0.16587614 -0.082056366 -0.06096268 -0.046775382 0.11935687 -0.14128454 0.063820474 -0.016935894 -0.083055645
