41 128
15 -0.030672694 0.0647647 0.08000183 -0.07072307 0.08629649 -0.009698485 0.011150168 0.009432073 -0.009240154 -0.039551396 -0.0049752295 0.16042916 0.069247834 0.010875778 -0.005718564 0.0034256112 -0.07625144 0.009685816 0.043828458 0.014536812 -0.21309642 -0.114017844 0.08902605 -0.136723 0.12154983 0.021537863 -0.110562764 -0.10047561 -0.11097276 0.076047115 -0.031594113 0.05795659 0.04332271 -0.065469 0.028831558 0.00687542 0.18714392 0.019253772 0.22690682 0.035004817 -0.12067557 0.15925927 0.17172334 0.1417403 0.07640193 0.19657797 0.03904915 -0.085473254 -0.11562134 -0.21224032 -0.08693961 -0.16463107 -0.09608659 -0.18233176 0.074145146 -0.023915222 0.12964527 -0.06710863 -0.05794911 -0.07244245 0.021396572 0.112818174 -0.04723372 -0.071834534 -0.029341027 0.034687832 -0.19419385 -0.16078363 -0.043505967 0.048288334 0.12201783 -0.12522392 -0.113762654 -0.008334175 0.023948297 -0.09435064 0.073529 0.03159079 0.05402679 0.030327773 -0.19774647 0.06470044 -0.0049110395 0.03862702 -0.0859694 0.06580371 0.07011298 -0.01700145 -0.2040658 0.078473866 0.05216322 0.0008325028 0.21352705 0.29054826 0.118262015 0.06250344 -0.01887434 -0.07307027 -0.049631294 0.051799897 0.18220305 0.17150334 0.14358087 0.017617082 -0.100035205 -0.038916532 0.049818415 0.002112928 -0.019509815 -0.033313185 0.111922644 0.15151994 -0.25352272 0.051773954 -0.048364382 0.24936448 -0.044971146 0.033487983 0.06982979 -0.035532217 -0.06205613 -0.07258144 -0.22674309 -0.019279983 0.041619074 0.0653322 0.033625603 0.011427091
8 -0.028926684 0.07213787 0.07962908 -0.06583157 0.087719016 -0.011176293 0.013354867 0.010614869 -0.008841272 -0.038822737 -0.00726748 0.16145772 0.06850768 0.0074766777 -0.007944741 -0.000852407 -0.07546611 0.006973298 0.04516004 0.010622064 -0.2028529 -0.11698891 0.086792625 -0.13370723 0.11721445 0.027682744 -0.10938828 -0.099010974 -0.107722506 0.079210415 -0.03152903 0.05476259 0.040340845 -0.067854345 0.031482123 0.0041523916 0.18418711 0.0155837275 0.23070826 0.028083092 -0.11590181 0.15438369 0.16515154 0.13963473 0.07755641 0.18833102 0.034981832 -0.08761862 -0.11118756 -0.20230512 -0.086700656 -0.16873892 -0.09573649 -0.1797176 0.073950194 -0.021389574 0.12919922 -0.058908194 -0.058907703 -0.06486202 0.027241731 0.107234284 -0.04787512 -0.07045191 -0.028895702 0.026025582 -0.18678208 -0.15644239 -0.03885525 0.04879737 0.11798168 -0.12211914 -0.11021736 -0.008203003 0.021506326 -0.09300951 0.06436751 0.02342896 0.0497476 0.028257981 -0.18954489 0.062344044 -0.0055463184 0.037595052 -0.08823333 0.061784197 0.06948165 -0.013562485 -0.19754949 0.07609804 0.046612076 0.0039533703 0.20361926 0.27832156 0.122099705 0.057153635 -0.021809006 -0.06399151 -0.045748398 0.057500236 0.1747535 0.16351485 0.1349221 0.011975244 -0.08962951 -0.035220925 0.047514066 0.0047234204 -0.020230494 -0.029124731 0.10197771 0.14528161 -0.24487263 0.052104227 -0.05494649 0.23723888 -0.042664375 0.031630266 0.06503414 -0.034248374 -0.054860238 -0.0701132 -0.2110697 -0.01458334 0.036457747 0.06329466 0.030666621 0.017136205
16 -0.030298026 0.06913214 0.07750444 -0.064257875 0.09161496 -0.012470801 0.01898535 0.0103365695 -0.005363128 -0.03914473 -0.0040821075 0.1597616 0.06857429 0.00653375 -0.0076545267 -0.002920761 -0.07900327 0.010018102 0.04261017 0.012102981 -0.21170734 -0.10807068 0.08332242 -0.13772994 0.12064335 0.023802763 -0.10727304 -0.097481444 -0.106821306 0.070179485 -0.031379834 0.060679376 0.04491034 -0.06254923 0.026899656 0.00782559 0.18262029 0.019555196 0.2277627 0.030151093 -0.12024736 0.15256001 0.16914742 0.13487704 0.0761959 0.19722927 0.03817888 -0.08134108 -0.11743212 -0.21225823 -0.08224387 -0.16751355 -0.08963726 -0.18525134 0.07906782 -0.018650178 0.1278787 -0.061455023 -0.05914119 -0.07399162 0.020679211 0.10430383 -0.05010916 -0.07883404 -0.028142564 0.030718185 -0.19533063 -0.15583163 -0.041863687 0.050726123 0.124052085 -0.120409 -0.102164924 -0.011204399 0.021640249 -0.09509159 0.06985875 0.024763525 0.049948424 0.03320366 -0.19758235 0.06388863 -0.0073637916 0.041566357 -0.091537856 0.06833976 0.072749525 -0.017902488 -0.20311947 0.08305071 0.05200609 0.0048200293 0.20479786 0.2841329 0.12133518 0.060010977 -0.018990794 -0.07287207 -0.04840102 0.05484051 0.17146635 0.16943234 0.1395492 0.016842233 -0.098855376 -0.032100458 0.04876464 0.00060627906 -0.01600514 -0.031114731 0.11072857 0.15060067 -0.25412273 0.057740487 -0.050774552 0.24900578 -0.04389814 0.035237424 0.07189559 -0.04053516 -0.05979011 -0.073606186 -0.21971224 -0.019032283 0.040312104 0.06218979 0.029053356 0.01759538
36 -0.025859179 0.07203174 0.07769045 -0.07029231 0.09073862 -0.010617609 0.017004227 0.0062537496 -0.010669231 -0.04322565 -0.007891009 0.15836541 0.06996382 0.0067998134 -0.007360737 0.0027239015 -0.075788185 0.008086933 0.03705916 0.012341367 -0.20464288 -0.11616128 0.08804137 -0.13089918 0.12000743 0.020732127 -0.10768223 -0.09983494 -0.10714792 0.077175654 -0.03236671 0.05239035 0.04415848 -0.068189755 0.032664258 0.006547138 0.17716716 0.019143105 0.22809659 0.0261273 -0.11607904 0.15432669 0.16772297 0.1394171 0.07318647 0.1865243 0.03394049 -0.08233551 -0.1082593 -0.20238546 -0.08472673 -0.16662104 -0.09794223 -0.17795642 0.07697753 -0.021910718 0.1330903 -0.06465019 -0.05906432 -0.06809287 0.027472118 0.10778299 -0.047990236 -0.06925567 -0.029654691 0.022929125 -0.18195386 -0.15904513 -0.040286914 0.050838493 0.12083779 -0.12284698 -0.10805355 -0.011923088 0.024795426 -0.09495482 0.06243621 0.023780366 0.049851578 0.027035497 -0.19464421 0.061776448 -0.0028900974 0.038835485 -0.08881443 0.06498979 0.07226854 -0.011842872 -0.19602011 0.073263206 0.052095726 0.004314703 0.20399277 0.2781344 0.12064642 0.060112298 -0.0230765 -0.06310111 -0.05087093 0.057321772 0.17027348 0.16381243 0.13407178 0.011038508 -0.090499826 -0.037015855 0.046251994 0.0037363078 -0.016690668 -0.028993363 0.104593076 0.14606759 -0.24406724 0.049696673 -0.05369741 0.23669022 -0.048982788 0.029259406 0.07174576 -0.03749715 -0.054297123 -0.07144427 -0.2158095 -0.014499526 0.033821963 0.061682787 0.030924272 0.011634127
10 -0.027159117 0.07321141 0.08016353 -0.06862124 0.09072396 -0.012748322 0.015609005 0.0066438955 -0.0061046197 -0.040864404 -0.009665909 0.17234132 0.07303405 0.0047261734 -0.010653653 0.003655119 -0.07754687 0.008832889 0.04523833 0.008677406 -0.21273868 -0.122332826 0.091488 -0.14083123 0.12462208 0.026233982 -0.10701969 -0.100860044 -0.108108 0.080533236 -0.031031013 0.06089438 0.045199234 -0.07256875 0.027038962 0.008357485 0.1866829 0.015700554 0.23842858 0.028092533 -0.11589936 0.16100007 0.16376986 0.14281987 0.07780194 0.19376412 0.030899981 -0.08634324 -0.11483974 -0.20675634 -0.085397705 -0.17199275 -0.09770309 -0.18345232 0.078294605 -0.026615713 0.13698249 -0.061547548 -0.062061675 -0.07217785 0.023887431 0.107054934 -0.041910082 -0.07479449 -0.027565865 0.029889593 -0.18554534 -0.16007462 -0.036852352 0.048334047 0.11591974 -0.122640595 -0.1066507 -0.0136098005 0.02189152 -0.09310126 0.059268568 0.027096141 0.054180913 0.027783621 -0.19574142 0.063332 -0.0073147463 0.035572924 -0.08603312 0.061902322 0.06900115 -0.015917165 -0.19635673 0.07526562 0.05195639 0.0076416894 0.20546898 0.28098127 0.12335794 0.0635695 -0.022557823 -0.06879549 -0.045715332 0.060925104 0.17313023 0.1657831 0.13252677 0.011498391 -0.09559575 -0.038624916 0.046921425 0.0061823973 -0.01771784 -0.03157641 0.10759227 0.14948185 -0.23890704 0.04969409 -0.05139972 0.23819199 -0.043346383 0.030759841 0.06443199 -0.039066 -0.05688545 -0.071191356 -0.21468468 -0.019882202 0.03216797 0.060204 0.030477375 0.013822
40 -0.026318625 0.07904125 0.08465048 -0.07068718 0.09436429 -0.008122481 0.021306215 0.008543934 -0.0056393365 -0.05006906 -0.010582505 0.177611 0.06938713 0.0039212937 -0.0056630312 0.00059161556 -0.08073763 0.0062665306 0.043947488 0.0072869877 -0.22019204 -0.121387035 0.09279943 -0.14038931 0.13271485 0.029472083 -0.111965805 -0.10735847 -0.11747905 0.08039555 -0.03217427 0.05847225 0.048397347 -0.06965332 0.03435491 0.009535277 0.19439887 0.015202428 0.24610624 0.033809125 -0.12371609 0.16183558 0.17489475 0.1492014 0.082192935 0.19944414 0.03360581 -0.09181943 -0.114023335 -0.21844102 -0.088628374 -0.17785177 -0.100191996 -0.19000407 0.08347483 -0.023928737 0.13999549 -0.066925265 -0.059484847 -0.068284936 0.031309687 0.11608111 -0.052238494 -0.07836515 -0.025421312 0.029013345 -0.19373345 -0.16324264 -0.039609246 0.05275053 0.12202908 -0.12512381 -0.10950103 -0.007882917 0.018254321 -0.09573127 0.06249509 0.025579276 0.050825138 0.028447665 -0.19985987 0.068352096 -0.0048362194 0.040931806 -0.091192685 0.068811834 0.07410734 -0.01689251 -0.20900585 0.07766149 0.052540734 0.0059451307 0.21628073 0.2882846 0.12904158 0.0614578 -0.022906793 -0.07317683 -0.044798646 0.061691843 0.1816232 0.1740084 0.13737462 0.013144596 -0.101317264 -0.03883718 0.05168739 0.004703487 -0.017134238 -0.032582745 0.11322568 0.1546884 -0.2613263 0.05666219 -0.06123212 0.25083667 -0.0442945 0.036274314 0.07198689 -0.03551706 -0.06226584 -0.07461764 -0.2307517 -0.02141151 0.036912195 0.0640155 0.03098449 0.019474247
28 -0.02589527 0.06711831 0.08622538 -0.06580937 0.08985575 -0.0059633516 0.0065087946 0.014322532 -0.008175752 -0.042322963 -0.008090524 0.16352081 0.06742053 0.0040531764 -0.0038556284 -0.0007771668 -0.07350273 0.008297288 0.041174736 0.0071033263 -0.2145678 -0.10896325 0.08241795 -0.132119 0.11674425 0.019389471 -0.10760861 -0.10033173 -0.10443808 0.07502388 -0.031527355 0.0530549 0.03858392 -0.06866758 0.031917498 0.0017171159 0.1829381 0.026789092 0.22782746 0.033919826 -0.1200762 0.15004279 0.16975276 0.1390506 0.08205486 0.19549793 0.029015837 -0.08564929 -0.1123511 -0.21285991 -0.08881515 -0.16457629 -0.0940459 -0.18372382 0.081433915 -0.020760203 0.12950364 -0.06696218 -0.06046623 -0.07074753 0.022179266 0.10418563 -0.060739983 -0.07438225 -0.03695575 0.034047797 -0.19391356 -0.15153848 -0.04576873 0.049136814 0.11714236 -0.11707475 -0.10923868 -0.0045658876 0.02486447 -0.08881285 0.074469276 0.02736126 0.053818736 0.03210459 -0.19927277 0.05831366 -0.003175959 0.030905355 -0.08868432 0.07577024 0.06544997 -0.01857248 -0.20284325 0.086411156 0.046495214 0.0033876554 0.21387324 0.28182217 0.115219824 0.05093208 -0.020569116 -0.07101937 -0.04026691 0.04897498 0.18661185 0.17244066 0.14517929 0.012504001 -0.09480006 -0.040387604 0.04951315 -0.0027141636 -0.021184418 -0.036443416 0.1053293 0.15013115 -0.2546183 0.06313183 -0.049010973 0.25416633 -0.04085293 0.03357418 0.08644974 -0.04094504 -0.05656895 -0.079344824 -0.22088791 -0.013337868 0.03789063 0.07031724 0.030578747 0.015294564
32 -0.025309367 0.06995512 0.080504745 -0.06967688 0.097384565 -0.009679796 0.01327098 0.01439296 -0.0067875986 -0.038102593 -0.007367896 0.16506843 0.070921965 0.007851965 -0.0081268335 -0.0022420497 -0.0783906 0.009317721 0.04049225 0.006340283 -0.21772718 -0.117198355 0.0845782 -0.14192279 0.12348266 0.025239706 -0.11043476 -0.101683676 -0.106363 0.079641856 -0.03386081 0.060319435 0.03991981 -0.070175305 0.033866953 0.003512156 0.18601982 0.023731818 0.23660938 0.035330787 -0.12251763 0.15981953 0.17227623 0.1392503 0.07876897 0.20399432 0.033004466 -0.083546944 -0.11399433 -0.21719915 -0.085862376 -0.17276607 -0.09903314 -0.18846214 0.07586199 -0.022052806 0.1352916 -0.0636627 -0.06396047 -0.07514905 0.019295333 0.10589677 -0.053868376 -0.07840775 -0.037305932 0.028617388 -0.19511895 -0.15991843 -0.04655814 0.0537365 0.12529707 -0.12308572 -0.10563372 -0.013301663 0.02213664 -0.09120036 0.07382056 0.032096263 0.057239264 0.031315546 -0.20063268 0.059683032 -0.0055684536 0.033843897 -0.092876054 0.07650459 0.06975108 -0.02154665 -0.20670754 0.080747664 0.054531757 0.0049264184 0.21609397 0.29061252 0.12497591 0.061827913 -0.021218915 -0.07182531 -0.050552495 0.054723497 0.182436 0.17555185 0.14187075 0.00968799 -0.09499767 -0.03857686 0.051802006 0.0032660686 -0.020773534 -0.03507689 0.112494275 0.14740951 -0.25373903 0.057485197 -0.048176624 0.25622788 -0.04562105 0.034975518 0.08224066 -0.039540824 -0.05483648 -0.07939958 -0.22532034 -0.014582247 0.03703558 0.07025361 0.025007527 0.014706026
2 -0.024157278 0.07646488 0.08514742 -0.072054625 0.09627216 -0.00675783 0.018761354 0.0044542854 -0.0052817552 -0.045244038 -0.00530854 0.1699552 0.06904697 0.004272901 -0.0060253246 -0.0032456368 -0.07496416 0.005934659 0.046675224 0.006723202 -0.21207833 -0.121809736 0.087075666 -0.13614237 0.12550436 0.028989365 -0.11016647 -0.102951825 -0.11452878 0.080860056 -0.03017309 0.060122058 0.04393928 -0.06799988 0.033792533 0.009114226 0.18563966 0.019561566 0.23030001 0.030190982 -0.11897759 0.15798144 0.16431881 0.13875903 0.07646702 0.19226712 0.033712093 -0.08592024 -0.106910095 -0.20581067 -0.08957311 -0.16805212 -0.09633427 -0.18583612 0.0783497 -0.020572169 0.13231476 -0.059384555 -0.05764111 -0.067344055 0.030233897 0.109996244 -0.043282855 -0.07167704 -0.028591283 0.026658446 -0.18469205 -0.15950239 -0.03654546 0.05392275 0.11787418 -0.122657254 -0.11103009 -0.009278682 0.016307853 -0.09933456 0.06307254 0.02300161 0.050360452 0.027229687 -0.1926867 0.06677161 -0.0014143044 0.0391334 -0.091137685 0.067459546 0.075075336 -0.0112133855 -0.19170122 0.0715886 0.050464015 0.0025427374 0.20822443 0.2778549 0.12508154 0.061177023 -0.025602736 -0.064338624 -0.04869047 0.05832456 0.17323235 0.16549648 0.13208796 0.01760164 -0.08965671 -0.03659755 0.046823576 0.0046842867 -0.014072508 -0.032561693 0.100829326 0.14981903 -0.24496073 0.05315487 -0.05348153 0.23488481 -0.045767043 0.028815314 0.06353567 -0.039398443 -0.054235283 -0.067650005 -0.2180622 -0.017666735 0.038742762 0.06333765 0.024914864 0.018542448
37 -0.023509962 0.076444134 0.08627351 -0.07587534 0.098242 -0.009860006 0.020337762 0.009796958 -0.00994947 -0.047442526 -0.00650143 0.16986416 0.074613854 0.008259705 -0.011542499 -0.0010553508 -0.07687588 0.008904136 0.045171674 0.0069937375 -0.2139826 -0.12634432 0.093515 -0.14330064 0.12710771 0.026450245 -0.11413007 -0.10655116 -0.112468235 0.08480962 -0.02955546 0.059245348 0.04851184 -0.07128602 0.030410247 0.0115322955 0.18851323 0.018945932 0.24532275 0.030778516 -0.119592436 0.1601741 0.1757674 0.1459806 0.07895429 0.1987994 0.034897894 -0.08636311 -0.11152134 -0.21804167 -0.08918749 -0.1741342 -0.1002652 -0.19350493 0.07838943 -0.021009982 0.14098941 -0.06746534 -0.06588009 -0.07326515 0.025650978 0.11133208 -0.05269504 -0.07909583 -0.03293476 0.026744056 -0.19518392 -0.16184112 -0.03735662 0.055214565 0.12523794 -0.1264899 -0.11383966 -0.012224358 0.020622082 -0.097373016 0.06508399 0.022821222 0.05261255 0.030426446 -0.19910358 0.07024241 -0.0025840031 0.043220352 -0.087445736 0.07148464 0.07230999 -0.012015273 -0.20666409 0.07526782 0.048751492 0.004338728 0.21141553 0.29280236 0.12697451 0.06274025 -0.026861478 -0.07296178 -0.05065638 0.059747983 0.18158162 0.17522372 0.13730048 0.0181492 -0.09578899 -0.036416825 0.04986604 0.005604998 -0.014077079 -0.031338364 0.10611595 0.15511651 -0.2584257 0.052243922 -0.057290453 0.24509099 -0.04320549 0.03464289 0.07222866 -0.040625587 -0.058063436 -0.075959265 -0.22317813 -0.014043247 0.03668411 0.06763363 0.027409093 0.014006645
11 -0.023260325 0.07346181 0.08039537 -0.065472096 0.08928513 -0.009357758 0.01706503 0.0059036277 -0.007545087 -0.048847318 -0.0054178224 0.16701852 0.06477293 0.003937336 -0.010098173 0.004507744 -0.07571793 0.009331376 0.039166864 0.0125006195 -0.21091779 -0.12145503 0.09074773 -0.13657732 0.12697396 0.027814751 -0.11227286 -0.095655315 -0.1109435 0.07998045 -0.032047298 0.05705374 0.04671199 -0.06896327 0.031099617 0.008153923 0.18561171 0.011169598 0.23268512 0.025809294 -0.11599512 0.15632956 0.1700166 0.14048183 0.07863508 0.18697517 0.032110937 -0.089503445 -0.10710627 -0.20648456 -0.08594394 -0.16913757 -0.09848659 -0.17714223 0.07239372 -0.022642367 0.13522378 -0.059135098 -0.059542883 -0.0654849 0.030496748 0.11272644 -0.044762712 -0.07100462 -0.023066437 0.029101538 -0.18626235 -0.16007979 -0.04123516 0.0493551 0.11757503 -0.12350248 -0.10354353 -0.0072028134 0.020002682 -0.09644578 0.058953207 0.0241894 0.048620682 0.02429382 -0.19109917 0.06639831 -0.004300435 0.041838143 -0.08389044 0.06465774 0.068959735 -0.013906725 -0.19644378 0.06983363 0.04572134 0.0021293587 0.20166907 0.27406046 0.12195302 0.060135398 -0.023777422 -0.067239985 -0.047582418 0.058085073 0.17197981 0.16330224 0.13040172 0.01638884 -0.090293035 -0.03514944 0.045494482 0.00088886067 -0.021436417 -0.031345848 0.10339734 0.14711754 -0.23827393 0.054400373 -0.056370307 0.23409869 -0.04755995 0.026285522 0.06688525 -0.03490355 -0.06268295 -0.06804873 -0.21395612 -0.01547429 0.033133984 0.055528216 0.030816717 0.014609884
29 -0.023723906 0.06930879 0.07624873 -0.064374484 0.090697765 -0.008300671 0.016781703 0.0034503085 -0.0034536996 -0.042809878 -0.00731633 0.16791013 0.06443841 0.008317404 -0.0051220567 0.00176482 -0.07750299 0.006359286 0.04425006 0.0072334306 -0.21145688 -0.12008017 0.092312194 -0.14060842 0.12261589 0.028212316 -0.11150969 -0.10098176 -0.10941185 0.07794327 -0.033236865 0.06116816 0.042898744 -0.06992776 0.026708692 0.008782949 0.18638922 0.013394372 0.23071577 0.027172493 -0.11887462 0.15184285 0.16276412 0.1393404 0.074552506 0.19458078 0.032832388 -0.09008957 -0.11005085 -0.20751658 -0.08472648 -0.16623326 -0.09757934 -0.18354361 0.078981 -0.026283575 0.12989943 -0.059169576 -0.061413568 -0.070312485 0.023125038 0.109044686 -0.042330217 -0.077651225 -0.023358341 0.02862528 -0.18616134 -0.16053134 -0.04191389 0.052258648 0.11673838 -0.123334184 -0.109493576 -0.007847435 0.019671885 -0.09526884 0.066081405 0.024757268 0.0518338 0.028804753 -0.19272828 0.06290586 -0.0055558328 0.038332753 -0.08717028 0.06464354 0.07475274 -0.016031131 -0.19344191 0.07257335 0.046470538 0.005752669 0.20157579 0.2807272 0.12341564 0.05984004 -0.01812094 -0.06540736 -0.04822407 0.058763947 0.16945748 0.16275062 0.12969065 0.015698733 -0.09306232 -0.030292112 0.045500863 0.005926411 -0.019161338 -0.028192772 0.1033218 0.14644794 -0.24189398 0.055768456 -0.055090092 0.23623917 -0.047950108 0.03193451 0.0692412 -0.03761807 -0.06175248 -0.06814287 -0.21255374 -0.01761145 0.03802509 0.057211027 0.024589159 0.013319222
9 -0.03204012 0.066965334 0.085349396 -0.066322684 0.08850181 -0.006588606 0.013304208 0.009580402 -0.007142373 -0.042414997 -0.006224472 0.16568565 0.07142216 0.0011606168 -0.0015355363 -0.005228687 -0.07476381 0.0072420416 0.03730527 0.015005228 -0.21434383 -0.10565007 0.083410405 -0.13842142 0.11664353 0.023662524 -0.10459792 -0.109101735 -0.11058881 0.073251285 -0.03149512 0.05700016 0.044384863 -0.062405806 0.0329522 0.012185631 0.18119265 0.023764934 0.22429378 0.040519875 -0.12587981 0.15686657 0.16271079 0.14151782 0.074683025 0.19239587 0.030057617 -0.08222957 -0.11324373 -0.21363075 -0.08632342 -0.16840048 -0.089593664 -0.18997939 0.07876647 -0.017285582 0.1255231 -0.061735477 -0.0625308 -0.06990385 0.017363193 0.104242496 -0.052435357 -0.081453435 -0.03219001 0.029499829 -0.19328555 -0.15267678 -0.041446444 0.055246875 0.124702424 -0.11363924 -0.10471399 -0.009317252 0.027929407 -0.088294216 0.07636306 0.029024376 0.047890626 0.03385202 -0.20373648 0.057193942 -0.0021439646 0.030813051 -0.08855754 0.075962655 0.06592461 -0.022103157 -0.20042057 0.08560212 0.04939521 0.0048085037 0.21249825 0.28510764 0.11631292 0.052746862 -0.019295061 -0.06635651 -0.042988934 0.04916253 0.17977563 0.17100532 0.14764038 0.011608134 -0.09256421 -0.03637488 0.04949856 0.0037297576 -0.015558226 -0.03109918 0.10957268 0.1452727 -0.25662097 0.061734285 -0.04617725 0.25220168 -0.041975733 0.03311761 0.0807109 -0.04324888 -0.0585398 -0.07754444 -0.21895485 -0.013935372 0.04235671 0.06857838 0.027815633 0.012981905
7 -0.02590538 0.07229947 0.07634167 -0.06481911 0.09263091 -0.00717204 0.016940022 0.003634482 -0.004670459 -0.044676337 -0.0023938015 0.16362399 0.062284935 0.0044229035 -0.005708536 -0.0032450156 -0.07249354 0.0077591296 0.04250499 0.010505318 -0.20049778 -0.11314708 0.0846226 -0.1306348 0.1164 0.024560168 -0.106638916 -0.1010629 -0.10533031 0.07900634 -0.032184187 0.056741472 0.040342968 -0.06071838 0.027443856 0.011314542 0.1764669 0.015004772 0.21934402 0.033519298 -0.11798369 0.15285723 0.16330464 0.13974173 0.07777751 0.18481562 0.029619474 -0.085426085 -0.11012639 -0.20406346 -0.08324629 -0.16014548 -0.09181583 -0.17560735 0.0752151 -0.0230003 0.12550502 -0.055050593 -0.057824973 -0.06384145 0.026236776 0.10597003 -0.044034965 -0.07645933 -0.023578625 0.030094333 -0.18367633 -0.15232413 -0.035693876 0.048369225 0.114918575 -0.11257261 -0.10267843 -0.008580015 0.018502133 -0.09137498 0.06259186 0.02385934 0.04549802 0.02700499 -0.19061506 0.059032578 -0.0056033717 0.03644117 -0.08485564 0.06142315 0.068624474 -0.017631968 -0.1934256 0.07500306 0.046107363 0.0062619857 0.19748397 0.27034792 0.12229229 0.058806725 -0.024739817 -0.0681515 -0.044500265 0.054274537 0.16512148 0.15862708 0.13062425 0.011834424 -0.09329317 -0.029719071 0.040928822 7.3395613e-06 -0.015038768 -0.030017864 0.10067085 0.14083067 -0.24648367 0.050978523 -0.05286559 0.23409267 -0.045216694 0.026795205 0.07065817 -0.038362738 -0.06045229 -0.06917305 -0.21472757 -0.012749375 0.036940962 0.064118475 0.027957622 0.018131193
38 -0.030086247 0.06886286 0.07815406 -0.064954184 0.0919003 -0.011396492 0.0076284693 0.011255343 -0.008423312 -0.041167308 -0.0026312282 0.15998235 0.069087006 0.005775264 -0.0076900395 -0.003204598 -0.07928574 0.007546148 0.04068829 0.009601226 -0.2060357 -0.106382966 0.08001508 -0.13334404 0.11680879 0.028297799 -0.10697952 -0.10242963 -0.1067168 0.07598204 -0.034588072 0.054514084 0.043663967 -0.06206195 0.031649444 0.009045847 0.1844607 0.023793591 0.22226293 0.036641695 -0.11980813 0.15450247 0.16714846 0.13869397 0.078318454 0.19561212 0.029420728 -0.08658797 -0.113378435 -0.20996316 -0.08174691 -0.16468188 -0.092329144 -0.18576543 0.07391362 -0.022107245 0.13052022 -0.063898526 -0.061654616 -0.07497991 0.017245067 0.10346017 -0.051594142 -0.08017474 -0.035649426 0.030908719 -0.18895936 -0.15760992 -0.039527148 0.053973816 0.11813495 -0.116307855 -0.10315501 -0.0096708955 0.021864846 -0.08772987 0.07155322 0.027124202 0.052455116 0.030317968 -0.19966036 0.05947924 0.0014368428 0.031801727 -0.08678919 0.06885561 0.06824863 -0.019100662 -0.19747695 0.0844697 0.046609882 0.005679815 0.20958383 0.28377602 0.11931061 0.057246912 -0.023219842 -0.065506786 -0.048615362 0.049020924 0.17949055 0.16885723 0.14389783 0.011325521 -0.09098077 -0.038441136 0.049043417 -0.00011963775 -0.019973947 -0.03701379 0.1035058 0.14227976 -0.246122 0.057552457 -0.05037196 0.24789679 -0.04011618 0.030257666 0.07178333 -0.03863745 -0.052295104 -0.07503224 -0.2164783 -0.01292292 0.03890327 0.063471444 0.027261365 0.01396878
21 -0.024565889 0.06632353 0.07995819 -0.06524023 0.08647684 -0.008390798 0.012516675 0.008111767 -0.00789267 -0.044891123 -0.0015516959 0.16251287 0.06838489 0.0064814165 -0.00501145 -0.0015370992 -0.07965631 0.008605858 0.037718177 0.012803908 -0.21122628 -0.112439685 0.089054644 -0.13480817 0.11646997 0.02777695 -0.106712796 -0.10211156 -0.10784526 0.0716468 -0.03466789 0.059435748 0.039309833 -0.06603325 0.026727442 0.008852769 0.17930686 0.01632167 0.22472963 0.031391352 -0.11870348 0.15089841 0.1600307 0.13217293 0.07481901 0.18794708 0.031214382 -0.088893384 -0.11356341 -0.20696746 -0.08440939 -0.16226207 -0.09064859 -0.17963311 0.075646885 -0.018075552 0.12164574 -0.059035048 -0.056259017 -0.07253515 0.018574988 0.10428466 -0.04505635 -0.07767181 -0.032516755 0.026531754 -0.18733503 -0.15058285 -0.036272146 0.052417465 0.11959457 -0.11813817 -0.10673362 -0.009293856 0.024991285 -0.09222169 0.06973283 0.028758924 0.045176588 0.02414041 -0.19111721 0.0640011 -0.001238488 0.03182887 -0.08297427 0.07203248 0.067121655 -0.015518122 -0.19037533 0.07349755 0.051327582 0.0031373245 0.20187367 0.27058384 0.112864085 0.060015954 -0.025136048 -0.06357707 -0.045782868 0.04882479 0.16580231 0.16248877 0.13311675 0.012973511 -0.09324277 -0.033509385 0.04262526 -0.0007334504 -0.01663637 -0.029786205 0.10720046 0.13982454 -0.23447679 0.047785856 -0.045296896 0.233851 -0.04719319 0.030957308 0.06712489 -0.037857432 -0.054384608 -0.07000094 -0.20657851 -0.015527175 0.036602844 0.057390656 0.025598332 0.016044328
14 -0.02880274 0.07058767 0.0777699 -0.06861615 0.087869264 -0.006448283 0.010380976 0.00914434 -0.00565706 -0.043725833 -0.002053461 0.16439775 0.066696174 0.0033467798 -0.008885934 0.0007011581 -0.076758176 0.0111715 0.040516384 0.014884316 -0.2097884 -0.110810414 0.081385456 -0.13875055 0.116534606 0.026508618 -0.109274216 -0.10519893 -0.110820286 0.07870269 -0.03396512 0.05796986 0.03976807 -0.06448927 0.03111813 0.007812237 0.1830891 0.022762172 0.22375871 0.031423077 -0.118574664 0.15263255 0.16474457 0.13980849 0.076085955 0.19511499 0.02958346 -0.08605071 -0.11283158 -0.20876856 -0.08369554 -0.16699398 -0.090737 -0.1847485 0.07772498 -0.018782573 0.12506905 -0.059277948 -0.05687111 -0.07238323 0.02209714 0.1077087 -0.04975783 -0.08016891 -0.032157164 0.029570652 -0.19138336 -0.1572409 -0.041072506 0.051808782 0.121696696 -0.1152266 -0.1024582 -0.008422554 0.027237456 -0.09322248 0.06730066 0.026561124 0.04871406 0.031432953 -0.20041937 0.06318121 -0.00046662407 0.034655295 -0.08521899 0.07191842 0.071595475 -0.020117268 -0.20082428 0.08220901 0.051312514 0.0008671538 0.20845567 0.2809621 0.118737444 0.055414036 -0.023285465 -0.06617024 -0.04542308 0.050343752 0.17716265 0.1691981 0.1405078 0.016834078 -0.09591308 -0.039121322 0.04755599 0.000588209 -0.017969994 -0.031426247 0.10237751 0.14603437 -0.25140882 0.055810727 -0.04548538 0.24672225 -0.045960255 0.030823039 0.07587888 -0.036193345 -0.056339197 -0.07411357 -0.21920618 -0.019971833 0.03842606 0.060579557 0.025746154 0.015107838
34 -0.037239436 0.06919021 0.089558855 -0.06364687 0.09550074 -0.00794178 0.0033089377 0.013158001 -0.0059375763 -0.04854836 0.0015720055 0.16915378 0.06731592 0.0062400373 -0.0093610035 -0.012268095 -0.070694394 0.005130035 0.045911513 0.012196887 -0.21841645 -0.109871306 0.072528474 -0.13576369 0.11492982 0.019657772 -0.113320865 -0.11519596 -0.10359428 0.08526873 -0.036631547 0.06074923 0.036744457 -0.06965343 0.03948243 0.00013364456 0.19254303 0.03130273 0.23253003 0.045957185 -0.13186394 0.15903461 0.1695817 0.14623688 0.08520928 0.19830714 0.029016424 -0.08368881 -0.11770175 -0.21579814 -0.08913289 -0.17308229 -0.09457272 -0.18749858 0.08952604 -0.022340775 0.12980106 -0.060879458 -0.063372515 -0.06358896 0.018248118 0.10685197 -0.068024695 -0.07609055 -0.04300964 0.034432985 -0.19694625 -0.15781759 -0.045683336 0.053201202 0.12789541 -0.11849788 -0.10521634 -0.0052706744 0.027417451 -0.08639818 0.08103283 0.030189946 0.054247845 0.029280122 -0.20585099 0.05709011 0.0021065038 0.024454542 -0.08461536 0.07449297 0.06701711 -0.018791046 -0.21452369 0.095054775 0.047009144 0.00087253266 0.22111277 0.2847757 0.12020392 0.0551672 -0.016685875 -0.07153755 -0.04163316 0.056977935 0.19378394 0.18240169 0.15254654 0.016693559 -0.08761173 -0.038468566 0.053097066 -0.004254636 -0.0225851 -0.041861236 0.115100615 0.15085177 -0.27227846 0.07016523 -0.058220007 0.27087796 -0.04725204 0.038008966 0.09682531 -0.04615101 -0.061654985 -0.07646234 -0.23533568 -0.007337246 0.04770503 0.0808004 0.030770117 0.02104905
13 -0.02928057 0.06787159 0.083330885 -0.063999005 0.09141133 -0.0033149244 0.016295904 0.0102695385 -0.005772376 -0.048747234 -0.0024890814 0.16623396 0.06881607 0.002749414 -0.0022582319 -0.0066175377 -0.082846545 0.010694347 0.042706233 0.016956074 -0.2199977 -0.1115653 0.08368494 -0.14478764 0.11994134 0.031233728 -0.11273283 -0.10900363 -0.11153516 0.0803704 -0.035290368 0.062881306 0.044298638 -0.06754149 0.035212077 0.0097419135 0.1830321 0.01867966 0.23207286 0.03141725 -0.1261334 0.15669464 0.16959937 0.1362367 0.075042635 0.19681202 0.031169266 -0.0903402 -0.11657995 -0.21797359 -0.087089434 -0.16728938 -0.09009573 -0.19273911 0.08176554 -0.018501371 0.12938707 -0.065211274 -0.0575949 -0.07248624 0.018179497 0.11041481 -0.052977186 -0.084522516 -0.034385435 0.033015683 -0.19589114 -0.1574358 -0.041472033 0.052023955 0.12056899 -0.117049545 -0.10254142 -0.0054818024 0.024424605 -0.09482689 0.06798674 0.0236056 0.047715377 0.033662267 -0.20217451 0.058556296 0.00027322792 0.040895402 -0.08854205 0.07229891 0.07114635 -0.019469976 -0.2014601 0.082292944 0.047760982 0.00056523725 0.21282843 0.28876427 0.1193081 0.054879688 -0.017691407 -0.067762196 -0.044715516 0.049523648 0.18026505 0.16676237 0.14284746 0.01198946 -0.099915296 -0.037432734 0.04707941 -0.0008976898 -0.016661135 -0.03489827 0.106477745 0.1506049 -0.24995314 0.057927314 -0.045953702 0.24728961 -0.046317328 0.036848646 0.07006285 -0.04062085 -0.05512218 -0.07266851 -0.21789931 -0.022833334 0.0355593 0.065399945 0.027324002 0.010277852
6 -0.02307343 0.07236243 0.076010644 -0.07235299 0.088098966 -0.010098055 0.01527378 0.01044823 -0.0066405484 -0.043220606 -0.009521404 0.16234149 0.06623523 0.011667379 -0.0075457864 -0.0016466099 -0.079191275 0.0061267833 0.03991902 0.012715234 -0.20545596 -0.11631451 0.08644986 -0.13814093 0.12062396 0.026696209 -0.109530605 -0.104061395 -0.10716305 0.07857908 -0.03225717 0.055287484 0.04287523 -0.06390468 0.027961751 0.007139926 0.18205853 0.020251237 0.23548314 0.030269353 -0.11478765 0.16032785 0.16789615 0.13828747 0.072384566 0.19710486 0.034520045 -0.08546567 -0.11505026 -0.21208078 -0.08423259 -0.16671255 -0.096738905 -0.18221912 0.07278966 -0.020541009 0.13295454 -0.06351464 -0.060975302 -0.07333928 0.023549559 0.10936295 -0.043067366 -0.07364194 -0.026413081 0.024720302 -0.18845227 -0.15841985 -0.03723153 0.048569124 0.12097867 -0.122358434 -0.108563535 -0.005801701 0.02419555 -0.09411691 0.062139023 0.030841144 0.05525133 0.028929293 -0.19427274 0.06460851 -0.005172098 0.039269447 -0.08520165 0.067510724 0.069378845 -0.012162353 -0.19899838 0.07461339 0.046188004 -0.00035324108 0.20464307 0.2747092 0.12192055 0.063865885 -0.018705076 -0.0689432 -0.04938561 0.056020893 0.17165008 0.16473185 0.13288955 0.015311987 -0.09099064 -0.034326132 0.048455585 0.00555279 -0.020291016 -0.028642077 0.10488156 0.14825359 -0.24030103 0.051605333 -0.05487319 0.23426157 -0.04815127 0.03455054 0.065723225 -0.036877163 -0.05371301 -0.06690813 -0.21127264 -0.01185017 0.032642905 0.058182362 0.028357899 0.012562292
33 -0.027430654 0.07260671 0.076095544 -0.07231018 0.094180055 -0.0073841624 0.01730407 0.010622013 -0.00945609 -0.037895594 -0.0069946586 0.1670549 0.069096036 0.008743835 -0.008597297 0.00032610892 -0.071166806 0.0067592436 0.04332354 0.008192398 -0.20790641 -0.11956286 0.08753135 -0.14199634 0.12028777 0.025110064 -0.10637182 -0.10000251 -0.10664492 0.0779585 -0.032001346 0.059402738 0.041057378 -0.06770353 0.027297487 0.0059766048 0.1883829 0.023109248 0.23379774 0.03383476 -0.11326046 0.15533479 0.16176532 0.13877021 0.07589696 0.19468169 0.029920308 -0.0865679 -0.110733576 -0.20227395 -0.08373505 -0.16869844 -0.09811381 -0.1851516 0.07360288 -0.024533702 0.13157587 -0.0590597 -0.061936982 -0.06791901 0.019444706 0.104132876 -0.047883965 -0.07132959 -0.030158186 0.028853966 -0.18769056 -0.15902984 -0.03759499 0.054411512 0.11675825 -0.1172237 -0.10608213 -0.0127903605 0.020292059 -0.087307125 0.06365665 0.029622477 0.055343594 0.029463632 -0.19571282 0.06119919 -0.006495693 0.033152554 -0.08200313 0.0655386 0.067697 -0.013556333 -0.19917881 0.07353511 0.05213683 0.0008047813 0.20232494 0.27803135 0.12002554 0.058461368 -0.020838985 -0.0659899 -0.04713746 0.052972488 0.17522624 0.16598727 0.1318103 0.014742635 -0.088751584 -0.032482546 0.046543296 0.006163116 -0.017314693 -0.033235054 0.10630746 0.14730307 -0.24509114 0.0525027 -0.054548606 0.23963566 -0.046051096 0.030125586 0.0678123 -0.039007153 -0.05596344 -0.06642933 -0.2157186 -0.012788702 0.0398892 0.062166505 0.02962348 0.017199945
1 -0.025364896 0.070554696 0.072957546 -0.06592885 0.09014053 -0.006545265 0.016047372 0.00953935 -0.0033065223 -0.038320277 -0.0072700595 0.1634076 0.064582676 0.01031566 -0.007532121 -0.003334395 -0.07614386 0.0050041843 0.04312506 0.011145644 -0.20312573 -0.11860671 0.086690515 -0.13645971 0.12148944 0.025408374 -0.10360894 -0.10113512 -0.110125996 0.07617704 -0.033281345 0.055384655 0.042748813 -0.068660654 0.02942757 0.011602462 0.17894629 0.01498539 0.22873901 0.02587861 -0.11136163 0.15795179 0.16056663 0.1369951 0.073542915 0.18530022 0.034019526 -0.087546736 -0.10626772 -0.20167191 -0.08330224 -0.16730836 -0.09750293 -0.17871349 0.07334999 -0.023589388 0.13136393 -0.06286745 -0.06148867 -0.07044448 0.021217309 0.10545851 -0.039869227 -0.07400217 -0.02600488 0.026818156 -0.18457955 -0.15365818 -0.03572485 0.053046577 0.12055008 -0.11936812 -0.104564205 -0.014323318 0.020928282 -0.095196895 0.05902702 0.02892553 0.046955217 0.027277792 -0.19281681 0.06214149 -0.0058514536 0.036638852 -0.08786723 0.06622233 0.07306154 -0.01468578 -0.1890236 0.07218472 0.05258854 0.004835966 0.19601591 0.2747714 0.12150185 0.06013647 -0.025777059 -0.06388638 -0.045306597 0.05472053 0.16715534 0.15913996 0.13164236 0.013791952 -0.09295161 -0.03440777 0.042729452 0.006619867 -0.018286789 -0.03060683 0.10404785 0.14204825 -0.23522218 0.050041627 -0.05417256 0.22945523 -0.04805401 0.026688984 0.06002591 -0.039607577 -0.056800846 -0.06501432 -0.21143508 -0.012631762 0.03497046 0.058535255 0.02919259 0.014175218
5 -0.028641067 0.06930056 0.07743613 -0.06426953 0.09090285 -0.0071857455 0.0089363 0.014027581 -0.0051643443 -0.03844048 -0.00352217 0.15985912 0.06857405 0.0062653315 -0.01204396 -0.0034120546 -0.07689461 0.0053565586 0.040364947 0.007325971 -0.20211065 -0.11303082 0.08197356 -0.13606249 0.11967114 0.02616284 -0.1065154 -0.10035649 -0.105368175 0.07767652 -0.035415825 0.05247941 0.038751453 -0.062321827 0.03431972 0.009191608 0.18189353 0.023571642 0.22492293 0.035339687 -0.11442566 0.15280893 0.16515392 0.13614646 0.07776067 0.19194937 0.029133152 -0.08701398 -0.11072379 -0.20083742 -0.080402665 -0.16514944 -0.095294036 -0.18030244 0.07481566 -0.021588422 0.12765925 -0.063126646 -0.06049507 -0.06968289 0.020615688 0.107199945 -0.051202662 -0.07520435 -0.030765504 0.026927266 -0.1792435 -0.153577 -0.038352214 0.048038684 0.11473419 -0.114330634 -0.100298546 -0.005298621 0.025722641 -0.085502535 0.065020494 0.028510889 0.05159895 0.026728975 -0.1898908 0.062110845 -0.0013614959 0.036804404 -0.085055515 0.06436674 0.06708506 -0.015012099 -0.19509643 0.08038409 0.046059817 0.0013456754 0.20292291 0.2711543 0.1144381 0.05604289 -0.018534785 -0.061995763 -0.046980478 0.051773876 0.173757 0.16480961 0.13681358 0.012896298 -0.08831407 -0.036302347 0.047391284 0.0026553902 -0.01885162 -0.03496333 0.10277999 0.14113483 -0.2432988 0.056597818 -0.054947846 0.23672599 -0.045118295 0.027741073 0.07169179 -0.037488695 -0.05237462 -0.07128106 -0.2098734 -0.01032672 0.034207955 0.06584985 0.029706392 0.01719279
27 -0.029110303 0.072974086 0.08148588 -0.06900249 0.09454791 -0.00749843 0.012764945 0.010556917 -0.007999346 -0.047253318 -0.0062234555 0.16547512 0.06769796 0.009241883 -0.006673281 -0.0056312056 -0.07609303 0.010314374 0.03905326 0.012049416 -0.21626827 -0.11627276 0.0852171 -0.14028735 0.1268118 0.029805457 -0.11529178 -0.10436772 -0.1097092 0.081281416 -0.03709669 0.060481522 0.041909155 -0.06749031 0.03172012 0.008084487 0.18952529 0.016610121 0.23561181 0.036356308 -0.12554103 0.16142187 0.17105171 0.14292951 0.08256186 0.19946761 0.0357541 -0.09251922 -0.11395329 -0.21196342 -0.0886695 -0.17068204 -0.09711527 -0.19000044 0.081219226 -0.025547007 0.13402502 -0.06130495 -0.06299258 -0.072375946 0.023925943 0.11229936 -0.045834713 -0.08069633 -0.033076562 0.027681595 -0.19282587 -0.1633001 -0.040977925 0.04931804 0.12477133 -0.124123864 -0.10919695 -0.012260127 0.020513188 -0.09575571 0.06712677 0.028139831 0.055846684 0.028778577 -0.20175964 0.060938388 -0.0036689385 0.035604578 -0.09233221 0.06867685 0.07147958 -0.015446756 -0.19918266 0.08120221 0.047432475 0.0021690738 0.2137309 0.28784394 0.12176412 0.05850415 -0.019807119 -0.066760935 -0.050048105 0.055356037 0.17679448 0.16753788 0.13800643 0.009719131 -0.09611623 -0.039239492 0.049982402 0.00017536056 -0.020884551 -0.034539167 0.10365554 0.14537218 -0.25382018 0.053950444 -0.054047354 0.24250184 -0.04906749 0.029556807 0.071699336 -0.041253246 -0.06111055 -0.07414937 -0.21972986 -0.016308367 0.04192372 0.067493014 0.028145738 0.014791566
39 -0.029269893 0.06895354 0.08426753 -0.0713456 0.09041381 -0.011427397 0.017794352 0.0046101576 -0.0041132453 -0.04769615 -0.006339654 0.1676825 0.06768608 0.0032383106 -0.0049280534 -0.0008456976 -0.072907224 0.012536689 0.044389095 0.009813907 -0.20980673 -0.11524 0.08554203 -0.14030899 0.12498157 0.022463718 -0.10678606 -0.10404593 -0.10920483 0.08251114 -0.036896195 0.05685937 0.041689217 -0.07017417 0.028665626 0.008301285 0.18934926 0.016576374 0.23183331 0.033795252 -0.12073507 0.15943272 0.16543877 0.14239752 0.07967758 0.19272743 0.034444377 -0.08977108 -0.11479569 -0.20669991 -0.08824443 -0.16401136 -0.09648468 -0.1850585 0.0795699 -0.022163687 0.12898768 -0.05949752 -0.055383112 -0.06821808 0.025197988 0.11054038 -0.051460326 -0.07951918 -0.028129762 0.028550263 -0.19187956 -0.15667352 -0.042225517 0.047072813 0.11743919 -0.12248693 -0.1057394 -0.009895744 0.023193922 -0.09501946 0.065349154 0.021444833 0.04736113 0.02838664 -0.20050244 0.06589011 -0.0022463095 0.038447887 -0.08378453 0.0671407 0.06911212 -0.020424206 -0.20269158 0.08344728 0.04784788 0.0012468939 0.20603062 0.2816612 0.1221812 0.054931354 -0.025971647 -0.06561294 -0.043841776 0.054267246 0.1788007 0.16437818 0.13743973 0.012085407 -0.09416283 -0.033303335 0.046167497 0.0007813654 -0.017335298 -0.030137006 0.110725395 0.15179524 -0.2526002 0.054185625 -0.05555025 0.24684204 -0.049168296 0.035414483 0.074951805 -0.035210464 -0.06062164 -0.072329015 -0.22637886 -0.018479964 0.037219252 0.06225652 0.033958785 0.017720083
35 -0.03337568 0.07592788 0.08548672 -0.07706342 0.09667127 -0.011252236 0.011822973 0.011288007 -0.006019863 -0.045225803 -0.0021995862 0.17496502 0.069603294 0.008421814 -0.008416663 -0.0043612625 -0.076926105 0.012876225 0.0471229 0.011122844 -0.22081032 -0.1225718 0.08714187 -0.14478235 0.12606052 0.029014546 -0.11830193 -0.11096315 -0.11849423 0.082465574 -0.03238729 0.056881167 0.04369982 -0.07208102 0.03390028 0.008107211 0.19583799 0.022709325 0.24513134 0.038744435 -0.12578937 0.16530748 0.17503648 0.15096322 0.084565304 0.20049776 0.03054935 -0.09361024 -0.121590964 -0.22517987 -0.09136913 -0.17794317 -0.0959578 -0.19893096 0.08231851 -0.021257957 0.13348894 -0.064984076 -0.06448446 -0.072763614 0.024128083 0.111705385 -0.052234378 -0.08296557 -0.033575274 0.03105762 -0.20367463 -0.16267368 -0.044350542 0.05714032 0.12724946 -0.12542099 -0.112274475 -0.008121268 0.023992633 -0.09496908 0.07092077 0.029265415 0.053549316 0.033802483 -0.21195573 0.06666303 -0.0010836535 0.036857363 -0.089459896 0.07692082 0.07203181 -0.01942001 -0.20605624 0.08048085 0.050185673 0.0063471855 0.2207597 0.29835942 0.12701753 0.058382537 -0.025263045 -0.068306684 -0.045905635 0.054549724 0.186735 0.1767724 0.14392543 0.019196304 -0.101213515 -0.039935198 0.04602505 -0.0001691303 -0.017621946 -0.03019898 0.11371366 0.15223336 -0.26496372 0.056277405 -0.054784004 0.253061 -0.04597225 0.030934531 0.07866987 -0.03774219 -0.059217457 -0.07311384 -0.22729032 -0.014552639 0.039204713 0.065790616 0.033590186 0.012328547
22 -0.025256872 0.06929588 0.08321614 -0.071495876 0.0894306 -0.004991839 0.013823681 0.010783956 -0.0026147426 -0.04169419 -0.007888867 0.1713199 0.07151188 0.0034703496 -0.0038798975 0.0029219186 -0.078044444 0.008192773 0.04189938 0.010882184 -0.2142139 -0.12146315 0.089160435 -0.14366578 0.123733155 0.031176154 -0.112159505 -0.104549564 -0.11273374 0.08087069 -0.036501642 0.05455783 0.047004722 -0.07233499 0.030069273 0.01156239 0.18854699 0.016940728 0.23709974 0.034410324 -0.12284883 0.16153182 0.16871062 0.14120577 0.075488135 0.1917407 0.030509958 -0.09128645 -0.11445676 -0.21330197 -0.083671816 -0.17419177 -0.09630976 -0.19097318 0.073934 -0.017875101 0.13472468 -0.0614021 -0.059399415 -0.0738418 0.027419895 0.11204117 -0.047967806 -0.0759782 -0.029596776 0.029897287 -0.18986928 -0.15577343 -0.04188227 0.054966945 0.12212646 -0.12106165 -0.10831146 -0.0094335275 0.024493676 -0.099726066 0.069824114 0.026595531 0.053795777 0.034281105 -0.19912104 0.06581349 -0.004727512 0.038435016 -0.08486823 0.073157296 0.07119199 -0.017220726 -0.20155746 0.08065598 0.053479966 0.001874199 0.21039842 0.28670266 0.12158101 0.05511672 -0.021729106 -0.06755196 -0.043413613 0.0573059 0.17448942 0.1691052 0.13609163 0.011125304 -0.09695407 -0.034292854 0.043130934 0.0046547083 -0.018376848 -0.02791143 0.1028769 0.14898697 -0.24828288 0.053942498 -0.051884063 0.24186338 -0.043907635 0.028588308 0.073184416 -0.03709378 -0.05761572 -0.06942346 -0.2195189 -0.0222092 0.033763897 0.06170023 0.026367178 0.007894436
31 -0.03177967 0.07445072 0.08685516 -0.06677048 0.09591821 -0.01071227 0.013494148 0.0115403235 -0.008856929 -0.03975188 -0.0019887977 0.16887029 0.07413154 0.0075464067 -0.006810591 -0.005927173 -0.07041796 0.01173921 0.03965143 0.0064291707 -0.21301967 -0.112216085 0.07852264 -0.14063951 0.12019351 0.024931978 -0.111059316 -0.10752398 -0.10639368 0.08271623 -0.032186773 0.060434707 0.04259564 -0.0673969 0.032457296 0.0026442655 0.18850349 0.019063424 0.23463586 0.03839457 -0.118148424 0.15537798 0.17053929 0.13992967 0.080477834 0.19819018 0.032348953 -0.08685563 -0.114981964 -0.20658162 -0.0847436 -0.16885892 -0.092882186 -0.18893744 0.08229268 -0.022036036 0.12830962 -0.06259649 -0.060122296 -0.06352982 0.025375124 0.10964883 -0.058119707 -0.07606122 -0.03625867 0.03235282 -0.19427243 -0.16058189 -0.039475385 0.055868346 0.11887985 -0.12342063 -0.11031788 -0.010192733 0.024750927 -0.092959054 0.06748967 0.024058606 0.051416893 0.02859691 -0.19875431 0.0630781 -0.0031900397 0.038012777 -0.090942204 0.065623425 0.07500479 -0.015824756 -0.20495354 0.08434635 0.048452176 -0.0008586163 0.2124893 0.28525645 0.12616326 0.05868314 -0.023187988 -0.069042176 -0.050472155 0.057290852 0.18256484 0.17747109 0.14531286 0.012385569 -0.09566286 -0.03548718 0.049705736 0.0034621165 -0.022394493 -0.03152174 0.11151828 0.15400124 -0.26402795 0.056963723 -0.051854935 0.25319663 -0.046259906 0.029860001 0.07574616 -0.04245414 -0.059406318 -0.07619717 -0.22701536 -0.017382175 0.039840672 0.06496945 0.031210843 0.012291605
20 -0.028515926 0.073368594 0.07983719 -0.07052013 0.09221898 -0.010544479 0.014012588 0.0064130756 -0.009278659 -0.045663245 -0.005502588 0.17162243 0.07466884 0.003996852 -0.010593392 -0.0052083987 -0.07278794 0.006331055 0.042272855 0.0069263256 -0.21759409 -0.11974593 0.0877313 -0.14394036 0.123537004 0.026673207 -0.11355453 -0.10834303 -0.11157696 0.0847769 -0.03461984 0.061575074 0.042133152 -0.071969844 0.03489362 0.008612111 0.18840516 0.018618133 0.23629224 0.034985848 -0.119541734 0.15721357 0.17163458 0.13905287 0.081208974 0.19877379 0.030098421 -0.089427345 -0.11537419 -0.2079076 -0.08532975 -0.16735294 -0.09684197 -0.19163308 0.08420146 -0.025375968 0.12786311 -0.058169965 -0.062250864 -0.06595368 0.027336374 0.108179115 -0.04695984 -0.07464412 -0.027256245 0.029087989 -0.19029918 -0.15636876 -0.038491514 0.05215425 0.12061763 -0.12282657 -0.10977367 -0.008687538 0.021486836 -0.09420109 0.06898374 0.020382822 0.051677037 0.02990293 -0.20022558 0.06444785 -0.0041308855 0.037576403 -0.08474624 0.06956839 0.07356247 -0.0111285895 -0.20200467 0.08336819 0.051754113 0.004640812 0.20725448 0.28724238 0.12340435 0.05901436 -0.025159324 -0.068336554 -0.046285644 0.05930858 0.18307266 0.17027143 0.14216423 0.016433138 -0.09298617 -0.03277446 0.043380164 0.003791959 -0.019841617 -0.028902762 0.10307434 0.1471645 -0.25691378 0.052783787 -0.05869191 0.24783933 -0.04384157 0.03149774 0.07370961 -0.037333257 -0.061011884 -0.07578693 -0.22434555 -0.01623718 0.03730736 0.06649187 0.027957324 0.01144124
12 -0.023345955 0.068546765 0.08277075 -0.0665219 0.08987712 -0.0081709735 0.014301046 0.0051515168 -0.0023327528 -0.045400742 -0.0030541576 0.16429985 0.07101172 0.010104184 -0.0052584624 -0.00017409246 -0.075403266 0.008610248 0.043201245 0.010333157 -0.20944895 -0.117446885 0.08774964 -0.140829 0.12387184 0.030178944 -0.10927292 -0.10511502 -0.1087585 0.07812519 -0.031418268 0.061323058 0.045832317 -0.06248003 0.029548138 0.010957909 0.18683073 0.015528899 0.2286613 0.03397004 -0.120241836 0.15102017 0.16906503 0.14098221 0.07201622 0.19497755 0.03268721 -0.083022624 -0.112386726 -0.2131859 -0.088485084 -0.17054668 -0.092045 -0.18504746 0.07520091 -0.024080165 0.13115601 -0.06599915 -0.062019046 -0.06883975 0.025540404 0.11295532 -0.048414793 -0.07918479 -0.03242504 0.031504277 -0.19136584 -0.15522772 -0.037890874 0.051837362 0.1204365 -0.12317169 -0.107759275 -0.012248064 0.019054906 -0.096266694 0.06595616 0.023454117 0.05368141 0.027866242 -0.19484404 0.06245377 -0.0009839142 0.03661581 -0.08907825 0.06576991 0.07132186 -0.016502798 -0.19699723 0.078773044 0.047813483 0.0016943119 0.20998304 0.27870655 0.1200071 0.060214963 -0.016932616 -0.066555694 -0.04536656 0.05484714 0.17178783 0.1689551 0.13674276 0.014734564 -0.0921826 -0.034882132 0.049323224 0.00071503175 -0.018538829 -0.030040883 0.10670339 0.1479571 -0.24550134 0.052874435 -0.055548206 0.24060637 -0.040482465 0.03479179 0.06908339 -0.036411393 -0.055135004 -0.074953966 -0.22047736 -0.014915389 0.03242249 0.061455283 0.027227962 0.013215874
25 -0.027345048 0.06431447 0.07866733 -0.06644807 0.08896808 -0.008302223 0.015872685 0.0124780405 -0.0070557827 -0.040430997 -0.007929142 0.16091278 0.062419407 0.0104297055 -0.011265484 -0.00028866954 -0.07087232 0.0064167553 0.03768107 0.010257806 -0.20118566 -0.110103436 0.08230425 -0.12854819 0.11881901 0.02761447 -0.10754652 -0.101325065 -0.10530833 0.072743125 -0.030055078 0.051592503 0.03829577 -0.058743816 0.033528816 0.004450539 0.17951399 0.016757496 0.22467351 0.030754834 -0.11562133 0.14740652 0.16485193 0.13286798 0.06884104 0.18676125 0.031574912 -0.07757071 -0.10691681 -0.20486636 -0.08117617 -0.16015081 -0.09448378 -0.17645119 0.07419958 -0.01781952 0.124924645 -0.061209828 -0.0597799 -0.06600298 0.01908985 0.10593629 -0.046796042 -0.07413417 -0.02862658 0.030812623 -0.18526193 -0.15474047 -0.037289195 0.04708111 0.11515708 -0.11411961 -0.10602157 -0.0040901173 0.024523426 -0.08977697 0.068996616 0.027657004 0.05124533 0.031971287 -0.18956175 0.056127153 -0.0038756728 0.03760768 -0.08412681 0.06467724 0.06605151 -0.0173196 -0.1965188 0.07643995 0.042864002 0.0020489295 0.20260555 0.27371347 0.117086954 0.05280519 -0.018897802 -0.0701637 -0.04508572 0.049627934 0.17434159 0.16019727 0.13682215 0.010164818 -0.08887673 -0.03830446 0.049461804 -0.001283577 -0.017893454 -0.031021526 0.098759696 0.1451399 -0.2445685 0.056237992 -0.053527694 0.23836249 -0.040691834 0.030182257 0.07135537 -0.03691101 -0.057907343 -0.0692359 -0.21170531 -0.013126442 0.035083774 0.06422216 0.031673554 0.014268989
26 -0.02297175 0.07377847 0.07978342 -0.07062646 0.08812574 -0.007404712 0.01704845 0.007337277 -0.0029141463 -0.044441424 -0.0036866656 0.16245088 0.06907584 0.002734797 -0.0097356485 -0.0045366203 -0.0754063 0.0062109265 0.0445301 0.0070367004 -0.20506822 -0.11767325 0.0849825 -0.13651189 0.11892676 0.025910916 -0.10435736 -0.101508595 -0.107899435 0.078712665 -0.0352301 0.054470234 0.045339044 -0.06380394 0.029193655 0.0053339046 0.17737061 0.020681432 0.2283253 0.029072769 -0.11284124 0.1558491 0.16667923 0.13349529 0.074109025 0.18867129 0.03051836 -0.08518888 -0.106229916 -0.20267498 -0.086949594 -0.1635516 -0.09775333 -0.1750345 0.07521513 -0.021366151 0.13048406 -0.05756374 -0.06072301 -0.06976279 0.024501486 0.10275368 -0.045562547 -0.07573242 -0.02871583 0.023257863 -0.18440196 -0.15114234 -0.039497245 0.052452058 0.12056613 -0.11669589 -0.107293904 -0.012757562 0.023554822 -0.090933874 0.059633568 0.028296823 0.046606135 0.024377655 -0.19288193 0.060493115 -0.0041754073 0.03927501 -0.08808535 0.06440248 0.068160675 -0.016328182 -0.19380027 0.07503761 0.047019277 0.0019896887 0.20172034 0.26618543 0.119033106 0.05875696 -0.02656068 -0.060907383 -0.044601716 0.055366233 0.16613834 0.16399737 0.1286281 0.010993361 -0.089215174 -0.03419819 0.041128747 0.0006195368 -0.016076418 -0.032213256 0.10173034 0.14082006 -0.23837495 0.053412963 -0.05034536 0.23225482 -0.043108582 0.026382081 0.06809381 -0.03922816 -0.059802156 -0.0672632 -0.212472 -0.013757582 0.03608302 0.062252037 0.027434237 0.014280083
17 -0.0251948 0.06858378 0.075312965 -0.062341407 0.087212436 -0.010277345 0.017261488 0.005016942 -0.0053622173 -0.041035186 -0.005054724 0.16352694 0.070992805 0.006332331 -0.006174272 -0.002651599 -0.0721622 0.011493693 0.043139134 0.012604862 -0.20740816 -0.11272475 0.084953316 -0.13476086 0.119410045 0.027992912 -0.1099725 -0.10000425 -0.10332609 0.07849422 -0.032242518 0.059040934 0.04314768 -0.061141565 0.029149752 0.010871824 0.1810586 0.01400664 0.2267554 0.035014965 -0.11671301 0.15034741 0.16431649 0.13452083 0.07594585 0.19152117 0.031222431 -0.08093605 -0.11113512 -0.20125054 -0.081773035 -0.16275072 -0.09332068 -0.1764299 0.0773255 -0.021660246 0.13131413 -0.05970831 -0.05889896 -0.06569557 0.025031159 0.10881347 -0.05029627 -0.07368267 -0.03220937 0.031201635 -0.1806048 -0.15057568 -0.0421001 0.04973671 0.11480057 -0.11782227 -0.100401394 -0.009190454 0.023701536 -0.08715518 0.06496753 0.021888481 0.05254896 0.03214654 -0.18922122 0.060746126 0.00011425013 0.03774248 -0.08191494 0.067140944 0.06996738 -0.012404409 -0.19181494 0.077028476 0.047430865 0.0059420997 0.20387879 0.27441606 0.11554812 0.057962973 -0.01724571 -0.065970734 -0.04207863 0.055314258 0.17497435 0.16378345 0.13474451 0.01131389 -0.09285128 -0.037477538 0.04396471 0.004752594 -0.018211873 -0.029502917 0.10401312 0.14297412 -0.24675731 0.05505656 -0.056716304 0.24281287 -0.040577043 0.028321523 0.07253094 -0.03973282 -0.058473434 -0.07020069 -0.21724421 -0.01438853 0.035821997 0.06246164 0.02527778 0.0154380165
4 -0.027963882 0.06392279 0.07515285 -0.05909041 0.091922544 -0.00908393 0.0087384395 0.006914355 -0.002642324 -0.042795938 0.00016769278 0.1622611 0.06538229 0.0096717 -0.0079526715 -0.0054959697 -0.07384247 0.00990801 0.039489903 0.01302699 -0.2064811 -0.10659451 0.07779237 -0.13065028 0.11701231 0.027234819 -0.10414629 -0.100134 -0.10534009 0.07156006 -0.030624224 0.052794028 0.03969478 -0.057919864 0.034280658 0.002558946 0.18204941 0.015409622 0.2234934 0.03331487 -0.120366864 0.14866987 0.15955746 0.13587832 0.07108214 0.18468517 0.03161636 -0.0778294 -0.11263827 -0.20667167 -0.078241624 -0.16019428 -0.09365029 -0.17602777 0.078422815 -0.018604137 0.12294709 -0.059873935 -0.055191953 -0.06476832 0.02244369 0.10844621 -0.054737415 -0.072805785 -0.034115784 0.032900326 -0.18455815 -0.1486178 -0.042366743 0.04751773 0.11562899 -0.11396458 -0.1030013 -0.005767235 0.018977877 -0.08787247 0.07036806 0.029183077 0.050145593 0.033426292 -0.18604317 0.060190726 0.0014061508 0.034194726 -0.08552876 0.064812526 0.06859027 -0.015833741 -0.197128 0.081026 0.045856547 0.0012419971 0.20903417 0.27123052 0.118960924 0.05002234 -0.016973238 -0.06674152 -0.04068724 0.05570416 0.17743628 0.16082223 0.13963139 0.011047584 -0.09474979 -0.036090817 0.044813264 0.0024920383 -0.022790087 -0.031173663 0.10168683 0.14643852 -0.24788536 0.053653993 -0.04875587 0.24582632 -0.037324555 0.034791015 0.07393519 -0.039730746 -0.056997877 -0.071162984 -0.21801485 -0.014266318 0.037750185 0.06761684 0.027691545 0.016181625
18 -0.026476711 0.06980138 0.081562966 -0.06762916 0.093769595 -0.008715686 0.017841764 0.00930577 -0.005276814 -0.041229617 -0.00036795103 0.16432576 0.071540006 0.005264722 -0.0037576086 -0.001943218 -0.07596116 0.011524004 0.042249862 0.013438853 -0.2076462 -0.11148221 0.08189052 -0.14008802 0.1198229 0.026339274 -0.11229348 -0.10475588 -0.10966509 0.07836539 -0.03539642 0.055907287 0.045532662 -0.06397197 0.034841757 0.007876963 0.18176344 0.018424578 0.23181617 0.03037867 -0.119255215 0.15186727 0.1703636 0.13998798 0.075597055 0.19359371 0.034680057 -0.08814866 -0.10879818 -0.21225113 -0.08940036 -0.16885777 -0.09489151 -0.18337278 0.07818652 -0.022438679 0.12915137 -0.06392911 -0.057267763 -0.06504963 0.027644975 0.11112215 -0.05214406 -0.07809482 -0.029692765 0.027553752 -0.18646485 -0.15289007 -0.03750617 0.053664964 0.11661543 -0.117179595 -0.1097318 -0.005964059 0.023641782 -0.09506532 0.07043323 0.023144046 0.05334266 0.029508267 -0.19807121 0.06384236 -0.0036923005 0.0403876 -0.087674335 0.06720658 0.071464255 -0.015508157 -0.20093381 0.0769129 0.04765408 -0.0007277987 0.2077919 0.28325185 0.121743545 0.054756757 -0.017653957 -0.06803578 -0.047397226 0.056244295 0.17826535 0.17188723 0.13934614 0.016479162 -0.09655829 -0.03737894 0.049494583 0.002776834 -0.016108273 -0.029701466 0.104896 0.14634447 -0.25568908 0.051873494 -0.052747447 0.24768852 -0.04479388 0.036661975 0.07623412 -0.03310932 -0.057156175 -0.07328283 -0.22181828 -0.020171812 0.039008353 0.062814154 0.025928473 0.015823245
0 -0.033851538 0.06896375 0.08872927 -0.06481328 0.099024504 -0.012742605 0.0015879137 0.013811807 -0.007872313 -0.0489709 0.0014452123 0.17398608 0.07284451 0.0023676977 -0.004863517 -0.00934154 -0.075424336 0.0068258513 0.040943168 0.013667385 -0.21608067 -0.11463187 0.07137525 -0.1396131 0.119087115 0.024324736 -0.11110337 -0.11347428 -0.10487054 0.08678633 -0.040167917 0.059696175 0.037464615 -0.06642951 0.04256086 0.007299626 0.19621143 0.03147341 0.2315981 0.046518512 -0.13240406 0.16073664 0.17412643 0.14794253 0.08245672 0.20043859 0.02648103 -0.089081064 -0.116515554 -0.21897046 -0.093976945 -0.17293648 -0.09643622 -0.19388072 0.08933423 -0.020910352 0.1335261 -0.06149923 -0.05841878 -0.06532427 0.018662581 0.10873444 -0.06980009 -0.08295093 -0.03673106 0.03623085 -0.20054577 -0.15191069 -0.048130944 0.054273427 0.1275048 -0.118280336 -0.107681096 -0.007935138 0.023416458 -0.0872522 0.08323414 0.029601863 0.0536281 0.028147109 -0.20964453 0.06327465 -0.0007324727 0.023796925 -0.0864437 0.08149637 0.06540637 -0.017362472 -0.2157748 0.098441206 0.045676623 0.0034369524 0.2308775 0.2874397 0.12680234 0.04992005 -0.023950828 -0.07111348 -0.042967495 0.053321563 0.1941832 0.18137501 0.15429504 0.013096889 -0.090877995 -0.039178513 0.048549924 -0.0034280985 -0.025095206 -0.04256745 0.113374345 0.15604933 -0.27825364 0.07193412 -0.058814485 0.27382717 -0.04348919 0.03567449 0.09879638 -0.043183953 -0.06256698 -0.07783423 -0.23699345 -0.009741822 0.048219837 0.08173591 0.033969156 0.016622089
23 -0.027788969 0.06823445 0.07785244 -0.06920053 0.09219436 -0.009058965 0.014151349 0.0052270647 -0.0051620915 -0.044197906 -0.0023822803 0.15978627 0.066234306 0.008205339 -0.008646247 -0.004574274 -0.0784053 0.006636332 0.038570266 0.008658539 -0.21050736 -0.11243166 0.08707425 -0.1366693 0.118036546 0.028932983 -0.10926319 -0.100491986 -0.1106237 0.07337321 -0.035903417 0.059141945 0.039040554 -0.06368043 0.028920928 0.0052542933 0.1833677 0.02080184 0.22370073 0.036399435 -0.11553034 0.15453963 0.16863906 0.13810298 0.07128706 0.19360803 0.030700944 -0.08464879 -0.11190604 -0.20547009 -0.08331544 -0.16720738 -0.09384571 -0.18395773 0.07829911 -0.023223083 0.12829311 -0.065790705 -0.05871802 -0.07152596 0.023918878 0.10677751 -0.047133945 -0.07843728 -0.029102765 0.03288203 -0.18494986 -0.15302299 -0.043202862 0.053858154 0.12062326 -0.11474205 -0.105082445 -0.004383507 0.025494188 -0.09500527 0.06883306 0.029696958 0.04908723 0.030156633 -0.19549093 0.061368465 0.0013274323 0.036160793 -0.08693855 0.06619268 0.06776851 -0.018587202 -0.1974028 0.07479868 0.04499079 -0.0011663547 0.20900597 0.27791905 0.12049244 0.053384103 -0.020341463 -0.06955812 -0.045378614 0.055826023 0.17254518 0.16746138 0.13712002 0.015873538 -0.096674636 -0.03432038 0.04352547 -0.0008365374 -0.022336422 -0.034147825 0.1061715 0.14668398 -0.24824795 0.055150248 -0.052013822 0.24093808 -0.04566715 0.02970595 0.07107713 -0.033399284 -0.06031186 -0.06922606 -0.21587381 -0.017591977 0.039009344 0.06508094 0.027291926 0.013588334
3 -0.038131177 0.07183028 0.09281109 -0.070434965 0.10038032 -0.008198338 -0.0011059813 0.011713487 -0.010630311 -0.049275376 0.0005253223 0.17134145 0.06631098 0.0008120159 -0.0036338093 -0.011228663 -0.07306147 0.0039124787 0.038818475 0.012490294 -0.21779037 -0.11278966 0.07037949 -0.13218021 0.11720668 0.019077731 -0.11259776 -0.11561638 -0.105184235 0.08558878 -0.03751904 0.06137788 0.037261575 -0.06481211 0.042559166 0.0057758647 0.19609131 0.026750358 0.23131132 0.04496186 -0.13088 0.1569044 0.17378357 0.14887033 0.0859973 0.19685088 0.02609984 -0.08546804 -0.12205386 -0.22134534 -0.09563641 -0.17003976 -0.09808114 -0.19087642 0.08805705 -0.017969692 0.13734908 -0.06382783 -0.06393794 -0.06394311 0.023702439 0.11189797 -0.07177718 -0.084582776 -0.04104257 0.038658608 -0.20444807 -0.15673064 -0.04718603 0.049468488 0.12754321 -0.122270726 -0.11426926 -0.0014391919 0.029427283 -0.08742958 0.087747976 0.03569254 0.04984323 0.03498319 -0.2155837 0.059120573 0.00526056 0.024977343 -0.09079683 0.08107775 0.06962193 -0.018840963 -0.21561229 0.09259306 0.046749305 -0.0012803117 0.23456699 0.29355264 0.12876515 0.054828197 -0.022882251 -0.07162052 -0.04671991 0.05783179 0.20091401 0.1867866 0.15974794 0.015406835 -0.092041865 -0.038490914 0.05024681 0.0014913927 -0.024672283 -0.041684326 0.11582352 0.15679435 -0.2840398 0.06949245 -0.05462372 0.27198017 -0.04369319 0.03348228 0.101370566 -0.03907212 -0.0661661 -0.08498117 -0.24044877 -0.014840772 0.049304098 0.079034194 0.034270197 0.016243707
30 -0.02581155 0.07436352 0.08735217 -0.06562773 0.09166773 -0.003981181 0.010612992 0.00958396 -0.0069738603 -0.042320255 -0.0056532603 0.17012079 0.07201569 0.0032935815 -0.004241606 -0.004748809 -0.07527041 0.012140541 0.040917266 0.015146422 -0.21587852 -0.12207924 0.08378015 -0.14612813 0.124346614 0.027463727 -0.10973452 -0.11055368 -0.115325645 0.080742106 -0.037451 0.0575112 0.04501351 -0.06842185 0.033384636 0.005253042 0.19340844 0.021954874 0.23992474 0.036743015 -0.121043034 0.15952672 0.16681737 0.14219537 0.07846342 0.19648027 0.030598521 -0.08944997 -0.11520867 -0.21940595 -0.09185998 -0.16736627 -0.09383689 -0.19299628 0.07788625 -0.02127575 0.12739813 -0.060178604 -0.06205749 -0.068576925 0.02278956 0.11370087 -0.05042388 -0.07636403 -0.033658616 0.033394877 -0.19364275 -0.16293184 -0.03896872 0.05081616 0.12712225 -0.12209045 -0.109505504 -0.0067364313 0.026110742 -0.09424352 0.068654254 0.024746493 0.048187915 0.026863398 -0.20654897 0.06200609 -0.0030098213 0.03737074 -0.08936763 0.06833345 0.07508125 -0.014699487 -0.19998473 0.08071486 0.045612916 0.005430271 0.21409069 0.2892967 0.12649557 0.05777867 -0.02669153 -0.071640365 -0.051831942 0.054151863 0.18185148 0.16871075 0.14042221 0.017561983 -0.09600171 -0.034758892 0.049789082 0.0022945225 -0.021693207 -0.03059008 0.10934241 0.1518278 -0.25750268 0.054268565 -0.057033464 0.24670212 -0.04523821 0.03563355 0.07648748 -0.043327313 -0.06250005 -0.07357653 -0.22155122 -0.0176131 0.04010466 0.06257239 0.029413192 0.01379797
19 -0.031256035 0.072988406 0.080654 -0.06730763 0.09345305 -0.011814494 0.018932398 0.00649823 -0.0034083463 -0.04005702 -0.005307904 0.16738275 0.06956807 0.00900011 -0.0098311715 -0.006700649 -0.07239028 0.012598762 0.039781913 0.016177438 -0.20925078 -0.11699992 0.085769616 -0.14264984 0.121927716 0.025895959 -0.10542489 -0.105427444 -0.11215736 0.07626914 -0.03073318 0.06085936 0.04881048 -0.061573856 0.034657203 0.011560754 0.19031459 0.014813941 0.23301534 0.030690866 -0.12276605 0.15738176 0.1651843 0.13842283 0.072000735 0.18930896 0.03744543 -0.088046595 -0.115999036 -0.21492326 -0.086816825 -0.1686058 -0.09827931 -0.1849785 0.08132396 -0.018656433 0.12605384 -0.06454563 -0.060709883 -0.066845275 0.021638101 0.113953926 -0.05369106 -0.077762246 -0.031067453 0.031698048 -0.1881538 -0.16124356 -0.03657042 0.056431867 0.12224033 -0.11767551 -0.10872183 -0.0052246903 0.017994057 -0.09658051 0.070029445 0.023622576 0.046727743 0.027036475 -0.20162462 0.06823697 -0.0013608359 0.036093753 -0.091205284 0.0680678 0.07013941 -0.017432796 -0.1976441 0.081505574 0.046282005 0.0026409116 0.2127402 0.28213722 0.12457257 0.055986878 -0.02020879 -0.06519407 -0.042497113 0.051914304 0.17567241 0.17113447 0.1428276 0.017969565 -0.094672404 -0.033013556 0.050411254 0.003819591 -0.013815943 -0.032880638 0.103534944 0.15356155 -0.2573773 0.058454413 -0.054509297 0.2467906 -0.04089057 0.032638058 0.06820183 -0.03651322 -0.057142682 -0.06939005 -0.2184804 -0.012874754 0.037583075 0.06635785 0.029604506 0.016167587
24 -0.027612109 0.07006995 0.07982946 -0.06587629 0.09106142 -0.006372595 0.016209848 0.0090536345 -0.006681291 -0.047812767 -0.010800406 0.16651657 0.07278334 0.0014163551 -0.0032937622 0.0006258815 -0.08189849 0.006653246 0.036930118 0.013938116 -0.2113987 -0.11148661 0.08977464 -0.13976753 0.12408959 0.031413365 -0.107823715 -0.101570696 -0.108119495 0.07407802 -0.032998614 0.057316184 0.040052354 -0.063998975 0.02913923 0.010548779 0.18521094 0.013745847 0.22565883 0.03179846 -0.12210686 0.1554809 0.16507293 0.14291328 0.07616846 0.1988585 0.035851255 -0.08781021 -0.11585276 -0.20916168 -0.08593466 -0.16484998 -0.0904817 -0.1865105 0.072854295 -0.01989209 0.12765701 -0.06477419 -0.056589596 -0.074409306 0.024266846 0.11046513 -0.044612523 -0.081312895 -0.033208296 0.027275404 -0.19286583 -0.16028741 -0.04285565 0.05155292 0.12194107 -0.1204772 -0.1063941 -0.008997239 0.027771946 -0.08857877 0.07244803 0.026921561 0.049236204 0.030994553 -0.1982503 0.061373144 -0.00041914958 0.04044075 -0.08956549 0.06904215 0.073999 -0.022590445 -0.19940393 0.0788061 0.04986302 0.0069459253 0.20337613 0.28265154 0.1197872 0.061787594 -0.023971014 -0.06939492 -0.048039798 0.048009057 0.1720618 0.16263801 0.13823515 0.014000153 -0.09799958 -0.03519479 0.04341258 -0.00035369524 -0.021882394 -0.034056682 0.10361027 0.14922312 -0.24249688 0.05405208 -0.052117683 0.23866133 -0.04135446 0.033497624 0.07307418 -0.03873612 -0.057905637 -0.07046481 -0.21746768 -0.019648561 0.037243273 0.057956714 0.032049645 0.007694489
